,E0,E1,E2,E3,E4,E5,E6,E7,E8,E9,E10,E11,E12,E13,E14,E15,E16,E17,E18,E19,E20,E21,E22,E23,E24,E25,E26,E27,E28,E29,E30,E31,E32,E33,E34,E35,E36,E37,E38,E39,E40,E41,E42,E43,E44,E45,E46,E47,E48,E49,E50,E51,E52,E53,E54,E55,E56,E57,E58,E59,E60,E61,E62,E63,E64,E65,E66,E67,E68,E69,E70,E71,E72,E73,E74,E75,E76,E77,E78,E79,E80,E81,E82,E83,E84,E85,E86,E87,E88,E89,E90,E91,E92,E93,E94,E95,E96,E97,E98,E99,E100,E101,E102,E103,E104,E105,E106,E107,E108,E109,E110,E111,E112
ACN,33.19561,-13.459057,-36.347813,30.288084,-4.6217914,16.463293,27.703257,-33.292984,10.024036,-21.757498,20.893873,-9.980742,36.16398,18.594688,1.7198017,-14.32397,-18.60927,-4.8983445,29.217531,3.7176986,-36.95977,-13.529407,26.601423,13.121266,4.0237603,-5.402734,26.110893,-17.606035,-2.3571,16.450323,12.741155,10.930145,12.575082,4.6350713,-4.6502194,10.668884,1.4990513,9.179987,-21.666862,-31.923988,2.7384546,9.620038,-3.4063237,-26.279444,-23.93506,-33.178604,-18.265785,31.728558,20.911385,30.395714,-27.971334,14.013293,11.5735445,-6.522838,7.565733,-33.578556,-28.725088,-16.83251,-37.739677,-42.86602,-21.512823,-34.278095,33.463562,10.63879,50.34871,-18.857334,3.9143453,-8.139231,-15.807339,-1.3923535,22.50639,-24.65182,6.02179,15.830854,-41.413425,24.262976,36.978413,23.259579,-20.940868,21.327768,-14.5946,-28.811924,7.8756886,26.798294,34.237713,9.13216,25.1435,25.869001,11.460715,-25.86883,-3.9461365,15.567123,-41.000866,1.7010785,-9.44895,11.699664,23.806963,-25.635292,4.825099,-22.482805,-24.733355,7.918613,-17.91906,16.207218,-10.526162,13.741415,0.10730641,17.467407,-37.034195,-33.90402,12.019019,-6.414029,20.646524
TK-10,7.7381616,16.652315,28.97179,11.4615965,-19.56557,-18.106281,-23.62094,-0.9237479,-23.951654,6.838201,-15.963126,-16.491598,-17.27401,-6.0203505,9.672758,-3.1735442,12.079646,-5.710836,-21.331024,11.4783945,-4.2646365,-2.0837085,-18.476347,12.361617,13.516935,16.393284,9.555582,16.359646,-11.72271,-15.050497,-1.382638,17.584154,-14.77369,4.2845936,4.0731792,-10.353461,-9.21464,-17.505613,20.636326,30.864285,-4.3546095,21.897686,-12.418709,12.189702,18.81496,23.548525,-5.8407416,-12.386624,-27.56158,-18.428223,33.19599,14.148624,4.3302574,-4.3191733,14.401741,25.565289,22.633772,3.3502896,-2.86158,9.950978,13.301806,-15.72667,-26.15605,-4.2508693,6.862729,-11.687448,15.130533,-13.660121,9.975358,17.601635,-15.821502,18.349586,-20.627,-9.09841,-10.85291,-21.81017,9.576338,3.1894684,-12.185875,4.467871,-13.657507,23.190557,12.835211,-9.273705,9.88334,-19.129135,-26.154045,-19.555508,-24.914658,16.368805,18.55354,-14.137341,-7.7146797,-0.23607162,8.479724,-1.1849923,-30.888464,13.65888,-15.870757,14.822695,-15.160551,-23.780262,21.183933,16.776379,12.285235,13.900073,-11.425987,-30.18409,19.957706,35.223476,22.17001,-8.038492,-17.351608
SK-HEP-1,18.259073,-9.740183,-24.545416,18.555584,-2.487121,10.175063,19.931412,-19.87096,11.096781,-17.055506,11.8083,-5.899895,22.288828,9.582325,6.4909716,-7.35381,-10.540366,-4.4784636,19.167507,2.026666,-26.869667,-10.228975,17.438652,9.552853,-0.43514925,-2.940667,16.468102,-11.687985,-2.0757835,10.351597,4.580071,4.8339753,9.161184,1.2272825,-7.640314,6.239923,-0.55389106,5.923018,-15.734204,-22.590746,3.4610624,5.226913,-0.25995162,-16.649387,-18.953625,-22.09584,-13.727847,23.67884,15.42228,21.03585,-20.26643,7.785772,6.942444,-3.2529252,5.584566,-22.063871,-19.564962,-14.594753,-29.26952,-27.813072,-18.54081,-19.137922,22.064163,4.6846333,31.03846,-8.827562,-2.1002576,-7.407944,-12.545622,-5.0752687,13.712277,-18.390827,5.817468,12.567145,-26.288336,15.454433,19.54592,17.114271,-12.527778,12.911105,-9.137608,-19.774443,3.724914,18.280615,20.11442,7.8788776,18.551554,17.474537,11.141411,-18.445034,-1.6935049,12.214565,-25.216122,4.4158425,-6.4382396,6.860181,16.919998,-16.407953,5.951697,-16.081171,-11.338998,6.2424293,-10.664821,8.675446,-7.237389,4.45111,2.1909466,12.019684,-24.735662,-23.923552,3.8588705,-2.5633836,15.438043
Mono-Mac-6,15.683606,11.884401,13.264739,4.0674043,-17.208569,-3.5301409,-16.332714,0.74505305,-20.498074,2.5379558,-5.855385,-12.311025,-1.455697,-0.033039596,-0.33965743,-8.916696,5.0897536,-12.4140835,-6.298873,6.263346,-5.225723,-0.41775393,-9.995863,7.524423,0.3927784,20.151243,3.8247528,7.246203,-10.285947,-6.7378063,2.4399447,3.2098134,-11.53934,0.66698307,9.093877,-2.275291,-5.2082877,-4.304578,16.21197,15.61769,4.530466,23.132595,-14.504944,6.3904896,7.902912,3.4057462,5.0524178,-5.8798447,-20.919357,-7.375992,21.99678,20.123823,1.1193073,-8.120529,3.0131757,6.5212913,0.17166258,-1.0517387,1.8067672,-7.1656175,8.339634,-16.052916,-9.243806,6.954672,14.8383,-14.263042,11.9152775,-18.022486,5.86611,9.783287,-5.189049,16.151709,-17.185814,-9.842828,-13.668122,-8.466659,15.418239,8.956468,-13.282081,10.162899,-15.49979,11.290139,2.4164174,-0.07470074,13.423096,-5.833127,-13.0982,-5.964993,-9.86399,10.211625,11.608699,-5.762634,-16.872726,13.135064,2.8090227,5.2484717,-14.028398,-3.974651,-8.599364,1.7906106,-15.5699215,-19.822895,12.205142,19.644882,12.871632,10.003529,-9.265332,-14.203798,8.304384,17.399778,18.592527,4.3023243,-9.559902
NCI-H838,4.8600016,2.4482605,2.7059689,4.0786653,-3.5529315,-2.0844107,-5.121475,-1.1819984,-5.120346,-1.2434958,0.01143983,-3.205318,0.6886244,-0.75565785,0.65356326,-3.3792543,0.09616327,-0.013816625,-1.6542771,2.4712088,-6.080442,-0.9870984,-2.0680995,1.9362847,1.633574,1.4186866,3.642481,2.2373347,-0.92311233,-3.6893892,2.8008702,4.5628524,-1.9286122,-3.4661398,3.5987992,-0.8283969,0.79003626,-2.2385104,4.54112,4.1294384,-1.8191745,2.8463418,-3.36223,0.7080117,1.6843872,0.9261349,-0.43090838,-0.6789789,-5.750326,-0.8827885,5.846674,2.1857235,-2.4918718,-0.46725398,-0.9107332,0.2142612,1.5149071,0.78884226,-2.3057022,-0.8370201,1.2555052,-4.0508685,-3.4426055,3.9290676,3.8632343,-3.2555447,2.3185947,-3.251231,1.7102473,4.5374255,-1.1937261,2.4375303,-4.535877,-1.5331651,-2.7204287,-1.7977651,4.461035,0.96725225,-1.7963009,2.2042308,-2.044572,5.010519,0.27876952,0.78944874,3.1333435,-2.012294,-2.5313582,-2.199661,-1.7636298,1.868225,1.7040834,-2.9261544,-4.503038,2.5504053,-1.6395752,-1.9925878,-3.7597148,0.37508425,-1.3931121,0.3355999,-5.5144477,-5.5308933,2.3663116,3.97351,0.9115927,3.8870213,-3.2972925,-4.016194,0.87570053,5.202699,4.1194696,-0.10212908,-2.378961
SW1417,24.837698,-13.499688,-32.70872,24.680988,-0.08817076,11.616189,22.48147,-25.289677,11.105281,-17.945076,19.039225,-2.9654272,31.84664,14.955692,4.973507,-11.686585,-15.716304,-4.741741,24.498476,1.4214356,-34.397194,-10.556198,23.547602,8.385818,0.122449726,-6.4171047,24.275423,-15.87511,-0.35985288,12.424096,9.367134,8.342816,13.412307,2.8805823,-5.5221677,10.766222,3.086553,6.4884057,-17.59044,-27.935223,3.156807,4.4115896,-1.8685532,-23.001474,-24.067432,-28.185589,-15.870655,31.165728,18.88911,26.918491,-24.529245,6.5316606,4.274689,-2.179928,2.2796304,-30.807196,-24.122082,-14.96769,-32.796024,-36.250774,-21.016935,-22.7779,27.007496,9.062839,39.648434,-11.49826,-1.6458462,-6.5852766,-14.68434,-4.864482,19.543629,-21.636478,7.537075,15.169346,-32.33522,22.954199,25.971933,18.292713,-13.423044,15.148923,-6.5272865,-22.765041,5.1576366,23.872988,24.053577,9.070536,24.4012,21.192549,15.723145,-23.549349,-5.620545,13.5739355,-31.98448,6.347526,-12.784753,4.971762,22.593979,-21.481655,7.7012672,-17.922384,-15.619257,9.576376,-15.795198,10.358116,-10.505675,7.3337264,0.6236088,15.60619,-32.450996,-28.40664,4.6287203,-0.9362753,19.334774
HOP-92,40.036495,-22.388466,-53.371796,41.938362,-3.2333777,20.544651,43.10654,-45.186344,22.784712,-32.783466,27.749249,-10.469629,48.609478,23.97437,11.656461,-16.500454,-24.364183,-7.6941133,40.869713,4.0400953,-54.459663,-20.450035,39.745804,19.024706,4.0666375,-9.980622,37.496605,-25.917877,-3.0559485,23.775255,11.747161,13.361714,21.70884,6.655632,-15.599948,14.604042,0.34253034,10.957622,-34.259438,-48.570072,6.0770545,10.119994,-0.4582854,-38.402706,-38.055885,-44.932938,-30.733595,49.862343,35.6744,43.706474,-43.938206,14.618198,15.19674,-5.5784736,13.004013,-46.58049,-38.57264,-27.288685,-59.871532,-58.47784,-36.747852,-41.462837,46.607403,8.522532,67.10837,-19.950941,-1.8203335,-10.399565,-25.975128,-8.319788,30.975735,-39.815388,13.524919,27.568663,-55.976494,33.770138,43.45729,33.70835,-26.287539,25.886227,-16.21085,-43.345165,12.2527685,38.474052,42.60113,13.339094,38.18395,36.196377,19.801088,-41.17106,-5.5812335,24.689669,-52.80531,3.2459114,-14.379095,13.542578,35.02698,-32.619797,10.505889,-31.155256,-25.050137,16.528437,-24.64189,17.21689,-17.928078,12.033334,4.576166,24.972849,-53.429638,-50.233032,9.227643,-8.83301,32.411205
SK-MEL-28,24.301815,-10.290632,-26.057878,19.67163,-2.9191678,13.51586,18.997358,-25.557554,6.5109487,-14.49203,16.051807,-6.9134245,26.184072,13.961341,1.1541003,-11.690657,-14.184273,-4.392437,20.498474,2.169131,-25.53194,-10.455846,19.178673,7.958721,4.27908,-3.5562634,17.741667,-13.593641,-2.0313604,13.384227,10.861597,7.875704,9.1276045,5.0688176,-1.3577785,8.774672,1.9361657,6.0040326,-15.19032,-21.336813,1.6101296,8.341012,-2.0173936,-19.806532,-16.179516,-22.39043,-14.375723,20.018135,14.855408,21.389269,-18.237303,12.771101,8.285532,-7.137542,5.4614406,-22.147663,-20.093641,-9.339823,-25.511095,-29.881126,-14.728701,-25.851658,23.332514,7.4623976,35.59542,-15.413636,4.757358,-5.150819,-10.506648,-0.21589933,16.876314,-17.123583,3.9008453,11.438926,-29.520561,17.028101,26.83781,16.10632,-14.747396,13.433702,-10.407004,-22.26898,6.871175,19.72913,24.389536,6.226828,16.703392,16.14909,6.181234,-19.388248,-2.9424949,11.502306,-29.701284,-0.8233484,-5.2589054,9.116139,17.001926,-18.338865,3.4450574,-16.563278,-17.391682,3.9048572,-13.724548,11.606047,-8.030502,9.75118,0.6991333,11.038652,-26.676857,-21.46399,10.401789,-5.413938,15.041272
TE-12,15.065797,-11.582381,-24.838488,17.77401,2.8287692,7.5695944,17.222935,-16.87733,11.174815,-14.574236,13.625822,0.70845234,22.927917,9.072827,8.17585,-8.36017,-11.430451,-3.0550916,17.12175,-0.16195825,-27.900267,-8.638042,18.134706,4.5255785,-1.6801034,-7.129595,19.285444,-11.467773,0.9808933,8.705815,4.8320193,5.536572,11.954046,0.0056739077,-6.826133,8.32344,2.8070242,3.576322,-14.035588,-20.904085,2.3946898,-0.57129884,1.8884636,-17.621391,-19.631834,-19.710585,-13.512014,25.431995,15.647892,19.560574,-19.885452,0.6174302,0.38745198,0.19327424,-0.5726732,-23.60009,-17.368547,-13.051089,-27.275707,-25.65591,-18.420761,-11.998824,19.301712,6.0055895,25.921644,-4.660965,-5.0114727,-4.624981,-11.358971,-6.2233005,14.461582,-18.584486,7.598426,13.588534,-20.560163,17.66431,14.46979,13.15202,-6.9431176,8.343787,-1.2936434,-16.643373,0.86303765,18.061256,13.374058,8.175094,19.757557,15.00554,14.794884,-18.919165,-4.2163296,10.594614,-21.410097,7.6927695,-11.27559,1.1897178,17.934814,-14.099478,8.598481,-12.734137,-6.747074,9.244027,-11.980279,3.8791034,-9.741113,1.8295251,2.1749744,12.436816,-24.284554,-21.138433,-0.48529753,1.420089,15.54114
ETK-1,16.590992,-13.687291,-29.211987,21.597288,2.3998427,8.721169,22.568438,-19.78219,16.03294,-19.52869,13.642193,-0.72171736,25.236168,8.27782,13.345776,-7.9903693,-12.167538,-2.9996374,19.469168,0.6500858,-34.669064,-11.503717,20.86206,7.271575,-1.3537204,-8.979601,22.880917,-13.138269,0.42864272,9.747322,3.035092,5.771153,14.083914,-2.4698694,-11.620817,7.8154964,1.3024428,2.957878,-18.669357,-25.050875,3.5108287,-1.2725254,3.9547775,-20.414461,-23.606258,-22.547136,-18.63266,30.420916,20.009218,23.126392,-24.4665,0.54852104,1.1542006,-0.043461174,1.0007892,-27.189423,-20.383722,-16.915276,-36.732487,-29.652403,-24.092854,-13.998336,22.773172,5.1177006,29.592949,-4.7640343,-7.3359036,-5.7829576,-13.121944,-7.815716,15.502912,-24.67695,9.169934,17.738104,-24.066385,19.326464,15.879865,17.096315,-8.708022,9.503398,-2.8265836,-21.580893,-0.20344722,21.27292,15.291937,10.2790365,23.766554,17.4568,17.101057,-23.554672,-2.650612,12.825082,-24.983131,8.635351,-11.59774,1.644828,20.523823,-14.609351,10.658503,-16.3185,-6.3755217,9.738312,-13.05453,3.2860193,-12.4464245,1.0885932,3.6189957,13.915356,-29.20229,-26.137274,-1.5837456,0.47161713,18.962847
HCC1599,9.722748,-8.312114,-18.306484,8.139825,2.948568,7.2522492,13.94098,-11.41374,10.141021,-9.432642,9.05324,2.3188496,16.925262,6.846782,8.713812,-6.239363,-7.545359,-5.749437,14.016461,-1.2052659,-18.871336,-6.6727815,12.818245,1.5677114,-3.5319185,-4.266502,13.114101,-11.300974,-0.5363669,8.174473,1.283706,0.8708461,8.650589,0.93868476,-4.573865,6.9771633,0.8651714,3.8407133,-11.566033,-15.29987,5.1672764,0.24334434,1.3450564,-12.859211,-15.75823,-15.853731,-9.399803,17.522902,13.171954,15.224316,-14.707687,2.7487082,-0.66168046,-0.73527,-1.4020867,-17.03628,-15.111173,-10.394937,-18.562883,-19.741201,-13.309044,-7.0953865,15.876778,2.610606,17.175726,-2.8137512,-5.0112767,-3.2625856,-7.375895,-6.8199964,10.630263,-13.800458,5.596355,10.039329,-15.489681,13.133343,8.095434,11.891512,-5.019517,4.309595,-2.0677052,-14.658162,3.306593,13.972091,8.736248,8.598799,15.217199,10.6771145,12.548899,-14.204323,-2.7062798,9.153284,-16.014977,7.466496,-6.0566316,2.7172165,15.096275,-12.546385,6.693786,-11.3383875,-0.4330971,6.035383,-8.465902,3.097627,-7.2894945,-1.4447052,4.6325765,8.747265,-17.929176,-15.678278,-2.6509314,4.6553926,12.453714
EFM-19,10.894448,-6.1457934,-13.602392,9.318652,0.6070621,4.981617,8.703628,-10.594927,3.7719963,-9.282103,8.711487,-0.8610071,14.288301,7.5490427,1.7076285,-6.646705,-6.911224,-2.6523826,10.891421,-0.16298929,-16.36344,-6.13999,9.701276,2.9165802,-2.1538181,-1.8786035,10.108689,-8.1373005,0.33300793,5.1280174,4.756023,3.2775066,6.102929,1.0453652,-0.45130306,5.7469215,1.7118399,3.82699,-5.837284,-11.834469,0.8711151,3.3073103,-0.5189526,-10.286709,-11.065329,-13.562536,-5.5913105,13.25113,7.365673,11.905455,-9.900396,3.320037,1.4550476,-0.8495712,0.8461052,-13.470446,-10.679594,-7.0038633,-13.287586,-16.271603,-9.701831,-9.565167,12.02676,5.7033844,16.587666,-4.2508354,-1.1222028,-5.2438345,-6.9971604,-3.23906,9.013472,-9.358291,3.0003304,6.9172754,-14.044062,9.906325,10.772352,7.8286214,-5.8242507,7.2258744,-3.22792,-8.121849,1.6910696,11.101978,10.407313,4.6321015,10.7073345,8.539662,7.7764974,-9.813932,-1.73906,6.4297915,-14.132274,4.363345,-6.5539045,2.5092864,10.377227,-11.171198,4.390078,-7.8614416,-7.0772023,3.4753668,-6.99244,4.819265,-4.6570964,2.7180998,0.5074822,6.266122,-13.568547,-11.575847,2.1068225,1.3629254,8.73053
EW-11,25.058456,-12.69902,-30.024963,25.687271,-3.3496094,12.761641,21.05902,-25.174175,10.633346,-27.036667,16.808521,-9.75455,29.30803,11.460306,5.933449,-13.887747,-15.121184,-2.2804396,23.181046,2.7419665,-40.91403,-16.46875,20.8183,12.9521265,-2.084071,-3.083767,20.762136,-13.007865,0.008907281,9.109588,10.225117,9.615621,11.964056,-2.7763555,-4.964617,8.570964,2.1759396,6.886935,-15.024251,-26.286983,-0.8285811,8.105606,0.5386941,-21.418236,-24.305498,-28.247004,-17.105618,29.058947,15.150157,25.908098,-22.40266,9.874934,7.647105,-4.942528,6.3573217,-28.769142,-23.061764,-18.522646,-38.20615,-33.44669,-25.730293,-26.154877,25.394892,13.662443,37.902477,-11.132647,-3.0163088,-13.940831,-16.213099,-5.1889415,17.393482,-24.287369,6.0917087,16.966846,-31.521845,19.066587,25.632751,20.020376,-15.054877,17.95432,-11.829883,-19.493383,-0.26508212,24.860157,25.025463,10.667669,23.129068,19.060177,15.124857,-22.978916,-2.463537,15.11679,-32.262074,8.2132435,-11.618098,6.986199,20.989208,-21.34445,10.405969,-20.83789,-19.162611,4.4137154,-13.845043,10.601739,-9.862539,7.587216,0.3623459,13.493767,-31.334133,-27.256433,7.4887767,-3.8952463,19.773258
CHP-212,6.5513363,9.102404,14.318814,4.9779973,-11.543552,-7.858935,-11.781026,-0.67663085,-14.787539,2.4176111,-7.2823253,-10.1771555,-6.3466463,-0.2539472,1.2496834,-3.2472908,5.7554855,-4.9329543,-8.401273,5.689665,-2.312023,-1.4919859,-9.034489,7.853564,5.0248823,11.555676,3.0429547,8.302386,-6.6245146,-7.31532,0.8348232,7.951214,-8.401282,2.7570841,4.413862,-4.3576856,-5.197308,-5.8738537,11.876312,14.198118,-0.8603678,15.407571,-9.440869,5.88899,8.859842,8.74791,0.6959678,-6.0088797,-14.738691,-7.7657046,17.147837,10.465368,4.584338,-2.8842635,8.7036495,12.123525,9.262638,0.499554,0.974996,2.030155,8.1431,-10.247027,-11.295644,-0.059250794,7.2571197,-7.354539,8.4700165,-10.244069,3.6114383,8.572397,-7.095138,10.681822,-10.94517,-5.824788,-8.94068,-11.008388,7.5944505,2.638857,-8.639838,6.1360297,-9.861803,11.814378,7.922699,-3.326686,8.273647,-9.318183,-12.954779,-8.04507,-12.338975,9.151468,9.255848,-5.711782,-6.4103374,1.4667876,4.2243905,2.3696837,-15.742591,3.0234847,-9.644579,6.5748963,-11.018476,-13.179029,10.705612,12.048376,8.085443,8.123665,-6.6003737,-14.622692,9.992114,16.444618,13.069689,-2.6708333,-8.7120075
SW948,15.311281,-9.688469,-22.499828,13.757035,1.1510472,8.345923,13.992439,-15.101814,7.815326,-11.16533,13.181166,1.1814452,22.33455,9.400625,5.601848,-8.788338,-10.389224,-4.9584036,16.561047,-0.7400123,-23.550356,-6.779971,15.854425,3.0959387,-3.2105412,-3.3003798,16.229801,-10.585309,0.16529718,8.7897,6.005316,3.3621228,9.771354,0.8035191,-3.271144,8.991963,3.3147328,4.227694,-10.996839,-17.654934,3.8483863,2.699115,-1.2481419,-15.264077,-17.800726,-19.207558,-10.509694,21.704908,12.403629,17.896414,-15.352363,4.1751275,-0.2784379,-1.640125,-2.2697084,-21.74686,-18.304443,-10.252329,-21.373135,-24.812069,-14.580585,-12.21127,18.446928,7.434538,24.771755,-6.2753496,-3.5027194,-5.4067245,-9.253111,-5.6165433,13.810144,-13.496798,5.6281915,10.311044,-19.565979,17.074919,14.66934,12.794696,-6.839158,8.007752,-2.5558722,-15.846137,1.7522058,16.821499,13.404847,7.956608,17.683874,13.453664,13.622623,-16.582073,-4.686152,9.966057,-21.356213,8.764332,-9.846263,1.8823311,16.8018,-15.877311,6.75957,-13.012073,-7.2704544,6.63757,-11.000641,5.8700404,-6.6683636,1.9343494,1.0864567,11.093042,-22.170673,-18.30056,1.0125557,3.138408,13.901836
D-502MG,23.645048,-11.444363,-29.375141,22.707464,-2.3878417,11.889258,24.637857,-24.560953,11.5785675,-16.251745,14.903598,-6.072331,27.923643,14.675127,5.6646852,-9.467882,-13.372861,-5.827308,23.668295,2.5957377,-28.309425,-10.734763,22.215979,10.553554,3.1780117,-4.733602,21.636982,-15.332148,-2.6736996,14.243714,6.393791,7.334285,11.016884,4.409689,-7.2059717,8.195666,-0.97089803,6.5948944,-18.742264,-26.822725,4.300789,7.484897,-1.9332625,-21.01004,-20.77611,-25.597527,-15.154716,26.86631,19.898144,24.13001,-23.918592,9.717045,9.131661,-3.730851,6.9811854,-25.959429,-22.48651,-15.024044,-31.645615,-33.853092,-18.764381,-24.516481,27.350883,4.4305806,38.76929,-12.99125,0.67332774,-5.9300475,-13.618563,-3.7320716,17.53588,-20.486492,6.516602,14.266724,-32.832783,19.07819,26.588114,19.133747,-16.1428,15.44439,-10.377781,-24.802626,8.888314,21.031237,25.085249,7.646657,20.751371,20.76092,10.065014,-21.647703,-2.8650565,13.776098,-30.820988,1.0827329,-7.1599393,9.003425,19.328278,-19.173555,4.365091,-17.074892,-14.427156,8.932998,-13.37378,11.613268,-9.272843,7.4783225,2.0360153,13.7332,-29.051136,-28.39868,6.05669,-3.941198,17.48011
GI-ME-N,23.110548,-11.013406,-28.947432,24.17218,-3.495509,11.549663,23.506775,-24.109924,11.980972,-21.071001,14.382466,-8.954284,27.562256,13.042163,5.440578,-9.452437,-12.977772,-4.727383,23.573822,3.5561244,-32.9261,-12.793197,21.205715,13.0199995,0.59316707,-3.2984536,20.40382,-14.738224,-2.3786592,11.361094,6.2592177,7.956916,10.072459,2.2806795,-7.43551,7.0852075,-1.2977233,7.7971034,-17.292648,-27.874062,2.7443733,7.5010996,-1.4608433,-20.082277,-22.291162,-27.625969,-14.397959,28.254473,17.641373,25.490463,-23.958149,9.394044,9.354063,-2.9521632,8.2172,-26.611202,-22.536898,-18.308294,-34.171055,-34.18056,-21.403025,-24.971495,26.754509,6.3945704,39.221165,-10.957327,-1.4175986,-9.43257,-15.843938,-4.676552,16.421398,-21.461401,6.033431,14.508265,-33.50516,18.022741,25.759544,20.489676,-16.75838,18.028248,-12.126631,-21.924786,5.948345,21.599045,26.145296,9.091138,21.585287,21.970972,12.336903,-20.486092,-2.4914057,14.227379,-30.634102,4.067256,-8.634525,8.961268,19.893238,-20.273218,6.1682734,-18.941957,-16.372097,7.4165373,-12.598622,12.379578,-8.47514,7.80581,2.0408087,13.730686,-28.916975,-28.886368,5.824066,-4.1721163,17.93259
NCI-H1563,26.710854,-15.160463,-35.828564,27.935598,-0.9587728,14.317392,29.653383,-29.191282,15.569698,-23.870955,18.255888,-6.8953,32.67494,14.886305,8.071392,-11.553972,-16.26024,-4.776295,27.07255,2.4819794,-38.92992,-14.560263,25.768784,12.405784,1.3744432,-7.2496324,25.853691,-17.894724,-1.2444156,15.087696,7.5692415,8.675971,14.674095,2.554497,-10.250052,9.513767,0.27418944,7.573169,-23.261251,-32.817093,3.2660449,5.3718605,1.5948519,-25.656166,-27.01787,-31.280115,-20.136948,34.03253,24.006973,30.181078,-30.378744,8.534154,9.506186,-4.1783457,6.954119,-33.015026,-27.304003,-20.196571,-42.059067,-39.8605,-26.246313,-26.882988,31.86922,7.411629,43.84554,-12.836736,-2.0704288,-8.474782,-16.965519,-6.569648,21.110708,-28.154232,9.088351,19.06189,-37.623203,23.21827,28.712402,22.683674,-17.32236,17.804852,-10.857792,-27.525654,5.2095966,26.339636,27.915548,11.213081,27.183102,24.683786,15.846026,-27.119797,-2.4283352,16.749922,-35.94256,4.396586,-10.689954,9.277143,24.508326,-22.81986,9.108854,-21.383804,-17.112577,10.661319,-17.016935,10.464293,-12.944537,7.293217,2.3217196,17.748451,-36.179634,-34.873585,5.515274,-4.23876,22.618155
SK-LU-1,3.4092698,0.5852861,-0.9884531,3.0675972,-2.7558253,0.06609083,0.67897534,-3.008951,-0.9736181,-0.15290987,-0.11165517,-2.2756126,2.167685,1.3010753,2.6061633,-1.3943077,-0.22850728,-2.1822903,0.74691546,1.111142,-2.7492175,-1.6256365,1.7003567,2.2614727,0.99615127,1.9139584,3.2375216,-0.50020283,-2.3050065,1.4322157,-0.0027973233,1.539311,-0.41769254,1.4187745,-0.8243473,0.21440542,-1.5032349,-0.59787464,-0.42820477,-0.24015649,1.3961442,3.8104153,-1.741445,-1.1122192,-0.42232937,-0.73361087,-2.1289558,2.4493833,-0.8305928,0.31584644,0.34007743,3.388954,1.7706978,-1.0496796,1.5446898,-0.3876562,-1.4188774,-2.0111244,-3.6617298,-4.4472547,-1.088263,-4.4258766,1.643975,-0.58512557,6.522171,-3.3116448,1.7276739,-2.6567967,-1.0373662,0.7800936,0.33991605,0.067015424,-1.3606727,0.5313166,-5.2699823,0.67627895,4.4591174,3.4969478,-3.5027962,1.8614297,-2.823526,-2.7759795,1.2188804,1.4452418,4.1735363,-0.76195425,-0.49254325,1.2643723,-1.2169267,-0.81325644,1.1768656,0.72335654,-4.929697,1.2562133,0.57529104,1.2464685,-0.82443386,-0.96020913,-1.3242836,-0.36055556,-2.001914,-1.3313576,0.7897508,3.4459703,1.1084784,1.6517521,-0.03511278,-0.6854435,-1.2772532,0.022819169,3.380057,-0.7964443,0.17730634
Ca Ski,22.818546,-14.348641,-33.370148,26.134977,0.89346755,11.237875,24.364017,-24.15527,14.851253,-22.693027,17.390562,-3.564266,31.070677,12.034227,8.984802,-10.661309,-15.040806,-3.697549,24.356346,1.696459,-39.244164,-12.801613,23.750614,10.150762,-1.476545,-7.9645844,25.273748,-15.077775,0.18465436,10.88412,6.9405937,8.631802,14.419355,-1.0506369,-8.644369,9.503342,1.8739959,6.1634197,-19.366247,-29.528278,2.610991,0.8224201,1.2629038,-23.097548,-26.783607,-28.71488,-18.022333,33.89993,20.40435,27.782778,-26.928455,3.7629695,3.561403,-1.049462,2.3935475,-32.041542,-24.394096,-19.147501,-38.83639,-35.870316,-25.497204,-20.785236,27.069212,8.954214,37.845272,-8.342524,-5.515838,-8.169961,-15.8938,-6.910137,18.830503,-25.483606,8.706611,17.768187,-31.137995,22.45175,22.78856,19.582073,-12.630797,15.141481,-6.361311,-22.20142,1.1838448,24.56869,22.380322,11.504697,26.762854,22.123735,18.738829,-24.501373,-4.339671,14.768447,-31.239717,8.890244,-13.837821,4.3362937,23.868553,-20.42573,10.876597,-19.147627,-13.428608,10.100173,-15.374176,8.155981,-12.232208,5.0960917,2.3599713,16.477022,-33.32412,-30.369825,1.5233085,-0.43146053,21.105707
SK-MEL-2,8.214683,14.132145,22.308855,9.377326,-17.099787,-14.236178,-19.166092,-3.5967464,-19.162506,8.892026,-12.449561,-14.536983,-11.943449,-2.0253994,7.6467667,-2.5889452,9.579472,-8.2229595,-15.636836,10.514157,1.0590914,-2.1034484,-12.237041,11.006745,13.348734,15.000656,9.530715,9.195801,-12.6287155,-9.229988,-1.6517655,13.9559555,-13.465817,9.094387,3.5726285,-8.37837,-9.583706,-12.916126,16.157059,22.902018,0.15121186,20.83648,-12.255792,8.95733,16.422117,18.261604,-3.3794367,-10.442735,-22.415504,-15.024727,26.14499,15.532223,5.97964,-4.421728,13.098108,21.56545,17.633522,2.684282,-1.9052802,3.6635034,11.921806,-16.66115,-18.685701,-6.836446,12.668352,-13.19017,15.593046,-9.394864,6.353836,15.607193,-12.350936,17.178457,-17.828243,-9.443812,-14.250022,-17.050884,12.581169,5.274383,-13.066232,4.5218945,-12.570632,14.089278,12.675808,-8.013119,11.901945,-17.199038,-22.684662,-12.837268,-22.563284,14.097264,13.786632,-11.210074,-8.622437,-1.376266,9.858491,2.2586505,-24.827623,10.367023,-15.228632,10.825959,-12.279325,-19.073284,17.629536,17.193901,12.222463,12.75996,-6.968575,-24.42608,16.674984,28.061838,20.997187,-8.631464,-14.662061
BPH-1,15.601634,-10.295526,-23.440653,18.303507,1.2412724,7.4005833,17.076635,-16.957129,10.763672,-15.638435,12.30302,-2.0544488,21.721506,8.7195015,6.19764,-7.3229065,-10.504514,-2.3853178,17.070871,1.1827564,-27.395987,-8.824614,16.847322,6.7430344,-0.94878364,-6.3457026,17.859339,-10.924113,0.3429432,7.5509706,4.6695466,6.224866,10.386565,-0.41065234,-6.322317,6.64732,1.3600972,4.3392615,-13.619784,-21.054358,1.7593284,0.044528037,1.0903636,-16.38462,-18.649477,-20.059593,-12.579585,24.033636,14.650343,19.613182,-19.335918,1.7351317,2.3685346,-0.061707586,1.9358686,-22.401968,-16.489132,-13.218876,-27.01445,-24.988155,-17.808313,-14.015557,18.757473,5.8371453,26.261745,-5.3266306,-4.045438,-5.1926684,-11.434868,-4.9446263,13.106292,-18.167332,6.382162,12.569827,-21.653238,15.681104,15.418016,13.401429,-8.683305,10.439995,-3.8470244,-15.36277,1.2271912,16.994453,15.384949,7.7702227,18.734755,15.5295,13.090578,-17.13547,-3.300567,10.119171,-21.313482,5.8804355,-9.880279,2.6420126,16.807417,-14.082952,7.5632753,-13.020148,-8.882779,7.903092,-10.841667,5.24334,-9.002728,3.6357565,1.8901432,11.557101,-23.224812,-21.348497,0.6305692,-0.23930475,14.7825
HTC-C3,4.5939794,-4.052916,-8.523264,5.9962635,2.542178,1.9991294,6.419627,-4.902443,5.4300284,-5.9918895,4.4670806,1.3183856,7.814574,1.4544076,5.054452,-2.860763,-3.666909,-0.5081847,5.651334,-0.05162459,-12.021325,-3.16175,5.5163856,0.6043669,-1.3728458,-4.817561,8.015737,-4.7177,0.8126016,1.7697413,0.5014732,1.4565097,4.5369215,-3.3783169,-2.5484936,2.6659489,0.9495554,1.1251626,-5.6138134,-7.3750386,1.0193509,-3.732476,1.9048649,-6.1299486,-7.581225,-7.5155816,-5.189728,9.657072,5.905868,7.7000003,-7.6937165,-2.1037729,-2.9616961,1.5464593,-2.4817746,-9.492571,-6.540356,-5.297648,-11.302177,-8.841509,-7.3690934,-1.9906123,6.23994,2.0990176,7.2972054,-0.2168757,-3.641986,-0.90554553,-3.1601481,-2.045673,4.6632833,-8.0768795,2.4561212,5.3016663,-6.458678,6.143992,3.140252,4.8702893,-1.4808427,1.8092717,0.6464435,-4.900324,-0.7100816,6.7036934,3.3597884,4.1569724,8.3619175,5.342349,7.460559,-6.5121617,-0.8340713,2.7997644,-7.378283,4.731608,-4.647683,-0.92309207,6.8358994,-4.4170694,4.1736484,-4.7487154,-0.6623723,2.3117223,-4.1612124,0.31136787,-5.181865,-0.12659538,1.5908964,4.295941,-9.084211,-7.659931,-2.822848,2.719038,5.6890683
NCI-H2452,14.124393,-6.7840514,-18.337482,14.846949,-2.2805789,6.8969917,15.784257,-16.128292,8.556967,-10.7408285,8.575422,-5.073343,17.028473,8.639115,4.7359962,-4.8618803,-7.58622,-3.8252325,14.731953,2.3057547,-17.857988,-6.9509206,14.301687,7.5574985,2.0514927,-3.5695474,13.201209,-9.019488,-2.543139,8.805912,2.9202983,4.504171,6.459234,1.9998704,-6.3806973,4.3594203,-1.2593392,4.282728,-12.623523,-17.577087,3.3757257,3.9491339,-1.4292539,-12.702019,-12.47032,-16.00111,-9.916081,17.498402,12.649492,15.297038,-15.8754425,5.913524,5.8766336,-1.3480209,5.293316,-15.37998,-13.683746,-9.966696,-20.309425,-21.167467,-12.039559,-15.525846,17.004068,1.2770271,25.090195,-7.5400753,0.02737213,-3.4922817,-9.263522,-2.2761793,10.119999,-13.384436,4.1734633,8.825904,-21.020733,10.993098,16.232685,12.849699,-10.498934,9.687886,-6.901928,-16.760834,5.7873373,12.629812,16.091536,3.795149,12.616008,13.765462,5.6626534,-13.616398,-1.860235,8.400877,-19.466272,0.37172523,-3.3986828,5.562301,11.629659,-11.214828,1.5133857,-11.281204,-8.412767,5.9592996,-7.700965,7.6756988,-5.363241,4.979901,2.3046448,8.779591,-17.975786,-18.240726,3.286791,-3.2612784,10.587008
MZ-MEL-7,4.650056,5.4988685,8.880867,6.2141047,-7.8378215,-5.511527,-7.216631,-3.8562405,-8.236998,1.5372399,-4.7997084,-7.4566903,-4.074221,-0.56966984,5.13456,-3.0903566,2.7702854,-2.2353458,-6.420677,4.758261,-3.3499162,-3.4142795,-4.0043955,5.617345,7.000985,6.1994224,6.0058017,4.0902967,-5.161782,-3.4366138,0.4289891,7.989419,-4.64049,3.1913922,1.2336912,-3.4433806,-4.0896797,-6.6714125,6.2668705,10.013622,-1.6118441,10.535689,-4.2843356,2.1422114,6.485715,8.050682,-4.280228,-3.4138448,-9.27768,-6.4547176,11.15121,6.954918,3.5068996,-2.8539402,6.764332,9.450681,7.749974,0.32971796,-4.225853,0.586261,2.4304829,-9.043773,-7.2235904,-2.5778575,6.8419394,-6.7541986,6.596302,-5.5317698,1.9040705,6.901108,-4.576562,5.4016485,-7.031963,-1.8376032,-7.511597,-7.33154,6.4832153,2.5293975,-6.1346145,1.7004122,-5.4835873,4.7538953,5.423437,-1.4678036,5.76046,-7.5777187,-9.767053,-6.7041597,-10.038909,3.9072747,6.043625,-4.0553985,-4.9261537,-1.7783308,3.9151857,1.0300719,-11.073269,4.9639554,-6.1588674,4.3781624,-6.510302,-8.7517805,7.304731,7.167641,4.1532865,5.769643,-3.1216602,-10.730502,5.3616486,12.350469,11.04588,-5.5846825,-5.2125006
SCH,9.512203,-6.4111834,-14.179886,7.6982527,1.1466599,5.808917,10.094853,-9.6594515,5.5192885,-6.839201,8.012835,0.7776254,13.612244,6.5011597,3.8341436,-5.3450813,-6.4249306,-3.6970994,10.742694,-0.78273666,-13.947554,-4.636949,9.983917,1.9065073,-1.7070206,-2.0069685,9.904763,-7.935546,-0.18486577,6.702965,3.1498923,1.4474403,6.351807,1.4259723,-2.2750857,5.6248055,1.3255172,2.992002,-7.936936,-11.55958,2.7524242,2.368636,0.2036835,-9.990335,-11.41133,-12.2722225,-6.906274,13.134555,9.055969,11.4191265,-10.473738,3.483569,1.1493335,-1.7939911,-0.23256999,-13.33595,-11.736809,-6.8024106,-13.683247,-15.791798,-9.435782,-7.892123,12.440731,3.7226164,15.280773,-4.3526406,-1.8102851,-3.2969434,-5.8219233,-4.1020813,8.907027,-9.133683,3.831677,6.9537096,-12.802215,10.679891,9.248861,8.29709,-4.9238467,5.012704,-2.4363916,-10.74923,1.9820929,10.760697,8.608925,5.4189544,11.144214,8.364751,8.174448,-10.82858,-2.0793955,6.7972617,-13.523552,4.3508334,-5.187401,2.5203185,10.741374,-10.1871395,4.4165015,-7.957394,-4.0384464,4.480185,-7.0516496,3.4446409,-4.699825,0.569992,1.2563276,6.9783254,-13.989359,-12.0988,0.7045077,1.8706304,9.183074
JEG-3,23.83459,-13.389566,-32.10988,22.18919,-0.81512016,12.7296,24.584185,-25.12443,12.666045,-17.932888,17.13104,-4.0309024,30.812687,15.4605875,6.3951645,-11.108077,-14.742327,-6.9490705,25.149958,1.3736644,-31.947813,-11.641401,23.890564,9.494191,0.0067347446,-4.2131796,22.790731,-17.348106,-1.8639934,14.67031,7.2365026,6.816789,12.705142,5.151827,-6.638957,10.357936,0.3619392,7.410115,-18.54328,-28.671556,4.690731,7.4513874,-1.3651947,-22.889957,-24.22053,-28.068714,-15.731748,29.974855,20.438314,26.312883,-25.130157,9.47568,7.402223,-3.6472125,5.2429614,-28.939247,-24.618238,-16.458517,-32.585567,-36.546154,-21.408598,-23.59931,28.676651,6.406675,39.43321,-11.641966,-1.6889819,-7.7454624,-15.566073,-6.3710246,19.256308,-21.568054,7.7784534,15.639424,-33.44272,21.852926,25.263987,20.032623,-15.19765,15.267065,-9.127344,-24.856525,7.1674166,23.366268,24.642332,9.955324,23.346968,21.500235,14.105958,-23.342157,-4.4498444,15.424787,-31.706907,4.763731,-9.736388,7.9557447,22.713264,-21.997488,7.3048844,-18.35523,-13.642678,9.929386,-14.866228,10.937018,-9.868315,5.8629537,2.764911,15.229536,-31.425879,-29.266975,4.767551,-1.4083813,19.61605
697,17.840418,16.474304,23.730633,6.5418925,-21.790543,-9.971651,-24.458958,1.5306747,-30.32676,6.2163205,-10.453895,-16.135403,-7.8434978,-0.3254282,0.22402944,-10.171615,8.837884,-12.7156725,-13.684869,8.454466,-4.728466,-0.117443435,-17.063734,10.166502,5.6940246,24.857307,5.6918707,13.666169,-12.202081,-11.6629715,3.7501926,9.184479,-15.120176,2.116614,12.100513,-4.654084,-6.993689,-10.205613,24.133236,27.004341,1.8172473,30.869781,-18.855244,10.3482685,14.863643,13.128385,4.0169816,-11.700914,-29.00574,-13.904375,33.982285,23.652134,2.4434683,-9.310251,7.8904104,16.259731,9.400081,3.145539,4.601095,-1.5924782,14.328224,-19.580936,-18.7821,5.6655564,14.179223,-17.510921,17.677038,-21.504665,10.159516,15.652684,-9.70734,22.611788,-22.431686,-12.651488,-15.226884,-16.363157,17.918058,5.8730445,-15.698468,10.730773,-18.051935,20.275385,8.4165535,-3.5011377,14.671537,-13.329523,-22.173159,-14.697011,-19.550945,15.269856,17.754341,-10.7028265,-17.502363,9.848092,5.2195415,4.069727,-25.773657,1.1117306,-15.256346,9.717318,-21.042892,-26.698917,18.221025,23.919685,16.094547,13.935703,-14.623585,-24.387144,15.345679,30.294836,25.974997,1.3406818,-15.334048
CHL-1,22.084948,-11.254457,-28.576088,20.267435,-2.9065478,12.094627,22.011496,-22.972107,11.274609,-17.921846,14.576723,-5.6773853,27.101372,12.63975,6.6826496,-10.287292,-12.914887,-6.0531816,22.509235,1.8223889,-29.680656,-11.698279,21.144981,9.852613,-0.42806882,-1.9715902,19.396454,-13.8537445,-2.3540998,13.236663,6.6064105,5.5775886,10.589876,2.8723714,-6.8592715,8.649149,-0.08351509,6.5637617,-16.761131,-25.034159,4.0278206,8.457981,-1.517475,-19.955164,-21.382692,-25.10476,-15.165822,26.503136,17.367048,23.136522,-22.045431,10.853295,7.866584,-4.901734,5.385989,-25.304909,-22.895706,-15.456188,-31.531944,-32.745453,-20.154135,-22.726023,26.09966,6.2362595,35.998997,-11.706702,-1.2586797,-8.974696,-13.967344,-5.7271705,16.938597,-19.428768,6.3933673,14.036595,-30.264767,18.830526,23.514565,19.374706,-14.67277,14.406421,-10.212946,-23.460806,5.035801,21.313137,23.082964,8.790354,20.471828,19.112074,12.129911,-21.384802,-2.9120739,14.439015,-29.762005,4.938145,-7.564257,8.012012,19.71088,-19.81992,6.337258,-18.099953,-13.219082,7.0086594,-12.868712,10.57963,-7.7300434,5.3451524,2.1536262,13.409941,-28.392618,-26.651735,6.0199723,-2.349385,17.697887
LN-405,4.4579096,0.8881029,0.912333,4.7347865,-2.5215857,-0.85283226,-1.1068699,-4.104121,-2.5892072,-1.9224409,0.5005606,-4.1138372,0.9596076,1.1988072,-0.3285971,-2.6499505,-0.65292054,0.7846359,-0.16293596,2.1837022,-4.0485897,-2.4224617,0.1511475,2.818538,3.7254207,-0.06268111,3.4950867,0.077039875,-0.8883375,-0.7578978,2.3486109,4.828555,-0.6270363,-0.09669219,1.4528952,-0.6698011,-0.41836306,-1.19234,0.9992008,1.1614038,-2.1768525,3.5312934,-1.5264926,-1.2947927,1.6163957,0.5567058,-2.1028328,-0.44953912,-1.818325,-0.018893834,2.0451996,2.7261326,2.095942,-1.3442826,2.9969268,1.0951617,1.7418201,-0.14167267,-3.961944,-1.7769387,0.37021124,-6.115983,-0.7168965,1.045857,5.221051,-3.9928813,3.4134927,-1.7049398,-0.12101651,3.5856318,-0.010290099,-0.41163433,-2.3468797,0.26443627,-4.9163117,-1.5051937,5.565881,1.1069137,-3.3640203,2.3579187,-2.6520932,0.8639044,1.7712295,1.0287555,4.776029,-2.6099544,-2.0616508,-0.68279374,-3.6067553,-0.08238347,1.3758006,-1.2129624,-4.283573,-1.8533067,0.5758506,0.98288774,-2.861018,0.3628384,-1.9763163,0.22499932,-5.435108,-2.769185,0.8973026,2.9659379,-0.2590776,4.393881,-1.3088025,-2.5071778,-0.42910817,2.0559766,5.104132,-3.5905876,-0.82391214
ST486,19.31655,16.565262,21.688717,5.919638,-22.496075,-8.370071,-24.278837,1.535327,-29.577194,7.403593,-9.592986,-15.8727,-5.1953645,0.53594095,0.6785729,-10.630973,8.765413,-15.493942,-11.837911,8.34282,-3.853928,0.16288969,-15.254993,10.087442,4.1822653,26.778486,5.8290405,11.249519,-13.5426,-9.971332,3.3177361,6.697313,-15.566684,3.542878,11.688054,-3.80433,-7.2553644,-8.999978,23.6772,25.39517,4.6623855,32.306957,-20.042202,9.896254,13.915981,10.448481,5.305867,-10.776293,-29.36165,-12.920641,33.05795,26.115831,2.6381714,-10.733586,6.6961513,14.271876,5.645483,1.9986882,4.4291587,-6.545873,14.159459,-20.979813,-16.120543,5.506369,18.22041,-19.13458,18.326832,-22.24376,9.748883,15.033992,-8.828391,23.920712,-22.921793,-13.676401,-17.414818,-14.084884,20.029408,8.827446,-17.254827,11.708543,-19.306837,16.819778,6.675769,-2.7583592,16.679667,-12.168264,-21.230719,-11.839486,-17.900755,15.121236,17.239113,-9.720676,-20.150764,13.115221,5.2389035,5.61217,-23.444395,-1.5067991,-14.935712,7.4221888,-20.311697,-26.965054,17.773083,25.766235,17.505175,14.227076,-13.602484,-22.766285,14.373325,28.217604,26.592916,3.1473045,-14.737033
NCI-H441,12.343553,-7.8500366,-19.191738,10.724964,1.0498297,7.0731,14.64537,-11.514965,8.934284,-8.1334305,9.022687,2.3187683,18.608252,7.1909223,8.575066,-6.3717127,-7.6962957,-6.0371265,14.636881,-0.44738132,-18.896118,-4.989852,13.68518,2.0523407,-2.6021798,-3.2576907,16.20805,-11.220512,-1.2169479,9.054418,1.3184996,1.4050982,8.368733,-0.13823488,-4.604076,6.8871884,-0.012307359,3.136137,-11.719444,-15.674389,6.200414,1.5884073,-0.5377744,-13.311313,-15.906092,-16.105217,-9.630618,19.51994,13.178311,14.796675,-14.509839,3.1331694,-1.0751827,-1.0547913,-2.4595087,-19.297455,-17.12221,-10.622666,-20.341818,-22.377562,-12.820163,-8.741995,17.168911,3.6639695,20.003588,-4.962093,-4.2378564,-3.7230897,-6.830208,-5.409127,11.394168,-12.085454,4.332697,9.599589,-16.845581,14.85521,10.88345,12.762994,-6.551236,5.888246,-2.6185977,-15.951857,2.821757,14.508758,10.768555,8.367918,15.500774,12.196385,12.259846,-14.455783,-2.7205384,8.537176,-18.925964,8.272975,-7.2319026,2.6242106,14.833048,-12.601609,5.859409,-10.396439,-2.496125,6.6836267,-8.242559,4.885773,-6.2929125,-0.14427592,3.107034,9.559697,-19.052954,-17.097334,-1.5151533,4.940969,12.016043
A-704,5.8883295,12.462792,21.468275,8.855214,-15.17287,-13.033846,-18.310308,0.18691552,-17.87217,4.7175355,-12.462181,-12.371337,-13.610522,-6.140142,7.9622984,-2.5601838,9.158575,-4.6276765,-16.544971,8.375823,-3.726506,-0.9938967,-14.171313,9.359306,9.40646,13.275106,7.828789,13.224447,-8.989785,-11.123431,-1.4002186,12.465431,-11.29498,1.932511,2.709678,-8.008712,-6.9371247,-13.70979,15.839067,23.554806,-2.287094,16.378046,-9.3616495,9.884229,14.116327,18.231863,-4.662822,-8.570935,-21.561987,-15.11683,25.348318,10.80681,1.5020411,-3.8645918,8.7283,18.698309,16.101871,2.0754876,-2.67131,7.943516,9.170489,-11.782234,-20.111595,-2.7759857,4.548818,-9.399694,11.245339,-11.130509,7.754736,13.344808,-12.177741,14.250544,-16.188765,-7.312243,-6.7748375,-16.574238,7.1363406,2.8412597,-8.301987,2.0997605,-9.525958,16.912987,6.1226654,-7.1772833,6.339551,-13.535178,-19.83647,-14.731572,-18.512615,12.286851,14.099285,-10.906399,-6.1111946,2.283365,6.1623316,-1.7146375,-23.427734,11.190609,-10.415981,11.332142,-10.807387,-18.457373,16.24619,12.057572,10.049195,9.858171,-8.579007,-21.825565,15.073517,26.335775,17.447456,-6.1501307,-13.273044
DSH1,21.69133,-13.896298,-31.545433,26.079538,-0.3568986,10.195344,21.066608,-23.74526,13.46293,-25.034752,17.299294,-5.409321,29.340607,10.921986,7.0853167,-10.859192,-14.46038,-2.1173701,22.961721,2.372088,-40.6933,-13.699747,21.86696,11.301204,-3.1548955,-5.902701,22.294767,-13.528942,0.80706173,8.260987,7.925881,9.168021,13.388941,-0.9941148,-7.9554076,8.704483,2.9678438,6.7302175,-16.233543,-28.551704,0.637497,2.4627407,1.1715212,-21.651388,-25.966778,-28.573475,-17.013088,33.162502,16.771706,27.683424,-24.754652,3.6354225,4.2588816,-0.572625,4.089214,-30.530226,-21.961853,-19.198711,-37.745083,-33.83549,-25.644087,-20.931849,24.421442,10.77624,36.898903,-6.588008,-6.261834,-10.715162,-17.591516,-7.094855,17.17646,-24.49182,8.17052,16.966394,-29.978981,20.438227,21.374773,19.13366,-12.126413,16.25259,-7.031264,-18.37457,-0.024739489,23.898277,22.507517,10.236439,25.233414,20.738087,18.598234,-23.086823,-4.399205,14.258057,-29.11315,9.970533,-14.80764,3.1897695,22.396126,-20.609898,11.31672,-19.467922,-15.1977005,8.94838,-14.119783,8.169763,-10.597233,5.7047086,1.5270075,14.872317,-31.572163,-28.098726,2.3909502,-1.5464472,20.190666
A-253,11.011056,-8.4925,-17.71252,14.262409,1.704988,5.9480443,12.8302355,-11.846841,8.405536,-13.473097,9.379726,-0.84342873,15.731252,4.1613636,6.474221,-5.8557973,-7.9838705,-0.728454,11.630724,0.16019538,-23.406485,-7.172223,11.890614,4.3810287,-1.9438455,-5.5812473,13.832628,-6.9600644,1.3445373,4.696177,3.707551,4.1030297,8.642957,-2.732018,-5.7540584,4.7997108,2.5054214,1.9741405,-10.815636,-14.819136,0.47861478,-1.8826147,2.9796033,-12.113063,-14.958632,-14.358403,-11.015739,18.858011,10.59702,14.524235,-14.6154995,-0.30889967,0.1215273,-0.61600727,-0.99391925,-17.948086,-13.052443,-10.633839,-23.121655,-18.006304,-15.531846,-8.717133,13.609764,6.2796593,17.810587,-3.243031,-4.539713,-4.9989214,-7.6166043,-4.487677,9.907911,-15.229777,5.3630886,10.495616,-14.221373,12.482162,10.093432,9.661369,-4.4138484,6.530471,-1.6119227,-11.043429,-2.9720242,13.576268,9.500801,7.1209583,15.342287,10.582924,12.071919,-14.065274,-1.5726402,7.5337744,-16.007778,7.2393594,-8.883243,0.6513269,12.778849,-9.840377,8.076031,-10.18863,-6.1867633,5.032089,-8.6714735,1.6374738,-7.7528358,1.2845147,0.440327,9.626932,-18.253174,-15.846612,-0.2436055,0.6612064,11.677651
Lu-139,20.769573,-9.585011,-22.625399,16.648945,-1.7708346,10.542574,15.14244,-19.353815,5.242368,-17.687376,14.609071,-5.6135645,24.23094,12.396895,1.105907,-11.857625,-11.882193,-4.1628876,19.140198,0.68996525,-28.101875,-11.425201,15.8091545,7.5698986,-2.71042,-0.53757083,15.332897,-12.429798,-0.35262316,8.885331,9.410896,6.020612,8.820602,1.1426498,-0.08850968,8.815916,2.2119067,7.296819,-10.203174,-19.6513,0.5299252,8.824298,-2.3573515,-16.974249,-18.198294,-23.330002,-9.760858,20.579119,11.042604,20.365524,-15.855036,10.272834,5.923868,-4.7675204,3.8592064,-22.11355,-19.219175,-12.202969,-23.621021,-27.648863,-16.466532,-20.75849,20.69067,10.946614,30.43667,-10.404675,-0.07065459,-11.057033,-12.190172,-4.3281207,15.015267,-15.413017,3.9775703,11.087196,-25.868847,16.198256,21.672863,14.946152,-12.249621,14.533508,-9.469192,-14.5132475,2.8356268,19.259941,20.7615,7.702498,17.418125,14.788176,11.503326,-16.480145,-2.6669676,11.918275,-26.102598,6.4001083,-9.240278,6.943106,16.70254,-19.771828,6.4006095,-15.355765,-15.259685,3.6329818,-11.447292,10.475446,-6.273339,6.121119,-0.1740199,10.359137,-23.393276,-19.98827,6.9062476,-0.59003365,14.789658
MeWo,7.8089743,15.196408,24.395784,8.19361,-17.272738,-15.446872,-21.423918,0.9233521,-21.766739,6.4711494,-12.833803,-14.440305,-13.418873,-3.673436,4.672901,-2.7831607,10.699046,-6.409583,-16.262396,9.947974,-1.0891849,-0.16974656,-15.411626,11.135588,10.071747,16.161442,6.038355,13.721482,-10.383542,-13.2768755,-0.79803306,13.52553,-13.655648,3.531157,5.342882,-8.264827,-8.199964,-12.2042465,19.374155,24.46245,-1.6422224,19.843868,-13.688274,11.141642,15.848468,17.634975,-0.21198851,-10.807844,-24.33883,-14.759945,28.604836,13.482174,3.7234778,-2.7944355,11.400423,20.629356,17.680803,2.8387067,1.1344721,7.0200305,13.765565,-13.677978,-21.637339,-3.0748281,8.087227,-10.561805,13.634754,-11.816552,7.5135975,14.893255,-13.285842,17.989948,-17.75749,-10.385161,-10.736041,-18.446493,10.237386,2.7504766,-11.637294,6.3351226,-12.146254,20.377502,10.8196125,-8.323951,9.805581,-16.558498,-21.75706,-14.068013,-20.305418,16.044287,14.532308,-11.904645,-7.096707,1.4747504,6.838294,0.113264866,-26.075893,9.7071085,-15.074128,11.606138,-14.028372,-20.64933,18.165455,16.818481,12.699264,12.454562,-9.928521,-24.427042,17.91585,28.350866,18.786697,-5.462251,-15.627723
NCI-H727,14.077985,-5.524072,-15.257611,11.8302765,-2.009486,6.4151926,10.322826,-11.720447,3.190983,-8.63708,8.975815,-2.3797226,16.714058,8.355672,2.2144303,-7.3692594,-7.108776,-4.6992497,12.251221,0.96518695,-16.781115,-5.2811275,11.340396,4.433668,-1.0690596,0.073831216,12.579151,-8.425054,-1.225331,6.5983477,5.0047617,3.3463242,5.438056,2.175527,-0.876328,5.6006694,0.47095102,3.3160214,-6.778918,-12.611663,2.2542758,6.233042,-2.8097982,-10.773455,-11.620922,-14.477716,-5.9365363,15.0547285,7.4092493,12.105861,-10.169457,6.2375216,2.8246136,-2.4813707,0.8194387,-15.597653,-13.472802,-7.964503,-14.820188,-20.052485,-9.767886,-12.977023,14.283756,6.00189,20.909899,-7.6851244,0.26278603,-6.382599,-6.850934,-2.0172641,9.814378,-8.2766,1.9401411,6.406808,-17.317595,11.577016,14.36822,10.173521,-8.368236,8.850852,-5.456806,-11.303412,2.6139977,11.804676,13.458786,5.069673,10.8546295,10.501952,7.5114803,-10.545566,-1.9782895,6.6352005,-17.987154,4.7660313,-5.8207865,4.0541115,10.66706,-12.384319,2.9423547,-9.091178,-9.072702,2.9710166,-6.767034,7.555446,-3.3487856,4.42327,-0.48459542,7.918357,-15.230755,-13.714952,4.5877895,1.00142,8.727496
MC-1010,20.776337,19.043848,26.344595,6.51992,-25.274479,-10.805892,-28.748158,2.9869304,-34.568485,7.340525,-11.659466,-17.748234,-8.331947,-1.0430949,0.05547367,-11.243308,10.217166,-15.293793,-15.159453,9.635,-5.2392063,0.92258793,-19.39454,10.901359,5.0471387,29.173206,5.8402224,15.756957,-14.119278,-13.300689,4.141887,8.802028,-17.66645,0.94201714,14.21486,-5.09351,-7.494198,-11.194404,28.085035,30.469294,3.2304487,34.540596,-22.174362,12.298447,16.509527,13.409176,5.6077476,-13.203672,-33.766396,-15.546875,39.049118,27.117605,0.95563185,-10.660139,7.045833,16.943071,8.641098,3.7316728,5.8222494,-2.3468807,16.91584,-21.837482,-21.346548,7.5009494,16.24049,-20.122843,19.76083,-24.874302,12.184629,17.910818,-10.998436,26.886045,-26.44714,-15.346525,-16.226624,-17.688887,20.395414,7.51878,-17.650867,12.73541,-20.77684,23.45761,7.59424,-4.1279736,16.514412,-14.1944685,-24.81936,-15.805073,-21.09417,17.924814,20.133934,-12.302626,-20.63952,13.513124,4.990211,4.092219,-28.201252,0.06933025,-16.59106,9.969963,-23.528378,-30.817312,20.741735,27.497486,18.997963,15.981232,-17.0691,-27.290535,17.415655,33.89016,28.829538,3.591766,-17.618637
MKN1,12.249196,-7.0801744,-16.179518,12.0200205,0.42062283,6.3637695,12.920559,-13.476987,6.684051,-8.099191,8.809526,-1.7460879,15.124423,7.47448,3.6174827,-5.1533427,-7.5447035,-2.2087276,12.204041,0.6190057,-15.640854,-5.5094805,11.92102,4.2544527,1.910342,-4.8257217,11.975774,-7.968464,-0.4259809,7.5524096,3.6893616,4.22526,6.964153,1.4133188,-3.8238628,4.9189944,0.9450739,2.9236844,-10.736272,-14.112391,2.1997526,1.364921,-0.25885183,-11.972773,-11.263745,-13.19474,-9.0789995,14.433296,11.374213,13.222062,-13.146801,3.6097782,2.8672316,-1.4050065,2.0724962,-14.271213,-11.76514,-6.9547877,-16.980474,-17.251534,-10.415098,-11.542304,13.7817545,2.7473245,19.694221,-6.299695,-0.18506,-1.6711931,-6.425506,-1.9195874,9.6269,-12.181021,4.2466664,8.134939,-16.151209,10.748102,13.349314,9.184313,-7.0195,6.547007,-3.6453218,-13.445341,3.9873393,11.515203,11.827643,4.1466317,11.867031,10.349594,6.1552143,-12.545911,-2.391972,7.0108137,-16.03306,0.6753389,-4.563707,3.3871555,10.751078,-9.3562565,3.0695052,-8.753424,-6.59413,5.252596,-7.9690638,4.6940613,-6.371089,3.1859884,1.2069541,7.61006,-16.368105,-14.498347,2.1969619,-1.7936839,9.820189
NCI-H1770,15.518831,-5.5603,-13.230562,11.721564,-3.0705707,7.6725817,8.290949,-13.485224,0.4224209,-13.746508,9.647597,-6.1581607,15.705086,7.9285493,-0.35708785,-10.108353,-7.805185,-2.155125,11.424649,0.8244823,-20.043072,-9.122503,9.100474,5.9765663,-1.6431242,1.9028783,9.2414465,-7.181452,-0.02941849,4.882337,8.112901,4.585945,5.0041294,-0.014129464,1.6352842,5.6049867,1.8236428,4.3101187,-4.829326,-10.710332,-1.4623661,9.1431465,-2.0272303,-10.857965,-10.382456,-14.556901,-6.684258,11.3841,4.6338005,12.032281,-7.8177485,9.568217,5.331246,-5.452557,3.5566618,-13.155307,-12.208403,-7.7606845,-15.856422,-18.235567,-10.719429,-16.340542,12.546552,9.472619,20.427439,-8.96967,1.5845138,-10.215582,-7.125318,-1.5894859,9.590576,-9.403857,1.1528147,7.0305343,-17.873419,9.3081875,15.940972,9.951333,-9.402423,10.494654,-8.387819,-8.538774,0.47976267,13.286575,15.322199,4.19927,9.722363,7.984197,5.963416,-10.7305155,-0.42593384,7.377336,-18.672598,4.3365273,-5.322011,5.468018,8.969234,-13.089731,3.687017,-10.447787,-13.301361,-1.2892385,-6.8482313,8.046046,-3.5376177,5.660362,-1.2321934,5.727903,-14.920431,-11.205827,8.325038,-1.5223376,9.078183
TUR,17.218178,12.64618,15.920417,5.969044,-17.307137,-6.638656,-19.48741,-1.2208742,-24.043272,4.513474,-5.598125,-12.99155,-2.2827947,1.7905465,-1.852194,-9.388935,4.9850163,-11.170258,-8.127015,7.460366,-4.934778,-0.21229053,-10.878479,7.4343333,5.172331,18.955275,5.651772,7.8442926,-10.29276,-8.699495,4.8171697,7.5488715,-12.055163,1.9109975,12.053592,-2.5183632,-4.8412766,-6.6939807,18.987211,18.860947,1.6627613,24.151033,-16.107677,6.2355723,10.803975,6.4643483,4.250251,-8.469185,-22.112028,-8.394508,25.739832,20.427952,0.9200428,-7.6623178,5.087473,9.789921,5.356126,2.8932066,4.367234,-4.799687,12.232028,-18.22839,-12.846195,6.2994986,15.5346,-16.20246,15.905222,-15.277147,7.454589,13.646579,-5.8269978,17.912891,-18.729546,-10.814309,-14.797103,-10.729817,18.03526,6.3872404,-14.184464,10.27292,-14.932131,15.896211,6.967128,-1.3234437,14.430471,-10.014156,-16.113905,-9.469425,-14.7047825,11.542111,11.602304,-8.349469,-16.70506,8.342,3.3111277,3.9645019,-17.565758,-2.0423005,-11.842006,4.2064223,-18.617619,-21.179594,12.900767,21.051022,12.054276,13.374664,-11.336999,-18.2955,10.36521,22.496372,20.994545,1.7077619,-11.537732
SK-MEL-30,26.17933,-13.475746,-34.75054,24.775614,-2.404911,13.29439,28.95622,-27.681595,15.241201,-18.258017,16.471308,-5.232585,32.9387,16.524462,10.721607,-11.023185,-15.214174,-8.15348,27.616522,2.6895342,-33.029118,-12.829647,26.756489,11.155444,2.756032,-5.15011,26.26274,-18.500225,-4.0279813,17.479074,5.274516,7.4485,13.342405,3.7288513,-9.432761,10.109124,-2.0653582,6.915069,-22.044954,-31.320091,7.119205,9.02136,-2.1680312,-25.036154,-25.372335,-29.304184,-18.422943,32.63708,24.287859,27.49645,-27.995897,11.030084,8.6423025,-3.645687,6.851706,-30.419737,-26.949032,-18.218634,-37.788647,-39.98867,-22.854858,-26.646091,32.21679,3.441977,43.906227,-14.105851,-1.2763222,-6.991706,-15.742254,-5.632684,20.659056,-23.876898,7.8072996,17.406544,-37.157833,22.45508,28.909788,23.159035,-18.249094,16.214788,-11.050232,-30.890987,10.768664,24.922209,27.226162,9.714052,24.501974,23.719885,12.930002,-26.04739,-3.487505,16.657072,-35.894787,2.3472984,-8.137996,9.517584,23.31494,-21.647305,5.7034163,-19.956774,-13.231776,10.849777,-14.99941,13.144529,-11.055322,6.235774,4.0233865,15.335563,-34.192574,-33.09111,5.3066874,-2.529958,21.100657
SJNB-7,17.435972,-8.874982,-22.601408,15.452217,-1.8906138,9.646343,19.151205,-18.088722,9.403226,-12.913864,11.147806,-3.9711826,21.933393,11.501458,5.663448,-8.001273,-9.946096,-6.0868773,18.703701,1.2550006,-21.941921,-9.022987,17.169498,7.709016,0.2500011,-1.6895727,16.38952,-13.497678,-2.6975658,11.785765,3.8736453,3.9997184,8.302407,3.7463832,-5.440039,6.9353237,-1.6387361,6.0864425,-14.033678,-20.975155,4.451162,7.89748,-1.4632884,-16.295128,-16.976042,-20.772678,-11.030287,21.156067,15.325658,18.559046,-18.495176,8.79544,7.16382,-3.5274622,5.116157,-20.243029,-18.795877,-12.861391,-24.268803,-27.403122,-15.266649,-18.17037,22.27906,3.4391875,29.538696,-9.29185,-0.62305516,-6.2771025,-11.243082,-4.914596,13.90339,-15.233343,4.9965873,11.087263,-25.578009,15.351446,19.202093,16.06599,-12.733743,11.964718,-8.754044,-19.701548,6.7475395,17.065002,19.020658,7.1670594,16.27838,16.198784,9.159959,-16.823679,-1.9805816,11.720184,-24.090645,2.9487574,-5.32333,7.857861,15.96736,-16.347916,4.118845,-13.855824,-9.765875,6.8251314,-10.112025,9.342625,-6.4317684,4.027341,2.6538875,10.4475975,-22.260086,-22.411188,3.9749076,-1.0786922,14.110327
YKG-1,18.784082,-9.155971,-22.083433,17.480356,-2.664471,10.457741,17.63924,-20.706331,7.7215276,-14.745456,12.452168,-6.4181366,20.652689,10.968946,2.6277704,-8.3957205,-10.923506,-3.1072285,17.65121,1.8161638,-23.124876,-9.913026,16.030643,8.479716,2.183121,-2.794297,14.119439,-10.976524,-1.4827306,10.652634,7.320544,5.976313,8.361338,3.1766555,-4.3580384,6.4346304,0.8342045,5.4991465,-13.944165,-19.806799,1.4489424,6.8664594,-0.75735426,-16.234608,-15.192861,-19.54847,-13.092403,18.723568,13.613984,18.830229,-17.334698,9.36087,8.050329,-4.7753243,6.8242884,-18.714214,-16.718838,-10.613447,-24.740639,-24.782412,-15.035728,-20.488073,20.085423,5.3718357,29.58214,-10.797448,1.603004,-5.699664,-10.664016,-2.4279222,13.576945,-16.34522,4.836426,11.022391,-24.96025,13.784954,20.820879,14.548419,-12.442727,12.210906,-9.301111,-18.519127,5.3605804,16.980398,20.044798,5.4473767,15.277335,14.6544695,6.5960965,-17.212261,-1.6622599,10.815613,-23.756248,0.18999372,-4.849741,7.4597073,14.3299055,-15.182922,3.9694316,-14.307314,-13.562079,4.732976,-10.925596,8.7895565,-6.98322,6.5370793,1.0341517,9.922893,-22.769138,-20.449514,6.9619756,-5.3712416,13.563106
COLO 800,6.635958,4.08749,4.7542987,6.4019003,-7.287969,-3.2163103,-5.2435856,-6.2835875,-6.2915,2.572209,-2.6858673,-6.279899,-0.45282215,1.193663,6.722029,-4.0797105,1.2925264,-4.577184,-4.2353263,4.079082,-3.6557205,-3.7714455,-0.521015,4.656796,6.8245845,5.8164315,8.294548,0.81188285,-5.992778,-0.29097587,0.8033757,6.537837,-3.6992917,4.9814177,0.47938377,-1.5451008,-3.6193852,-6.1646986,3.9116137,7.1152124,0.5075082,10.489545,-4.2326097,-0.02754097,4.671168,5.8383107,-5.451493,-1.6033312,-6.983579,-4.6542234,8.237175,9.181286,3.3725789,-4.3533645,4.9268956,6.734484,4.3647523,-0.19994558,-6.0629783,-4.16469,0.7603016,-10.739209,-3.442803,-2.8922315,11.262441,-8.814701,7.5669565,-4.647506,1.1836265,5.9813986,-1.9899262,4.3297296,-6.418927,-1.3437824,-10.090177,-3.9405398,9.482812,5.035369,-6.890385,1.0939083,-5.5541697,-0.45386115,4.817109,0.23220631,6.995118,-5.9953184,-7.761471,-4.248077,-8.603599,1.388997,4.978646,-2.5348692,-8.310674,-0.39948282,4.0276265,2.1706572,-7.7593265,2.9658113,-5.2522717,2.058864,-5.5662556,-7.9498563,5.0632005,7.76457,4.0942664,5.2831655,-1.7347394,-8.446744,2.4176905,9.454778,11.589426,-5.4185066,-3.30984
NCI-H1703,4.989455,9.568514,15.879416,5.892594,-11.915857,-9.219687,-12.888617,-0.7804602,-13.9394455,3.8094285,-9.0352745,-9.75221,-8.808044,-2.5558445,4.833281,-2.2957053,6.7219157,-4.545652,-11.057738,6.08366,-1.8862522,-1.5607643,-9.626052,7.7178426,7.107112,11.247398,5.0847983,8.7669735,-7.3609405,-7.3288875,-0.6825563,8.829353,-8.771647,3.5288415,2.6693099,-5.5396686,-5.97162,-8.947097,11.749893,16.58413,-1.0429747,14.775025,-8.217163,6.7749147,10.450673,12.397479,-2.1621513,-6.7099667,-15.619102,-10.645311,18.531296,9.95099,3.7986066,-3.4126606,8.482204,14.300865,11.3943405,1.0804893,-0.85866725,3.779148,7.331093,-9.91809,-13.272666,-2.6746237,5.734729,-7.8292346,9.016089,-9.169454,4.7666426,9.546671,-8.536699,11.196181,-11.755509,-5.6392007,-7.790999,-12.294627,6.5431676,2.429516,-7.731538,3.3508475,-8.382271,11.431004,6.8035345,-4.458183,6.571614,-10.319894,-14.842544,-9.931903,-14.162553,9.242819,10.178386,-6.973269,-5.2979245,0.64285254,5.315618,0.88873655,-17.44755,6.6837215,-9.111949,8.163973,-8.999166,-13.677051,12.062326,10.534796,8.094826,7.738828,-5.9489484,-16.219055,11.260701,18.994877,13.743711,-4.71379,-9.637718
LB831-BLC,22.932266,-10.569014,-27.187021,21.737915,-2.3648107,11.405423,22.19547,-23.980293,9.518507,-15.224226,14.82152,-6.34195,26.274347,14.218668,2.9263594,-9.269121,-13.078986,-4.5282087,22.007397,2.4661171,-25.953499,-9.669109,20.545902,9.896642,3.3024368,-4.735731,19.281433,-14.118074,-2.0499659,13.257965,7.4147296,7.640428,10.080315,4.7134876,-5.498885,7.8617816,-0.07156499,6.6520348,-17.113953,-24.812853,3.050572,6.8461175,-1.9875581,-19.811941,-18.394358,-24.078156,-13.583893,24.161512,17.897514,22.50264,-21.985153,9.373931,9.079671,-3.5027232,7.065615,-24.085527,-20.558249,-13.032857,-28.029573,-31.225124,-16.373579,-23.922558,24.931625,5.080841,36.5724,-12.59089,1.819129,-5.017742,-12.605953,-2.2715993,16.604036,-18.86339,5.708123,12.727568,-30.73994,17.706182,25.680153,17.144354,-15.400439,15.068229,-9.897166,-22.313667,8.094409,19.458845,24.377708,6.474164,18.834993,19.471453,8.51582,-19.627277,-3.175221,12.265604,-28.884497,-0.037981436,-6.683147,8.747124,17.780706,-18.129723,3.567859,-15.675868,-15.490503,8.0264,-12.926284,11.318758,-8.528932,8.620113,1.4925476,12.898408,-27.052784,-25.942377,6.808448,-4.651781,15.785802
NCI-H2227,10.805795,-0.79252523,-4.973112,4.7979627,-3.3602781,3.4299207,1.629604,-6.2433734,-3.2583678,-6.049262,4.8148975,-4.1330523,10.007491,6.2153287,-1.2798079,-6.9363856,-3.1957529,-4.192842,6.558363,0.7599441,-10.545755,-4.6624923,4.105764,3.8078458,-1.639376,4.373243,4.8730745,-3.475031,-1.4142371,1.4741311,5.1584544,2.7878008,0.6273346,-0.19866034,4.637704,3.8494008,0.30359074,2.8756824,0.96332,-3.5166724,0.15989439,8.378621,-5.3754044,-4.6735673,-4.9307585,-8.31283,-0.2571875,4.639741,-0.49028343,6.1207023,-0.14236762,8.736534,2.8816063,-3.1612494,1.8206502,-5.817608,-6.7649326,-3.591337,-4.2142396,-11.358527,-2.9410868,-10.431533,5.9015474,6.513744,13.281094,-6.595785,2.6051695,-7.9133415,-3.0912201,0.5754085,4.67254,-1.3369279,-1.7848517,1.5074421,-12.154481,4.0035625,11.096034,6.18274,-7.184161,7.6771364,-6.672713,-2.0962732,3.3688571,6.7478347,10.516533,1.6776543,3.3284993,3.8757432,2.4766474,-3.190652,0.02765032,3.4686751,-12.476121,4.0811844,-2.5028718,4.1052823,3.1906064,-9.571804,-0.5983667,-5.442639,-8.656944,-3.7819324,-1.949326,8.798351,0.2889462,4.529632,-1.4442753,1.0318897,-5.922312,-3.1537864,6.0677586,1.8133731,3.2678149
Karpas-45,28.795725,-10.4470415,-30.559393,20.885221,-6.5592303,16.717001,22.493263,-25.217648,7.556502,-22.101515,17.142319,-9.435778,32.172707,15.327827,2.9875147,-15.169747,-14.731441,-11.104059,26.634583,1.7119757,-34.956528,-14.021993,21.267567,11.6385145,-5.5927815,4.2240286,20.180422,-17.596905,-4.6781535,15.067583,9.246937,3.781283,8.704769,4.4360495,-2.297807,10.58124,-1.089966,10.842032,-15.665961,-27.150263,5.8017955,15.426475,-4.4389544,-21.208858,-23.791754,-33.22944,-12.164756,27.626677,14.283964,25.978905,-21.955349,18.589565,10.460422,-8.774783,5.483768,-30.691288,-30.57866,-19.741388,-32.469604,-40.782906,-21.634275,-29.752213,31.602575,12.557847,43.895435,-16.51554,0.516588,-17.221247,-15.954898,-6.5786896,20.035187,-17.75189,3.0236096,13.053066,-37.36159,22.618069,29.847885,25.677248,-20.435595,21.192932,-17.35875,-24.162674,3.249805,25.424738,30.968832,12.874241,22.437899,23.044521,15.178303,-20.942284,-1.7934452,16.919985,-37.90842,11.300082,-8.863142,13.329302,23.386213,-28.653921,7.7795143,-23.355303,-19.804327,4.1744313,-13.823352,17.295074,-4.593818,8.400272,0.96208185,15.274708,-30.84994,-29.521627,10.966036,1.2931725,18.970509
TE-11,11.568902,-8.258113,-18.874073,12.290113,1.6982734,6.198119,14.088518,-12.166652,9.001461,-11.139857,9.648354,0.26278356,17.828342,7.526059,6.2752843,-6.191443,-8.031336,-4.149566,14.200847,-0.07041139,-20.734598,-6.672077,13.70701,3.7427223,-2.7148607,-4.098579,14.532766,-10.290435,-0.3937825,7.5960217,2.4728892,2.639676,8.324184,0.09722876,-4.9006834,6.279962,0.563114,3.9747036,-10.9448,-16.889738,3.4170306,0.8196627,0.8335698,-13.172906,-15.659749,-16.77382,-8.85707,19.642725,12.440778,15.591906,-15.769369,1.8385293,0.84816086,0.028733402,0.0426206,-18.62882,-14.850339,-11.277316,-20.390575,-21.07153,-13.934131,-9.53989,16.38185,4.1513977,20.491285,-3.7428777,-4.071607,-4.5926037,-9.164136,-5.5547147,11.062629,-13.553394,5.1728544,9.781425,-16.983946,13.775593,11.03937,11.53747,-6.7797794,7.730551,-2.7518723,-13.281771,1.4830096,13.769444,11.343685,7.38548,15.422931,12.863761,12.024167,-13.635341,-2.5397766,8.742061,-17.211842,6.933623,-7.91123,2.5122008,14.4798,-12.486938,6.451249,-10.420245,-4.6757464,7.226246,-8.707064,4.4022994,-6.5169034,1.1532441,2.3445156,9.757438,-18.29414,-17.67025,-0.868613,2.5487983,12.109335
Loucy,20.913235,19.508728,26.721796,6.851457,-25.400776,-11.567396,-28.91662,2.4657733,-34.97017,8.763466,-11.526212,-17.99162,-7.9542336,0.38240036,-0.70406526,-11.141961,10.413821,-15.651861,-14.976234,9.93385,-3.5565083,1.237709,-18.87002,11.247407,6.065396,29.181019,5.9917903,14.999306,-14.449416,-13.2192745,4.221267,9.7497225,-17.969326,3.089344,14.471769,-5.0289283,-7.828064,-11.05089,28.33813,30.408012,3.3452492,35.360493,-23.03822,12.265211,17.16575,13.764501,6.4293013,-13.565573,-33.714077,-15.603033,39.193893,27.468903,2.2041774,-10.350137,8.19985,17.817732,9.6847,4.0716944,7.088897,-3.059059,18.212673,-22.67295,-21.188156,6.514194,17.688187,-20.453747,20.898493,-23.703661,11.837488,18.285604,-11.210077,27.60406,-26.425278,-15.990345,-17.732264,-17.809612,21.391973,7.3448777,-18.53946,13.114823,-20.849771,23.185442,9.861448,-4.6023135,17.654291,-15.44668,-25.433699,-15.337002,-22.05027,18.62954,19.388254,-12.521893,-20.636005,12.101085,5.477048,4.773317,-28.772358,0.17498988,-18.211021,10.569047,-23.879837,-30.532547,20.948223,28.640299,19.35204,16.756933,-16.666029,-27.47986,18.11873,34.14546,29.259216,2.8393419,-18.123594
U2OS,20.328108,-11.198075,-27.512709,20.167355,-1.3263549,11.582658,22.218405,-21.573723,11.910869,-18.078972,13.815191,-5.0402436,25.262373,10.842929,7.1738954,-8.734135,-12.201909,-4.846302,20.9887,1.5994656,-29.670193,-11.146668,19.659798,9.456988,-0.1840136,-4.192677,19.080873,-13.119515,-1.5197811,11.615922,5.6559186,5.618553,10.651325,1.4467851,-7.5706077,7.66076,0.13650697,6.0977235,-17.56523,-24.528467,3.4848378,4.471848,0.2364228,-19.035456,-21.342545,-24.180676,-15.321391,25.955753,17.58657,23.0588,-22.400803,8.001473,6.7345304,-4.059148,4.444184,-25.064484,-22.016233,-15.770479,-32.13225,-30.797695,-20.362745,-20.156504,24.641829,5.8379645,33.629303,-10.04584,-2.2425053,-7.5526366,-12.890708,-5.642975,15.984791,-20.676445,6.7993665,14.287778,-28.62684,18.006428,21.620474,18.203897,-12.955278,13.34726,-8.852627,-21.685799,3.6960273,20.428373,21.131222,9.507635,21.237776,18.811853,13.043393,-20.702135,-2.1747148,13.498762,-27.906698,4.861223,-7.8635283,7.30936,19.214157,-18.159513,7.4033537,-17.32975,-12.216293,6.8831654,-12.864122,8.555479,-8.984453,4.4801283,2.0722177,13.43271,-27.662178,-26.182842,4.098216,-2.1098568,17.470682
NCI-H716,22.37701,-8.448784,-19.32886,11.320147,0.28650922,12.143911,10.511045,-19.512417,-2.1385763,-4.1691365,16.33352,0.22296602,24.627848,16.369543,-1.4011116,-14.289924,-12.393889,-7.3832116,15.212273,-1.8998052,-16.870924,-5.9698052,14.2346115,-1.0118362,2.8681877,-0.8142537,14.441427,-13.203132,-0.12901703,12.036865,13.345053,4.475843,8.627188,7.6289263,6.9039993,12.023654,5.572769,3.1536148,-8.262601,-10.800058,1.8203303,10.878823,-3.9503884,-16.832436,-11.353962,-15.71363,-8.715327,11.266686,9.043471,14.223426,-7.78134,13.620456,3.2310052,-8.944531,-0.89323366,-17.622608,-16.871006,-0.8624169,-12.24811,-25.591227,-6.850347,-20.213095,17.599703,10.381605,28.156399,-16.170603,8.175329,-3.7246063,-3.0698924,0.64843756,16.175787,-8.361528,1.7767757,7.6213,-22.082434,16.714386,24.004488,9.547132,-9.552726,6.9745083,-5.5857615,-15.311595,7.208394,17.373684,17.903711,4.9922285,11.4635515,7.4158726,4.7058806,-15.76907,-3.2448432,7.544783,-25.952194,0.8589139,-5.551691,6.3846407,12.865427,-16.79463,2.0329618,-9.655128,-14.022622,-0.22506039,-12.267745,10.595569,-6.5326476,6.820509,-2.1665149,7.154581,-21.026815,-9.959928,11.894364,1.2229034,10.99771
CTV-1,18.655231,17.547525,24.43415,6.3311205,-23.011389,-10.693607,-26.481098,2.5315595,-31.677727,7.2000985,-10.577461,-16.323088,-7.6750846,-0.3001785,-0.65629256,-10.013026,9.466986,-13.664489,-13.864987,9.003096,-4.0097933,1.0644281,-17.578747,10.270849,5.157229,26.190739,5.220733,14.316872,-12.716693,-12.444882,3.9527116,8.9650755,-16.196981,1.847041,13.113351,-4.7325974,-6.6981206,-10.141855,25.947594,27.707502,2.6287444,31.500013,-20.75983,11.351606,15.4660635,12.608775,5.6238546,-12.207634,-30.846601,-14.196472,35.68201,24.353678,1.3881979,-9.074229,7.0545206,16.01254,9.024682,3.6332052,6.081161,-1.8534077,16.266087,-20.059954,-19.718622,6.4194984,15.130218,-18.14452,18.334515,-21.886374,10.854176,16.653246,-10.385952,24.748331,-24.041042,-14.356808,-15.312409,-16.429598,18.710024,6.256786,-16.189404,11.783793,-18.70417,21.759817,8.2301855,-4.146328,15.567259,-13.89331,-22.881117,-14.231623,-19.689877,16.930897,17.695135,-11.524537,-18.301268,11.334005,4.5530715,3.6987011,-26.30344,0.46895674,-15.928095,9.719077,-21.684755,-27.876556,19.066402,25.377996,17.308445,15.105639,-15.345085,-25.007637,16.465015,31.116241,26.149775,2.6240551,-16.469755
COR-L23,7.325434,-5.676956,-12.803649,8.779121,1.0041534,3.9225218,9.303847,-8.12753,6.591011,-8.041698,6.25861,-0.016133485,11.686832,4.2454233,4.7641087,-3.5503936,-5.229067,-2.2346845,9.233252,0.19533645,-14.66082,-4.6471086,9.098472,3.0789533,-1.556542,-3.0030088,9.669228,-6.2299066,-0.07565384,4.2855906,1.5126505,2.1825147,5.6830144,-0.2395207,-4.0766783,3.6979115,0.5299272,2.3331876,-7.4804068,-11.38018,2.0849802,-0.08361832,0.7135616,-8.6656,-10.817569,-10.938766,-6.77205,13.518129,8.11628,10.716518,-10.575144,0.59432447,0.3362879,0.2681998,0.082759604,-12.230535,-9.495451,-7.6987886,-14.852778,-13.84109,-10.070071,-6.066051,10.412777,2.5365484,13.538015,-1.9272572,-3.39707,-3.0281334,-6.2729073,-3.7961285,6.97996,-9.488244,3.7415447,6.8362513,-11.185667,8.853997,6.924415,7.7847733,-4.11681,4.9949937,-1.6826351,-8.820767,0.5542548,9.2519,7.2940917,4.8921194,10.638288,8.439289,8.3349495,-9.362106,-1.8213121,5.848263,-11.032675,4.479393,-5.5142503,1.0095992,9.643275,-7.829855,4.6475053,-7.3401675,-3.0078282,4.621413,-5.6509485,2.4649863,-4.5865817,0.526861,1.5569398,6.374775,-12.53055,-11.658872,-0.9614373,1.3448349,8.328422
HL-60,21.635174,20.961746,28.911985,8.560519,-27.272291,-13.093302,-32.027927,3.0051315,-36.84419,8.26208,-12.801924,-19.287024,-9.601912,-1.9355016,0.79168564,-11.97488,11.062902,-15.529871,-17.075603,11.205653,-5.509331,1.2112341,-20.867907,12.037711,6.4129434,30.35552,7.067227,17.59144,-15.104185,-15.593521,4.125129,11.588752,-19.068262,1.0578738,14.798697,-6.155558,-7.795455,-12.729569,30.671257,33.152637,2.7542956,35.87618,-23.617613,13.478652,18.319422,15.603967,5.495151,-13.803449,-36.804592,-17.420252,42.34446,27.883593,0.35227463,-10.412762,7.7119894,18.808786,11.2173605,3.9850934,5.4415693,-1.3147405,18.780464,-22.963268,-24.507267,7.8098454,17.321997,-20.977531,21.183815,-24.988304,12.844011,19.976772,-12.68522,29.033007,-28.705069,-16.7592,-17.318552,-19.64579,21.389315,7.7698603,-18.41101,12.975436,-21.351686,26.522272,8.570448,-5.0176163,17.462378,-16.451546,-27.10853,-17.292536,-22.748692,19.84479,20.839373,-14.191475,-21.227194,14.344496,5.116798,3.379071,-31.111956,1.8452985,-17.970943,11.113917,-25.126724,-32.992935,22.905075,29.300316,20.269936,17.470163,-17.927174,-29.979454,19.352667,37.374996,30.325111,2.6922944,-19.642973
NCI-H226,17.388605,-9.815264,-23.78342,18.857084,-1.6744702,9.171635,18.401663,-18.721916,10.0888405,-16.379656,11.996958,-5.105146,21.508974,8.5066395,6.184269,-7.286472,-10.268304,-2.9745963,18.064768,1.5575509,-27.412537,-9.326305,16.628162,8.6514015,-1.049953,-4.102109,16.214687,-9.332392,-0.91811323,9.199514,5.098824,5.179701,9.369864,-0.41574353,-7.5435014,6.1324835,1.139427,5.0676093,-14.9221325,-21.245388,2.3608463,3.2225873,0.050100237,-15.703812,-18.14676,-20.830591,-13.616061,23.736074,14.104476,20.025068,-19.47643,5.293934,4.980016,-2.2439125,3.692342,-21.933504,-18.41991,-14.0049715,-28.210659,-26.057417,-17.745695,-17.234344,20.71812,6.1286407,29.23637,-7.8545675,-2.5028355,-7.2120805,-11.94777,-4.933703,13.197879,-17.976368,6.274902,12.296262,-24.009209,15.4025955,18.163542,15.3873,-10.57929,11.683325,-7.0534983,-18.002222,1.5172172,17.57312,18.075254,7.4005737,18.205256,16.353289,11.471944,-17.932142,-2.1580098,11.388376,-24.11095,5.7782173,-7.8585215,4.5509353,16.034727,-15.305619,6.1602864,-15.012252,-11.00489,7.023212,-10.735726,7.0491815,-7.4373283,4.300278,1.2158781,12.45397,-23.665361,-22.575495,3.0916348,-2.2979121,14.705767
DEL,26.109,-12.815855,-32.406067,21.261509,-3.3385124,15.562933,25.902225,-26.591257,12.144689,-20.686846,17.07568,-6.93604,31.491255,15.457904,5.955871,-12.74759,-15.1368685,-9.048742,26.772686,1.2867569,-33.312504,-13.626162,23.38686,10.984329,-1.7147882,-0.72032547,21.38307,-18.433926,-3.573281,16.514208,7.7525654,4.7808614,11.473361,4.835073,-5.855811,10.538402,-1.0146366,9.277872,-19.46967,-29.24072,5.6323705,11.429831,-1.8246143,-23.121994,-24.381737,-30.944553,-15.803758,28.871046,19.85439,26.827185,-25.506304,14.955648,10.40765,-6.8727922,7.0336976,-29.665165,-28.023964,-18.30051,-34.32596,-38.805626,-22.534147,-27.363497,31.54423,8.230091,41.86802,-14.490949,-0.54057693,-11.347972,-15.910339,-6.9118986,20.385689,-21.59094,6.229504,15.631625,-35.940586,22.354483,27.565382,23.605692,-18.567924,17.972242,-13.968425,-26.987934,6.0299997,25.083452,28.210432,11.669684,23.605383,22.74372,14.071598,-23.83332,-2.6370735,17.247929,-35.03444,5.9640083,-7.9069533,11.917313,23.79923,-25.26962,7.7909985,-21.602701,-16.102129,7.527188,-15.090488,13.608895,-8.460622,6.6230927,2.933417,15.294485,-32.35969,-31.000101,7.457049,-1.1906908,20.512466
YH-13,18.666746,-7.028293,-19.91189,19.96083,-6.41186,8.908752,16.811083,-19.768873,7.154314,-16.606527,9.503217,-10.163158,18.060467,8.169724,5.5616336,-8.016888,-8.942627,-3.7481205,15.65892,3.6549084,-24.538857,-10.544778,15.001219,11.754139,1.5379966,1.1247314,14.206808,-9.422115,-3.210118,9.103346,4.9564667,5.7754545,6.168278,3.965113,-7.5663667,3.6163018,-1.7360135,4.3533683,-13.0501995,-18.514639,1.887721,10.171387,-0.825834,-14.005718,-13.802427,-18.17735,-13.553419,20.358746,10.213463,16.831207,-16.044994,9.998591,9.952777,-4.663511,8.957778,-17.371084,-16.027857,-14.493317,-28.10493,-25.903992,-16.264067,-22.133898,19.488754,3.6233304,31.598297,-10.716717,1.0858808,-9.572512,-11.983987,-2.4212182,11.078562,-14.431699,3.1479073,10.4333935,-26.367897,10.88237,20.506168,17.283472,-14.6864395,13.142457,-11.8529625,-18.555916,3.6899626,16.09203,21.26185,4.769706,12.605497,15.488929,5.616271,-15.414313,0.41114464,10.472603,-24.192587,3.3724687,-3.9242904,7.601076,11.347938,-13.5990305,3.239505,-14.48329,-14.403443,2.7800252,-7.595986,10.095967,-4.0771475,7.6337147,1.2175586,9.30568,-20.463547,-19.742186,9.276167,-6.402646,11.684868
HEC-1,24.938553,-13.8278,-33.925797,24.035292,-1.5944626,13.322148,26.925514,-26.178076,14.273773,-19.100822,17.266905,-4.7932057,31.879274,15.240488,8.455812,-10.522142,-14.91632,-7.475591,26.650917,1.6817844,-34.141136,-12.224663,24.921473,10.85579,-0.041960046,-4.6949773,24.19929,-17.469099,-2.5908065,15.413425,6.4628983,6.751512,13.206878,3.9579456,-8.775415,10.220397,-0.17366798,7.7895722,-20.749727,-30.461134,5.9570866,6.943026,-1.7438692,-23.644938,-25.926924,-30.034891,-17.27737,32.33511,22.01096,28.07968,-27.157736,9.895756,7.654062,-3.4520276,5.4433913,-30.68248,-26.744226,-18.282625,-36.436092,-38.59323,-23.326485,-24.514498,30.714247,5.80689,42.36055,-12.206057,-2.2878911,-8.189998,-16.23634,-7.0129433,20.041708,-23.33856,8.258299,16.537056,-35.653076,22.91064,26.895052,22.181211,-16.25947,16.476366,-10.133982,-27.414143,7.466441,24.684677,26.24028,10.632345,25.34212,23.668543,15.182075,-25.13013,-4.0261946,16.383305,-34.02799,5.4499087,-10.032435,8.356135,23.7234,-22.861744,7.535107,-20.096453,-14.011979,10.512204,-15.483171,11.767969,-10.282004,5.624591,2.8721404,16.08088,-33.58539,-32.04205,4.401924,-1.6097761,20.97864
BT-20,5.5074534,5.683807,9.860481,4.362254,-7.070662,-6.2347503,-10.608798,-0.19337967,-11.267489,1.000549,-3.6684697,-5.8361325,-4.3130083,-0.81143165,0.030956356,-3.175256,3.4013774,-1.7359613,-6.5108438,3.9807138,-3.9315007,-0.2263905,-7.135316,3.6949143,3.6237109,6.168347,2.5672948,6.353469,-2.976448,-6.514678,2.506103,6.7080574,-5.1057386,0.04340665,4.687369,-2.395089,-1.3514664,-4.8064446,9.920243,11.134843,-2.6379595,8.838032,-6.902834,3.9179108,6.39544,6.2224483,-0.11372574,-4.525421,-11.128367,-4.752219,13.296683,5.4338126,-0.23773047,-1.4470698,3.8849857,7.0896907,7.1609387,2.7730083,1.3524653,2.8687303,6.2958665,-6.72446,-9.687201,2.1468484,2.9783335,-4.6531234,6.028173,-6.001624,4.0223885,7.1522965,-4.6083174,7.3149796,-8.23312,-4.0984473,-3.9606507,-7.304741,5.09953,0.059610456,-4.3879457,3.3374097,-5.256289,11.265448,4.888548,-2.2405128,4.9092336,-6.928527,-8.7734,-7.051626,-8.326575,6.0699134,6.0368357,-5.57269,-4.527971,0.94940954,1.0195905,-1.2737331,-10.61375,2.271515,-5.8996305,4.3335896,-8.726855,-9.569626,6.7937975,7.2513404,3.9654675,6.7230625,-6.089077,-10.6102295,6.294633,13.052012,8.446265,-0.89965767,-6.260435
UACC-812,16.525667,-11.289394,-24.776136,15.165669,2.2085268,9.565663,20.23003,-18.38917,11.035409,-12.312498,13.1201105,0.25774357,23.320435,11.951973,6.9510474,-8.513474,-11.036066,-5.789125,18.973078,-0.3878613,-23.798656,-8.410476,17.896616,4.2964163,-0.6569235,-5.5149527,18.754519,-15.051744,-0.80397296,12.46733,3.9628716,3.445507,11.453645,3.8151462,-6.0708246,8.723106,0.6442343,5.3024616,-15.967973,-21.882427,4.863195,3.7482882,1.4881207,-18.404188,-19.018072,-21.472754,-12.426351,23.298134,18.132616,19.99618,-20.783669,4.8137164,3.9843698,-1.9663104,2.0651252,-23.10993,-19.512299,-12.4796295,-25.400942,-28.018282,-16.539446,-14.53485,22.573309,3.9932363,27.93464,-7.411015,-2.0986426,-4.0246778,-10.686734,-6.5250683,15.465398,-17.888475,7.117275,13.020903,-24.174437,17.968357,17.006641,14.884724,-9.938543,9.572447,-4.712291,-19.911953,5.461055,18.310831,16.273552,8.286782,19.085789,15.967024,12.426892,-19.189457,-2.3694115,11.528604,-23.550743,4.7009325,-7.883239,5.565592,18.414686,-16.557693,6.554704,-13.087877,-7.315482,9.625777,-12.403359,6.111451,-9.462358,2.1747043,3.0879385,12.327441,-24.39261,-23.167757,1.2315634,1.3096201,15.845214
L-363,13.703985,12.03438,16.322367,4.3349967,-17.055239,-6.4725513,-17.062416,0.017386727,-21.738003,5.529658,-7.484549,-12.168749,-4.168936,0.99168956,1.5983348,-7.953235,6.252338,-11.639285,-9.046197,6.1967373,-2.8140924,-0.8455699,-10.998261,8.093738,3.92754,20.509125,4.3344927,8.229355,-10.617015,-6.6492853,2.2260482,5.273003,-11.393497,3.9090836,8.0279,-2.9404678,-6.2770877,-6.8596673,17.048279,18.711973,3.3211803,25.349304,-14.544075,6.9925942,10.329282,8.422004,2.70278,-7.5970325,-21.22807,-9.846314,24.19013,19.869677,3.5806928,-7.8160105,7.212965,11.947527,5.0302258,1.1267989,2.7159848,-4.7145224,9.647444,-16.02074,-11.603187,3.0132313,13.931544,-14.14482,13.6031275,-16.868029,6.2079225,10.417566,-6.573531,17.554516,-16.560602,-9.341406,-13.75482,-11.059825,14.370005,6.7200265,-13.388278,8.645407,-14.921556,11.555156,6.753522,-1.7773771,12.660986,-9.64214,-16.377687,-9.285374,-14.467488,10.571164,13.023732,-6.4691463,-14.469229,8.162903,4.770612,4.6874886,-18.10287,-0.93186575,-11.595299,6.0785546,-15.065541,-19.675072,13.504937,19.2009,13.048469,9.971658,-9.582368,-17.767153,10.689056,21.234383,20.216778,1.2490101,-10.510422
NCI-H1838,3.2802682,0.8491922,1.9851081,3.406534,-2.2705107,-2.5110872,-3.480563,-0.3038711,-3.6945345,-3.8834584,-0.46764398,-1.2665555,0.14731058,-2.238032,5.166318,-3.3750732,0.65527683,-0.443103,-2.5490057,0.788792,-9.971067,-2.2684002,-2.525827,0.84171724,-0.96799856,1.4277368,4.0133266,3.058076,-0.16070718,-3.2954004,1.4203568,2.9103177,0.2398555,-5.4719963,1.0281322,0.30969632,0.7509808,-3.7739227,2.8204348,4.9734697,-2.0850143,1.3631583,-0.36749136,-0.20333289,-0.8332122,1.4977151,-4.5162964,1.5737038,-3.9976394,-0.34737396,4.8078356,0.6160243,-3.2357514,-0.74313504,-0.86427474,-0.24680021,0.7471154,-2.0987616,-5.5755568,-0.7600836,-1.3718143,-1.4477854,-3.8421447,4.039788,0.31336102,-0.7854638,-0.62450504,-5.7175465,2.0739954,1.1368043,-0.34473032,-0.57433593,-2.888283,1.5115821,-1.0806187,-1.139001,0.3545934,1.7057546,-1.1296626,0.708957,-1.3525752,4.8706956,-1.5926783,2.7197917,0.98755455,-0.10484945,-0.13613725,-3.7962062,1.3023032,-0.79254055,4.1796827,-1.1686767,-4.9636154,5.4822507,-2.2094734,-2.361192,-2.6703095,-0.18696329,0.6676222,0.44871706,-3.0005212,-5.435859,1.798097,1.3444897,-0.80343485,1.3906225,-2.8284535,-3.8886676,-0.57662565,5.086101,1.7736173,2.897024,-0.07718814
NB69,4.955685,4.473789,5.949271,3.4839334,-6.920184,-2.6379025,-5.0126996,-2.221425,-6.8323216,0.5886273,-3.241625,-6.575789,-1.6643914,0.5239341,2.2745595,-3.0111966,2.4531431,-4.2382116,-3.1081831,3.2189376,-2.7629938,-2.3292627,-3.173046,4.972232,2.5325825,7.243444,2.9468071,2.1456983,-4.7871537,-2.3356464,0.47044605,3.5739396,-4.4231234,2.7469287,1.4387717,-1.8148772,-3.256202,-2.602785,5.0600343,6.0214934,0.9228302,10.175624,-5.1451764,2.1864667,3.6365669,3.2136195,-0.598666,-1.9969543,-7.636117,-3.3192995,7.8199267,8.01449,3.6821198,-3.2865584,5.072039,5.499027,2.6685367,-1.4171145,-2.2272315,-2.434523,1.9542711,-7.8094807,-3.8202724,-0.41287196,7.698427,-5.713438,4.997853,-6.684242,0.76022613,3.8923542,-2.8696442,5.094849,-5.8484106,-2.5710502,-7.9413996,-4.882953,6.2985177,4.2759523,-6.249778,3.62371,-6.7223115,2.918084,3.5633063,-0.034481265,6.4706464,-4.207619,-6.147288,-2.7756472,-5.8515573,3.4575424,4.9580994,-1.7422605,-5.854607,2.4466796,3.053091,2.900081,-7.0384035,0.37707287,-4.5509815,1.504802,-5.9769335,-7.569734,5.392678,7.8898063,4.8761325,4.205675,-2.3668563,-6.736742,3.6114197,7.2120275,8.615066,-2.0334198,-3.4940338
NUGC-3,1.9358324,-2.6390188,-4.8118973,4.6631937,1.3404113,0.6930695,2.8581526,-2.7877707,3.3414795,-5.7171288,2.313495,0.20757905,3.84879,-0.6645653,3.8925502,-2.1414793,-2.1397574,1.2014699,2.2883902,0.14941175,-10.061461,-3.0878441,2.9244254,0.767413,-0.9145827,-3.629437,4.890171,-1.1828806,1.1903903,-0.023192354,0.63260716,2.1812181,3.033326,-3.9806082,-2.0477781,1.0763694,1.2256771,-0.44679147,-2.4913332,-3.4282687,-1.2154405,-3.0049922,2.3316379,-3.4990463,-4.3186975,-3.1857593,-4.607057,5.9601254,2.512241,3.773192,-3.9805925,-2.6708224,-2.4102037,1.0730778,-1.3927182,-5.0009966,-2.3563821,-3.6292036,-8.2574005,-3.6322846,-5.7958465,-0.70686,2.29752,2.4060357,2.4138775,0.7649571,-3.1333246,-1.693034,-2.076606,-1.0209931,2.2008898,-5.92338,1.6092094,4.168627,-2.0537987,2.7529378,0.18848261,2.0312939,0.16424716,0.35421294,1.2127413,-1.3412014,-2.6053753,4.0992327,0.70784193,2.3810315,4.412738,1.6006635,4.3183694,-4.327793,-0.3013484,1.5001589,-3.449032,3.3349962,-3.3946412,-2.0417392,3.4021523,-1.367113,3.4157522,-2.6044185,-0.2977448,1.1984614,-1.9973327,-1.4857329,-3.6190846,-0.1722217,0.7375991,1.7527477,-5.176081,-3.1729605,-1.7503375,0.85811657,3.4249809
LP-1,10.307412,2.0628998,0.22685283,2.4151986,-6.0312266,1.6392947,-3.6749492,-3.2483902,-7.7104626,-2.1038818,1.996831,-4.509146,5.8034954,3.9294426,-1.540952,-6.8397293,-1.3468522,-5.6996946,2.235353,1.2171267,-7.3456125,-2.5119634,-0.44718155,2.5297163,-1.9675289,8.008632,3.0481713,-0.027225228,-3.1666927,0.016998708,4.256995,1.2412583,-2.2087326,-0.408796,5.9907956,2.551512,-0.45020866,0.8909231,5.1727037,2.2927544,1.3198732,11.102139,-6.365867,-1.4546702,-1.0722327,-4.3159447,1.2017295,1.0311073,-5.772352,1.4686236,5.8249965,10.416174,0.79178524,-4.1778235,0.91981196,-2.5103533,-4.7449875,-1.6785681,-1.2098024,-8.319436,0.40008107,-9.44672,1.3429574,6.716888,10.56926,-7.557813,4.383985,-9.845112,-0.0053964686,2.2092605,2.2405343,3.6600409,-5.3211474,-1.5791186,-9.039661,1.2854054,9.935202,5.2636228,-7.1053686,6.8219285,-7.54029,1.8656548,1.597881,4.3723783,8.819681,0.0027988777,-1.1935295,-0.008769378,-0.811067,0.3157113,3.2405665,0.8105025,-11.342305,6.292745,-1.606553,3.1188345,-1.3641208,-7.3753147,-1.9310812,-2.4506698,-8.985796,-6.700898,1.4241865,9.564512,3.4816682,4.4624424,-3.883765,-2.956266,-1.6173332,2.886488,8.197118,3.3964674,-0.1285249
U266B1,15.835566,15.57881,20.917435,7.337423,-20.687897,-9.750623,-23.219511,0.8448739,-26.214518,6.4930983,-9.442657,-15.443848,-6.7028303,-0.775538,1.0057267,-8.951961,8.189944,-11.967328,-12.251993,9.004435,-3.2633266,0.100513004,-14.106843,10.064479,5.8124523,22.25565,6.470352,11.22205,-12.20813,-10.723542,2.7169259,9.292685,-14.615368,3.235714,9.909255,-5.1917343,-6.4770694,-9.050729,22.107159,23.098677,2.7001336,27.157228,-17.956425,9.665519,14.068637,11.5560875,4.334279,-10.02104,-27.479427,-12.922127,29.956888,21.423632,2.060774,-7.9675393,7.1209245,14.352456,8.484407,2.1538503,2.859743,-2.784955,13.384296,-18.86911,-16.899826,3.9438727,15.611564,-16.521397,16.445068,-18.161655,8.262653,15.328679,-9.58911,21.617441,-21.406881,-12.750033,-14.917372,-14.492507,17.331963,6.925508,-14.880642,9.923476,-16.576256,17.336805,6.976718,-4.197957,14.684288,-12.903921,-20.44768,-11.084651,-17.728317,15.109583,14.756658,-10.490679,-15.805348,10.303877,4.8962393,3.381423,-22.725807,1.8858064,-14.224598,7.78809,-18.528046,-24.126863,17.125154,22.418756,15.639241,13.900586,-11.73492,-21.765364,14.681455,26.828981,23.697681,0.11471306,-14.666476
Jiyoye,19.111494,16.843035,24.573175,6.312037,-22.682512,-10.349647,-26.595407,2.6790473,-32.39594,4.335316,-10.371697,-16.392147,-8.043798,-1.2138686,-0.3159028,-11.064518,9.015858,-12.591616,-14.539339,8.358626,-7.53997,-0.08775037,-18.618507,10.12188,4.1433797,26.294044,5.1077957,16.076782,-11.755929,-13.160374,4.894332,8.838733,-15.489904,-0.99537134,13.648112,-4.364342,-5.9645853,-10.568486,26.347122,28.62029,1.1545875,31.459665,-19.904259,11.028324,14.661402,12.734531,4.5871596,-11.945012,-30.95191,-13.831274,36.199127,23.89007,0.46391344,-9.436004,6.659797,15.638413,8.90605,3.4353025,5.1275835,-0.8633395,14.65808,-19.532179,-20.324085,8.49829,13.111967,-17.495821,17.096333,-24.287811,11.1608,16.136374,-9.94392,23.182274,-23.776823,-12.885104,-14.025016,-16.904072,17.71064,5.484535,-15.353422,11.792057,-18.768442,23.454521,6.5714397,-3.0829036,14.381844,-12.862381,-22.266907,-15.862242,-18.901373,15.743928,19.110708,-11.138448,-18.719769,12.174304,3.575962,2.9828398,-26.661165,0.06349356,-14.506298,9.939161,-22.90263,-28.97108,18.776327,24.079695,16.294561,14.428835,-16.738546,-25.409328,15.563611,31.770079,26.062399,3.322399,-15.694354
ALL-PO,16.274096,4.035433,0.5529494,3.791622,-10.586367,4.1977797,-4.991685,-4.7226706,-11.905033,-2.4407337,1.9170758,-7.874087,7.4527373,4.3071566,-1.8768106,-10.444096,-1.5433967,-10.225433,2.733619,2.3510911,-9.206187,-3.2875135,-1.6539651,4.057419,-2.7709205,13.434342,4.733268,-1.010926,-6.407314,0.89742404,5.096877,0.13231018,-4.542465,1.4627959,7.6620173,2.8318613,-1.7917205,1.090943,6.784865,3.9328434,4.2706556,18.221703,-9.115339,-1.494028,-0.27193102,-6.4251847,2.1872036,0.48518276,-9.723484,1.1433278,8.695909,17.342146,1.929272,-8.400588,0.2751933,-4.1744723,-9.223682,-3.19543,-3.0937343,-14.05695,0.47674963,-15.444792,3.066197,8.978467,17.15024,-13.095864,7.9349675,-15.131917,1.042516,3.8416812,3.084382,6.382883,-9.467281,-3.3523767,-14.598282,1.884952,16.018446,9.959207,-11.403677,9.862169,-12.761598,0.24865752,0.12189031,6.4343085,13.826232,0.88938606,-2.527293,0.7050551,-1.7437863,1.1304806,6.252972,0.76786584,-18.47148,11.034422,-0.6611098,6.4660497,-1.7968589,-10.360662,-2.3830726,-4.652321,-13.459888,-11.306814,2.667075,14.918196,6.571972,6.94211,-5.8907332,-3.8361802,-2.5945034,3.9321165,14.365712,4.877535,-0.8936869
769-P,6.218299,11.913362,22.831411,9.503477,-14.512556,-12.813725,-18.788982,1.5497009,-19.700624,0.2826876,-12.086362,-12.798289,-14.914953,-7.941664,5.5033345,-3.5843356,8.751144,-0.9570226,-17.231731,7.95424,-8.253422,-1.4065528,-16.838,9.041653,8.358831,11.438452,6.4583645,16.589226,-6.117883,-14.012217,0.6178597,13.625604,-10.417725,-3.9276245,4.482135,-8.36853,-5.1389227,-14.058347,17.070734,25.302351,-5.9290323,14.339357,-8.211186,10.139281,13.810891,18.308643,-5.0703053,-9.500763,-22.01548,-14.460134,26.552347,8.148937,-0.3635429,-3.7908437,8.001648,17.534184,16.794966,2.7857778,-3.2123485,11.954901,8.855615,-10.336225,-22.393276,1.8862135,-0.5175166,-7.9547033,9.366865,-12.805299,9.511182,14.296885,-12.218146,11.8221245,-16.023771,-5.971113,-3.3350077,-17.831316,4.917165,-0.53491366,-6.1337323,2.7707822,-8.878606,22.392101,3.3920126,-6.1313787,4.499874,-12.597992,-18.777943,-17.250902,-17.63654,11.826924,15.072466,-11.695249,-5.2047024,2.441173,4.2068825,-3.23248,-24.529757,11.484291,-9.116976,11.63734,-13.666215,-19.587492,15.75086,9.754817,7.770825,10.3406925,-11.313351,-22.051218,14.200204,27.064383,16.52002,-5.4011583,-13.057886
MMAc-SF,25.927536,-12.885284,-32.302864,25.863832,-2.7705662,12.377276,26.136446,-28.229658,12.549146,-18.879875,16.870003,-7.079776,30.431297,15.769427,6.856659,-10.428355,-15.153233,-4.880829,25.221909,2.9314246,-32.529533,-12.826094,24.651289,11.9123535,4.014972,-5.783592,23.353579,-15.365474,-2.5204248,14.971096,7.879501,9.129331,12.536983,3.6963727,-8.319973,9.0497,0.0027548838,6.7150283,-20.25452,-29.276434,3.8366039,7.7488766,-1.7829413,-23.508484,-22.598774,-27.549192,-18.139915,29.94005,21.15058,26.618286,-26.071228,10.130486,9.442007,-3.523496,7.907347,-27.850399,-23.523012,-15.863061,-35.792057,-36.263844,-21.43569,-27.066748,28.85882,4.934185,42.60297,-14.004753,0.4012093,-6.6256113,-15.313485,-3.5195427,19.233423,-23.530144,7.417864,16.189173,-35.263348,20.228113,29.267088,20.416018,-17.216417,16.52105,-10.904072,-27.08495,9.156222,23.260708,26.975859,7.291161,22.449167,22.14673,10.515989,-24.377766,-3.2377784,14.952255,-33.6771,0.2946687,-8.237268,8.668683,20.567345,-20.089516,4.89671,-18.878126,-16.730684,9.196525,-14.929635,12.136049,-10.668803,8.38982,1.8066205,14.213471,-32.557533,-30.296068,7.310227,-5.7245426,19.42201
SF539,3.9967532,6.6642013,10.124951,6.888582,-8.765592,-6.5093136,-7.8163323,-3.7906673,-7.648326,3.0456953,-6.501092,-8.641102,-6.032483,-1.6382085,5.60754,-1.7445433,4.283534,-3.1609676,-7.749016,5.8306327,-1.2787261,-2.7403145,-4.476459,6.651069,8.305502,5.7082863,7.1295567,3.4225724,-6.6574235,-3.5147307,-1.171359,8.500663,-6.588693,4.8421173,0.27016056,-5.012073,-5.3366127,-7.111017,6.1860847,10.375954,-0.5921044,9.751011,-4.541063,3.5352037,8.424136,9.773013,-3.752283,-4.4705467,-10.2392645,-8.064341,11.152419,7.369917,4.372772,-2.7737706,7.26586,10.983955,9.283136,-0.3868201,-4.8420715,1.0856502,3.6583714,-9.863128,-7.9341097,-4.629673,7.629369,-7.3556027,7.8248806,-4.3086786,2.2286203,8.481911,-6.0355525,6.535465,-8.747703,-3.4369059,-8.187501,-8.679796,6.932633,3.60311,-6.897659,1.2753092,-6.079489,4.4067106,4.9899616,-3.5114417,6.295927,-8.117243,-11.596315,-5.598922,-11.999687,6.011897,6.484472,-5.283196,-4.663434,-1.103103,5.747853,1.7208452,-12.29013,6.878973,-6.7577004,5.056483,-5.9048114,-8.936916,8.62503,7.5123205,5.4843283,7.0081367,-1.8337934,-11.332318,7.49914,12.9462805,11.7616625,-7.196877,-6.9552035
DMS 273,11.978702,-2.4114084,-6.970163,6.8199344,-3.6695173,5.917644,4.4046655,-10.737578,-2.133035,-4.4509916,5.7796283,-4.778226,9.9745655,6.6710253,0.20672627,-7.4721313,-4.7910695,-4.255168,6.345085,0.5747304,-9.30827,-5.761415,5.622486,3.212302,1.5242885,3.3682325,6.8603926,-5.828135,-2.1555061,5.4242144,5.9714127,2.859602,1.8208234,4.341738,2.0955215,3.7260914,0.381483,1.7176522,-3.0930958,-4.1954327,0.8251764,10.001323,-3.0300763,-7.0967216,-3.8769052,-6.8799467,-4.996766,4.104291,1.3996618,5.8034425,-2.4228256,10.711157,5.7973657,-7.045615,3.4780111,-5.5078864,-7.411433,-2.7992327,-8.724567,-13.222122,-4.3238225,-13.611881,8.0874605,4.3150663,16.388342,-9.830933,5.6611385,-5.826209,-2.7551744,1.0540591,6.307521,-2.98031,-1.0101016,3.0109787,-14.207937,5.5569744,13.465517,7.5627575,-7.894677,5.8568053,-7.226936,-8.179127,3.0663497,8.15577,11.891689,1.3339658,3.13618,4.00536,-0.60283303,-6.624979,0.8844815,4.0227876,-14.343517,0.77858835,-0.19567865,6.0710263,3.8668532,-8.259636,-0.10776693,-5.875213,-9.290642,-3.0167196,-3.9954731,7.5365014,-0.789397,5.1331406,-0.6192991,1.6048867,-8.455936,-4.0549865,9.86207,-2.494459,4.509117
NCI-H2052,50.04984,-23.738129,-64.41932,49.79125,-4.632638,24.365913,49.36118,-50.701954,25.931341,-39.257805,32.92325,-12.863837,62.90553,29.015507,12.602203,-21.273216,-28.99945,-12.848082,51.0462,5.937374,-68.057106,-23.74472,47.44822,22.993547,0.45023558,-9.672472,47.42897,-33.140373,-5.032355,26.005043,13.723394,16.141676,23.363089,5.26624,-14.051933,18.425457,-1.14758,15.68249,-37.774807,-59.16802,9.004501,12.023229,-4.589444,-44.638573,-48.935562,-59.005554,-29.934837,61.84579,39.416786,54.31395,-51.522205,18.074224,14.53903,-5.158262,10.943995,-60.27777,-50.601078,-35.899845,-69.11624,-75.215935,-43.547314,-50.17978,57.519176,13.617503,82.8953,-24.13112,-3.3223453,-15.862384,-31.187563,-9.912592,37.446064,-44.315712,13.360015,30.187695,-70.186584,42.87967,54.395744,42.194057,-33.17449,35.174778,-20.834208,-48.6187,13.146191,46.616737,53.345764,19.828886,48.205368,47.116714,29.760157,-44.417076,-7.7819557,29.325672,-66.81454,10.752308,-19.838959,16.497587,45.64658,-43.905365,12.663964,-39.215626,-31.426865,17.621714,-28.373787,25.782227,-18.6292,15.474894,4.817723,31.266644,-63.61537,-61.433533,9.816252,-3.5548606,38.51926
DB,26.215015,-7.5346026,-24.996347,16.4898,-7.3185554,15.426888,16.135185,-20.981092,3.2283988,-19.105156,15.016435,-8.805055,28.173922,12.846485,0.5983752,-14.99277,-12.643673,-11.321508,22.295675,1.344264,-30.368753,-12.144084,16.976952,9.42041,-7.343705,6.914164,16.106915,-14.363653,-4.6133294,12.191103,9.221873,1.9395138,5.9123993,3.6782005,0.73996276,9.837409,-0.48754504,10.072314,-10.653155,-21.029879,5.332138,15.69104,-5.6502104,-17.178627,-19.120737,-29.37696,-8.323117,21.95642,8.116075,20.94855,-15.813907,19.055973,8.559331,-9.257941,2.9427142,-26.25262,-28.004417,-16.60419,-25.347305,-36.044426,-17.28996,-26.72916,26.638006,13.270329,38.139492,-15.9097395,1.6027225,-17.97121,-12.764341,-5.1647067,17.33498,-12.458695,0.48794726,9.403431,-31.9812,19.718348,26.663122,23.028395,-18.325747,19.232681,-16.559422,-19.083998,0.31237364,21.765224,27.656544,11.61303,17.88894,19.235529,13.38915,-16.083828,-0.9762804,14.215041,-34.025307,13.121629,-7.7513947,12.154453,19.945892,-26.6167,6.6639857,-21.338398,-18.794828,0.60605437,-11.3513365,16.828348,-1.6289574,8.266544,-0.19239146,12.737409,-25.378702,-23.340282,11.884462,3.2329476,15.1436615
AN3-CA,7.7035317,12.908662,19.404953,7.378453,-15.580141,-11.462485,-17.516691,-0.1385622,-17.895025,6.476671,-10.87269,-12.692648,-9.975019,-2.1499388,4.941058,-3.1039217,8.760709,-7.3838673,-12.981809,8.482006,-0.28638643,-0.79676795,-11.345178,9.967032,8.834339,15.386903,6.5857697,9.821136,-10.149817,-9.367725,-0.962568,10.478426,-12.025472,5.9062047,4.0240946,-6.9287415,-7.6841025,-10.172585,15.847386,19.706701,0.50586015,19.309605,-12.361246,9.022739,13.515882,14.480672,0.094771355,-8.4248,-20.808691,-13.065184,23.520678,13.839439,4.351378,-4.0999517,9.567594,17.045568,13.289552,1.1034117,0.3731537,2.6528623,10.699085,-13.710446,-16.082203,-3.6620376,10.209714,-10.90259,12.622745,-11.126529,5.608468,12.89153,-10.855773,16.240515,-15.615063,-9.136138,-11.220025,-14.870471,10.558306,4.215246,-11.062101,5.169969,-11.139999,13.649898,8.512163,-6.5554214,9.857875,-13.2877445,-18.987501,-10.214878,-17.673323,13.149358,11.831869,-9.389084,-7.8058834,2.4182324,6.8994493,1.6507344,-21.333324,7.451249,-12.628043,9.22874,-11.393854,-17.35858,15.531338,15.47646,11.894308,10.88864,-7.0661736,-19.528101,14.811222,23.097893,17.990572,-5.210875,-13.028885
BB30-HNC,3.7823796,6.706797,14.024837,6.849424,-7.7914734,-9.209534,-12.912724,2.2423217,-12.399304,-2.7021787,-6.8931556,-7.1051354,-9.634275,-6.8953514,4.16283,-3.1826906,5.3051496,1.5120475,-11.40422,4.620273,-9.873715,-1.0127903,-11.590132,4.834564,3.2672753,4.8348975,4.027581,12.228162,-1.6001306,-11.402261,1.4959681,9.573462,-5.315429,-6.690907,3.3934782,-4.8648796,-0.798808,-9.227276,11.421869,16.459047,-5.7944674,5.725627,-3.9845028,6.2937145,7.40785,10.963747,-4.021569,-5.180975,-14.139717,-7.832297,16.691832,1.8732996,-3.5301046,-0.89060444,2.7930617,8.965329,10.986197,1.6602855,-3.8245745,9.2316885,4.775253,-4.236169,-15.341235,4.486483,-3.4270797,-2.3359048,3.5937843,-8.613356,6.8650665,8.59863,-7.480706,5.472543,-9.903778,-2.567408,0.7957686,-10.681412,0.50348985,-1.520175,-1.7136129,1.661474,-4.3250704,17.472057,0.18970981,-2.803987,0.8407138,-6.761873,-10.005786,-11.809176,-8.239854,6.9462385,10.090411,-7.840945,-3.2246294,3.5892808,-0.47012898,-4.9311123,-14.550701,7.123761,-3.76231,7.060908,-8.967531,-12.923596,9.0727625,4.1823196,2.829929,6.1502585,-8.449905,-13.703318,7.848435,17.094536,7.683653,-1.2175132,-7.6654215
BHY,3.5532775,-3.9469736,-7.185717,6.0786624,2.0470874,1.7409012,5.0158744,-3.8532188,4.260437,-6.238569,3.8959718,0.98394,6.216991,0.09309204,4.618894,-2.7378008,-3.2704933,0.93082803,4.0891337,-0.30717546,-11.893435,-3.112597,4.4845023,0.60424393,-1.4948503,-4.489679,6.695348,-2.5350485,1.5476357,0.8200686,1.2257165,1.7891654,4.3697777,-4.2520933,-2.6787353,1.9613367,1.9239242,-0.012832046,-4.6532564,-5.721492,-0.31932655,-3.938104,2.675502,-5.093267,-6.6063066,-5.49997,-5.3661165,8.544959,4.382644,5.8932242,-6.4661965,-3.0607967,-2.9528286,1.0218073,-2.6277726,-8.354237,-5.176134,-4.629039,-11.048996,-6.582528,-7.6215124,-1.1558431,4.6719847,3.4941607,5.191486,0.40047073,-3.5553865,-1.5414236,-2.4584672,-1.8791087,3.8718631,-7.5879173,2.354042,5.1222258,-3.8214784,5.310552,1.8859156,3.2923224,-0.043966554,1.3302696,1.2080499,-3.5793028,-3.3605492,5.9746103,1.8164188,3.7664764,7.2348766,3.7597423,6.6783924,-6.188725,-0.57080036,2.3519096,-5.880392,4.7829666,-5.066115,-1.7189752,5.561966,-2.8572743,4.837248,-3.6645474,-1.1890047,2.0312946,-3.6832297,-1.1022344,-4.791732,-0.45489275,0.4048751,3.9164515,-7.9683256,-6.2854996,-2.1604342,1.7338648,5.109386
SW837,7.1077523,10.6720085,18.607857,6.510414,-12.576247,-11.936615,-17.540386,1.6399586,-18.558813,3.917801,-8.603968,-9.607676,-10.250412,-2.5176783,1.3855497,-3.1865597,7.4988837,-3.5111372,-12.730451,6.8142385,-2.8278732,0.89247656,-13.06201,6.707965,6.4849358,10.962704,4.039337,11.961714,-5.7308855,-11.133341,1.7446321,10.619382,-9.44092,1.0024052,6.205007,-5.315791,-3.851315,-9.384318,16.373148,19.864437,-3.134024,14.846899,-11.074225,8.208304,12.16985,13.245322,-0.05262792,-8.586251,-18.629326,-10.386032,22.711203,8.5063715,0.14301512,-1.7802671,7.268529,13.9949465,13.499402,4.543434,2.4144707,6.8968234,11.612604,-9.285437,-17.698713,0.7964986,3.0187082,-6.9781055,9.916314,-9.623686,7.2353954,12.0239725,-9.313813,13.46622,-14.146825,-7.5119677,-5.118887,-13.698759,6.471779,-0.29140505,-7.3310294,4.9522486,-8.579842,18.873137,8.862936,-5.76785,6.437544,-12.380795,-16.345825,-12.298985,-15.183329,11.72136,11.460494,-10.025339,-5.6900325,1.1444863,3.0812643,-2.1729755,-19.62866,6.3801455,-11.031342,10.180927,-12.688303,-15.620871,12.967195,11.828793,8.081895,10.191126,-9.937924,-18.634655,12.637653,22.358423,13.6866665,-1.9562746,-11.965538
Becker,9.150384,-3.8160772,-9.920267,9.835932,-2.093923,4.5782623,9.221563,-10.713138,4.2699175,-7.488023,4.714309,-4.3865867,8.920898,4.4651814,3.3817291,-3.5983193,-4.69743,-0.913128,7.4510555,1.6603891,-11.4571705,-5.566198,7.942836,5.148276,2.6376376,-2.0614667,7.7802496,-4.440398,-1.3180107,4.957979,2.8405461,3.6337295,3.670408,0.58779657,-3.426773,1.8863934,-0.42514396,1.385125,-7.5314946,-9.060352,0.28431022,2.8765488,0.44915223,-7.2845807,-6.427977,-7.9700704,-7.7956314,9.091601,6.6958413,8.194886,-8.569726,4.2007256,4.542,-2.30776,3.8760173,-7.979552,-7.090657,-5.7078385,-14.130795,-11.541426,-7.8737636,-10.674653,9.537834,1.475302,14.802535,-5.726358,1.2398533,-2.6392314,-4.6998334,-0.23760064,5.79119,-8.894697,1.939273,5.770296,-12.452774,5.389075,10.593947,7.231117,-6.430669,5.3911333,-4.9467187,-9.934419,2.3961565,7.7707715,9.58564,2.1331007,6.482397,6.857858,1.7528793,-8.535179,0.3340297,4.7803583,-11.803026,-0.7254449,-1.2776086,3.8385859,5.3856883,-5.4351435,1.3788934,-6.4869285,-6.6871753,1.2547157,-4.541381,3.853669,-3.5579932,3.6311557,0.76032686,4.361379,-10.4512005,-9.78771,4.167586,-4.192238,6.0717325
MG-63,16.368307,-6.352099,-17.512533,15.413699,-3.289084,8.117747,14.679908,-16.964561,5.841993,-12.448439,9.3641815,-7.221089,17.042942,9.210604,1.203839,-6.9729915,-8.572627,-2.4838057,14.788068,2.806054,-19.11218,-8.15961,13.120898,8.485934,2.652945,-2.044164,12.218064,-9.578012,-1.9036522,8.294983,5.506171,6.144257,5.7313547,2.6487238,-3.0686321,4.348638,-0.9702614,4.802462,-10.572492,-16.758587,0.73203474,6.9945536,-1.3014288,-12.970203,-11.845835,-16.520937,-9.134068,15.207584,10.843501,15.174272,-14.065052,7.9709888,7.883026,-3.2732658,6.9879403,-15.362427,-13.383547,-9.660304,-19.91338,-20.974783,-11.6416,-18.707785,16.775444,4.235793,25.273815,-9.372733,2.0728626,-5.3297853,-9.029792,-0.76025456,10.617091,-13.044017,2.7508674,8.56192,-21.92467,10.309058,18.690332,12.309012,-11.912249,11.67638,-8.926173,-14.213192,5.4741592,13.250584,17.959105,4.2998347,11.546248,12.945006,4.249499,-12.615856,-1.2350682,8.321112,-20.31452,-0.91511244,-3.6033318,7.0397315,11.116789,-12.511764,1.9981053,-11.372621,-12.727969,3.5828674,-7.9810276,8.754393,-5.269105,7.290916,0.69246715,7.777884,-17.855001,-17.288954,6.5102644,-4.7451086,10.19778
SJSA-1,4.342639,7.3196087,10.014204,4.4741235,-9.164274,-4.7011805,-6.9685774,-0.21121603,-8.823852,2.8924477,-6.7436137,-7.824577,-5.4438186,-1.4949939,2.9570913,-1.3836837,4.914993,-4.417032,-6.4578137,5.086026,0.03517487,0.02487346,-5.7442493,6.2772455,4.748312,8.532964,3.6248317,5.0370684,-6.0176144,-4.4698505,-1.6612098,5.1125784,-6.91089,2.8176825,1.5009651,-4.5610995,-5.5634255,-5.0068617,6.8809385,9.280408,1.2054312,10.297159,-6.03083,5.0753164,7.0653934,6.5708947,0.018968694,-3.701637,-10.268551,-6.9928036,11.35602,7.296807,3.4139137,-2.2094874,5.5705714,8.200284,5.653187,-1.3496432,-1.0196,0.8487035,5.7370725,-8.047005,-6.9409385,-2.0649123,6.2488556,-6.2745376,6.4297094,-6.2831416,2.9014814,7.0225315,-5.8559356,8.119695,-8.607801,-4.722488,-6.664129,-8.116717,5.985494,3.7308774,-6.818996,3.548042,-7.18341,6.1614738,4.3318033,-3.366807,6.069486,-5.752601,-9.890453,-4.2567058,-9.451052,7.0154967,6.6556325,-5.028642,-4.8810225,1.4927117,4.499565,2.2420847,-11.248025,3.9247253,-6.923447,4.3160434,-6.521618,-9.276213,8.57299,8.839177,6.690015,6.103416,-3.4067438,-9.356791,7.612712,10.148556,9.613751,-2.8956156,-7.123189
BFTC-905,9.404991,-7.94877,-17.274538,11.713401,1.6696215,5.3613033,12.341957,-10.06888,9.041419,-11.873283,8.186715,0.7399067,15.503615,4.2911153,8.124646,-5.444592,-7.003984,-2.6750028,11.760149,-0.16525002,-21.743267,-6.686143,11.914569,3.4510777,-3.2080073,-4.3494554,13.74284,-7.833572,0.45295078,5.3197784,1.9427967,2.5260746,8.141542,-2.5391243,-5.6720743,5.087395,1.3107258,2.2402122,-10.077662,-14.430751,2.5555224,-0.99859416,2.0973709,-11.630837,-15.170651,-14.15561,-10.051492,18.762566,10.725204,13.811528,-14.007736,-0.12952474,-1.0782299,-0.030196875,-1.7546254,-17.215506,-13.387242,-10.95395,-21.609877,-18.24227,-14.801667,-6.7759943,13.750955,4.913805,16.477257,-2.0264666,-5.7924943,-4.976423,-7.7713346,-5.6574407,9.334726,-13.58432,5.0136294,9.976127,-13.257894,12.3872385,7.823932,10.36353,-4.0981493,5.6018686,-1.2210226,-11.618622,-2.1012983,12.92858,8.044058,7.63559,14.808783,10.455053,12.507034,-13.334817,-1.9335302,7.7994356,-15.084739,8.510627,-8.282297,0.46496615,13.172135,-10.049793,7.788105,-9.939421,-3.156644,5.698197,-7.6702743,1.7992461,-6.709638,-0.4205546,1.8725648,8.850793,-17.163034,-15.356425,-2.033821,2.7771215,11.47436
