,E0,E1,E2,E3,E4,E5,E6,E7,E8,E9,E10,E11,E12,E13,E14,E15,E16,E17,E18,E19,E20,E21,E22,E23,E24,E25,E26,E27,E28,E29,E30,E31,E32,E33,E34,E35,E36,E37,E38,E39,E40,E41,E42,E43,E44,E45,E46,E47,E48,E49,E50,E51,E52,E53,E54,E55,E56,E57,E58,E59,E60,E61,E62,E63,E64,E65,E66,E67,E68,E69,E70,E71,E72,E73,E74,E75,E76,E77,E78,E79,E80,E81,E82,E83,E84,E85,E86,E87,E88,E89,E90,E91,E92,E93,E94,E95,E96,E97,E98,E99,E100,E101,E102,E103,E104,E105,E106,E107,E108,E109,E110,E111,E112,E113,E114,E115,E116,E117,E118,E119,E120,E121,E122,E123,E124,E125,E126,E127,E128,E129,E130,E131,E132,E133,E134,E135,E136,E137,E138,E139,E140,E141,E142,E143,E144,E145,E146,E147,E148,E149,E150,E151,E152,E153,E154,E155,E156,E157,E158,E159,E160,E161,E162,E163,E164,E165,E166,E167,E168,E169,E170,E171,E172,E173,E174,E175,E176,E177,E178,E179,E180,E181,E182,E183,E184,E185,E186,E187,E188,E189,E190,E191,E192,E193,E194,E195,E196,E197,E198,E199,E200,E201,E202,E203,E204,E205,E206,E207,E208,E209,E210,E211,E212,E213,E214,E215,E216,E217,E218,E219,E220,E221,E222,E223,E224,E225,E226,E227,E228,E229,E230,E231,E232,E233,E234,E235,E236,E237,E238,E239,E240,E241,E242,E243,E244,E245,E246,E247,E248,E249,E250,E251,E252,E253,E254,E255
HT-29,-1.091322,15.224613,16.648972,-14.422094,-2.3833938,-19.867304,-11.618456,6.140396,-16.393131,-18.172298,14.65407,4.52423,-10.825935,11.763376,-19.08057,5.688952,-5.3420362,15.019336,5.9069514,14.713023,4.6350274,11.753553,-11.489554,-13.051926,-21.513432,-17.989244,26.812473,2.829568,-7.7541513,-15.28032,-0.38253355,14.437625,-12.919321,14.170071,-15.6253,18.30754,-1.0676506,-17.207617,10.471376,-24.945324,2.852251,7.1574583,20.7019,2.8337483,-3.8080585,8.296308,-12.422976,-20.158014,6.9522853,13.781382,-13.56654,15.051111,-16.016024,18.072638,-9.557896,15.355574,4.384444,-8.975935,13.525275,1.7878251,-19.42504,4.610584,-5.912319,-8.417657,-12.88411,16.002388,-20.960924,-10.9833,-22.944744,11.895267,-14.780006,19.021614,16.470985,-0.85152966,-3.18687,5.50921,-13.203874,16.814936,10.90776,-5.720363,2.1163526,-8.696511,-4.179338,9.353987,-0.5911149,-2.1450446,10.045897,22.421354,-11.373434,-15.1518,-10.978555,-14.65662,20.642021,8.097912,14.246666,5.9785395,-8.065597,11.091877,14.017373,4.3661056,6.947302,22.605574,19.240805,-17.423887,-15.682372,3.3970082,-2.7737465,18.356632,13.372735,-16.861513,19.441769,14.644544,-18.132803,-15.914321,-14.581483,-8.334606,8.992612,-19.485598,-1.7549717,11.552896,-2.477226,0.10567459,4.888964,3.3046238,-11.137274,-0.33833545,20.335375,-19.069012,7.1221066,-6.2604547,-5.3921227,3.4998834,6.3028393,-6.1619797,-5.4183326,-3.0420315,3.0969033,-0.6008066,-1.7267072,-7.32113,6.181511,5.67345,-2.7485726,-5.288445,-5.8100653,-4.392999,-1.2886981,5.9719048,2.9969423,-5.996778,4.929901,0.12694208,4.051889,0.4333983,-2.018474,-4.4198785,3.5869448,0.23402837,-2.8787832,-4.1924376,-7.129563,-1.5427632,7.283116,-6.1664085,-3.1078663,0.87691545,1.6976212,4.2287636,-4.063759,-1.6479255,-4.38834,-6.795044,0.3308131,-6.5756755,1.028329,-1.0190883,-1.7378647,-8.9533825,-3.3825276,-3.5060117,-4.9816303,-3.662135,6.165977,6.5834765,3.9592092,2.0356996,-4.3157763,6.243943,6.7136374,3.5156639,5.04619,-6.3979626,0.2782206,6.1447954,1.0398251,9.985236,0.18285105,4.236107,3.1876602,-5.5733733,-2.2631161,-2.1595957,-1.7370784,6.931289,4.7207685,-4.9218426,2.0086048,-8.492617,-2.1013367,0.16283616,3.7930427,-2.05854,-7.309071,-8.3840685,0.41301337,3.7739024,-1.6837201,7.2401934,1.9015213,-0.35082757,1.5627233,-0.5563397,2.8677988,-0.664822,-4.7990026,-3.5553524,5.084091,4.2628875,-2.313509,3.0801241,-3.3723884,6.3028426,-7.5876255,-6.3373613,4.322497,3.6247413,2.9501903,-1.016089,3.3367722,6.564711,-1.2355598,7.3512235,-2.046641,6.422786,-8.540501,-1.0244712,3.5747828,2.7399416,-3.191035,6.489669,3.882734,-4.6247888,6.183369,-2.4861796,-3.034537,-5.3760357
EFE-184,-1.6863878,2.0339382,-1.6479865,-5.170491,3.0866063,-3.2869623,-7.165794,5.0218363,-3.133883,-3.6373603,4.3622,-2.5022566,1.0904142,-0.53002894,0.25705308,3.679573,5.2902946,5.6536884,1.8676367,6.80526,1.5039024,2.571483,2.1318548,2.9374201,-4.349625,-0.51823395,6.4682,-2.7698288,-0.149609,-5.329925,0.23501927,4.322385,-4.642069,3.343913,-3.611982,1.8165059,2.425759,-1.7851198,1.0991062,-4.249031,0.6816741,-0.42695647,5.220455,-1.692711,1.9657867,1.6781018,1.4428134,-5.0810566,-0.8382721,5.8489704,-0.9215079,-2.1998386,-3.7033281,4.823998,-4.9033985,1.6141654,0.65644616,-1.0077457,6.252817,-1.9622293,-6.3752856,4.268066,-7.575683,-3.342138,-6.096388,5.2378626,-4.2770147,-3.890336,-1.899543,4.4713745,2.0729594,-2.2778857,3.5982404,-1.1351085,2.596959,0.5074983,-3.6530402,6.4278893,0.5032369,-6.1151104,2.721568,-0.35389656,2.9935238,2.1674192,-3.6542292,2.2347414,-3.2327785,1.6683265,-5.172867,1.1709616,1.1414293,-1.9752238,1.1713884,0.9821355,1.5017929,-2.9861133,-3.4416394,-0.72058004,-0.92945117,-0.32786563,-0.8780073,5.864751,-0.3939364,-2.8467696,-3.2625806,-3.9264543,-1.7604566,1.0967001,-2.6604471,1.4991262,4.235102,8.019731,-3.0981047,-5.872869,-1.9388878,-7.4587603,-0.9869276,-5.879132,2.8511767,-2.8296988,5.8494167,5.633246,7.0479865,-3.8222191,-5.250104,3.4327135,3.760789,-1.4123595,1.8202043,-1.2305254,1.4961594,-0.9706544,3.2958624,-4.043085,0.32102337,1.866432,2.7086713,-1.913028,0.46018216,0.14753929,-0.39750725,2.2498736,-4.3044086,-4.4723363,-1.1265299,0.98617613,-5.769374,-0.5148805,-0.75621974,-1.3660587,-2.551005,4.226355,1.3967018,-0.6186303,-4.1202025,-2.4025736,0.968327,1.0161115,3.783647,2.0303435,-7.122187,-2.1645315,1.0993798,2.1023135,-3.0885847,-1.9074404,-0.16585565,4.0539827,0.63612354,1.7703964,-5.804472,-1.171879,0.5305435,1.6391698,1.3013314,-4.0496593,-0.2200987,-2.7423937,-6.230361,2.3665082,3.2324634,-0.8381988,0.80240834,4.4573526,-1.1729867,-0.9477019,-4.016342,0.12756462,1.4001834,4.09243,1.3190534,-1.7482406,0.111981615,0.6505411,1.9762903,1.4417331,0.85634625,3.5034769,2.2934752,-1.4527628,-4.5956807,0.92892426,2.5901577,0.3884803,-0.20705938,-0.016010232,3.1924505,-1.1149027,-3.3564105,1.7654352,0.39665565,-1.2889637,-4.1907783,-2.4059353,1.1432114,-2.9790354,-0.9102547,4.5803514,5.5385947,2.8177567,5.02619,1.5173856,0.053187575,-1.4885548,0.087252155,1.3589004,0.04367327,2.2633066,-2.2869296,-0.5095881,-1.3195248,2.141667,-2.4919896,-4.249102,2.036855,-1.8872964,3.3230612,-0.69042414,-0.1409155,1.0977952,-0.21096556,1.4596735,1.763739,3.6242383,-1.6400937,1.052928,3.6916132,1.2725592,0.34602946,2.3556752,-0.45513165,-2.9325776,1.7185324,-1.8509948,-4.41991,-4.8965464
SNU-738,18.399225,-16.4936,-5.1612196,10.380494,-6.8918433,8.851066,-2.662938,-1.3044679,18.56082,11.8445215,-14.806543,1.4450271,23.66708,-11.0376835,14.280288,18.805576,6.1994452,-8.546196,-11.478388,-11.012463,-10.366431,-13.148706,7.9506717,20.303179,15.971053,26.95537,-20.22388,-8.302818,-1.3612665,23.691208,-6.5863485,-16.253347,12.342009,-18.688208,2.236288,-23.274061,10.668551,26.038252,-18.383003,26.731804,5.9962344,-5.2993064,-9.281736,-4.276811,16.20518,-5.811647,24.72671,17.62239,-22.473751,-14.955754,17.536732,-24.70146,15.309433,-5.914,-16.886452,-11.210268,-13.492887,15.721165,-0.92867893,1.1102344,16.59337,9.331809,-0.76059246,-4.7247343,12.034927,-17.233763,17.737165,9.511585,21.58882,-21.496904,10.7424755,-7.137678,-21.34305,-2.3657103,-1.7577009,11.576897,-1.4493368,-11.092646,-8.16434,-9.984431,-5.834664,2.778397,8.101145,-5.597134,-7.7793274,19.363634,-19.759659,-29.047482,13.872175,25.164194,0.5090067,16.630775,-26.861668,-5.8395834,-28.31515,4.086436,8.22857,3.1729093,-18.502184,-13.321675,-22.489594,-18.852957,-24.985107,21.92629,20.48745,-16.4067,-19.866959,-24.851343,-1.559368,12.043247,-19.79028,-5.0416546,21.423512,17.262228,20.43763,-26.67759,15.729388,19.117935,22.643059,-11.715156,20.77579,14.658378,5.3171363,-10.334996,8.019611,26.947157,-24.59525,23.71268,-1.6026419,2.7755497,4.719704,-4.1752634,0.5130463,0.61974776,2.5050468,-0.7770185,4.3618536,1.8981972,0.93478334,4.1968026,-2.600796,-0.64456207,-3.9193182,0.47669065,2.9269652,2.4539018,-5.3854322,-4.7019515,-3.231659,-0.22012964,-0.90757596,2.0900793,-1.8609891,-1.1850302,-3.1997101,-1.6670415,-2.3995445,2.7216697,5.9268217,4.1339846,-4.4146953,-0.9337362,-3.4294393,4.760948,0.26191908,-1.4858212,0.95120704,-1.1289489,4.129625,3.0726755,-2.134912,1.3653998,-2.5652835,5.0245695,2.187192,-3.9072096,0.31455275,2.7931318,-3.3600047,3.7323189,6.957255,3.66356,-3.158682,1.8638375,-3.7619905,2.4225264,0.3635103,-1.2947624,-3.7312856,1.7059044,-3.692203,2.5892067,0.04670665,-1.9689173,1.4991732,-4.5187864,0.63742006,0.45980585,-2.7267184,2.0965765,-2.9458525,-1.8017387,3.7869833,-4.013905,-1.5160376,2.7258642,-0.87102956,4.2331424,-3.9010582,0.83741313,-1.4053292,0.7216572,-2.3050482,2.5962408,-2.3002427,-3.8932164,0.6192447,-0.56318736,4.995504,0.42579925,3.4188716,1.6196665,-0.65947455,0.10441624,4.0377374,5.2564588,-2.7123337,-1.7096522,1.9534026,-2.205487,1.96267,-1.8954931,1.6018021,-1.572275,0.26029703,0.25566298,1.9708717,1.758166,-0.982932,-0.808962,1.6338036,-1.7038084,-1.3633748,-1.8621686,3.435687,2.7069664,1.8467851,1.7908695,2.6936605,-1.9875596,-3.8331418,0.5037507,-2.6158037,0.4699187,-3.0317264,-0.0767428
UM-RC-6,4.603933,24.92868,48.1001,-20.12856,-19.839441,-42.647026,-13.696178,0.30964768,-26.777197,-38.81591,24.051903,29.650919,-23.616455,31.38515,-43.857094,13.455669,-21.47254,25.259663,10.210296,21.560513,3.7080774,23.574615,-32.113102,-40.792484,-51.469685,-40.411556,56.53036,17.736427,-12.329185,-19.218233,9.84488,28.346243,-20.09686,24.934595,-27.997307,34.343258,-3.6643674,-32.411114,28.98733,-52.8973,15.046051,5.59643,54.409733,5.2128844,-2.9722657,18.58147,-15.533172,-45.76289,2.859228,19.743135,-27.595507,34.188828,-27.805588,35.10531,-21.770239,27.675951,-7.3568096,-21.380842,22.815939,8.297727,-32.27751,7.4378085,-0.88144463,-29.528101,-17.4987,20.112139,-44.002735,-12.546056,-51.62598,10.24437,-41.2023,47.49728,36.562355,-14.881355,-23.940496,26.707127,-21.558813,31.751081,32.836143,-2.907697,-10.616001,-9.209606,-10.0104885,17.93743,13.498286,4.661845,19.114916,44.77166,-18.374565,-30.301897,-39.18792,-24.670427,38.332367,18.942581,26.361345,26.546371,-0.10150241,39.80346,35.153053,-9.419906,12.698215,42.560665,41.6017,-29.381557,-26.900867,15.415557,1.5600649,43.73137,44.813515,-46.358757,37.589996,31.993803,-44.7945,-22.772705,-28.866882,-14.372018,22.770844,-33.34303,-6.495257,26.958654,-8.783649,4.3443503,5.3249354,17.19511,-22.311485,8.190016,35.06131,-35.642178,2.4204051,-2.4862661,1.3036661,-0.6446114,3.5504181,-5.194227,-1.5191206,1.762121,0.8171448,-3.3198056,-0.79755074,-1.7459992,0.8772837,3.5886178,-6.0684967,-5.186131,-3.3766456,4.0849648,-5.191341,-1.4677237,2.494473,0.7542513,-2.2858632,2.5547113,3.0500236,-0.30072743,-5.5325494,-1.8863292,2.5538456,1.1138498,3.1813118,3.8200858,-6.2589293,-1.7830647,0.546123,-0.5878442,-4.3213067,-0.7853276,-1.5246464,5.737173,0.3958432,2.1833649,-4.8244004,-0.4498607,2.3478503,0.81466854,0.96533006,-4.282554,1.8702222,-4.1116858,-6.715788,1.9297798,2.5225904,-4.1010303,2.4793072,0.65892905,-0.11978908,-4.161767,-4.9864945,-1.6724193,2.8467684,4.7799997,3.5405407,-1.3740237,-1.3722535,0.8807505,0.95179695,2.5518277,2.5133908,5.1152725,4.7851214,-1.404196,-4.7152843,2.129832,0.14177823,1.9340668,1.616375,-1.152112,1.2672076,-2.6025748,-1.7902827,3.5959177,-3.7587337,-4.3371625,-3.664009,-2.181439,2.1056254,-1.3200092,-4.0586734,5.810374,5.314002,4.477514,3.798944,0.89824873,-0.63625723,-0.18655184,1.114214,0.71937716,0.76510537,3.6874957,-2.182282,1.6665412,-3.0768213,3.9832246,-3.3609362,-6.108494,2.7902558,-3.3045266,3.9936788,0.58117354,-2.0943477,2.4810658,-2.6754236,2.528653,2.8635504,6.383312,-2.856085,1.9592909,4.5694337,2.8749845,0.44832954,4.399691,0.013147667,-3.4954226,4.090999,-4.122365,-7.907414,-7.2754807
JHH-2,-5.0588756,10.372157,3.3657973,-16.254572,6.690586,-13.717236,-16.4795,10.107477,-11.913871,-14.38707,14.264345,-3.1491194,-6.562697,5.266945,-7.7982717,5.2652297,6.2423434,17.621906,6.332684,17.70385,6.733704,8.877909,-0.16679925,-3.3958042,-17.772123,-10.111954,22.2828,-1.9116172,-1.1451311,-17.553709,1.1176271,13.69162,-13.684219,10.610591,-13.720571,12.705635,3.047257,-12.869733,7.5159254,-19.989075,4.8283415,2.3834474,17.307884,-0.7678707,-0.8011072,6.62887,-5.0283656,-17.202503,4.2380877,16.46042,-7.7507706,5.0219765,-15.431695,16.716795,-7.6010747,9.962519,4.5248904,-6.773903,16.565987,-1.9425966,-19.563019,9.29686,-14.541029,-6.282096,-17.369493,17.336086,-17.140623,-11.912564,-14.845476,14.714125,-1.2992308,3.8607593,14.151212,-0.6111051,3.5949981,3.6207378,-9.814653,18.6209,3.67276,-11.68255,6.9202776,-6.131725,0.9078363,6.9508214,-6.31869,1.6819927,0.08374308,13.859766,-14.260588,-5.3496284,-0.43207017,-9.87496,13.566007,3.4178646,12.537095,-2.8337216,-9.488547,2.4149177,5.738621,3.4213653,3.9184048,21.277546,7.881817,-13.574275,-14.352261,-2.6660545,-1.152083,11.493212,0.5608205,-5.343765,17.005955,17.497862,-12.055242,-17.41137,-11.263055,-12.915227,1.9172914,-20.065685,1.0323293,-0.116448976,7.7281322,6.130628,13.101245,-4.665634,-13.10032,1.621904,16.70544,-13.292012,-5.7591376,8.135531,9.621709,-9.397668,-0.77547646,2.8249602,6.9626503,0.4078507,7.5418158,3.6572793,2.3543477,10.8403225,-6.4428735,-2.6454039,-5.930873,2.1073537,7.7685714,3.9236848,-9.581975,-9.169313,-8.090727,-0.4561118,-2.4101377,7.3886824,-5.529357,-3.4132814,-6.3968196,-1.9251549,-6.5729604,5.535811,11.081332,7.7646713,-8.335905,-2.9198682,-7.6419806,11.127231,1.0759026,-4.6179266,1.682522,-3.5273094,9.203268,5.5301714,-4.3427134,3.0590801,-5.2239037,11.491716,5.7315664,-6.887656,0.13112503,7.5699472,-5.750355,8.655064,14.206907,7.4136457,-7.7415833,3.5483587,-9.350001,5.0531015,1.4479587,-1.4012051,-8.829093,1.8425472,-7.5730114,6.5101604,0.69751585,-5.680253,4.5315337,-9.357326,-0.48132154,-0.4236686,-6.4664936,5.523754,-4.6656427,-3.440023,8.9368725,-9.959341,-5.2647605,7.640511,0.020693574,10.337241,-8.013493,-0.55731714,-3.094869,3.6231923,-3.9436302,6.5244756,-4.4938893,-10.21401,1.6670012,-2.1151414,9.786702,0.78710425,7.4263463,5.2852325,-1.0095938,0.6935435,7.349594,11.335387,-6.9665275,-5.0631666,3.7046661,-6.467529,4.66935,-6.363984,5.5289154,-2.2640436,-1.8323538,0.024087414,4.157528,2.380304,-0.7377161,-5.218847,3.6821277,-4.7922215,-2.487672,-4.789615,8.398358,5.765204,4.5815187,0.7322784,6.6482573,-5.8494463,-8.857156,0.90211123,-7.6666284,1.938895,-4.4049554,1.117236
KNS-60,3.1695795,35.562805,48.04728,-29.24394,-13.871907,-47.578968,-21.349333,8.780774,-35.48612,-43.435722,30.8255,20.327065,-27.146019,32.449966,-48.394203,13.623838,-19.881159,32.180294,11.688808,29.636944,7.9639044,27.685686,-33.516773,-38.826263,-53.15861,-45.01848,63.133797,13.513775,-18.675507,-29.40586,1.3898467,32.32386,-27.144993,30.677387,-36.858704,42.14813,-5.2185054,-38.70971,26.30435,-58.782513,10.583478,14.057326,52.903454,7.5401354,-8.958094,20.528336,-27.732388,-47.463802,10.45221,28.128607,-33.015213,38.28669,-35.64601,41.80235,-23.19116,35.35766,3.958823,-19.99459,28.486317,8.4002495,-41.991673,8.770518,-7.070301,-23.85347,-25.645346,32.545143,-48.975407,-21.640106,-56.88038,21.400858,-40.52826,51.617,39.426075,-7.108445,-16.154224,18.580534,-29.963535,38.14622,30.97689,-8.587025,-2.0250847,-17.161976,-11.797497,21.604021,4.49554,-1.8996816,26.20278,52.95427,-22.689655,-37.636486,-33.921352,-32.88357,48.349125,21.203169,31.26339,22.042727,-13.017606,34.973846,35.88504,3.190907,15.732156,50.826874,47.439304,-38.299236,-34.95147,11.921151,-4.6712866,46.90371,41.518764,-46.406124,45.02066,32.739403,-45.516567,-32.660282,-34.31459,-17.632013,25.359823,-42.08253,-4.512899,31.554039,-8.981386,-1.394657,6.5451894,12.743355,-25.888575,3.3930795,44.934895,-43.43621,-5.3835673,7.050466,9.955836,-8.61321,-1.3616927,3.606255,6.1901264,-0.9231947,6.2682166,4.4607143,1.8849297,9.437347,-5.841117,-2.9661236,-6.0259566,3.918266,7.278101,4.083876,-7.898074,-9.6638155,-7.198404,-0.37926546,-2.3425252,4.166102,-5.8490014,-2.174411,-5.440246,-1.4054679,-4.977306,4.508799,9.900602,8.350162,-6.157412,-2.1683693,-7.752596,10.012403,2.039845,-3.3671184,2.3676164,-4.3722906,8.335738,5.2418137,-1.8761098,3.7841108,-4.95478,10.591767,4.8679132,-6.367674,-0.21651673,7.770948,-3.9114785,7.0521817,13.200607,6.009038,-7.314747,1.7326548,-8.011504,4.5419555,3.1114483,-3.202069,-9.162399,0.9655871,-7.171278,6.5236316,0.79989856,-5.2829432,3.3443923,-10.10699,0.39621204,-1.2680973,-6.281119,5.2927494,-3.9990997,-3.1859376,6.5488305,-9.461639,-4.597367,6.780813,-1.843785,10.0563345,-6.7837057,-0.34013668,-3.241658,2.63364,-2.386093,6.7188935,-5.4439006,-8.515563,2.2104163,-3.6186974,8.450224,0.6640523,5.034268,3.471028,-1.4264821,1.552025,8.164914,10.344837,-6.5547166,-5.1433225,5.2567797,-5.079892,4.977098,-6.18184,5.7188706,-0.49164188,-1.588256,0.99181706,3.5085185,3.0485444,-1.7010245,-3.5045853,3.4906113,-4.2425046,-3.2728312,-6.1951985,8.633522,5.272002,2.761495,1.9650658,5.919044,-6.064413,-8.432744,2.6157882,-7.1978574,2.366039,-3.977217,2.8754132
TE-10,13.907098,-13.796581,-4.5737925,7.8292575,-5.9314804,5.1445274,-3.2370574,-0.666251,14.461915,8.822508,-11.872603,2.0714405,19.135717,-8.664925,10.303519,15.497797,5.386283,-7.815959,-8.994255,-6.7213798,-6.5368834,-10.840111,5.753028,16.215889,13.018031,20.40572,-15.114896,-6.133314,-1.1417259,17.82993,-5.8584623,-12.378555,10.178028,-14.219627,2.2100582,-18.330105,7.738614,19.918514,-14.749283,20.377317,2.5467405,-4.432427,-6.1179495,-4.2832556,13.226176,-6.5562463,20.24438,12.183231,-16.404835,-11.600891,14.694101,-19.206358,11.572494,-5.105455,-13.256204,-10.171074,-10.964844,12.082702,-1.2070322,1.8884401,12.670664,5.912717,-1.8043561,-4.1826386,9.492755,-12.979122,13.75516,8.925692,16.736471,-16.384266,6.3631835,-5.5048876,-16.628574,-4.0493674,-1.7177486,8.407521,-2.8623304,-8.875252,-4.9914975,-6.883266,-4.6721706,3.2954404,8.387281,-4.965873,-6.7668414,14.525234,-16.945593,-22.137438,11.332337,19.276566,0.043880988,13.741509,-20.98113,-3.3258188,-21.558668,3.3088033,6.075123,3.2835512,-14.194996,-10.992681,-19.020931,-14.149243,-18.474497,17.60317,16.819828,-14.425737,-13.837625,-20.225557,-1.1285783,9.038319,-14.3576355,-2.7813606,15.582913,13.115868,16.55814,-21.334316,11.984692,14.219776,17.059893,-8.853988,15.903198,12.330069,4.775001,-6.7458973,7.028917,21.192268,-18.912245,19.17709,0.18386859,1.2223668,0.22561334,-1.5027338,-0.8756674,-4.3750143,1.5644029,6.0463705,0.07918814,-4.230769,1.6314844,2.5307684,-1.5555438,-0.030205444,-5.284815,-6.1866937,0.553514,0.66748714,-7.292329,-0.50592,-0.63537663,0.50174505,-5.3226094,8.67837,0.59324473,-0.070951,-5.8890924,0.2581001,1.2823905,1.1213459,5.2923894,2.2813659,-8.038132,-1.8769978,1.6149707,3.1924598,-4.7449718,-3.544097,-3.8604364,4.9928207,0.98808813,0.79634166,-9.17304,1.414161,3.3771315,3.9127736,2.719316,-5.102011,-3.3913994,-0.3090677,-6.5822315,6.525816,4.128652,-2.7653546,-0.5614558,6.978256,-2.4627512,-1.8098884,-5.270129,-1.023401,1.643931,0.980213,3.8015087,-0.9676937,0.40958142,-1.2879256,3.928103,1.7624006,-0.7423713,3.960534,3.8577087,-1.0915282,-5.8910074,4.4354844,2.736429,-1.4776655,-1.391441,2.0867856,5.015959,0.3900481,-1.9915671,1.7634362,-1.9804657,-2.14804,-2.2479358,-1.684163,5.718371,-4.91175,-1.9419793,5.880531,7.9749193,4.035672,8.039396,2.953273,-0.37082717,-0.052882507,-3.0386536,1.6719873,-0.80287623,2.48343,-2.8446167,-3.0114346,-2.9736087,0.7203921,-0.9407601,-6.4301867,-0.92569315,-6.3856273,3.411755,-5.034914,-0.17595062,-3.3593946,-1.046386,-0.75078464,3.1001408,4.5730896,0.23051764,2.8127258,4.3956327,-0.35793167,2.429393,1.2996576,-1.3161693,-4.293475,0.3119018,-4.5133724,-4.863693,-5.735791
JL-1,13.537782,-11.992486,-3.1816387,7.272327,-5.354328,5.0140476,-3.399626,-1.5973935,13.731441,6.959615,-10.879037,2.6869974,17.65381,-7.5507507,10.797765,15.723236,4.955884,-5.4133406,-9.144926,-6.287648,-7.449918,-8.688368,5.9340405,14.679279,10.160159,18.558134,-12.496735,-5.1232986,-0.004774034,16.534023,-3.7097738,-10.826016,9.249767,-13.357262,1.6276183,-18.24332,8.300317,19.07869,-11.908428,17.169775,5.1238,-5.7168055,-3.30627,-3.726573,12.623472,-3.7823253,20.101788,10.971536,-18.04896,-9.624659,12.649518,-17.46536,9.972619,-3.6995552,-12.8898535,-9.494628,-11.638673,11.729142,0.07328351,1.2963609,11.221424,7.384116,-3.0594652,-5.50799,7.967269,-12.058591,11.990797,7.1145215,14.311003,-15.183471,7.806846,-6.399336,-13.855051,-4.330386,-3.026438,9.985307,-0.88180536,-7.0990562,-4.5574026,-7.735271,-5.188509,3.4293885,7.1946187,-3.4094434,-5.353456,16.14849,-15.376534,-20.937855,9.370509,19.546116,0.014262889,12.711784,-19.757282,-3.4281616,-20.081919,3.5210414,6.900587,3.611676,-13.12567,-11.611321,-16.937326,-12.791957,-18.44409,16.275251,14.521333,-12.118009,-13.111503,-16.517017,-0.15584877,7.9910245,-12.868409,-0.3185347,14.550861,11.274977,15.200734,-20.612473,11.209764,12.963985,16.078632,-9.433432,17.487965,13.063741,5.5975504,-8.625534,3.4578586,22.0497,-17.905724,18.072924,-5.3661456,7.590232,9.884513,-8.956024,-0.4520272,3.0192676,6.992958,-0.0795044,7.2872415,3.9952981,2.481088,10.255051,-6.355719,-2.6174212,-6.127847,3.1519923,7.9446554,3.7150457,-8.709265,-9.449385,-7.857565,-0.8712751,-2.5170243,6.1439977,-5.7200584,-3.3456783,-6.081198,-2.2439594,-6.207836,4.867792,10.644832,7.3638034,-7.526865,-2.8940997,-7.79107,11.0542345,1.704656,-4.387325,2.4798415,-4.1693244,8.734761,5.7222834,-3.0060146,3.2654781,-5.5035386,11.142085,5.4990177,-6.460621,0.34394097,7.4252505,-5.0450487,7.595149,13.6264305,6.9571676,-7.6495247,3.3103063,-8.767131,5.4213963,2.4739156,-2.0785012,-8.98438,1.8547201,-7.7500205,6.407866,0.8306437,-5.5907736,4.009092,-9.811518,-0.40592518,-1.0216293,-6.1530447,5.355305,-4.6690326,-3.293017,8.405618,-9.669701,-5.2025123,7.3949285,-0.84114254,10.2752075,-7.5578213,-0.7047959,-2.436204,3.8050947,-3.4042654,6.630273,-5.2171807,-9.60606,2.5021722,-2.5779746,8.935762,0.7254276,6.3617606,4.791308,-0.85656697,0.99034226,7.7282376,10.749137,-6.848135,-5.369429,4.523646,-6.0240893,5.3745103,-6.2641296,5.510686,-1.0619755,-1.3278956,0.94591355,3.9359329,2.646567,-0.5987911,-4.4983625,4.214143,-4.2598295,-2.872605,-5.7873683,8.43629,5.127541,3.9414856,1.2716045,6.3669257,-5.9865174,-8.57053,1.8462175,-7.505225,2.636755,-4.1954317,1.852052
NCI-H2444,9.636916,-7.7473383,-8.415672,2.2965393,-0.11295617,5.724546,-7.5314894,4.168532,10.0393,5.8359165,-5.310455,-4.4615383,15.989872,-9.812484,12.451256,13.699934,9.719606,0.006342751,-4.4691424,-2.614677,-6.4207697,-5.807839,9.052889,18.998253,8.647159,18.81962,-9.36343,-9.878328,-1.6098763,11.209404,-5.281715,-7.9143615,3.9785173,-10.199184,-1.9138287,-13.762951,10.007641,15.811444,-11.345022,15.961462,3.9685545,-1.2595202,-5.164628,-2.1150837,11.162432,-2.064043,15.728263,11.564477,-14.807012,-4.1401815,10.641409,-19.136486,6.8259845,2.0136425,-13.589649,-4.3891587,-6.221609,9.852887,5.6201,-1.8715545,5.5161166,11.055228,-7.9300003,-2.7063587,1.7828475,-5.8014703,8.759608,1.8490611,15.442498,-8.904532,11.851189,-9.215897,-11.584604,0.8682279,3.4541,6.468418,-3.4939504,-1.5368211,-8.159718,-13.265224,0.7373656,-1.4532455,5.6358104,-1.6745135,-10.800703,12.395508,-13.780556,-19.655436,4.9807034,20.261225,5.178064,7.5711393,-17.550156,-4.920442,-17.773212,-1.9762169,0.90746665,-2.526941,-15.492922,-7.10179,-14.71813,-8.129037,-20.235857,11.407182,9.911267,-14.893432,-17.884666,-16.63625,-6.1379347,11.615121,-10.905476,0.6272731,15.676706,5.427103,11.555099,-23.57049,9.547482,8.447589,19.349483,-11.73889,19.985685,12.443639,9.665363,-13.6727,0.016154252,18.33788,-13.643977,13.543724,-0.5586138,1.5549662,0.9713324,-2.58167,0.6414427,-2.5750763,2.2195103,3.4629982,3.6950662,-1.0359806,2.0263743,3.342264,-1.7913928,0.08041931,-3.211568,-3.395673,2.030166,-0.5189192,-6.921164,-0.8106183,-3.4234915,-2.1686485,-2.4702833,7.85429,-0.69014007,-1.6073064,-4.975003,-2.0019877,-1.615306,2.2460933,5.149702,1.8008406,-8.208974,-1.8719033,0.89303374,4.770796,-2.5382433,-3.4792502,-0.48193023,2.023177,1.8543187,1.5393825,-7.3504887,-1.2291999,-0.7774181,4.223728,2.5147,-4.1313233,-2.1722305,0.14408498,-5.7794156,5.4325886,5.180509,2.6332798,-1.5369972,7.4312534,-2.966122,2.1995387,-3.1389205,1.9832962,-0.59367764,2.15751,-0.19542325,-0.96545255,1.008132,-1.0931845,3.9275987,0.21706714,-0.9899374,2.3286698,0.42749763,-0.808185,-4.807323,0.13066375,5.184731,-2.3082006,-2.4551563,2.5236003,4.876062,1.654928,-4.122413,-0.4518321,0.99824035,1.7510462,-4.0687575,-1.5037919,1.0701087,-5.2765408,0.3999031,3.7342823,7.0544825,1.3490841,7.2660284,3.383271,0.8421371,-1.6145418,-1.2667494,2.9120073,-1.1297116,0.17322513,-1.4003419,-3.6074188,0.23316252,-0.78854257,-0.47093418,-3.8015473,-0.21986604,-1.9084028,2.7823434,-2.8110414,1.6756362,-2.7284396,1.1563503,-1.0067624,0.537933,1.4833751,0.7677739,1.8317623,4.261179,-1.2636331,2.3676763,0.292964,-1.8809154,-3.2633164,-1.8149474,-0.7145056,-2.7416313,-3.041776
HuP-T3,17.650976,-15.837075,-4.539954,10.148297,-6.841618,8.361693,-2.2093327,-1.5831339,17.753014,11.251761,-14.350458,1.8180679,22.476458,-10.2076,13.357468,17.903322,5.510558,-8.379643,-11.1500635,-10.698596,-9.847447,-12.680837,7.293286,18.92566,15.2242565,25.56037,-19.374924,-7.550693,-1.255148,22.765915,-6.1504803,-15.568164,11.947685,-17.92811,2.289746,-22.217216,9.951373,24.835604,-17.461357,25.4141,5.739938,-5.2296286,-8.735566,-4.21938,15.346384,-5.5791078,23.568972,16.651834,-21.446505,-14.537988,16.65313,-23.262451,14.669941,-5.995521,-15.893086,-10.876501,-13.062464,14.950987,-1.2438245,1.3144974,16.081486,8.564953,-0.3170454,-4.610451,11.7662945,-16.749609,16.999004,9.270023,20.336706,-20.734982,9.863891,-6.5012527,-20.37169,-2.5192356,-2.0528936,11.189471,-1.2099365,-10.8104,-7.5409145,-9.142784,-5.895726,2.9104679,7.7275214,-5.381676,-6.9402337,18.553488,-18.76046,-27.617437,13.370505,23.732225,0.13614182,16.060024,-25.503176,-5.3559575,-26.92799,4.2746954,8.141191,3.3430781,-17.399553,-12.8234,-21.369736,-18.12506,-23.563356,20.996656,19.644447,-15.303552,-18.544983,-23.506506,-1.0921409,11.233924,-18.810421,-4.958364,20.304068,16.733324,19.534624,-25.041204,14.997873,18.367214,21.250715,-10.839074,19.416193,13.85284,4.702967,-9.44445,7.8816166,25.669783,-23.520227,22.65889,1.4335098,-0.10587134,0.42060286,-1.0102128,1.6839426,-4.4825435,0.7451656,3.4876962,1.8840255,-3.6704051,0.7318821,0.84648484,-0.004497979,1.3364383,-4.9418373,-6.239994,-0.6704568,0.77123636,-6.442363,-0.46305227,-0.69646895,-1.1546624,-2.3923216,6.4678407,1.3672831,-0.94257164,-5.6869617,-1.6175877,1.3529619,1.5246509,4.5020127,3.7861845,-8.02647,-2.704867,2.1861663,1.8182726,-3.9075387,-2.5028667,-1.3993653,5.5670023,0.7380946,0.90541816,-7.4358783,-0.48307478,2.0220451,1.6924348,3.5167208,-4.7181287,-1.622478,-2.5070462,-6.6533065,5.401004,3.7652209,-1.7783252,0.54042614,6.064425,-2.5932314,-1.8849359,-5.449566,0.27148944,1.94394,3.1424448,2.9651997,-1.6782247,-0.36321592,0.4607228,2.9361756,2.6662662,-0.23840556,3.968498,3.9921038,-1.6167786,-5.31542,1.8842006,2.968481,0.110848665,-0.24818331,0.68913656,3.8579721,-1.1440942,-2.7696044,1.5700532,-2.127072,-1.848982,-3.9658604,-2.1394978,3.510482,-3.8280637,-2.1748917,5.4933324,8.052914,5.0456867,6.5912323,2.8241098,0.48626924,-1.0010694,-2.058727,1.6986918,-0.042911083,2.8971558,-3.2275376,-1.5001531,-3.434156,2.3175902,-2.0732634,-6.310655,1.0924091,-3.7015738,3.9787714,-2.5746331,0.42187372,-0.62802935,-0.9917751,1.0852216,2.7196543,5.319685,-1.2903451,3.061001,4.6483316,0.9064849,0.9881318,2.3917503,-0.88070613,-4.463767,2.0694,-3.8763082,-6.2315116,-6.777811
Ki-JK,9.153308,-8.616843,-3.052445,5.0043573,-2.8634121,5.8818593,-0.96143657,0.037231155,9.5165415,6.399895,-6.8065777,-0.5111028,11.989679,-6.338102,8.299119,9.325743,3.6832464,-2.9131026,-5.004252,-6.5978813,-6.6990337,-6.2175283,4.693052,10.877779,7.2986226,14.950879,-10.594837,-5.081667,-1.045252,12.320549,-2.6385374,-8.139602,5.1989865,-9.509231,0.7754226,-11.265265,6.909783,13.565298,-8.743584,14.209893,4.3621607,-1.8496941,-5.8196273,-1.6537346,8.739944,-1.694301,12.600501,9.608522,-11.857574,-7.3833017,8.830166,-13.831013,7.913142,-1.9923568,-9.552282,-4.0164256,-6.271549,7.3273706,1.0080193,-0.4596801,8.382366,6.5772433,0.09037107,-2.3935194,5.653371,-9.195265,8.291997,3.3005257,11.734473,-11.080419,6.619842,-3.879015,-10.696147,0.6716779,-0.054712508,6.788744,0.23435669,-4.8533907,-5.6236153,-6.9548144,-2.2026372,0.27467424,2.87962,-2.7019968,-4.223853,9.78306,-9.775885,-15.674518,6.2320695,13.935969,0.73859143,7.5469556,-14.156847,-3.8846567,-15.061108,1.3255672,3.9464126,0.569659,-9.805352,-6.2174335,-10.855325,-9.724425,-14.071032,10.643381,9.737141,-8.254439,-11.922427,-12.719694,-1.3382962,7.0883546,-11.2030525,-2.8510528,12.043154,8.626214,9.71873,-14.5764065,8.682205,9.948989,13.036652,-6.723955,11.038425,7.7787485,3.1861622,-6.5533676,3.5281239,13.396092,-12.682372,11.111958,3.6828482,-7.827912,-15.114117,11.504341,1.7702649,8.962422,-0.34220707,0.77362466,-4.004943,7.905778,0.9177081,-9.008841,-0.32939395,-12.047158,7.454367,13.690323,8.883842,-17.23414,17.37025,12.300073,-3.3551996,-18.008303,1.7990572,4.5337157,-12.512506,5.8624043,8.66843,-4.773342,5.2799687,-15.002356,-17.311222,-13.234652,13.332552,2.6372328,11.291701,0.6713944,17.015532,-2.0966763,8.27916,-7.3315854,-14.630811,-12.465227,16.129913,-8.8425865,-12.22765,-9.151638,-9.976187,13.094084,-11.905223,0.8580564,17.101841,-13.986433,-16.35879,7.410327,3.144499,12.072965,12.994281,14.311488,19.484753,10.312542,-6.5708117,-11.176252,-8.340134,-11.833961,10.5781555,-3.1601703,1.7506254,-0.6633091,-7.798282,-15.54061,-3.8190293,-10.186574,8.830661,4.4600306,-9.275437,2.3904226,-7.462877,-1.4238864,-0.06422642,-1.6465418,6.469939,-14.237046,17.381893,14.994094,11.090365,-8.330055,-9.85665,3.2241848,17.75721,-12.451207,-15.996496,-4.5409603,-7.0107884,-5.685104,2.7228894,2.0030782,-9.409921,-16.412321,5.88294,-11.069477,7.7980533,1.8706274,15.021041,-5.428919,7.769016,13.68934,-4.117129,10.956474,-8.986094,-10.595628,7.5118637,-5.402035,13.34811,6.921599,-14.501388,-13.232009,-0.16892774,-13.810352,-11.996633,-2.2694376,-3.7090473,-5.2213445,12.758378,12.788221,-2.8253968,6.521513,11.080183,15.42953
Rh41,4.565129,30.948547,44.043655,-27.89388,-12.003803,-46.14218,-22.850233,7.8171053,-31.437536,-41.920643,27.118237,20.445988,-22.379261,30.433737,-44.14969,16.195337,-16.101332,31.20905,7.2854137,30.754116,9.126617,23.462515,-28.318762,-35.165356,-49.31499,-40.679604,58.04864,13.109577,-13.873724,-28.904068,1.8334436,31.476772,-24.29328,26.737473,-33.654934,34.46165,-3.1202369,-35.353214,23.176086,-55.10309,11.879615,8.345435,52.781387,3.0563607,-6.329482,18.844032,-21.067942,-46.572124,5.4162846,25.59421,-29.65654,34.751488,-33.289196,37.13414,-23.028866,27.054909,-0.18987505,-17.225515,27.395767,7.2344723,-38.619995,8.770592,-9.962812,-25.40724,-24.882687,29.495188,-43.371048,-18.743229,-53.950672,18.879675,-33.536495,45.17915,36.237885,-10.909191,-15.848846,18.850805,-27.345667,36.259914,30.084976,-9.886262,-2.7724378,-13.474881,-6.6345797,20.157936,4.2310133,4.3961673,18.907146,48.834938,-21.247435,-32.339127,-31.29569,-26.312204,43.08261,19.652487,29.102247,20.82361,-10.396481,33.877743,32.967045,-0.8671609,12.455366,47.12549,42.46145,-33.295513,-30.660465,10.463361,-0.8172615,42.782246,36.731762,-41.808987,42.7245,35.08363,-42.807262,-29.942263,-29.311823,-19.010748,22.94026,-40.925297,-5.1445556,25.909088,-4.132406,3.632374,9.709432,10.715402,-24.500519,9.014879,40.929825,-35.64773,-1.1517173,-2.7418137e-06,0.28318578,-1.5366014,1.7727395,2.4058645,0.027464844,-4.8599873,3.5825236,5.865323,-0.6853294,-0.37894538,-0.016734537,-1.5861627,0.6492092,4.5796413,2.7051742,-0.6805336,1.4558734,-1.6875641,-2.903519,-4.7905407,4.8888187,-2.4995015,-4.050157,0.68968874,-0.061832745,-1.1867597,-0.6389057,0.040307194,-1.0709814,0.8167448,0.7288809,-0.38212502,-1.6255058,0.8932651,4.3134828,-0.52129567,4.066265,-3.8405902,1.1382941,2.0851347,4.0055847,-2.5655582,-4.9040213,0.73437023,-2.063135,1.3990462,-0.5136085,2.8617976,2.9072778,-2.25983,1.7380397,5.377877,-1.244817,-0.3428637,0.55673665,5.0828905,5.5242667,2.308753,-4.411141,-0.5226725,-4.7430644,1.004224,1.3707803,-0.8789202,0.70581853,-2.796483,0.7658675,-3.1807039,-4.919966,0.8540691,0.7668089,-4.359685,-0.8136408,-1.4903332,-1.1453484,0.5577582,-3.339072,2.6984851,-2.9619699,-3.2105918,1.1324593,3.1076252,-0.80531156,0.47445336,-6.143635,0.2637955,3.261501,-3.8390083,0.037048582,-3.761095,-1.7305804,-1.5790063,0.3880502,0.90796834,3.5799959,1.1112539,-0.39764905,-4.172344,5.3384557,0.26502028,4.2016225,-2.85656,2.3532593,2.6589096,-0.7341322,5.110683,-0.57609546,2.3621585,-0.5961234,2.2217035,3.2758563,1.7268572,-6.232656,-5.1348968,1.3815024,-0.040571436,-0.8426828,0.9963179,0.96114594,-1.8758878,-1.1613835,4.0664673,-2.6348267,1.5560793,0.26486138,4.144978
YD-15,18.28046,-16.404846,-5.164557,10.2767105,-6.821489,8.728101,-2.7236192,-1.251055,18.415508,11.7452135,-14.701682,1.4126897,23.56371,-10.973082,14.20305,18.75344,6.203507,-8.46203,-11.417196,-10.888172,-10.286329,-13.087791,7.944453,20.215801,15.875273,26.801012,-20.065159,-8.282667,-1.3468432,23.486677,-6.5653563,-16.103868,12.238785,-18.550285,2.1942127,-23.130999,10.633557,25.864176,-18.299576,26.556503,5.9461584,-5.273385,-9.198699,-4.304061,16.125284,-5.788197,24.589338,17.44864,-22.311354,-14.824601,17.433453,-24.556557,15.186935,-5.85885,-16.84195,-11.148725,-13.4036,15.614828,-0.8922946,1.0932399,16.450428,9.280461,-0.818105,-4.7174788,11.912265,-17.085302,17.617226,9.445065,21.427786,-21.332235,10.700891,-7.1351204,-21.197273,-2.357992,-1.7141541,11.479819,-1.4850689,-10.986182,-8.12388,-9.950572,-5.779631,2.7290025,8.095918,-5.5743556,-7.7694554,19.280796,-19.68102,-28.860891,13.758838,25.016542,0.5129064,16.5426,-26.69248,-5.772763,-28.113832,4.026854,8.146878,3.1567955,-18.411901,-13.252135,-22.372343,-18.696245,-24.829071,21.777994,20.330822,-16.3456,-19.742105,-24.717072,-1.5959253,12.002242,-19.632143,-4.964463,21.28645,17.113213,20.30008,-26.562664,15.633385,18.952995,22.49965,-11.661203,20.708225,14.618931,5.3548694,-10.296975,7.9711313,26.796501,-24.42521,23.576796,-0.6395781,2.0228295,2.8300626,-2.6868248,-1.1512078,-4.6092215,2.5475643,7.461699,0.19786029,-5.1273994,1.9645038,4.0493402,-2.5184438,-0.4911707,-7.1951566,-6.3291454,0.8805762,2.4804413,-9.293227,-2.7421212,-0.4643235,1.834706,-7.3188615,8.907916,0.65057,-0.90334773,-7.563168,0.11804499,1.162201,1.7911978,7.6732287,5.0766788,-8.88721,-2.362927,-0.034147605,4.586591,-5.5661306,-3.5906255,-3.8661683,5.56225,2.325109,1.854498,-9.609964,2.6831024,3.7769482,5.547428,4.004896,-7.0035224,-2.191911,0.30202666,-8.788894,8.24382,6.57592,-3.586634,-1.3743838,6.085415,-3.8904178,-3.367808,-5.940869,-3.7728782,0.6422439,1.7690434,3.7866275,0.07807015,-0.6491984,-1.8553437,3.7461495,0.0648171,-0.42807505,4.582563,4.947645,-0.27753806,-7.443769,5.101063,3.6881359,-2.4708827,-1.9172306,3.0638533,4.4190087,1.6120247,-2.030587,2.8689888,-3.6626434,-3.2206757,-1.9452496,-0.1800107,5.9997706,-6.411862,-2.5135207,6.1622057,9.885168,6.210571,8.6837435,3.846917,-0.93459415,0.19518791,-1.4689171,3.0010462,-1.9312719,2.6397588,-2.9817157,-3.3530467,-3.0510895,0.64082396,-0.0024150237,-6.5662866,-0.52793795,-7.4194202,4.828026,-4.3025756,-1.2663872,-4.023246,-1.2677526,-1.7860113,4.454582,4.7663016,1.5299349,3.8783906,5.226444,0.2532363,3.0097883,0.7150792,-2.4128032,-4.615154,0.25458598,-4.550769,-6.746734,-6.7656612
HT,15.837152,-15.332534,-9.456837,7.0858626,-2.88777,10.497341,-5.357729,3.3060672,16.473993,12.590465,-11.100315,-3.8862374,23.550142,-13.646208,16.026907,17.321632,10.520092,-5.2725763,-7.754704,-9.689846,-10.383683,-11.574236,10.280745,23.983452,15.296867,28.857157,-19.327633,-12.440143,-2.9743977,20.923695,-8.097741,-14.946953,8.92863,-17.035704,0.027109995,-20.507614,12.99862,24.77859,-18.59862,27.870712,5.06184,-1.1893504,-12.613607,-2.8831224,16.366112,-5.1259117,22.516962,19.2759,-20.011015,-11.812585,17.417679,-27.822983,14.150553,-1.816223,-18.511707,-7.480769,-9.313443,14.387696,3.6079524,-1.6270648,13.350425,13.003185,-2.9341424,-2.4250257,8.2962885,-13.9025955,15.751146,5.651007,24.122068,-18.357666,13.510935,-8.575451,-20.980865,2.6444352,3.4701679,9.304091,-3.5600429,-7.8544903,-11.860743,-14.923406,-1.2413319,-1.00599,6.7514677,-4.840481,-12.53996,16.261175,-19.624067,-29.338507,11.339923,26.081997,4.4281735,13.10536,-26.398191,-7.6319366,-28.051981,-0.19147262,4.0731416,-1.5288547,-20.74628,-9.8955765,-21.73464,-16.565819,-26.89737,19.356163,18.057226,-19.450512,-25.294912,-26.9473,-6.3020873,15.608867,-19.907177,-5.0353055,23.059572,14.071717,18.672592,-30.141333,15.770637,16.892618,26.882019,-13.850899,22.477468,14.02156,8.451172,-14.085161,6.68501,24.448145,-22.548853,20.93639,8.284737,-19.056486,-35.50613,25.255466,5.073334,22.00343,-1.8140837,-3.621934,-6.5747046,21.495539,1.2652231,-20.711668,-0.1568244,-24.079525,22.5336,31.126322,19.29245,-38.82833,41.707054,28.538208,-9.507284,-41.453213,12.043971,7.691288,-28.012825,12.531654,24.309046,-10.489958,7.652289,-31.571417,-41.10885,-31.897469,31.005615,7.64708,24.876165,0.27301955,39.76919,-2.6718893,20.716326,-19.178984,-32.29315,-27.321941,37.727924,-23.99744,-30.493996,-21.93027,-24.231024,31.721527,-24.443754,1.8079172,41.804928,-33.22514,-37.88831,22.888124,7.981653,24.662651,29.572842,35.46831,44.124256,29.647348,-13.847335,-24.08647,-21.973907,-26.311506,24.846592,-3.9688432,2.1161876,-0.09567632,-15.756123,-36.518467,-14.694811,-21.989786,23.907635,3.422359,-17.735252,5.7432094,-15.206376,-5.1339235,0.56816024,-4.7135305,13.0521145,-32.740807,40.0604,38.227882,21.735931,-19.865368,-25.469086,11.150347,39.44114,-29.315866,-38.837986,-15.315105,-17.826727,-13.204537,6.836027,0.728896,-20.854557,-36.631023,14.288499,-26.849976,16.14923,3.9728382,33.965565,-12.614934,14.720795,31.55938,-8.459094,28.99038,-23.411076,-20.547026,18.590487,-9.76823,30.115591,14.391428,-36.736515,-31.495758,-1.8579749,-32.00787,-29.212955,-6.87865,-9.366442,-11.086058,27.576214,29.302107,-9.372931,16.39378,30.04752,38.334377
RCC10RGB,-1.9992816,27.592113,33.887318,-22.925943,-8.708126,-34.294518,-15.503838,8.001065,-28.623707,-32.68029,25.405666,12.178933,-22.930761,24.022104,-37.50637,7.7312827,-15.534014,25.417694,14.200444,20.738867,5.604341,23.50312,-25.041365,-30.362038,-41.855442,-34.50302,48.385048,8.013292,-15.624691,-22.161913,1.68378,24.140259,-22.668447,25.024221,-28.793545,35.279182,-3.9054422,-31.832699,22.899837,-43.81586,8.068747,16.161139,35.421673,9.067677,-8.266749,15.799535,-23.813824,-33.980186,13.38043,23.00053,-25.7769,29.568983,-28.216375,34.206535,-16.620441,31.326017,7.282183,-19.317202,23.874914,7.9851317,-32.515343,7.9840465,-1.5039694,-14.395084,-20.50768,25.873585,-40.288643,-19.260622,-43.276066,17.375895,-33.77068,40.608685,29.839298,0.4782522,-9.879409,15.586847,-22.583239,29.366936,19.628407,-7.6157975,-0.029889517,-17.469025,-15.769769,16.934578,1.5016932,-4.8239813,23.05101,40.483574,-19.054499,-28.626894,-22.671453,-28.235598,38.37508,15.29012,24.375732,14.278156,-11.115671,23.001759,27.943129,6.348503,13.150623,39.826206,35.993786,-32.008526,-28.264881,9.169422,-7.8657064,35.558727,30.614841,-35.492203,33.636955,21.452503,-31.805202,-26.122143,-28.019814,-12.561634,20.863428,-31.41068,-0.98496103,24.724716,-8.316143,-4.124446,4.3491197,9.093103,-18.081358,-3.748493,34.762398,-37.449825,-2.2478485,3.856865,7.659858,-6.3372073,1.9170104,-1.8093734,4.3266582,2.5240033,5.235885,-0.8996476,1.3430874,6.6179414,-4.3150897,0.7984173,-7.6819277,-2.537955,3.1247153,5.0861635,-10.091177,-6.590096,-4.0617642,0.5823047,-4.5757737,7.1117096,-1.4600117,-2.985745,-7.480761,-2.5975235,-2.540331,3.7638826,9.926051,7.3111196,-9.830897,-3.38153,-4.6134324,7.809945,-2.3243961,-3.7393215,0.20734723,2.1798837,5.9930534,4.963337,-6.589555,2.0534823,-1.5208733,8.081788,4.624187,-7.6084065,1.8160064,1.8727959,-8.874832,6.9992933,11.08303,1.9697803,-3.5880115,3.4852104,-6.556477,-0.019107908,-3.2524219,-2.7160275,-3.7039783,4.889477,-2.3565106,3.271394,-0.5336365,-3.078871,3.346069,-4.5280733,1.2594393,3.0861378,-0.41542673,2.6205802,-6.5507293,-0.15307887,7.0844145,-5.2412987,-2.5764718,4.308771,1.7931592,4.9584136,-6.3636475,2.1754932,-3.8534908,-0.45340908,-4.6360965,2.8723307,-0.9760498,-8.022531,-1.5348096,3.038483,10.066046,4.444196,7.9571447,4.4464273,-0.99883324,0.045334138,4.7674966,7.804109,-4.0957613,-0.6326273,-0.53877705,-3.505953,0.8101289,-1.4057044,1.3353117,-5.1766367,1.0976715,-3.066095,5.377322,1.3532883,-1.7975968,-2.1624486,0.964786,-1.5779098,1.140791,1.0965835,3.7987282,4.6513863,6.113378,2.1884756,4.1587505,-1.12214,-5.3983736,-2.6151547,-2.54853,-0.9437127,-7.5157127,-4.509459
NALM-1,17.599598,-15.794552,-5.1046596,9.89282,-6.4810205,8.606304,-2.630825,-1.1401201,17.816017,11.407057,-14.1256485,1.2161093,22.712038,-10.7070055,13.88433,18.043478,6.1015596,-8.02758,-10.910825,-10.586614,-10.037668,-12.550125,7.777803,19.601004,15.254179,26.002956,-19.394287,-8.111991,-1.2906557,22.71514,-6.280115,-15.587904,11.740269,-17.947802,2.0770812,-22.304434,10.379531,25.018486,-17.595516,25.678913,5.8984823,-5.0176296,-8.960075,-4.0380397,15.603052,-5.4733,23.763351,17.0108,-21.601166,-14.271656,16.849684,-23.863218,14.67363,-5.5305934,-16.274902,-10.632882,-12.88398,15.068725,-0.68459636,0.9161378,15.855553,9.192996,-0.819994,-4.503985,11.4413395,-16.49951,16.958055,8.971761,20.814863,-20.584156,10.530145,-6.960314,-20.45846,-2.0992258,-1.5486188,11.172206,-1.3276603,-10.53638,-8.018875,-9.823142,-5.4737616,2.5349526,7.661785,-5.331772,-7.5831237,18.594471,-18.981215,-27.998352,13.194879,24.318724,0.61629933,15.864253,-25.868292,-5.749832,-27.225315,3.7806756,7.8528023,2.8899329,-17.855469,-12.743774,-21.552387,-18.069979,-24.162115,21.014946,19.58423,-15.771794,-19.281202,-23.885263,-1.6198902,11.6961,-19.072287,-4.788,20.692549,16.484999,19.567488,-25.776737,15.147707,18.330687,21.89902,-11.413244,20.156559,14.12473,5.2480087,-10.150078,7.575027,25.860348,-23.602247,22.709148,6.5333743,-14.943345,-27.929045,21.035797,3.0077963,16.091936,0.13547412,3.3320427,-9.601744,12.83939,1.8714945,-16.005491,-2.3353295,-21.832464,13.344044,23.268654,16.636919,-30.576859,32.246887,22.46016,-5.822418,-32.444496,2.61974,11.009524,-23.514395,11.525233,15.612894,-7.436048,9.740551,-28.512806,-32.00689,-24.23466,24.300276,4.510385,20.746183,2.139265,31.200417,-4.864393,13.792531,-12.144403,-27.472628,-23.134928,29.19739,-16.19948,-22.17449,-15.7446995,-18.87843,24.000122,-22.717941,1.8678279,31.707182,-24.908398,-30.485697,13.051357,5.800875,22.111603,23.723204,24.655716,35.407883,19.348719,-10.898992,-20.370806,-14.5865965,-21.910686,20.466616,-6.291765,3.384077,-0.7771718,-14.109234,-28.24787,-6.4419727,-18.860538,16.576702,9.590521,-16.74035,3.503141,-13.93784,-2.156138,1.1098181,-3.4153316,12.920012,-25.809029,28.517796,27.692923,21.160295,-15.858015,-16.810724,5.1930723,31.83468,-22.460178,-29.724659,-8.025183,-11.318646,-9.770415,4.2650557,3.7765026,-18.75007,-30.549088,10.543132,-20.166607,12.693325,2.6857545,26.177181,-9.970916,13.838968,23.331127,-8.279066,17.834217,-17.065155,-20.778248,13.334113,-11.414237,23.842978,11.975814,-27.114643,-22.838385,-0.15016,-25.527617,-22.30225,-4.3970113,-5.7498636,-8.955331,23.201841,24.05387,-5.2800417,9.27547,17.996775,27.314205
TE-5,19.87923,-17.95231,-11.769492,8.35191,-3.353354,12.792589,-7.7434664,3.5452025,22.195045,13.536988,-13.526752,-5.2085967,28.75267,-16.883041,22.501774,23.422186,13.038271,-2.9084687,-9.532243,-11.697547,-14.55453,-13.915544,15.834011,29.112944,16.327303,36.669724,-23.087559,-15.531111,-1.4003145,26.052805,-7.4210835,-17.980328,9.625312,-22.697168,-1.3374076,-26.026653,17.921232,31.055521,-21.350147,33.08974,11.835018,-3.730205,-12.233312,-3.7025905,20.61408,-2.9253001,30.247452,23.572365,-28.261292,-13.753247,20.92914,-34.901436,16.280937,-0.74151987,-23.910946,-8.713488,-13.537599,17.754587,7.1396537,-3.1401415,16.076912,19.639595,-5.285448,-4.6092653,8.832202,-17.32203,18.460585,5.283152,28.551783,-22.9689,20.66831,-12.347384,-24.675106,3.7547185,3.7493522,15.991801,-1.7291212,-7.438132,-16.17006,-21.04004,-2.1649084,-2.778298,6.2725267,-4.8966846,-14.941687,24.754242,-24.904667,-38.33209,12.054056,36.4827,5.7557397,16.729895,-34.310013,-11.220407,-35.015938,-0.4596944,6.704086,-2.35133,-25.859978,-14.280936,-26.049488,-20.037401,-36.47381,24.048632,21.356987,-21.923664,-31.859936,-31.190445,-7.3370714,19.120167,-25.176125,-4.536928,30.492798,16.976906,22.133982,-39.42357,21.225306,20.450848,34.034008,-20.317486,32.793068,20.246712,12.737714,-20.67955,5.536261,32.623882,-28.511131,26.06733,1.4926215,-0.88547325,-3.3375723,0.38217375,-0.46643907,-2.4869363,-0.8281821,2.1377418,1.2047415,-0.5888572,0.39262453,-0.18883982,0.86358666,-0.14519313,-0.83987784,-2.449781,0.067013465,-2.3476107,-3.6486742,2.8478556,-0.071644284,-2.4868157,-1.508146,4.4622416,0.48440564,1.1876236,-2.0153134,-0.6400299,1.6133146,0.5235201,1.1049676,-0.9985979,-5.106613,0.38794827,3.8539693,0.23140627,-2.2139711,-1.21805,-1.40588,1.4890141,-1.3736384,-1.2335101,-5.463606,-1.7792318,1.0043929,0.6028006,0.1850651,-1.2233537,-3.9989395,-1.3509485,-2.859732,2.1177006,0.35195887,0.19724512,0.78344464,6.7929997,0.92273265,1.4629035,-2.9307647,2.0729682,1.7660878,-0.6891949,2.398591,-3.0436769,1.2738591,1.0379974,2.4290085,3.0570662,-0.54648817,2.0467849,0.9722167,-2.9933436,-2.8879282,0.91155016,0.74690306,0.9019823,0.06473992,-0.283932,3.577811,-1.218061,-1.7959645,-0.64506626,1.7114173,0.069766656,-2.3474379,-3.9953961,2.2909932,-0.6010397,0.13204691,3.5606794,3.0532613,-0.24398182,4.290176,0.51714706,0.119157985,-0.8527328,-3.7644265,-0.9056709,1.3981236,1.5411274,-0.9706607,-1.2976307,-1.238824,0.68262666,-2.0239093,-2.9034255,-0.40423012,-1.5308682,0.6216378,-4.473407,1.6727393,-0.409337,-0.17458625,0.6036902,-0.3329983,1.5997658,-1.4028387,0.7099048,1.4325919,-0.64750654,0.40027952,1.5668046,0.8669912,-2.5656757,0.54802376,-1.1064317,-0.19791828,-1.7443202
SKM-1,0.77876884,17.925575,26.928389,-15.585133,-8.608488,-26.886662,-10.894669,3.964687,-18.737387,-23.927105,17.191309,12.685887,-14.889707,16.161638,-26.749172,6.9607587,-11.24945,17.86001,8.36746,15.447261,2.5431292,14.650268,-17.87709,-22.135206,-31.505781,-24.67656,35.37004,6.8018384,-7.815168,-16.122292,4.6368895,18.684551,-15.059543,17.16012,-19.032114,24.095774,-1.0706376,-21.855114,16.151579,-33.285927,7.4549284,5.958805,30.849213,3.607655,-2.2060676,11.500122,-13.240138,-28.743399,5.2147365,14.971534,-17.032568,21.048683,-18.648909,22.39663,-13.445405,19.903849,0.46534622,-14.572016,15.885896,1.8618885,-22.87354,5.64945,-2.7825882,-15.682113,-13.734251,16.81206,-27.867493,-10.193671,-31.694883,10.701599,-22.725079,28.167091,21.967548,-4.500742,-10.047976,12.156742,-14.139998,21.04097,17.712751,-3.7393868,-1.9704517,-9.249479,-6.725898,10.379369,4.738494,-0.47627312,12.648782,29.148226,-13.583641,-19.67038,-21.556595,-17.591677,25.404531,9.85103,18.104183,12.4744625,-5.0984125,20.52926,21.749298,-1.5186865,9.467014,28.17362,26.787027,-21.047129,-18.584743,8.086847,-0.85534316,26.025455,23.96769,-27.44786,23.58932,19.872732,-27.50312,-17.324697,-20.152464,-9.330427,12.950462,-23.267845,-4.137129,15.807963,-6.2189,1.5121958,4.640325,9.329736,-14.033363,1.2829168,24.596584,-24.134836,4.2464104,-9.753701,-15.570784,13.175583,1.4511001,7.969099,1.5962359,6.636318,-8.984779,4.1866226,2.081207,-9.995997,-2.705021,-13.607256,3.0858843,11.0758705,9.929719,-17.094034,17.56312,11.335421,-2.3444524,-18.791454,-3.9818966,10.245761,-14.036048,6.7678146,5.392374,-4.652201,8.003887,-18.819977,-17.532095,-13.188296,12.962686,0.54345584,12.850602,2.8598585,17.302027,-5.210089,5.4799147,-2.979523,-17.535347,-13.988007,15.2483,-7.3276134,-10.979589,-7.7209578,-10.545971,12.347532,-14.736241,0.28631228,16.633295,-13.092579,-17.751997,2.7705173,3.8580136,14.995933,14.414403,11.975013,20.279486,8.046294,-5.7930245,-11.518848,-6.2288165,-14.097318,12.844789,-5.780855,3.4460871,-0.63489944,-8.886816,-15.440733,0.5415068,-12.869341,7.0086074,10.901695,-11.005599,1.7625546,-10.0689535,0.1319628,2.4644063,-2.7022495,9.021217,-13.87409,15.39804,13.718196,14.410658,-10.068259,-6.775609,-0.27039033,19.018373,-11.685473,-15.093059,1.0537773,-4.0586476,-4.8862863,1.8533576,3.30363,-11.837201,-19.45399,5.8937125,-10.57711,6.6755915,1.2388346,15.329671,-5.067158,9.437463,11.603231,-5.535738,5.849875,-7.887328,-14.637274,6.8166895,-8.639416,14.111259,7.4798937,-13.88592,-10.733814,0.26204154,-15.434039,-11.681035,-2.2213542,-2.1118336,-5.0560007,14.123426,13.712052,-1.9580653,1.7555699,6.828327,13.452023
YD-38,18.568445,-16.613853,-5.083291,10.504014,-7.010131,8.869661,-2.6441529,-1.4471445,18.782835,11.835938,-14.970999,1.6215038,23.830256,-11.0608,14.373014,19.00289,6.1534767,-8.574493,-11.616158,-11.105888,-10.475441,-13.238156,8.000469,20.329512,15.964546,27.103523,-20.296772,-8.268421,-1.2630624,23.911875,-6.4775777,-16.355902,12.462727,-18.866785,2.2639575,-23.480082,10.765049,26.24523,-18.40588,26.817226,6.1744494,-5.47153,-9.16284,-4.323239,16.35696,-5.7771535,25.002506,17.658724,-22.782831,-15.085149,17.633724,-24.805529,15.393695,-5.991549,-16.987383,-11.340455,-13.727989,15.810882,-0.95278984,1.1466368,16.75115,9.412465,-0.757194,-4.859976,12.155212,-17.437733,17.8201,9.607683,21.621094,-21.719412,10.807334,-7.166954,-21.434511,-2.5115945,-1.9221475,11.825763,-1.3408487,-11.166535,-8.167426,-10.011426,-6.0077186,2.8729007,8.14115,-5.6058826,-7.69022,19.651567,-19.928415,-29.269684,13.946042,25.416965,0.42456824,16.8144,-27.075012,-5.884491,-28.49567,4.2321258,8.430798,3.302896,-18.562479,-13.544703,-22.61165,-18.979647,-25.1628,22.109293,20.642622,-16.40826,-19.899937,-24.906898,-1.4296925,12.007772,-19.887869,-4.98966,21.537514,17.421179,20.573753,-26.840994,15.853984,19.265783,22.73691,-11.814098,20.953833,14.865587,5.3416004,-10.38557,8.003377,27.24618,-24.815187,23.91751,0.039610244,1.5716897,1.7346897,-2.5780613,-0.5037291,-5.0883985,2.738544,7.898773,0.84090316,-5.012621,2.8793328,3.7898993,-2.248393,-0.157334,-6.700742,-7.206298,1.1782846,0.67299175,-9.567357,-1.8370261,-1.4096781,0.22100472,-6.901847,10.873887,0.501585,-1.0521466,-8.012507,-0.9079077,0.87546957,1.5507061,7.4053297,3.5581188,-10.347398,-2.818652,1.3966265,5.389022,-5.4816227,-4.404993,-3.8094037,5.8906727,1.6840646,1.257441,-11.106924,1.1567771,3.263175,5.6463766,3.8934097,-6.8141775,-3.6087143,-0.48083144,-8.788217,8.227709,6.1234965,-2.3795211,-1.185225,9.071078,-3.6124284,-1.634021,-5.9751534,-1.7192422,1.1175071,2.201036,3.566167,-1.2445806,0.40413725,-1.5898502,4.747788,1.1283404,-1.2210969,4.6136217,4.8576355,-1.3879848,-7.759168,5.1579914,4.3655343,-2.3368752,-2.6818485,3.2311687,6.165393,0.92039406,-2.6780643,2.196469,-1.7167851,-1.8305632,-2.7554603,-1.7090217,6.1328454,-7.0216875,-1.3595829,6.856777,10.083622,5.3228188,9.983415,4.3288827,-0.30020097,-0.60077137,-2.9537692,2.4079778,-1.6049377,2.578698,-3.292813,-4.074221,-2.6781378,0.53830665,-0.65626246,-6.834753,-0.50749344,-6.902812,4.7871275,-5.6911635,0.12312581,-4.511603,-0.6052992,-1.474354,3.7312396,4.956017,0.8717579,3.0324903,5.63556,-0.72762305,3.166578,1.0379388,-2.0757523,-4.878222,0.056562275,-4.81581,-6.359498,-6.861702
HMEL,12.583582,-11.169469,-5.5642495,6.1411686,-3.3844612,6.6539197,-3.7358062,1.1177588,12.489637,8.207229,-9.239913,-1.1664294,17.864431,-9.048107,11.547205,14.265171,6.5382237,-4.414247,-7.3654776,-6.6173587,-7.776077,-8.652516,7.2321653,17.1223,11.364717,20.458506,-13.627306,-7.9178457,-1.5749811,15.934343,-5.264662,-10.775625,7.443175,-12.723983,0.8453232,-16.602436,8.99963,18.832968,-13.474327,19.447363,4.165196,-2.9058821,-6.9998584,-3.1635833,11.99201,-3.4483957,17.755682,12.817041,-16.402012,-8.986985,12.396111,-19.286026,10.459722,-2.7229307,-13.556,-7.14709,-8.707741,11.42729,1.366272,-0.19586754,10.373029,8.312154,-2.758841,-3.549856,6.7574234,-10.91825,12.207838,5.2943754,16.496159,-14.098378,9.659498,-6.896156,-14.915431,-0.38915157,0.6996928,7.4701467,-1.8795302,-6.211726,-7.042179,-9.7255945,-2.7071147,0.91602296,6.320151,-3.3464534,-7.407975,13.952969,-14.713122,-21.632446,8.574816,19.404703,2.0249097,11.006098,-19.698126,-4.333184,-20.705915,1.0908636,4.2870646,0.4059152,-14.751401,-9.048296,-16.258291,-12.516888,-19.43248,14.967846,13.757279,-13.278477,-16.423073,-18.447533,-3.3251379,10.49173,-13.861815,-2.4551196,16.091175,10.716394,14.278546,-21.284746,10.992464,12.736193,18.18366,-9.8551,17.13889,11.599653,5.9230814,-9.877333,4.3508644,19.736984,-17.217566,16.868193,-0.22597924,2.3218393,2.396814,-2.802871,-0.59523946,-4.818843,3.617401,9.249723,0.8158507,-5.166113,3.7765355,4.4592524,-3.7117717,-0.0037158206,-7.096586,-7.2997537,1.8919935,0.24583173,-9.360683,-1.5384381,-3.1205084,0.29657063,-8.093344,12.535821,-0.1617458,-1.2948717,-7.9341364,-0.85125077,0.050337322,1.2137436,7.361655,1.962963,-10.818703,-3.6576371,0.83283126,6.7874556,-5.39618,-5.18663,-3.248242,5.182686,2.0224068,1.6784056,-11.520981,1.1958673,2.6237218,6.1833878,3.605064,-7.109323,-3.8972983,0.2124636,-8.328848,8.46063,5.8398967,-1.8211775,-1.5072949,9.596342,-4.0116153,-0.6438586,-4.9548445,-1.0439773,0.68099475,2.0544045,3.3862731,-0.85527444,1.3400757,-2.6373386,5.863769,0.48739707,-1.4792607,4.349022,4.1495867,-0.5927288,-7.9502563,6.0612125,5.011195,-3.4714885,-3.698475,4.0254645,7.4108753,1.6984553,-2.9458277,1.7064157,-0.32934773,-0.34917414,-2.74653,-1.4606342,5.785653,-8.358904,-0.49236438,7.1787567,9.600827,4.051149,10.799867,4.620442,0.021347564,-0.33238798,-3.200974,2.8953078,-1.9962355,1.4471316,-3.7304313,-5.053039,-1.366783,-0.7028578,-0.24210683,-6.2419767,-1.2164937,-7.080784,5.006322,-6.349838,0.44552946,-6.0755367,0.72129023,-1.6804576,3.7107852,4.0495653,1.1297859,2.078499,6.183796,-1.3845415,3.959044,0.7604144,-2.1229444,-4.868743,-1.2529793,-3.8214881,-5.652093,-5.694153
CAL-29,18.09317,-16.227709,-5.0601354,10.236223,-6.795711,8.749069,-2.5565922,-1.2817783,18.240114,11.677448,-14.5684185,1.4122858,23.259937,-10.837867,14.018665,18.455557,6.064152,-8.429986,-11.277596,-10.891866,-10.199893,-12.945061,7.7892823,19.950586,15.731691,26.528624,-19.941166,-8.158296,-1.3792318,23.335056,-6.4976764,-16.00987,12.133476,-18.389889,2.2100708,-22.863304,10.462916,25.616175,-18.093203,26.339428,5.885438,-5.168176,-9.198747,-4.204179,15.909454,-5.7137637,24.269363,17.371069,-22.06921,-14.755331,17.227509,-24.298212,15.081141,-5.841815,-16.591877,-11.004415,-13.239809,15.450175,-0.94166404,1.1075336,16.355701,9.152577,-0.6650903,-4.6151714,11.874198,-16.989944,17.457926,9.337913,21.25342,-21.172634,10.524974,-6.9609294,-21.015354,-2.2769895,-1.7187357,11.376116,-1.4232799,-10.935239,-8.044105,-9.807303,-5.7426353,2.719659,7.9328847,-5.50183,-7.627855,18.994967,-19.390789,-28.578598,13.665441,24.716063,0.4868042,16.340147,-26.400328,-5.735158,-27.867237,4.0369096,8.086023,3.1039467,-18.194715,-13.063831,-22.097807,-18.568071,-24.559402,21.554564,20.1623,-16.113506,-19.56731,-24.454973,-1.5254574,11.858772,-19.49927,-5.04346,21.107037,17.022089,20.106905,-26.199526,15.477823,18.838106,22.285522,-11.471174,20.355858,14.357376,5.164855,-10.131489,7.9477534,26.448183,-24.197931,23.294382,-0.8041586,2.8533359,1.3711702,-3.1845686,-1.5477327,-4.2211046,2.9595199,6.926409,0.8978713,-3.9496605,2.444394,4.8097777,-2.8985634,-0.5374273,-6.0121083,-6.6326165,2.1046042,0.63396573,-9.723736,-1.3976847,-2.4309795,0.0017212704,-6.4792056,11.47499,-0.5523616,-0.43891802,-7.0977836,0.20489682,0.18007469,1.9242989,7.6012,2.5033565,-10.728043,-2.887055,1.076883,5.520192,-5.113951,-4.85515,-4.279105,5.2139225,2.4340358,0.86957014,-11.375325,1.5116062,3.1050951,6.212289,3.8374474,-6.3427343,-4.319178,0.48228914,-8.160202,8.797445,6.554402,-1.588682,-1.817041,9.276491,-4.0465555,-0.81126285,-6.073473,-0.4825132,0.44703227,1.2204548,3.3109808,-0.47672847,0.7944016,-2.1410816,5.5901394,0.85738415,-1.1067483,4.465445,3.0232828,-0.61276317,-7.436838,4.3588047,4.7303324,-3.2738576,-2.5179272,3.684066,6.7555604,2.1789901,-3.5670562,1.6392263,-2.2452965,-1.5103495,-3.2714882,-1.1815184,6.1280303,-7.020772,-1.899585,6.4541874,10.091541,4.9339294,10.432917,4.1733894,-0.41696808,-0.4358912,-3.1501086,3.5498796,-2.029596,1.6499746,-3.0363832,-4.585688,-2.4902582,-0.48786122,-0.24542104,-7.452378,-1.6340399,-7.4761705,4.2795076,-5.762181,-0.18487377,-4.9735847,-0.40679145,-1.7452129,3.1610343,4.45248,1.6514506,3.6826487,5.5950747,-1.015444,3.7892992,0.12935537,-2.5788748,-5.2411675,-1.6110743,-4.472609,-5.1400013,-6.0806565
NCI-H1436,-4.3512206,2.926303,-7.8919644,-9.533411,6.973624,-2.9117427,-12.602421,11.630767,-5.25444,-5.552818,9.152968,-9.8386755,4.5179315,-4.455041,3.489124,7.1745415,11.813954,10.891151,6.3282256,11.342858,0.5574299,5.4630446,7.003697,11.064817,-5.136039,3.2404668,9.594806,-9.864963,-2.2137465,-8.322855,-1.4045444,7.563236,-9.948409,6.2149673,-6.960916,3.783848,7.215506,-1.2586275,0.52148694,-3.080839,0.22693795,3.6527598,4.541931,-2.139185,3.6533294,3.768392,1.4396362,-5.8656664,-1.2302845,11.301496,-1.86605,-7.261034,-5.702015,10.28423,-11.835119,5.4011345,4.2840223,-2.1999435,13.178535,-5.255052,-11.042021,9.548884,-15.266724,-3.7553592,-11.777722,10.56192,-7.337486,-9.409486,0.8383095,9.2776,5.6998916,-7.3099523,5.57397,3.540862,9.371667,-1.8275427,-7.150029,11.899421,-3.699012,-14.409861,8.032281,-5.6450663,3.8532205,4.6088862,-10.825721,1.6980618,-4.9935074,-0.8544172,-9.213852,7.47486,7.564459,-6.309419,-0.08311665,0.19263414,-0.26927605,-9.029577,-8.980236,-7.051972,-4.8549943,1.8531599,-1.8969941,10.475514,-5.507749,-6.55843,-5.2143774,-9.038156,-9.088438,-0.84962016,-9.811253,6.739666,4.7519097,11.173504,0.0800668,-11.215994,-3.1744523,-15.3985405,-1.6023035,-8.604995,10.031507,-6.64483,12.471388,10.64311,13.071593,-11.120655,-9.610402,3.6119876,4.771197,-3.9177222,4.9713135,-8.548955,-6.0469995,5.1708755,6.0654755,-5.124215,-6.3057237,0.41402376,-2.740445,-0.07004672,-3.9833536,-10.134082,3.8264449,3.3580618,-3.067064,-3.3800497,-4.692036,-0.038224723,4.05783,4.9332013,3.5840201,-7.5383577,4.865662,-0.99079925,-0.19455664,3.1918564,-3.0950468,-0.74760795,6.4850087,-3.5876355,-7.2029734,0.22828014,-1.912253,-1.6134938,5.5478396,-6.6949015,1.2148253,-1.6396697,1.1518224,7.1052065,-7.677032,0.5416628,1.471561,-7.1130915,-0.99270594,-6.373862,-4.704256,0.0057057086,-1.1677656,-5.763387,0.97034407,-5.5054374,-6.13457,-3.3640888,7.8366876,0.5435785,8.233954,-1.1919818,2.059914,4.459304,4.387342,2.6675708,3.347073,-6.233549,2.6940684,3.678616,1.9227822,8.864411,3.5393567,0.60353196,2.3674214,-4.9762535,-1.119744,-0.17431076,-4.531583,6.8423166,3.508477,-5.1562185,0.6824536,-7.8350515,0.21936002,-2.3312807,-0.8249805,-1.1083689,-3.1073475,-8.525786,-0.56585824,4.1860857,-0.98854816,3.697591,2.331149,3.1316304,1.032224,-2.4997878,1.1298162,2.701427,-3.3260868,-6.3854055,5.9403434,0.5274545,-1.6638111,4.0700917,-1.7223672,3.7103407,-4.714372,-4.0234084,0.80567074,1.8059068,0.69432473,-0.22217806,-0.92739534,5.278276,-0.48332632,9.426909,-5.6995096,5.480277,-7.7570257,-2.3062384,1.5829277,4.507719,-2.3356628,6.4251366,5.575952,-0.61991984,4.3298593,-7.002831,-5.0305815,-2.1616557
SNU-8,3.469565,12.662803,20.2312,-10.820301,-6.2668376,-19.088121,-7.981447,2.9717083,-13.553535,-16.950445,10.726337,8.594064,-10.05394,13.116806,-19.827745,6.6649275,-9.22621,12.189448,3.623164,10.655918,2.6172814,9.40233,-13.70593,-15.51945,-20.212975,-16.563145,23.81206,5.678429,-7.793833,-10.079478,-0.15655613,12.432462,-9.901384,11.50161,-14.353717,15.221912,-1.8075597,-14.559883,9.325735,-21.814987,4.931119,5.535579,19.97319,1.9710726,-3.6944246,7.70545,-10.295988,-18.232767,3.565446,9.221624,-12.602905,15.295092,-13.120253,15.537907,-9.528176,12.990649,1.3063542,-7.4152484,10.97317,5.045411,-15.157215,2.9418867,-1.6037402,-9.875362,-8.950547,11.098977,-18.292978,-7.686036,-22.80156,6.494956,-16.704203,21.21527,14.234746,-2.435522,-6.9987073,8.547681,-11.824408,14.215466,12.314328,-3.5570745,-1.8002303,-6.8664317,-5.363081,7.940183,2.7903163,0.8293842,9.595336,20.068342,-8.143683,-14.917692,-14.629427,-11.720506,18.539106,9.358451,11.155585,10.013438,-4.0478215,14.652487,13.574563,1.4812806,5.297224,18.718145,18.67255,-13.976637,-13.078713,4.9381,-1.8900762,17.555672,17.358522,-18.009977,17.676773,11.712399,-16.450632,-11.477891,-12.394817,-7.3439302,11.64114,-15.800299,-1.5290129,13.037397,-3.021144,-0.85911566,2.3169863,5.430317,-8.161138,2.917913,16.602407,-15.980018,0.3451278,0.9256833,2.3997204,-2.4688382,1.6190981,-4.2340336,1.8862598,3.738634,2.674527,-2.3524928,1.3539686,2.6487963,-1.8728724,1.2138528,-5.484326,-4.8184695,0.6442457,1.2681891,-7.9529567,-1.6121725,-1.8636883,-0.8423226,-3.9387114,7.441035,0.49239272,-1.3789563,-6.2904353,-1.7503458,0.15779282,1.7226408,6.011931,2.9664593,-9.066816,-3.0830448,0.3583512,4.150469,-4.014316,-3.547566,-1.330149,3.9436069,1.9586294,2.4629118,-7.9459047,-0.24283338,0.98290014,4.008925,2.780144,-5.463116,-1.0179547,-1.0981613,-7.7980647,5.4011893,5.6023736,-0.91140735,-0.57885003,6.113821,-3.081428,-0.5497263,-4.7999063,-0.3782236,0.4067285,3.5836272,1.6014448,-0.65253985,0.14578941,-0.82906234,3.3995085,0.5386211,0.0451746,3.7475622,2.404072,-0.6290307,-6.1194544,1.6471705,4.280717,-1.4469333,-1.3649173,1.9746693,4.2256246,0.77404916,-4.13598,1.5290637,-0.77206063,-0.9803094,-4.1839385,-1.3894621,2.4488487,-5.3515587,-1.250549,5.418606,8.154179,3.9363294,7.4644747,3.0551062,-0.10980943,-0.81308746,-0.31458578,3.0958526,-1.135666,1.6967039,-1.8611337,-2.4227455,-1.2207268,0.8546519,-1.1786245,-5.505646,0.8421819,-3.7261925,4.2109156,-1.9557471,0.17238352,-1.4965591,-0.08324863,0.26133132,2.26327,3.489188,-0.062003244,2.450868,5.275344,0.6278709,1.9546621,1.3511078,-1.9045634,-3.8842757,-0.017894417,-2.3352702,-5.3574605,-5.6179943
DV-90,12.714006,-11.429102,-2.6501243,7.719502,-5.4047513,6.2178226,-0.49310213,-1.6976684,12.79873,8.24734,-10.60381,1.7779747,15.70294,-6.9178886,8.915878,12.218996,3.122827,-6.699854,-7.9825664,-8.337595,-7.0486956,-9.032175,4.441669,12.80064,11.082828,17.921608,-14.345496,-4.8505516,-1.3132315,16.79734,-4.667941,-11.397652,8.888466,-12.851053,2.0989542,-15.623156,6.514554,17.527702,-12.267792,18.355955,3.7892659,-3.3885515,-6.6757545,-2.6741893,10.681339,-3.9847436,16.356058,12.318459,-14.879446,-11.037145,11.836064,-16.04751,10.825892,-4.563676,-10.759503,-7.8102684,-9.343534,10.562548,-1.5743446,1.6059115,12.062354,5.4346805,0.78871965,-3.0465734,9.089047,-12.552475,12.212988,6.771038,14.576937,-15.17524,6.0867724,-3.6706173,-14.504123,-1.6307248,-1.8880798,7.9792867,-0.8826069,-8.330444,-5.0441403,-5.876418,-4.534843,2.0480092,5.1107717,-4.111935,-4.3613057,12.537281,-12.774796,-19.629063,10.139505,16.384455,-0.2623286,11.297416,-17.892921,-3.6878936,-19.085491,3.6212168,6.067249,2.5958233,-12.151916,-8.870133,-14.943681,-13.452397,-16.24402,15.062823,14.383763,-10.36503,-13.034192,-16.527287,-0.16268861,7.570183,-13.663057,-4.544297,14.61059,12.501495,13.994221,-17.030272,10.842156,13.638237,14.891211,-6.885569,12.533783,9.125095,2.1321764,-5.9433293,6.239632,17.725397,-16.928057,15.843082,5.146689,-4.444067,-3.8962994,2.7792766,4.0756474,-4.2994256,-3.7725942,-1.4946861,1.1979021,-1.2364259,-1.13096,-5.3426266,4.07118,3.9291673,-2.4069462,-4.0785737,-4.178757,-2.589558,-1.0547055,4.101585,2.712449,-3.433478,2.6061594,0.459019,2.976225,0.7138712,-1.4571048,-2.3758705,3.1444118,-0.13554367,-2.0376225,-2.910491,-4.741688,-0.79754394,5.0323367,-4.6232195,-2.5136318,0.53639024,0.25784498,3.4056354,-3.3281276,-1.2730914,-3.2613993,-3.8486786,0.87396485,-4.535995,0.57575566,-1.0276593,-1.4156182,-6.1626897,-2.3655393,-2.3716638,-3.7205706,-3.5095718,4.631549,4.1783414,3.0590405,0.4162928,-3.1328926,3.4700274,5.157679,2.2166271,4.173748,-4.3820543,0.33519816,3.924048,0.79646426,7.152535,0.32996196,3.2752452,2.9684198,-3.952509,-1.6974131,-0.58151054,-1.7895919,5.0030675,3.4591644,-3.557657,1.504056,-6.044359,-0.78326225,0.49415773,1.8906418,-2.0860517,-4.5407076,-5.830919,1.1541002,2.707357,-1.6869496,5.2908797,1.5296211,0.18489137,1.1700964,-0.5686336,1.632964,0.1041085,-3.6211498,-2.8290575,3.6293015,3.3082695,-1.9602557,2.3380914,-2.9594066,4.6397095,-5.313944,-4.7510614,2.8226051,1.4823531,1.8896961,-1.2016101,1.9139361,4.482065,-1.19959,5.014899,-1.0571903,5.0260563,-5.953306,-0.5552206,2.2333143,2.2701616,-2.0542371,4.8941436,2.9246323,-3.0835493,4.650189,-2.6912715,-2.605881,-3.8993452
RT112/84,14.983361,-13.711055,-2.9766994,9.229152,-6.539835,7.6873,0.02308803,-2.2031465,15.345135,9.824678,-12.496404,2.3419497,18.28463,-7.8547373,10.03227,13.868734,3.4151292,-8.106896,-9.200376,-10.203792,-8.154413,-10.816839,5.008451,14.594168,12.943052,21.050406,-17.176392,-5.348285,-1.781541,20.293175,-5.4694347,-13.802025,10.59447,-15.407546,2.5364153,-18.190247,7.4609647,20.551783,-14.481206,22.01626,4.653339,-3.7045188,-8.283216,-2.9197388,12.47016,-4.7149267,19.294989,14.974443,-17.500433,-13.51278,14.01647,-19.040527,12.763071,-5.3176723,-12.477994,-9.045324,-11.047555,12.320924,-1.9208436,2.2736816,14.61224,6.4725337,1.806418,-3.2804441,10.983068,-15.250914,14.3148985,7.9091578,17.368666,-18.344032,6.700748,-3.4226847,-17.31907,-1.6245494,-2.3756497,9.846601,-1.0747669,-9.913616,-5.927552,-6.969872,-5.378401,2.3135731,5.588563,-4.7891827,-5.0209136,14.414604,-14.992267,-23.236422,12.2862215,19.15001,-0.35292917,13.210707,-20.940191,-4.4592886,-22.504757,4.609406,7.248544,2.9330394,-14.301539,-10.260495,-17.582716,-15.952501,-19.23207,17.777876,17.224953,-12.123734,-15.659922,-19.64453,0.05926579,8.761895,-16.276146,-6.188531,17.537607,15.226345,16.617321,-20.055574,13.165203,16.33049,18.1299,-7.787819,13.878979,10.250592,1.9714452,-6.4613433,7.8201823,20.58846,-20.079052,18.403152,1.3364862,-0.28232992,-1.6254643,-0.343025,-0.12662491,-4.091856,-0.26939785,2.862489,0.6797212,-2.0133667,0.72568315,0.26972196,0.27806044,0.7088213,-3.11086,-4.567459,-0.42373326,-1.1845026,-5.2312565,1.7916391,-0.14793184,-1.5366586,-2.8123326,5.641796,0.82193387,0.7665477,-3.8712773,-0.4350815,1.6607677,0.87440324,2.8802898,-0.27027407,-6.844088,-1.110322,3.1729758,0.6883776,-3.699926,-2.18623,-2.3252366,3.713617,-0.2869895,-0.34654173,-7.138902,-0.6548404,2.3077571,1.3002186,1.7963446,-2.936967,-3.6900172,-1.4796866,-4.694104,3.5051942,1.5921698,-1.9458104,0.45386085,6.853339,-0.30092487,-0.12344612,-4.548889,1.3876103,2.2813618,0.5671409,3.9782536,-2.38367,0.6669006,0.49891824,3.4067118,3.4929547,-0.55586624,3.5862963,2.4953172,-2.1246493,-4.6314945,1.9237282,1.2260009,0.41040346,0.236332,0.22233543,4.480941,-1.0323781,-1.9555434,0.49286634,0.080633104,-1.6746609,-3.198811,-3.1992893,3.8357282,-2.1553044,-1.4758387,5.2748055,5.514859,1.8864748,5.8959827,1.4451908,0.5070867,-0.3745939,-3.8058739,0.29520908,0.51975,2.1950195,-1.9771758,-1.4666121,-2.5522034,1.279008,-2.4475386,-5.3798795,-0.25994572,-3.5512483,2.2297628,-4.1645107,0.7196863,-0.8978993,-0.7268301,0.7835447,1.2601504,3.8908463,-1.2784057,1.5832758,3.332523,-0.1856431,1.141627,1.765795,-0.017826892,-4.0911818,0.8154357,-2.7714217,-2.6477048,-4.107012
HCC1569,3.3459775,21.896774,30.5146,-17.495134,-9.157449,-29.205318,-12.91783,5.060759,-22.154758,-26.780602,17.856781,12.740366,-17.122442,21.741566,-30.80317,9.160835,-13.8399725,18.94688,5.9660363,17.90319,5.633736,16.309338,-21.721987,-24.193712,-31.262083,-27.464739,38.115776,9.227181,-13.774624,-16.786734,-1.3929248,18.71693,-16.08003,17.985195,-23.069035,25.217615,-4.540283,-23.496656,15.17107,-34.93584,5.9314733,10.368458,30.755474,4.6452317,-7.4686313,11.65054,-18.096493,-27.386461,7.3189383,15.768189,-20.794106,24.357235,-21.947638,25.454166,-13.733466,21.270987,3.3583415,-10.84034,16.930872,8.601163,-24.71998,4.573645,-2.9728265,-13.277427,-14.5885935,19.068295,-29.315002,-13.359428,-34.887012,11.683536,-26.913788,33.52126,22.810087,-3.4950569,-10.498814,11.98635,-19.459692,22.446615,18.901346,-5.20467,-1.9568702,-11.27122,-8.991487,13.850301,2.5734973,-0.65366346,17.189102,32.082115,-12.534234,-23.95502,-20.644178,-19.874857,30.21862,15.049415,18.085228,14.777128,-8.002596,21.444218,21.472904,4.0163217,8.613392,30.383257,29.156353,-23.04625,-21.153019,7.284891,-4.293234,28.34573,26.64756,-28.286512,28.05587,17.633913,-25.610659,-18.951197,-19.569159,-10.915289,18.176455,-24.9719,-1.5850935,21.219616,-5.378201,-3.1358516,3.035786,7.6231303,-13.856447,2.204609,27.00324,-26.556614,1.1127374,-0.9533388,-0.7919372,0.11370821,0.79148483,-1.5310596,-1.1654022,-0.7635733,1.6567032,0.35420948,-0.62496537,-1.0917122,1.5196763,1.0189323,-1.6688912,-1.0357504,-1.0794371,0.6265424,-1.9910508,-0.06821131,1.3119935,-0.6883963,1.2084395,-0.5048651,1.0018842,0.32995126,-1.049568,-0.41472903,0.75754225,1.1522012,0.7154706,0.22865176,-2.2089226,0.24667299,0.51944894,-1.286441,-1.6920103,0.08059344,-0.21841393,0.3753368,0.1904887,1.0234866,-2.077733,-0.65575415,0.3153078,-0.1420982,-0.19585133,-0.70110744,-0.1111585,-0.8857399,-1.6339072,0.15355177,0.36694497,-0.38482752,0.81585765,0.8665478,0.62625074,0.07937822,-1.3060533,0.28316152,1.0878999,0.686437,0.9516155,-0.44999668,-0.22761099,0.7816688,0.016512621,0.97903574,0.68761826,1.9173149,0.35947445,-0.60091054,-1.2869782,-0.8962807,-0.37101257,1.04301,1.2989404,-1.151644,-0.5565239,-0.79150295,-1.2098786,0.5500105,-0.44114578,-1.2730902,-2.0677767,-1.1409754,0.31102315,0.812788,-0.79271793,1.8784938,1.6956193,-0.8677292,0.65585685,-0.44845217,-0.017263394,-0.05199636,0.41040787,0.1113476,0.9603627,1.1659491,0.5726403,0.7172084,-0.6286091,1.0161412,-1.4242278,-1.8321815,0.606892,0.17182045,0.7209219,0.27486652,-0.4308833,2.1763005,-0.59539837,0.75244594,-0.41371584,1.0901139,-1.2118977,1.0109222,0.92361414,0.66883045,-0.13711834,1.2202,0.065106265,-0.9471067,0.8935255,-1.2720517,-1.3036278,-1.2080723
NCI-H838,-2.899612,0.88361233,-5.504608,-5.122929,5.727626,0.874335,-6.6393614,7.188516,-3.6376367,-1.4059079,4.944567,-7.1451697,1.898267,-2.5010033,3.7278144,2.5203307,7.566021,6.790747,4.0776095,4.628252,0.14510196,2.2221758,4.909257,6.8646736,-2.0631337,4.010202,3.765171,-6.220616,-1.8690923,-4.3623066,-1.2344714,3.1458132,-5.9543157,2.634831,-3.5027952,2.0918705,4.2138734,-0.20351678,-0.26380685,0.0020953873,0.78541183,2.9239273,-0.78051907,-1.4185265,1.1271998,2.0577245,0.3878344,-0.9410001,0.53399926,5.8900967,-0.637816,-5.6381397,-2.7635179,5.4626017,-4.754535,3.5972722,3.7461576,-0.88907987,7.993122,-2.6760483,-5.730069,6.4392877,-7.2840605,-0.54535776,-6.724176,4.8440223,-3.3263013,-6.240738,2.0067298,4.659752,4.280126,-4.897896,1.6354128,4.86917,6.4031506,-0.69042933,-2.7683396,6.4247766,-4.6234703,-9.284362,5.1461787,-3.458504,0.17630857,2.4451828,-5.8047843,1.1956156,-3.0055199,-1.9259776,-5.636162,3.3794255,5.181719,-3.2396686,-0.67134655,-0.15492138,-0.8425952,-6.1711125,-5.1960006,-5.855437,-4.248189,2.650376,-0.45641947,4.439072,-4.5411873,-2.9588585,-3.6380022,-4.643881,-6.5318575,-1.7868251,-6.594631,6.4127154,1.6331376,4.497575,2.6411862,-5.5575023,-1.4619323,-8.2818775,-0.55284417,-4.226676,6.46156,-4.442641,7.8818116,3.9940705,7.7161865,-7.397854,-4.1726065,0.8175577,2.4433076,-2.3372138,-0.15243565,0.91891736,3.1497638,-2.540994,0.54300463,-0.64838,0.72763264,-0.33079845,2.0279386,-0.11534706,-0.35184982,1.6916301,-0.9694575,0.25700018,-4.4861784,-1.5100812,0.5416914,4.068072,-4.7209253,-4.312479,-0.08053965,1.2725947,-0.5035199,0.80856305,-0.114472896,-0.2923952,-3.6023908,-0.9239583,0.1915317,2.048163,4.8858104,6.3906193,-3.9183855,-0.46502823,-2.096062,1.6184236,-1.1009853,-0.06798244,-0.5462137,1.3345852,2.4927378,2.3828433,-2.2505946,1.4336839,-0.20762698,3.1084852,1.3990145,-4.5476766,0.84631276,0.8998679,-3.6401052,3.986732,5.337498,0.61260206,-0.97552395,0.0072762277,-2.0423992,-0.92852145,-1.1937873,-2.4514015,-1.2838932,1.9294878,-0.8387237,1.4888368,-0.9030219,-0.92845595,0.5340083,-2.3690581,2.002131,1.716927,0.19141197,1.1238595,-3.1392975,-0.25853774,1.3427069,-1.5679611,0.35583836,0.94168,-1.4036341,1.7991476,-2.1190972,2.486866,-3.7383127,-1.7661809,-1.832236,1.4722916,-0.08431789,-1.6667362,-1.6782373,1.0444776,5.62975,2.641954,2.7317116,0.60254455,-1.0788348,0.69362175,3.2918878,3.3984375,-1.1100442,-0.024377078,0.9419217,-0.27260616,-0.4320941,0.31792486,0.38008463,-3.080712,0.8585438,-1.6036754,1.9208398,1.649571,-2.130071,1.0214832,-0.6300586,-0.6347693,0.14278412,0.9258179,1.4324459,3.180694,1.7221098,2.991126,1.5581895,-0.034200177,-2.3511193,-0.6839552,-0.41777152,-2.0370064,-4.599326,-2.1185517
RL95-2,15.129493,-13.620298,-3.3232737,9.068121,-6.3549995,7.3830824,-0.71473694,-1.9137859,15.250687,9.916955,-12.576173,1.8940995,18.696836,-8.23876,10.48578,14.369995,3.78482,-8.023825,-9.482724,-9.7873,-8.198556,-10.929701,5.3636556,15.329994,13.368675,21.406399,-17.204624,-5.7956734,-1.689178,20.004433,-5.840661,-13.762692,10.665045,-15.408919,2.429393,-18.580873,7.6891937,20.731705,-14.906252,22.135786,4.3389606,-3.8280466,-8.204742,-3.1578693,12.6774645,-4.824297,19.470074,14.932386,-17.5422,-13.23169,14.22638,-19.28091,12.8864975,-5.310249,-12.794609,-9.276674,-10.989104,12.668748,-1.841855,1.9608382,14.379278,6.499255,0.9579227,-3.357417,10.805693,-14.8335705,14.588527,8.080217,17.560682,-18.045864,7.3277745,-4.100619,-17.536034,-1.7569748,-2.0429044,9.298087,-1.3759545,-9.911005,-6.0263247,-7.119765,-5.1974463,2.2400045,6.143504,-4.9992623,-5.4506226,14.73987,-15.301491,-23.34185,12.264975,19.392025,-0.16797018,13.392857,-21.256273,-4.4266305,-22.670866,4.2619677,6.975564,2.8709774,-14.661405,-10.420243,-17.855062,-15.993238,-19.376516,17.94911,17.270237,-12.578829,-15.703516,-20.022627,-0.43147922,9.104886,-16.23382,-5.7803483,17.547678,14.937467,16.828047,-20.453468,13.089064,16.141338,17.995443,-8.208282,14.650733,10.600433,2.481217,-6.9283066,7.702389,20.967468,-20.142605,18.888172,2.173816,0.036544047,1.0348009,-1.1885536,-0.36914152,-7.627138,0.6132147,9.250542,-3.0843062,-9.114646,1.5166638,1.1024766,-1.1272037,2.0840592,-10.710732,-10.861041,-2.315379,3.5317688,-10.344495,-1.4583957,3.151373,2.830775,-9.6924095,11.325837,3.0474365,0.8563055,-10.228235,0.84411025,4.669095,0.8542224,6.9482775,4.182852,-11.453509,-3.6685708,2.841997,1.9254943,-8.360036,-4.2198744,-7.368244,10.08843,0.10211819,0.18749864,-13.115257,3.3805375,7.916329,4.7732925,3.825101,-7.804058,-3.7280111,-3.0405352,-10.571077,8.500196,4.512025,-9.63408,1.517489,7.4103985,-2.2308793,-7.048224,-9.432542,-4.1948156,5.322149,2.888898,8.866668,-1.9416131,-0.7463423,-1.5009493,4.8497324,4.016231,0.5456531,8.31586,9.473372,-2.759844,-8.923877,8.801606,0.8958088,-0.36385614,-0.040118136,1.8769578,6.2705374,-2.258515,-0.7830467,5.484798,-6.9271803,-7.399686,-2.417818,-3.318583,10.371672,-6.2816744,-5.683097,10.094404,11.033308,8.692053,10.915952,3.2573004,-1.4201715,1.4575531,-4.1006107,1.3266675,-0.13336875,6.4025736,-5.606113,-1.9108583,-7.0770564,3.9390182,-3.091856,-11.478808,-0.084956765,-11.985843,6.2391863,-6.2573657,-2.336643,-2.827164,-4.444949,0.44558245,6.990966,10.541013,-1.3365242,3.9666848,6.930191,1.9101729,3.480051,4.4622173,-0.7476976,-6.8236613,4.2062755,-10.034691,-11.771771,-11.454854
NCI-H1155,18.176971,-16.196629,-5.1522336,10.498335,-7.082201,9.010933,-2.356303,-1.5077336,18.558676,11.666788,-14.738248,1.6332217,23.203222,-10.934409,14.130917,18.424967,5.955384,-8.813726,-11.2582855,-10.8102255,-10.236473,-12.748327,7.623808,20.082266,15.893357,26.312471,-19.894691,-7.9799447,-1.4710337,23.61369,-6.5533457,-16.247948,12.475809,-18.487219,2.4601521,-23.083702,10.252376,25.790987,-17.93277,26.262917,5.773553,-5.3160934,-8.961462,-3.9496274,15.870494,-5.936006,24.49936,17.623217,-22.441086,-14.838319,17.31959,-24.374407,15.162847,-5.857924,-16.442911,-11.241571,-13.505255,15.758237,-1.1690304,1.3635299,16.511246,9.115871,-0.93405867,-4.645257,12.171903,-17.048296,17.6194,9.606959,21.498453,-21.241009,10.225947,-7.087881,-20.956203,-2.6859636,-2.0443263,11.481938,-1.3786782,-11.18026,-7.7720623,-9.583788,-5.856008,2.9711185,7.9110312,-5.42826,-7.6836104,18.864151,-19.34573,-28.662699,14.059103,25.045675,0.6052835,16.2897,-26.621763,-5.7080307,-28.098837,4.1536636,8.194147,3.1452563,-18.176943,-13.249233,-22.417267,-18.79643,-24.759745,21.789446,20.476349,-16.191343,-19.474398,-24.387384,-1.2391793,11.65885,-19.686872,-4.9358497,21.145788,17.05479,20.445917,-26.242744,15.40195,19.12371,22.387566,-11.597181,20.43483,14.462979,5.067062,-10.161645,7.6377826,26.706848,-24.396395,23.462595,2.1601942,-4.5786877,-2.1628494,1.9948556,4.281849,-2.8160572,-3.2034278,-0.90230644,-0.47458917,1.359165,-2.9298365,-5.605628,1.6927086,1.6125067,-2.14972,-1.1524646,-1.9161545,0.91774017,2.343343,1.0299729,1.0228335,-5.4135075,4.4200597,-1.6510469,-1.6979786,1.6132019,-2.8010926,0.26761,3.9577367,-1.5804687,-3.8632855,2.6090093,-1.2144576,-1.9633348,1.7518893,-3.5604343,1.6264346,-1.7816408,1.9708167,3.8424618,-3.263175,2.1965616,2.0424023,-4.3839774,-1.9557207,-3.2371607,-3.1819339,-0.33124542,0.09589685,-2.0749533,0.74765044,-3.2005656,-1.8374937,-0.67421806,4.0020795,-0.9729053,4.2162724,-0.7754924,2.7135196,2.222963,0.62035346,1.8879158,0.5762979,-2.3946052,1.6925497,1.5231581,1.2781733,3.8313074,2.7426498,-0.5105329,0.4135981,-1.8428615,-0.7177165,-1.6644318,-2.7792778,3.2044525,1.727829,-2.5033708,-1.0634223,-3.3200629,-1.2261069,-2.1349192,-1.6052765,-0.28695688,-2.3117216,-4.1781416,-2.1658494,1.818888,-0.20566285,1.2127984,3.1713188,2.5380528,0.252043,-1.8551356,0.6382759,2.3586426,0.3030329,-2.380023,2.740459,-1.0224609,0.69042426,2.7126238,-0.06289319,1.2591677,-1.3869426,-1.9678304,-0.14309788,2.3417416,0.92350054,1.4730206,-1.4117786,4.28959,0.45354593,6.486063,-4.615288,2.0566752,-3.689261,-0.11450301,1.3605065,3.5012102,-0.8397517,2.9379,2.1199675,0.92105526,1.7016149,-4.3804874,-3.9993813,-1.0099642
HLC-1,1.6685419,-2.108129,-0.0287527,0.9296785,-1.1707981,1.2114297,-0.6182844,0.2417528,1.9040514,0.99428433,-1.072051,0.88891983,3.3725657,-1.1229852,1.2822584,3.0902057,1.2838573,-0.67842096,-0.70692325,-0.9333266,-1.6472056,0.087416954,-0.10662335,2.8088346,0.24929711,2.66744,-0.88775855,-0.9905364,-1.1347636,3.0723805,-0.5300741,-1.3954552,1.0650852,-1.5908052,0.19358756,-2.0486875,1.841576,3.200998,-0.74527824,2.883778,0.7994099,-0.07422139,0.10578428,0.46762758,3.0480478,-0.30839646,3.6141286,1.7046123,-3.1612265,-1.2307593,1.6902614,-3.5650113,1.6042899,0.6952938,-3.333194,-0.6078574,-2.018509,1.3323107,1.1579115,0.9070915,1.0111097,2.1645436,-0.4612844,-1.5254163,0.85834014,-2.2582061,0.28246763,0.3100438,2.7634592,-2.7854102,-0.5717711,0.021205438,-1.451906,-1.1733568,-0.83005697,2.771103,-1.0750182,-0.43393,-0.3356165,-2.3716762,-0.875832,0.8557165,1.2058623,0.09484236,-1.3578202,2.234945,-2.2818067,-3.4816864,1.2724695,3.725347,-0.19285358,0.8787484,-3.0771794,-0.19349045,-3.7812095,0.7473044,0.9067091,0.90287006,-2.1668532,-2.2454512,-3.4283512,-1.4470309,-3.032746,2.1634073,2.3390567,-2.9672706,-3.7899284,-2.4830067,0.42125392,1.0703037,-1.9857448,0.77128565,1.7654792,1.5060664,2.274262,-4.8984356,2.6351433,2.252548,4.526535,-0.95232683,2.8678176,2.826601,1.3068284,-1.6228157,-0.3808345,4.1820526,-3.0035028,1.7595761,1.6575438,-1.0338954,0.9479204,-0.13056704,0.47988576,-2.9716632,-1.2317863,0.50256985,0.37666583,-1.0925364,-0.62284166,-0.57531726,0.35250905,0.7580288,-4.127577,-3.0976207,-1.4666923,2.5560086,-4.4454517,-1.157901,1.8378035,1.737616,-1.7490921,-0.25743103,1.7748537,1.4113533,-2.1600792,0.1644114,2.7146761,0.77164304,3.017971,2.4808407,-3.5143487,0.15386254,0.06611266,-0.9094077,-3.1550212,0.29528204,-1.8579595,2.6528141,0.6236256,1.5100363,-3.5953543,1.124021,2.1499405,0.453406,-0.18539195,-3.6305888,-0.63355625,-0.82912904,-4.066127,1.9449341,2.2150197,-2.7709033,0.8057238,0.51979756,0.43039757,-2.7024274,-3.298613,-2.830068,1.2780738,0.86699176,2.4833744,-0.13379195,-0.52708334,0.71693856,0.09391689,0.29015458,1.8092358,3.3933687,2.0187685,-0.36407334,-3.2340949,1.4913317,-1.3835244,1.0319405,1.8496823,-0.99140936,-0.5337607,-0.45564905,-0.8238555,2.8273416,-2.814795,-4.270333,-1.5527401,-0.78359896,2.204827,0.041678775,-2.5930192,3.4668076,3.9593744,1.9008317,2.264005,-1.2813301,-1.545986,0.6768075,1.1202097,0.79355586,0.47763017,2.578652,0.20122433,1.1101235,-2.3138554,2.1125355,-1.7327286,-4.0348005,0.8787687,-2.9218302,1.6503615,-0.12058617,-2.4236662,2.4003654,-2.2309883,0.877019,1.6645209,3.0912988,-1.2116897,1.953093,1.1466112,2.7466216,-0.0026515052,1.7936912,-0.21572843,-1.2156676,2.1760225,-3.1271996,-3.8768048,-3.707444
BL-70,-1.1849903,15.808338,16.200304,-15.556329,-1.5502863,-20.229769,-12.579312,7.0280123,-16.661337,-18.734293,15.319219,3.6372278,-10.732894,11.518091,-18.864904,5.7464175,-4.4893923,15.975482,5.8927255,16.00276,4.907885,11.819518,-10.734079,-12.533693,-22.3442,-18.28024,27.716728,2.3757071,-7.2887373,-16.692759,-0.35191104,15.533792,-13.864555,14.541621,-16.280495,18.64414,-0.6811779,-17.630953,9.986581,-25.584717,3.3883643,6.708464,21.462797,2.0689328,-3.8932612,9.004008,-12.3920355,-21.182188,6.2430897,14.673453,-13.827786,14.73579,-16.74518,18.458118,-10.261954,15.477818,4.592939,-8.884895,14.378552,0.6876749,-20.507734,5.552392,-7.2226543,-8.883715,-13.975521,17.050201,-21.172895,-11.704973,-23.345144,12.828175,-13.443046,18.399565,17.226358,-0.77029496,-2.37004,5.2416778,-13.491782,18.019186,10.880263,-6.611056,2.902187,-8.812385,-3.7265882,9.584792,-1.2235651,-1.6545902,9.125006,23.038338,-12.272233,-15.152894,-10.67201,-14.848944,20.902628,7.8130536,14.749285,5.0610466,-9.057118,10.493448,13.971699,4.3415914,7.3663654,23.33961,19.05772,-18.10647,-16.185606,3.1841953,-2.3259459,18.79341,12.439661,-16.634768,19.895937,15.786964,-18.900179,-16.734358,-15.028365,-9.315955,8.123747,-20.715334,-1.3914378,10.661661,-1.9706264,1.0779077,6.1981587,2.956025,-12.002139,-0.17877448,21.208809,-19.26229,9.193277,-20.765541,-39.248695,27.811518,5.395365,24.014248,-2.355849,-3.7901454,-7.2635365,23.389301,1.2818922,-22.671202,0.01257636,-26.222013,24.524788,33.367516,20.949162,-42.316364,45.637123,31.410294,-10.213267,-45.220085,13.747016,8.408985,-30.34219,13.960043,26.44124,-11.281446,8.7044325,-34.53401,-45.008537,-34.68708,33.93372,8.568389,27.501299,-0.1201049,43.460686,-2.8623075,22.410507,-20.751013,-35.368614,-30.005869,41.120594,-26.210335,-33.101177,-24.433945,-26.642063,34.67934,-27.019428,2.0024743,45.82397,-35.88295,-41.44075,25.103825,8.677596,27.024868,32.320538,38.811028,48.09807,32.667274,-14.752241,-26.469997,-23.869343,-28.736721,26.990458,-4.1850348,2.4263601,0.21537349,-17.323074,-39.90495,-15.751123,-23.946026,26.259117,3.8486369,-19.976618,6.400403,-16.29489,-5.7911615,0.3895897,-5.375324,14.53139,-35.778675,42.81301,41.600727,23.754286,-21.840458,-27.46973,12.345259,42.810856,-32.016254,-42.453217,-17.222939,-19.082203,-14.635909,7.4604273,1.3178425,-23.117794,-40.053387,15.701825,-29.006517,17.89831,4.4544845,36.487232,-13.545757,15.890555,33.926525,-9.199039,31.472929,-25.78856,-22.661434,20.27471,-10.720514,32.450436,15.82628,-40.122158,-33.881424,-2.3778036,-34.679672,-31.997993,-7.332586,-10.312135,-11.846633,30.323774,32.062042,-9.699005,17.316818,31.92452,41.120834
HCC70,1.8279635,26.362947,35.61645,-22.180948,-10.252372,-36.10132,-15.837624,6.8253875,-27.090137,-32.61106,23.314531,14.432644,-20.824612,23.653732,-37.263645,10.069313,-15.694178,24.196732,10.067873,21.45325,5.4769588,20.555424,-24.800385,-29.216187,-40.179115,-33.435272,47.017925,8.974565,-13.631467,-21.958382,1.429797,24.314901,-20.684555,23.48265,-27.700674,32.195316,-3.3669343,-30.000988,19.970177,-43.681984,8.60597,11.88023,38.225616,5.5761585,-6.818174,15.20334,-21.509714,-35.73268,9.434184,20.951845,-24.575628,29.502468,-26.72143,31.525827,-17.475893,27.43709,4.096079,-16.683207,21.682795,6.2901645,-31.172644,6.620935,-3.9647324,-17.523687,-19.149746,24.543953,-37.10144,-16.212896,-43.041176,15.92275,-31.063004,39.113567,28.947329,-3.2679613,-11.327104,14.489943,-22.175999,28.307297,22.245031,-6.3517675,-1.0283316,-14.89786,-10.752838,15.748977,3.4038968,-2.0036314,20.035616,40.07465,-17.365267,-28.270119,-25.379683,-25.097767,36.768974,15.417793,23.843298,16.334936,-9.667497,25.833197,27.561874,3.2068098,12.020041,38.349792,36.27613,-29.338722,-26.137041,9.555126,-4.107439,34.60663,30.922785,-35.37774,33.608776,23.54418,-33.316807,-24.418453,-26.07209,-12.681068,19.52404,-31.512493,-3.891794,23.747046,-7.4811735,-1.2912917,4.7744427,10.108138,-17.75115,0.90274036,33.779163,-33.4822,1.3224739,0.634097,-1.3873559,-0.7014449,-0.8756355,-4.053008,0.4726911,4.9088244,-0.24359141,-3.8465152,1.4016788,1.447867,-0.75963914,0.3009586,-4.449246,-5.5902076,-0.025213607,-0.9016842,-6.9843445,1.6265426,0.1377171,-0.097396605,-5.1092186,8.044482,0.80331725,1.0437864,-4.4142776,0.5068999,2.4348242,0.8031162,4.3283195,0.12483178,-8.461547,-1.000622,2.9637258,1.9611548,-4.541134,-2.7327065,-4.1015778,4.521335,-0.20336902,-0.8784672,-9.139736,0.8186315,3.2137794,2.6200838,2.1437652,-4.4602346,-4.9277167,-1.0916739,-6.195177,5.448918,2.295595,-3.1536992,0.37616962,7.971187,-1.0626382,-1.4377198,-5.4071317,-0.29611522,2.4082272,-0.07909936,4.445686,-1.9625117,0.93964595,-0.6321629,4.175166,3.1361744,-0.7603432,4.180347,3.4495807,-2.1496089,-5.323167,3.7975855,1.3845656,-0.64356095,-0.52476335,1.3354236,5.561964,-0.8004997,-2.0752413,1.7006389,-0.55774224,-2.3885765,-2.6671681,-2.9499059,5.751902,-3.5961976,-1.874679,5.838322,6.8834114,2.623399,7.753947,2.1023254,-0.44730446,-0.0036870986,-4.152873,0.7599579,-0.017840251,2.790388,-3.0604236,-2.2848241,-3.285183,0.9258378,-1.8379556,-6.6528244,-0.9086713,-5.9873695,3.0120027,-5.43274,0.093201116,-2.2949128,-1.1914067,-0.022293553,2.374078,4.414341,-0.5134999,2.361196,3.4402483,0.28452048,1.8930367,1.4965929,-0.22199148,-4.325261,0.6872262,-4.6238875,-3.608001,-4.8364367
JHH-7,2.3264525,13.076767,20.18525,-10.954812,-6.301447,-19.213778,-7.931237,2.9281452,-13.990882,-16.79137,11.503629,9.168859,-10.622674,12.83157,-19.78495,5.888657,-8.8434305,12.024316,4.3328037,11.014491,2.3465276,10.276685,-14.092052,-15.92903,-20.960184,-17.48285,24.747456,5.6538634,-7.5475097,-10.877947,0.7560835,12.90599,-10.081893,12.1656,-14.116424,16.357517,-1.6245198,-15.138176,10.255303,-22.927103,4.4304423,5.370464,20.905956,2.599667,-2.944258,7.9946494,-10.483616,-19.189434,3.8923433,10.066495,-12.688909,15.420681,-13.264389,15.895292,-9.437839,13.882294,1.2200377,-8.158749,10.677785,3.4263687,-15.972345,2.816958,-1.6719368,-10.179367,-9.165396,11.706718,-19.001654,-7.5268717,-22.585247,7.2768507,-16.934437,21.364359,15.108955,-2.994034,-7.019802,7.851333,-11.682859,14.264679,12.973844,-2.7493985,-1.6805594,-6.5713925,-4.7059693,7.9208984,2.9697545,-0.26198936,10.045329,20.938671,-8.434667,-15.639019,-15.157867,-12.445156,18.881178,8.621909,12.048474,9.767169,-4.2362313,15.205268,14.666546,0.82150143,6.016316,19.443285,19.587234,-14.491774,-13.563073,5.049875,-1.4900007,18.228687,17.639528,-18.913143,17.689375,12.726189,-18.593885,-12.083794,-13.53048,-6.700151,10.699911,-16.273941,-2.3684025,13.0283375,-4.2198143,-0.61280024,2.2662919,6.221153,-9.201221,2.0655642,17.455566,-16.819387,5.020575,-4.8605685,-2.820128,2.7435448,4.0787673,-4.581428,-4.682267,-0.61182505,0.25825077,-1.5082392,-2.7054083,-5.9559274,4.2209744,3.0459914,-4.8842716,-3.9380825,-4.790078,0.9366721,-0.25830555,2.5582912,4.1186466,-1.6294433,2.3098216,-2.4770858,3.0139835,1.4094815,-1.6851908,-1.6919429,4.257429,-0.3796846,-2.0582259,2.1403282,-3.0230777,-0.38642642,3.5039995,-6.0693655,-2.1493447,1.1494789,0.8114022,4.787793,-2.8930368,-0.28526866,-1.4342148,-2.6621237,1.4463624,-4.4170084,0.034687012,-2.0609837,0.37594327,-5.5665154,-1.7887363,-1.5492945,-2.4187727,-5.153066,4.3689604,-0.25874856,3.1886055,-1.8993611,-2.7343218,1.0447817,4.19532,2.3511093,3.6261897,-3.4330792,-0.856173,3.6952283,-0.53315204,5.0675383,1.9340768,3.224283,4.060298,-3.1778433,-1.4773179,0.6720338,-3.3335478,5.2610908,4.512711,-4.315468,-1.0898521,-5.598981,-0.21391848,1.7731247,-1.8899994,-4.128925,-3.5611653,-4.475015,0.6779648,3.223054,-3.0566127,4.2542562,1.6991379,3.1048636,0.514328,-1.282035,0.12296702,0.79491514,-0.512101,-2.7037623,3.7330573,3.6934257,-0.8980496,3.7547488,-3.4928133,5.2912574,-4.108175,-4.449978,2.7314038,0.708282,2.0580275,0.7995731,-0.618891,4.99202,-2.829707,5.11529,-0.05803033,4.9624286,-5.4145155,1.0035567,2.0133173,3.8982418,-2.8265574,4.9446473,2.8641524,-2.465208,6.153325,-3.7052805,-4.4218483,-4.7985287
SW579,0.8146891,17.533037,21.18095,-16.309725,-4.1353264,-23.579376,-12.736283,6.321208,-17.99737,-21.222857,16.113577,7.0062237,-12.671036,14.204569,-22.388115,6.9548583,-7.309028,17.326626,5.638537,16.444347,4.65842,12.946891,-13.730174,-16.803106,-25.669247,-20.859755,31.066393,4.5182977,-8.1342945,-17.062592,0.12241063,16.96862,-14.589726,15.610971,-18.3656,20.625935,-1.3275709,-19.541061,11.627975,-29.301775,5.420669,6.4426575,25.721945,2.2258282,-4.1225953,10.386423,-13.55126,-23.997606,5.865727,15.389769,-15.463246,17.583618,-18.326485,20.615812,-11.664573,17.08722,3.3583817,-9.96608,15.317782,2.2687492,-22.080456,5.261443,-6.475437,-11.52586,-14.616983,18.01647,-23.830666,-11.883676,-27.461046,12.919524,-16.672825,22.666325,19.391346,-2.2665637,-5.141931,7.7279253,-14.967297,19.856632,13.679483,-6.188664,1.2649909,-9.2073345,-4.4065456,10.080094,0.49632668,-0.77395886,10.911824,25.916834,-12.703866,-17.82354,-14.733818,-16.064129,23.675533,9.171314,16.280876,8.430662,-8.445576,15.175867,16.451685,3.2311413,8.202584,25.597326,22.650604,-19.435846,-18.05684,4.7226005,-1.8141642,22.04296,17.317144,-20.880625,22.65593,17.282663,-21.830334,-17.839626,-17.082542,-9.885507,10.953231,-22.609085,-2.5859628,13.225876,-2.8498437,0.76219916,5.483944,4.785403,-13.281645,1.6154524,23.193525,-21.335802,-7.954965,9.9158125,12.013676,-11.529958,-2.000379,6.739065,8.70506,-2.426263,9.614959,8.32516,2.8959875,12.765016,-7.6731286,-4.841686,-5.903356,7.7951612,11.236615,3.4003239,-8.464734,-12.178054,-10.733102,-2.3951032,-0.91577816,5.4103365,-9.313587,-3.2788157,-6.067192,-2.2620928,-8.30864,6.1662536,11.527629,9.869508,-6.6560407,-2.4865537,-10.348808,13.745579,5.0605845,-4.571205,5.071649,-8.594775,11.037758,6.778089,-0.18805322,3.9478815,-9.080313,13.895731,6.175805,-6.3555474,-0.5420719,11.43839,-2.706632,8.129433,16.576448,11.327987,-10.4326725,2.8108056,-10.678277,8.709167,6.8642774,-1.9308957,-13.679369,0.06578394,-11.9411125,8.8890705,1.651495,-7.5369062,5.0662565,-14.216139,-0.6546829,-3.9268847,-10.834379,7.423764,-3.5760453,-6.126373,9.306351,-13.268796,-7.0077305,9.492184,-3.2206976,14.261697,-9.318522,-2.7538135,-2.0837448,6.8706136,-2.9943814,9.249602,-9.628229,-10.897163,5.1351852,-7.0126066,9.490697,-2.1521761,5.5889974,4.975468,-0.8683079,1.7451245,10.781395,13.54217,-8.89684,-8.937341,8.441884,-7.6057076,8.821001,-10.015003,8.682231,1.9392521,-2.929358,4.277892,3.5702157,4.32694,-0.6966788,-5.494846,6.5267878,-6.082306,-6.1220055,-11.079019,12.182385,6.516365,2.9625022,1.4580902,8.354715,-9.357365,-11.2914,5.2339554,-11.276108,5.5322504,-3.0098357,6.873569
OVMANA,3.698973,32.163956,49.93916,-28.86551,-15.615656,-50.521404,-21.64452,6.738066,-34.015324,-45.173008,30.975208,25.329561,-25.622944,32.472588,-49.03997,16.179949,-20.417156,34.23531,11.746435,29.829357,5.4694304,26.915104,-32.910328,-41.903435,-57.161003,-44.659,64.963,14.160058,-13.810332,-29.87358,6.735503,34.929497,-26.760744,30.320833,-35.75393,41.101337,-1.8020436,-39.41923,29.11354,-61.473335,15.4984865,9.572371,58.728992,4.2084293,-4.8594117,21.81015,-22.892105,-52.71682,6.5797787,27.74569,-32.36764,38.71033,-35.2237,40.8184,-26.19872,33.17611,-1.6826551,-23.78055,30.220003,5.375937,-41.66969,9.927545,-6.0749407,-29.877127,-26.027658,30.390491,-50.159943,-19.364342,-59.838707,19.524235,-39.939247,51.116013,40.936325,-10.895627,-19.039055,23.929564,-27.519815,39.25558,33.22018,-9.072817,-5.004,-15.861506,-9.61709,20.929916,8.915347,3.0547554,22.126614,53.4777,-24.430065,-35.59284,-38.80553,-30.67991,46.643723,20.114458,32.66963,24.715954,-8.176787,39.49524,39.14277,-3.6338394,15.876185,51.422203,48.328102,-37.117992,-34.562862,15.004016,-1.1225227,48.020008,43.954945,-49.472393,45.62863,37.82059,-49.245686,-32.17864,-35.905323,-19.125965,25.516022,-43.766426,-7.2202864,29.04604,-7.895187,4.235978,9.352988,15.053173,-26.330395,8.006719,44.70853,-41.691242,8.379312,-8.590976,-6.7324553,4.803232,6.398316,-4.098446,-7.56003,-3.8426242,2.9680188,2.3722796,-1.9937757,-8.892875,6.847448,3.2884016,-0.9400868,-2.2697926,-5.380873,-3.4135294,-0.41839755,6.409885,2.5663252,-5.561256,3.940965,-1.4465605,3.7760997,4.63192,1.274947,-4.892927,4.8184857,-1.2779427,-3.542842,-2.149302,-4.961458,2.259962,7.459045,-5.4384475,-0.7782539,2.6976576,1.6701856,3.9115417,-5.78441,-4.4687886,-2.186159,-7.487005,-0.97859883,-6.233694,-4.9366984,-0.5437477,-4.304097,-7.852469,-1.3559257,-3.7769556,-3.942011,-0.35049474,6.6231318,4.9727697,6.73301,2.2125232,-1.6629633,6.8442936,4.351044,1.4715126,1.704198,-8.605081,1.3629496,6.607394,0.12538189,6.4321623,2.5952377,2.9586844,0.27253956,-6.8492756,-1.0090895,-0.2364877,-5.464778,7.713319,3.5738559,-6.5458636,2.6423306,-7.953262,-2.5513825,2.3022535,6.7362223,0.048896547,-6.8074074,-9.46864,-1.6307551,5.251675,0.64756703,3.4488246,-1.1916767,-1.8342574,0.5406941,-4.2152877,-0.72005886,-3.229556,-1.0622137,-6.094756,6.304237,3.5096257,-0.3068246,5.013161,-1.5357939,6.0469666,-7.382147,-3.2977397,5.1408477,4.3481693,-0.008242607,-1.073809,0.65960383,6.9098372,-1.5789336,6.2606707,-1.8155001,2.4171128,-8.013848,-2.6657057,-1.4610896,2.6818657,-5.719698,6.592584,5.5789266,-0.53744096,6.8064885,-1.6093056,0.59651095,-1.5531515
ABC-1,1.336679,-1.3779712,0.78593224,0.73466873,-1.9316635,-0.1750704,-0.33637726,-0.22695348,1.2030172,-0.517563,-0.7381883,2.1262224,1.6934822,0.42205417,-0.24646407,2.4581509,-0.08401644,-0.22331594,0.3189111,-0.1809648,-0.6736282,-0.3864104,-0.9803094,0.31711182,-0.40971002,1.6497581,-0.2990556,-0.012591593,-0.7998041,1.9270316,-0.033205867,-1.1081812,0.48197246,-1.8296237,-0.54059875,-0.39194572,0.5837436,1.6166078,-0.18845409,0.9586607,0.8107523,0.07414688,0.9595333,-1.0502518,1.3331672,-0.8039121,2.5802286,0.3244253,-2.3841023,-1.1239666,0.69077134,-1.6493765,0.49862012,-0.054228082,-2.5480978,-0.7154799,-2.1397047,0.17810905,0.84584004,1.1743325,0.90731364,1.4942783,0.6457415,-1.5287496,0.63032377,-1.5427203,0.13964625,0.76193756,0.5155181,-2.1646461,-2.2395117,1.1710154,-1.1019999,-1.0964903,-1.8850163,2.9973433,-0.9556404,0.003739193,0.43881357,-1.3041404,-1.2069275,0.42410785,-0.023387648,0.44174784,-0.09238296,1.65228,-1.6648946,-2.15805,0.79442346,2.1282146,-1.0655144,0.9022624,-1.8697617,0.83876914,-2.489235,1.6647648,0.8416181,1.3249995,-0.18707995,-2.0430245,-2.734778,-0.38588798,-1.758542,1.4805017,1.80467,-1.0835191,-2.3547769,-0.90561074,1.9545037,-0.8482641,-0.7434595,0.84285223,1.2480618,1.1880915,1.5517553,-3.6965249,2.8029385,0.71458507,2.8070421,0.3053351,1.3600054,2.0256772,0.5379308,-0.22105499,0.32902843,2.8752208,-1.4507718,1.1960924,4.046654,-2.165156,-2.5664396,1.3888338,0.9652805,-5.3979244,-2.7538245,2.321229,-0.296722,-3.5495694,-0.33769852,-2.5860326,2.1184075,2.801188,-5.0776596,-6.986007,-3.4751325,0.5548647,-5.686818,1.9911305,3.4707541,0.64671904,-2.4229176,2.8309085,3.395364,2.174107,-3.235445,-0.039747268,4.325408,0.60810125,2.3964128,0.11253801,-6.9599466,-0.51457065,4.0823636,-2.6514673,-5.16962,-0.8882045,-3.9193406,5.679037,-1.7529008,-0.69480515,-7.6545196,0.16738969,4.20981,-0.6849321,0.61070436,-4.285208,-3.0247757,-4.077784,-5.4232197,2.5560846,0.14498036,-4.8577785,3.0978148,5.313772,1.4868277,-2.8815384,-6.3870015,-0.67699945,4.8965178,1.4562875,5.678725,-3.1597946,0.049094286,2.003697,1.7973063,4.9094744,1.0335166,5.687764,4.5143385,-3.525947,-4.419222,3.4881248,-1.4470398,2.8706312,2.878512,-2.184733,2.9409015,-4.003637,-0.8131683,3.5573874,-2.0681696,-5.2104425,-3.7632027,-4.8129053,5.598865,0.60552907,-3.8141975,7.0203037,5.4079194,2.7433097,5.560482,-0.5269882,-0.95937246,0.9515945,-3.3610916,-1.1420695,2.2355106,4.5404263,-2.8892615,1.1543865,-4.7666593,4.3458323,-4.3962455,-7.604582,1.3079534,-5.2199297,2.3085196,-3.0390248,-0.8482613,2.5056763,-3.3947911,2.3657906,2.3875022,6.882596,-3.7443678,1.594029,2.7616618,2.6491237,-0.28616765,4.250672,1.6326355,-4.3646483,4.281092,-6.2188125,-4.845713,-6.7503076
MDA-PCa-2b,18.484118,-16.499157,-4.644474,10.6483345,-7.242675,8.704877,-2.32475,-1.808104,18.699364,11.663525,-15.057241,2.111805,23.455334,-10.697067,13.961052,18.728142,5.7326455,-8.84057,-11.721466,-11.088675,-10.255241,-13.185965,7.582509,19.743605,15.795882,26.523872,-20.096151,-7.7725477,-1.1296393,23.821522,-6.2601457,-16.300058,12.612409,-18.727478,2.456966,-23.352957,10.334175,25.972134,-18.099901,26.362612,6.03496,-5.685189,-8.810612,-4.302799,16.097176,-5.889415,24.78997,17.363836,-22.629519,-15.159337,17.460062,-24.228704,15.285753,-6.24117,-16.522308,-11.533821,-13.831721,15.672427,-1.3477776,1.4200855,16.793882,8.965236,-0.5270188,-4.9297605,12.344865,-17.487535,17.728384,9.8329525,21.186714,-21.694492,10.271623,-6.874963,-21.197216,-2.9492073,-2.3698,11.83973,-1.1931975,-11.317471,-7.68944,-9.401467,-6.2903576,3.2697606,8.1293955,-5.578991,-7.2051215,19.507484,-19.673014,-28.801294,13.999813,24.924437,0.09467904,16.85793,-26.72758,-5.6523323,-28.119495,4.5602794,8.651022,3.6558475,-18.133873,-13.595693,-22.392265,-18.932676,-24.625433,22.02791,20.622505,-15.9949,-19.178997,-24.433332,-0.968723,11.515944,-19.595005,-4.9422317,21.045004,17.450872,20.496729,-26.15817,15.581603,19.20958,22.129519,-11.437684,20.416523,14.612918,4.98844,-9.856626,8.047987,27.02977,-24.62796,23.777868,7.83052,-6.5993423,-4.9053674,4.914698,3.5543387,-6.882114,-6.1245427,1.582717,-2.4358456,-4.532652,-2.1515596,-7.9069066,5.2978497,4.512925,-7.799185,-8.368902,-7.000268,0.6347414,-2.5487263,3.2166958,7.380463,-0.6152963,0.53066254,0.27222067,5.204562,3.5996625,-3.2732627,-0.9996983,7.949499,-1.0048738,-1.2407914,-0.116272,-5.9306536,-0.20126721,6.6115155,-7.6738906,-5.075118,1.1587462,-3.429381,8.341735,-5.22404,-2.410676,-5.5129285,-1.9477315,5.004429,-5.6162806,-0.27079874,-3.9889977,-2.8698442,-8.041724,-4.0047107,-0.4829365,-4.398729,-9.742707,7.19837,3.3591862,5.2717443,-4.3603334,-5.572863,0.0747976,8.31786,1.7493919,7.735923,-5.434674,-0.3416259,4.5037303,0.5015048,8.530303,2.1695132,6.2023697,6.8758044,-5.6474814,-3.48913,4.1993365,-5.839811,7.085297,5.828695,-5.2555304,1.1527072,-8.757229,1.4422064,4.272513,-3.1857393,-7.432273,-4.0128136,-7.4000435,5.755123,3.7636342,-4.902629,8.004887,4.0457106,4.2687864,3.1097572,-2.2086413,-0.29784986,2.714574,-3.9123166,-4.9570603,5.337158,6.2865195,-2.5864975,4.6251583,-6.345485,7.7524548,-6.8864627,-9.4174385,3.092328,-3.3915405,2.7775326,-2.615003,-1.2871337,5.6640763,-4.973963,6.264983,1.2189976,9.563771,-7.818966,0.67182523,2.1793072,5.392097,-2.719288,7.063125,4.7366443,-3.974692,8.148331,-8.967008,-7.158678,-7.415022
