,E0,E1,E2,E3,E4,E5,E6,E7,E8,E9,E10,E11,E12,E13,E14,E15
MOLP-8,1.7605752,-10.781857,-8.548327,-6.559084,-0.43605348,-17.217224,20.288681,-13.232405,-18.548569,18.26149,-7.9435644,6.5323806,18.85823,-25.588001,13.684686,-5.14069
UACC-257,-0.30411723,-5.8494525,-4.6117897,-5.567331,-2.487612,-11.928327,13.261014,-7.0269613,-10.628711,12.628581,-5.2874722,2.2469635,13.631299,-14.8722315,8.336678,-2.2984087
HCC78,3.2809663,-11.955879,-10.012437,-9.114782,-4.7962103,-22.327631,21.30099,-8.535088,-14.202058,17.562164,-9.8326845,2.8693676,21.887043,-19.71452,13.347523,0.5129797
KYM-1,-0.9388968,-12.294701,-8.998229,-9.707909,-5.206128,-24.52328,27.887718,-14.232185,-21.945795,26.283165,-10.991825,4.4464684,27.915482,-30.726059,16.136719,-4.98925
KP-N-YS,55.931057,3.6312296,-14.637079,19.44708,9.5006485,17.396154,-79.489685,46.884426,64.224266,-83.84436,53.118134,-16.134312,-61.55487,76.016136,-51.961403,16.323288
NCI-H2135,31.116444,0.6970986,-10.599117,7.9201307,4.023759,8.118157,-43.509605,26.351719,35.56964,-47.668957,28.70326,-10.438914,-34.081818,43.545776,-29.43083,10.578329
MOG-G-CCM,23.473976,2.0403903,-5.8770475,7.084777,4.5779343,7.697583,-34.248962,19.172733,26.157127,-36.04299,23.173899,-5.7845454,-26.51025,31.795837,-22.35117,5.7281327
NCI-H2595,25.307604,2.288463,-5.523449,8.105462,2.8170874,5.127516,-37.46422,22.182076,30.446318,-38.93711,26.540792,-7.4858603,-26.885136,35.83992,-24.403929,7.0205917
RPMI-8402,31.575842,2.6828034,-6.8310785,12.995677,6.239675,10.551652,-44.986076,25.406876,35.47932,-46.377422,29.184004,-7.027725,-34.525414,41.321503,-27.89185,7.480792
NCI-H847,3.0237188,-1.2974645,-0.21165028,-0.11946242,2.3035078,-1.9876192,0.43595424,-3.0724487,-3.0039632,0.53705007,-0.133585,2.87929,1.376336,-3.509671,2.8120203,-3.2403991
ES8,1.5388695,-8.785599,-9.20242,-6.401087,-3.9030604,-14.739524,16.409412,-8.294296,-12.320438,14.455034,-6.257028,2.6043606,15.651783,-17.410976,8.51611,-0.1570306
RERF-LC-MS,-0.14120924,-5.968062,-7.3612566,-8.750026,-4.5803022,-14.049031,10.750401,-5.993225,-8.543091,9.52183,-2.2880619,0.63037485,13.121168,-10.392791,4.2266045,-0.8174724
VM-CUB-1,31.555801,4.55362,-4.551356,13.375685,5.5762815,10.118499,-48.5451,27.666674,38.740044,-48.24812,32.59562,-7.695743,-35.138943,44.3534,-29.49148,7.4601526
NCI-H1341,32.29125,0.6150555,-9.597933,8.052025,6.913333,10.386397,-46.32691,24.802324,34.85608,-49.45644,30.804405,-8.3974285,-36.601517,43.5897,-29.112486,7.736759
JHU-011,35.519623,5.641088,-5.0919657,15.996132,11.030171,15.718266,-51.969097,24.337214,36.342728,-51.42952,33.100132,-2.7577064,-40.00196,43.184906,-29.730198,3.8567364
Daoy,36.686745,4.070315,-7.2901354,9.697688,3.5489585,6.051583,-58.753483,35.046772,48.124294,-60.300888,41.74112,-12.534077,-40.22396,56.511986,-36.72918,10.953068
RMG-I,-3.0573714,-4.278482,-4.724434,-9.295645,-3.4246051,-17.304995,11.588292,-7.0058923,-9.963234,10.912108,-2.976677,2.0318127,16.594868,-12.158406,6.9675965,-3.2392998
FLO-1,4.3177752,-17.83278,-15.947238,-13.506639,-0.955902,-26.924417,34.121624,-26.432575,-34.612297,31.671705,-10.496995,11.380802,30.29093,-46.320408,20.37376,-12.103019
RKO,0.8850088,-11.0159,-8.481298,-8.896689,-3.5484772,-20.380163,23.722292,-13.913715,-20.379599,22.470324,-8.881245,5.0169973,23.240301,-28.065105,14.813845,-5.828143
DAN-G,23.41426,3.2753754,-3.064295,9.626555,4.304677,7.9705005,-36.230892,20.312946,28.544754,-36.07672,24.563929,-5.7342124,-26.254824,32.88311,-22.493608,5.4670763
Caov-4,66.259186,4.3784046,-16.606846,19.454857,7.412095,12.357056,-96.917244,58.40968,78.98251,-102.14656,67.703865,-20.524439,-69.835976,93.45171,-62.880066,20.426584
NCI-H1792,-0.15389559,-1.9975103,-2.0326283,-4.2283287,-1.1004823,-7.5833282,3.534588,-2.5845766,-3.4911146,3.321885,-0.5684257,0.7370351,6.586633,-4.681831,2.571983,-1.9834759
CL-34,-1.0815008,-12.90342,-10.143178,-10.816604,-4.819936,-24.589415,28.544277,-15.717413,-23.348219,27.101976,-10.760706,5.044669,28.279945,-32.550827,16.617245,-5.725345
Karpas-231,1.1610148,-7.737799,-6.042201,-6.348414,-2.4571614,-13.732591,15.969003,-9.835415,-14.145521,15.264383,-5.5663967,3.4152012,15.481066,-19.323967,10.09923,-4.446384
HCC-56,15.100667,-1.281469,-5.922723,1.7628424,4.825525,3.1790447,-17.038662,6.853946,9.518744,-21.241077,11.841688,-0.5968851,-15.080828,15.1374855,-10.637982,1.1115651
NCI-H747,31.22369,2.9117458,-7.1412807,11.640516,7.014671,11.538553,-44.745537,24.143402,33.871178,-46.317574,29.76744,-6.192821,-34.725998,40.540363,-28.189745,7.0460835
WM793,10.08756,-2.399808,-4.1347704,-1.0351528,6.946619,2.001193,-7.0495086,-4.682175,-3.4286723,-7.840451,5.8306847,5.3225484,-7.1697817,-1.0062474,-1.5457262,-5.5580125
NCI-H522,5.153352,-3.4069517,-6.093542,-1.7656991,1.6528465,-0.89879525,-1.297999,-1.6504478,-0.9912893,-3.6350603,2.6502454,0.49102685,-2.2108216,0.6038903,-2.9491084,-0.018577218
SJNB-6,2.1173627,-17.939337,-18.01247,-14.849645,-2.9584484,-28.07601,34.659435,-24.571089,-32.670815,32.21395,-11.021034,9.31486,31.366625,-43.940662,18.721088,-8.851217
TT2609-C02,26.132076,3.5870962,-4.79341,10.037139,4.0665956,8.249798,-40.11243,23.140163,32.23036,-40.380913,26.801878,-6.7944984,-29.296745,37.22665,-24.991735,6.7310553
CW-2,-1.2267042,-13.626192,-10.577654,-11.768848,-5.2487597,-26.775757,30.607073,-16.394745,-24.765446,28.85506,-11.744779,5.263776,30.645592,-34.31444,18.080917,-5.8094363
LAMA-84,17.488415,1.7476408,-3.2364619,8.276079,1.9959482,3.6286938,-24.110094,14.275455,20.075787,-24.421185,16.571222,-4.035295,-17.491049,22.872013,-15.182044,4.2292085
SNU-1040,30.099962,3.5989828,-6.4844723,10.698098,5.4852285,8.662134,-44.77242,25.514715,34.716583,-46.164463,29.413137,-6.742178,-33.25488,40.898434,-27.458223,7.2139015
HCC1143,1.1750197,-0.91928786,-0.77568007,-0.77982527,0.46733388,-1.8289654,1.4312575,-1.7532525,-1.9717077,1.163044,-0.40509123,1.2338808,1.686075,-2.4777665,1.4381977,-0.9139845
NCI-H1755,23.064554,1.5231678,-5.28657,7.6883307,3.1255176,5.8110714,-34.66966,21.018387,28.60496,-36.165066,23.506699,-7.543609,-25.462402,33.329975,-22.272604,7.387838
JHOS-4,41.330498,1.2611566,-11.573123,15.472374,9.033172,14.15433,-55.253532,31.268602,43.415977,-59.478546,36.075428,-9.491493,-44.704636,52.14658,-35.609642,10.730508
K-562,22.429827,-0.070317216,-6.912421,6.34399,1.9088587,4.329131,-29.847778,18.909435,25.570608,-33.075302,20.65548,-8.057936,-23.287878,30.883625,-20.780857,7.741247
HGC-27,15.552178,-0.67755693,-6.879573,3.11489,3.6828003,6.1119413,-18.96548,9.228491,13.524282,-21.82112,12.611773,-3.624603,-16.82234,17.878517,-13.502459,3.069458
MLMA,0.7103045,-14.175762,-10.561533,-10.650174,-4.3081203,-25.672487,30.548801,-17.28001,-25.464409,28.863243,-11.726613,6.057607,29.667418,-35.373493,18.64474,-6.5824847
NCI-H2810,25.302315,3.5275471,-4.3812866,10.078574,4.106818,7.571202,-35.7512,19.459328,27.560244,-36.239826,25.155823,-4.6082563,-26.747433,32.72267,-23.02447,4.7428284
WM278,31.974682,2.303251,-8.016049,8.118103,4.9433713,8.382391,-47.739243,27.02581,36.87831,-50.8138,34.0911,-9.03038,-35.3036,45.277462,-31.759525,8.397231
SNU-61,10.815361,-0.8411854,-5.1542087,1.5856612,2.419026,3.3988757,-12.949388,6.351522,9.080373,-15.465174,8.623405,-2.3703914,-11.638512,12.42734,-9.428553,2.4050653
HCC1806,0.38720384,-19.809505,-13.657269,-16.17579,-3.9647963,-37.98574,45.2037,-28.056063,-40.338593,43.185307,-17.196754,11.482674,44.085464,-55.919003,29.403183,-13.01303
MZ-MEL-2,-0.51625437,-14.658849,-11.973734,-12.81145,-5.2243814,-27.512783,31.762415,-17.636251,-26.075954,29.499542,-11.738814,5.672344,31.321,-35.510498,18.107874,-6.005317
NCI-H1355,1.5874023,-3.6216154,-3.2746246,-0.96002614,-3.1219957,-8.690882,4.035821,0.5173432,-0.007877983,3.820979,-1.8991358,-1.1571436,6.933144,-2.3462803,2.7679322,2.512727
Lu-165,-0.041226454,-14.260509,-10.733834,-11.783785,-2.754848,-24.993036,28.972553,-18.114544,-25.779047,27.506716,-10.409208,6.4362807,28.094246,-35.265846,18.393896,-7.758458
OV17R,37.541603,-0.9036873,-14.728108,9.902266,9.50044,13.837169,-43.42359,21.465519,30.39958,-50.6579,29.487814,-6.2247276,-39.678936,41.62951,-31.522337,7.907464
TT,1.9290248,-9.487917,-6.50474,-4.5796494,2.0356855,-14.254006,16.65758,-13.340735,-17.395443,15.044549,-6.392455,7.556155,15.708511,-23.60437,12.83748,-6.5158467
CAL-62,6.203779,-1.9378968,2.5877674,0.5990191,4.735765,-3.9351678,1.0673555,-9.036884,-8.936271,3.0129807,1.7909905,7.3372226,3.9127107,-10.499663,6.221578,-11.144977
NB1,6.3708572,-11.68074,-13.454631,-7.1908846,3.3763437,-14.959379,17.301214,-17.222055,-21.03563,13.468695,-5.01974,10.104584,13.6093235,-26.157574,10.614162,-6.844508
BPH-1,24.366875,3.0849476,-4.076866,9.891935,6.265547,9.448911,-34.70281,17.317327,25.13534,-35.274498,23.129875,-3.2564116,-26.71771,30.27787,-21.03747,3.6613824
SW48,-0.9199275,-10.553251,-7.887282,-9.213922,-5.4638047,-21.546694,23.165594,-11.458888,-17.708998,22.400993,-8.984625,3.158077,24.07042,-25.571468,13.770651,-3.9595387
Mel JuSo,3.050762,-6.273548,-6.2440352,-5.72697,-2.5548646,-10.558647,11.106259,-7.2264876,-10.22217,9.931586,-2.9631748,2.3103852,10.516347,-12.448108,6.073714,-2.7549832
HT-1197,17.121586,2.428179,-1.8284891,6.399235,1.4130011,2.675837,-27.26202,16.073984,22.7504,-27.061285,19.629198,-5.0949016,-17.775772,25.88198,-16.580658,4.4701076
NH-12,-1.3835139,-12.17204,-10.094106,-11.104624,-5.133896,-24.422419,27.468754,-14.749805,-22.03538,26.058937,-10.358807,4.4662123,27.766207,-30.438026,15.8250885,-4.7864275
NCI-H2227,4.4255643,-0.46206254,-1.9346342,1.3000156,2.2873275,1.6807362,-4.685918,0.9706154,2.253997,-5.384669,2.9224467,0.3147238,-4.43337,3.278393,-3.0989912,-0.17824985
NCI-H838,3.1611965,-0.7518936,2.1225042,0.4955142,1.6098486,-3.8767412,0.637493,-3.2647974,-3.7866173,1.3711106,0.63044024,3.2820592,3.192679,-4.7617188,3.3513577,-5.2416964
PaTu 8902,36.420525,3.130141,-8.710525,13.602637,7.5243053,13.743996,-48.879875,26.633097,37.32435,-51.308414,33.643032,-7.070355,-39.11842,44.899643,-32.88002,8.042388
HCC1419,44.45873,5.3765407,-9.099449,17.516798,11.00112,16.359484,-63.2057,33.099022,46.253246,-64.853836,40.967648,-6.1745486,-49.258015,55.446793,-38.679573,7.8509793
KMOE-2,33.169693,2.7512763,-7.1150603,12.8893795,3.3832169,7.3810797,-48.69529,30.42833,41.615566,-50.13556,32.76794,-10.821376,-35.346577,47.371323,-30.98274,10.854286
QGP-1,39.547543,-1.5450556,-14.12694,6.084752,3.7073426,6.6483274,-54.27823,32.974976,44.47388,-61.189556,39.47655,-15.503412,-42.207497,56.62089,-39.256943,13.723775
LP-1,4.2195272,-0.8140244,-1.7791429,0.6945743,3.5585961,0.04372368,-2.8814998,-2.560801,-1.5686963,-3.1406386,2.1389208,3.5658448,-2.2064753,-0.78920114,0.32571504,-3.2205875
SiHa,18.779154,2.6168401,-3.0167744,6.7671676,5.9033594,7.1390123,-27.38912,12.092172,17.957336,-28.050701,18.173986,-0.93271405,-20.5804,22.54678,-15.168041,0.95065475
YH-13,24.060406,3.3568635,-2.4180567,7.810847,0.1605008,-0.42528564,-38.33061,23.878035,32.785385,-37.52677,27.614195,-7.5893497,-23.103365,37.16656,-22.248816,7.0220876
SaOS-2,-0.17061979,-2.9590652,-3.2891457,-6.4801326,-2.3975153,-10.968546,4.6548758,-2.9259222,-4.0721917,4.3097405,-0.52837855,0.3079291,8.815926,-4.809447,3.1810212,-1.645292
ONS-76,53.171085,3.7154083,-14.6993065,16.79047,20.284185,23.985025,-69.48171,26.740551,42.10221,-74.163734,44.599007,-0.3327272,-59.211018,57.396294,-41.320747,2.6717026
SCC-3,-0.7035618,-10.550728,-7.724897,-7.982121,-4.244611,-20.944881,22.446692,-10.507872,-16.965683,20.511345,-9.388873,3.4735124,22.998753,-23.72174,13.378922,-3.1334517
COR-L32,9.611746,-0.100682564,-1.9662869,3.6908078,-0.5189812,-1.625183,-11.940846,8.305614,10.780241,-12.252079,8.748694,-2.5855615,-6.926453,12.209536,-7.190455,2.8139188
8505C,6.540036,-5.163151,-0.35698858,-0.13666552,-0.15998924,-12.183199,9.583004,-8.768803,-11.73602,10.314333,-2.1079776,5.7729635,11.689905,-15.298972,8.944277,-8.79277
Caov-3,-1.6606638,-12.974197,-10.766509,-13.300447,-4.398595,-24.906605,28.056887,-17.67061,-24.53116,26.670141,-8.906303,5.5873313,28.397623,-33.12718,15.935168,-7.6005945
TALL-1 [Human adult T-ALL],36.1647,4.300461,-6.840346,13.160055,6.876639,11.241957,-52.770313,29.233564,40.458122,-54.124332,36.279255,-7.7452245,-39.249714,48.20559,-33.34899,7.7791004
KP-N-RT-BM-1,-1.4000726,-12.253706,-10.086933,-10.743624,-5.1378074,-24.33712,27.528051,-14.55678,-21.907568,26.050447,-10.524107,4.5047255,27.668587,-30.362747,15.725693,-4.5917897
CCK-81,30.988405,2.2414968,-7.607599,8.529647,3.3166568,6.569982,-46.643456,28.38804,38.68712,-49.172092,31.720675,-10.8817005,-33.949356,45.463966,-30.389301,10.2693205
SK-MEL-28,31.904163,-3.258952,-13.881825,2.0781178,3.429683,2.9099233,-39.300026,23.351105,30.847525,-47.579563,28.691263,-10.905437,-31.572872,41.595684,-29.509865,10.476816
MCC13,-0.19862396,-15.806002,-11.459251,-13.290489,-3.4209986,-29.07811,33.724754,-20.639791,-29.798298,31.875952,-12.294527,7.462856,32.79551,-40.724228,21.269575,-9.436427
TOV-112D,-0.9310794,-6.713415,-9.263388,-8.67422,-4.0166245,-15.742101,13.926657,-7.7473063,-10.923901,12.694602,-4.821409,1.9835339,15.627682,-14.297986,6.087171,-0.5041071
RPMI-8226,20.652,0.98413354,-5.6211452,7.2839904,3.72334,6.800554,-28.364128,16.219687,22.771433,-30.247988,19.020554,-5.484854,-22.495893,27.268696,-18.733706,5.480359
COLO 684,4.2251997,-2.0497987,-0.85445094,0.30528623,2.4141464,-4.1602774,0.53802997,-2.4296465,-3.1109705,0.7690067,-0.794574,4.108147,2.221273,-5.038278,4.5755587,-3.1300395
HCT 15,-1.2237033,-13.341956,-10.451706,-11.593922,-5.0913615,-26.125841,29.864126,-16.075087,-24.21129,28.173887,-11.440229,5.1915817,29.911182,-33.543854,17.659018,-5.6814847
IHH-4,1.0456958,-10.267538,-8.661425,-7.5363755,-1.8283938,-17.815006,20.48752,-11.922784,-17.373344,18.446037,-8.194044,5.0838337,19.399359,-23.808865,12.91788,-3.6799088
BALL-1,1.9965335,-8.055654,-6.16538,-5.2227063,-2.0632915,-14.227799,14.161436,-6.6254435,-10.6432905,12.320125,-6.254931,2.8012834,14.11884,-15.303628,10.447925,-1.3558798
BE-13,25.058802,2.435139,-4.881299,7.923383,2.529792,5.2412744,-37.878395,22.739353,31.517923,-39.252224,26.853348,-8.269358,-26.933979,36.758392,-24.731346,7.455214
OVCAR-8,1.3653255,-4.4797335,-4.215479,-3.3697696,-1.3694016,-7.8097076,8.452347,-5.3294253,-7.7296915,6.850668,-1.8109819,1.699873,7.4660544,-9.262476,2.71874,-1.7091179
PL18 [Human pancreatic adenocarcinoma],18.741903,0.29676992,-6.3010564,4.882976,3.4320414,5.079507,-24.68044,12.733687,18.137352,-27.002478,17.257462,-3.7445903,-19.990788,23.693966,-16.378735,4.087771
ROS-50,19.468662,0.5008823,-6.2296686,4.588964,3.7499626,3.8481796,-26.389032,13.953642,19.151386,-28.992357,18.291534,-3.4981427,-19.93798,24.470245,-16.267677,3.8985643
SNU-407,2.6645904,-10.555019,-9.130936,-6.7122173,0.32119134,-16.648832,19.206635,-13.0807905,-18.124989,16.72321,-7.707924,7.021117,17.483131,-24.439156,13.244786,-4.708987
SW872,32.43412,3.797508,-6.4209714,11.884103,6.459505,10.890528,-47.187195,25.685966,35.89846,-48.385242,32.443768,-6.6175275,-35.653828,42.96599,-29.921698,6.7488437
HH [Human lymphoma],-1.4983717,-13.337007,-10.842217,-12.352648,-5.0798097,-26.56838,30.178139,-16.579119,-24.696844,28.670633,-11.324856,5.2426724,30.393734,-34.157814,17.862453,-5.995449
SW948,17.646732,0.15505832,-5.3347907,4.61013,3.5260553,6.1390224,-24.03679,13.0639305,17.797426,-26.323626,16.750137,-4.3417163,-19.506699,22.651707,-16.923405,4.277405
NCI-H1793,31.001722,2.7123973,-7.0271645,10.088577,4.6957426,8.160473,-45.66501,26.722134,36.679096,-47.7172,31.419174,-8.777485,-33.692844,43.06136,-29.406736,8.511169
NCI-H28,45.055637,-3.057873,-18.663122,8.9456,4.2077675,7.569221,-53.20182,33.50239,44.29212,-63.468784,37.2091,-15.402224,-44.9612,57.668793,-40.359898,16.433262
YKG-1,24.59799,0.35140753,-7.810972,5.178971,2.1816828,3.2788606,-34.632862,21.222092,28.202938,-38.173813,24.00565,-8.188468,-25.79804,34.83315,-23.340097,8.264947
MDA-MB-415,10.305007,2.0937312,-0.75084805,4.465153,2.8937461,2.7732296,-14.962843,6.1361594,9.991173,-14.357342,10.122398,0.53733355,-10.092821,11.7558975,-7.3780355,-0.16712116
HMV-II,14.591675,0.9301047,-3.4923983,3.935118,2.2352335,3.9048955,-20.612288,11.564535,15.69906,-22.03866,14.614745,-3.659326,-15.836662,19.767467,-13.872928,3.1881855
NCI-H1048,3.019078,-10.272174,-8.732069,-6.312956,0.71839285,-16.037645,18.50036,-12.915709,-17.74676,15.99628,-7.495031,7.207956,16.782324,-23.745152,13.106959,-4.8179083
SK-MEL-24,-0.80214,-13.540559,-11.333044,-11.655301,-5.4703693,-25.179289,28.284657,-14.985785,-22.335993,26.769554,-10.67796,4.4325624,28.360075,-31.483643,16.648582,-4.400169
COLO 824,8.607727,-3.835883,-5.7970366,-2.4401789,7.1649904,0.62458265,-3.754785,-6.0196505,-5.532885,-6.30275,3.89928,5.526869,-5.319258,-2.5749817,-1.0592376,-4.8218484
IGR-1,23.573927,-0.81086314,-8.732015,2.80349,1.5223267,1.81193,-31.505276,19.07767,25.768951,-36.34188,23.507769,-8.780499,-23.568396,32.924385,-23.049194,7.858111
JHU-029,7.2496195,-0.5558847,-0.17147689,1.9810957,6.7169027,1.2658798,-4.2089276,-6.6409316,-4.7454915,-2.893919,3.7322264,7.423776,-3.2961974,-5.7509766,1.8503983,-7.6909776
NCI-H740,29.380764,1.9783432,-7.4844127,9.591866,3.5528188,7.0208807,-43.042713,26.126446,35.69536,-45.209583,29.225746,-9.427537,-31.926594,41.68106,-27.9861,9.305591
OCUM-1,0.93335634,-8.435856,-6.4189796,-5.298147,-2.125439,-14.186246,16.165792,-8.936104,-12.999937,15.205618,-6.609191,3.5586605,15.637453,-19.358654,10.392784,-3.039897
Rh18,41.19475,3.693992,-10.344977,12.5447645,9.424402,13.911503,-59.853085,31.223566,43.62181,-63.102024,40.580956,-7.785996,-46.05177,53.49809,-37.64442,8.597425
RL,2.0166,-15.150566,-14.392098,-12.511668,-2.900482,-23.733122,28.772833,-20.145811,-27.155764,26.896063,-9.022247,7.486145,26.309639,-36.83935,16.401623,-8.065801
WSU-NHL,-1.3568816,-13.109568,-10.837847,-11.471144,-5.58965,-26.088257,29.471807,-15.596731,-23.466448,27.782738,-11.195149,4.818222,29.569574,-32.425858,16.643581,-5.006012
HEC-1,32.95906,2.5430512,-8.486075,10.828421,5.273693,9.561359,-46.398365,27.106438,36.781895,-49.357952,31.881874,-8.817103,-35.84448,43.866158,-31.008308,9.292405
HPAF-II,14.834271,2.759993,-0.88995934,5.927195,8.329529,8.774081,-20.326843,5.043496,9.740459,-20.22426,12.385664,3.3322392,-16.904257,12.75874,-9.592159,-2.8599792
IST-SL1,28.096716,2.2563434,-5.9719386,9.648133,3.2247212,7.2922454,-43.53008,26.73026,36.769703,-44.54757,28.676474,-9.977012,-31.495613,41.946186,-27.233784,9.469089
CRO-AP3,38.558456,1.9609325,-10.449187,14.681294,8.317973,13.831441,-51.16507,28.369242,39.886192,-54.689945,33.857315,-8.83754,-41.77219,47.937435,-33.888775,9.568354
OV-90,-0.87599796,-8.2522135,-6.079249,-7.870267,-5.3321023,-19.562586,16.554342,-6.5111833,-10.895586,14.956249,-6.498707,0.8244458,19.581953,-15.239026,9.710696,-1.090385
TGBC11TKB,-1.0421529,-12.561186,-10.239535,-10.397307,-5.8599343,-25.130684,28.403444,-14.166663,-21.882542,26.637228,-11.179354,4.38401,28.636517,-30.623627,15.964201,-3.8176222
EGI-1,13.228337,1.0822229,-2.645374,6.258172,1.3634503,3.3314264,-18.025902,11.046639,15.727025,-18.4921,12.210833,-3.7887242,-13.4773655,17.895054,-11.927825,3.985045
NCI-H524,0.115998566,-9.746927,-7.054763,-7.530602,-4.625617,-19.713327,22.595453,-11.892898,-17.88012,21.825483,-8.989155,3.5594547,22.495491,-25.301605,12.739049,-4.4303374
IM95,-0.7083092,-12.146895,-9.689103,-11.0874405,-5.204698,-23.787548,26.168095,-14.069648,-21.138298,24.999355,-9.5898,4.223957,26.610544,-29.681328,15.843583,-5.0658665
HA7-RCC,32.826942,1.7401011,-10.019634,8.794374,5.3586006,7.47634,-45.5965,25.154034,34.365055,-49.455105,33.238785,-7.347581,-34.239098,42.87102,-30.084635,7.9433007
SK-N-FI,0.12464269,-10.725189,-10.435374,-9.482009,-5.2777987,-20.486898,22.725056,-11.612051,-17.439396,20.915785,-8.699944,3.554685,22.641474,-23.868626,12.529751,-1.885965
JIMT-1,17.739351,1.9726801,-3.0327313,6.891637,5.272084,6.8155923,-24.351276,11.528278,16.09285,-25.17268,15.797593,-1.1553774,-19.261713,20.52135,-14.522165,1.9372791
NCI-H1105,27.760895,5.191444,-1.9896073,12.8246765,5.2657266,9.146387,-44.716705,24.885662,35.244213,-42.754547,29.191439,-5.966852,-31.246086,39.67639,-25.359047,5.9193664
OVCAR-3,25.2307,2.3566737,-5.6452203,8.941398,4.3439293,7.395711,-36.03529,20.57986,28.516756,-37.60606,24.442669,-6.2055564,-27.246994,33.773323,-23.17195,6.170242
IM-9,-1.0309391,-8.5430355,-6.641317,-7.5401907,-3.728943,-17.29387,19.316063,-9.861343,-15.129506,18.17822,-7.56537,2.9917142,19.68557,-20.967392,11.220885,-3.1428795
ES-2,13.804388,1.6979277,-2.3488474,5.3674583,3.130363,5.630358,-18.791018,9.357118,13.474327,-19.145811,13.073232,-1.7680993,-14.914372,16.63483,-12.127003,1.7819363
JJN-3,5.1438837,-0.030893568,-0.48572144,2.5398755,0.96190953,-0.25813678,-4.766742,1.4433928,2.5096102,-4.1277337,3.1324887,1.0493333,-3.0029988,2.534425,-1.8098701,-0.72143877
WM115,1.0091795,-12.783533,-9.655135,-10.7608595,-3.0111916,-21.991503,24.687668,-15.432908,-22.088276,23.475319,-8.4371395,5.3216476,24.037374,-30.401798,16.237894,-6.8966284
COLO 741,50.39248,5.3639073,-9.749513,17.768633,7.160341,13.99417,-78.04864,46.56577,63.863655,-79.40692,52.721283,-15.694908,-56.375427,73.68693,-49.09481,14.921575
SAT [Human HNSCC],27.100533,3.4459486,-4.682531,11.530491,6.265659,11.629903,-39.78827,21.343971,30.719118,-39.97963,26.21354,-5.4956717,-30.589096,35.536938,-24.608492,5.873809
ME-1 [Human leukemia],0.67793137,-9.176554,-6.001852,-7.1237874,-2.029395,-17.37215,20.74396,-13.091205,-18.678667,19.841331,-7.851115,5.329416,20.27306,-25.666832,13.471246,-6.3588705
OSC-20,17.150661,3.0321958,-1.9096425,7.6895204,5.9168863,8.6029,-24.568985,9.939824,16.11295,-23.774069,15.589372,0.16202706,-19.161777,19.1138,-13.623924,0.5668117
HSC-3,10.863879,2.0157664,-0.8172622,5.6726413,3.0762637,4.942467,-16.37792,7.881887,12.025329,-15.643216,10.245698,-0.88317466,-12.174513,13.324561,-9.024122,1.0592825
BL-70,1.0205505,-10.879285,-8.587914,-7.8671956,-3.50251,-18.285242,21.179148,-11.643766,-17.289637,19.894175,-7.8936286,3.7513363,20.3748,-24.463787,12.998285,-3.8123927
NCI-H187,19.083462,1.7952963,-3.442338,7.221674,1.4844149,3.5238535,-30.269855,18.935184,26.317749,-30.212097,19.928148,-7.015008,-20.838936,28.989891,-17.79331,6.30708
CADO-ES1,-0.19770297,-10.893463,-10.045442,-9.446074,-3.1591363,-20.53012,23.394997,-13.289154,-19.395767,21.495619,-8.886906,4.972789,22.736374,-26.310558,13.698978,-3.8476589
HC-1,-1.2003862,-16.568176,-12.899399,-14.375777,-6.31319,-32.53387,37.137405,-20.013487,-30.210155,34.94136,-14.150822,6.4742947,37.130276,-41.76741,22.062452,-7.2187243
NCI-H64,32.918736,4.062558,-7.3115788,12.73399,9.818483,13.585746,-44.907005,20.638306,30.576782,-46.502712,29.089067,-2.1270514,-36.39984,38.17872,-27.00621,3.561332
BB30-HNC,0.48644054,-7.694974,-4.7866483,-6.3710155,-0.46304652,-14.127029,17.788874,-13.159721,-17.458172,17.811327,-6.403585,5.6681128,17.34533,-24.111244,11.932494,-6.734539
SU-DHL-4,-0.6644716,-10.271082,-8.7658825,-9.521624,-5.8013096,-21.168299,22.762098,-11.2428665,-17.33014,21.696814,-8.6074095,3.2053456,23.713589,-24.431309,13.048953,-2.9188433
U-118MG,4.866941,-0.82190126,1.5783639,0.34134126,-1.8236141,-6.7308855,-0.20320885,-1.1452069,-1.7878588,1.206501,3.3007529,1.7276032,4.141506,-2.3716128,2.031521,-3.9678378
639V,4.679962,-1.2876289,1.0578717,1.510829,1.1065727,-1.76309,0.6469175,-3.8572476,-3.6335173,2.1387181,1.2213458,3.029631,1.3512101,-5.512915,2.212007,-4.8474708
GCIY,12.51246,-0.4164395,-1.3778476,3.4448323,-2.0380092,-4.4408813,-17.040182,12.897814,16.994486,-16.796675,12.445441,-5.536158,-8.140241,18.244919,-9.065304,5.2478704
SK-GT-4,7.466881,1.2110356,-0.29542533,3.0168862,1.4427266,3.3074808,-12.272778,6.2610426,9.758123,-11.472073,7.590124,-1.7619572,-8.671776,10.852702,-6.694062,1.445627
Hs 578T,3.261725,0.036747508,0.89016795,1.3696557,0.43442014,-0.7763809,-3.9240508,0.8536919,1.8169534,-2.993646,3.5780065,0.44477618,-1.4282708,1.9090952,-1.425323,-1.7668718
NCI-H146,22.695467,2.8476229,-3.579087,8.941517,2.9191637,5.6056156,-36.284336,21.859741,30.139282,-36.3505,24.275095,-7.0710254,-25.187382,33.952667,-22.010818,6.833408
NCI-H2052,69.16158,4.965599,-15.285236,25.307096,11.329614,21.732256,-96.56592,56.071503,78.59094,-100.44638,65.7519,-18.737251,-73.646355,91.99814,-63.438965,18.622309
COR-L321,-1.0153688,-12.144088,-8.965682,-10.203643,-3.890617,-24.308754,27.99458,-16.172432,-23.693802,27.157755,-10.777954,5.807352,27.97194,-33.64585,17.554296,-6.789065
LN-405,6.7387033,0.5424265,0.22321044,2.6963096,2.7499843,0.4564014,-6.694897,0.8389927,2.1057255,-6.101966,3.9321618,2.6212437,-4.518781,2.6976554,-1.3652267,-2.3693936
CRO-AP2,4.4165335,-6.0787926,-5.4285846,-3.0350997,1.1271449,-10.134187,10.500884,-8.927718,-11.640322,9.279542,-4.17169,6.3502126,9.694052,-15.990064,8.743816,-4.13138
D-566MG,29.41298,3.1025558,-6.0805826,9.718537,4.198033,7.4274554,-45.007214,26.561653,36.248318,-46.301052,30.742865,-8.688874,-32.631313,42.343624,-28.404314,8.171272
LB1047-RCC,14.374263,-3.4220903,-10.006648,0.58535975,0.6160759,0.3300147,-11.648703,6.9790034,9.484293,-16.414375,8.060545,-3.9117172,-11.133168,13.785929,-11.003381,5.418103
SJNB-7,24.140419,1.0509857,-7.5806565,8.907472,6.478251,9.772112,-29.995176,14.2964115,21.372055,-32.80098,19.701931,-3.0511522,-25.97707,26.840538,-20.151995,4.209072
KALS-1,3.9043014,-1.9467103,-1.196948,-0.014976464,-1.4672327,-4.9458814,0.10870112,1.8408678,1.2900113,-0.7570149,0.21137331,-0.5751336,2.1824255,0.78691185,0.91434866,0.8012675
OCI-Ly7,-1.4372107,-11.437965,-9.600049,-10.526694,-4.789325,-22.845076,25.805197,-13.848428,-20.642496,24.464771,-9.7832575,4.2909136,26.111444,-28.663334,14.83368,-4.4052286
SNU-C5,1.832337,-8.203887,-5.2684894,-6.197631,-1.3967063,-14.499459,17.767391,-12.2919235,-16.994587,17.2827,-6.1987734,5.174228,16.917603,-23.446892,11.968024,-6.390133
Granta-519,-0.4627906,-14.595333,-10.972655,-11.288025,-4.5200124,-26.529549,31.155203,-17.136473,-25.55182,29.271473,-12.147325,5.983315,30.548595,-36.031624,18.970945,-6.050618
NCI-H2122,5.7950964,-0.984999,-2.9005978,-0.5678547,0.5271063,-0.6319461,-6.828843,3.9247925,5.176837,-8.70698,4.794208,-1.8946121,-5.0650315,7.3805823,-4.947513,2.020869
SNU-C1,33.577065,3.303325,-7.4824657,11.368134,7.848648,11.736936,-47.420074,24.51227,34.20277,-49.594574,32.254,-5.2853394,-36.78472,42.45647,-29.822098,6.0631075
VA-ES-BJ,7.452937,-2.0337994,-6.406349,-4.8809323,-0.74299717,-4.7758474,-9.764544,4.978564,6.774305,-12.702183,8.388353,-3.2474837,-5.1804113,11.120576,-7.6551557,2.835177
RXF 393L,18.088251,2.4261014,-2.2945213,6.194458,2.841743,4.168343,-29.040161,16.423765,22.836836,-29.427242,20.43589,-4.493115,-19.411802,26.338501,-17.868061,4.4523754
OCI-AML-5,1.0028708,-10.553121,-8.771231,-7.517146,-1.6655217,-18.195055,21.173214,-12.609121,-18.249302,19.150652,-8.420866,5.6177893,20.054546,-25.196907,13.475393,-4.192203
Farage,-1.0796592,-12.857857,-10.0621395,-10.910766,-4.9203115,-24.959307,28.745573,-15.441528,-23.23939,27.123184,-11.036803,4.9799647,28.647774,-32.29226,16.856852,-5.394416
SiMa,38.107662,2.5286348,-9.584408,11.544383,4.2276435,8.555235,-55.45839,33.860554,46.12996,-58.649414,37.997242,-12.719215,-41.14585,54.262127,-36.72633,12.312636
SK-GT-2,5.7418823,-0.7877698,1.926295,2.4218059,4.4852734,-1.0860695,-1.2347151,-5.854161,-5.2775583,0.68511456,1.7574664,6.1525917,0.21364287,-6.951462,3.3330183,-7.6752157
Panc 02.03,1.405541,-2.815652,-3.337039,-2.1005352,0.32408527,-3.4804554,4.18516,-3.9317229,-4.616758,3.5009384,-1.1474336,1.8583426,3.5533981,-5.708181,2.1715238,-1.1835119
TE-9,24.68326,4.027012,-3.6387966,9.938323,11.261458,13.809915,-35.356827,12.63183,21.690418,-35.584293,20.76449,0.9975566,-28.829872,26.047466,-18.430393,0.06966138
OVK18,1.464056,-14.067875,-11.459302,-10.125982,-1.7411125,-24.039492,28.225864,-17.581348,-25.082935,25.712484,-10.987166,7.9622555,26.6477,-34.49227,18.291159,-6.559636
MHH-CALL-2,-1.223282,-15.476737,-12.000174,-13.281389,-5.8383374,-30.306538,34.720425,-18.703571,-28.225039,32.695244,-13.295229,6.067916,34.658413,-39.072422,20.585796,-6.738498
A2058,1.8364193,-8.090201,-7.2601824,-5.7453237,-1.3564869,-12.8299055,14.306255,-8.600018,-12.3970785,12.633453,-5.519425,3.675127,13.245966,-16.91452,9.359827,-2.4941647
NCI-H1563,39.668167,4.630022,-7.7634687,15.2790785,7.846035,14.058024,-56.747795,32.142868,44.28502,-57.881077,37.313133,-8.556265,-43.46827,51.958584,-36.02101,9.858391
Reh,-1.0171498,-13.863239,-10.731039,-11.572391,-4.952066,-26.246689,30.42722,-16.613056,-24.764679,28.761253,-11.633019,5.4118667,30.226133,-34.618687,18.162115,-5.801563
NCI-H596,22.41966,3.9085371,-2.1567647,9.303165,9.937307,11.890743,-32.284424,11.042266,18.632051,-31.365868,19.952131,2.0683017,-25.537674,23.232037,-16.575459,-0.6007481
LB831-BLC,31.011429,2.6795936,-7.544755,10.504308,6.2789288,9.897966,-44.24107,23.948967,33.415104,-46.44223,30.529966,-6.431226,-33.79853,40.558807,-28.23863,6.819706
NCI-H2804,3.2848785,-10.738458,-10.320471,-8.289246,0.45138767,-16.193554,20.11724,-15.660605,-20.619062,17.73758,-6.8499174,8.020416,17.725235,-26.893757,12.713247,-5.9063997
TE-8,4.082808,-8.497868,-5.557144,-6.591183,0.5148859,-13.518562,17.222548,-15.019012,-19.29315,16.782461,-5.326419,7.2584934,16.000593,-25.532566,12.461528,-9.098081
YT,37.58457,3.5321205,-8.448115,12.854274,6.638052,11.5122795,-54.53958,30.671976,42.74985,-56.73499,37.526894,-9.30444,-40.857132,50.617184,-35.263794,9.224303
EPLC-272H,3.8823206,-12.072641,-9.362245,-7.3647566,0.7693876,-17.783646,23.603111,-18.931356,-24.284018,22.01847,-8.217118,9.599121,20.705542,-33.40071,15.310094,-8.73128
NKM-1,-0.86229694,-14.972684,-11.427156,-12.35363,-4.9737573,-29.286936,34.38673,-19.097206,-28.39557,32.337646,-13.337435,6.728517,33.8595,-39.160526,20.133469,-7.103148
LB647-SCLC,1.3787888,-8.909506,-8.470259,-5.5222135,-2.2752337,-14.948569,17.199556,-9.653176,-13.897287,15.523316,-6.9018393,4.0165815,15.916023,-19.370369,9.641271,-1.9709153
ES1,-0.9699143,-13.207795,-9.753472,-10.257489,-4.5640683,-25.371733,29.536678,-15.972204,-24.004238,27.902029,-11.529157,5.4302382,29.15357,-33.765896,17.298494,-5.8454
MRK-nu-1,36.758987,0.63774365,-12.583843,10.355605,8.204464,12.394669,-48.375454,26.641405,36.43076,-53.7891,31.652828,-8.548183,-40.614468,45.882595,-32.345413,9.4496975
SNB-75,6.4869685,-2.878185,-1.3295609,-0.58527094,1.5177855,-5.947305,2.3298297,-4.845836,-5.944325,2.3706946,-0.0006921347,4.791912,4.114546,-7.3901424,5.235136,-5.3884425
Mono-Mac-6,-1.1337652,-6.190675,-4.899253,-5.7941685,-2.8457434,-13.214839,13.79948,-6.8640523,-10.5894985,13.013461,-5.38999,1.9968071,14.564045,-14.576493,8.105479,-1.9787685
KP-4,19.672338,0.7267899,-6.7550864,3.170169,3.088244,4.290117,-27.218904,14.529455,19.94588,-30.670622,20.281006,-5.331089,-21.383781,26.818317,-19.78983,4.8799186
LN-229,61.66839,3.3618705,-18.778276,19.722464,16.607332,24.256294,-81.30023,40.534874,57.170914,-87.78084,54.08694,-8.923414,-67.978714,72.929344,-53.249123,11.509688
23132/87,2.2452939,-7.551733,-4.4439726,-4.9047594,-0.18821278,-13.075945,15.935223,-11.778665,-16.061705,15.382482,-6.0013294,5.7938848,15.160346,-21.850677,11.469596,-6.602629
Becker,13.664835,0.2542112,-4.127677,3.4785542,2.7810607,4.4528785,-18.797379,9.691247,13.740394,-20.513252,13.376603,-3.0284142,-15.113077,18.014877,-12.918787,3.046904
Ca Ski,32.18268,4.464473,-4.8696237,13.184276,6.552745,11.435141,-48.43733,26.65755,37.58651,-48.45599,32.338577,-6.9736705,-35.774143,43.65529,-29.643368,6.7662206
LA-N-6,0.10932388,-11.218689,-9.306193,-8.400306,-2.9688532,-19.57114,23.02485,-13.001798,-18.891575,21.478443,-8.956439,4.813427,22.146141,-26.75806,14.048401,-3.7306743
NCI-H1092,15.716087,2.752268,-2.5218942,7.604328,6.042511,7.431273,-23.125866,9.23208,14.844372,-22.818161,14.471259,0.36824933,-18.123653,17.74506,-12.328767,0.30658716
RPMI-6666,-1.0839502,-12.75074,-9.899323,-10.942425,-4.9191356,-24.970715,28.554691,-15.249741,-23.053917,26.90291,-10.989621,4.9024067,28.574879,-31.959267,16.875414,-5.351156
SCC-9,22.783527,3.325696,-3.043844,10.322861,5.1700554,8.991864,-32.19185,16.77837,24.026552,-31.827097,21.103077,-3.109601,-24.833437,28.168762,-19.73284,3.8861785
SUP-HD1,3.235364,-9.443117,-7.2330966,-5.02978,1.3889257,-15.764699,17.254646,-12.280605,-16.691288,15.215699,-7.581447,7.8248224,16.322979,-23.49474,13.504745,-5.2793355
BT-20,0.5850766,-5.246886,-3.2879946,-5.326239,-0.48959184,-10.55815,11.7920065,-8.21745,-11.661632,11.375969,-4.505942,3.7348166,12.150528,-15.694541,9.04606,-4.6183233
FU-OV-1,12.229092,0.8070478,-2.832563,5.416757,2.8471038,4.388415,-17.212017,9.26154,13.3049555,-18.1456,11.209085,-2.6459808,-13.592864,15.529646,-10.870824,2.6415665
NCI-H520,0.60307354,-5.004331,-5.317729,-4.0444765,-2.3686156,-9.483973,7.459174,-3.5247579,-4.6450753,6.0503793,-1.9744654,-0.050452165,8.764235,-6.592082,3.5883803,0.98304427
UACC-62,1.9171617,-1.0011396,-1.9663961,-1.9193504,-0.6879065,-2.579969,-2.003457,1.0869856,1.3253632,-2.790906,1.9722667,-0.77986765,-0.20586273,1.911359,-1.3977282,0.5302091
Ku812,4.4488587,-2.5609696,0.057536207,3.4743729,-0.98810995,-7.607934,-2.6039212,3.3296492,3.579453,-1.881247,2.3581972,-0.35949636,2.4461598,2.27993,0.58394426,-0.19193482
A-549,15.46078,0.90795934,-2.6987553,3.3627608,-0.9078578,-1.206426,-25.126377,16.362118,23.16625,-25.732143,18.109768,-7.7337255,-14.920891,26.33916,-15.727429,6.4139137
SW1783,20.677307,2.0077767,-4.8751144,5.8300924,3.637207,5.5153694,-29.523712,15.379035,21.639835,-30.961582,21.171545,-3.8838518,-22.247871,27.433723,-19.277544,3.8575907
COR-L23,10.589776,1.2553049,-1.885716,4.454377,2.5011418,4.2318225,-15.198589,7.9856715,11.374218,-15.607233,10.125838,-1.8305681,-11.888861,13.521681,-9.495411,1.7787933
LXF 289,11.913268,2.0068576,-0.5260701,2.808235,-0.6550193,-1.7544174,-21.437532,13.238284,18.850588,-21.151798,16.288015,-5.3465767,-11.661864,21.834301,-12.772813,3.9285555
NCC-IT,9.228069,-1.1801264,-4.5634556,1.9687407,3.1035697,2.9494333,-8.173751,2.4141593,4.6636314,-10.68442,5.491887,-0.18341725,-8.296979,6.9718666,-6.3853517,1.0848148
RERF-GC-1B,21.261,3.519449,-2.0371099,9.011128,3.222721,5.281426,-32.470642,18.20126,25.173206,-31.813368,22.17222,-4.1438627,-22.154701,28.835766,-19.296326,4.3341575
EW-7,7.36793,-0.62127197,-3.510671,1.1384898,2.393595,2.5745776,-8.390282,3.1583369,4.6933002,-9.839851,4.831847,-0.14444643,-7.728408,6.399519,-5.4861007,1.011608
RPMI-2650,-1.166072,-13.296936,-10.335127,-11.474118,-5.1810074,-26.135752,29.847502,-15.937139,-24.093704,28.134727,-11.46197,5.0849605,29.899931,-33.37218,17.608572,-5.604843
HAL-01,-1.1561707,-13.089863,-10.200095,-11.129156,-4.925231,-25.472528,29.283476,-15.768638,-23.740252,27.604105,-11.248146,5.124627,29.204586,-32.92292,17.246494,-5.5727296
LoVo,-0.18140003,-10.963346,-8.997677,-9.084106,-5.401583,-20.385801,23.013306,-11.722899,-17.731112,21.58488,-8.477012,3.3623784,23.209372,-24.81813,12.788212,-3.1052356
NCI-H650,64.36422,6.294525,-13.030283,23.429272,10.317848,19.180788,-93.505035,53.994938,74.99254,-96.36052,65.857445,-17.206028,-69.50947,88.2744,-61.09627,16.242937
EW-22,6.7769136,-7.768093,-7.484534,-5.0236983,2.3620946,-11.142755,12.447812,-13.179249,-16.39607,10.98699,-3.4794946,8.503449,10.823084,-20.816933,10.766146,-7.5381455
ST486,-0.94440264,-10.85358,-8.565114,-10.007601,-4.9532037,-21.587687,23.536436,-12.42819,-18.71282,22.656445,-8.677709,3.5929995,24.179436,-26.537495,14.04998,-4.4536943
UWB1.289,-0.6120956,-4.679495,-3.4604146,-4.0578604,-1.5018398,-9.17773,10.375483,-6.507346,-9.215132,10.11663,-3.7729983,2.3545825,10.652084,-12.751262,6.3104486,-2.9896107
COLO 320HSR,-0.7036471,-4.42919,-7.15097,-8.262473,-2.7006505,-12.016789,8.776082,-6.3482366,-8.289423,7.8378234,-1.9811883,1.6333742,11.186737,-9.624143,3.4040492,-1.3893127
EFM-19,11.045063,2.416125,-0.12947841,5.876056,3.5132878,4.7233396,-17.732635,8.466506,12.5862465,-16.721144,10.542281,-0.5578769,-12.679669,14.128555,-8.954812,0.64903516
UPCI-SCC-090,31.732973,0.79930055,-9.264643,10.391921,4.224285,8.713908,-43.323936,26.64537,36.39537,-46.650078,28.769648,-10.506454,-34.114227,42.932392,-28.992489,10.502337
Calu-6,9.456651,1.6641002,0.04374709,2.16011,0.59048426,-0.67586935,-15.259163,7.894122,11.165209,-15.131422,12.477202,-1.8708403,-8.338171,13.805308,-8.933357,0.592321
U-CH2,-1.0122042,-9.228242,-7.6695495,-8.697384,-4.503566,-17.885532,18.341665,-9.361664,-14.030747,17.632685,-6.7097454,2.3673265,19.413122,-20.299625,11.033408,-2.6265097
NCI-H526,20.849716,2.5593357,-3.1833026,7.7662807,2.3187363,4.672589,-32.69077,19.47048,26.876766,-32.935432,22.91124,-6.5253305,-22.74711,31.079163,-20.595566,5.7330832
A-498,17.260635,-5.3999257,-11.486291,-5.023004,1.0490428,-3.1632612,-19.376112,10.440054,13.314109,-25.649975,15.516718,-6.102371,-14.81278,21.634972,-14.486008,5.8986025
NCI-H2452,24.16376,0.14938608,-8.080349,6.5269413,5.5984693,8.8912735,-30.917923,15.475945,22.469042,-34.230106,21.927017,-4.522125,-25.719542,29.451633,-21.396446,4.57419
NCI-H513,29.04531,6.1443787,-1.5859982,15.034856,9.113782,11.440921,-46.24321,21.639372,32.381855,-43.950665,29.060474,-1.690558,-33.009018,37.00148,-24.195728,2.5546083
NCI-H1304,11.109954,1.3661995,-2.286125,2.932662,0.6287825,0.44875342,-17.037157,10.016975,13.830976,-17.669815,11.783693,-2.9973238,-10.854267,16.005665,-10.524021,2.894893
LNCaP clone FGC,24.685734,4.1859736,-5.2445135,10.403543,8.315486,8.702155,-33.67406,14.201603,21.572788,-34.416084,21.324995,1.2445889,-26.05625,27.456665,-18.415388,0.45908958
SW837,2.6752098,-11.166901,-7.8516903,-8.270781,-1.0081152,-18.20471,22.651562,-16.288084,-21.992264,21.394365,-8.214837,7.1430864,21.37064,-29.7193,15.204838,-7.7165265
KTCTL-1M,-0.5844761,-15.483567,-12.895616,-13.857605,-4.863614,-28.789986,33.306587,-19.223974,-27.99682,31.232983,-12.267403,6.5607567,32.87805,-38.2922,20.328793,-6.6012344
MES-SA,-1.3771682,-15.578445,-13.141973,-13.464795,-5.7533927,-31.010277,35.121693,-18.883648,-28.396904,32.60554,-13.6036825,6.297319,34.8521,-38.65578,19.78682,-5.976209
CAS-1,37.91706,3.5355484,-10.263111,10.442117,6.365315,9.17567,-53.067528,28.542353,39.04986,-56.469265,37.191902,-7.0577893,-40.19426,49.6265,-34.62447,7.8688965
OACP4 C,2.2761896,-2.157877,-1.7359678,-2.7120316,-1.4834827,-6.4986744,0.46770373,0.72208506,0.24441853,-0.6704241,0.86967,-1.0884078,3.5358229,-0.18858737,1.0357589,-0.042246304
OCI-AML-3,1.3710946,-9.384185,-8.2427025,-6.4223943,-1.7525755,-15.373044,17.583447,-10.153406,-14.747776,15.666494,-7.097168,4.3160377,16.477488,-20.172932,11.028526,-2.850916
Karpas-299,0.06977362,-15.27803,-13.760303,-13.26749,-3.698024,-27.184841,32.54635,-21.024523,-29.200363,30.697117,-11.22058,7.755423,30.835983,-39.874916,18.663757,-8.300485
MEG-01,-0.24988854,-4.780261,-1.934495,-4.766592,-3.842789,-16.15194,8.309518,-2.8947425,-5.518897,7.3402925,-1.4938301,0.18485025,13.549907,-7.0478325,5.232795,-2.107132
OCUB-M,-0.23293418,-2.45418,-1.4049549,-2.1194546,-1.1591673,-5.4181657,5.76071,-3.1926336,-4.771342,6.0930605,-2.140926,1.1112351,6.374302,-6.78727,4.0500364,-1.2398498
TE-15,11.56162,2.040741,-0.47633198,5.8862314,5.1730824,6.781839,-16.173536,6.005755,9.919772,-15.628445,9.151755,0.87302774,-13.491086,11.394335,-8.491195,-0.22321118
RVH-421,27.933409,2.9190195,-5.793958,10.144785,6.093284,9.270101,-39.48792,20.571499,29.012234,-41.14729,27.428585,-4.7321615,-30.08942,35.64316,-24.71521,4.701323
Sarc9371,-0.33289227,-5.09732,-2.9374175,-4.077016,-2.7618344,-11.596245,12.417062,-6.0024223,-9.668048,11.987629,-5.0225573,1.9946859,13.184891,-13.667785,7.7070136,-2.4384875
LS180,-1.1790856,-12.667207,-9.876459,-10.913582,-4.8406897,-24.797678,28.418648,-15.262483,-23.003775,26.81217,-10.913412,4.9221816,28.426075,-31.891941,16.75108,-5.3759885
BICR 31,4.050544,-5.513717,0.31761986,-2.1029348,3.769074,-9.816225,10.662847,-13.346853,-15.659344,11.917698,-3.256514,8.540047,11.877105,-20.587032,11.392275,-11.422004
ES5,32.52393,0.46803063,-10.1812105,9.630384,4.395886,8.72175,-44.057034,26.905645,36.325386,-48.255627,29.581385,-10.599846,-35.06988,43.934834,-30.277136,10.7373495
UO-31,3.4830837,-4.907746,-2.4488971,-1.6867164,-1.087922,-8.944298,9.449961,-7.208067,-9.76562,9.516899,-2.626662,3.7970471,9.530449,-12.947996,6.7811007,-4.901884
SF268,5.962272,-1.1197376,-3.5307841,0.063400164,2.1519477,1.7933072,-4.792683,0.61859906,1.5354936,-6.59583,3.8881164,0.35029572,-5.5105767,4.062031,-4.416256,-0.109050475
HCC1569,37.49093,1.4481907,-11.435041,11.916005,10.709236,14.780912,-49.219185,24.039455,34.106735,-53.65017,32.430737,-5.274206,-41.300217,43.81633,-32.121803,6.791744
HCC202,32.42688,1.3210485,-8.554641,9.274897,3.051353,7.384986,-47.464,29.374222,40.56015,-50.152023,31.773289,-12.1703615,-35.391964,47.62641,-31.025633,11.508854
TMK-1,9.131046,1.1760283,-1.2232811,5.221037,3.2876725,1.3791286,-12.9563055,4.6534986,7.818475,-12.46623,8.739087,1.4200013,-8.561541,9.151686,-6.082891,-1.003789
HEY,28.846869,3.548807,-5.041681,10.91709,4.1078663,7.881236,-42.245594,24.80908,34.084858,-43.118587,29.067827,-7.5045795,-30.873194,39.960743,-27.453323,7.71238
U-251MG,3.1185377,-8.807296,-8.679811,-6.7581773,-2.0817509,-13.097224,14.8302145,-9.542838,-13.344746,12.861383,-4.8050594,3.5116217,13.348038,-17.15364,8.444039,-2.4724407
A-253,16.098417,3.5050156,-0.43032274,6.756321,3.1257343,5.4114237,-25.789215,13.377967,19.301346,-24.755867,17.904734,-2.4638574,-17.830986,22.450165,-15.231919,2.2950819
HOS,1.5599461,-6.9908648,-2.9847772,-4.6028833,-0.43135345,-12.804061,16.590673,-12.514701,-16.438818,16.798235,-6.1337576,5.9296026,15.976749,-23.06689,11.24366,-7.2698717
KTCTL-13,1.0104499,-10.663539,-10.834426,-12.902771,-4.271188,-19.109983,17.320244,-10.676913,-15.2260685,15.187578,-4.059823,2.0504344,18.411406,-18.752186,9.10918,-2.535284
CHSA0108,1.6336945,-6.3350296,-7.1238403,-6.059076,-2.0376518,-9.861578,10.690465,-7.1104283,-9.792016,9.279117,-2.980524,2.2307453,9.970818,-11.765919,5.2663774,-1.9480733
HCC38,27.846237,2.421951,-5.3003497,11.715902,3.8795576,7.6828914,-40.32924,24.2361,33.783073,-41.26822,26.832136,-8.04896,-29.50293,38.418327,-25.520496,8.131567
NCI-H128,14.236248,1.524783,-2.1117995,6.436735,1.3877677,3.7172766,-22.780561,14.680861,20.322739,-22.747892,14.581072,-5.428865,-16.055334,22.392498,-13.497479,5.143626
MDA-MB-361,10.518927,1.1548288,-2.3670874,3.189558,0.5881735,2.0923915,-16.058794,9.509485,13.665561,-16.190252,10.2931795,-3.1772661,-10.974061,15.66182,-10.266678,3.4734826
NCI-H2141,16.268845,4.011411,-0.17890081,9.259585,4.155177,5.813446,-26.994392,14.123204,20.032578,-25.000803,16.892044,-1.6665974,-18.714705,22.18435,-14.296544,2.0783744
CHP-134,6.4120493,-10.860916,-12.07763,-7.8518014,2.1274812,-13.755067,16.828802,-16.893036,-20.545954,14.272244,-4.2520285,8.779593,13.3859825,-25.53635,10.268468,-7.709041
OE21,31.25149,3.6347935,-5.400905,13.610065,8.592285,12.7910185,-46.51248,24.63862,35.42727,-46.823696,28.3923,-5.3036647,-35.295597,40.083157,-26.177309,6.459372
CAL-51,-1.2277303,-13.709973,-10.72003,-11.888121,-5.247231,-26.859226,30.758537,-16.554388,-24.944693,29.023903,-11.771444,5.334772,30.770174,-34.577206,18.171337,-5.8728275
DU4475,33.608246,1.5292771,-9.029255,12.036376,4.920652,9.353774,-46.656136,28.463606,38.86851,-49.63524,30.671711,-10.351053,-36.382874,45.651947,-30.390743,10.511929
SU-DHL-6,-0.7027135,-8.08274,-6.001094,-7.2400517,-3.5599084,-16.01289,17.781395,-9.494305,-14.279408,17.074368,-6.517598,2.815444,18.14499,-20.163757,10.720631,-3.5057483
MN-60,0.14029866,-11.35207,-9.036852,-8.677487,-2.8677514,-20.65317,23.879684,-13.503536,-19.905525,22.150238,-9.407985,5.3051276,23.234615,-27.845219,14.80693,-4.6128783
NCI-H2795,-0.97084594,-14.298038,-11.315087,-12.01679,-5.102609,-27.894989,33.245483,-18.802935,-27.625862,31.678381,-12.289037,6.269779,32.477516,-38.21346,18.991158,-6.795668
AM-38,24.185978,1.3260865,-6.526038,8.124911,2.755256,6.239947,-33.474075,20.629274,28.250826,-35.998882,23.050825,-8.046436,-25.923634,33.512905,-22.989334,7.8800235
RPMI-8866,-1.2315418,-14.581492,-11.344403,-12.660617,-5.5679774,-28.684109,32.77659,-17.650185,-26.624123,30.876888,-12.529318,5.7149825,32.79318,-36.855343,19.434126,-6.3323503
COR-L311,39.5133,5.6235833,-6.2449384,16.831486,9.861343,15.9578,-59.85594,31.819214,45.103065,-59.453094,38.603462,-6.988299,-44.90664,52.386166,-35.58677,7.669409
EW-13,5.4547663,-21.544819,-21.590483,-18.081078,-1.8333715,-34.686996,40.454605,-28.844713,-39.50538,36.039654,-13.737335,13.216425,36.39901,-51.937267,24.15646,-10.546476
ML-2,-1.5018072,-13.189199,-11.202682,-12.072752,-6.7039332,-27.60459,29.91277,-14.76303,-22.86267,28.03689,-11.483583,4.3070803,30.931293,-31.680485,16.79838,-3.7121542
NCI-H2196,0.9948754,-17.522793,-12.446708,-11.730844,-5.7239304,-32.012085,37.284565,-20.389505,-30.527685,34.842327,-14.768866,7.4517694,36.08694,-43.050484,22.936037,-7.267832
NCI-H446,31.28863,4.0804353,-4.9828577,13.94724,6.2653894,10.758746,-47.328102,26.798296,37.626705,-47.163277,30.6537,-7.066759,-34.889626,42.786587,-27.987307,7.590436
MFE-319,-1.1445576,-13.243701,-10.212253,-11.283096,-5.1920853,-26.006124,29.686506,-15.77164,-23.898132,27.966864,-11.418351,5.0037694,29.709473,-33.11484,17.473743,-5.552543
CTB-1,1.1771753,-8.582889,-8.10743,-6.2280283,-3.1292794,-14.76577,16.39338,-8.416003,-12.670308,14.799085,-6.6387076,3.083798,15.790412,-18.054234,9.812544,-1.5601145
DoTc2 4510,21.254726,2.1396298,-4.1029873,8.098873,3.535395,6.409998,-31.50258,18.533094,25.48987,-32.37852,20.846472,-5.739468,-23.3567,29.408146,-19.731642,5.756669
OAW42,43.02104,1.0323308,-13.825701,11.234005,5.3149824,9.119886,-58.6104,35.34688,47.71858,-64.554504,40.12044,-13.331227,-45.58094,58.18717,-40.12857,13.630646
JAR,14.98025,0.6150898,-4.1096287,4.148801,1.5314586,3.0395272,-20.234316,12.049937,16.609291,-22.134508,14.772084,-4.630247,-15.50326,20.162724,-14.208123,4.277745
MFM-223,8.604818,-3.1945865,-3.9285262,-0.25677794,7.468698,-2.1238186,0.5186811,-9.858523,-9.884411,-0.0048581734,1.0296152,9.351483,-0.22049499,-10.845352,4.1274376,-8.44779
KYSE-510,32.60644,3.7521474,-5.910626,13.036485,4.8418818,8.932272,-49.032055,29.112244,40.26269,-49.620605,32.777325,-9.092325,-35.556988,45.965454,-30.133566,8.935718
MOLT-4,1.4181185,-9.808907,-7.540569,-8.414717,-4.1590343,-18.826086,21.17526,-12.288945,-18.024063,20.090492,-7.564872,3.799727,21.06218,-24.167297,13.012354,-5.4356103
NCI-H1666,32.434925,2.2269065,-8.3152075,11.201392,9.63149,13.433833,-45.018147,21.793287,31.752918,-47.65219,28.636114,-4.413841,-36.768673,39.18283,-27.735546,5.6292086
TE-4,3.5876837,-1.5339087,-2.051601,0.3528311,1.2307085,0.26872864,-3.934886,0.89428,2.1970856,-4.1221185,3.7671716,-0.28185984,-2.5937667,2.1437147,-3.05567,-0.18805747
CL-11,0.06854859,-11.143662,-8.804409,-10.168834,-4.551447,-21.084965,22.682257,-12.682211,-18.755154,21.810236,-7.8976026,3.9390175,23.145216,-26.537811,14.273314,-5.1589055
ASH-3,30.930614,4.5762286,-1.8975843,14.125442,7.9991245,10.644797,-42.469894,20.236763,29.917973,-41.907955,28.417643,-2.3910027,-31.511051,35.758415,-24.502699,1.7751516
GR-ST,0.75358254,-10.161303,-8.345923,-7.4625764,-2.8461287,-17.063637,19.589449,-10.872717,-15.916189,18.267006,-7.5663123,3.8713453,18.893091,-22.937553,12.168722,-3.2197092
NCI-H748,1.6091605,-2.8560266,-0.8648343,-2.6738107,-3.8653605,-12.319911,3.2730443,0.11406955,-1.2639546,3.279277,0.84270513,-0.616919,9.004909,-2.2080061,2.6872387,-0.78427994
TC-71,28.814594,1.4754708,-7.7431593,9.038321,3.8038547,7.8944564,-41.68578,25.310125,34.44997,-44.322838,28.01458,-9.598667,-31.850445,40.714233,-27.724174,9.370532
SCC-4,27.403101,5.317635,-2.2493954,13.42403,8.165873,11.867603,-41.90096,20.735851,30.076502,-40.454605,26.628654,-2.4159312,-31.077246,34.536613,-23.286165,3.4111795
Onda 11,16.662989,1.9192816,-3.1030393,5.648965,2.7970383,4.600971,-24.24307,13.185373,18.464249,-24.988865,16.803772,-3.4744844,-17.916233,22.284164,-15.42356,3.285292
NOMO-1,-0.9022376,-13.640454,-9.954091,-11.162597,-4.2143383,-27.040373,31.814852,-17.999847,-26.706179,29.828205,-12.187161,6.53604,31.282799,-36.6087,18.785774,-7.0888247
RCH-ACV,-0.30612227,-11.970483,-9.684863,-9.504842,-3.4253252,-22.041761,25.606148,-14.293044,-21.12861,23.825275,-9.937477,5.2972817,24.977415,-29.465992,15.487481,-4.805277
SK-MEL-31,34.775177,1.3679655,-10.70853,8.678255,6.5457873,9.800701,-48.18046,25.770779,35.786114,-52.409653,34.286636,-7.894531,-37.79459,45.687874,-32.514954,8.122207
TK [Human B-cell lymphoma],24.195292,2.019813,-5.0958858,9.07321,3.5074372,7.112395,-35.708004,21.306238,29.570065,-36.554188,23.301857,-7.2110786,-26.556192,33.91375,-22.224846,7.040154
EFO-21,21.288506,1.3104008,-5.5790777,7.474105,4.296271,7.3548293,-28.660769,15.6616955,21.756746,-30.758537,20.052025,-4.5372133,-23.034004,26.673023,-19.36413,4.8326197
WRO,3.1238022,-7.207109,-2.7954166,-4.3434052,-2.3101048,-15.251311,16.897991,-11.254068,-15.915955,16.782589,-6.130712,4.755564,17.248163,-21.781979,12.04277,-7.273278
786-O,1.4893824,-16.930462,-13.268434,-13.485791,-3.5955472,-28.8326,34.396507,-22.128849,-31.127737,32.551792,-11.869394,8.188149,32.502514,-42.59247,21.275639,-9.852658
SK-MEL-1,37.89457,3.0991435,-9.395061,12.13482,6.074621,10.4949255,-53.794876,30.588398,41.94298,-56.81622,37.525143,-9.464743,-40.80415,50.841114,-35.742813,9.705442
GMS-10,31.919804,3.5247383,-6.3440714,12.072422,6.448565,10.6718855,-44.9294,24.753267,34.363056,-46.354977,29.950815,-6.295507,-34.560146,40.820415,-28.550583,6.9291506
NCI-H1581,0.7809973,-3.4661055,-3.9844115,-2.4603505,-0.5399022,-5.018909,5.740106,-4.069054,-5.3248963,5.252898,-2.069547,1.5265357,5.185815,-7.1666694,2.670746,-0.9274971
NCI-H2369,1.7170513,-0.8747086,-0.9454118,-0.13301563,0.15514159,-1.2068485,-0.023951406,-0.75373316,-0.60547507,-0.068579465,0.6203897,0.91245174,0.4696401,-0.9756758,0.47876912,-0.55071706
KYSE-410,0.97045976,-15.787686,-10.460493,-14.926463,-7.2861805,-34.9685,38.591106,-21.308645,-32.16682,36.616474,-14.5014,7.1217937,40.042805,-43.9714,24.337246,-9.972617
CHL-1,28.174911,1.2824965,-7.9844103,8.625322,4.484449,8.764002,-39.651897,23.420753,31.903364,-42.616127,26.926939,-8.575702,-31.17742,38.52504,-26.87569,8.404551
DSH1,29.083967,4.4837074,-3.4781487,11.653984,2.2552824,4.4732857,-47.546017,29.44387,40.3503,-46.734676,31.600294,-9.370971,-31.451302,44.91586,-27.990572,9.161693
HN,17.311962,1.9213194,-2.8756983,5.546039,4.794339,6.6504674,-25.59225,11.826974,17.011356,-26.220806,17.67492,-1.6836772,-19.437725,21.44194,-15.23268,1.9565505
A-204,-1.1946559,-13.257525,-10.280802,-11.414962,-5.0595403,-25.978245,29.738506,-15.975162,-24.097988,28.0392,-11.402135,5.1462593,29.747223,-33.390236,17.566425,-5.692683
NCI-H358,30.591272,2.9701865,-6.2755814,11.465165,5.0523067,10.009725,-44.52432,26.093525,36.066868,-45.84394,29.804714,-8.577759,-33.78964,42.0112,-28.750475,8.478559
COR-L105,-0.4139939,-12.054335,-8.341887,-9.957712,-2.8017662,-22.060493,25.500055,-15.043757,-21.931961,24.215792,-9.7687,5.4069085,25.209913,-30.461437,16.488611,-6.511679
LK-2,13.69038,-1.3316376,-6.1315737,3.4629745,0.8043089,2.4269333,-15.838142,10.014917,14.23083,-18.728952,10.988533,-5.1815877,-13.287379,17.452358,-11.877254,5.3043146
NCI-H2731,6.629195,-6.997041,-8.627783,-6.5423017,1.1895084,-6.6936226,7.5396805,-9.433892,-11.688103,6.033885,-0.2450249,4.6314335,5.595527,-12.797311,3.9717445,-4.946604
NCI-N87,-0.71046436,-13.683262,-8.960385,-10.739415,-4.7204247,-27.774357,31.306404,-16.568266,-25.44144,28.99673,-12.374322,5.6812763,31.570732,-34.785652,19.158955,-6.3055506
RT-112,3.9678047,-8.130177,-4.550948,-5.6656394,0.88141596,-13.950548,16.997478,-14.659926,-19.123213,16.407473,-5.7431216,7.6733174,16.08055,-25.01661,13.059717,-9.330154
CaR-1,19.627295,1.325207,-3.646936,8.728082,5.603121,9.7013445,-27.155949,13.624379,20.359402,-27.248423,16.579132,-3.0335486,-22.19061,23.620129,-16.726692,4.4491773
KM-H2,19.492155,-1.1855972,-6.4401917,6.5536904,1.0150839,3.376211,-23.385355,15.911378,22.192505,-26.150284,14.972203,-7.680788,-18.988892,25.533684,-15.848831,7.4495025
FaDu,9.002689,2.238507,0.7656039,4.7484484,4.408009,4.6925855,-13.447861,4.476918,7.9374485,-12.292784,7.9256864,1.6278224,-9.606628,8.933806,-5.79236,-1.5659896
LOU-NH91,3.055239,-13.083326,-11.127265,-11.006424,-2.7721598,-21.758318,25.679358,-17.286047,-24.16029,23.780039,-8.34959,6.69686,24.056166,-31.753002,16.314787,-7.51306
COR-L303,24.037262,3.3102496,-3.920617,8.821766,3.39725,6.1176896,-38.70249,22.775526,31.352083,-38.895237,26.204554,-7.03254,-27.05369,35.8696,-23.594173,6.677644
NCI-H1869,37.276016,2.7381685,-9.733254,15.110987,6.671336,11.010602,-51.01199,28.939526,41.103313,-53.31879,33.415825,-8.639889,-39.655636,48.054676,-31.457373,9.406785
Huh-7,1.9892772,-0.111250006,0.614611,-0.09295822,-0.27081245,-3.0840569,-3.9990087,1.9637067,2.6265798,-3.5597777,3.9829645,-0.301651,0.14607437,2.99089,-1.8510377,-1.1200924
JHOS-3,2.359633,-10.503083,-7.2398562,-7.4375987,0.7295897,-17.939325,21.868479,-17.211708,-22.61069,20.878756,-8.205743,8.886216,20.733532,-30.800335,15.797915,-8.7776165
KYSE-30,21.65369,1.5496447,-5.030287,8.10087,3.4878578,7.15599,-31.00552,17.937017,25.510403,-32.202263,20.884655,-6.353488,-23.742796,29.486168,-19.98058,6.251473
KP-3,14.827362,-0.118876986,-4.231811,5.3448195,5.5249944,8.328732,-17.118979,6.4241714,10.620856,-18.187485,10.9124565,-0.67700547,-15.843006,13.423902,-11.743981,1.0829469
NCI-H2722,-0.29782128,-3.4972649,-2.846148,-3.6585,-2.228462,-7.8474336,7.241516,-3.0579984,-4.939071,6.6029124,-2.8318636,0.53152466,8.190864,-6.8817735,4.1791162,-0.23534591
SK-UT-1,-1.0834081,-13.133826,-10.24332,-11.231663,-5.078677,-25.610933,29.249279,-15.585236,-23.564795,27.506744,-11.223079,4.9708076,29.259764,-32.634792,17.217049,-5.4024034
BFTC-905,13.2684965,1.5171195,-2.3719258,5.9642262,3.50529,6.177828,-18.10337,8.969697,13.334582,-18.481142,11.849748,-1.8252099,-14.690527,15.745528,-11.505418,1.9211304
NCI-H209,-0.70033836,-11.628827,-9.198573,-9.432531,-4.2979827,-21.36415,24.337097,-12.834715,-19.251352,22.98464,-9.344549,4.0031924,24.209183,-27.46975,14.811539,-3.7404094
OVKATE,0.075275905,-11.7757635,-9.3973255,-8.617771,-2.5465887,-20.468172,24.826445,-15.356262,-21.473589,23.501236,-9.412118,5.923839,23.579678,-30.117783,14.92909,-5.492312
SK-NEP-1,3.3294742,-1.1627849,-2.6183157,-0.071042664,0.3010792,0.25008586,-3.0446773,1.4089773,2.1462336,-4.0330973,2.3373597,-0.9063783,-2.7616205,3.1183918,-2.8534586,0.8647697
TC-YIK,2.4751906,-8.089124,-5.882292,-5.8817563,-2.0288272,-13.517584,16.147667,-10.646361,-14.96894,15.260532,-5.4709034,4.131847,15.243637,-20.044765,10.517605,-5.189636
OAW28,1.8429233,-4.9888535,-2.9328606,-2.7445872,2.690138,-6.505661,7.5358152,-8.786953,-9.990109,7.5968566,-2.2360818,4.773654,7.4567747,-13.710599,7.435762,-5.8439527
CTV-1,-1.254566,-12.475293,-9.73585,-10.830085,-5.1477065,-24.962847,28.16663,-14.726907,-22.46566,26.450632,-10.8145685,4.6062613,28.366955,-31.064667,16.39452,-5.006014
MHH-CALL-4,-1.1972743,-13.787215,-10.680457,-11.889877,-5.293871,-27.145,31.019587,-16.612072,-25.11841,29.224352,-11.925439,5.357448,31.05095,-34.768044,18.362215,-5.926839
NCI-H23,16.591326,-1.8365214,-8.275765,1.3317816,3.6878757,4.8216305,-19.127085,9.353672,12.750101,-23.446749,13.759885,-3.7189882,-17.449364,18.778347,-14.935138,3.7634015
NCI-H1417,22.537792,3.7281945,-2.6926117,9.235326,3.811458,7.2654715,-37.031967,21.064848,29.66299,-36.391727,24.656858,-6.124387,-26.105421,33.52219,-22.13406,5.627474
RC-K8,1.5502983,-8.199778,-6.4188466,-6.959875,-2.0739236,-14.082968,16.69825,-11.026439,-15.449607,15.969459,-5.580127,4.01722,16.030394,-20.913898,10.636966,-5.250588
SNU-182,31.61162,3.2869146,-6.117435,11.514933,5.4616003,9.623023,-46.301975,26.006817,36.780445,-47.563744,31.763393,-7.8189144,-34.426266,43.007927,-29.517046,7.716211
HCC1428,36.92727,4.588353,-6.5124946,16.370872,6.1440754,11.700898,-56.514416,33.422386,46.41723,-56.287697,36.924343,-10.118813,-41.57437,52.49202,-34.553146,10.27745
HT-1080,-0.66159797,-14.253377,-10.929957,-11.6694565,-5.214327,-27.237743,31.432398,-16.960718,-25.572878,29.626987,-12.052555,5.5181556,31.142998,-35.535755,18.662264,-6.1453176
NCC021,33.829124,0.388007,-11.205978,10.837013,7.5177703,10.595343,-44.631927,23.761084,33.94982,-48.764263,29.611279,-6.9745393,-36.15086,41.970207,-28.620434,8.474753
PL-21,37.060093,1.6403189,-9.978273,11.265278,6.0150666,10.247538,-52.973824,31.363964,42.538593,-56.50972,35.49229,-11.134994,-40.787342,50.889557,-34.683624,11.133721
CMK,31.738987,1.5569563,-6.8846626,11.719466,2.4178786,6.7829347,-46.395763,30.387482,41.339718,-47.9686,30.090113,-12.008169,-33.78599,46.367085,-29.10374,11.789355
NCI-H1734,-0.52540123,-2.3654819,-0.5294039,-4.5331397,-4.2083526,-14.176269,3.4588304,-0.93591136,-1.9942554,4.8281217,0.99952835,-0.15052916,11.276056,-3.6375976,3.5659707,-1.4502779
LC-2/ad,1.3379843,-1.1444002,-0.64442754,-0.2980285,-1.6515107,-3.8750308,-0.6002907,1.6202904,1.9130573,-0.57625484,1.0205753,-1.0232325,1.6446567,1.4878665,-0.1276928,1.1157714
SK-N-MC-IXC,-1.4153625,-24.522158,-18.91023,-20.787369,-8.213945,-47.2597,54.75518,-30.714804,-45.66531,51.756226,-20.615093,10.447495,54.11434,-63.329227,32.955345,-11.942978
SW1417,32.270596,3.1776545,-6.723119,10.627878,6.044648,9.616144,-46.642136,25.406897,35.539307,-48.48272,32.74373,-6.9861207,-34.670208,42.932076,-29.752586,6.780451
PWR-1E,7.969043,-2.1868014,-4.6911016,-2.246145,5.677218,0.49268633,-2.393321,-6.1420813,-5.4117756,-4.8447185,3.1238017,5.459772,-3.7260976,-2.7592423,-0.4409501,-4.912706
DMS 79,-1.3487325,-14.223452,-9.366903,-10.944155,-4.40478,-27.671028,30.786278,-17.033909,-25.41209,29.572771,-11.887598,5.81452,31.036888,-36.516396,19.837072,-7.344833
L-428,-4.8767776,-18.477682,-19.676058,-23.53239,-10.664658,-43.97751,43.163136,-24.031954,-34.738552,41.024708,-15.283632,7.0928364,47.62084,-46.914444,22.960024,-6.6389217
SK-MES-1,10.270178,0.62897426,-2.3132057,3.026453,1.4653585,3.2748985,-15.5701,8.96544,12.795754,-15.973692,9.962671,-3.3298774,-11.722714,14.912406,-9.646577,3.1211295
KP-1N,5.4186773,-1.1690634,-3.2092142,-0.019590322,2.6128557,2.098658,-4.9796114,0.41707548,1.6095445,-6.5817304,3.7627697,0.35880926,-5.2012177,3.727248,-3.7758288,-0.15092118
KCL-22,1.0145845,-9.361403,-6.206911,-5.9842963,-3.5109754,-18.669956,18.83652,-7.710024,-13.393204,16.538519,-8.486092,2.6958892,19.402086,-18.961987,12.612171,-1.5811472
EW-18,3.9369698,-5.129605,-6.0808764,-3.3009896,-0.73454046,-7.1571283,7.0799356,-5.412611,-7.311102,5.741715,-2.1213045,2.9314344,6.070119,-9.217404,4.4943576,-1.7340004
NALM-6,-1.4731547,-13.292169,-10.301231,-11.501575,-5.1368423,-26.643309,30.3434,-16.283474,-24.621878,28.76976,-11.669605,5.3080974,30.419346,-34.29692,18.016285,-5.923731
SNU-5,12.391702,0.9117229,-3.2111247,3.4549818,1.9469403,3.6837468,-18.180508,10.026289,14.131267,-19.310553,12.934714,-3.3893178,-13.817756,17.640984,-12.3849,3.0802777
NCI-H2171,0.14000632,-13.926666,-9.362802,-10.35398,-3.4306464,-26.958609,31.64975,-19.371126,-27.762857,31.08314,-12.138733,7.575066,31.078108,-39.80053,20.609533,-8.944932
CAL-148,8.194906,-4.083305,-4.6691175,-1.6699314,7.369354,-4.769064,1.7869517,-10.409051,-10.479148,0.90120417,1.0565078,10.007466,1.9386815,-12.006299,6.867676,-8.5958605
LOX-IMVI,43.00795,3.2415245,-10.468303,14.872362,6.373925,12.719438,-60.502136,35.678127,49.2366,-63.74467,41.825523,-12.273818,-46.327045,58.020107,-40.60583,12.364443
HCC2998,-0.82814527,-9.405934,-7.4270887,-8.638218,-4.1844296,-18.640274,20.473866,-10.851372,-16.356117,19.561909,-7.57521,3.211296,20.95995,-22.96183,12.251945,-3.77571
U-87MG ATCC,2.4044554,-13.883055,-11.470323,-11.607059,-2.9876275,-23.743877,28.662893,-19.334864,-26.922382,27.076788,-9.534621,7.5884595,27.100677,-35.837536,17.564707,-9.079867
BC-1,0.7766916,-8.219378,-7.583007,-6.1977954,-3.7677665,-15.039909,16.03065,-7.4902043,-11.7032,14.5572405,-6.6397033,2.419819,15.974187,-16.921741,9.5194845,-0.9388498
COLO 680N,24.24338,3.763855,-3.4850862,11.301266,7.6837125,11.640917,-35.114563,16.572977,24.887087,-34.69861,21.820963,-2.0342624,-27.446573,28.703602,-20.052246,2.9745717
WM35,17.56217,1.8693562,-3.3319309,3.175753,1.1670225,0.881786,-25.253096,13.375446,18.659695,-26.935421,20.505548,-3.7875338,-16.5735,24.337193,-16.770473,2.4772623
ESS-1,-0.8568476,-7.377642,-5.4688525,-6.542058,-3.585256,-15.511898,16.594791,-7.931244,-12.578301,15.427036,-6.551269,2.2011545,17.274963,-17.285439,9.649955,-2.3308916
CCF-STTG1,30.929039,1.6429616,-8.491104,7.3799667,3.945548,6.6905613,-46.22474,27.249115,36.932987,-49.492928,32.57951,-10.174868,-34.235016,44.99012,-30.72402,9.425876
COR-L95,12.1424675,3.2830544,0.21230829,4.781761,2.217245,3.675461,-22.342907,12.044718,17.246033,-20.98992,14.963624,-2.7333267,-14.405168,19.312634,-12.304124,2.2707665
Evsa-T,13.421185,2.0177681,-1.7187496,6.032387,3.1062543,2.651799,-19.85561,9.840233,14.499106,-19.57234,13.019307,-0.7615148,-13.43494,17.087269,-10.380521,0.9142292
Hs 683,35.167656,3.5564144,-8.103846,11.86697,5.9050236,10.300365,-52.087147,29.57287,40.78054,-53.901375,36.144897,-8.84491,-38.799114,48.88425,-33.457348,8.813272
HSC-39,7.2098885,0.4842044,-2.2539449,0.44647843,0.7024982,-0.5954385,-11.700241,6.262447,8.881935,-12.297248,7.521427,-1.8063836,-6.8880043,9.825835,-6.649393,1.4188612
MFE-280,7.0756526,-0.4602041,-1.7184432,1.4639633,3.5490925,1.9116197,-5.0471497,-0.5417355,0.2842613,-6.1148424,2.9893446,2.540602,-5.621151,1.3591462,-2.5446384,-1.4112782
EW-16,-1.1683159,-13.373156,-10.395237,-11.542849,-5.1913667,-26.291119,30.009872,-16.022522,-24.235573,28.277971,-11.529345,5.136592,30.060728,-33.579277,17.739384,-5.635908
CAL-29,32.699146,4.7898407,-5.0161304,13.052649,10.028429,13.896771,-48.10268,22.717346,33.197296,-48.38816,31.236738,-2.7663527,-36.64099,39.957993,-27.605074,3.6842601
SJNB-14,1.7040983,-10.43351,-8.823045,-7.428276,-1.2086853,-16.636301,20.362883,-13.636578,-18.638739,19.061106,-7.2000337,5.941875,18.708267,-25.928665,12.900627,-4.869641
A-388,1.5830569,-9.344795,-6.214987,-6.7036176,-1.6956109,-16.521147,20.017094,-13.262912,-18.515617,19.259,-7.448368,5.452613,19.183678,-25.499928,13.372008,-6.2351303
A-704,0.8136179,-12.312656,-11.180112,-11.35382,-5.2817545,-21.93424,24.239506,-13.310413,-19.467606,22.191551,-8.324099,3.842458,24.139896,-26.383236,13.846918,-3.0361202
Hep 3B2.1-7,22.578302,2.8181908,-3.6354146,10.095117,4.5148053,8.408493,-34.80591,19.849081,27.891216,-34.478893,22.402475,-5.5718117,-25.699047,31.545464,-20.870659,5.884444
IST-Mes1,24.862654,1.0378882,-7.018205,5.346373,2.6478324,3.9644682,-35.554085,20.763542,28.996363,-38.681553,25.530725,-8.158512,-25.857117,35.104637,-24.184523,7.5513053
NOS-1 [Human osteosarcoma],10.358618,-0.9447542,-4.2440634,2.3312192,1.3649393,2.9242518,-12.93258,8.174459,10.856859,-14.824311,8.02826,-3.8336675,-11.11194,13.434552,-9.102248,3.9315524
SK-MEL-2,4.2921047,-11.9979925,-13.93193,-13.971378,-5.303437,-23.384064,21.781998,-13.325933,-19.922659,18.104937,-6.2474055,3.8915057,21.892448,-23.430374,11.535012,-3.6698303
CAL-85-1,0.63924944,-2.9320486,-0.9912709,-2.0384805,0.024886146,-5.200957,4.5053806,-3.342099,-3.9427574,4.6322966,-1.7694829,1.1610541,5.7438455,-5.854866,4.699489,-1.8082652
M059J,23.380016,3.1143136,-3.959345,9.43176,4.7240963,7.6525683,-35.30144,19.414274,27.21892,-35.63926,23.692974,-4.8841696,-25.91963,31.763966,-21.400362,4.9493504
SK-LMS-1,1.2223945,-1.2634419,-0.45255694,-1.9483078,-2.045707,-6.0159216,1.9870654,-1.1220546,-1.7571306,2.1866417,0.86882097,0.29271498,4.740575,-2.1482008,1.3276457,-1.4768187
NCC010,1.4195576,-12.596124,-10.578052,-9.501501,-2.843672,-20.776516,24.208584,-14.830535,-21.087072,21.914724,-8.696142,5.7173324,22.838602,-28.64991,14.922938,-5.016413
A3/Kawakami,1.9828324,-11.676242,-9.778775,-8.635476,-0.88921666,-19.562593,23.365763,-15.601209,-21.636492,21.248798,-8.976406,7.3581386,21.647615,-29.296505,15.083559,-6.015416
COLO 678,7.462975,-1.8171026,-3.6350672,0.593065,4.388325,-0.92851263,-2.3042703,-4.201576,-3.9176998,-3.142204,1.9221959,5.620203,-2.730876,-3.9529924,0.8853101,-3.9863303
Lu-134-A,7.5231504,1.3627313,2.3612738,5.0217566,4.302163,0.36012977,-8.318221,-1.3326515,0.8964379,-5.7587113,5.884816,4.8816814,-4.351457,0.98566103,-1.0498375,-6.360624
NCI-H1963,0.43015924,-11.947164,-8.758446,-7.973104,-1.1030107,-21.791403,24.788157,-15.410005,-22.028639,23.615215,-10.357431,7.3943415,24.383787,-31.602974,17.684532,-6.369431
Mel Ho,17.54085,0.69057703,-5.453748,3.4197316,1.6669515,2.3913894,-25.492365,14.89748,19.921436,-27.880266,18.31109,-5.2205296,-18.427654,24.866226,-17.096737,4.8036776
TGBC24TKB,11.02972,0.8715787,-2.5665805,3.5650442,2.8391361,3.9542134,-15.418893,6.5885954,10.463687,-15.905327,10.664656,-0.8184875,-11.606252,13.371402,-8.992742,0.79088897
SNU-449,6.001768,-0.5328032,-1.6750274,1.418456,2.494994,-0.7185149,-4.9620104,0.62905115,1.2986319,-5.230693,2.145896,2.5918748,-3.7239747,1.2760329,-0.802787,-1.0701019
KTCTL-195,4.557441,-0.73104095,-2.2035513,0.4191218,0.9234811,-0.17274246,-4.10265,0.94362825,1.7759693,-4.790505,3.352464,0.6549824,-3.0030699,2.994525,-2.0929039,-0.11241993
EW-11,31.848461,3.7661376,-5.4485064,13.869875,6.06163,10.527607,-49.233963,28.749125,40.181705,-48.99239,30.550898,-8.286597,-36.017204,45.326015,-28.363878,8.662296
NCI-H196,5.432332,-7.1583095,-5.7594004,-3.3228495,1.8334045,-9.795687,11.400963,-11.012936,-13.680093,10.536983,-3.8487337,6.7129264,9.609523,-18.550217,9.105154,-6.028626
P32/ISH,0.29437166,-7.72788,-6.450275,-5.9129453,-2.398612,-13.643706,15.533742,-8.249765,-12.371704,14.159179,-6.0946474,2.9098184,15.073233,-17.090767,9.298565,-2.1349065
EW-3,2.7910416,-6.478193,-5.395923,-3.305548,2.0074875,-9.575089,10.757129,-8.84401,-11.381933,9.083786,-4.687788,5.9393506,9.822367,-15.3207855,8.861646,-3.498961
ACHN,-0.269931,-5.5791516,-7.407762,-8.301602,-3.9814703,-12.918583,8.604928,-4.787578,-6.852313,7.885661,-2.232863,0.43693036,11.334378,-8.808589,4.0823402,-0.18677776
L-1236,20.71855,-0.52828467,-6.2017665,3.6586683,0.6682584,1.101006,-28.28854,18.409033,24.934963,-31.499678,19.939842,-8.546516,-20.201754,29.73051,-19.038128,8.039571
HSC-4,48.69329,8.045931,-5.7653427,21.645887,19.823103,25.381916,-68.84427,26.467983,42.41203,-67.45524,42.630753,2.010043,-55.059177,52.084126,-37.27686,0.4527077
CHSA0011,-1.2391573,-11.898512,-8.648796,-11.214673,-6.243246,-26.672728,26.957762,-12.554779,-20.249006,24.796736,-10.607671,3.2716522,28.84555,-27.591301,16.068245,-3.8569443
COLO 668,16.841335,2.2226067,-2.6403136,6.4550476,4.3603992,7.537018,-25.150867,13.155126,18.551405,-25.343132,16.33318,-2.9689176,-19.538933,21.999615,-15.350294,2.9971697
MS751,1.397896,-10.031809,-8.364646,-7.2194552,-1.0887674,-15.929347,18.443983,-12.148575,-16.806229,16.333086,-6.8268256,5.4966035,17.745491,-22.180294,11.149707,-4.36956
LS513,3.0721772,-8.191868,-7.5003915,-5.476309,-1.1446449,-11.686966,12.854031,-8.019253,-11.359307,10.594652,-4.6306505,3.463521,11.637904,-14.741677,8.282064,-2.0273144
NCI-H1993,45.464306,3.3762796,-12.109794,13.832013,11.951357,16.27021,-63.840656,32.140488,44.96566,-67.97848,42.12202,-6.8699,-50.774193,56.350742,-40.198906,8.39513
GT3TKB,1.1097872,-9.268944,-6.162944,-5.4288206,-1.1994544,-14.4755335,17.737007,-11.615954,-16.056103,16.678076,-6.2475414,4.677899,16.498528,-22.526989,11.3675375,-5.2423167
OACM5.1 C,-0.45325673,-16.990898,-12.4047985,-13.765111,-3.3123407,-31.907045,36.99327,-22.189651,-32.40199,34.349483,-14.193343,8.508936,35.920147,-43.61761,22.741373,-9.976137
Raji,-0.81274325,-17.426622,-13.404125,-14.756756,-5.8767905,-33.431732,38.831825,-21.905151,-32.468613,36.811493,-14.596931,7.4641175,38.362583,-45.07751,23.450594,-8.591688
KM12,1.2066116,-10.812905,-7.545932,-8.514824,-2.494593,-20.08187,23.885836,-15.153924,-21.62179,22.840925,-8.856856,6.054685,23.163376,-29.722351,15.4979515,-7.2442045
RERF-LC-Sq1,21.419937,2.0450838,-4.0454745,7.560949,3.8174949,7.28638,-32.580135,18.242847,25.94253,-33.14106,21.851564,-5.766182,-23.868992,30.064816,-20.347418,5.649815
SK-MG-1,5.886863,-0.26409596,-1.5500859,0.9738316,1.4692632,1.1721252,-5.8308086,1.2370455,2.6884596,-6.464286,5.431415,0.51248646,-4.5796895,4.366348,-4.119545,-0.9872037
Kelly,6.29226,-11.891356,-8.719335,-5.8087106,0.25512108,-18.237865,20.909426,-16.001274,-21.170177,19.358715,-7.195287,8.421333,18.912798,-28.844635,15.135661,-7.883338
HEL,2.8675358,-4.145973,-5.5596113,-3.972323,-3.467254,-11.532196,5.153538,-0.43914795,-1.0904456,2.955615,-1.2457591,-1.6620026,8.034121,-1.8537954,1.885537,3.209897
HCC44,-0.5650021,-13.081336,-9.719872,-10.952206,-6.250806,-26.70042,29.35079,-14.470196,-22.57239,27.76349,-11.628244,4.128038,30.021381,-31.928505,17.547573,-4.7286735
HuP-T3,0.87239677,-11.531905,-8.376832,-8.862262,-1.1479095,-19.314571,23.447237,-15.891136,-22.02179,22.2273,-8.264922,6.610924,22.08042,-29.929455,14.897508,-7.6688876
SJNB-17,25.685139,2.3055289,-5.8804216,10.237272,4.4182005,8.47815,-37.105007,21.867014,30.083004,-38.33555,24.270487,-6.8324976,-28.407133,34.78002,-23.673529,7.2975397
RCC10RGB,22.351858,1.9230839,-4.1167197,8.282658,3.707346,6.878652,-33.836895,19.183002,27.08207,-34.557056,23.71345,-6.1513233,-24.563646,31.585274,-21.401474,5.695025
IMR-5,1.0753062,-8.799198,-9.32447,-7.187931,-2.7243166,-15.382469,17.031178,-9.883983,-14.178125,14.984413,-6.092541,3.5266693,15.854159,-18.566967,8.733026,-1.8427372
KYSE-70,0.81377727,-6.2681637,-3.818093,-3.790505,-1.6223783,-10.6396055,12.779723,-7.2639475,-10.636697,12.043423,-5.0643015,2.7731094,12.456227,-14.941859,8.292526,-2.9373722
BT-549,10.874212,1.062115,-1.6304948,3.4888306,7.4783278,3.7748156,-13.132962,-0.9844373,2.4517066,-12.902445,8.496623,6.0173693,-10.131518,5.107818,-3.775806,-5.35089
PCI-04B,29.208189,3.478349,-4.7517977,11.394555,8.677488,13.619622,-41.72995,19.36074,29.352303,-41.800938,27.281187,-3.0410714,-32.747944,35.4131,-24.678955,3.7461493
PF-382,0.83221364,-12.384809,-8.744391,-9.829093,-3.135619,-23.372196,27.70018,-17.03403,-24.603998,26.416979,-10.397025,6.6587625,26.930458,-33.96673,17.65886,-7.8190117
CAL-33,5.091317,-5.721359,-2.4536383,-3.1994376,1.7343397,-9.037879,10.849726,-11.83427,-14.285197,11.326483,-2.8747902,6.8897486,10.292471,-19.286133,10.054197,-8.2913065
PCI-15A,49.84017,3.5232947,-12.397851,17.972878,12.161556,18.954733,-70.49491,37.78865,53.760815,-74.05619,45.843636,-10.367351,-55.4506,63.69857,-44.29084,11.915301
SU-DHL-10,-0.6790674,-10.2277155,-8.176649,-9.474265,-4.59977,-20.078619,21.905493,-11.705561,-17.553682,21.011957,-7.9522743,3.391958,22.45523,-24.707924,13.1543455,-4.1554623
ME-180,4.7686443,0.7254312,0.054624803,-0.174846,-0.6213292,-3.5233495,-7.950459,3.7641623,5.757317,-7.6455293,7.500412,-0.95499545,-1.9848865,7.4138494,-5.045419,-0.26652914
KMH-2,65.229706,2.9191496,-18.24942,22.333588,14.112258,23.176958,-86.75283,47.42367,66.52903,-93.21677,57.241318,-14.270639,-70.85787,80.661194,-57.74597,16.294735
A2780,0.83157593,-11.390727,-9.36226,-8.286627,-1.8374135,-19.874222,23.140556,-13.808837,-19.99107,21.086891,-9.181935,6.0732555,22.01357,-27.62994,14.747169,-4.7777104
SF126,-0.26317167,-7.911841,-5.441542,-6.612664,-3.172402,-15.740146,18.24172,-10.211971,-15.17535,17.61107,-6.8670254,3.3779116,18.27244,-21.252865,11.152516,-4.3548493
KMRC-1,2.3383138,-2.031328,-2.3097062,-0.77725416,0.8628024,-1.5179365,0.38499987,-1.0504961,-1.0739077,-0.78254336,0.033451587,0.72877824,0.11800811,-0.88958514,0.486909,0.18964534
UMC-11,2.9761424,-8.760965,-11.923021,-8.046628,-2.2532976,-12.913492,12.828303,-9.2157135,-12.669268,10.11685,-3.5034585,3.0923371,11.397379,-14.869582,5.0260735,-1.4576758
Panc 04.03,19.771906,1.9277719,-4.6519337,6.845268,11.532356,11.387262,-26.25791,6.0847273,11.870784,-27.734613,15.240663,3.8322382,-23.545195,17.247131,-13.341746,-2.3446217
OVMIU,0.2808751,-12.455139,-10.7987795,-9.797782,-2.6640763,-21.653519,24.47609,-14.472216,-20.798185,22.208292,-9.352755,5.773128,23.479246,-29.27475,15.205697,-4.482581
NCI-H1650,5.2251015,-0.56718457,1.1848269,-0.29139504,1.6181947,-2.5872753,-1.199007,-3.2517684,-3.0292215,-0.28838575,2.5421598,3.2164545,1.2003893,-3.5951757,2.7111106,-4.8479495
SNG-M,-1.2390195,-14.165202,-11.04207,-12.234516,-5.395414,-27.718864,31.707396,-17.053652,-25.706161,29.88109,-12.127374,5.4896584,31.7136,-35.615906,18.74673,-6.0502267
C-33 A,0.8119337,-9.649358,-5.2882066,-7.6160855,-3.6840963,-20.749859,22.834244,-12.107611,-18.8934,21.230179,-9.270328,4.441887,23.50885,-25.415707,15.03374,-5.8469706
Capan-2,24.552895,2.6468706,-5.0740943,9.5163555,4.44491,7.710888,-36.406036,20.91687,28.99253,-37.42314,24.618036,-6.2429366,-27.245895,33.73546,-22.804777,6.071476
SW684,20.434435,3.0945258,-2.655994,9.916289,4.695305,7.2456083,-30.852484,16.722654,23.947786,-30.37761,19.328508,-3.5231154,-22.658684,27.053982,-17.315704,3.9020267
RL95-2,0.5940951,-12.243076,-9.836771,-9.598354,-2.5691166,-22.078114,25.742996,-15.123089,-21.993275,23.647049,-10.058748,6.205716,24.809986,-30.196121,16.218504,-5.426111
OUMS-23,17.155054,2.49836,-2.1705682,6.903827,6.4872518,8.422868,-24.093071,9.8866205,15.256434,-24.461143,15.100783,0.01917088,-19.537281,18.775784,-13.543042,0.3504706
KNS-62,9.865642,2.5810215,0.77526355,5.394331,6.991991,5.35206,-13.033463,0.23537692,3.684855,-11.455969,7.5799866,5.535114,-10.395449,4.657644,-4.1898,-4.6456676
MG-63,22.687143,0.7530559,-5.8550334,8.405817,3.3392298,5.81592,-31.106258,18.95344,26.032555,-33.162506,20.525295,-6.468957,-23.880281,30.197777,-19.991308,7.282672
SKN-3,23.196014,2.80041,-4.235748,9.058731,2.8872063,5.9402757,-35.75464,21.568863,29.77583,-36.050503,23.643517,-7.0338697,-25.538744,33.579765,-22.048786,7.2398386
D-247MG,39.956535,3.9631946,-8.552898,11.75799,5.377879,9.791936,-61.913017,36.31797,49.76252,-63.98758,43.17615,-12.501604,-44.646015,59.08573,-39.64913,11.294415
Jiyoye,0.11311222,-11.939213,-8.871253,-8.920683,-2.1870613,-22.526226,26.870289,-16.08519,-23.248589,25.151905,-10.714348,7.0467305,26.054325,-32.419506,16.867666,-6.4706006
Karpas-45,29.71173,3.6070096,-5.673226,11.885764,4.235543,7.996844,-45.013374,26.630735,36.79186,-45.528168,30.534948,-8.208199,-32.558247,42.14909,-27.914791,7.9654727
IGR-37,3.808387,-7.8275986,-8.144103,-9.516708,-0.85947144,-13.008962,11.180231,-9.113658,-12.975555,8.7939625,-2.1978347,3.2540953,11.003962,-14.109682,7.705634,-4.215819
Loucy,-1.0372181,-13.4224415,-10.659626,-11.452913,-4.8162236,-25.760117,29.733349,-16.309925,-24.318853,28.090242,-11.320246,5.404952,29.529367,-33.811832,17.590551,-5.818851
NCI-H1836,16.539518,3.1986315,-1.1541637,7.621295,2.5378704,5.345084,-27.9052,16.239195,22.77604,-26.770454,18.32347,-4.5257535,-19.24854,25.348125,-16.283169,4.1904407
HSC-2,14.0942,0.3050068,1.0277998,4.1428466,12.191836,4.4956346,-9.382333,-10.668995,-6.894599,-7.412738,7.303234,12.5227785,-7.8692203,-6.518787,1.0716883,-14.585377
NCI-H322M,5.699484,-0.7555461,1.564728,1.5033517,6.888068,0.15602288,-0.4027997,-7.834943,-6.9945693,1.1505474,0.80430496,7.84037,0.13234168,-9.9174385,4.365934,-8.0855055
NCI-H1435,-1.1556342,-13.631346,-10.20467,-10.952402,-4.420287,-26.482613,30.754066,-17.23492,-25.41585,29.60213,-11.999033,6.123509,30.418077,-36.19759,18.982803,-6.4472427
G-401,-1.1846604,-14.086797,-11.051433,-12.117472,-5.215527,-27.337126,31.46134,-17.103567,-25.651295,29.683035,-12.004978,5.5913105,31.3556,-35.562435,18.59814,-6.1224704
PL4,11.376907,1.7577666,-0.72558546,5.271434,2.2504575,3.166476,-16.415403,8.571962,12.204997,-16.167528,10.973176,-1.4369981,-11.595804,14.262691,-9.491753,1.4182743
Hs 766T,16.469452,2.1559863,-0.28022784,4.137948,16.322485,8.743616,-17.872408,-9.264688,-4.0925775,-16.743105,11.750366,14.29359,-15.2140045,-0.12561807,-1.9217553,-15.144267
SCaBER,29.507969,4.518327,-4.6152205,13.470428,8.542944,12.362131,-43.524902,21.644009,31.737944,-43.258427,27.751593,-3.330149,-32.98584,37.05712,-24.873785,4.012087
SUIT-2,40.09845,1.4520829,-12.06786,12.03115,8.50183,13.927841,-52.999866,28.742449,39.277412,-57.85579,36.12046,-8.309895,-43.262142,49.399647,-35.894577,9.308863
Hep-G2/C3A,1.8015759,-1.8413463,-2.9432054,-2.7312992,0.047299042,-3.3936486,1.4285488,-2.0779338,-2.5277672,0.45650032,0.49381357,0.8022311,1.9725906,-2.475049,0.25647876,-0.9095246
MOG-G-UVW,17.296772,0.7617828,-5.738277,3.6472511,4.5987353,6.2881417,-23.33833,11.286392,15.554973,-25.734213,15.940338,-2.6000543,-19.752483,21.136395,-15.680735,2.8130805
NB4,45.7959,4.6799545,-8.548541,15.138827,8.343965,15.1818495,-69.40951,38.965244,54.0383,-70.9075,48.368214,-11.966082,-51.26482,63.69329,-44.301365,11.171721
SK-N-SH,-0.84220177,-10.084147,-8.863234,-10.148286,-4.8725085,-20.390463,21.618113,-11.772565,-17.448141,20.839293,-7.6671057,3.3243449,22.435165,-24.019485,12.804801,-3.791732
HCC70,28.818617,3.091482,-5.570701,10.683,4.638259,8.439253,-44.526134,26.331587,36.167324,-45.199387,29.41859,-8.514334,-32.57587,41.58698,-27.2878,8.305942
BT-474,22.42532,3.2889862,-3.4994502,9.6771,4.1371746,7.4406753,-34.2743,19.499466,27.051825,-34.11901,22.803383,-5.1439166,-25.181307,31.206413,-20.993433,5.1967564
DMS 114,15.0809555,0.31920403,-4.0572057,4.9844704,2.1525698,4.765581,-20.67758,12.070233,17.004595,-22.178452,14.474576,-4.673657,-16.329222,20.460491,-14.472828,4.107712
NCI-H441,15.952668,-1.2320651,-7.5157576,3.2226558,6.1270723,6.049882,-15.698375,3.6643999,7.671825,-19.24558,11.395566,0.44430158,-15.323492,12.844035,-11.296498,-0.016321316
SIG-M5,33.06917,-3.5866158,-15.894366,5.5911984,5.81215,7.7050943,-33.91756,18.755157,25.495642,-42.83937,21.812006,-7.629107,-32.12036,35.570496,-26.098547,9.676705
NCI-H1688,14.461438,-0.03945086,-5.3973937,3.8992043,2.9195435,4.944037,-17.345108,9.476272,12.855541,-19.764832,11.622436,-3.2168608,-15.381132,16.71194,-13.095365,4.0389094
EFO-27,1.148142,-7.171333,-4.87116,-5.164232,-1.5623981,-12.509583,15.412194,-10.077805,-14.125206,14.827343,-5.634112,4.024101,14.622157,-19.374504,9.816856,-4.7822475
KGN,-1.0802212,-13.306204,-10.193741,-11.413312,-4.9421315,-26.06815,29.988104,-16.334566,-24.53726,28.310488,-11.402481,5.312974,29.90051,-33.961147,17.818813,-5.999096
P30/OHK,-1.1281415,-14.212361,-11.210997,-12.475527,-5.1268005,-27.675756,31.697239,-17.384834,-26.028437,29.785686,-12.015554,5.7573853,31.654974,-35.824303,18.969572,-6.2349916
LB2241-RCC,2.6351726,-2.0823898,-3.502577,-3.1491039,-1.2152565,-4.065848,-1.3113695,0.83905965,0.8504274,-2.8315122,2.0326898,-1.1835275,0.3853159,2.1180437,-1.5765154,1.1590751
JHH-1,59.301373,4.6725926,-13.520921,19.798676,8.34229,15.562839,-88.98993,53.225876,72.99365,-92.27219,60.475525,-18.76243,-65.14433,84.71947,-56.91439,17.888542
LB996-RCC,-0.8928795,-10.700425,-7.7070413,-10.005017,-6.8691945,-24.267313,23.438782,-10.190354,-16.6122,22.084824,-9.118644,2.4191344,25.93877,-23.807343,14.197144,-2.254906
MMAc-SF,38.678745,2.980099,-10.134795,13.128493,10.132153,14.627558,-52.32183,25.971935,36.86041,-55.694706,35.02927,-5.0411477,-42.417236,46.56068,-33.19552,6.3613257
P31/FUJ,-0.7864357,-14.015534,-10.665778,-12.85515,-7.2555504,-30.816587,29.5168,-12.975521,-21.305157,26.408192,-12.209735,3.3821342,32.13474,-29.004822,17.707874,-3.5238667
OCI-Ly19,-0.9670484,-11.693934,-9.05055,-10.211694,-4.612916,-22.755438,25.979979,-14.150511,-21.17952,24.687613,-9.634547,4.4316363,26.01456,-29.530727,15.417733,-5.1390476
OV56,29.42567,1.5470033,-6.565591,10.592055,3.0782325,6.24602,-41.166344,25.911354,35.460556,-43.45479,28.150118,-9.709336,-30.58491,40.87154,-27.008593,9.570341
Karpas-1106P,-0.74696255,-10.489079,-8.961082,-9.358979,-4.910928,-21.149836,24.211235,-12.606144,-19.107544,23.054214,-9.169857,3.8128352,24.361542,-26.775959,13.808599,-3.5307286
HCC15,-1.5861639,-20.968206,-17.208275,-18.112158,-6.9455495,-39.353138,43.87737,-23.942879,-35.426895,40.431705,-16.137377,7.592766,43.88421,-49.122955,26.353134,-7.4151382
NCI-H1693,19.28481,2.332691,-4.1303034,7.275827,5.4636087,8.226091,-25.713615,11.12233,17.352118,-26.39067,17.512533,-0.9220839,-20.58062,21.784939,-15.756845,1.3916873
NCI-H820,2.7641647,-1.6809459,-3.3031197,-7.3021564,-5.109375,-15.164104,-4.961207,4.5954013,5.995799,-4.728383,5.499154,-2.9101999,6.73975,5.584427,-0.8063059,2.1439574
SK-LU-1,2.4532232,-0.85316825,-0.39290506,0.68828064,-1.3199376,-2.4022667,-0.16602716,0.094434924,0.31681293,0.62241644,1.1443247,0.32984433,1.368561,-0.6495264,-0.102133855,-0.27082962
SiSo,11.82436,0.25387543,-1.7383362,5.614687,-0.31009388,-1.4272718,-16.171068,11.741837,15.253964,-16.036247,10.408851,-3.438003,-9.584484,16.350536,-8.70615,4.173386
CML-T1,-1.1789792,-13.216218,-10.305141,-11.423088,-5.0663295,-25.885006,29.67066,-15.973629,-24.060764,28.007639,-11.359341,5.143801,29.671669,-33.356426,17.512367,-5.6794972
CAL-12T,5.1823397,0.4758364,2.764705,2.8849103,2.9233158,1.4410768,-3.9267647,-1.8545583,-0.40738672,-1.670813,2.7902606,3.277148,-2.102499,-1.4504763,0.48591036,-4.7822323
Daudi,37.39817,3.2140996,-8.125826,12.842159,4.5302267,9.147386,-55.25092,33.586163,46.006207,-57.373196,37.928288,-12.035922,-40.58655,53.314713,-35.834248,11.425516
Caki-1,50.929916,-0.27661347,-18.884308,13.75696,10.08597,14.9174595,-65.19962,35.76763,49.282547,-73.51816,42.917377,-11.8329115,-54.622055,63.574356,-43.916355,13.870293
NCI-H2087,10.074631,-1.2790166,-5.226537,0.7574388,6.6321774,5.239742,-8.742421,-2.1087253,0.5086212,-10.852603,6.4892936,3.4232411,-9.212615,3.122882,-5.3106446,-3.3029945
YMB-1-E,29.376024,1.2169997,-9.003894,9.264195,6.648277,10.180136,-39.58122,21.635792,29.937893,-42.998177,25.113527,-6.3239703,-32.411003,36.889088,-25.438152,7.4617853
NCI-H1838,6.5829225,-4.7184896,-4.9742,-1.9550772,5.5783324,-2.6576138,2.6726806,-9.700703,-9.237071,2.852477,1.0619544,5.9849796,1.5510426,-11.882629,3.5126162,-7.0194306
KP-N-YN,0.73027927,-11.507382,-8.766189,-8.472862,-1.6564618,-20.465815,24.32877,-15.105048,-21.537277,22.642889,-9.62128,6.7895637,23.376215,-29.91903,15.988058,-6.031163
8-MG-BA,5.1624002,-0.9042052,-0.9349861,1.2299585,3.7603786,1.1422225,-2.2815971,-3.9176588,-2.6777275,-1.9304595,2.4533255,4.0599523,-2.1905107,-2.854485,0.20027226,-4.5569663
CP67-MEL,0.5185153,-11.791976,-9.292929,-10.3386345,-3.7864432,-22.274054,25.839014,-15.756569,-22.774088,24.693909,-9.135713,5.5205994,25.311487,-31.098843,15.69814,-7.0063367
AU565,30.31539,2.6670742,-7.186643,10.86448,6.689886,10.760729,-43.544487,23.994,33.361835,-45.48016,28.871744,-6.7007747,-33.90206,39.837475,-27.58724,6.994919
D283 Med,0.78786707,-14.071225,-12.249694,-10.190353,-2.2779093,-26.738094,30.692423,-18.277138,-26.480421,27.612919,-12.474383,8.436718,29.340683,-35.484768,18.144573,-6.0012517
NUGC-4,-2.1638062,-1.2022959,-1.6695858,-5.5102572,-1.7154554,-7.040949,1.9609618,-2.5983024,-2.8056004,3.1971145,1.2671839,0.69306374,6.278903,-3.197234,1.7544142,-2.239905
NCI-H2085,17.163452,2.1454792,-3.363436,6.5530553,4.5695105,6.0122514,-25.098665,12.375568,17.814268,-25.77625,16.312752,-2.019535,-19.118847,21.605862,-14.56979,2.5470815
T-47D,21.939108,3.9556885,-3.4607058,10.3604355,8.492859,10.297969,-30.285812,11.7278595,18.787275,-30.256365,18.784033,1.4391439,-24.468477,22.843948,-16.654694,0.07311392
MZ-MEL-7,6.054952,-3.5887175,-4.525676,-2.0962257,5.0178266,-3.0213246,1.4993323,-7.2862453,-7.7985816,0.020277433,0.25971025,6.6155314,0.5886979,-8.126932,3.9050434,-5.2329187
NCI-H647,31.886778,0.37205008,-9.67625,10.624574,4.4060817,8.854204,-42.58423,26.032322,35.457184,-46.556858,29.046103,-10.378292,-34.160534,42.440178,-29.484493,10.440957
SW756,36.257797,2.705891,-9.64401,11.365603,8.19526,11.445795,-50.35659,26.022131,36.502174,-53.662083,34.167236,-6.026463,-39.112762,45.62815,-31.403442,6.68166
NCI-H378,-0.7545095,-10.26765,-7.681627,-8.266271,-3.928892,-19.288286,22.257486,-11.681757,-17.603033,21.011385,-8.709525,3.5900977,22.21777,-24.855324,13.278145,-3.696731
DK-MG,-0.7113784,-11.446828,-9.144994,-10.317091,-4.7926307,-22.132282,24.553984,-13.277057,-19.862154,23.473726,-8.990196,4.0188212,24.870197,-27.93935,14.724828,-4.779642
NB69,0.75566566,-3.8007667,-4.3267083,-4.1505218,-2.5108178,-7.9235883,5.774773,-2.6197836,-3.700172,4.9801273,-1.7951168,0.08927445,7.0011425,-4.789439,3.238595,0.8209607
TE-12,25.55371,4.4765,-2.4107492,11.162003,9.829501,13.021001,-36.682007,14.56552,22.99061,-35.723103,22.940804,0.58531874,-28.979935,27.885769,-19.914228,0.3908366
OV7,0.045140274,-12.929995,-11.176935,-11.063673,-3.6096845,-23.161802,27.600555,-17.182547,-24.25911,25.992954,-9.589266,6.1032014,26.301043,-33.125572,15.70161,-6.753807
HT-1376,63.731236,3.603706,-17.876972,20.9288,13.711244,22.703209,-85.44321,46.888924,64.73442,-91.76116,58.270008,-13.673291,-69.37897,79.80597,-57.320225,15.068043
WM1552C,1.9546764,-8.816282,-7.811356,-6.2669363,-1.5091394,-13.290102,15.082999,-9.49129,-13.292062,13.643982,-5.3904567,3.720141,13.981994,-18.551064,9.86176,-2.939718
SU-DHL-8,4.6385527,-2.640647,-1.9862187,-0.8461874,1.3846062,-3.5899768,3.1945715,-5.224735,-6.166413,3.109146,-0.32740858,4.0681014,2.9874787,-7.558805,3.9571211,-4.148322
THP-1,3.074748,-12.109137,-9.710551,-8.165456,0.9270234,-18.709078,22.112858,-16.230284,-22.053034,19.57505,-8.179996,8.272865,19.880587,-29.087246,15.304119,-7.215997
GAK,11.041237,-0.29475048,-3.9223626,0.2589852,0.0056811944,-0.8412381,-15.794427,9.642864,13.038374,-18.070602,12.096651,-4.64719,-10.682187,16.806019,-11.236152,3.8926866
AN3-CA,-0.2604814,-10.46989,-7.950013,-9.571617,-5.115336,-20.583376,21.878021,-11.09482,-17.047235,20.437689,-7.846282,2.7694182,22.638477,-23.51313,12.879307,-3.660981
SNU-16,29.102623,3.7198293,-5.0075636,10.523105,4.2017217,8.194676,-46.24427,27.409641,37.677513,-46.61182,31.147688,-8.922375,-33.028347,43.205425,-28.641457,8.277864
MOLM-16,19.514696,4.592788,-0.35089073,8.230344,2.1638231,3.0735383,-34.486534,19.878698,27.645987,-32.647526,23.350677,-4.7568784,-21.371283,31.236015,-19.0676,4.2975435
SCC-25,1.7228022,-3.1192589,-0.9556103,-0.4254628,1.9280266,-4.7395463,5.6942096,-6.197835,-7.3277707,5.976419,-2.199608,4.3718424,5.6855373,-10.310261,5.195407,-4.274215
MS-1 [Human lung carcinoma],10.92093,-16.177092,-20.4412,-10.583609,5.7569895,-17.16652,20.994286,-24.46023,-28.348194,15.523584,-4.147842,13.432869,15.198046,-33.512466,11.341632,-9.923545
EB2,37.057556,1.5335228,-9.8418865,10.899649,4.7084074,9.054438,-52.63034,31.990927,43.509834,-56.354668,36.15616,-12.451949,-40.14442,51.705208,-35.38974,11.864232
COR-L279,16.290638,2.8248665,-2.0409522,6.777604,2.3581433,4.5249553,-27.903618,16.67211,22.986025,-27.168413,17.534332,-4.814902,-19.060684,25.416893,-15.860616,4.8408804
NCI-H1770,14.981201,1.5543652,-2.7314942,6.1393704,4.3910685,5.8380194,-21.936886,10.060859,15.618057,-21.844194,13.681617,-1.5709665,-16.88688,18.61259,-11.732006,1.8021929
D-542MG,6.325106,-1.9630538,-4.1642294,-0.71092266,3.901744,1.1432257,-4.469037,-2.203267,-1.228313,-5.816334,3.8389487,2.7392495,-4.877275,0.87703884,-1.9203751,-2.1982887
A4/Fukuda,-0.7179641,-7.068265,-6.0930166,-6.8383436,-4.8569174,-15.806656,15.997483,-7.3147106,-11.560793,15.271908,-6.180532,1.9771705,17.444685,-16.259743,8.873492,-1.3343318
KMS-12-BM,0.7430492,-5.7417345,-3.5739927,-3.117306,-1.2899716,-10.6661005,11.535744,-6.95538,-10.135605,11.251517,-4.4651585,3.2859602,11.623151,-14.423593,8.075054,-3.5169773
DOV13,-0.38531184,-17.75729,-13.543686,-14.964154,-4.5053754,-32.606792,38.21658,-22.773603,-33.020657,36.08956,-13.9795065,8.154367,37.166622,-45.44884,23.51744,-9.566266
HT,2.5102348,-17.124174,-12.169909,-10.960212,-4.757333,-30.49191,35.901814,-20.380531,-30.250916,33.215485,-13.876145,7.9183135,34.37292,-41.74351,22.201784,-8.049687
Panc 03.27,22.084167,3.1748173,-3.7582965,9.421333,3.8247108,7.217541,-32.296127,17.898354,25.330292,-32.525723,22.439934,-4.6129775,-24.168938,29.550713,-20.646444,4.5141187
SUP-B8,-0.47740138,-14.640735,-10.818486,-11.353325,-5.575777,-28.117788,32.462143,-17.072023,-26.055525,30.38744,-12.643123,5.6217523,32.06148,-36.163906,19.308786,-6.0349836
P12-Ichikawa,37.33428,4.3125505,-6.891994,14.576534,4.9221516,9.10772,-56.16716,33.227386,46.017357,-56.82356,38.24597,-10.403284,-40.160908,52.756664,-34.7941,10.129775
A-673,-0.97836125,-10.536041,-7.81767,-8.191147,-3.6570802,-19.807516,23.051155,-12.414285,-18.614962,21.716038,-8.913538,4.05228,22.781464,-25.995731,13.629532,-4.3523407
KYSE-450,-0.097563036,-5.3549685,-4.6505966,-4.4994316,-1.4349482,-9.18944,11.652173,-7.6486826,-10.4097,11.331966,-4.0790153,2.8940513,11.126211,-14.480889,6.5386033,-2.765563
Calu-3,32.643303,3.2947435,-6.527614,11.975042,6.839362,10.804261,-46.505333,25.116951,35.174538,-47.82062,31.309605,-6.2735925,-35.311745,41.976715,-29.031181,7.1666374
Lu-135,1.5752344,-2.373802,-1.543452,-1.8973871,-1.7968897,-6.512743,1.789485,0.7845285,0.16287574,1.3771924,-1.216594,-0.33522403,4.4960837,-1.8380003,2.588947,0.84408194
ESO-51,13.818149,-0.51555616,-4.896778,1.8836114,0.17504972,-0.008321635,-18.659382,12.189757,16.311583,-21.069284,12.681652,-5.6320105,-13.169198,19.674774,-12.821859,5.544275
KON,18.858288,3.7992961,0.1963336,7.327343,12.619809,10.294172,-25.001207,1.1951253,7.7593875,-23.712862,15.284814,8.09615,-19.782116,12.355581,-8.534533,-8.754268
HuP-T4,31.218052,3.2132215,-6.4616427,13.028141,5.342953,10.166098,-44.23799,25.81194,35.75209,-45.406437,29.424877,-7.7014585,-33.951984,41.448006,-28.399635,8.06155
Rh30,64.88075,3.5589359,-17.59808,20.289154,11.252511,19.730131,-91.37582,52.52596,72.36784,-97.24632,62.20947,-17.693678,-70.822365,87.04619,-60.51911,17.791325
SET-2,-1.4559665,-13.041267,-7.697632,-10.929833,-5.176475,-30.781824,32.553097,-16.628052,-26.602512,30.804995,-12.966287,6.1081424,34.160572,-36.212425,20.793335,-7.432242
SK-PN-DW,-1.6356444,-21.99214,-20.40605,-25.413254,-12.655129,-49.613304,50.109184,-26.798233,-40.351337,47.344387,-17.56904,6.860669,53.757114,-55.0968,28.585028,-9.154641
HuO9,22.661013,0.72445315,-6.4901457,6.390386,4.301398,8.052129,-28.650324,16.177835,21.601786,-31.422533,20.40273,-5.394078,-24.340765,27.487236,-21.131033,5.048894
NCI-H1876,1.0658803,-4.8867936,-3.4357438,-2.5302823,-2.9026208,-10.798616,9.577383,-2.7313302,-5.809841,8.445008,-4.8388352,0.8009279,10.528638,-8.862748,6.16488,0.39543217
NCI-H1944,0.8611685,-8.258217,-6.2265964,-5.5751715,-4.22851,-17.439741,16.923948,-6.2324142,-11.131077,14.846678,-7.78781,1.9098952,17.889853,-16.062397,10.726251,-0.15461606
NCI-H2291,8.617366,0.57244194,-2.7665865,-0.5649474,0.18442658,-1.4430943,-14.286558,8.097137,11.220907,-15.779204,10.77111,-3.447162,-8.613762,14.400139,-9.381296,2.533643
OCI-AML-2,2.8567743,-8.948092,-7.2837863,-5.203331,0.4875609,-14.72761,16.591476,-11.167431,-15.52512,14.308826,-6.9379535,6.496252,15.332756,-21.088905,12.048155,-4.1600957
ESO-26,2.170667,-15.823919,-12.98971,-11.840663,-0.39727846,-24.988585,31.074009,-23.300814,-30.858988,29.733007,-10.297347,9.996275,28.297132,-42.049747,19.503199,-10.983386
IA-LM,2.332637,-4.753171,-2.0374095,-2.270963,-3.3582642,-11.059179,8.56337,-3.738326,-6.2570887,7.95462,-2.2940192,0.6536266,10.502924,-8.140498,4.7175946,-2.4646988
MeWo,-0.048864856,-11.48441,-10.438774,-10.552693,-4.4454036,-22.34484,25.615738,-14.948211,-21.434013,24.217722,-9.4593115,4.980997,25.119225,-29.162876,14.317818,-4.915629
OE33,78.867874,8.139414,-16.601711,29.517685,16.737997,28.617674,-116.05621,64.60582,90.04878,-118.723274,77.00574,-18.150436,-88.06386,105.970055,-72.803276,19.177382
EHEB,-1.2015992,-13.609304,-10.488811,-11.709933,-5.301295,-26.871525,30.615765,-16.250372,-24.669155,28.802652,-11.7991295,5.2135425,30.69344,-34.151096,18.112291,-5.7183547
G-292 clone A141B1,4.886241,-2.5026298,-2.5550907,1.3016678,5.4024754,-2.3605506,1.3406403,-5.9696846,-6.268118,-0.29129934,0.464957,5.857828,0.63067126,-6.6933413,2.1799533,-5.092847
CHSA8926,-1.0458157,-11.17036,-7.804239,-11.180455,-6.697151,-25.869001,24.818506,-11.6038,-18.626583,23.484156,-9.311261,2.8669455,27.493027,-26.095375,15.518909,-4.0908446
G-402,-2.318749,-9.125113,-9.406613,-12.096968,-4.076538,-21.446487,21.779171,-12.962587,-18.56964,20.403736,-7.3282585,4.010757,23.25419,-24.220005,11.811761,-4.496022
Jurkat E6.1,-0.54867965,-8.932781,-6.6937513,-7.0639143,-3.784578,-17.473396,19.81592,-9.961103,-15.431505,18.482397,-7.8352385,3.1117773,19.826593,-21.529556,11.504842,-3.1634438
NCI-H1437,6.190985,-2.964819,-6.8622055,-2.45413,0.42122105,-1.0067999,-3.4675963,0.55994856,1.09863,-5.2068143,3.2189584,-0.7097634,-2.9466796,2.443497,-4.3179097,1.0626998
SK-HEP-1,23.427158,1.9624286,-5.165543,6.77484,1.6206685,4.4751835,-36.13885,22.140837,30.688406,-37.38285,25.05169,-8.72409,-25.460754,35.659016,-23.32643,7.830615
GP5d,-1.1527673,-13.394343,-10.3494,-11.526228,-5.2008643,-26.344303,30.056818,-16.026663,-24.26974,28.2892,-11.545265,5.1325355,30.108494,-33.59547,17.757174,-5.6723623
NCI-H1568,1.7841346,0.7475856,2.0473037,0.25279048,0.035699412,-2.2950988,-3.429511,0.8389187,1.6008143,-2.1779869,3.4987855,0.5244041,0.37957954,1.6121275,-0.8144108,-2.0129597
PC-14,18.090841,3.4616168,-1.2936348,7.091748,3.8945847,6.6869936,-29.498745,15.406078,22.345982,-28.79497,20.117239,-3.5881782,-20.803951,25.97641,-17.401257,2.8906465
PC-3 [Human lung carcinoma],9.204359,0.13617092,-2.9604821,1.4909096,3.798461,4.4763546,-12.02498,3.929357,6.5586543,-12.666641,7.715224,-0.32069138,-10.611979,9.150777,-7.3026,-0.022645712
SNU-175,-0.7448024,-11.736393,-9.309133,-10.472187,-4.81194,-22.782076,25.357832,-13.722858,-20.545048,24.054466,-9.314295,4.2583604,25.583456,-28.813728,15.146602,-4.956913
TASK1,10.120859,-0.16312075,-3.8735788,2.9230113,3.3543062,4.4706287,-11.720809,4.7139697,7.3666725,-13.346145,7.6610026,-0.8509649,-11.117533,10.07631,-8.1191225,1.0202186
NCI-H2009,-0.091180705,-8.846968,-10.743236,-11.739849,-4.866781,-18.326317,16.429022,-10.110226,-14.4370165,15.022219,-4.5780263,2.2000697,18.189444,-18.095879,8.035549,-2.5790446
HuCC-T1,30.32972,3.9400966,-5.5839977,12.973102,6.6379375,11.342891,-43.651825,23.742147,33.69403,-44.199436,28.73804,-5.7045245,-33.485,39.198097,-26.932215,6.291508
LC-1/sq,75.72912,3.798877,-21.065683,25.821037,14.40314,24.332376,-107.05454,61.258312,84.52833,-113.30045,69.43426,-19.989725,-83.91655,101.03856,-68.455505,21.424873
SW780,6.702636,0.64987266,0.53603303,3.3381305,0.62993824,-0.9351598,-7.962249,4.037362,5.436791,-7.3783417,5.409114,0.093369685,-4.009069,6.175444,-3.4955335,-0.5362015
HT-29,29.226896,4.4795084,-3.6280663,12.339279,6.3239174,9.214647,-44.591427,22.692038,32.745785,-43.94783,30.70059,-4.293166,-31.686737,38.705215,-26.13234,4.540444
A-431,31.269094,4.526036,-4.741155,13.781601,7.500399,11.835165,-47.419014,25.281046,36.230232,-47.129295,30.600775,-5.7733326,-35.10061,41.548992,-27.710604,6.129049
CHP-126,0.6480998,-8.668209,-9.249374,-7.823369,-3.1774774,-15.252897,15.910274,-8.703997,-12.663465,13.940614,-5.747715,2.5688019,15.454514,-16.413803,8.575146,-1.092728
EMC-BAC-2,-1.6509951,-11.189851,-9.091063,-11.299423,-6.3691177,-25.825798,25.619278,-12.266083,-19.371716,24.003813,-10.006157,3.2254758,27.827942,-26.158298,14.793773,-3.4488323
201T,26.058979,3.1739151,-4.421214,9.3238535,2.3732276,5.364556,-41.3592,25.46314,34.813393,-41.865288,28.40165,-9.068895,-28.835558,39.900555,-25.853563,8.252396
ABC-1,0.34858862,-3.7101736,-1.4255266,-3.0144706,-1.9810706,-9.174144,8.88162,-3.626012,-6.2954865,8.563287,-4.040474,1.307657,10.183158,-9.20537,6.6597137,-1.4097705
ALL-PO,3.2060254,-0.4409243,-0.7725029,1.2667794,-0.4698272,-2.063423,-2.3367815,1.9083314,2.1548934,-2.3617096,1.5732994,0.123888195,-0.5189693,2.0306046,-0.8186683,0.48968637
JeKo-1,32.864456,1.2662661,-9.471068,10.894047,7.555043,12.667778,-43.26694,23.027306,32.49471,-46.798862,29.293015,-6.9425273,-35.926434,40.200138,-29.202578,7.4204473
NCI-H510A,12.768857,1.7227232,-1.9703529,5.1879706,1.2654759,3.3480475,-20.363436,12.546713,17.377548,-20.354502,13.386638,-4.367191,-14.36145,19.580898,-12.651358,4.154332
OVCA433,16.992994,0.3232029,-5.344526,4.6194053,2.3886979,4.1836534,-22.692055,12.865793,17.853619,-25.175207,16.479097,-4.6603265,-17.907007,22.334408,-15.96354,4.626016
Lu-139,21.267109,2.161679,-4.5251417,8.646061,2.938959,5.792901,-31.510227,18.765873,26.046133,-32.042477,20.329271,-5.828777,-23.222225,29.727966,-19.2413,5.94855
SK-OV-3,-0.55757153,-9.055295,-6.1001897,-6.2304473,-2.1047447,-17.23095,19.79162,-11.403382,-16.852446,18.198051,-7.6651115,4.3813515,19.530682,-22.57,11.5658655,-4.606545
HCC1954,52.655594,5.8707943,-10.020815,20.741785,9.187133,15.592324,-79.51103,46.874107,64.31454,-80.78006,52.05094,-14.176076,-58.521088,73.71569,-48.76555,14.873674
769-P,3.2038856,-12.473766,-11.017365,-9.25624,-0.5787569,-18.766228,22.074793,-14.993082,-20.549025,18.838129,-8.098526,6.9000535,19.976591,-26.681694,14.485851,-4.553357
HT-3,28.783962,4.0961285,-3.4045553,12.802181,9.184987,12.116552,-41.836388,19.259573,29.193686,-41.31675,26.014105,-2.0584104,-31.692215,34.330658,-22.634546,3.0810056
NCI-H630,14.707578,2.1559904,-1.9481978,6.1566296,4.701379,6.328525,-21.98992,9.962817,14.703424,-22.035273,14.116221,-0.8821578,-16.836739,17.878906,-12.395471,1.142606
D-245MG,27.799202,3.0981474,-6.478822,9.065876,4.681091,7.37901,-40.466393,22.139214,30.80221,-41.752052,27.782183,-5.769633,-30.313808,37.75623,-25.632006,6.0816393
PCI-06A,26.385273,3.6599398,-3.6804152,10.946499,4.747447,9.39709,-41.492783,23.695463,33.32014,-41.08673,27.484644,-7.0534916,-30.013231,37.91974,-25.211979,6.710646
DEL,34.139603,0.91575867,-10.921988,10.550449,6.7620735,10.671369,-44.9027,25.067535,34.67223,-49.457962,29.73343,-8.154434,-36.969887,43.080963,-29.966446,9.070516
NY,-0.09911146,-3.5579538,-2.762336,-2.348875,-0.37881023,-6.673429,7.6040177,-5.078589,-6.9706807,7.0903015,-2.4533892,2.22399,7.428172,-9.205623,3.6659558,-2.4070554
ES4,3.1069694,-3.3928006,-4.839931,-3.5431232,1.4202089,-2.7755113,1.2963227,-3.258001,-4.0263963,-0.077689365,0.5854407,1.4926949,0.638285,-3.3552184,0.47802755,-1.4826043
NCI-H82,5.56653,-2.1567674,-3.7813668,-0.77352434,-0.28125972,-1.3079324,-5.7077928,4.4221354,5.5082574,-7.4714856,3.258187,-2.693979,-4.243045,6.877556,-3.8706179,3.033808
NCI-H660,26.249887,2.0449111,-6.815047,9.389822,6.593899,10.076155,-35.312485,18.34168,25.845274,-37.66758,23.214197,-4.23645,-28.930426,31.768269,-22.824028,4.9804964
HT-55,6.52904,0.71821254,-1.0502391,2.191851,2.0710092,2.6351907,-9.498811,3.9463885,6.0909114,-9.89944,6.4968977,-0.31377408,-7.259211,7.914814,-5.5193973,0.21959291
EJM,17.695248,0.23394257,-4.168463,5.7690344,1.8547052,4.1921577,-24.057755,14.423612,20.265676,-25.64239,17.281378,-5.812748,-18.378422,24.302662,-16.60068,5.0088015
RD,0.53418237,-4.2594843,-4.9844484,-6.215531,-1.0845187,-8.062045,5.8194637,-4.3447967,-6.2763004,4.9090643,-1.2767146,1.0554342,6.7302923,-7.2331877,3.3231618,-1.5503491
NCI-H226,22.495296,3.7370548,-3.1910717,5.9230375,2.0274532,2.9869108,-37.859993,21.890905,30.27966,-38.194134,27.683672,-7.021005,-24.508308,36.07481,-23.547712,5.9287696
VMRC-RCW,4.2008843,-9.848123,-8.78076,-8.677403,-1.3170216,-15.757341,17.742926,-13.513052,-18.332365,15.754657,-4.928,5.7076044,16.654007,-22.547314,11.847775,-6.3542747
EW-12,2.9290228,-7.3717732,-6.2061477,-4.7857842,-0.40217674,-12.272794,14.455046,-10.35034,-14.073117,13.229632,-5.571952,5.6203866,13.532462,-19.039345,10.271127,-4.54692
SNU-C2B,-0.786019,-15.909066,-12.004238,-12.6120205,-5.030176,-29.48134,34.46695,-19.17351,-28.338352,32.370956,-13.276336,6.6100373,33.888546,-39.79065,20.759207,-6.843336
D-263MG,31.439295,3.917145,-4.685562,14.034325,5.4789767,10.489236,-46.190147,26.783365,37.50992,-46.157055,30.682924,-7.739711,-34.260277,42.771744,-28.362982,7.6379094
MCAS,32.887093,2.4067175,-8.224533,12.171439,6.311806,10.713085,-45.072094,25.661268,35.352093,-47.732193,30.290924,-7.677466,-35.59249,42.093582,-29.803057,8.559109
NCI-H345,14.3685465,0.13812661,-4.5661755,3.9272394,6.746254,7.4408154,-16.27373,3.8596644,7.5703287,-18.477192,10.670363,1.451093,-15.949301,12.288654,-10.628373,-0.55728513
