,E0,E1,E2,E3,E4,E5,E6,E7,E8,E9,E10,E11,E12,E13,E14,E15,E16,E17,E18,E19,E20,E21,E22,E23,E24,E25,E26,E27,E28,E29,E30,E31,E32,E33,E34,E35,E36,E37,E38,E39,E40,E41,E42,E43,E44,E45,E46,E47,E48,E49,E50,E51,E52,E53,E54,E55,E56,E57,E58,E59,E60,E61,E62,E63,E64,E65,E66,E67,E68,E69,E70,E71,E72,E73,E74,E75,E76,E77,E78,E79,E80,E81,E82,E83,E84,E85,E86,E87,E88,E89,E90,E91,E92,E93,E94,E95,E96,E97,E98,E99,E100,E101,E102,E103,E104,E105,E106,E107,E108,E109,E110,E111,E112,E113,E114,E115,E116,E117,E118,E119,E120,E121,E122,E123
MZ-PC-1,1.6509123,0.3440743,0.5884385,-0.72445375,1.1291038,-0.07468718,1.0170883,0.5727806,0.019548297,-0.16332209,-1.074836,-0.81120753,-0.7514661,-0.03052867,-0.49409482,-0.6239886,-0.14426705,0.26446038,1.5898354,-0.7511549,0.69235265,-0.6799704,-0.70339394,-0.8918404,-1.29159,-0.52087754,-1.2787292,-0.51813483,-1.5558785,-1.2383803,0.21867186,0.104335606,1.7977916,-0.3001256,1.2419863,0.864256,0.8142278,-0.30920807,-0.31512064,-0.20954055,0.71183896,-0.656318,1.028526,-1.3304173,0.713327,-0.24073659,-0.97121227,-0.00057897717,-1.0452894,0.12360516,0.03396692,-0.73497623,0.5406044,0.2742533,0.5171133,0.19853765,-0.47779557,-0.098098755,0.044454917,-1.0915707,-0.82407594,-0.8566908,-0.79082936,1.2095364,-0.9745512,1.0096667,0.2907073,0.19679159,1.2278483,-0.23926692,0.77898484,0.60807973,0.5939615,-0.87941134,1.324913,0.53829396,-0.87498415,-0.2178398,-0.4800282,-1.081049,0.9836657,1.108086,0.26487648,-0.20687346,-0.47459936,0.06907883,-0.25090882,0.22757322,-0.2854894,0.30659372,-1.1173201,-1.211582,0.3964636,-0.056825057,-0.42132002,0.3281895,-0.7325602,-1.1661015,1.2442467,-0.19269773,1.3291357,-0.60018915,0.88009524,-0.7157066,-0.35190368,-0.36841387,-0.23187558,0.5906259,-0.631189,-0.28311425,1.4773966,1.6037524,0.25372022,-0.6114212,-0.03063586,0.6274242,-0.87321436,-0.62507296,-0.15516868,1.0155785,0.22470057,-1.379738,0.4079377,0.1995346
BHT-101,1.0126835,0.18589596,0.4204976,-0.7410253,1.0077611,-0.41776738,0.8716024,0.50956404,-0.36891168,-0.26373997,-0.22157592,0.12649119,-0.1178934,-0.41886738,-0.49338594,-0.52645653,-0.41969293,0.02035749,0.42233732,0.00091341883,0.29134634,0.36165634,-0.30758473,-0.54871756,-0.70919394,-0.6745425,-0.56384754,-0.36259344,-0.9396545,-0.56629014,0.33574206,0.007941484,0.4484458,0.45727265,0.43008387,0.08243321,0.17526563,-0.059065178,-0.56639427,-0.50839007,-0.18986772,-0.33910927,0.15862484,-0.94180155,-0.21648519,-0.7515302,-0.44709074,0.307017,-0.8176944,0.08631102,0.08514456,-0.048126735,-0.3403095,-0.31666636,0.23656173,0.30747265,-0.14781979,-0.16495073,-0.11866276,-1.0737164,-0.7875306,-0.13002184,-0.42516166,0.13977185,-0.17581598,0.16656147,0.50852996,-0.58987963,0.7527183,0.011372626,-0.11379019,0.22792646,0.4075721,0.020041972,1.0765746,-0.08411343,-0.2803675,-0.7003176,0.27364302,0.060550988,0.31882083,0.6597988,-0.017848104,0.0071325367,-0.47053415,-0.639396,0.0674479,-0.28037435,0.37773776,-0.3481206,-0.082506895,-0.23268485,0.6020196,-0.3153029,-0.27755892,0.1802547,-0.3187647,-0.1368621,0.57975703,0.18966258,0.62154233,-0.07549249,0.15304355,-0.62607163,-0.9847449,-0.062276334,0.32264322,0.39985645,-0.38596702,0.0908892,0.53896946,0.61896235,-0.1088033,-0.18748796,-0.18793246,0.44949389,-0.51058155,0.05871567,-0.52375877,0.6159981,0.006149769,-0.7641059,0.2653036,0.059428632
PC-14,0.2387784,-0.12854569,-0.13535257,-0.41653627,0.24465027,-0.44716173,0.29286948,0.17703143,-0.26072526,0.28008536,0.08278953,0.28102824,0.45257932,0.026673371,0.03434972,-0.46449965,-0.078887165,0.343988,0.23472843,-0.077796005,0.43066615,0.4276744,0.4503093,-0.095714554,-0.21128675,-0.18566102,0.11418935,-0.39794424,-0.20078565,-0.43013498,-0.2595238,0.4745148,0.31361452,0.41321403,-0.20056856,0.14783952,0.24330737,-0.023395674,-0.3410194,-0.203165,0.0699258,-0.09424644,0.3623611,-0.4637029,-0.19375293,-0.14585815,0.49800384,0.034750067,-0.317638,0.014493558,-0.07328027,-0.06608573,-0.24455316,0.16211756,0.37518004,-0.42413092,-0.2775889,-0.28213662,0.18154742,-0.4338005,-0.47008765,-0.11223573,0.09948564,0.11386259,-0.32827988,0.15239485,0.2708997,-0.4187798,0.43563136,-0.26947525,-0.06388227,-0.08175524,0.18861517,-0.20191136,0.30478853,-0.20284978,-0.46505746,-0.2558088,0.38819814,0.3807674,-0.0011940734,0.5050262,0.25900042,-0.00014624075,-0.3358525,-0.299378,0.02262482,-0.0013026665,0.28226498,-0.07392144,-0.35450658,-0.460774,0.02495266,-0.21574478,0.40306646,0.08502818,-0.42074686,-0.30439866,0.33160913,0.3316274,0.39621475,-0.0714422,-0.039702903,-0.41272855,-0.4088838,-0.48437327,-0.2115709,0.013658732,-0.14781101,0.3095566,-0.050768737,0.20520394,0.3011847,-0.48375776,-0.034737613,-0.17006046,-0.29693654,-0.42607376,-0.01818258,0.17006847,-0.10894835,-0.04189673,-0.27252465,-0.12338978
RD,0.2387784,-0.12854569,-0.13535257,-0.41653627,0.24465027,-0.44716173,0.29286948,0.17703143,-0.26072526,0.28008536,0.08278953,0.28102824,0.45257932,0.026673371,0.03434972,-0.46449965,-0.078887165,0.343988,0.23472843,-0.077796005,0.43066615,0.4276744,0.4503093,-0.095714554,-0.21128675,-0.18566102,0.11418935,-0.39794424,-0.20078565,-0.43013498,-0.2595238,0.4745148,0.31361452,0.41321403,-0.20056856,0.14783952,0.24330737,-0.023395674,-0.3410194,-0.203165,0.0699258,-0.09424644,0.3623611,-0.4637029,-0.19375293,-0.14585815,0.49800384,0.034750067,-0.317638,0.014493558,-0.07328027,-0.06608573,-0.24455316,0.16211756,0.37518004,-0.42413092,-0.2775889,-0.28213662,0.18154742,-0.4338005,-0.47008765,-0.11223573,0.09948564,0.11386259,-0.32827988,0.15239485,0.2708997,-0.4187798,0.43563136,-0.26947525,-0.06388227,-0.08175524,0.18861517,-0.20191136,0.30478853,-0.20284978,-0.46505746,-0.2558088,0.38819814,0.3807674,-0.0011940734,0.5050262,0.25900042,-0.00014624075,-0.3358525,-0.299378,0.02262482,-0.0013026665,0.28226498,-0.07392144,-0.35450658,-0.460774,0.02495266,-0.21574478,0.40306646,0.08502818,-0.42074686,-0.30439866,0.33160913,0.3316274,0.39621475,-0.0714422,-0.039702903,-0.41272855,-0.4088838,-0.48437327,-0.2115709,0.013658732,-0.14781101,0.3095566,-0.050768737,0.20520394,0.3011847,-0.48375776,-0.034737613,-0.17006046,-0.29693654,-0.42607376,-0.01818258,0.17006847,-0.10894835,-0.04189673,-0.27252465,-0.12338978
P12-Ichikawa,1.5570328,1.0691687,0.4425872,-0.036868513,0.8336054,-0.5788985,1.9496068,-0.36966458,0.9610822,0.8736824,-1.4651445,-1.5052495,-0.23103279,0.22174078,-0.9960621,0.21787268,0.3479578,0.8229228,1.6282638,-0.42654422,-0.38580757,-0.99015844,-0.10683271,-0.48326802,-1.4307325,0.19861728,-1.1269938,-0.18164757,-1.8272638,-0.7359338,-0.44062942,1.2372255,1.9957997,-0.41140217,1.5104443,0.7984073,0.40446496,-1.4099666,0.19384432,-0.66242117,0.47408205,0.3275103,0.35555997,-0.71831155,0.3323539,0.7621151,-0.7534143,-1.1987792,-0.86391413,0.10865888,0.40170836,-0.73092645,1.8007091,-0.3863992,0.18721583,0.864614,-0.5477591,0.244973,-0.18905734,-1.4234755,-0.69205153,-0.13250607,-0.32953262,1.2463039,-0.46211615,1.3544241,1.1631223,-0.73795885,0.3181351,-1.3594666,1.948712,0.9513727,1.0230283,-1.7782959,1.4013376,0.4015679,-0.43402395,-0.075704545,0.12629366,-1.0246196,1.4299163,2.24476,0.82294,0.2850315,-0.9782519,1.6222509,0.910051,1.5971022,0.11231163,-0.05681801,-1.0480484,-0.8948179,1.1111729,0.8238664,-1.4554389,-0.025613777,-0.8822151,-0.65591586,1.0296371,0.011251003,1.3587406,0.40513128,0.7164874,-0.8246982,0.17928672,0.95750886,0.8640545,0.2557318,0.25143695,-0.41326988,1.0650874,2.0759573,0.6446963,-1.0821288,-0.54515266,0.575689,-1.1645217,-0.4938247,0.79037887,1.4591572,-0.4061457,-1.2588099,0.3202625,1.4696298
786-O,0.78635985,0.5378422,-0.11445768,-0.5594644,0.55610216,-0.7218502,1.0562018,0.07790142,0.3840716,0.41201562,-0.72592354,-0.47365168,0.06346667,-0.3985588,-0.25210086,-0.067028284,0.043918848,0.6573527,0.64624906,-0.0035448298,-0.025922775,-0.04025781,0.11232135,-0.4627126,-0.64000297,-0.26805323,-0.690477,-0.5994921,-0.9795797,-0.65662014,0.026462615,0.6369306,0.98711,-0.23554146,0.5800334,0.35497782,0.71106505,-0.69619477,-0.1168102,-0.74045295,0.16442364,0.3072254,0.49200723,-0.79692435,0.25134164,-0.03505622,-0.22593105,-0.77599096,-0.14920697,0.16386929,0.2443488,-0.36889353,0.76561326,-0.42068106,0.21702817,0.37455344,-0.8850468,-0.37143463,0.05893351,-1.0027815,-1.0374023,-0.69141954,-0.34236008,0.879488,-0.51231885,0.83619815,0.89451206,-0.21621555,0.21821895,-0.5056149,0.79567486,0.60627276,0.20603737,-0.9571346,0.8510825,0.2571382,-0.24849495,-0.56821585,0.19210476,-0.47964138,0.64292616,1.2358221,0.83441305,0.08103587,-0.48262262,0.5477234,0.090541095,0.81908375,0.6663513,-0.17553478,-0.5079681,-0.2773152,0.75729233,0.45368302,-0.51003927,-0.11885416,-0.24724156,-0.12808454,0.520638,-0.28298542,0.7857367,0.2252268,0.6507306,-0.4738307,-0.52201605,0.054614127,0.4545625,-0.28252843,0.124991104,-0.28863025,0.19507244,1.1428107,0.21460468,-0.43507078,0.16352555,0.14599794,-0.6070616,-0.030060023,0.11563265,0.8754777,-0.74117863,-0.71066844,0.11600724,0.70637006
647V,0.2387784,-0.12854569,-0.13535257,-0.41653627,0.24465027,-0.44716173,0.29286948,0.17703143,-0.26072526,0.28008536,0.08278953,0.28102824,0.45257932,0.026673371,0.03434972,-0.46449965,-0.078887165,0.343988,0.23472843,-0.077796005,0.43066615,0.4276744,0.4503093,-0.095714554,-0.21128675,-0.18566102,0.11418935,-0.39794424,-0.20078565,-0.43013498,-0.2595238,0.4745148,0.31361452,0.41321403,-0.20056856,0.14783952,0.24330737,-0.023395674,-0.3410194,-0.203165,0.0699258,-0.09424644,0.3623611,-0.4637029,-0.19375293,-0.14585815,0.49800384,0.034750067,-0.317638,0.014493558,-0.07328027,-0.06608573,-0.24455316,0.16211756,0.37518004,-0.42413092,-0.2775889,-0.28213662,0.18154742,-0.4338005,-0.47008765,-0.11223573,0.09948564,0.11386259,-0.32827988,0.15239485,0.2708997,-0.4187798,0.43563136,-0.26947525,-0.06388227,-0.08175524,0.18861517,-0.20191136,0.30478853,-0.20284978,-0.46505746,-0.2558088,0.38819814,0.3807674,-0.0011940734,0.5050262,0.25900042,-0.00014624075,-0.3358525,-0.299378,0.02262482,-0.0013026665,0.28226498,-0.07392144,-0.35450658,-0.460774,0.02495266,-0.21574478,0.40306646,0.08502818,-0.42074686,-0.30439866,0.33160913,0.3316274,0.39621475,-0.0714422,-0.039702903,-0.41272855,-0.4088838,-0.48437327,-0.2115709,0.013658732,-0.14781101,0.3095566,-0.050768737,0.20520394,0.3011847,-0.48375776,-0.034737613,-0.17006046,-0.29693654,-0.42607376,-0.01818258,0.17006847,-0.10894835,-0.04189673,-0.27252465,-0.12338978
CCF-STTG1,0.41082996,0.14401312,-0.21078096,-0.5739145,0.36750314,-0.61576074,0.5608249,0.19375467,-0.006771803,0.27865055,-0.23330963,0.039158672,0.2909813,-0.29633087,-0.0026931502,-0.2969556,-0.060689405,0.4852544,0.30142957,0.027506448,0.24326998,0.3259204,0.3042477,-0.28809774,-0.31687692,-0.30208832,-0.24679282,-0.57028353,-0.48408568,-0.5385064,-0.03453332,0.46778357,0.51577985,0.09481317,0.070839405,0.18931794,0.54022574,-0.2710195,-0.26981077,-0.50161785,0.07216456,0.116550274,0.4526546,-0.6534966,0.030853942,-0.21068917,0.19418037,-0.33160272,-0.1168153,0.10267717,0.07153458,-0.17119637,0.13292448,-0.1537898,0.29553187,-0.0746572,-0.6537239,-0.4255129,0.15474229,-0.67164207,-0.8260828,-0.5077433,-0.13797235,0.46487075,-0.43415776,0.4362703,0.56148845,-0.22975326,0.30424306,-0.2626301,0.2150062,0.23127499,0.07094112,-0.47677186,0.51040643,0.019839019,-0.32081804,-0.49882922,0.29392463,0.0069341063,0.21976845,0.737689,0.5674273,0.01141617,-0.3370483,-0.014927119,-0.06853181,0.31498832,0.5730455,-0.14652067,-0.35236073,-0.26704818,0.3602326,0.08347531,0.06337494,-0.038112395,-0.22961044,-0.12841505,0.35324743,-0.041630477,0.5147519,0.058699355,0.31801856,-0.39076656,-0.57815415,-0.33744854,0.079785064,-0.22782722,-0.022081032,0.010144711,-0.054955542,0.5598565,0.18820995,-0.35726056,0.1810461,-0.06840235,-0.37557772,-0.14296553,-0.05172496,0.4552866,-0.49793446,-0.31311288,-0.097212374,0.20018989
Loucy,0.2387784,-0.12854569,-0.13535257,-0.41653627,0.24465027,-0.44716173,0.29286948,0.17703143,-0.26072526,0.28008536,0.08278953,0.28102824,0.45257932,0.026673371,0.03434972,-0.46449965,-0.078887165,0.343988,0.23472843,-0.077796005,0.43066615,0.4276744,0.4503093,-0.095714554,-0.21128675,-0.18566102,0.11418935,-0.39794424,-0.20078565,-0.43013498,-0.2595238,0.4745148,0.31361452,0.41321403,-0.20056856,0.14783952,0.24330737,-0.023395674,-0.3410194,-0.203165,0.0699258,-0.09424644,0.3623611,-0.4637029,-0.19375293,-0.14585815,0.49800384,0.034750067,-0.317638,0.014493558,-0.07328027,-0.06608573,-0.24455316,0.16211756,0.37518004,-0.42413092,-0.2775889,-0.28213662,0.18154742,-0.4338005,-0.47008765,-0.11223573,0.09948564,0.11386259,-0.32827988,0.15239485,0.2708997,-0.4187798,0.43563136,-0.26947525,-0.06388227,-0.08175524,0.18861517,-0.20191136,0.30478853,-0.20284978,-0.46505746,-0.2558088,0.38819814,0.3807674,-0.0011940734,0.5050262,0.25900042,-0.00014624075,-0.3358525,-0.299378,0.02262482,-0.0013026665,0.28226498,-0.07392144,-0.35450658,-0.460774,0.02495266,-0.21574478,0.40306646,0.08502818,-0.42074686,-0.30439866,0.33160913,0.3316274,0.39621475,-0.0714422,-0.039702903,-0.41272855,-0.4088838,-0.48437327,-0.2115709,0.013658732,-0.14781101,0.3095566,-0.050768737,0.20520394,0.3011847,-0.48375776,-0.034737613,-0.17006046,-0.29693654,-0.42607376,-0.01818258,0.17006847,-0.10894835,-0.04189673,-0.27252465,-0.12338978
NCI-H1563,1.909178,0.525626,0.7414457,-0.621905,1.2411441,-0.048005402,1.2968177,0.47451824,0.20438051,-0.06110421,-1.3350576,-1.1337869,-0.8823673,0.08394902,-0.701884,-0.5367133,-0.06762731,0.32097614,1.8865273,-0.86525154,0.5869369,-0.9652833,-0.81190157,-0.945122,-1.5365274,-0.42819566,-1.4756199,-0.43797663,-1.8454072,-1.2964857,0.14361435,0.24299796,2.121794,-0.40537018,1.5535372,1.0028375,0.79119325,-0.5278064,-0.22750032,-0.22677606,0.80968827,-0.64262253,1.0258121,-1.3606277,0.7891739,-0.05125843,-1.1862937,-0.15291801,-1.2226425,0.12391457,0.09460021,-0.8594522,0.87127036,0.24752386,0.5042051,0.38377893,-0.44537282,0.044880807,-0.02538316,-1.2467483,-0.7918838,-0.78768605,-0.8441534,1.3785404,-0.9948157,1.2011478,0.39451402,0.10780746,1.2611951,-0.45210123,1.1289617,0.75447774,0.79731894,-1.1403941,1.5198433,0.6247401,-0.9165107,-0.12272999,-0.5348537,-1.3088975,1.2388957,1.4087919,0.30005014,-0.1605411,-0.60358393,0.38541308,-0.06454471,0.4690004,-0.40649506,0.339221,-1.2762632,-1.3660879,0.538009,0.07784994,-0.72600836,0.34398174,-0.87827134,-1.3036598,1.4029076,-0.1807122,1.516407,-0.55525523,0.9688463,-0.8105152,-0.1946752,-0.119873226,-0.093799755,0.7140026,-0.5988374,-0.36944127,1.7425568,1.9248601,0.346484,-0.76244307,-0.18212703,0.7724368,-1.0407089,-0.71298814,0.0060867034,1.2233136,0.27140033,-1.591966,0.5017355,0.44104046
IGR-1,2.5595353,0.90933233,0.87943083,-1.0134373,1.7019588,-0.081213534,1.718913,0.7486694,0.4762957,-0.34338692,-2.024879,-1.6654581,-1.519517,-0.38284367,-0.8327463,-0.49075645,-0.13464922,0.39777625,2.3660984,-0.9759121,0.5798115,-1.3775162,-1.4252975,-1.4852135,-1.97029,-0.7799594,-2.3705297,-0.74261975,-2.5686488,-1.7461462,0.66785103,-0.038302034,2.7898319,-1.0073514,2.287776,1.2767677,1.3988535,-0.7702743,-0.20214772,-0.54538435,1.0362148,-0.680533,1.4350265,-1.9475982,1.3992647,-0.30696523,-2.0400677,-0.4594356,-1.2063614,0.27115068,0.25856042,-1.1919078,1.4042786,-0.028488085,0.49171332,0.9187305,-0.97586554,-0.13389343,-0.06644021,-1.6973658,-1.3711044,-1.6181247,-1.4773426,2.145798,-1.3949469,1.767692,0.6464734,0.66627556,1.4579571,-0.27277032,1.5658203,1.3091675,0.70431995,-1.5624021,2.0729623,1.1481805,-0.9164077,-0.44315955,-0.9991493,-2.226829,1.7478868,1.7205042,0.6161009,-0.2777057,-0.5733595,0.6341175,-0.42946973,0.74379545,-0.25911543,0.41096592,-1.5085251,-1.385261,0.97368556,0.3806997,-1.2548263,0.30912018,-0.70395696,-1.406171,1.7307868,-0.84265757,1.9390776,-0.68969303,1.7217355,-0.856042,-0.47122598,-0.08891791,0.11505397,0.62336993,-0.707834,-0.90879357,2.2474706,2.7232862,0.13142926,-0.5702293,0.16958234,1.1452863,-1.2693361,-0.42818996,-0.21371514,1.7738463,-0.03712809,-2.351264,0.9395457,0.7672581
ST486,0.2387784,-0.12854569,-0.13535257,-0.41653627,0.24465027,-0.44716173,0.29286948,0.17703143,-0.26072526,0.28008536,0.08278953,0.28102824,0.45257932,0.026673371,0.03434972,-0.46449965,-0.078887165,0.343988,0.23472843,-0.077796005,0.43066615,0.4276744,0.4503093,-0.095714554,-0.21128675,-0.18566102,0.11418935,-0.39794424,-0.20078565,-0.43013498,-0.2595238,0.4745148,0.31361452,0.41321403,-0.20056856,0.14783952,0.24330737,-0.023395674,-0.3410194,-0.203165,0.0699258,-0.09424644,0.3623611,-0.4637029,-0.19375293,-0.14585815,0.49800384,0.034750067,-0.317638,0.014493558,-0.07328027,-0.06608573,-0.24455316,0.16211756,0.37518004,-0.42413092,-0.2775889,-0.28213662,0.18154742,-0.4338005,-0.47008765,-0.11223573,0.09948564,0.11386259,-0.32827988,0.15239485,0.2708997,-0.4187798,0.43563136,-0.26947525,-0.06388227,-0.08175524,0.18861517,-0.20191136,0.30478853,-0.20284978,-0.46505746,-0.2558088,0.38819814,0.3807674,-0.0011940734,0.5050262,0.25900042,-0.00014624075,-0.3358525,-0.299378,0.02262482,-0.0013026665,0.28226498,-0.07392144,-0.35450658,-0.460774,0.02495266,-0.21574478,0.40306646,0.08502818,-0.42074686,-0.30439866,0.33160913,0.3316274,0.39621475,-0.0714422,-0.039702903,-0.41272855,-0.4088838,-0.48437327,-0.2115709,0.013658732,-0.14781101,0.3095566,-0.050768737,0.20520394,0.3011847,-0.48375776,-0.034737613,-0.17006046,-0.29693654,-0.42607376,-0.01818258,0.17006847,-0.10894835,-0.04189673,-0.27252465,-0.12338978
SW1783,0.2580393,-0.09803316,-0.14379665,-0.4341545,0.25840345,-0.46603614,0.32286668,0.17890356,-0.23229557,0.27992472,0.047402732,0.2539513,0.43448868,-0.009486442,0.03020283,-0.44574335,-0.07684995,0.35980254,0.24219552,-0.06600756,0.40968746,0.41628322,0.43395793,-0.117251545,-0.2231074,-0.19869487,0.073777966,-0.41723734,-0.23250064,-0.442267,-0.23433648,0.47376126,0.3362466,0.37756956,-0.17018487,0.15248296,0.2765469,-0.051116765,-0.3330477,-0.23657632,0.07017642,-0.07064808,0.3724693,-0.48495,-0.16860855,-0.15311588,0.46399128,-0.0062625483,-0.29515624,0.024365574,-0.057068475,-0.0778527,-0.20229514,0.12675223,0.36626354,-0.3850079,-0.3196966,-0.29818738,0.17854662,-0.46042648,-0.50994074,-0.15651217,0.0729026,0.1531574,-0.34013274,0.18417425,0.30343068,-0.39761856,0.42092264,-0.26870894,-0.032661147,-0.046712004,0.17544174,-0.23268156,0.32780713,-0.17792012,-0.4489101,-0.28301454,0.37764436,0.33891737,0.023542332,0.53107244,0.29352832,0.0011481529,-0.33598638,-0.2675342,0.01241998,0.034105606,0.3148174,-0.08204881,-0.35426635,-0.4390867,0.062486716,-0.18224756,0.3650385,0.07124279,-0.39934945,-0.28469756,0.3340315,0.28984177,0.4094848,-0.05687306,0.0003434457,-0.41026995,-0.42783335,-0.46792528,-0.17895406,-0.013375238,-0.13373575,0.27603793,-0.05123744,0.24490672,0.28853738,-0.4695966,-0.010580968,-0.15867999,-0.3057403,-0.39438024,-0.021937596,0.20199819,-0.15249473,-0.07225895,-0.25289872,-0.08716555
KP-N-RT-BM-1,0.4735636,-0.13668762,0.003527373,-0.5951774,0.4603886,-0.3533096,0.3049107,0.389193,-0.3673872,0.02683872,-0.017581858,0.25493684,0.19620731,-0.09551015,0.000843402,-0.5947528,-0.19510648,0.22961983,0.3679492,-0.1627821,0.5792239,0.36605322,0.1664213,-0.29110092,-0.34643647,-0.3867349,-0.13310012,-0.46873358,-0.3825034,-0.5962758,-0.033729374,0.22157118,0.43959627,0.3482023,-0.024834126,0.21249102,0.3691404,0.09027062,-0.4341672,-0.19827288,0.12792462,-0.2959997,0.5010793,-0.6977215,-0.045689568,-0.37817872,0.20871651,0.2086887,-0.44458768,0.041761015,-0.0878283,-0.12878421,-0.3446337,0.18585397,0.41261816,-0.35604876,-0.30172312,-0.3168764,0.1677011,-0.5338092,-0.5868749,-0.31753367,-0.12372451,0.23229583,-0.44890168,0.19835165,0.19642565,-0.23295715,0.66067195,-0.06786282,-0.14919516,-0.012486935,0.17337671,-0.12283191,0.48486134,-0.088356465,-0.52992666,-0.3467005,0.20548955,0.18231297,0.07014282,0.42458963,0.17184594,-0.08813396,-0.28835997,-0.5136162,-0.17465375,-0.18992507,0.21338004,-0.027032137,-0.39567152,-0.52584684,0.04603035,-0.31837314,0.37971744,0.15761665,-0.3955274,-0.41581818,0.46903634,0.20903167,0.50501114,-0.25281,0.11391525,-0.44427553,-0.56459504,-0.609386,-0.28798229,0.13419098,-0.33481967,0.22844793,0.20384261,0.32930994,0.18186453,-0.3790074,0.043047998,-0.01609379,-0.33280846,-0.38070515,-0.23110683,0.25061953,-0.008983374,-0.27732107,-0.1258395,-0.23534027
SHP-77,0.3863486,-0.18009837,-0.0483606,-0.5415681,0.3696821,-0.34522918,0.23647258,0.34346858,-0.3602102,0.09641299,0.023639075,0.2705367,0.26625538,-0.017256042,0.053025458,-0.592693,-0.15221334,0.26178926,0.35751662,-0.18416485,0.60057074,0.36490354,0.25847825,-0.22880308,-0.29496425,-0.3171178,-0.041845478,-0.45745164,-0.29435557,-0.57617545,-0.12154007,0.28451946,0.428346,0.357531,-0.09853402,0.22463313,0.35671306,0.09745483,-0.40741068,-0.1454423,0.16278182,-0.27914262,0.51819193,-0.6312618,-0.053627536,-0.29291844,0.3264675,0.19098887,-0.40830138,0.0278789,-0.11177906,-0.1307433,-0.33873498,0.25920588,0.43269876,-0.45255882,-0.29147142,-0.31362402,0.20032513,-0.4530499,-0.5258217,-0.28621966,-0.050226204,0.2160501,-0.46045056,0.18918541,0.1568821,-0.23062015,0.6329695,-0.11313447,-0.14149174,-0.060121983,0.1664465,-0.14582041,0.39264736,-0.11177847,-0.5621458,-0.27472675,0.22247487,0.23115754,0.032893926,0.40885574,0.18694904,-0.08678126,-0.27991453,-0.47397384,-0.1631892,-0.1634565,0.17808878,0.01067391,-0.4355835,-0.572242,-0.03389185,-0.31772834,0.46308377,0.15478492,-0.4271527,-0.45298868,0.44695252,0.2498366,0.48121804,-0.25715423,0.07349883,-0.42597365,-0.4783856,-0.653258,-0.35995698,0.11069608,-0.31251442,0.2680238,0.14911902,0.27623546,0.2417793,-0.42970648,0.038792524,-0.08684188,-0.31211933,-0.4592184,-0.16095954,0.19223714,0.003947437,-0.18742725,-0.19445625,-0.26300526
NCI-H292,1.909178,0.525626,0.7414457,-0.621905,1.2411441,-0.048005402,1.2968177,0.47451824,0.20438051,-0.06110421,-1.3350576,-1.1337869,-0.8823673,0.08394902,-0.701884,-0.5367133,-0.06762731,0.32097614,1.8865273,-0.86525154,0.5869369,-0.9652833,-0.81190157,-0.945122,-1.5365274,-0.42819566,-1.4756199,-0.43797663,-1.8454072,-1.2964857,0.14361435,0.24299796,2.121794,-0.40537018,1.5535372,1.0028375,0.79119325,-0.5278064,-0.22750032,-0.22677606,0.80968827,-0.64262253,1.0258121,-1.3606277,0.7891739,-0.05125843,-1.1862937,-0.15291801,-1.2226425,0.12391457,0.09460021,-0.8594522,0.87127036,0.24752386,0.5042051,0.38377893,-0.44537282,0.044880807,-0.02538316,-1.2467483,-0.7918838,-0.78768605,-0.8441534,1.3785404,-0.9948157,1.2011478,0.39451402,0.10780746,1.2611951,-0.45210123,1.1289617,0.75447774,0.79731894,-1.1403941,1.5198433,0.6247401,-0.9165107,-0.12272999,-0.5348537,-1.3088975,1.2388957,1.4087919,0.30005014,-0.1605411,-0.60358393,0.38541308,-0.06454471,0.4690004,-0.40649506,0.339221,-1.2762632,-1.3660879,0.538009,0.07784994,-0.72600836,0.34398174,-0.87827134,-1.3036598,1.4029076,-0.1807122,1.516407,-0.55525523,0.9688463,-0.8105152,-0.1946752,-0.119873226,-0.093799755,0.7140026,-0.5988374,-0.36944127,1.7425568,1.9248601,0.346484,-0.76244307,-0.18212703,0.7724368,-1.0407089,-0.71298814,0.0060867034,1.2233136,0.27140033,-1.591966,0.5017355,0.44104046
HCC1806,1.5136139,0.39700478,0.680972,-0.20713502,0.90566444,-0.07303351,1.2028292,0.11860244,0.18639624,0.31374022,-0.9686855,-0.94626904,-0.3957234,0.5075433,-0.7456656,-0.43614966,0.071320504,0.3525641,1.649372,-0.7885499,0.4220125,-0.8064393,-0.325111,-0.5138886,-1.325325,-0.043173492,-0.8664705,-0.13884333,-1.4513534,-0.9234425,-0.3560819,0.6428634,1.7737035,-0.010456026,1.1595571,0.84476554,0.27944112,-0.5640875,-0.15121943,-0.049785078,0.65048593,-0.491314,0.6387334,-0.86100876,0.31782156,0.33387434,-0.60709345,-0.12704435,-1.2826549,0.0123108355,0.03991855,-0.6595387,0.75360614,0.36414415,0.4690269,0.13661641,-0.044917375,0.2754506,-0.050030783,-1.0108129,-0.33098412,-0.053971,-0.33711863,0.8763097,-0.64272296,0.89442384,0.35139537,-0.4558435,1.0185827,-0.8033947,1.0798563,0.43875262,0.9977989,-1.0350987,1.1924129,0.25144717,-0.8801471,0.17081562,-0.13717687,-0.7060923,1.0122769,1.429859,0.1445787,0.0039251363,-0.7369472,0.5094534,0.41982213,0.52223045,-0.51642454,0.25499272,-1.1568791,-1.374481,0.3536542,0.009825781,-0.57426697,0.33390188,-1.0834563,-1.2200544,1.1946399,0.3426328,1.2777785,-0.31705326,0.42191863,-0.8267282,0.13698173,0.11300212,-0.06457059,0.7900115,-0.39923537,-0.016130269,1.4202224,1.5110612,0.5901813,-1.0214621,-0.56566,0.5447132,-0.97050405,-0.94442034,0.34649208,0.9467341,0.444656,-1.0937725,0.20112818,0.4440164
MHH-CALL-2,1.7893672,0.6452441,1.041228,0.41482532,0.88464665,0.037676096,1.7205535,-0.39570543,0.5324033,0.8461609,-1.2166644,-1.509533,-0.29360044,1.228037,-1.2762972,-0.20928085,0.35706884,0.46204457,2.1779304,-1.052104,0.10986513,-1.3522339,-0.1735771,-0.25031292,-1.7310834,0.5167876,-0.7600919,0.34721145,-1.7632394,-0.7469547,-0.99929994,1.285763,2.2355013,0.14556164,1.5302436,1.0524123,-0.27178502,-1.0362145,0.09474036,0.15270406,0.7717596,-0.42414004,0.308752,-0.49048033,0.06769438,1.1128999,-0.5894927,-0.3446565,-1.8402654,-0.10361275,0.09374908,-0.7771422,1.337766,0.50473183,0.44102472,0.27633226,0.4762035,0.85410887,-0.23037575,-1.1270119,0.22712141,0.8135751,8.709729e-06,0.784877,-0.38960424,1.0297872,0.46517277,-1.1675706,0.96909714,-1.5927789,1.8000467,0.44531307,1.6930174,-1.495583,1.350359,0.10141888,-1.0097595,0.7162249,0.060471237,-0.6758682,1.3883015,2.0985508,-0.0014070868,0.23657922,-1.1539016,1.2740216,1.2752581,1.0373279,-1.0064853,0.2998637,-1.4600693,-1.834559,0.4380059,0.17778327,-1.0832393,0.4117837,-1.6679163,-1.5629452,1.4217457,0.90413094,1.5160898,-0.07753898,0.09684478,-1.0807073,0.83604753,0.84380585,0.18739517,1.2419538,-0.21789162,0.14823875,1.8342324,1.8590457,1.0434536,-1.6348137,-1.3069158,0.6934375,-1.3009932,-1.4408387,1.0107541,1.1441553,0.8360579,-1.1419787,0.1414091,0.91900915
SiHa,0.4735636,-0.13668762,0.003527373,-0.5951774,0.4603886,-0.3533096,0.3049107,0.389193,-0.3673872,0.02683872,-0.017581858,0.25493684,0.19620731,-0.09551015,0.000843402,-0.5947528,-0.19510648,0.22961983,0.3679492,-0.1627821,0.5792239,0.36605322,0.1664213,-0.29110092,-0.34643647,-0.3867349,-0.13310012,-0.46873358,-0.3825034,-0.5962758,-0.033729374,0.22157118,0.43959627,0.3482023,-0.024834126,0.21249102,0.3691404,0.09027062,-0.4341672,-0.19827288,0.12792462,-0.2959997,0.5010793,-0.6977215,-0.045689568,-0.37817872,0.20871651,0.2086887,-0.44458768,0.041761015,-0.0878283,-0.12878421,-0.3446337,0.18585397,0.41261816,-0.35604876,-0.30172312,-0.3168764,0.1677011,-0.5338092,-0.5868749,-0.31753367,-0.12372451,0.23229583,-0.44890168,0.19835165,0.19642565,-0.23295715,0.66067195,-0.06786282,-0.14919516,-0.012486935,0.17337671,-0.12283191,0.48486134,-0.088356465,-0.52992666,-0.3467005,0.20548955,0.18231297,0.07014282,0.42458963,0.17184594,-0.08813396,-0.28835997,-0.5136162,-0.17465375,-0.18992507,0.21338004,-0.027032137,-0.39567152,-0.52584684,0.04603035,-0.31837314,0.37971744,0.15761665,-0.3955274,-0.41581818,0.46903634,0.20903167,0.50501114,-0.25281,0.11391525,-0.44427553,-0.56459504,-0.609386,-0.28798229,0.13419098,-0.33481967,0.22844793,0.20384261,0.32930994,0.18186453,-0.3790074,0.043047998,-0.01609379,-0.33280846,-0.38070515,-0.23110683,0.25061953,-0.008983374,-0.27732107,-0.1258395,-0.23534027
C32 [Human melanoma],1.757549,1.0758635,0.04016678,-1.302434,1.2891066,-0.78129333,1.6004311,0.6239022,0.7238921,-0.1523611,-1.7518549,-1.187242,-0.9660383,-1.2663614,-0.34856617,-0.057109833,-0.12504613,0.74389696,1.3008885,-0.13732508,0.04631281,-0.5795109,-0.890815,-1.3665929,-1.2425822,-0.93831295,-2.115295,-1.173005,-2.0492733,-1.4054434,0.98043853,0.051715136,1.9450513,-1.2039227,1.6563909,0.7481501,1.7728422,-0.96309936,-0.13430154,-1.2648294,0.5032604,0.21111101,1.2094986,-1.798666,1.2617468,-0.6015545,-1.5719074,-1.1868223,-0.027381033,0.41584036,0.4822513,-0.86848205,1.4633753,-0.8619471,0.21076849,1.1705883,-1.8085172,-0.7647003,0.033075258,-1.6793184,-2.0489361,-2.1672254,-1.4066892,2.0969386,-1.1976693,1.6905353,1.246804,0.810654,0.55810726,-0.053946078,1.3204826,1.4653744,-0.076100945,-1.5124205,1.6870103,1.1076065,-0.23590836,-1.172336,-0.5860656,-1.9243653,1.3610479,1.574741,1.3419355,-0.15686144,-0.3472803,0.7601992,-0.6648073,1.122138,0.9759046,-0.06218928,-0.81867564,-0.23204833,1.4066215,0.87568337,-1.2204831,-0.17870772,0.13525486,-0.23938668,0.9985131,-1.4265101,1.4039645,-0.053796127,1.8929396,-0.49648342,-1.0949172,-0.062207162,0.7087551,-0.4978706,-0.100593865,-1.1599486,0.92138934,2.318726,-0.2140091,-0.011289388,0.8613694,0.70442194,-0.8981291,0.5025554,-0.3724351,1.6910408,-1.279488,-1.8943344,0.8147847,1.099711
NCI-H747,0.3527795,-0.0017291605,-0.1567403,-0.5189389,0.32975802,-0.5124055,0.41646695,0.21677975,-0.15226333,0.2447469,-0.086703785,0.15789047,0.33651015,-0.14340995,0.019313872,-0.4047341,-0.083592296,0.39925957,0.29128507,-0.045095675,0.36881804,0.36487108,0.34098482,-0.21717085,-0.27995235,-0.268761,-0.09604869,-0.49549085,-0.36033642,-0.51194835,-0.12081078,0.4353314,0.43651098,0.24322128,-0.045379445,0.18309194,0.41341877,-0.12465976,-0.31786254,-0.34178972,0.088549346,-0.023501955,0.436964,-0.5903593,-0.05482839,-0.20605294,0.31347662,-0.119319,-0.23412824,0.061190527,-0.007994331,-0.1309261,-0.07321441,0.022169188,0.3461232,-0.25442654,-0.4686237,-0.35989338,0.1716592,-0.55657125,-0.6589222,-0.3431518,-0.04768335,0.30895483,-0.40622988,0.30153173,0.39497423,-0.2886248,0.40701026,-0.23657821,0.061193638,0.07912927,0.12548995,-0.32902548,0.42434937,-0.074132085,-0.4111031,-0.38111132,0.30973694,0.16530284,0.1159183,0.6034477,0.3999207,-0.010683768,-0.32590798,-0.1897963,-0.058061868,0.12657392,0.40829057,-0.09434368,-0.36871356,-0.38474068,0.18181382,-0.085078284,0.24421646,0.036491282,-0.32620788,-0.24424997,0.3641891,0.12923405,0.4716158,-0.041254267,0.16082828,-0.4042236,-0.5067769,-0.4426064,-0.093590036,-0.089019164,-0.11587314,0.15174317,-0.015189946,0.3962493,0.2333949,-0.4102033,0.08721483,-0.10345107,-0.33919218,-0.29050303,-0.061896536,0.31712192,-0.28252473,-0.20518816,-0.16999026,0.012386113
NCI-H510A,0.2387784,-0.12854569,-0.13535257,-0.41653627,0.24465027,-0.44716173,0.29286948,0.17703143,-0.26072526,0.28008536,0.08278953,0.28102824,0.45257932,0.026673371,0.03434972,-0.46449965,-0.078887165,0.343988,0.23472843,-0.077796005,0.43066615,0.4276744,0.4503093,-0.095714554,-0.21128675,-0.18566102,0.11418935,-0.39794424,-0.20078565,-0.43013498,-0.2595238,0.4745148,0.31361452,0.41321403,-0.20056856,0.14783952,0.24330737,-0.023395674,-0.3410194,-0.203165,0.0699258,-0.09424644,0.3623611,-0.4637029,-0.19375293,-0.14585815,0.49800384,0.034750067,-0.317638,0.014493558,-0.07328027,-0.06608573,-0.24455316,0.16211756,0.37518004,-0.42413092,-0.2775889,-0.28213662,0.18154742,-0.4338005,-0.47008765,-0.11223573,0.09948564,0.11386259,-0.32827988,0.15239485,0.2708997,-0.4187798,0.43563136,-0.26947525,-0.06388227,-0.08175524,0.18861517,-0.20191136,0.30478853,-0.20284978,-0.46505746,-0.2558088,0.38819814,0.3807674,-0.0011940734,0.5050262,0.25900042,-0.00014624075,-0.3358525,-0.299378,0.02262482,-0.0013026665,0.28226498,-0.07392144,-0.35450658,-0.460774,0.02495266,-0.21574478,0.40306646,0.08502818,-0.42074686,-0.30439866,0.33160913,0.3316274,0.39621475,-0.0714422,-0.039702903,-0.41272855,-0.4088838,-0.48437327,-0.2115709,0.013658732,-0.14781101,0.3095566,-0.050768737,0.20520394,0.3011847,-0.48375776,-0.034737613,-0.17006046,-0.29693654,-0.42607376,-0.01818258,0.17006847,-0.10894835,-0.04189673,-0.27252465,-0.12338978
A-704,0.4735636,-0.13668762,0.003527373,-0.5951774,0.4603886,-0.3533096,0.3049107,0.389193,-0.3673872,0.02683872,-0.017581858,0.25493684,0.19620731,-0.09551015,0.000843402,-0.5947528,-0.19510648,0.22961983,0.3679492,-0.1627821,0.5792239,0.36605322,0.1664213,-0.29110092,-0.34643647,-0.3867349,-0.13310012,-0.46873358,-0.3825034,-0.5962758,-0.033729374,0.22157118,0.43959627,0.3482023,-0.024834126,0.21249102,0.3691404,0.09027062,-0.4341672,-0.19827288,0.12792462,-0.2959997,0.5010793,-0.6977215,-0.045689568,-0.37817872,0.20871651,0.2086887,-0.44458768,0.041761015,-0.0878283,-0.12878421,-0.3446337,0.18585397,0.41261816,-0.35604876,-0.30172312,-0.3168764,0.1677011,-0.5338092,-0.5868749,-0.31753367,-0.12372451,0.23229583,-0.44890168,0.19835165,0.19642565,-0.23295715,0.66067195,-0.06786282,-0.14919516,-0.012486935,0.17337671,-0.12283191,0.48486134,-0.088356465,-0.52992666,-0.3467005,0.20548955,0.18231297,0.07014282,0.42458963,0.17184594,-0.08813396,-0.28835997,-0.5136162,-0.17465375,-0.18992507,0.21338004,-0.027032137,-0.39567152,-0.52584684,0.04603035,-0.31837314,0.37971744,0.15761665,-0.3955274,-0.41581818,0.46903634,0.20903167,0.50501114,-0.25281,0.11391525,-0.44427553,-0.56459504,-0.609386,-0.28798229,0.13419098,-0.33481967,0.22844793,0.20384261,0.32930994,0.18186453,-0.3790074,0.043047998,-0.01609379,-0.33280846,-0.38070515,-0.23110683,0.25061953,-0.008983374,-0.27732107,-0.1258395,-0.23534027
Panc 08.13,2.0460486,0.47201794,0.64909977,-1.1388326,1.4642779,-0.049239933,1.1104106,0.9286548,0.036901236,-0.53816295,-1.4404223,-0.99812424,-1.2377083,-0.45331997,-0.4502211,-0.7249688,-0.2832601,0.23252122,1.8268249,-0.8281183,0.8577429,-0.8385614,-1.1898214,-1.3225955,-1.5025299,-0.90561026,-1.8869812,-0.8168397,-1.949228,-1.6111541,0.7178088,-0.29551306,2.1453795,-0.69424814,1.6352917,1.0222249,1.3252418,-0.27231136,-0.39157856,-0.38578957,0.87103575,-0.8081506,1.4153802,-1.8295643,1.184121,-0.6257082,-1.5496572,-0.02554188,-0.9857763,0.23498967,0.08828857,-0.9346284,0.6573302,0.15841837,0.5524895,0.44483137,-0.87731594,-0.3283121,0.06916918,-1.3269149,-1.2840906,-1.5894227,-1.2972738,1.7108945,-1.3263807,1.3156849,0.33310354,0.75997263,1.4707873,0.112009525,0.8273969,0.9230265,0.393774,-0.98402345,1.6518323,0.9110333,-0.9117063,-0.5107813,-0.8774706,-1.6829247,1.209735,1.0864404,0.41958117,-0.37136844,-0.34123316,-0.05566868,-0.735049,0.17355686,-0.17628285,0.39100248,-1.2367096,-1.2036705,0.57998484,0.010455236,-0.5722169,0.33857548,-0.5278505,-1.2501444,1.4524605,-0.71511483,1.5674695,-0.83871466,1.4261336,-0.6995481,-0.6831398,-0.60165447,-0.26182908,0.5152173,-0.83110356,-0.6356809,1.7997415,2.0166698,0.010303795,-0.3527167,0.3523607,0.85489506,-0.9432236,-0.39434454,-0.49549067,1.2914491,0.052411914,-1.8772572,0.7081092,0.19575423
KYSE-270,0.2387784,-0.12854569,-0.13535257,-0.41653627,0.24465027,-0.44716173,0.29286948,0.17703143,-0.26072526,0.28008536,0.08278953,0.28102824,0.45257932,0.026673371,0.03434972,-0.46449965,-0.078887165,0.343988,0.23472843,-0.077796005,0.43066615,0.4276744,0.4503093,-0.095714554,-0.21128675,-0.18566102,0.11418935,-0.39794424,-0.20078565,-0.43013498,-0.2595238,0.4745148,0.31361452,0.41321403,-0.20056856,0.14783952,0.24330737,-0.023395674,-0.3410194,-0.203165,0.0699258,-0.09424644,0.3623611,-0.4637029,-0.19375293,-0.14585815,0.49800384,0.034750067,-0.317638,0.014493558,-0.07328027,-0.06608573,-0.24455316,0.16211756,0.37518004,-0.42413092,-0.2775889,-0.28213662,0.18154742,-0.4338005,-0.47008765,-0.11223573,0.09948564,0.11386259,-0.32827988,0.15239485,0.2708997,-0.4187798,0.43563136,-0.26947525,-0.06388227,-0.08175524,0.18861517,-0.20191136,0.30478853,-0.20284978,-0.46505746,-0.2558088,0.38819814,0.3807674,-0.0011940734,0.5050262,0.25900042,-0.00014624075,-0.3358525,-0.299378,0.02262482,-0.0013026665,0.28226498,-0.07392144,-0.35450658,-0.460774,0.02495266,-0.21574478,0.40306646,0.08502818,-0.42074686,-0.30439866,0.33160913,0.3316274,0.39621475,-0.0714422,-0.039702903,-0.41272855,-0.4088838,-0.48437327,-0.2115709,0.013658732,-0.14781101,0.3095566,-0.050768737,0.20520394,0.3011847,-0.48375776,-0.034737613,-0.17006046,-0.29693654,-0.42607376,-0.01818258,0.17006847,-0.10894835,-0.04189673,-0.27252465,-0.12338978
SW756,0.7711081,-0.108379886,0.06886889,-0.8747537,0.68147445,-0.25757092,0.29620793,0.6675421,-0.39036608,-0.25067326,-0.28371894,0.10088959,-0.18507218,-0.30020314,0.065273434,-0.73050284,-0.27914703,0.19439018,0.63028616,-0.31940594,0.8046995,0.18353826,-0.19360247,-0.5988649,-0.51811266,-0.63703877,-0.55962855,-0.67640316,-0.64626586,-0.9185928,0.27795333,-0.07776657,0.76986873,0.055282414,0.26196218,0.3950802,0.7544496,0.17180394,-0.48842546,-0.22157615,0.3391899,-0.49702853,0.86786115,-1.0646912,0.34966487,-0.6102787,-0.18511593,0.25847086,-0.4547517,0.107750475,-0.09461098,-0.31774464,-0.28235465,0.24645539,0.4917605,-0.28959382,-0.55070615,-0.46181512,0.21910904,-0.6367084,-0.8514613,-0.8592276,-0.47955084,0.62615806,-0.7751802,0.43443102,0.12203485,0.24116325,0.9235115,0.18578792,-0.11496464,0.17461964,0.0517461,-0.2104111,0.68565816,0.19786522,-0.65576756,-0.46096954,-0.14830631,-0.2824784,0.23406224,0.37175465,0.24225557,-0.24291186,-0.17522009,-0.626806,-0.5699073,-0.27310783,0.16191009,0.12513918,-0.58707273,-0.66230375,0.06294704,-0.32454473,0.36572188,0.20996404,-0.32079116,-0.6240141,0.6777669,-0.13561317,0.71488786,-0.52655506,0.5085269,-0.43733037,-0.7142735,-0.8805422,-0.45910865,0.1439639,-0.5450505,0.004212737,0.5232856,0.6298769,0.05980462,-0.24944457,0.31109485,0.13300508,-0.38946602,-0.34626648,-0.45085868,0.41075447,-0.02429068,-0.6297885,0.06132239,-0.3256585
ABC-1,0.2387784,-0.12854569,-0.13535257,-0.41653627,0.24465027,-0.44716173,0.29286948,0.17703143,-0.26072526,0.28008536,0.08278953,0.28102824,0.45257932,0.026673371,0.03434972,-0.46449965,-0.078887165,0.343988,0.23472843,-0.077796005,0.43066615,0.4276744,0.4503093,-0.095714554,-0.21128675,-0.18566102,0.11418935,-0.39794424,-0.20078565,-0.43013498,-0.2595238,0.4745148,0.31361452,0.41321403,-0.20056856,0.14783952,0.24330737,-0.023395674,-0.3410194,-0.203165,0.0699258,-0.09424644,0.3623611,-0.4637029,-0.19375293,-0.14585815,0.49800384,0.034750067,-0.317638,0.014493558,-0.07328027,-0.06608573,-0.24455316,0.16211756,0.37518004,-0.42413092,-0.2775889,-0.28213662,0.18154742,-0.4338005,-0.47008765,-0.11223573,0.09948564,0.11386259,-0.32827988,0.15239485,0.2708997,-0.4187798,0.43563136,-0.26947525,-0.06388227,-0.08175524,0.18861517,-0.20191136,0.30478853,-0.20284978,-0.46505746,-0.2558088,0.38819814,0.3807674,-0.0011940734,0.5050262,0.25900042,-0.00014624075,-0.3358525,-0.299378,0.02262482,-0.0013026665,0.28226498,-0.07392144,-0.35450658,-0.460774,0.02495266,-0.21574478,0.40306646,0.08502818,-0.42074686,-0.30439866,0.33160913,0.3316274,0.39621475,-0.0714422,-0.039702903,-0.41272855,-0.4088838,-0.48437327,-0.2115709,0.013658732,-0.14781101,0.3095566,-0.050768737,0.20520394,0.3011847,-0.48375776,-0.034737613,-0.17006046,-0.29693654,-0.42607376,-0.01818258,0.17006847,-0.10894835,-0.04189673,-0.27252465,-0.12338978
LN-405,0.2580393,-0.09803316,-0.14379665,-0.4341545,0.25840345,-0.46603614,0.32286668,0.17890356,-0.23229557,0.27992472,0.047402732,0.2539513,0.43448868,-0.009486442,0.03020283,-0.44574335,-0.07684995,0.35980254,0.24219552,-0.06600756,0.40968746,0.41628322,0.43395793,-0.117251545,-0.2231074,-0.19869487,0.073777966,-0.41723734,-0.23250064,-0.442267,-0.23433648,0.47376126,0.3362466,0.37756956,-0.17018487,0.15248296,0.2765469,-0.051116765,-0.3330477,-0.23657632,0.07017642,-0.07064808,0.3724693,-0.48495,-0.16860855,-0.15311588,0.46399128,-0.0062625483,-0.29515624,0.024365574,-0.057068475,-0.0778527,-0.20229514,0.12675223,0.36626354,-0.3850079,-0.3196966,-0.29818738,0.17854662,-0.46042648,-0.50994074,-0.15651217,0.0729026,0.1531574,-0.34013274,0.18417425,0.30343068,-0.39761856,0.42092264,-0.26870894,-0.032661147,-0.046712004,0.17544174,-0.23268156,0.32780713,-0.17792012,-0.4489101,-0.28301454,0.37764436,0.33891737,0.023542332,0.53107244,0.29352832,0.0011481529,-0.33598638,-0.2675342,0.01241998,0.034105606,0.3148174,-0.08204881,-0.35426635,-0.4390867,0.062486716,-0.18224756,0.3650385,0.07124279,-0.39934945,-0.28469756,0.3340315,0.28984177,0.4094848,-0.05687306,0.0003434457,-0.41026995,-0.42783335,-0.46792528,-0.17895406,-0.013375238,-0.13373575,0.27603793,-0.05123744,0.24490672,0.28853738,-0.4695966,-0.010580968,-0.15867999,-0.3057403,-0.39438024,-0.021937596,0.20199819,-0.15249473,-0.07225895,-0.25289872,-0.08716555
KYSE-140,1.5136139,0.39700478,0.680972,-0.20713502,0.90566444,-0.07303351,1.2028292,0.11860244,0.18639624,0.31374022,-0.9686855,-0.94626904,-0.3957234,0.5075433,-0.7456656,-0.43614966,0.071320504,0.3525641,1.649372,-0.7885499,0.4220125,-0.8064393,-0.325111,-0.5138886,-1.325325,-0.043173492,-0.8664705,-0.13884333,-1.4513534,-0.9234425,-0.3560819,0.6428634,1.7737035,-0.010456026,1.1595571,0.84476554,0.27944112,-0.5640875,-0.15121943,-0.049785078,0.65048593,-0.491314,0.6387334,-0.86100876,0.31782156,0.33387434,-0.60709345,-0.12704435,-1.2826549,0.0123108355,0.03991855,-0.6595387,0.75360614,0.36414415,0.4690269,0.13661641,-0.044917375,0.2754506,-0.050030783,-1.0108129,-0.33098412,-0.053971,-0.33711863,0.8763097,-0.64272296,0.89442384,0.35139537,-0.4558435,1.0185827,-0.8033947,1.0798563,0.43875262,0.9977989,-1.0350987,1.1924129,0.25144717,-0.8801471,0.17081562,-0.13717687,-0.7060923,1.0122769,1.429859,0.1445787,0.0039251363,-0.7369472,0.5094534,0.41982213,0.52223045,-0.51642454,0.25499272,-1.1568791,-1.374481,0.3536542,0.009825781,-0.57426697,0.33390188,-1.0834563,-1.2200544,1.1946399,0.3426328,1.2777785,-0.31705326,0.42191863,-0.8267282,0.13698173,0.11300212,-0.06457059,0.7900115,-0.39923537,-0.016130269,1.4202224,1.5110612,0.5901813,-1.0214621,-0.56566,0.5447132,-0.97050405,-0.94442034,0.34649208,0.9467341,0.444656,-1.0937725,0.20112818,0.4440164
A3/Kawakami,1.909178,0.525626,0.7414457,-0.621905,1.2411441,-0.048005402,1.2968177,0.47451824,0.20438051,-0.06110421,-1.3350576,-1.1337869,-0.8823673,0.08394902,-0.701884,-0.5367133,-0.06762731,0.32097614,1.8865273,-0.86525154,0.5869369,-0.9652833,-0.81190157,-0.945122,-1.5365274,-0.42819566,-1.4756199,-0.43797663,-1.8454072,-1.2964857,0.14361435,0.24299796,2.121794,-0.40537018,1.5535372,1.0028375,0.79119325,-0.5278064,-0.22750032,-0.22677606,0.80968827,-0.64262253,1.0258121,-1.3606277,0.7891739,-0.05125843,-1.1862937,-0.15291801,-1.2226425,0.12391457,0.09460021,-0.8594522,0.87127036,0.24752386,0.5042051,0.38377893,-0.44537282,0.044880807,-0.02538316,-1.2467483,-0.7918838,-0.78768605,-0.8441534,1.3785404,-0.9948157,1.2011478,0.39451402,0.10780746,1.2611951,-0.45210123,1.1289617,0.75447774,0.79731894,-1.1403941,1.5198433,0.6247401,-0.9165107,-0.12272999,-0.5348537,-1.3088975,1.2388957,1.4087919,0.30005014,-0.1605411,-0.60358393,0.38541308,-0.06454471,0.4690004,-0.40649506,0.339221,-1.2762632,-1.3660879,0.538009,0.07784994,-0.72600836,0.34398174,-0.87827134,-1.3036598,1.4029076,-0.1807122,1.516407,-0.55525523,0.9688463,-0.8105152,-0.1946752,-0.119873226,-0.093799755,0.7140026,-0.5988374,-0.36944127,1.7425568,1.9248601,0.346484,-0.76244307,-0.18212703,0.7724368,-1.0407089,-0.71298814,0.0060867034,1.2233136,0.27140033,-1.591966,0.5017355,0.44104046
SBC-1,0.2580393,-0.09803316,-0.14379665,-0.4341545,0.25840345,-0.46603614,0.32286668,0.17890356,-0.23229557,0.27992472,0.047402732,0.2539513,0.43448868,-0.009486442,0.03020283,-0.44574335,-0.07684995,0.35980254,0.24219552,-0.06600756,0.40968746,0.41628322,0.43395793,-0.117251545,-0.2231074,-0.19869487,0.073777966,-0.41723734,-0.23250064,-0.442267,-0.23433648,0.47376126,0.3362466,0.37756956,-0.17018487,0.15248296,0.2765469,-0.051116765,-0.3330477,-0.23657632,0.07017642,-0.07064808,0.3724693,-0.48495,-0.16860855,-0.15311588,0.46399128,-0.0062625483,-0.29515624,0.024365574,-0.057068475,-0.0778527,-0.20229514,0.12675223,0.36626354,-0.3850079,-0.3196966,-0.29818738,0.17854662,-0.46042648,-0.50994074,-0.15651217,0.0729026,0.1531574,-0.34013274,0.18417425,0.30343068,-0.39761856,0.42092264,-0.26870894,-0.032661147,-0.046712004,0.17544174,-0.23268156,0.32780713,-0.17792012,-0.4489101,-0.28301454,0.37764436,0.33891737,0.023542332,0.53107244,0.29352832,0.0011481529,-0.33598638,-0.2675342,0.01241998,0.034105606,0.3148174,-0.08204881,-0.35426635,-0.4390867,0.062486716,-0.18224756,0.3650385,0.07124279,-0.39934945,-0.28469756,0.3340315,0.28984177,0.4094848,-0.05687306,0.0003434457,-0.41026995,-0.42783335,-0.46792528,-0.17895406,-0.013375238,-0.13373575,0.27603793,-0.05123744,0.24490672,0.28853738,-0.4695966,-0.010580968,-0.15867999,-0.3057403,-0.39438024,-0.021937596,0.20199819,-0.15249473,-0.07225895,-0.25289872,-0.08716555
K-562,1.5136139,0.39700478,0.680972,-0.20713502,0.90566444,-0.07303351,1.2028292,0.11860244,0.18639624,0.31374022,-0.9686855,-0.94626904,-0.3957234,0.5075433,-0.7456656,-0.43614966,0.071320504,0.3525641,1.649372,-0.7885499,0.4220125,-0.8064393,-0.325111,-0.5138886,-1.325325,-0.043173492,-0.8664705,-0.13884333,-1.4513534,-0.9234425,-0.3560819,0.6428634,1.7737035,-0.010456026,1.1595571,0.84476554,0.27944112,-0.5640875,-0.15121943,-0.049785078,0.65048593,-0.491314,0.6387334,-0.86100876,0.31782156,0.33387434,-0.60709345,-0.12704435,-1.2826549,0.0123108355,0.03991855,-0.6595387,0.75360614,0.36414415,0.4690269,0.13661641,-0.044917375,0.2754506,-0.050030783,-1.0108129,-0.33098412,-0.053971,-0.33711863,0.8763097,-0.64272296,0.89442384,0.35139537,-0.4558435,1.0185827,-0.8033947,1.0798563,0.43875262,0.9977989,-1.0350987,1.1924129,0.25144717,-0.8801471,0.17081562,-0.13717687,-0.7060923,1.0122769,1.429859,0.1445787,0.0039251363,-0.7369472,0.5094534,0.41982213,0.52223045,-0.51642454,0.25499272,-1.1568791,-1.374481,0.3536542,0.009825781,-0.57426697,0.33390188,-1.0834563,-1.2200544,1.1946399,0.3426328,1.2777785,-0.31705326,0.42191863,-0.8267282,0.13698173,0.11300212,-0.06457059,0.7900115,-0.39923537,-0.016130269,1.4202224,1.5110612,0.5901813,-1.0214621,-0.56566,0.5447132,-0.97050405,-0.94442034,0.34649208,0.9467341,0.444656,-1.0937725,0.20112818,0.4440164
Lu-135,0.2387784,-0.12854569,-0.13535257,-0.41653627,0.24465027,-0.44716173,0.29286948,0.17703143,-0.26072526,0.28008536,0.08278953,0.28102824,0.45257932,0.026673371,0.03434972,-0.46449965,-0.078887165,0.343988,0.23472843,-0.077796005,0.43066615,0.4276744,0.4503093,-0.095714554,-0.21128675,-0.18566102,0.11418935,-0.39794424,-0.20078565,-0.43013498,-0.2595238,0.4745148,0.31361452,0.41321403,-0.20056856,0.14783952,0.24330737,-0.023395674,-0.3410194,-0.203165,0.0699258,-0.09424644,0.3623611,-0.4637029,-0.19375293,-0.14585815,0.49800384,0.034750067,-0.317638,0.014493558,-0.07328027,-0.06608573,-0.24455316,0.16211756,0.37518004,-0.42413092,-0.2775889,-0.28213662,0.18154742,-0.4338005,-0.47008765,-0.11223573,0.09948564,0.11386259,-0.32827988,0.15239485,0.2708997,-0.4187798,0.43563136,-0.26947525,-0.06388227,-0.08175524,0.18861517,-0.20191136,0.30478853,-0.20284978,-0.46505746,-0.2558088,0.38819814,0.3807674,-0.0011940734,0.5050262,0.25900042,-0.00014624075,-0.3358525,-0.299378,0.02262482,-0.0013026665,0.28226498,-0.07392144,-0.35450658,-0.460774,0.02495266,-0.21574478,0.40306646,0.08502818,-0.42074686,-0.30439866,0.33160913,0.3316274,0.39621475,-0.0714422,-0.039702903,-0.41272855,-0.4088838,-0.48437327,-0.2115709,0.013658732,-0.14781101,0.3095566,-0.050768737,0.20520394,0.3011847,-0.48375776,-0.034737613,-0.17006046,-0.29693654,-0.42607376,-0.01818258,0.17006847,-0.10894835,-0.04189673,-0.27252465,-0.12338978
RS4;11,1.909178,0.525626,0.7414457,-0.621905,1.2411441,-0.048005402,1.2968177,0.47451824,0.20438051,-0.06110421,-1.3350576,-1.1337869,-0.8823673,0.08394902,-0.701884,-0.5367133,-0.06762731,0.32097614,1.8865273,-0.86525154,0.5869369,-0.9652833,-0.81190157,-0.945122,-1.5365274,-0.42819566,-1.4756199,-0.43797663,-1.8454072,-1.2964857,0.14361435,0.24299796,2.121794,-0.40537018,1.5535372,1.0028375,0.79119325,-0.5278064,-0.22750032,-0.22677606,0.80968827,-0.64262253,1.0258121,-1.3606277,0.7891739,-0.05125843,-1.1862937,-0.15291801,-1.2226425,0.12391457,0.09460021,-0.8594522,0.87127036,0.24752386,0.5042051,0.38377893,-0.44537282,0.044880807,-0.02538316,-1.2467483,-0.7918838,-0.78768605,-0.8441534,1.3785404,-0.9948157,1.2011478,0.39451402,0.10780746,1.2611951,-0.45210123,1.1289617,0.75447774,0.79731894,-1.1403941,1.5198433,0.6247401,-0.9165107,-0.12272999,-0.5348537,-1.3088975,1.2388957,1.4087919,0.30005014,-0.1605411,-0.60358393,0.38541308,-0.06454471,0.4690004,-0.40649506,0.339221,-1.2762632,-1.3660879,0.538009,0.07784994,-0.72600836,0.34398174,-0.87827134,-1.3036598,1.4029076,-0.1807122,1.516407,-0.55525523,0.9688463,-0.8105152,-0.1946752,-0.119873226,-0.093799755,0.7140026,-0.5988374,-0.36944127,1.7425568,1.9248601,0.346484,-0.76244307,-0.18212703,0.7724368,-1.0407089,-0.71298814,0.0060867034,1.2233136,0.27140033,-1.591966,0.5017355,0.44104046
TC-YIK,0.2387784,-0.12854569,-0.13535257,-0.41653627,0.24465027,-0.44716173,0.29286948,0.17703143,-0.26072526,0.28008536,0.08278953,0.28102824,0.45257932,0.026673371,0.03434972,-0.46449965,-0.078887165,0.343988,0.23472843,-0.077796005,0.43066615,0.4276744,0.4503093,-0.095714554,-0.21128675,-0.18566102,0.11418935,-0.39794424,-0.20078565,-0.43013498,-0.2595238,0.4745148,0.31361452,0.41321403,-0.20056856,0.14783952,0.24330737,-0.023395674,-0.3410194,-0.203165,0.0699258,-0.09424644,0.3623611,-0.4637029,-0.19375293,-0.14585815,0.49800384,0.034750067,-0.317638,0.014493558,-0.07328027,-0.06608573,-0.24455316,0.16211756,0.37518004,-0.42413092,-0.2775889,-0.28213662,0.18154742,-0.4338005,-0.47008765,-0.11223573,0.09948564,0.11386259,-0.32827988,0.15239485,0.2708997,-0.4187798,0.43563136,-0.26947525,-0.06388227,-0.08175524,0.18861517,-0.20191136,0.30478853,-0.20284978,-0.46505746,-0.2558088,0.38819814,0.3807674,-0.0011940734,0.5050262,0.25900042,-0.00014624075,-0.3358525,-0.299378,0.02262482,-0.0013026665,0.28226498,-0.07392144,-0.35450658,-0.460774,0.02495266,-0.21574478,0.40306646,0.08502818,-0.42074686,-0.30439866,0.33160913,0.3316274,0.39621475,-0.0714422,-0.039702903,-0.41272855,-0.4088838,-0.48437327,-0.2115709,0.013658732,-0.14781101,0.3095566,-0.050768737,0.20520394,0.3011847,-0.48375776,-0.034737613,-0.17006046,-0.29693654,-0.42607376,-0.01818258,0.17006847,-0.10894835,-0.04189673,-0.27252465,-0.12338978
HCC1937,0.2387784,-0.12854569,-0.13535257,-0.41653627,0.24465027,-0.44716173,0.29286948,0.17703143,-0.26072526,0.28008536,0.08278953,0.28102824,0.45257932,0.026673371,0.03434972,-0.46449965,-0.078887165,0.343988,0.23472843,-0.077796005,0.43066615,0.4276744,0.4503093,-0.095714554,-0.21128675,-0.18566102,0.11418935,-0.39794424,-0.20078565,-0.43013498,-0.2595238,0.4745148,0.31361452,0.41321403,-0.20056856,0.14783952,0.24330737,-0.023395674,-0.3410194,-0.203165,0.0699258,-0.09424644,0.3623611,-0.4637029,-0.19375293,-0.14585815,0.49800384,0.034750067,-0.317638,0.014493558,-0.07328027,-0.06608573,-0.24455316,0.16211756,0.37518004,-0.42413092,-0.2775889,-0.28213662,0.18154742,-0.4338005,-0.47008765,-0.11223573,0.09948564,0.11386259,-0.32827988,0.15239485,0.2708997,-0.4187798,0.43563136,-0.26947525,-0.06388227,-0.08175524,0.18861517,-0.20191136,0.30478853,-0.20284978,-0.46505746,-0.2558088,0.38819814,0.3807674,-0.0011940734,0.5050262,0.25900042,-0.00014624075,-0.3358525,-0.299378,0.02262482,-0.0013026665,0.28226498,-0.07392144,-0.35450658,-0.460774,0.02495266,-0.21574478,0.40306646,0.08502818,-0.42074686,-0.30439866,0.33160913,0.3316274,0.39621475,-0.0714422,-0.039702903,-0.41272855,-0.4088838,-0.48437327,-0.2115709,0.013658732,-0.14781101,0.3095566,-0.050768737,0.20520394,0.3011847,-0.48375776,-0.034737613,-0.17006046,-0.29693654,-0.42607376,-0.01818258,0.17006847,-0.10894835,-0.04189673,-0.27252465,-0.12338978
SNU-5,1.5136139,0.39700478,0.680972,-0.20713502,0.90566444,-0.07303351,1.2028292,0.11860244,0.18639624,0.31374022,-0.9686855,-0.94626904,-0.3957234,0.5075433,-0.7456656,-0.43614966,0.071320504,0.3525641,1.649372,-0.7885499,0.4220125,-0.8064393,-0.325111,-0.5138886,-1.325325,-0.043173492,-0.8664705,-0.13884333,-1.4513534,-0.9234425,-0.3560819,0.6428634,1.7737035,-0.010456026,1.1595571,0.84476554,0.27944112,-0.5640875,-0.15121943,-0.049785078,0.65048593,-0.491314,0.6387334,-0.86100876,0.31782156,0.33387434,-0.60709345,-0.12704435,-1.2826549,0.0123108355,0.03991855,-0.6595387,0.75360614,0.36414415,0.4690269,0.13661641,-0.044917375,0.2754506,-0.050030783,-1.0108129,-0.33098412,-0.053971,-0.33711863,0.8763097,-0.64272296,0.89442384,0.35139537,-0.4558435,1.0185827,-0.8033947,1.0798563,0.43875262,0.9977989,-1.0350987,1.1924129,0.25144717,-0.8801471,0.17081562,-0.13717687,-0.7060923,1.0122769,1.429859,0.1445787,0.0039251363,-0.7369472,0.5094534,0.41982213,0.52223045,-0.51642454,0.25499272,-1.1568791,-1.374481,0.3536542,0.009825781,-0.57426697,0.33390188,-1.0834563,-1.2200544,1.1946399,0.3426328,1.2777785,-0.31705326,0.42191863,-0.8267282,0.13698173,0.11300212,-0.06457059,0.7900115,-0.39923537,-0.016130269,1.4202224,1.5110612,0.5901813,-1.0214621,-0.56566,0.5447132,-0.97050405,-0.94442034,0.34649208,0.9467341,0.444656,-1.0937725,0.20112818,0.4440164
ECC4,0.3863486,-0.18009837,-0.0483606,-0.5415681,0.3696821,-0.34522918,0.23647258,0.34346858,-0.3602102,0.09641299,0.023639075,0.2705367,0.26625538,-0.017256042,0.053025458,-0.592693,-0.15221334,0.26178926,0.35751662,-0.18416485,0.60057074,0.36490354,0.25847825,-0.22880308,-0.29496425,-0.3171178,-0.041845478,-0.45745164,-0.29435557,-0.57617545,-0.12154007,0.28451946,0.428346,0.357531,-0.09853402,0.22463313,0.35671306,0.09745483,-0.40741068,-0.1454423,0.16278182,-0.27914262,0.51819193,-0.6312618,-0.053627536,-0.29291844,0.3264675,0.19098887,-0.40830138,0.0278789,-0.11177906,-0.1307433,-0.33873498,0.25920588,0.43269876,-0.45255882,-0.29147142,-0.31362402,0.20032513,-0.4530499,-0.5258217,-0.28621966,-0.050226204,0.2160501,-0.46045056,0.18918541,0.1568821,-0.23062015,0.6329695,-0.11313447,-0.14149174,-0.060121983,0.1664465,-0.14582041,0.39264736,-0.11177847,-0.5621458,-0.27472675,0.22247487,0.23115754,0.032893926,0.40885574,0.18694904,-0.08678126,-0.27991453,-0.47397384,-0.1631892,-0.1634565,0.17808878,0.01067391,-0.4355835,-0.572242,-0.03389185,-0.31772834,0.46308377,0.15478492,-0.4271527,-0.45298868,0.44695252,0.2498366,0.48121804,-0.25715423,0.07349883,-0.42597365,-0.4783856,-0.653258,-0.35995698,0.11069608,-0.31251442,0.2680238,0.14911902,0.27623546,0.2417793,-0.42970648,0.038792524,-0.08684188,-0.31211933,-0.4592184,-0.16095954,0.19223714,0.003947437,-0.18742725,-0.19445625,-0.26300526
HT-1376,0.2387784,-0.12854569,-0.13535257,-0.41653627,0.24465027,-0.44716173,0.29286948,0.17703143,-0.26072526,0.28008536,0.08278953,0.28102824,0.45257932,0.026673371,0.03434972,-0.46449965,-0.078887165,0.343988,0.23472843,-0.077796005,0.43066615,0.4276744,0.4503093,-0.095714554,-0.21128675,-0.18566102,0.11418935,-0.39794424,-0.20078565,-0.43013498,-0.2595238,0.4745148,0.31361452,0.41321403,-0.20056856,0.14783952,0.24330737,-0.023395674,-0.3410194,-0.203165,0.0699258,-0.09424644,0.3623611,-0.4637029,-0.19375293,-0.14585815,0.49800384,0.034750067,-0.317638,0.014493558,-0.07328027,-0.06608573,-0.24455316,0.16211756,0.37518004,-0.42413092,-0.2775889,-0.28213662,0.18154742,-0.4338005,-0.47008765,-0.11223573,0.09948564,0.11386259,-0.32827988,0.15239485,0.2708997,-0.4187798,0.43563136,-0.26947525,-0.06388227,-0.08175524,0.18861517,-0.20191136,0.30478853,-0.20284978,-0.46505746,-0.2558088,0.38819814,0.3807674,-0.0011940734,0.5050262,0.25900042,-0.00014624075,-0.3358525,-0.299378,0.02262482,-0.0013026665,0.28226498,-0.07392144,-0.35450658,-0.460774,0.02495266,-0.21574478,0.40306646,0.08502818,-0.42074686,-0.30439866,0.33160913,0.3316274,0.39621475,-0.0714422,-0.039702903,-0.41272855,-0.4088838,-0.48437327,-0.2115709,0.013658732,-0.14781101,0.3095566,-0.050768737,0.20520394,0.3011847,-0.48375776,-0.034737613,-0.17006046,-0.29693654,-0.42607376,-0.01818258,0.17006847,-0.10894835,-0.04189673,-0.27252465,-0.12338978
ACHN,1.909178,0.525626,0.7414457,-0.621905,1.2411441,-0.048005402,1.2968177,0.47451824,0.20438051,-0.06110421,-1.3350576,-1.1337869,-0.8823673,0.08394902,-0.701884,-0.5367133,-0.06762731,0.32097614,1.8865273,-0.86525154,0.5869369,-0.9652833,-0.81190157,-0.945122,-1.5365274,-0.42819566,-1.4756199,-0.43797663,-1.8454072,-1.2964857,0.14361435,0.24299796,2.121794,-0.40537018,1.5535372,1.0028375,0.79119325,-0.5278064,-0.22750032,-0.22677606,0.80968827,-0.64262253,1.0258121,-1.3606277,0.7891739,-0.05125843,-1.1862937,-0.15291801,-1.2226425,0.12391457,0.09460021,-0.8594522,0.87127036,0.24752386,0.5042051,0.38377893,-0.44537282,0.044880807,-0.02538316,-1.2467483,-0.7918838,-0.78768605,-0.8441534,1.3785404,-0.9948157,1.2011478,0.39451402,0.10780746,1.2611951,-0.45210123,1.1289617,0.75447774,0.79731894,-1.1403941,1.5198433,0.6247401,-0.9165107,-0.12272999,-0.5348537,-1.3088975,1.2388957,1.4087919,0.30005014,-0.1605411,-0.60358393,0.38541308,-0.06454471,0.4690004,-0.40649506,0.339221,-1.2762632,-1.3660879,0.538009,0.07784994,-0.72600836,0.34398174,-0.87827134,-1.3036598,1.4029076,-0.1807122,1.516407,-0.55525523,0.9688463,-0.8105152,-0.1946752,-0.119873226,-0.093799755,0.7140026,-0.5988374,-0.36944127,1.7425568,1.9248601,0.346484,-0.76244307,-0.18212703,0.7724368,-1.0407089,-0.71298814,0.0060867034,1.2233136,0.27140033,-1.591966,0.5017355,0.44104046
BALL-1,1.5136139,0.39700478,0.680972,-0.20713502,0.90566444,-0.07303351,1.2028292,0.11860244,0.18639624,0.31374022,-0.9686855,-0.94626904,-0.3957234,0.5075433,-0.7456656,-0.43614966,0.071320504,0.3525641,1.649372,-0.7885499,0.4220125,-0.8064393,-0.325111,-0.5138886,-1.325325,-0.043173492,-0.8664705,-0.13884333,-1.4513534,-0.9234425,-0.3560819,0.6428634,1.7737035,-0.010456026,1.1595571,0.84476554,0.27944112,-0.5640875,-0.15121943,-0.049785078,0.65048593,-0.491314,0.6387334,-0.86100876,0.31782156,0.33387434,-0.60709345,-0.12704435,-1.2826549,0.0123108355,0.03991855,-0.6595387,0.75360614,0.36414415,0.4690269,0.13661641,-0.044917375,0.2754506,-0.050030783,-1.0108129,-0.33098412,-0.053971,-0.33711863,0.8763097,-0.64272296,0.89442384,0.35139537,-0.4558435,1.0185827,-0.8033947,1.0798563,0.43875262,0.9977989,-1.0350987,1.1924129,0.25144717,-0.8801471,0.17081562,-0.13717687,-0.7060923,1.0122769,1.429859,0.1445787,0.0039251363,-0.7369472,0.5094534,0.41982213,0.52223045,-0.51642454,0.25499272,-1.1568791,-1.374481,0.3536542,0.009825781,-0.57426697,0.33390188,-1.0834563,-1.2200544,1.1946399,0.3426328,1.2777785,-0.31705326,0.42191863,-0.8267282,0.13698173,0.11300212,-0.06457059,0.7900115,-0.39923537,-0.016130269,1.4202224,1.5110612,0.5901813,-1.0214621,-0.56566,0.5447132,-0.97050405,-0.94442034,0.34649208,0.9467341,0.444656,-1.0937725,0.20112818,0.4440164
A-673,2.16453,0.7809294,0.8190667,-0.5991551,1.3669242,-0.106212914,1.6251258,0.3931635,0.45839453,0.031026304,-1.659038,-1.4782653,-1.0335095,0.04024642,-0.87653035,-0.39028424,0.0041497946,0.42934763,2.1293132,-0.89932823,0.4150514,-1.2189454,-0.939137,-1.0545304,-1.7594144,-0.39538926,-1.7621938,-0.44383982,-2.175166,-1.3735791,0.16875702,0.36111084,2.442261,-0.61296314,1.8943719,1.1189269,0.8877356,-0.80658066,-0.12593353,-0.3686294,0.8772323,-0.5293947,1.0484242,-1.448607,0.92851907,0.07774319,-1.4616462,-0.43365207,-1.2663361,0.15968785,0.20396876,-0.99227613,1.2868634,0.08796652,0.45657054,0.6719359,-0.5759101,0.09642452,-0.09107725,-1.4617709,-0.91077745,-0.88530797,-0.970953,1.6442426,-1.0432948,1.461407,0.60344934,0.10329944,1.2156428,-0.6236898,1.5168802,0.9938821,0.9046018,-1.4573172,1.7459929,0.7753773,-0.8800918,-0.14996025,-0.6019771,-1.6248384,1.5216224,1.7416357,0.4608444,-0.113427624,-0.7065934,0.75810325,0.054349393,0.79703957,-0.36892697,0.32684517,-1.3893276,-1.3936739,0.78960997,0.31280905,-1.1033669,0.29905033,-0.9089192,-1.3226942,1.5228156,-0.31996772,1.7007952,-0.45176345,1.1755171,-0.8722587,-0.13994193,0.14374524,0.14429839,0.69930553,-0.50846076,-0.55595183,1.9255985,2.310094,0.37484723,-0.8289647,-0.21351054,0.9178836,-1.1992646,-0.6593478,0.12631476,1.497673,0.13590801,-1.8537477,0.6393388,0.77030987
HuP-T3,1.6509123,0.3440743,0.5884385,-0.72445375,1.1291038,-0.07468718,1.0170883,0.5727806,0.019548297,-0.16332209,-1.074836,-0.81120753,-0.7514661,-0.03052867,-0.49409482,-0.6239886,-0.14426705,0.26446038,1.5898354,-0.7511549,0.69235265,-0.6799704,-0.70339394,-0.8918404,-1.29159,-0.52087754,-1.2787292,-0.51813483,-1.5558785,-1.2383803,0.21867186,0.104335606,1.7977916,-0.3001256,1.2419863,0.864256,0.8142278,-0.30920807,-0.31512064,-0.20954055,0.71183896,-0.656318,1.028526,-1.3304173,0.713327,-0.24073659,-0.97121227,-0.00057897717,-1.0452894,0.12360516,0.03396692,-0.73497623,0.5406044,0.2742533,0.5171133,0.19853765,-0.47779557,-0.098098755,0.044454917,-1.0915707,-0.82407594,-0.8566908,-0.79082936,1.2095364,-0.9745512,1.0096667,0.2907073,0.19679159,1.2278483,-0.23926692,0.77898484,0.60807973,0.5939615,-0.87941134,1.324913,0.53829396,-0.87498415,-0.2178398,-0.4800282,-1.081049,0.9836657,1.108086,0.26487648,-0.20687346,-0.47459936,0.06907883,-0.25090882,0.22757322,-0.2854894,0.30659372,-1.1173201,-1.211582,0.3964636,-0.056825057,-0.42132002,0.3281895,-0.7325602,-1.1661015,1.2442467,-0.19269773,1.3291357,-0.60018915,0.88009524,-0.7157066,-0.35190368,-0.36841387,-0.23187558,0.5906259,-0.631189,-0.28311425,1.4773966,1.6037524,0.25372022,-0.6114212,-0.03063586,0.6274242,-0.87321436,-0.62507296,-0.15516868,1.0155785,0.22470057,-1.379738,0.4079377,0.1995346
ESS-1,1.9139203,0.6964131,1.4074762,-0.45211053,1.8220928,-0.3813021,1.9883742,0.33793277,-0.36008954,-0.4016849,-0.40545964,-0.18689623,-0.38303006,-0.2999882,-1.6748983,-0.35552776,-0.6536835,-0.39016217,0.675217,0.12676248,-0.33950263,0.18876606,-0.8534205,-0.62455773,-1.4541717,-0.71672255,-0.8757138,0.29425827,-1.8228651,-0.22668295,0.37922925,0.08142963,0.45952073,1.0735192,1.1617494,-0.13019538,-0.8276751,-0.43479493,-0.7042254,-0.730287,-0.77062166,-0.4678461,-0.83275616,-0.9161767,-0.9616583,-0.8717691,-1.2682992,0.61800116,-1.9450366,0.015891299,0.32350364,0.17377815,-0.30909258,-0.93621355,-0.06540239,1.3056753,0.7787655,0.5834693,-0.7339105,-1.9052186,-0.49179083,1.1610041,-0.4904021,-0.46878606,0.64550626,-0.10457222,0.9470842,-1.9267871,0.9005536,-0.3709008,0.13074145,0.37330827,1.3424343,0.25636336,2.0157423,-0.41925463,0.03576222,-0.8220438,0.694179,0.28815287,0.7585789,1.3007689,-0.6924521,0.3513199,-1.0673417,-0.6167066,1.1773039,-0.36489898,0.20793775,-0.9020464,0.37961283,-0.052847207,1.4021508,-0.4353732,-1.4929886,0.3373114,-0.668137,0.11905962,0.8194457,0.85493183,0.80618274,0.37356448,-0.3513564,-1.1136987,-1.1845345,1.3138208,1.4095752,1.3045396,-0.40052664,0.22837901,1.2697539,0.9730913,-0.26059872,-0.31591687,-1.2637624,1.2492313,-0.93770623,0.36001804,-0.58845556,1.1223646,0.5410806,-1.3536311,0.7483018,0.6469436
BT-549,0.2580393,-0.09803316,-0.14379665,-0.4341545,0.25840345,-0.46603614,0.32286668,0.17890356,-0.23229557,0.27992472,0.047402732,0.2539513,0.43448868,-0.009486442,0.03020283,-0.44574335,-0.07684995,0.35980254,0.24219552,-0.06600756,0.40968746,0.41628322,0.43395793,-0.117251545,-0.2231074,-0.19869487,0.073777966,-0.41723734,-0.23250064,-0.442267,-0.23433648,0.47376126,0.3362466,0.37756956,-0.17018487,0.15248296,0.2765469,-0.051116765,-0.3330477,-0.23657632,0.07017642,-0.07064808,0.3724693,-0.48495,-0.16860855,-0.15311588,0.46399128,-0.0062625483,-0.29515624,0.024365574,-0.057068475,-0.0778527,-0.20229514,0.12675223,0.36626354,-0.3850079,-0.3196966,-0.29818738,0.17854662,-0.46042648,-0.50994074,-0.15651217,0.0729026,0.1531574,-0.34013274,0.18417425,0.30343068,-0.39761856,0.42092264,-0.26870894,-0.032661147,-0.046712004,0.17544174,-0.23268156,0.32780713,-0.17792012,-0.4489101,-0.28301454,0.37764436,0.33891737,0.023542332,0.53107244,0.29352832,0.0011481529,-0.33598638,-0.2675342,0.01241998,0.034105606,0.3148174,-0.08204881,-0.35426635,-0.4390867,0.062486716,-0.18224756,0.3650385,0.07124279,-0.39934945,-0.28469756,0.3340315,0.28984177,0.4094848,-0.05687306,0.0003434457,-0.41026995,-0.42783335,-0.46792528,-0.17895406,-0.013375238,-0.13373575,0.27603793,-0.05123744,0.24490672,0.28853738,-0.4695966,-0.010580968,-0.15867999,-0.3057403,-0.39438024,-0.021937596,0.20199819,-0.15249473,-0.07225895,-0.25289872,-0.08716555
BFTC-905,1.5136139,0.39700478,0.680972,-0.20713502,0.90566444,-0.07303351,1.2028292,0.11860244,0.18639624,0.31374022,-0.9686855,-0.94626904,-0.3957234,0.5075433,-0.7456656,-0.43614966,0.071320504,0.3525641,1.649372,-0.7885499,0.4220125,-0.8064393,-0.325111,-0.5138886,-1.325325,-0.043173492,-0.8664705,-0.13884333,-1.4513534,-0.9234425,-0.3560819,0.6428634,1.7737035,-0.010456026,1.1595571,0.84476554,0.27944112,-0.5640875,-0.15121943,-0.049785078,0.65048593,-0.491314,0.6387334,-0.86100876,0.31782156,0.33387434,-0.60709345,-0.12704435,-1.2826549,0.0123108355,0.03991855,-0.6595387,0.75360614,0.36414415,0.4690269,0.13661641,-0.044917375,0.2754506,-0.050030783,-1.0108129,-0.33098412,-0.053971,-0.33711863,0.8763097,-0.64272296,0.89442384,0.35139537,-0.4558435,1.0185827,-0.8033947,1.0798563,0.43875262,0.9977989,-1.0350987,1.1924129,0.25144717,-0.8801471,0.17081562,-0.13717687,-0.7060923,1.0122769,1.429859,0.1445787,0.0039251363,-0.7369472,0.5094534,0.41982213,0.52223045,-0.51642454,0.25499272,-1.1568791,-1.374481,0.3536542,0.009825781,-0.57426697,0.33390188,-1.0834563,-1.2200544,1.1946399,0.3426328,1.2777785,-0.31705326,0.42191863,-0.8267282,0.13698173,0.11300212,-0.06457059,0.7900115,-0.39923537,-0.016130269,1.4202224,1.5110612,0.5901813,-1.0214621,-0.56566,0.5447132,-0.97050405,-0.94442034,0.34649208,0.9467341,0.444656,-1.0937725,0.20112818,0.4440164
LB996-RCC,1.909178,0.525626,0.7414457,-0.621905,1.2411441,-0.048005402,1.2968177,0.47451824,0.20438051,-0.06110421,-1.3350576,-1.1337869,-0.8823673,0.08394902,-0.701884,-0.5367133,-0.06762731,0.32097614,1.8865273,-0.86525154,0.5869369,-0.9652833,-0.81190157,-0.945122,-1.5365274,-0.42819566,-1.4756199,-0.43797663,-1.8454072,-1.2964857,0.14361435,0.24299796,2.121794,-0.40537018,1.5535372,1.0028375,0.79119325,-0.5278064,-0.22750032,-0.22677606,0.80968827,-0.64262253,1.0258121,-1.3606277,0.7891739,-0.05125843,-1.1862937,-0.15291801,-1.2226425,0.12391457,0.09460021,-0.8594522,0.87127036,0.24752386,0.5042051,0.38377893,-0.44537282,0.044880807,-0.02538316,-1.2467483,-0.7918838,-0.78768605,-0.8441534,1.3785404,-0.9948157,1.2011478,0.39451402,0.10780746,1.2611951,-0.45210123,1.1289617,0.75447774,0.79731894,-1.1403941,1.5198433,0.6247401,-0.9165107,-0.12272999,-0.5348537,-1.3088975,1.2388957,1.4087919,0.30005014,-0.1605411,-0.60358393,0.38541308,-0.06454471,0.4690004,-0.40649506,0.339221,-1.2762632,-1.3660879,0.538009,0.07784994,-0.72600836,0.34398174,-0.87827134,-1.3036598,1.4029076,-0.1807122,1.516407,-0.55525523,0.9688463,-0.8105152,-0.1946752,-0.119873226,-0.093799755,0.7140026,-0.5988374,-0.36944127,1.7425568,1.9248601,0.346484,-0.76244307,-0.18212703,0.7724368,-1.0407089,-0.71298814,0.0060867034,1.2233136,0.27140033,-1.591966,0.5017355,0.44104046
SK-NEP-1,1.5136139,0.39700478,0.680972,-0.20713502,0.90566444,-0.07303351,1.2028292,0.11860244,0.18639624,0.31374022,-0.9686855,-0.94626904,-0.3957234,0.5075433,-0.7456656,-0.43614966,0.071320504,0.3525641,1.649372,-0.7885499,0.4220125,-0.8064393,-0.325111,-0.5138886,-1.325325,-0.043173492,-0.8664705,-0.13884333,-1.4513534,-0.9234425,-0.3560819,0.6428634,1.7737035,-0.010456026,1.1595571,0.84476554,0.27944112,-0.5640875,-0.15121943,-0.049785078,0.65048593,-0.491314,0.6387334,-0.86100876,0.31782156,0.33387434,-0.60709345,-0.12704435,-1.2826549,0.0123108355,0.03991855,-0.6595387,0.75360614,0.36414415,0.4690269,0.13661641,-0.044917375,0.2754506,-0.050030783,-1.0108129,-0.33098412,-0.053971,-0.33711863,0.8763097,-0.64272296,0.89442384,0.35139537,-0.4558435,1.0185827,-0.8033947,1.0798563,0.43875262,0.9977989,-1.0350987,1.1924129,0.25144717,-0.8801471,0.17081562,-0.13717687,-0.7060923,1.0122769,1.429859,0.1445787,0.0039251363,-0.7369472,0.5094534,0.41982213,0.52223045,-0.51642454,0.25499272,-1.1568791,-1.374481,0.3536542,0.009825781,-0.57426697,0.33390188,-1.0834563,-1.2200544,1.1946399,0.3426328,1.2777785,-0.31705326,0.42191863,-0.8267282,0.13698173,0.11300212,-0.06457059,0.7900115,-0.39923537,-0.016130269,1.4202224,1.5110612,0.5901813,-1.0214621,-0.56566,0.5447132,-0.97050405,-0.94442034,0.34649208,0.9467341,0.444656,-1.0937725,0.20112818,0.4440164
ChaGo-K-1,0.2387784,-0.12854569,-0.13535257,-0.41653627,0.24465027,-0.44716173,0.29286948,0.17703143,-0.26072526,0.28008536,0.08278953,0.28102824,0.45257932,0.026673371,0.03434972,-0.46449965,-0.078887165,0.343988,0.23472843,-0.077796005,0.43066615,0.4276744,0.4503093,-0.095714554,-0.21128675,-0.18566102,0.11418935,-0.39794424,-0.20078565,-0.43013498,-0.2595238,0.4745148,0.31361452,0.41321403,-0.20056856,0.14783952,0.24330737,-0.023395674,-0.3410194,-0.203165,0.0699258,-0.09424644,0.3623611,-0.4637029,-0.19375293,-0.14585815,0.49800384,0.034750067,-0.317638,0.014493558,-0.07328027,-0.06608573,-0.24455316,0.16211756,0.37518004,-0.42413092,-0.2775889,-0.28213662,0.18154742,-0.4338005,-0.47008765,-0.11223573,0.09948564,0.11386259,-0.32827988,0.15239485,0.2708997,-0.4187798,0.43563136,-0.26947525,-0.06388227,-0.08175524,0.18861517,-0.20191136,0.30478853,-0.20284978,-0.46505746,-0.2558088,0.38819814,0.3807674,-0.0011940734,0.5050262,0.25900042,-0.00014624075,-0.3358525,-0.299378,0.02262482,-0.0013026665,0.28226498,-0.07392144,-0.35450658,-0.460774,0.02495266,-0.21574478,0.40306646,0.08502818,-0.42074686,-0.30439866,0.33160913,0.3316274,0.39621475,-0.0714422,-0.039702903,-0.41272855,-0.4088838,-0.48437327,-0.2115709,0.013658732,-0.14781101,0.3095566,-0.050768737,0.20520394,0.3011847,-0.48375776,-0.034737613,-0.17006046,-0.29693654,-0.42607376,-0.01818258,0.17006847,-0.10894835,-0.04189673,-0.27252465,-0.12338978
TE-5,1.3015156,0.724898,0.304987,-0.30058664,0.7788161,-0.5052346,1.4539603,-0.060434356,0.56631666,0.54037905,-1.1083257,-1.0132296,-0.20509678,0.03307859,-0.6636616,-0.052108347,0.15974608,0.64626896,1.2993168,-0.36862168,-0.04611337,-0.61649764,-0.1210762,-0.51879287,-1.1377448,-0.059918523,-0.95654505,-0.3462947,-1.4629977,-0.7836855,-0.21076536,0.8435738,1.6072023,-0.2830181,1.1224729,0.6630254,0.52654386,-0.9441721,-0.0082422495,-0.55602366,0.41860002,0.10853816,0.50543034,-0.8224379,0.33842486,0.33920383,-0.57553315,-0.7879212,-0.7035134,0.11427815,0.2615229,-0.59964734,1.1829225,-0.22572927,0.26940915,0.5313695,-0.57980824,0.011470944,-0.06391068,-1.1910053,-0.7664703,-0.37500602,-0.3777092,1.0655221,-0.5530999,1.0811421,0.8724577,-0.43508685,0.47253677,-0.88782895,1.3261861,0.7283659,0.7062243,-1.3104634,1.1793132,0.34374842,-0.47875437,-0.21721292,0.053171992,-0.8004829,1.063577,1.681474,0.6748154,0.12965558,-0.7301104,0.9543985,0.45585087,1.051066,0.16787553,-0.016771227,-0.8898823,-0.7884865,0.8146131,0.49811447,-0.91312367,0.029112943,-0.6856632,-0.60999364,0.9036413,-0.057122797,1.1523529,0.1450492,0.66613567,-0.6975219,-0.11080757,0.40777785,0.48826957,0.18565881,0.031178117,-0.30083245,0.8647444,1.6365627,0.45652208,-0.8130746,-0.26341733,0.43216842,-0.92236876,-0.41742864,0.41142192,1.1470729,-0.33403307,-1.0622724,0.24246114,0.9450266
DMS 79,0.2387784,-0.12854569,-0.13535257,-0.41653627,0.24465027,-0.44716173,0.29286948,0.17703143,-0.26072526,0.28008536,0.08278953,0.28102824,0.45257932,0.026673371,0.03434972,-0.46449965,-0.078887165,0.343988,0.23472843,-0.077796005,0.43066615,0.4276744,0.4503093,-0.095714554,-0.21128675,-0.18566102,0.11418935,-0.39794424,-0.20078565,-0.43013498,-0.2595238,0.4745148,0.31361452,0.41321403,-0.20056856,0.14783952,0.24330737,-0.023395674,-0.3410194,-0.203165,0.0699258,-0.09424644,0.3623611,-0.4637029,-0.19375293,-0.14585815,0.49800384,0.034750067,-0.317638,0.014493558,-0.07328027,-0.06608573,-0.24455316,0.16211756,0.37518004,-0.42413092,-0.2775889,-0.28213662,0.18154742,-0.4338005,-0.47008765,-0.11223573,0.09948564,0.11386259,-0.32827988,0.15239485,0.2708997,-0.4187798,0.43563136,-0.26947525,-0.06388227,-0.08175524,0.18861517,-0.20191136,0.30478853,-0.20284978,-0.46505746,-0.2558088,0.38819814,0.3807674,-0.0011940734,0.5050262,0.25900042,-0.00014624075,-0.3358525,-0.299378,0.02262482,-0.0013026665,0.28226498,-0.07392144,-0.35450658,-0.460774,0.02495266,-0.21574478,0.40306646,0.08502818,-0.42074686,-0.30439866,0.33160913,0.3316274,0.39621475,-0.0714422,-0.039702903,-0.41272855,-0.4088838,-0.48437327,-0.2115709,0.013658732,-0.14781101,0.3095566,-0.050768737,0.20520394,0.3011847,-0.48375776,-0.034737613,-0.17006046,-0.29693654,-0.42607376,-0.01818258,0.17006847,-0.10894835,-0.04189673,-0.27252465,-0.12338978
BL-41,0.2387784,-0.12854569,-0.13535257,-0.41653627,0.24465027,-0.44716173,0.29286948,0.17703143,-0.26072526,0.28008536,0.08278953,0.28102824,0.45257932,0.026673371,0.03434972,-0.46449965,-0.078887165,0.343988,0.23472843,-0.077796005,0.43066615,0.4276744,0.4503093,-0.095714554,-0.21128675,-0.18566102,0.11418935,-0.39794424,-0.20078565,-0.43013498,-0.2595238,0.4745148,0.31361452,0.41321403,-0.20056856,0.14783952,0.24330737,-0.023395674,-0.3410194,-0.203165,0.0699258,-0.09424644,0.3623611,-0.4637029,-0.19375293,-0.14585815,0.49800384,0.034750067,-0.317638,0.014493558,-0.07328027,-0.06608573,-0.24455316,0.16211756,0.37518004,-0.42413092,-0.2775889,-0.28213662,0.18154742,-0.4338005,-0.47008765,-0.11223573,0.09948564,0.11386259,-0.32827988,0.15239485,0.2708997,-0.4187798,0.43563136,-0.26947525,-0.06388227,-0.08175524,0.18861517,-0.20191136,0.30478853,-0.20284978,-0.46505746,-0.2558088,0.38819814,0.3807674,-0.0011940734,0.5050262,0.25900042,-0.00014624075,-0.3358525,-0.299378,0.02262482,-0.0013026665,0.28226498,-0.07392144,-0.35450658,-0.460774,0.02495266,-0.21574478,0.40306646,0.08502818,-0.42074686,-0.30439866,0.33160913,0.3316274,0.39621475,-0.0714422,-0.039702903,-0.41272855,-0.4088838,-0.48437327,-0.2115709,0.013658732,-0.14781101,0.3095566,-0.050768737,0.20520394,0.3011847,-0.48375776,-0.034737613,-0.17006046,-0.29693654,-0.42607376,-0.01818258,0.17006847,-0.10894835,-0.04189673,-0.27252465,-0.12338978
ECC10,0.6827718,0.16786437,0.10505982,-0.68267506,0.71023273,-0.5553069,0.7283044,0.36414996,-0.22595958,-0.029280573,-0.16307983,0.16666815,0.11999419,-0.42999706,-0.26526734,-0.40176204,-0.28303245,0.21905935,0.25192788,0.096753724,0.21973038,0.4453963,0.00093734264,-0.41116625,-0.47523823,-0.53175974,-0.37420586,-0.45948458,-0.6866176,-0.49684528,0.19875512,0.20342454,0.35687596,0.34112036,0.20076483,0.05585563,0.30640006,-0.1448891,-0.4519839,-0.55738294,-0.15879144,-0.084339105,0.2179462,-0.787883,-0.17586051,-0.5647902,-0.12222916,0.01991745,-0.4537648,0.09744335,0.09353527,-0.043608166,-0.1881634,-0.3231581,0.23085251,0.16557997,-0.37933344,-0.30681103,-0.009112924,-0.9026246,-0.83184755,-0.2683015,-0.27702874,0.20978273,-0.22607306,0.22649664,0.5735158,-0.481496,0.49115562,-0.08213693,-0.037409134,0.21403235,0.21970946,-0.13511035,0.8047701,-0.08035332,-0.22933492,-0.6771268,0.34842673,0.12140587,0.2199935,0.66164213,0.24652813,0.02871038,-0.4049102,-0.40900192,0.02170667,-0.03912092,0.5575644,-0.32512975,-0.102106094,-0.13458976,0.53366786,-0.13790981,-0.12566632,0.05597625,-0.21830256,-0.016488224,0.4098024,0.08938876,0.50909084,0.044531003,0.18570189,-0.5051466,-0.8782681,-0.15538567,0.2833712,0.07134606,-0.18748866,0.06793356,0.1696238,0.5167478,-0.019950211,-0.2093527,-0.0116009675,0.19960266,-0.41532782,0.0575248,-0.35144287,0.5210116,-0.27800247,-0.51486754,0.09744409,0.12859589
GP5d,1.1379417,0.64884675,0.20738311,-0.99043965,1.1477909,-0.813566,1.3175883,0.4782446,0.045039803,-0.22279969,-0.60785353,-0.12513894,-0.22619206,-1.0530077,-0.54067045,-0.17282405,-0.40871418,0.26279604,0.2856361,0.35588807,-0.15629041,0.392281,-0.4235715,-0.7853351,-0.7498146,-0.8668246,-1.0214432,-0.63617945,-1.2847723,-0.5982523,0.71273696,0.037798405,0.5278615,0.03182137,0.7190895,-0.005109906,0.5734124,-0.48594385,-0.4608123,-1.108054,-0.36648154,0.15567109,0.13304481,-1.1566623,-0.013661489,-0.909803,-0.8217628,-0.34663847,-0.3662724,0.23388095,0.3597944,-0.09520707,0.20257922,-1.0045456,0.031810135,0.9382076,-0.77322125,-0.43799287,-0.18912096,-1.4708354,-1.4035668,-0.6745926,-0.7329217,0.55182886,-0.19490185,0.51387376,1.0930471,-0.42765173,0.36651158,0.02678582,0.24154568,0.70704615,0.15186447,-0.33002242,1.3504264,0.17802101,0.1086041,-1.2119539,0.28616098,-0.35609692,0.57233167,1.0107957,0.5177078,0.086978935,-0.4774209,-0.20519099,-0.0010586083,0.24505353,1.0525948,-0.61135954,0.12467316,0.3213498,1.238778,0.2062778,-0.85078603,-0.09148692,0.10590953,0.4049543,0.45632577,-0.39397994,0.67383313,0.3013187,0.63331014,-0.556361,-1.3743347,0.28027827,0.966894,-0.114775375,-0.0646082,-0.3645901,0.2827468,1.0428225,-0.35345805,0.099900514,0.16697222,0.55521506,-0.57142925,0.69109106,-0.60310555,1.0343723,-0.773711,-1.077278,0.5168782,0.6431365
SK-CO-1,0.80026823,0.14735867,-0.040363282,-0.9001378,0.6960956,-0.4688924,0.56222653,0.55369264,-0.12578462,-0.120039344,-0.47467637,-0.06910613,-0.16699183,-0.5231111,0.0030824207,-0.5011847,-0.21924372,0.3540503,0.5764475,-0.14458063,0.5165247,0.16506785,-0.16794565,-0.6456522,-0.5411556,-0.63360745,-0.7182816,-0.75288224,-0.80181676,-0.87823963,0.35347176,0.057001114,0.8202336,-0.12830752,0.39629257,0.3542181,0.874226,-0.11200689,-0.39046404,-0.5046958,0.24789234,-0.1935887,0.79215825,-1.0815699,0.39302814,-0.56238735,-0.2994966,-0.1313828,-0.24673258,0.16459647,0.051145233,-0.3366923,0.0665762,-0.0907038,0.3777662,0.021304607,-0.8118914,-0.5386183,0.17151494,-0.82080173,-1.0813732,-1.0046287,-0.54853344,0.79573077,-0.733057,0.6094788,0.4429013,0.2139163,0.67030436,0.0733726,0.14847133,0.3980307,-0.010835826,-0.4467242,0.79203653,0.28783074,-0.456968,-0.64575064,-0.07977632,-0.43990147,0.37695754,0.6268638,0.5192777,-0.16069889,-0.22731945,-0.28806093,-0.47980592,0.082693554,0.47285795,-0.013704762,-0.500857,-0.41039112,0.38358274,-0.02295506,0.03962499,0.062936746,-0.16656613,-0.35637313,0.60244906,-0.34787694,0.7356496,-0.27217788,0.68253154,-0.41711068,-0.808148,-0.6137438,-0.095963016,-0.10345222,-0.32190675,-0.18931898,0.3691084,0.8426818,0.007443428,-0.18626851,0.40398172,0.16087717,-0.44049656,-0.08559179,-0.37856576,0.617838,-0.40462252,-0.73269653,0.1455442,0.03635323
NCI-H322M,1.5136139,0.39700478,0.680972,-0.20713502,0.90566444,-0.07303351,1.2028292,0.11860244,0.18639624,0.31374022,-0.9686855,-0.94626904,-0.3957234,0.5075433,-0.7456656,-0.43614966,0.071320504,0.3525641,1.649372,-0.7885499,0.4220125,-0.8064393,-0.325111,-0.5138886,-1.325325,-0.043173492,-0.8664705,-0.13884333,-1.4513534,-0.9234425,-0.3560819,0.6428634,1.7737035,-0.010456026,1.1595571,0.84476554,0.27944112,-0.5640875,-0.15121943,-0.049785078,0.65048593,-0.491314,0.6387334,-0.86100876,0.31782156,0.33387434,-0.60709345,-0.12704435,-1.2826549,0.0123108355,0.03991855,-0.6595387,0.75360614,0.36414415,0.4690269,0.13661641,-0.044917375,0.2754506,-0.050030783,-1.0108129,-0.33098412,-0.053971,-0.33711863,0.8763097,-0.64272296,0.89442384,0.35139537,-0.4558435,1.0185827,-0.8033947,1.0798563,0.43875262,0.9977989,-1.0350987,1.1924129,0.25144717,-0.8801471,0.17081562,-0.13717687,-0.7060923,1.0122769,1.429859,0.1445787,0.0039251363,-0.7369472,0.5094534,0.41982213,0.52223045,-0.51642454,0.25499272,-1.1568791,-1.374481,0.3536542,0.009825781,-0.57426697,0.33390188,-1.0834563,-1.2200544,1.1946399,0.3426328,1.2777785,-0.31705326,0.42191863,-0.8267282,0.13698173,0.11300212,-0.06457059,0.7900115,-0.39923537,-0.016130269,1.4202224,1.5110612,0.5901813,-1.0214621,-0.56566,0.5447132,-0.97050405,-0.94442034,0.34649208,0.9467341,0.444656,-1.0937725,0.20112818,0.4440164
RMG-I,1.909178,0.525626,0.7414457,-0.621905,1.2411441,-0.048005402,1.2968177,0.47451824,0.20438051,-0.06110421,-1.3350576,-1.1337869,-0.8823673,0.08394902,-0.701884,-0.5367133,-0.06762731,0.32097614,1.8865273,-0.86525154,0.5869369,-0.9652833,-0.81190157,-0.945122,-1.5365274,-0.42819566,-1.4756199,-0.43797663,-1.8454072,-1.2964857,0.14361435,0.24299796,2.121794,-0.40537018,1.5535372,1.0028375,0.79119325,-0.5278064,-0.22750032,-0.22677606,0.80968827,-0.64262253,1.0258121,-1.3606277,0.7891739,-0.05125843,-1.1862937,-0.15291801,-1.2226425,0.12391457,0.09460021,-0.8594522,0.87127036,0.24752386,0.5042051,0.38377893,-0.44537282,0.044880807,-0.02538316,-1.2467483,-0.7918838,-0.78768605,-0.8441534,1.3785404,-0.9948157,1.2011478,0.39451402,0.10780746,1.2611951,-0.45210123,1.1289617,0.75447774,0.79731894,-1.1403941,1.5198433,0.6247401,-0.9165107,-0.12272999,-0.5348537,-1.3088975,1.2388957,1.4087919,0.30005014,-0.1605411,-0.60358393,0.38541308,-0.06454471,0.4690004,-0.40649506,0.339221,-1.2762632,-1.3660879,0.538009,0.07784994,-0.72600836,0.34398174,-0.87827134,-1.3036598,1.4029076,-0.1807122,1.516407,-0.55525523,0.9688463,-0.8105152,-0.1946752,-0.119873226,-0.093799755,0.7140026,-0.5988374,-0.36944127,1.7425568,1.9248601,0.346484,-0.76244307,-0.18212703,0.7724368,-1.0407089,-0.71298814,0.0060867034,1.2233136,0.27140033,-1.591966,0.5017355,0.44104046
MFM-223,0.53732544,0.029346362,0.11944614,-0.5531406,0.599756,-0.49212158,0.59360087,0.30120438,-0.33804798,0.03079915,0.03522902,0.30715236,0.27160603,-0.2321245,-0.24953704,-0.45587367,-0.26947525,0.16561264,0.17501763,0.070640065,0.27214092,0.5229343,0.14579287,-0.259138,-0.3881913,-0.42315882,-0.11904565,-0.34285405,-0.4953251,-0.38882717,0.026372492,0.26842418,0.20581523,0.5392094,0.013707519,0.008135945,0.102096334,-0.042981997,-0.47085744,-0.40603942,-0.18909626,-0.14473158,0.11754534,-0.6263155,-0.3476507,-0.48023927,0.10584271,0.17747745,-0.5381886,0.04307866,0.023455448,0.036418997,-0.37189204,-0.17416613,0.25794205,-0.024534702,-0.16182238,-0.21558648,0.0005299598,-0.7607777,-0.611773,0.01131659,-0.09405052,-0.021633074,-0.12429109,0.053959444,0.4446839,-0.6482642,0.5024917,-0.13627626,-0.17055789,0.029294588,0.29328665,0.0023916662,0.65922135,-0.23567894,-0.28058586,-0.53256917,0.45467424,0.3812408,0.083564654,0.56025267,0.094987035,0.049703352,-0.42189157,-0.514068,0.13249877,-0.16634125,0.4255537,-0.3103999,-0.078092545,-0.20947891,0.3614714,-0.27492052,0.04870087,0.10350043,-0.3249059,-0.06941724,0.36061752,0.3272473,0.414658,0.029784009,-0.053333294,-0.51313186,-0.75921,-0.18550318,0.16459425,0.17693731,-0.20605953,0.25117576,0.10777205,0.2926793,0.0636788,-0.2988154,-0.1571913,0.11467308,-0.36570504,-0.0932779,-0.28616783,0.35170874,-0.093453884,-0.31388727,-0.027523816,-0.010626532
EW-18,0.2387784,-0.12854569,-0.13535257,-0.41653627,0.24465027,-0.44716173,0.29286948,0.17703143,-0.26072526,0.28008536,0.08278953,0.28102824,0.45257932,0.026673371,0.03434972,-0.46449965,-0.078887165,0.343988,0.23472843,-0.077796005,0.43066615,0.4276744,0.4503093,-0.095714554,-0.21128675,-0.18566102,0.11418935,-0.39794424,-0.20078565,-0.43013498,-0.2595238,0.4745148,0.31361452,0.41321403,-0.20056856,0.14783952,0.24330737,-0.023395674,-0.3410194,-0.203165,0.0699258,-0.09424644,0.3623611,-0.4637029,-0.19375293,-0.14585815,0.49800384,0.034750067,-0.317638,0.014493558,-0.07328027,-0.06608573,-0.24455316,0.16211756,0.37518004,-0.42413092,-0.2775889,-0.28213662,0.18154742,-0.4338005,-0.47008765,-0.11223573,0.09948564,0.11386259,-0.32827988,0.15239485,0.2708997,-0.4187798,0.43563136,-0.26947525,-0.06388227,-0.08175524,0.18861517,-0.20191136,0.30478853,-0.20284978,-0.46505746,-0.2558088,0.38819814,0.3807674,-0.0011940734,0.5050262,0.25900042,-0.00014624075,-0.3358525,-0.299378,0.02262482,-0.0013026665,0.28226498,-0.07392144,-0.35450658,-0.460774,0.02495266,-0.21574478,0.40306646,0.08502818,-0.42074686,-0.30439866,0.33160913,0.3316274,0.39621475,-0.0714422,-0.039702903,-0.41272855,-0.4088838,-0.48437327,-0.2115709,0.013658732,-0.14781101,0.3095566,-0.050768737,0.20520394,0.3011847,-0.48375776,-0.034737613,-0.17006046,-0.29693654,-0.42607376,-0.01818258,0.17006847,-0.10894835,-0.04189673,-0.27252465,-0.12338978
TE-12,1.909178,0.525626,0.7414457,-0.621905,1.2411441,-0.048005402,1.2968177,0.47451824,0.20438051,-0.06110421,-1.3350576,-1.1337869,-0.8823673,0.08394902,-0.701884,-0.5367133,-0.06762731,0.32097614,1.8865273,-0.86525154,0.5869369,-0.9652833,-0.81190157,-0.945122,-1.5365274,-0.42819566,-1.4756199,-0.43797663,-1.8454072,-1.2964857,0.14361435,0.24299796,2.121794,-0.40537018,1.5535372,1.0028375,0.79119325,-0.5278064,-0.22750032,-0.22677606,0.80968827,-0.64262253,1.0258121,-1.3606277,0.7891739,-0.05125843,-1.1862937,-0.15291801,-1.2226425,0.12391457,0.09460021,-0.8594522,0.87127036,0.24752386,0.5042051,0.38377893,-0.44537282,0.044880807,-0.02538316,-1.2467483,-0.7918838,-0.78768605,-0.8441534,1.3785404,-0.9948157,1.2011478,0.39451402,0.10780746,1.2611951,-0.45210123,1.1289617,0.75447774,0.79731894,-1.1403941,1.5198433,0.6247401,-0.9165107,-0.12272999,-0.5348537,-1.3088975,1.2388957,1.4087919,0.30005014,-0.1605411,-0.60358393,0.38541308,-0.06454471,0.4690004,-0.40649506,0.339221,-1.2762632,-1.3660879,0.538009,0.07784994,-0.72600836,0.34398174,-0.87827134,-1.3036598,1.4029076,-0.1807122,1.516407,-0.55525523,0.9688463,-0.8105152,-0.1946752,-0.119873226,-0.093799755,0.7140026,-0.5988374,-0.36944127,1.7425568,1.9248601,0.346484,-0.76244307,-0.18212703,0.7724368,-1.0407089,-0.71298814,0.0060867034,1.2233136,0.27140033,-1.591966,0.5017355,0.44104046
TYK-nu,1.5136139,0.39700478,0.680972,-0.20713502,0.90566444,-0.07303351,1.2028292,0.11860244,0.18639624,0.31374022,-0.9686855,-0.94626904,-0.3957234,0.5075433,-0.7456656,-0.43614966,0.071320504,0.3525641,1.649372,-0.7885499,0.4220125,-0.8064393,-0.325111,-0.5138886,-1.325325,-0.043173492,-0.8664705,-0.13884333,-1.4513534,-0.9234425,-0.3560819,0.6428634,1.7737035,-0.010456026,1.1595571,0.84476554,0.27944112,-0.5640875,-0.15121943,-0.049785078,0.65048593,-0.491314,0.6387334,-0.86100876,0.31782156,0.33387434,-0.60709345,-0.12704435,-1.2826549,0.0123108355,0.03991855,-0.6595387,0.75360614,0.36414415,0.4690269,0.13661641,-0.044917375,0.2754506,-0.050030783,-1.0108129,-0.33098412,-0.053971,-0.33711863,0.8763097,-0.64272296,0.89442384,0.35139537,-0.4558435,1.0185827,-0.8033947,1.0798563,0.43875262,0.9977989,-1.0350987,1.1924129,0.25144717,-0.8801471,0.17081562,-0.13717687,-0.7060923,1.0122769,1.429859,0.1445787,0.0039251363,-0.7369472,0.5094534,0.41982213,0.52223045,-0.51642454,0.25499272,-1.1568791,-1.374481,0.3536542,0.009825781,-0.57426697,0.33390188,-1.0834563,-1.2200544,1.1946399,0.3426328,1.2777785,-0.31705326,0.42191863,-0.8267282,0.13698173,0.11300212,-0.06457059,0.7900115,-0.39923537,-0.016130269,1.4202224,1.5110612,0.5901813,-1.0214621,-0.56566,0.5447132,-0.97050405,-0.94442034,0.34649208,0.9467341,0.444656,-1.0937725,0.20112818,0.4440164
SW982,2.5595353,0.90933233,0.87943083,-1.0134373,1.7019588,-0.081213534,1.718913,0.7486694,0.4762957,-0.34338692,-2.024879,-1.6654581,-1.519517,-0.38284367,-0.8327463,-0.49075645,-0.13464922,0.39777625,2.3660984,-0.9759121,0.5798115,-1.3775162,-1.4252975,-1.4852135,-1.97029,-0.7799594,-2.3705297,-0.74261975,-2.5686488,-1.7461462,0.66785103,-0.038302034,2.7898319,-1.0073514,2.287776,1.2767677,1.3988535,-0.7702743,-0.20214772,-0.54538435,1.0362148,-0.680533,1.4350265,-1.9475982,1.3992647,-0.30696523,-2.0400677,-0.4594356,-1.2063614,0.27115068,0.25856042,-1.1919078,1.4042786,-0.028488085,0.49171332,0.9187305,-0.97586554,-0.13389343,-0.06644021,-1.6973658,-1.3711044,-1.6181247,-1.4773426,2.145798,-1.3949469,1.767692,0.6464734,0.66627556,1.4579571,-0.27277032,1.5658203,1.3091675,0.70431995,-1.5624021,2.0729623,1.1481805,-0.9164077,-0.44315955,-0.9991493,-2.226829,1.7478868,1.7205042,0.6161009,-0.2777057,-0.5733595,0.6341175,-0.42946973,0.74379545,-0.25911543,0.41096592,-1.5085251,-1.385261,0.97368556,0.3806997,-1.2548263,0.30912018,-0.70395696,-1.406171,1.7307868,-0.84265757,1.9390776,-0.68969303,1.7217355,-0.856042,-0.47122598,-0.08891791,0.11505397,0.62336993,-0.707834,-0.90879357,2.2474706,2.7232862,0.13142926,-0.5702293,0.16958234,1.1452863,-1.2693361,-0.42818996,-0.21371514,1.7738463,-0.03712809,-2.351264,0.9395457,0.7672581
SK-MEL-28,1.0126835,0.18589596,0.4204976,-0.7410253,1.0077611,-0.41776738,0.8716024,0.50956404,-0.36891168,-0.26373997,-0.22157592,0.12649119,-0.1178934,-0.41886738,-0.49338594,-0.52645653,-0.41969293,0.02035749,0.42233732,0.00091341883,0.29134634,0.36165634,-0.30758473,-0.54871756,-0.70919394,-0.6745425,-0.56384754,-0.36259344,-0.9396545,-0.56629014,0.33574206,0.007941484,0.4484458,0.45727265,0.43008387,0.08243321,0.17526563,-0.059065178,-0.56639427,-0.50839007,-0.18986772,-0.33910927,0.15862484,-0.94180155,-0.21648519,-0.7515302,-0.44709074,0.307017,-0.8176944,0.08631102,0.08514456,-0.048126735,-0.3403095,-0.31666636,0.23656173,0.30747265,-0.14781979,-0.16495073,-0.11866276,-1.0737164,-0.7875306,-0.13002184,-0.42516166,0.13977185,-0.17581598,0.16656147,0.50852996,-0.58987963,0.7527183,0.011372626,-0.11379019,0.22792646,0.4075721,0.020041972,1.0765746,-0.08411343,-0.2803675,-0.7003176,0.27364302,0.060550988,0.31882083,0.6597988,-0.017848104,0.0071325367,-0.47053415,-0.639396,0.0674479,-0.28037435,0.37773776,-0.3481206,-0.082506895,-0.23268485,0.6020196,-0.3153029,-0.27755892,0.1802547,-0.3187647,-0.1368621,0.57975703,0.18966258,0.62154233,-0.07549249,0.15304355,-0.62607163,-0.9847449,-0.062276334,0.32264322,0.39985645,-0.38596702,0.0908892,0.53896946,0.61896235,-0.1088033,-0.18748796,-0.18793246,0.44949389,-0.51058155,0.05871567,-0.52375877,0.6159981,0.006149769,-0.7641059,0.2653036,0.059428632
S-117,1.5136139,0.39700478,0.680972,-0.20713502,0.90566444,-0.07303351,1.2028292,0.11860244,0.18639624,0.31374022,-0.9686855,-0.94626904,-0.3957234,0.5075433,-0.7456656,-0.43614966,0.071320504,0.3525641,1.649372,-0.7885499,0.4220125,-0.8064393,-0.325111,-0.5138886,-1.325325,-0.043173492,-0.8664705,-0.13884333,-1.4513534,-0.9234425,-0.3560819,0.6428634,1.7737035,-0.010456026,1.1595571,0.84476554,0.27944112,-0.5640875,-0.15121943,-0.049785078,0.65048593,-0.491314,0.6387334,-0.86100876,0.31782156,0.33387434,-0.60709345,-0.12704435,-1.2826549,0.0123108355,0.03991855,-0.6595387,0.75360614,0.36414415,0.4690269,0.13661641,-0.044917375,0.2754506,-0.050030783,-1.0108129,-0.33098412,-0.053971,-0.33711863,0.8763097,-0.64272296,0.89442384,0.35139537,-0.4558435,1.0185827,-0.8033947,1.0798563,0.43875262,0.9977989,-1.0350987,1.1924129,0.25144717,-0.8801471,0.17081562,-0.13717687,-0.7060923,1.0122769,1.429859,0.1445787,0.0039251363,-0.7369472,0.5094534,0.41982213,0.52223045,-0.51642454,0.25499272,-1.1568791,-1.374481,0.3536542,0.009825781,-0.57426697,0.33390188,-1.0834563,-1.2200544,1.1946399,0.3426328,1.2777785,-0.31705326,0.42191863,-0.8267282,0.13698173,0.11300212,-0.06457059,0.7900115,-0.39923537,-0.016130269,1.4202224,1.5110612,0.5901813,-1.0214621,-0.56566,0.5447132,-0.97050405,-0.94442034,0.34649208,0.9467341,0.444656,-1.0937725,0.20112818,0.4440164
NCI-H187,0.2387784,-0.12854569,-0.13535257,-0.41653627,0.24465027,-0.44716173,0.29286948,0.17703143,-0.26072526,0.28008536,0.08278953,0.28102824,0.45257932,0.026673371,0.03434972,-0.46449965,-0.078887165,0.343988,0.23472843,-0.077796005,0.43066615,0.4276744,0.4503093,-0.095714554,-0.21128675,-0.18566102,0.11418935,-0.39794424,-0.20078565,-0.43013498,-0.2595238,0.4745148,0.31361452,0.41321403,-0.20056856,0.14783952,0.24330737,-0.023395674,-0.3410194,-0.203165,0.0699258,-0.09424644,0.3623611,-0.4637029,-0.19375293,-0.14585815,0.49800384,0.034750067,-0.317638,0.014493558,-0.07328027,-0.06608573,-0.24455316,0.16211756,0.37518004,-0.42413092,-0.2775889,-0.28213662,0.18154742,-0.4338005,-0.47008765,-0.11223573,0.09948564,0.11386259,-0.32827988,0.15239485,0.2708997,-0.4187798,0.43563136,-0.26947525,-0.06388227,-0.08175524,0.18861517,-0.20191136,0.30478853,-0.20284978,-0.46505746,-0.2558088,0.38819814,0.3807674,-0.0011940734,0.5050262,0.25900042,-0.00014624075,-0.3358525,-0.299378,0.02262482,-0.0013026665,0.28226498,-0.07392144,-0.35450658,-0.460774,0.02495266,-0.21574478,0.40306646,0.08502818,-0.42074686,-0.30439866,0.33160913,0.3316274,0.39621475,-0.0714422,-0.039702903,-0.41272855,-0.4088838,-0.48437327,-0.2115709,0.013658732,-0.14781101,0.3095566,-0.050768737,0.20520394,0.3011847,-0.48375776,-0.034737613,-0.17006046,-0.29693654,-0.42607376,-0.01818258,0.17006847,-0.10894835,-0.04189673,-0.27252465,-0.12338978
OAW42,0.90936285,0.33046222,0.3092153,-0.76857847,0.9952631,-0.6301607,1.0227586,0.42442548,-0.26283026,-0.19810438,-0.18996674,0.19203696,0.013148367,-0.654556,-0.53056365,-0.3516838,-0.43339023,0.08360642,0.15872374,0.26697204,0.019393861,0.55160606,-0.21676812,-0.51923287,-0.6107353,-0.70737,-0.5399172,-0.39150432,-0.9276371,-0.4133211,0.4172626,0.07599729,0.22338334,0.47148186,0.36574924,-0.09584257,0.14355542,-0.20322646,-0.54872197,-0.7631938,-0.424796,-0.06976419,-0.054546267,-0.8841802,-0.35936087,-0.82343614,-0.42758214,0.097497545,-0.6245514,0.119916424,0.1951955,0.06978997,-0.27143866,-0.6634125,0.10489914,0.5419307,-0.27209193,-0.23710495,-0.18049447,-1.1966403,-0.9460168,-0.10296411,-0.40760362,0.056143835,0.0014894903,0.12705858,0.77070284,-0.7495809,0.48814723,-0.010474503,-0.1078643,0.3108146,0.3214191,0.031335205,1.1016829,-0.13772252,-0.028904527,-0.92546344,0.4613104,0.16680926,0.28811333,0.74450636,0.122198224,0.101957746,-0.50129837,-0.5470027,0.18063226,-0.13554806,0.7237817,-0.56848776,0.17603967,0.1317839,0.86206746,-0.15708213,-0.47075933,0.049624868,-0.12736067,0.24672222,0.3995949,0.10870591,0.49966276,0.19719891,0.13980006,-0.59237075,-1.177023,0.1723879,0.6762181,0.18752882,-0.18708809,0.025671363,0.25041902,0.5765532,-0.21855539,-0.05690089,-0.14520362,0.43361276,-0.4738231,0.37392572,-0.5506338,0.6818286,-0.30285144,-0.7186233,0.29739684,0.27852452
MSTO-211H,1.909178,0.525626,0.7414457,-0.621905,1.2411441,-0.048005402,1.2968177,0.47451824,0.20438051,-0.06110421,-1.3350576,-1.1337869,-0.8823673,0.08394902,-0.701884,-0.5367133,-0.06762731,0.32097614,1.8865273,-0.86525154,0.5869369,-0.9652833,-0.81190157,-0.945122,-1.5365274,-0.42819566,-1.4756199,-0.43797663,-1.8454072,-1.2964857,0.14361435,0.24299796,2.121794,-0.40537018,1.5535372,1.0028375,0.79119325,-0.5278064,-0.22750032,-0.22677606,0.80968827,-0.64262253,1.0258121,-1.3606277,0.7891739,-0.05125843,-1.1862937,-0.15291801,-1.2226425,0.12391457,0.09460021,-0.8594522,0.87127036,0.24752386,0.5042051,0.38377893,-0.44537282,0.044880807,-0.02538316,-1.2467483,-0.7918838,-0.78768605,-0.8441534,1.3785404,-0.9948157,1.2011478,0.39451402,0.10780746,1.2611951,-0.45210123,1.1289617,0.75447774,0.79731894,-1.1403941,1.5198433,0.6247401,-0.9165107,-0.12272999,-0.5348537,-1.3088975,1.2388957,1.4087919,0.30005014,-0.1605411,-0.60358393,0.38541308,-0.06454471,0.4690004,-0.40649506,0.339221,-1.2762632,-1.3660879,0.538009,0.07784994,-0.72600836,0.34398174,-0.87827134,-1.3036598,1.4029076,-0.1807122,1.516407,-0.55525523,0.9688463,-0.8105152,-0.1946752,-0.119873226,-0.093799755,0.7140026,-0.5988374,-0.36944127,1.7425568,1.9248601,0.346484,-0.76244307,-0.18212703,0.7724368,-1.0407089,-0.71298814,0.0060867034,1.2233136,0.27140033,-1.591966,0.5017355,0.44104046
AsPC-1,2.4186115,0.8760261,1.1439501,-0.19932383,1.4041159,0.06656772,1.911215,0.12208104,0.5981039,0.3017815,-1.8125578,-1.8423085,-1.04228,0.590994,-1.2383593,-0.3368984,0.16112065,0.43139222,2.5694706,-1.1722958,0.32952315,-1.6285704,-0.9187788,-0.9096676,-2.0806231,-0.051603734,-1.711879,-0.09896317,-2.4014604,-1.3148278,-0.2512805,0.7081923,2.8040843,-0.4745491,2.1701512,1.3061978,0.5051377,-1.0249323,-0.0033129454,-0.13221735,1.019758,-0.6328371,0.88905203,-1.2484348,0.79143935,0.55926573,-1.4951097,-0.42583397,-1.7585505,0.0680348,0.19186649,-1.0956692,1.5769925,0.30711204,0.48632422,0.68869543,-0.13978073,0.519076,-0.2038538,-1.511609,-0.47724032,-0.2940318,-0.77490675,1.5740049,-0.92174494,1.5268517,0.5610887,-0.32870573,1.3242371,-1.0960511,1.9331268,0.95238584,1.4115132,-1.70128,1.8732693,0.6807436,-1.0588766,0.27532735,-0.5426227,-1.6227643,1.7697436,2.1185331,0.2543676,-0.0012719191,-0.9712733,1.1465181,0.57218957,1.0082312,-0.83794224,0.4238186,-1.6558867,-1.8272407,0.751028,0.31489372,-1.3674197,0.4202783,-1.3676515,-1.6913725,1.7510617,0.103532344,1.9004024,-0.41697317,0.94329023,-1.0663536,0.35090935,0.5374568,0.18002947,1.1273714,-0.50181913,-0.40660495,2.3436782,2.5351295,0.6850633,-1.2596474,-0.7409575,1.0554326,-1.4302926,-1.0885696,0.5222895,1.5984889,0.5581056,-1.9248205,0.610515,0.9650032
SAS,0.2387784,-0.12854569,-0.13535257,-0.41653627,0.24465027,-0.44716173,0.29286948,0.17703143,-0.26072526,0.28008536,0.08278953,0.28102824,0.45257932,0.026673371,0.03434972,-0.46449965,-0.078887165,0.343988,0.23472843,-0.077796005,0.43066615,0.4276744,0.4503093,-0.095714554,-0.21128675,-0.18566102,0.11418935,-0.39794424,-0.20078565,-0.43013498,-0.2595238,0.4745148,0.31361452,0.41321403,-0.20056856,0.14783952,0.24330737,-0.023395674,-0.3410194,-0.203165,0.0699258,-0.09424644,0.3623611,-0.4637029,-0.19375293,-0.14585815,0.49800384,0.034750067,-0.317638,0.014493558,-0.07328027,-0.06608573,-0.24455316,0.16211756,0.37518004,-0.42413092,-0.2775889,-0.28213662,0.18154742,-0.4338005,-0.47008765,-0.11223573,0.09948564,0.11386259,-0.32827988,0.15239485,0.2708997,-0.4187798,0.43563136,-0.26947525,-0.06388227,-0.08175524,0.18861517,-0.20191136,0.30478853,-0.20284978,-0.46505746,-0.2558088,0.38819814,0.3807674,-0.0011940734,0.5050262,0.25900042,-0.00014624075,-0.3358525,-0.299378,0.02262482,-0.0013026665,0.28226498,-0.07392144,-0.35450658,-0.460774,0.02495266,-0.21574478,0.40306646,0.08502818,-0.42074686,-0.30439866,0.33160913,0.3316274,0.39621475,-0.0714422,-0.039702903,-0.41272855,-0.4088838,-0.48437327,-0.2115709,0.013658732,-0.14781101,0.3095566,-0.050768737,0.20520394,0.3011847,-0.48375776,-0.034737613,-0.17006046,-0.29693654,-0.42607376,-0.01818258,0.17006847,-0.10894835,-0.04189673,-0.27252465,-0.12338978
NCI-H2228,1.5136139,0.39700478,0.680972,-0.20713502,0.90566444,-0.07303351,1.2028292,0.11860244,0.18639624,0.31374022,-0.9686855,-0.94626904,-0.3957234,0.5075433,-0.7456656,-0.43614966,0.071320504,0.3525641,1.649372,-0.7885499,0.4220125,-0.8064393,-0.325111,-0.5138886,-1.325325,-0.043173492,-0.8664705,-0.13884333,-1.4513534,-0.9234425,-0.3560819,0.6428634,1.7737035,-0.010456026,1.1595571,0.84476554,0.27944112,-0.5640875,-0.15121943,-0.049785078,0.65048593,-0.491314,0.6387334,-0.86100876,0.31782156,0.33387434,-0.60709345,-0.12704435,-1.2826549,0.0123108355,0.03991855,-0.6595387,0.75360614,0.36414415,0.4690269,0.13661641,-0.044917375,0.2754506,-0.050030783,-1.0108129,-0.33098412,-0.053971,-0.33711863,0.8763097,-0.64272296,0.89442384,0.35139537,-0.4558435,1.0185827,-0.8033947,1.0798563,0.43875262,0.9977989,-1.0350987,1.1924129,0.25144717,-0.8801471,0.17081562,-0.13717687,-0.7060923,1.0122769,1.429859,0.1445787,0.0039251363,-0.7369472,0.5094534,0.41982213,0.52223045,-0.51642454,0.25499272,-1.1568791,-1.374481,0.3536542,0.009825781,-0.57426697,0.33390188,-1.0834563,-1.2200544,1.1946399,0.3426328,1.2777785,-0.31705326,0.42191863,-0.8267282,0.13698173,0.11300212,-0.06457059,0.7900115,-0.39923537,-0.016130269,1.4202224,1.5110612,0.5901813,-1.0214621,-0.56566,0.5447132,-0.97050405,-0.94442034,0.34649208,0.9467341,0.444656,-1.0937725,0.20112818,0.4440164
SCC-15,0.2387784,-0.12854569,-0.13535257,-0.41653627,0.24465027,-0.44716173,0.29286948,0.17703143,-0.26072526,0.28008536,0.08278953,0.28102824,0.45257932,0.026673371,0.03434972,-0.46449965,-0.078887165,0.343988,0.23472843,-0.077796005,0.43066615,0.4276744,0.4503093,-0.095714554,-0.21128675,-0.18566102,0.11418935,-0.39794424,-0.20078565,-0.43013498,-0.2595238,0.4745148,0.31361452,0.41321403,-0.20056856,0.14783952,0.24330737,-0.023395674,-0.3410194,-0.203165,0.0699258,-0.09424644,0.3623611,-0.4637029,-0.19375293,-0.14585815,0.49800384,0.034750067,-0.317638,0.014493558,-0.07328027,-0.06608573,-0.24455316,0.16211756,0.37518004,-0.42413092,-0.2775889,-0.28213662,0.18154742,-0.4338005,-0.47008765,-0.11223573,0.09948564,0.11386259,-0.32827988,0.15239485,0.2708997,-0.4187798,0.43563136,-0.26947525,-0.06388227,-0.08175524,0.18861517,-0.20191136,0.30478853,-0.20284978,-0.46505746,-0.2558088,0.38819814,0.3807674,-0.0011940734,0.5050262,0.25900042,-0.00014624075,-0.3358525,-0.299378,0.02262482,-0.0013026665,0.28226498,-0.07392144,-0.35450658,-0.460774,0.02495266,-0.21574478,0.40306646,0.08502818,-0.42074686,-0.30439866,0.33160913,0.3316274,0.39621475,-0.0714422,-0.039702903,-0.41272855,-0.4088838,-0.48437327,-0.2115709,0.013658732,-0.14781101,0.3095566,-0.050768737,0.20520394,0.3011847,-0.48375776,-0.034737613,-0.17006046,-0.29693654,-0.42607376,-0.01818258,0.17006847,-0.10894835,-0.04189673,-0.27252465,-0.12338978
