,E0,E1,E2,E3,E4,E5,E6,E7,E8,E9,E10,E11,E12,E13,E14,E15,E16,E17,E18,E19,E20,E21,E22,E23,E24,E25,E26,E27,E28,E29,E30,E31,E32,E33,E34,E35,E36,E37,E38,E39,E40,E41,E42,E43,E44,E45,E46,E47,E48,E49,E50,E51,E52,E53,E54,E55,E56,E57,E58,E59,E60,E61,E62,E63,E64,E65,E66,E67,E68,E69,E70,E71,E72,E73,E74,E75,E76,E77,E78,E79,E80,E81,E82,E83,E84,E85,E86,E87,E88,E89,E90,E91,E92,E93,E94,E95,E96,E97,E98,E99,E100,E101,E102,E103,E104,E105,E106,E107,E108,E109,E110,E111,E112,E113,E114,E115,E116,E117,E118,E119,E120,E121,E122,E123,E124,E125,E126,E127,E128,E129,E130,E131,E132,E133,E134,E135,E136,E137,E138,E139,E140,E141,E142,E143,E144,E145,E146,E147,E148,E149,E150,E151,E152,E153,E154,E155,E156,E157,E158,E159,E160,E161,E162,E163,E164,E165,E166,E167,E168,E169,E170,E171,E172,E173,E174,E175,E176,E177,E178,E179,E180,E181,E182,E183,E184,E185,E186,E187,E188,E189,E190,E191,E192,E193,E194,E195,E196,E197,E198,E199,E200,E201,E202,E203,E204,E205,E206,E207,E208,E209
KYM-1,-0.31400564,0.61546046,-0.643858,0.032923266,0.6255318,-0.5389524,0.107976705,0.27884144,0.21706809,-0.2745749,1.0248781,-0.50142884,-0.9372751,-0.26522315,0.5935059,-0.65447015,-0.2885967,-0.26195613,0.12024766,0.5283025,-0.78993064,0.26871112,0.036637835,-0.20660752,-0.5950172,-0.04351154,-0.9886476,-0.1661024,0.35071716,-0.33281392,-0.5349179,0.4591008,0.28475037,-0.15983263,0.6364579,0.21577565,-1.3400929,0.5690205,-0.28288707,0.4218447,-0.046122983,0.25313765,-0.14647976,-0.38473293,0.22809261,-0.13793743,-0.8082914,-0.4169797,-0.41292015,0.14073212,0.14120466,-0.1737921,-0.3506606,-0.6315645,-0.15098897,0.5351208,0.40291747,0.66898346,-0.2398462,0.6094987,0.47663403,-1.501019,0.19201885,0.19031699,-0.501218,0.0027295696,0.5294521,0.16814174,-0.2915384,-0.5522007,0.83753717,-0.033478446,-0.12290721,-0.5654961,0.2896993,0.6272767,-0.2694645,0.54129106,1.1167283,0.3205957,0.21089323,0.64913285,-0.7555368,0.045056146,-0.53607243,0.41421822,-0.24242517,0.5438406,-1.0525243,-0.72386056,-0.26556724,-0.38094833,1.0004069,0.9392022,-0.73143584,-0.11068377,-0.2311213,-1.0275112,0.6479459,-0.30156475,0.21063605,0.15222292,0.4453445,0.2834623,0.6980679,0.60485506,-0.15308031,0.43887854,-0.32460907,-0.38565856,-0.46448785,-0.18378153,-0.46896482,-0.21962011,-0.46098837,-0.49996287,0.3497411,0.2548523,0.08181805,-0.16418734,0.41475222,0.055006698,-0.44694376,0.04312373,0.2637856,-0.07300124,-0.14951557,-0.24162021,0.05466406,0.37707373,-0.5683072,0.109879,-0.5310315,-0.10379067,-0.14567013,0.18405004,-0.44486654,0.5308133,0.47981516,0.010935754,0.25515395,-0.5131878,-0.020161634,-0.08084309,0.4641339,0.102820665,0.43730113,0.42907864,0.0335213,0.11215414,0.21724626,0.4973306,-0.06276317,0.29741544,0.05267153,0.4405697,0.3326638,0.010238983,0.48369747,0.022209588,0.3258445,-0.65119195,0.13590425,0.45005637,0.3620796,0.0015248209,-0.18398228,0.120037064,-0.43079874,-0.5795243,-0.2642733,-0.5962977,-0.556518,-0.052764863,-0.54210955,-0.23295954,-0.5750133,-0.35524955,0.0007381961,0.6176492,-0.18489327,0.28078794,0.3889825,-0.41675887,-0.26397136,0.12142727,0.29970372,0.2547913,-0.4826529,-0.4172094,0.4293539,-0.06251855,0.16513067,0.60148233,-0.06817434,0.2984291,-0.33518842,0.5721258,0.41400915,0.05178364,0.24197213,-0.019760936,-0.6494285,-0.0549594,-0.45712784,-0.20528,-0.4927671,-0.33397657,0.045481063,-0.12378323
T84,-1.4294871,-1.8139502,0.8469011,-0.28148165,1.4107947,1.6425083,2.5237215,0.117119364,0.99466157,-0.5088093,-0.4999744,0.28011394,0.006351821,-0.72169715,-0.1116647,1.0811173,-0.012240879,-1.2518044,0.3530986,-0.20534258,1.0494385,-0.503471,-0.3524574,0.9502882,-1.2140564,2.0224452,-1.1922512,-2.5729964,-0.52026635,3.2244365,-0.7572968,0.7309514,1.0955281,-0.44768256,0.98088837,2.514027,0.040949296,-1.0685176,0.077774055,-0.020190317,-2.675706,0.60446143,0.7813577,1.1660829,1.0075197,0.84542125,-1.412879,-1.5384746,-1.3397901,1.9168082,-0.15325892,2.1299307,1.5731137,1.368886,-1.039701,2.008423,3.3386402,-0.24031997,-0.72717017,0.112127006,0.14447135,-2.2348394,0.84564847,0.070360154,0.35435838,1.7250282,-0.8719615,2.4173827,2.6842759,-2.1183763,1.8482531,-0.21365309,-0.82661724,1.3757232,0.5120583,-0.24294668,-1.9662162,-0.49948296,-1.3639585,1.4009122,1.270266,0.20088103,-1.1327959,-1.3463966,0.7703524,1.3095286,-0.5892884,-1.8940192,0.024038844,-2.4055505,0.31858173,-2.8254957,2.1512268,1.0597306,2.369051,2.1074967,3.7891903,-0.95493454,0.86730725,0.30427778,0.6533892,1.2154909,-1.0885283,-1.3377069,-2.115548,0.42117316,-0.18385148,0.5162475,-0.3596135,-0.33163324,-0.5109175,-0.05614046,-0.49770933,-0.19572511,-0.42499545,-0.4692596,0.32575974,0.07983361,0.07577533,-0.1938152,0.30478308,-0.0390168,-0.37510812,0.017642744,0.23604685,-0.056201167,-0.16202259,-0.32847703,0.11335,0.3614947,-0.49811012,0.0928725,-0.40966168,-0.20793787,-0.14933313,0.27596563,-0.26976714,0.3928278,0.42393047,0.021359175,0.2918448,-0.4948033,-0.0515022,-0.110567346,0.46540678,0.15314963,0.31031635,0.47020754,-0.013077464,0.06560409,0.25870895,0.49569914,-0.04060592,0.26312053,0.1355567,0.5263253,0.4840241,0.19170818,0.35555565,0.04644812,0.4894587,-0.57513106,0.043103598,0.49262646,0.41533595,-0.082837425,-0.14347701,0.2752813,-0.2834965,-0.6932322,-0.33086982,-0.4603522,-0.535478,-0.22855663,-0.67830235,-0.3352848,-0.48711586,-0.3324787,0.14638466,0.63651156,-0.18660688,0.40720206,0.3087387,-0.32964206,-0.09861031,0.090800405,0.36981812,0.31051785,-0.45894507,-0.34085232,0.56222016,-0.14488746,0.25489378,0.5568264,-0.10141314,0.14414173,-0.23358713,0.42493552,0.38640472,-0.07534653,0.25317302,0.0451096,-0.58324754,-0.070779696,-0.4002553,-0.25160247,-0.5336789,-0.3976749,0.057626203,-0.14330313
MOLT-4,1.0703405,5.374266,2.09248,-0.8766076,0.53463936,-3.2544863,-9.102488,2.8584113,3.947517,3.5506687,4.4964924,-0.37012273,-1.5014379,2.8449059,-6.9789977,-4.8580103,-5.6257977,2.8898695,2.4578123,3.8269947,-0.04142206,-1.3938493,-4.392678,-5.2906623,2.1581223,-2.2332768,-1.0207294,1.5509822,0.08195785,-7.3659472,0.6599004,0.07414503,-2.694816,6.4132557,-4.5531797,-9.220641,-1.1181685,8.08371,-2.927847,0.16304632,4.998105,1.2190819,-1.0268846,-9.492,-1.2981333,-5.3788953,2.9789653,4.81456,5.8129854,-6.593059,-4.1575365,-4.997834,-1.5292778,0.30726913,3.8948035,0.74719226,-4.5557594,-2.8813486,0.018635286,-2.9825923,-1.701317,0.38397327,4.4299645,2.9210825,3.8750606,-2.1270354,3.270152,-4.588939,-5.2146626,-3.6616929,-1.8518996,3.20156,4.065948,-4.020652,-3.802679,2.5609279,-2.2082524,-0.23922548,-2.1144407,-1.6696802,-5.144825,4.915521,1.1378713,1.9517587,-0.29473424,-2.7026136,1.4430046,7.6557875,-4.039941,-3.6841576,2.4489505,-2.3596954,0.16746408,6.2645197,-3.9180703,0.42837223,-5.142061,-2.292757,-1.4360108,-1.1476204,-3.2353978,-7.0784154,-2.3312767,1.2454495,4.741908,0.6444687,0.14008337,0.43101576,-0.6517416,-0.3790475,-0.8366238,-0.39232394,-0.8474841,0.19455677,-0.41514426,-0.359242,0.05519247,0.24058919,-0.022213591,-0.42358592,0.33245265,-0.12997703,-0.4467563,0.06572872,-0.16967487,0.24037907,0.03873685,-0.26274446,0.05478847,0.27920157,-0.29742944,0.22686552,-0.27256396,-0.06933683,0.27739412,0.056571826,-0.5385397,0.3352837,0.14490142,-0.21544752,0.6642674,-0.2394015,-0.11785805,-0.10037626,0.49010733,0.5050871,-0.087668896,0.34383905,-0.28997323,-0.283267,0.45185724,0.22230324,0.24542974,0.60161155,0.23485887,0.57153416,0.75273,0.031941064,0.3301685,0.3854918,0.23094077,-0.36780697,-0.28304595,0.7554149,0.0981065,-0.11220217,-0.46315092,0.18945377,-0.4450686,-0.50728065,-0.60040617,-0.4038223,-0.5532208,0.14145705,-0.34864706,-0.3293978,-0.84429,0.048936456,0.38643348,0.7936183,-0.14705855,0.24526891,-0.045495957,-0.40972748,0.18103066,-0.24990639,0.6759077,0.12125343,-0.19855428,-0.18107939,0.6305672,-0.46737352,0.58256376,0.40562242,0.19650266,0.14772674,0.049223185,0.5124339,-0.0127569735,-0.24364342,0.4931578,-0.09384324,-0.5130669,-0.304111,-0.0030554533,0.10073611,-0.7376846,-0.014590204,0.32876137,-0.31094614
GDM-1,0.6319101,7.143743,2.114346,-0.44374755,1.7455274,-4.472815,-12.792318,4.136825,6.866961,3.8877692,7.173807,0.48779637,-4.141095,3.7268603,-10.778217,-7.0072093,-8.246305,4.1375856,2.796588,4.14206,-0.99516577,-0.51184577,-7.2829175,-6.658861,2.1993556,-1.723216,-2.7260864,1.5577725,0.07846526,-10.922637,1.5510005,0.46617073,-5.093656,8.211559,-6.107132,-12.467552,-1.2105125,10.6006775,-4.158891,2.0365057,7.253214,4.1410484,-2.9311879,-14.3790245,-0.442226,-7.935995,3.467539,6.8536944,8.858199,-10.170711,-7.035362,-7.904074,-1.6960614,0.7001583,4.5157413,1.0095694,-5.7209363,-3.9693675,-0.26050192,-5.1502676,-3.1250832,0.042445287,6.9942775,5.498563,5.176227,-4.0365176,3.752792,-7.2490563,-7.909198,-4.812266,-1.3312993,4.5233645,6.322654,-6.0169005,-4.8331714,4.66259,-2.8222804,-0.67222047,-3.626716,-2.0030417,-7.3058434,5.653216,-0.6079836,2.7422984,0.104514085,-3.9987707,1.4612217,10.964836,-5.3902164,-4.3804574,2.9728982,-3.5315497,1.5404228,8.733304,-7.2009587,1.4819617,-7.344331,-4.5945663,0.4458549,-0.017761318,-4.5051622,-9.065256,-4.3083873,2.3692155,8.259768,0.60485506,-0.15308031,0.43887854,-0.32460907,-0.38565856,-0.46448785,-0.18378153,-0.46896482,-0.21962011,-0.46098837,-0.49996287,0.3497411,0.2548523,0.08181805,-0.16418734,0.41475222,0.055006698,-0.44694376,0.04312373,0.2637856,-0.07300124,-0.14951557,-0.24162021,0.05466406,0.37707373,-0.5683072,0.109879,-0.5310315,-0.10379067,-0.14567013,0.18405004,-0.44486654,0.5308133,0.47981516,0.010935754,0.25515395,-0.5131878,-0.020161634,-0.08084309,0.4641339,0.102820665,0.43730113,0.42907864,0.0335213,0.11215414,0.21724626,0.4973306,-0.06276317,0.29741544,0.05267153,0.4405697,0.3326638,0.010238983,0.48369747,0.022209588,0.3258445,-0.65119195,0.13590425,0.45005637,0.3620796,0.0015248209,-0.18398228,0.120037064,-0.43079874,-0.5795243,-0.2642733,-0.5962977,-0.556518,-0.052764863,-0.54210955,-0.23295954,-0.5750133,-0.35524955,0.0007381961,0.6176492,-0.18489327,0.28078794,0.3889825,-0.41675887,-0.26397136,0.12142727,0.29970372,0.2547913,-0.4826529,-0.4172094,0.4293539,-0.06251855,0.16513067,0.60148233,-0.06817434,0.2984291,-0.33518842,0.5721258,0.41400915,0.05178364,0.24197213,-0.019760936,-0.6494285,-0.0549594,-0.45712784,-0.20528,-0.4927671,-0.33397657,0.045481063,-0.12378323
HCC202,0.24626154,-1.9548591,1.7713914,-0.04808364,0.41010925,1.4897681,1.198399,0.012724377,-0.063683115,-0.37243095,-1.1858128,0.5498039,0.8803116,-0.1692404,-0.12660804,1.3797508,0.73934615,0.08266277,0.27329877,-0.17786312,1.3156826,-0.5939207,0.06515364,0.86363995,-0.46220818,1.1197678,0.18533015,-1.6551769,-0.16135761,2.7514918,-0.10446563,0.37086245,1.1223803,0.04053381,-0.4266971,1.7339641,1.478404,-1.014012,0.7771016,-0.8376227,-3.0584457,-0.052034266,1.0122555,1.8228459,0.26426673,0.48904404,-0.087189294,-0.9912577,-0.5309983,1.1448957,-0.28400093,1.094769,1.9343208,0.9822959,-0.11441338,0.34661776,1.7736617,-1.0873823,-0.37018496,-0.2786253,0.31464934,-0.6261907,0.1814059,-1.0463855,0.79899967,1.2900542,-1.3294977,1.7863388,2.687343,-0.9241322,0.2495104,-0.29172546,-0.17579515,1.8350005,0.20450129,-1.0890203,-0.57223463,-0.80653703,-1.8385327,0.17611453,0.85145557,-0.42568392,0.3000645,-1.0260617,0.49716994,1.1108108,-0.15449399,-2.2226973,1.0184578,-0.3998816,1.0244175,-1.0114162,0.36034557,-1.0007144,2.3268566,1.8241348,2.2577472,0.7799057,-0.68027693,-0.3951071,0.07000901,1.085653,-0.50942975,-1.9264152,-2.5579717,0.669236,0.032223195,0.37085444,-0.53399557,-0.44828522,-0.8837111,-0.3508543,-0.77807546,0.20253581,-0.40798056,-0.32319725,0.13302687,0.2587347,-0.064917885,-0.32105497,0.31547356,-0.07540451,-0.3618304,-0.01666338,-0.022419035,0.15067974,-0.10042322,-0.23765904,0.10031374,0.20063034,-0.2758656,0.19512089,-0.33745238,-0.087106615,0.15260278,0.047622487,-0.5212339,0.4070763,0.10927847,-0.20843892,0.72171503,-0.20748472,-0.059362624,-0.15602478,0.42721692,0.38362512,0.019020438,0.3364068,-0.27345628,-0.19583818,0.46042535,0.18159395,0.2745053,0.47470355,0.19070286,0.595507,0.730039,0.0177956,0.38346952,0.36247152,0.21358958,-0.3483857,-0.18402052,0.825802,0.12873873,-0.14032005,-0.3732995,0.20483954,-0.42531493,-0.45981008,-0.56241477,-0.44289878,-0.50811833,0.14613715,-0.3065802,-0.30405706,-0.75025237,0.032395035,0.30863822,0.681148,-0.1688693,0.23492813,-0.052880377,-0.3483012,0.10091463,-0.12395999,0.7123021,0.20756921,-0.16866553,-0.1756584,0.6198881,-0.34582725,0.49769083,0.33928478,0.2169697,0.15253463,0.012125939,0.53227884,-0.05905354,-0.23064236,0.45037434,-0.16031632,-0.47528255,-0.36684936,-0.13989195,-0.028214037,-0.6869082,-0.13890427,0.2844637,-0.37857127
SNU-475,-0.21794453,0.37705812,-2.5880668,-0.25049376,0.81468654,-0.78746,0.7772746,-0.008688025,-0.39023668,0.0011283513,2.5277321,-1.9065405,-1.6075598,-0.081206486,1.4912748,-1.8157136,1.1327131,-1.2802372,-0.7585178,0.8170377,-1.8237797,-0.03692834,0.49019566,0.08085446,-0.8836367,-0.8739402,-1.1399821,-0.77633584,1.5067916,-0.3705588,-1.213885,1.2493414,0.721962,-1.3448952,0.6661649,0.5103046,-1.4020315,0.30126587,-1.4601481,0.56653005,0.3059178,-0.04654699,-0.28477237,0.11213384,-0.025599916,0.23467946,-1.0716705,-1.428752,-0.5355084,0.73771954,1.8235409,-0.59481007,-0.17708603,-0.66766375,0.25317767,0.518223,-0.006285453,1.247294,-0.17891839,1.1903601,1.1522112,-2.4977756,1.0923744,0.26168245,-2.1353912,-0.761697,1.6053772,1.2235397,0.5800744,0.17004545,1.6399268,0.24567504,-0.12293212,-2.0020924,0.40602222,1.6282724,0.3578416,0.7616673,2.1227837,-0.1373689,0.7971237,1.1044067,-1.735812,-0.6703164,-1.4839307,1.0822318,-0.17743503,0.22423011,-1.5335115,-0.75196844,0.031070184,-0.52492297,2.251613,1.3248069,-1.3041999,0.09955938,-0.27749348,-1.9795312,0.31158707,-0.7465571,0.8225349,1.0129292,1.0336645,0.00054327026,0.52068144,0.669236,0.032223195,0.37085444,-0.53399557,-0.44828522,-0.8837111,-0.3508543,-0.77807546,0.20253581,-0.40798056,-0.32319725,0.13302687,0.2587347,-0.064917885,-0.32105497,0.31547356,-0.07540451,-0.3618304,-0.01666338,-0.022419035,0.15067974,-0.10042322,-0.23765904,0.10031374,0.20063034,-0.2758656,0.19512089,-0.33745238,-0.087106615,0.15260278,0.047622487,-0.5212339,0.4070763,0.10927847,-0.20843892,0.72171503,-0.20748472,-0.059362624,-0.15602478,0.42721692,0.38362512,0.019020438,0.3364068,-0.27345628,-0.19583818,0.46042535,0.18159395,0.2745053,0.47470355,0.19070286,0.595507,0.730039,0.0177956,0.38346952,0.36247152,0.21358958,-0.3483857,-0.18402052,0.825802,0.12873873,-0.14032005,-0.3732995,0.20483954,-0.42531493,-0.45981008,-0.56241477,-0.44289878,-0.50811833,0.14613715,-0.3065802,-0.30405706,-0.75025237,0.032395035,0.30863822,0.681148,-0.1688693,0.23492813,-0.052880377,-0.3483012,0.10091463,-0.12395999,0.7123021,0.20756921,-0.16866553,-0.1756584,0.6198881,-0.34582725,0.49769083,0.33928478,0.2169697,0.15253463,0.012125939,0.53227884,-0.05905354,-0.23064236,0.45037434,-0.16031632,-0.47528255,-0.36684936,-0.13989195,-0.028214037,-0.6869082,-0.13890427,0.2844637,-0.37857127
TGBC11TKB,-0.46813065,-1.606356,1.7051249,0.15431896,0.3709771,1.2473452,1.4107788,-0.13889858,0.013096698,-0.14208546,-1.6699734,0.72243893,0.99787277,-0.18512788,-0.08203605,1.4028925,0.45361698,-0.3351317,0.03310557,-0.63863766,1.2576797,-0.047431864,-0.24405551,0.8914106,-0.46228918,1.4546224,0.2175829,-1.4276099,-0.6120497,2.839297,0.013034303,-0.029532775,1.0653296,-0.025784008,0.02025354,1.7001412,1.1021798,-0.763289,0.74024135,-0.50507534,-1.9340793,0.102490954,0.86180586,1.4712183,0.5361339,0.5380146,-0.271509,-0.5638091,-0.56038564,1.0798053,-0.24476352,1.4013637,1.0409201,0.79204106,-0.13718897,0.7978406,1.8656032,-0.65555036,-0.3826736,0.036903758,-0.048743695,-0.31377006,-0.29198885,-0.49322593,0.58041614,1.3661081,-1.2859672,1.1933236,2.5151026,-0.77456343,0.106015325,0.077649415,-0.62236905,1.8095382,0.019395411,-0.9906063,-0.6802753,-0.4640657,-1.657584,0.23452955,0.7734571,-0.45136285,0.37171707,-0.6952602,0.54817706,0.8879241,0.15521777,-1.8846271,0.83688617,-1.1215061,0.44605252,-0.7136217,0.14512455,-0.6283551,2.048548,1.6007462,2.1345506,0.5286492,-0.25261682,-0.25786996,0.33556375,0.71127325,-0.024737988,-1.3470851,-1.7139277,-0.55613166,0.45856223,1.4228919,-1.3065641,0.56406367,0.22653961,0.23645386,-0.87091637,-0.6679564,-0.41764796,-0.8847634,-0.2126536,-0.7357482,0.6077198,-1.0447272,0.16557685,-0.7272106,-0.9722394,0.73420024,-0.8606842,0.5543655,0.98745507,-0.8803258,-0.13209583,1.2153924,-0.77104884,0.21696384,0.39945117,-0.45276168,0.6149949,0.85468537,0.310943,-0.6208025,0.96682227,0.2508815,-0.6297278,-1.0680493,-0.6486335,0.36738646,1.0789591,1.1075644,-0.6356391,0.7966393,0.021257583,-0.5370009,0.05344507,1.2217112,-0.61086625,1.0732286,0.67994136,0.4485116,0.7883122,0.9819119,-0.48241854,-0.05064791,1.3811747,-0.81908405,-0.8212439,-0.4184963,0.6069156,0.022282556,-0.58311486,0.6131581,0.07751909,-1.6799915,-0.5740764,0.21689415,-0.91963243,-1.151622,-1.8337513,-0.85976505,-0.8053371,-0.5481924,1.0291437,1.6451658,-0.015180454,1.021252,0.589888,-0.63940394,0.8120148,-0.87207377,-0.17605937,-0.20550308,-1.0038273,-0.38675678,0.9294559,-1.2157428,0.96597755,1.2922931,-0.7388508,-0.30121866,0.07418427,-0.25231084,1.2487618,-0.33584502,0.4384081,1.0462997,-0.8800715,0.79655343,0.67458093,0.5326299,-0.9173357,0.2596671,0.22457415,0.68820214
TE-5,-0.74007356,-1.0382726,-0.121987954,-0.31888673,0.66918623,1.0052646,0.9881196,0.33879137,0.58455074,0.19114536,0.6500039,-0.340136,-0.42933518,-0.045263898,-0.13888785,0.28002217,0.044720884,-1.1606939,0.088592395,0.068865664,-0.05127985,-0.57352567,-0.30604973,0.31016514,-0.53381085,1.0239786,-0.8574846,-1.55223,0.33829167,1.315109,-0.35823056,0.83267844,0.33416602,-0.3549251,0.386266,1.2590532,-0.3075765,-0.2996394,-0.39547148,0.3195546,-0.92729664,0.37953794,-0.0012894347,0.09093288,0.53373027,0.17795011,-0.9433919,-0.85600513,-0.514024,1.0156683,-0.1626445,0.5269872,0.94060624,0.90678453,-0.08668473,1.0394955,1.4526066,-0.09472841,-0.3649947,-0.10835579,0.41903883,-1.4129639,0.98927057,0.56845844,-0.26111156,0.7462625,-0.3165225,1.4067409,1.0697209,-0.8844162,0.7612998,0.04968277,-0.29538438,-0.07423099,0.02309607,0.26267973,-1.2096841,-0.34424666,-0.7667051,0.7309446,0.2970469,0.3120375,-1.2418882,-0.9658819,0.4747133,0.7186334,-0.12471759,-0.76415765,0.021014832,-1.6679702,0.66196585,-2.1487982,1.6472569,0.97388005,0.7956676,1.3085732,2.3134587,-0.79341763,0.7160882,0.032195028,0.2671796,0.3911951,-0.9331674,-0.81780154,-0.88294226,0.41912454,-0.18250486,0.51814806,-0.3615985,-0.3297557,-0.50937164,-0.05552713,-0.49849164,-0.196715,-0.42498004,-0.47013056,0.32463112,0.078124,0.07689039,-0.19559887,0.30449128,-0.04045938,-0.37635982,0.019144781,0.2337479,-0.054921307,-0.15961307,-0.3296338,0.1128355,0.36328462,-0.49868223,0.09313262,-0.40796563,-0.20845106,-0.14773096,0.27717876,-0.26854986,0.39070305,0.42506847,0.021840297,0.289913,-0.49600494,-0.0527539,-0.10956547,0.4666929,0.15515026,0.30833346,0.4708918,-0.013005491,0.06434092,0.25827867,0.497221,-0.041801292,0.26481867,0.13669783,0.52616215,0.48466194,0.19336459,0.3537991,0.046244588,0.4913279,-0.5756424,0.041291766,0.49071658,0.41573754,-0.082617074,-0.14439857,0.2759896,-0.28273976,-0.6953006,-0.33137965,-0.45893258,-0.53628325,-0.23049155,-0.6807244,-0.3363842,-0.4877829,-0.33293086,0.14823508,0.6386259,-0.18624754,0.40848923,0.30932805,-0.3302914,-0.09670147,0.08878204,0.36867386,0.30943617,-0.46008724,-0.34094852,0.56298995,-0.14713217,0.25638434,0.5583681,-0.102749325,0.14320818,-0.23294199,0.4235159,0.38821238,-0.07589258,0.25356132,0.04720828,-0.5838697,-0.068961605,-0.39800224,-0.24995857,-0.5344831,-0.39629698,0.057976156,-0.14156014
Mino,2.1015687,4.3525977,3.6334069,0.26353562,0.13821834,-2.9483721,-9.316788,2.6675837,2.8910446,3.0469565,2.9160755,-0.78132105,-0.5232251,3.2702043,-8.485409,-3.8348432,-5.696605,4.6052146,2.6011405,4.7084093,1.2391081,-1.6103027,-3.7723167,-4.4038987,3.5525181,-2.41039,-0.13105628,0.847068,-0.3665271,-6.3714085,1.1210492,-0.29696742,-1.8398504,7.708417,-5.420925,-8.767428,0.94547457,8.350859,-1.7443141,-1.2990687,3.3433714,0.73960406,-0.214223,-9.801401,-0.68302006,-6.7474804,4.045863,4.450934,5.2676654,-6.341421,-4.2003617,-5.635519,-0.3858504,0.94521004,5.6580825,1.3057046,-4.0655007,-3.4094658,0.45373917,-2.7603931,-1.8953993,1.057521,4.47792,2.331069,4.5243444,-2.2203999,3.0165155,-4.143812,-4.780318,-4.09051,-2.659632,3.093611,4.116444,-3.946935,-4.630195,2.0596454,-1.5772821,-0.65378827,-4.8714404,-1.2360339,-4.516091,4.0576844,2.8284929,0.55995435,0.15573062,-2.1695216,1.7413927,6.396356,-4.3349323,-2.8605165,2.4046526,-0.62629557,-0.75866073,5.307799,-2.4207132,1.0649045,-4.882389,-1.0169674,-3.0773604,-1.2704375,-3.588802,-6.526383,-2.817755,0.43358344,2.9033475,0.40636462,-0.17411736,0.5299854,-0.3739621,-0.31806126,-0.49974322,-0.051706947,-0.5033643,-0.20288056,-0.4248841,-0.47555548,0.31760147,0.06747557,0.08383558,-0.20670858,0.30267376,-0.0494446,-0.3841561,0.028500326,0.21942872,-0.046949603,-0.14460522,-0.33683887,0.1096309,0.3744333,-0.5022458,0.09475279,-0.39740166,-0.21164754,-0.13775171,0.28473467,-0.26096797,0.37746885,0.4321566,0.024836995,0.27788073,-0.5034894,-0.060550187,-0.10332519,0.47470358,0.16761133,0.29598284,0.47515377,-0.012557205,0.056473166,0.2555987,0.5067,-0.049246747,0.27539563,0.14380544,0.5251462,0.4886348,0.20368168,0.3428583,0.04497688,0.50297034,-0.5788275,0.03000664,0.47882074,0.41823885,-0.0812446,-0.15013859,0.280401,-0.27802625,-0.70818394,-0.334555,-0.4500903,-0.54129887,-0.24254331,-0.6958102,-0.34323195,-0.49193767,-0.33574727,0.1597606,0.65179515,-0.18400936,0.4165064,0.3129988,-0.3343357,-0.084812135,0.07621053,0.36154675,0.30269888,-0.46720135,-0.34154788,0.56778467,-0.16111352,0.26566842,0.5679705,-0.11107186,0.13739344,-0.22892365,0.4146736,0.39947152,-0.07929371,0.25597978,0.060280055,-0.58774513,-0.057637498,-0.38396892,-0.23971945,-0.5394922,-0.38771456,0.06015587,-0.1307038
OVTOKO,0.4325579,-0.6782937,-0.64894485,0.26727986,0.15271658,-0.28901973,0.93917567,0.10799259,-0.87497616,0.27841857,0.12534808,-0.7048688,0.053601176,-0.03364743,0.4293837,-0.20982128,0.91664624,-0.25069478,-0.18100019,0.34722435,-0.24339455,-0.40638784,0.46567547,0.53786725,0.10195566,-0.7110006,0.52285707,-0.67169684,0.7417468,1.3069687,-0.17249076,0.47194746,0.6872353,-0.6969594,-0.04839699,0.5483617,0.46518543,-0.12387334,-0.26358235,-0.67321765,-0.5057529,-0.40617022,0.4154758,0.40717447,-0.03994328,0.1782209,-0.31544736,-0.7121019,-0.028223936,0.9586524,1.1852736,-0.33999592,-0.1740076,-0.05556766,0.18325804,-0.096542254,0.25164315,0.18017493,-0.10584849,0.9389158,0.15645736,-0.5609964,0.6417011,-0.51429665,-0.98878235,-0.34898403,0.58674604,1.0091943,1.0896171,0.42765236,0.1823511,0.1890321,-0.1996067,-0.27738902,-0.50925136,0.13980837,0.49382907,0.5273194,-0.3219319,-0.2100366,0.71828204,-0.23710918,0.10107401,-0.47587788,-0.565529,1.1755775,0.20691232,-0.8013468,0.16685641,0.0047502723,0.52183306,0.6065332,0.4117099,-0.0071383007,0.15319617,0.40705213,0.16798878,-0.18341698,-0.9679642,-0.6105539,0.16170645,0.77637655,0.6938266,-0.5013571,-1.0900682,0.60485506,-0.15308031,0.43887854,-0.32460907,-0.38565856,-0.46448785,-0.18378153,-0.46896482,-0.21962011,-0.46098837,-0.49996287,0.3497411,0.2548523,0.08181805,-0.16418734,0.41475222,0.055006698,-0.44694376,0.04312373,0.2637856,-0.07300124,-0.14951557,-0.24162021,0.05466406,0.37707373,-0.5683072,0.109879,-0.5310315,-0.10379067,-0.14567013,0.18405004,-0.44486654,0.5308133,0.47981516,0.010935754,0.25515395,-0.5131878,-0.020161634,-0.08084309,0.4641339,0.102820665,0.43730113,0.42907864,0.0335213,0.11215414,0.21724626,0.4973306,-0.06276317,0.29741544,0.05267153,0.4405697,0.3326638,0.010238983,0.48369747,0.022209588,0.3258445,-0.65119195,0.13590425,0.45005637,0.3620796,0.0015248209,-0.18398228,0.120037064,-0.43079874,-0.5795243,-0.2642733,-0.5962977,-0.556518,-0.052764863,-0.54210955,-0.23295954,-0.5750133,-0.35524955,0.0007381961,0.6176492,-0.18489327,0.28078794,0.3889825,-0.41675887,-0.26397136,0.12142727,0.29970372,0.2547913,-0.4826529,-0.4172094,0.4293539,-0.06251855,0.16513067,0.60148233,-0.06817434,0.2984291,-0.33518842,0.5721258,0.41400915,0.05178364,0.24197213,-0.019760936,-0.6494285,-0.0549594,-0.45712784,-0.20528,-0.4927671,-0.33397657,0.045481063,-0.12378323
JHUEM-3,0.8318211,-1.8954281,-0.20475018,0.39280942,0.032618932,0.60789216,1.9938327,-0.08923407,-1.4583907,0.16425219,-0.46087,-0.77656865,0.3983949,0.38532653,0.8738111,0.27858767,2.0400355,-0.5991359,-0.0707977,0.12127749,0.40273416,-0.9407004,1.3077103,1.4971269,0.22941607,-0.49613,0.87660885,-1.7433546,1.0379914,3.2004333,-0.33271977,0.51795983,1.4996178,-0.83546376,0.06670267,1.910428,1.3480617,-0.98913455,0.20156233,-1.311904,-1.9931942,-1.09006,0.79519314,1.8564945,0.3709378,0.8566827,-0.32803452,-1.549343,-0.31673214,2.069505,2.0134385,-0.10264961,0.89234924,0.41423422,0.72932386,-0.030455176,1.1316078,-0.15584996,-0.02411312,1.3007594,0.23005697,-0.74175924,0.88874316,-1.1373273,-1.6314799,-0.11584786,0.09886269,2.5655096,3.169217,0.47703898,0.06586698,0.21119839,-0.50992036,-0.20997527,-0.54739654,0.14559594,0.86540776,0.4758456,-1.5722727,-0.10831491,1.4921395,-1.0221349,0.48805007,-1.538879,-0.52521217,2.1055014,0.24129446,-2.5358267,0.8958475,-0.10472989,0.71089685,0.5935251,0.59309787,-0.7621254,1.698112,1.6978179,1.6704541,0.017919559,-1.6828971,-0.7592038,0.43143696,1.5744377,0.68252206,-1.4842603,-2.967619,0.40636462,-0.17411736,0.5299854,-0.3739621,-0.31806126,-0.49974322,-0.051706947,-0.5033643,-0.20288056,-0.4248841,-0.47555548,0.31760147,0.06747557,0.08383558,-0.20670858,0.30267376,-0.0494446,-0.3841561,0.028500326,0.21942872,-0.046949603,-0.14460522,-0.33683887,0.1096309,0.3744333,-0.5022458,0.09475279,-0.39740166,-0.21164754,-0.13775171,0.28473467,-0.26096797,0.37746885,0.4321566,0.024836995,0.27788073,-0.5034894,-0.060550187,-0.10332519,0.47470358,0.16761133,0.29598284,0.47515377,-0.012557205,0.056473166,0.2555987,0.5067,-0.049246747,0.27539563,0.14380544,0.5251462,0.4886348,0.20368168,0.3428583,0.04497688,0.50297034,-0.5788275,0.03000664,0.47882074,0.41823885,-0.0812446,-0.15013859,0.280401,-0.27802625,-0.70818394,-0.334555,-0.4500903,-0.54129887,-0.24254331,-0.6958102,-0.34323195,-0.49193767,-0.33574727,0.1597606,0.65179515,-0.18400936,0.4165064,0.3129988,-0.3343357,-0.084812135,0.07621053,0.36154675,0.30269888,-0.46720135,-0.34154788,0.56778467,-0.16111352,0.26566842,0.5679705,-0.11107186,0.13739344,-0.22892365,0.4146736,0.39947152,-0.07929371,0.25597978,0.060280055,-0.58774513,-0.057637498,-0.38396892,-0.23971945,-0.5394922,-0.38771456,0.06015587,-0.1307038
SK-MEL-31,0.32918933,0.8918318,-2.0103114,-0.2237499,1.2931288,-1.5617938,0.54789615,-0.023992531,-0.48439294,0.19713047,1.9111507,-1.739087,-0.9379182,0.015061144,1.0326889,-1.9715004,0.13819724,-0.7237597,0.4107453,1.4462311,-1.3384972,0.052147724,0.71561754,-0.65766037,-0.949468,-1.2330071,-1.4454991,0.1609732,1.0260423,-0.34539694,-1.134253,0.47907692,1.3374616,-1.1297026,0.1910552,0.058535945,-1.3435984,1.4708992,-0.9027183,0.34718537,0.93576896,-0.12949914,0.34018338,0.40134284,-0.6187468,-0.45271966,-0.97302103,-1.5539109,-0.26545635,0.7498797,1.6448693,0.030136302,-0.5695617,-1.2655628,0.4992174,1.0223814,-0.00041476823,1.637803,-0.5327512,1.8641182,1.2968625,-2.1988811,-0.16262151,0.13689028,-1.6678483,-0.34024885,1.4407327,1.1738093,0.29997632,-0.39905882,1.8115252,0.2985411,-0.619078,-2.0176926,0.29798678,1.116304,-0.31592363,-0.08366866,2.8571908,-0.010737531,0.6491344,1.5473025,-1.2274016,0.08452104,-1.5548378,0.8886454,-0.09436919,0.72409236,-2.3377106,-0.7731345,-0.74306405,0.39337334,2.0078855,1.6389445,-0.7635953,-0.57855105,-0.77787256,-1.9378868,-0.020614943,-0.7674279,0.76317894,0.6663666,1.4966007,1.1601583,1.1664624,0.40636462,-0.17411736,0.5299854,-0.3739621,-0.31806126,-0.49974322,-0.051706947,-0.5033643,-0.20288056,-0.4248841,-0.47555548,0.31760147,0.06747557,0.08383558,-0.20670858,0.30267376,-0.0494446,-0.3841561,0.028500326,0.21942872,-0.046949603,-0.14460522,-0.33683887,0.1096309,0.3744333,-0.5022458,0.09475279,-0.39740166,-0.21164754,-0.13775171,0.28473467,-0.26096797,0.37746885,0.4321566,0.024836995,0.27788073,-0.5034894,-0.060550187,-0.10332519,0.47470358,0.16761133,0.29598284,0.47515377,-0.012557205,0.056473166,0.2555987,0.5067,-0.049246747,0.27539563,0.14380544,0.5251462,0.4886348,0.20368168,0.3428583,0.04497688,0.50297034,-0.5788275,0.03000664,0.47882074,0.41823885,-0.0812446,-0.15013859,0.280401,-0.27802625,-0.70818394,-0.334555,-0.4500903,-0.54129887,-0.24254331,-0.6958102,-0.34323195,-0.49193767,-0.33574727,0.1597606,0.65179515,-0.18400936,0.4165064,0.3129988,-0.3343357,-0.084812135,0.07621053,0.36154675,0.30269888,-0.46720135,-0.34154788,0.56778467,-0.16111352,0.26566842,0.5679705,-0.11107186,0.13739344,-0.22892365,0.4146736,0.39947152,-0.07929371,0.25597978,0.060280055,-0.58774513,-0.057637498,-0.38396892,-0.23971945,-0.5394922,-0.38771456,0.06015587,-0.1307038
BT-20,0.13256773,-1.5514317,0.6051204,-0.09645868,0.5219593,1.1157867,1.0285681,0.13174151,-0.20295237,0.2324127,-0.37437895,-0.04137837,0.58914906,0.163338,-0.19606327,0.65442437,0.5208395,-0.49299636,0.3260684,0.16498204,0.64341205,-0.8030088,0.37724513,0.5300544,-0.059158392,0.51476866,0.13216424,-1.3481976,0.22384009,2.185936,0.028126847,0.64148057,0.83773917,-0.1147711,-0.23622015,1.1797578,0.849343,-0.7172613,-0.04077541,-0.66943306,-1.7481498,-0.104696564,0.7197017,0.98259807,0.29159504,0.14322403,-0.054762885,-0.936769,-0.37498853,1.1174821,0.10023768,0.6490612,1.1547714,0.890512,0.10448104,0.50286865,1.46204,-0.56057197,-0.35464337,0.08728847,0.1462598,-0.7299738,0.7058822,-0.4047866,0.07626181,0.8057214,-0.7517438,1.633109,1.8810474,-0.43250835,0.29922363,0.016511038,-0.42000106,0.9091225,-0.4534823,-0.4672625,-0.72240555,-0.36695212,-1.4746288,0.18561909,0.38748926,-0.10740541,-0.33822417,-0.82804775,0.34364814,0.9877545,0.07349168,-1.403916,0.72639894,-0.8018642,1.0460106,-1.1672435,0.78536063,-0.062354423,1.7218784,1.5727625,2.0796926,0.1662361,-0.6373415,-0.32900178,-0.0052355696,0.7040389,-0.31360582,-1.2821913,-1.8393776,0.91736436,0.3058733,0.34350628,-0.73085403,-0.42354202,-0.82379097,-0.65161914,-0.9224692,0.24494886,-0.4630682,-0.39327157,-0.012945712,0.49204576,-0.013931563,-0.4881976,0.4889812,-0.056633934,-0.5985884,0.15135154,-0.29811585,0.32954636,0.17011821,-0.14927185,-0.057019994,0.32160637,-0.35513312,0.2943564,-0.36578748,0.104334086,0.43938512,-0.105280265,-0.8318912,0.4637718,0.17424348,-0.2842312,0.6688846,-0.22366065,-0.121961065,-0.03128294,0.52612484,0.5794196,-0.065662116,0.26701224,-0.29888237,-0.3443434,0.43621823,0.18554229,0.2644588,0.7848962,0.17235497,0.45856068,0.62795794,-0.2296674,0.4624791,0.4401452,-0.027585179,-0.43051934,-0.28547937,0.72185606,-0.05559066,0.0045637637,-0.63132095,-0.03733562,-0.68041253,-0.3444024,-0.5929415,-0.54668427,-0.60735905,0.4465479,-0.122605026,-0.20919263,-1.0839006,0.11141822,0.29103178,0.8613277,-0.12501849,0.052212358,-0.015670687,-0.57104933,0.07005569,-0.34948495,0.63373864,-0.036227137,-0.18754566,-0.24738353,0.47969043,-0.49400732,0.5819857,0.46417826,0.29396036,0.34495094,-0.00092735887,0.71113306,-0.040651858,-0.123195335,0.5531093,-0.17374197,-0.60243237,-0.3025241,0.080619186,0.30360037,-0.7555702,0.21501595,0.3950797,-0.2877277
COV504,0.36837336,-0.18832876,-1.2693405,-0.18591493,0.19608968,-0.6860053,0.7475437,0.12071719,-0.8242979,0.6332946,0.9848967,-1.1859078,-0.46183875,0.21790479,0.8830468,-1.0339534,0.88536716,-0.6711148,-0.30011708,0.7379856,-1.007737,-0.37102488,0.5149333,0.20783593,0.09198411,-1.0757062,-0.050217167,-0.39154515,1.0289112,0.92139375,-0.570605,0.66031337,0.7622743,-1.1170259,-0.085055426,0.6149616,-0.18001708,0.13255359,-0.81465334,-0.3381699,0.11765172,-0.3502593,0.2425017,0.57176983,-0.17581238,0.2078453,-0.36807418,-1.0544593,-0.23123242,0.8792954,1.4708774,-0.50576365,-0.38094518,-0.23880671,0.49829665,0.011901334,-0.19931419,0.6600244,-0.0042580534,1.2370987,0.6252533,-0.89044493,0.8477397,-0.20016298,-1.687104,-0.49349773,0.9815028,1.0210897,0.7101586,0.44111976,0.63263464,0.25658584,-0.102981344,-1.1589991,-0.40677658,0.55036056,0.4857437,0.36682948,0.86507285,-0.1810207,0.75260484,0.3991615,-0.3711321,-0.46896482,-0.88975024,1.0123969,0.2911765,-0.18702233,-0.49114066,-0.3331995,0.18981075,0.24151087,1.1611347,0.6133047,-0.4408884,0.078817725,0.14308989,-0.85538447,-0.6025735,-0.5491446,0.4509889,0.70776325,0.87667185,0.071635336,-0.39157867,0.40636462,-0.17411736,0.5299854,-0.3739621,-0.31806126,-0.49974322,-0.051706947,-0.5033643,-0.20288056,-0.4248841,-0.47555548,0.31760147,0.06747557,0.08383558,-0.20670858,0.30267376,-0.0494446,-0.3841561,0.028500326,0.21942872,-0.046949603,-0.14460522,-0.33683887,0.1096309,0.3744333,-0.5022458,0.09475279,-0.39740166,-0.21164754,-0.13775171,0.28473467,-0.26096797,0.37746885,0.4321566,0.024836995,0.27788073,-0.5034894,-0.060550187,-0.10332519,0.47470358,0.16761133,0.29598284,0.47515377,-0.012557205,0.056473166,0.2555987,0.5067,-0.049246747,0.27539563,0.14380544,0.5251462,0.4886348,0.20368168,0.3428583,0.04497688,0.50297034,-0.5788275,0.03000664,0.47882074,0.41823885,-0.0812446,-0.15013859,0.280401,-0.27802625,-0.70818394,-0.334555,-0.4500903,-0.54129887,-0.24254331,-0.6958102,-0.34323195,-0.49193767,-0.33574727,0.1597606,0.65179515,-0.18400936,0.4165064,0.3129988,-0.3343357,-0.084812135,0.07621053,0.36154675,0.30269888,-0.46720135,-0.34154788,0.56778467,-0.16111352,0.26566842,0.5679705,-0.11107186,0.13739344,-0.22892365,0.4146736,0.39947152,-0.07929371,0.25597978,0.060280055,-0.58774513,-0.057637498,-0.38396892,-0.23971945,-0.5394922,-0.38771456,0.06015587,-0.1307038
DLD-1,-1.3792971,-0.7654134,0.4872704,-0.18795848,0.9799727,0.97633284,1.5735992,-0.015116222,0.7638233,0.12629336,0.185807,-0.016178638,-0.0999597,-0.43434548,0.10691263,0.56066054,-0.4631461,-1.1878579,0.19602345,-0.2483497,0.22861528,0.0071115494,-0.45366156,0.35580474,-0.80367315,1.3871274,-1.3018258,-1.4059708,-0.18083116,1.9486989,-0.5646686,0.6854017,0.44148788,-0.5233001,0.646446,1.4646835,-0.78364825,-0.616181,-0.17275326,0.5495673,-1.2718728,0.5733265,0.3504532,0.5775317,0.7362246,0.3854243,-1.2480881,-0.725683,-0.97773063,0.9908452,-0.3239579,1.5489572,0.46835735,0.69891304,-0.76463115,1.6557739,2.2782953,0.037242386,-0.7749693,0.050307613,-0.11388266,-1.8924438,0.41064,0.47481602,0.050587706,1.3693968,-0.52343667,0.85132647,1.3239199,-1.4813432,1.3864609,-0.25353616,-0.91640747,0.773765,0.22500633,-0.25333673,-1.6292825,-0.29494822,-0.22309907,1.0987471,0.5078626,0.407921,-1.425306,-0.5629479,0.59043294,0.48990127,-0.08822261,-0.570689,-0.09489895,-2.014323,0.028561953,-2.2516558,1.7757065,1.1182926,1.3000528,1.1337365,2.3054066,-0.8780012,1.0492024,0.2827294,0.4727783,0.3851879,-0.70562863,-0.38174903,-0.54085946,0.5470402,-0.20356964,0.438176,-0.29712254,-0.3994413,-0.5289336,-0.12404058,-0.46686307,-0.18176101,-0.44033796,-0.46099862,0.36298704,0.19391148,0.051363423,-0.13842168,0.35756886,0.03492464,-0.37476203,-0.008028679,0.3030972,-0.09409372,-0.21500328,-0.26441777,0.101364315,0.32475305,-0.51349205,0.09366495,-0.5010978,-0.15222758,-0.18649733,0.20844215,-0.37199014,0.50152695,0.4196953,0.005406084,0.32323086,-0.4734342,-0.008241859,-0.12239653,0.43382135,0.083906904,0.41101447,0.43657783,0.0045665093,0.1154676,0.25185308,0.4596294,-0.020957131,0.23637988,0.07352719,0.49459547,0.4056665,0.076231904,0.4512694,0.041281227,0.37627065,-0.5944191,0.12545273,0.52103823,0.38348782,-0.053069323,-0.13807142,0.19360812,-0.3630376,-0.59599096,-0.2908599,-0.5511762,-0.52478456,-0.108716756,-0.56317043,-0.26617703,-0.5075679,-0.33103108,0.041123338,0.5776114,-0.19457117,0.32354125,0.32788378,-0.35019758,-0.21348204,0.15227659,0.36828583,0.31345868,-0.44122577,-0.3702881,0.48836863,-0.056424472,0.18156576,0.5381733,-0.055323087,0.2308574,-0.2914247,0.5204366,0.3542366,-0.009283494,0.23913823,-0.03254904,-0.59575003,-0.10810107,-0.47831506,-0.27203074,-0.49724293,-0.40445322,0.0441243,-0.17727223
JHH-5,-0.9533206,-1.1274909,0.48910517,-0.03936153,0.78730357,0.6698674,1.634758,0.23546834,0.22310728,-0.42782366,0.24270822,-0.79283994,-0.31662646,-0.56735253,0.16668928,0.70660937,-0.19837126,-0.7055642,0.1268079,0.12820248,0.3876232,0.050842106,-0.121393636,0.72927785,-0.9022729,1.3410325,-0.5774751,-1.0651847,-0.20003444,1.5793324,-1.0522062,0.6833122,0.7646497,-0.22720456,0.44114172,1.6336304,-0.5515925,-0.7706425,0.32360604,0.2818217,-1.6608543,-0.11319541,0.4570013,0.6458659,0.51453817,0.5995517,-1.0922751,-1.0239459,-1.3058039,0.85386145,-0.076429516,1.0203654,0.8946698,0.60324657,-0.7399552,1.3867394,1.8361495,0.13578215,-0.41464168,-0.05238412,0.196368,-1.4878356,-0.08303342,-0.25612026,0.033633575,0.8124143,-0.46865883,1.0878215,1.3766592,-1.745238,0.95249844,-0.13088275,-0.53826594,0.65729225,0.29769447,0.30773252,-1.0892632,-0.2017028,-0.5664805,0.8706672,0.53289413,0.31636515,-0.60272175,-0.8433417,0.32486472,0.90970176,-0.26467094,-0.5002579,-0.3812262,-1.123387,0.11939305,-1.681449,0.74772555,0.6078267,1.2823858,0.92877877,1.8641635,-0.54726946,0.46485037,0.16750148,0.35193545,0.71731573,-0.9814862,-0.72585344,-0.8559121,0.40636462,-0.17411736,0.5299854,-0.3739621,-0.31806126,-0.49974322,-0.051706947,-0.5033643,-0.20288056,-0.4248841,-0.47555548,0.31760147,0.06747557,0.08383558,-0.20670858,0.30267376,-0.0494446,-0.3841561,0.028500326,0.21942872,-0.046949603,-0.14460522,-0.33683887,0.1096309,0.3744333,-0.5022458,0.09475279,-0.39740166,-0.21164754,-0.13775171,0.28473467,-0.26096797,0.37746885,0.4321566,0.024836995,0.27788073,-0.5034894,-0.060550187,-0.10332519,0.47470358,0.16761133,0.29598284,0.47515377,-0.012557205,0.056473166,0.2555987,0.5067,-0.049246747,0.27539563,0.14380544,0.5251462,0.4886348,0.20368168,0.3428583,0.04497688,0.50297034,-0.5788275,0.03000664,0.47882074,0.41823885,-0.0812446,-0.15013859,0.280401,-0.27802625,-0.70818394,-0.334555,-0.4500903,-0.54129887,-0.24254331,-0.6958102,-0.34323195,-0.49193767,-0.33574727,0.1597606,0.65179515,-0.18400936,0.4165064,0.3129988,-0.3343357,-0.084812135,0.07621053,0.36154675,0.30269888,-0.46720135,-0.34154788,0.56778467,-0.16111352,0.26566842,0.5679705,-0.11107186,0.13739344,-0.22892365,0.4146736,0.39947152,-0.07929371,0.25597978,0.060280055,-0.58774513,-0.057637498,-0.38396892,-0.23971945,-0.5394922,-0.38771456,0.06015587,-0.1307038
T3M-4,-0.52484834,-1.6316658,0.48724744,-0.086512156,0.27512625,1.3136737,1.532612,0.15645956,0.042762376,0.0012480598,-0.3035686,-0.22035429,0.30602884,-0.20153548,0.2219855,0.76764125,0.6150333,-0.97491115,0.0507236,-0.058881767,0.48819754,-0.6587687,0.03895044,0.8206711,-0.46994683,0.9229414,-0.031425,-1.7693756,0.24953315,2.3851714,-0.28901145,0.56195533,0.9465867,-0.43166995,0.25190878,1.7035329,0.4780072,-0.706594,-0.03131487,-0.09207572,-1.7395672,-0.19331118,0.4862775,0.6970291,0.38489383,0.5069677,-0.7624643,-0.8036156,-0.5597411,1.5145885,0.22700489,0.56222457,0.86814296,0.8916567,-0.035058677,0.73846084,1.5242863,-0.28571692,-0.34747273,0.20346609,0.49422294,-1.007083,0.79658115,0.070338465,-0.25242352,0.85481524,-0.51450056,1.7007927,1.779147,-0.5215174,0.51577187,-0.011596456,-0.54241705,0.4563285,-0.11367272,-0.09142768,-0.74409896,-0.24546653,-1.3320515,0.46878785,0.70413446,-0.08345315,-0.38314024,-1.1619792,0.47628537,1.0675148,0.02833059,-1.5054933,0.6093047,-1.3663096,0.6966621,-1.2612567,1.1182691,0.16683438,1.4182798,1.6593684,2.5667357,-0.05321167,-0.041409977,-0.23742853,0.5684436,0.50393885,-0.61272097,-1.3191137,-1.7795739,0.40841323,-0.17546397,0.5280849,-0.37197712,-0.3199388,-0.50128907,-0.05232028,-0.502582,-0.20189068,-0.42489952,-0.4746845,0.3187301,0.06918518,0.082720526,-0.20492491,0.30296555,-0.04800202,-0.3829044,0.026998289,0.22172767,-0.048229463,-0.14701474,-0.3356821,0.1101454,0.37264338,-0.50167364,0.094492674,-0.3990977,-0.21113434,-0.13935389,0.28352153,-0.26218525,0.3795936,0.4310186,0.024355873,0.2798125,-0.50228775,-0.05929849,-0.10432707,0.47341746,0.1656107,0.29796574,0.4744695,-0.012629177,0.057736337,0.25602895,0.5051781,-0.048051376,0.2736975,0.14266431,0.5253093,0.48799694,0.20202526,0.34461486,0.04518041,0.50110114,-0.57831615,0.03181847,0.48073062,0.41783726,-0.08146495,-0.14921702,0.2796927,-0.27878302,-0.7061155,-0.3340452,-0.45150992,-0.5404936,-0.2406084,-0.69338816,-0.34213254,-0.4912706,-0.33529508,0.15791017,0.64968085,-0.1843687,0.41521925,0.31240946,-0.3336864,-0.08672097,0.07822889,0.36269102,0.30378056,-0.46605918,-0.34145164,0.5670149,-0.1588688,0.26417786,0.56642884,-0.109735675,0.138327,-0.2295688,0.41609323,0.39766386,-0.07874766,0.25559148,0.058181375,-0.5871229,-0.05945559,-0.38622198,-0.24136335,-0.53868794,-0.38909248,0.059805915,-0.1324468
SNU-878,-0.32016328,-0.8501886,-1.0828009,-0.13626587,0.05063328,0.4073456,1.3060291,-0.0034774505,-0.18764888,-0.2794254,1.1004649,-1.1112407,-0.80042917,-0.23296379,1.0972205,-0.30101034,0.90893066,-0.9929585,-0.56690985,-0.01899373,-0.69876856,0.05315472,0.52535695,0.585159,-0.58397824,0.07346427,-0.3001378,-1.1088091,0.9987046,0.90736556,-0.9053951,0.8143511,0.4550989,-1.1407328,0.8410728,1.1707692,-0.65636516,-0.6725012,-0.4796488,0.44351476,-0.59952307,-0.41633922,0.11447752,0.77234036,0.012003098,0.72558504,-0.8828715,-0.82622755,-0.73654586,0.86442804,0.9347085,0.03215506,0.24753317,0.34256077,-0.5130856,0.47216162,0.7896066,0.51983166,0.04095161,0.35808927,0.8598564,-1.284571,0.4488081,-0.0837066,-1.2337441,-0.06530361,0.4130338,1.0383922,1.0549041,-0.295091,0.6186723,-0.27783644,-0.22790246,-0.64821386,0.4119338,0.7280761,0.16422611,0.55499464,0.5813874,0.39829987,0.5983169,0.12143312,-0.86834043,-0.9978101,-0.27668017,0.8431874,-0.20622209,-0.6275178,-0.27107856,-0.42011875,0.12651402,-0.7219761,1.1624199,0.40321797,0.123403385,0.5488145,1.0455661,-0.8951107,0.3397273,-0.21905063,0.75958145,0.81254846,0.052226704,-0.51162547,-0.5815801,0.40636462,-0.17411736,0.5299854,-0.3739621,-0.31806126,-0.49974322,-0.051706947,-0.5033643,-0.20288056,-0.4248841,-0.47555548,0.31760147,0.06747557,0.08383558,-0.20670858,0.30267376,-0.0494446,-0.3841561,0.028500326,0.21942872,-0.046949603,-0.14460522,-0.33683887,0.1096309,0.3744333,-0.5022458,0.09475279,-0.39740166,-0.21164754,-0.13775171,0.28473467,-0.26096797,0.37746885,0.4321566,0.024836995,0.27788073,-0.5034894,-0.060550187,-0.10332519,0.47470358,0.16761133,0.29598284,0.47515377,-0.012557205,0.056473166,0.2555987,0.5067,-0.049246747,0.27539563,0.14380544,0.5251462,0.4886348,0.20368168,0.3428583,0.04497688,0.50297034,-0.5788275,0.03000664,0.47882074,0.41823885,-0.0812446,-0.15013859,0.280401,-0.27802625,-0.70818394,-0.334555,-0.4500903,-0.54129887,-0.24254331,-0.6958102,-0.34323195,-0.49193767,-0.33574727,0.1597606,0.65179515,-0.18400936,0.4165064,0.3129988,-0.3343357,-0.084812135,0.07621053,0.36154675,0.30269888,-0.46720135,-0.34154788,0.56778467,-0.16111352,0.26566842,0.5679705,-0.11107186,0.13739344,-0.22892365,0.4146736,0.39947152,-0.07929371,0.25597978,0.060280055,-0.58774513,-0.057637498,-0.38396892,-0.23971945,-0.5394922,-0.38771456,0.06015587,-0.1307038
Li-7,-0.099412285,-0.9173023,-0.4744333,0.073157564,0.026676357,0.22195546,1.1526471,0.08240257,-0.18322077,-0.09170881,0.43542513,-0.49168926,-0.5336162,-0.3380575,0.7770328,0.1739552,0.8407816,-0.47451943,-0.40632358,-0.04606642,-0.3474124,-0.07546527,0.19180332,0.7532156,-0.20829484,0.21751505,0.035988986,-1.0233037,0.67355937,1.4979488,-0.58646685,0.5448513,0.2833183,-0.70645237,0.3221786,1.1306521,-0.0014373809,-0.47243786,-0.22838092,-0.056469496,-0.8908697,-0.25438297,0.012592956,0.62993777,0.108110994,0.70858324,-0.5697226,-0.67379934,-0.33343053,0.8457893,0.7300324,-0.042142175,0.3587571,0.35318232,-0.41520217,0.034843627,1.0187076,0.232359,-0.15844019,0.27078396,0.5537912,-0.7777587,0.47577593,-0.26719087,-0.6995816,0.04802354,-0.022254225,1.0356786,1.1164848,-0.121757925,0.2902521,0.010625364,-0.08586631,0.011065932,0.06742731,0.28045163,0.04033695,0.4859249,-0.17176825,0.17480278,0.75321746,-0.12827307,-0.45411444,-0.940243,-0.14344563,1.0339206,-0.13660686,-1.0091898,0.21300197,-0.32109523,0.32115844,-0.3852915,0.8572752,-0.008018509,0.26667127,0.56553155,0.94824964,-0.45056272,0.026423508,-0.16249442,0.45676047,0.7141081,0.05639306,-0.8332045,-0.8796486,0.60485506,-0.15308031,0.43887854,-0.32460907,-0.38565856,-0.46448785,-0.18378153,-0.46896482,-0.21962011,-0.46098837,-0.49996287,0.3497411,0.2548523,0.08181805,-0.16418734,0.41475222,0.055006698,-0.44694376,0.04312373,0.2637856,-0.07300124,-0.14951557,-0.24162021,0.05466406,0.37707373,-0.5683072,0.109879,-0.5310315,-0.10379067,-0.14567013,0.18405004,-0.44486654,0.5308133,0.47981516,0.010935754,0.25515395,-0.5131878,-0.020161634,-0.08084309,0.4641339,0.102820665,0.43730113,0.42907864,0.0335213,0.11215414,0.21724626,0.4973306,-0.06276317,0.29741544,0.05267153,0.4405697,0.3326638,0.010238983,0.48369747,0.022209588,0.3258445,-0.65119195,0.13590425,0.45005637,0.3620796,0.0015248209,-0.18398228,0.120037064,-0.43079874,-0.5795243,-0.2642733,-0.5962977,-0.556518,-0.052764863,-0.54210955,-0.23295954,-0.5750133,-0.35524955,0.0007381961,0.6176492,-0.18489327,0.28078794,0.3889825,-0.41675887,-0.26397136,0.12142727,0.29970372,0.2547913,-0.4826529,-0.4172094,0.4293539,-0.06251855,0.16513067,0.60148233,-0.06817434,0.2984291,-0.33518842,0.5721258,0.41400915,0.05178364,0.24197213,-0.019760936,-0.6494285,-0.0549594,-0.45712784,-0.20528,-0.4927671,-0.33397657,0.045481063,-0.12378323
SCC-9,0.60167587,-2.2393417,0.2170048,0.0024044868,-0.43243456,1.091406,1.4949644,0.2103386,-1.369183,-0.013477178,-1.1788421,-0.86698496,1.0411438,0.31265187,0.45190853,0.84328115,1.7649158,-0.38227674,0.031340715,0.15735404,0.9903279,-1.2520976,1.0580709,1.3937532,0.29202947,-0.25508988,1.4659117,-2.0454676,0.719588,3.0983338,0.21639962,0.41454893,1.8622524,-0.35955805,-0.168622,1.8908148,1.821822,-0.8283261,0.33775434,-1.4479213,-2.38237,-1.2698783,0.97096866,1.3659215,0.1302073,0.6073154,-0.09903671,-1.372623,-0.07263382,2.5198221,1.3080549,-0.04429394,1.1026204,0.5829228,0.7501002,-0.17568518,0.93666863,-0.07662271,0.111947715,1.091729,0.45547503,-0.13159136,1.0535713,-1.21366,-1.1504573,0.13955788,-0.32812318,2.6943529,2.7902567,0.64826703,-0.25876093,0.31514964,-0.57991916,0.24107018,-0.6645817,-0.13893284,0.558318,0.39883956,-2.4997041,-0.26283535,1.5541906,-0.8582414,0.9522893,-1.5950906,-0.11897164,1.7762226,0.32971737,-2.7878635,1.087501,-0.35615188,1.1350371,0.21025115,0.14003128,-1.009972,1.8908408,1.7893511,2.0081964,1.1719275,-1.4632968,-1.1332554,0.16134007,1.3814114,0.1516872,-1.7764841,-3.419875,0.8749766,0.23786554,0.35951093,-0.667779,-0.4149261,-0.75315905,-0.5836789,-0.8472759,0.1612286,-0.4661757,-0.41756135,0.045255214,0.46272695,0.007112244,-0.43853346,0.48618054,-0.034677908,-0.58540046,0.14187863,-0.21108943,0.26601782,0.12782699,-0.16084215,-0.046226695,0.33959725,-0.39981204,0.26633805,-0.39832053,0.07776615,0.34875524,-0.06116338,-0.7796098,0.47983798,0.23520127,-0.23413734,0.58857876,-0.2785393,-0.10699699,-0.032588482,0.5208684,0.50319123,0.022518277,0.29275498,-0.23866755,-0.26885417,0.39395353,0.24378592,0.20295767,0.7139003,0.14892977,0.44652742,0.5665574,-0.20074168,0.47143757,0.3673355,0.022854954,-0.4767748,-0.2135371,0.66470724,0.010404199,0.013188913,-0.5644822,-0.023425892,-0.65016556,-0.38081485,-0.53374505,-0.5624959,-0.6041977,0.37273076,-0.18896353,-0.2075958,-1.0104109,0.029629856,0.23591983,0.8274324,-0.13337372,0.08313763,0.06195584,-0.55648065,0.0059686005,-0.27620015,0.56662405,0.0024380982,-0.24363375,-0.28352118,0.4614346,-0.42314914,0.509797,0.49763942,0.23148641,0.34850332,-0.063928515,0.6966227,0.045083165,-0.08383326,0.50175405,-0.14595285,-0.6192392,-0.2523963,-0.005415052,0.22999567,-0.7110438,0.13535255,0.33707044,-0.25147128
MOLM-13,1.9102411,6.152727,4.1158214,0.12647684,1.2240118,-3.9939759,-13.877887,4.1854506,6.6288114,2.996412,6.2359776,1.3189,-3.3975747,4.5742574,-11.230111,-6.057113,-7.7214594,5.348375,2.2314749,3.6359818,-0.4375871,-0.34620896,-7.7367606,-5.9765034,2.4773169,-1.4644022,-1.2211982,1.5130091,-0.41521308,-10.022286,3.158964,-0.22658983,-5.078563,8.711187,-7.019683,-12.879588,1.5644599,10.533533,-3.5292647,2.0307417,7.7076964,4.2388353,-3.3787484,-14.011583,0.03750607,-8.473785,4.9549847,7.626707,9.668031,-11.261808,-7.4914455,-9.218814,-1.1564656,0.93573385,5.9045243,0.30419767,-6.3034697,-6.3183227,0.111501336,-6.203889,-3.4516895,2.1933582,6.9719973,5.3246856,5.536427,-5.2416697,2.3609557,-8.022507,-6.884265,-3.89168,-1.869619,4.795781,7.795448,-5.367096,-5.489173,4.486846,-1.561056,-1.7654026,-6.3829026,-3.2444289,-8.150941,3.655177,1.2230536,2.6020346,0.26140663,-3.6117225,1.7451878,9.692095,-4.431337,-3.2570815,3.8505306,-0.71701175,0.12987751,6.544814,-7.352222,2.1038833,-7.9162364,-3.9125543,-0.39915916,-0.10055302,-4.603277,-9.13092,-3.955874,1.5147322,7.6804967,1.206594,0.58442616,0.33317733,-0.90433013,-0.37027958,-0.6001743,-0.9707143,-0.9947047,0.14897019,-0.55108416,-0.54390305,-0.11984554,0.7840413,0.1020774,-0.6428837,0.74226534,0.013092712,-0.9263945,0.38376158,-0.5435552,0.4753436,0.49293774,-0.039533526,-0.2709992,0.5361284,-0.5582369,0.3889879,-0.4698821,0.3391535,0.6944952,-0.24929024,-1.1955062,0.57882524,0.38698402,-0.30194435,0.43743998,-0.35212255,-0.1868085,0.15215972,0.66355,0.7262987,-0.024204314,0.212531,-0.22228068,-0.42214426,0.3197715,0.30217773,0.13254003,1.112233,0.10046471,0.23156369,0.35905483,-0.5435035,0.59727585,0.41746825,-0.2911391,-0.64089286,-0.29990315,0.45825797,-0.20484033,0.2369109,-0.8888025,-0.37184334,-1.0031155,-0.24162805,-0.52587867,-0.7314403,-0.74926394,0.75394034,0.025425196,-0.06476274,-1.4414555,0.073679715,0.15999413,1.0654298,-0.07554726,-0.16131723,0.1873968,-0.87534845,-0.09780082,-0.54627395,0.3890227,-0.3260785,-0.32233787,-0.42300427,0.23601508,-0.5801295,0.5703584,0.713956,0.28991887,0.6384984,-0.14018002,0.9501201,0.14980102,0.111799434,0.60858136,-0.14091149,-0.8239049,-0.111330315,0.24569204,0.6582033,-0.77324235,0.5910465,0.4496457,-0.08338547
NU-DUL-1,0.800236,5.100622,1.9397823,-0.029995674,1.2056776,-3.304642,-8.627243,2.9685628,3.8756242,3.1981404,4.592137,-1.7248713,-1.9457624,2.942954,-8.006124,-4.574016,-6.220979,3.3884003,2.912253,5.2319093,0.26431623,-1.2010821,-3.8451874,-4.6309915,2.6077495,-2.4021678,-2.0430539,0.52152574,0.14493439,-7.414834,-0.45539612,0.62535894,-2.0082073,7.5866065,-4.2885804,-8.6253805,-1.48092,8.701427,-2.1407251,-0.47982526,3.6304138,1.063847,-0.5994776,-10.170205,-0.38000962,-6.759896,2.3728888,3.742583,4.8279204,-5.824995,-4.1420755,-5.01514,-0.6559415,0.4281816,4.881604,2.5315986,-3.6637347,-2.1522975,-0.11097813,-2.2767663,-1.5412239,-1.2245107,4.6740303,2.9175673,4.0069003,-1.775263,3.859799,-3.6541047,-5.063439,-5.3650208,-1.654903,3.3319025,3.414673,-4.8820477,-3.953841,3.041299,-2.7701054,-0.3086259,-2.8787377,-0.09470152,-4.370296,5.1110625,0.63637984,0.49691308,0.14493667,-2.072302,1.0279713,7.6427617,-5.3337545,-4.3047023,1.5926741,-2.9643078,1.247394,7.5469503,-2.9889832,0.78258926,-4.2212243,-2.8338108,-1.5374709,-0.7655702,-3.4831078,-6.1550474,-3.2670321,1.3348893,3.9640481,0.40841323,-0.17546397,0.5280849,-0.37197712,-0.3199388,-0.50128907,-0.05232028,-0.502582,-0.20189068,-0.42489952,-0.4746845,0.3187301,0.06918518,0.082720526,-0.20492491,0.30296555,-0.04800202,-0.3829044,0.026998289,0.22172767,-0.048229463,-0.14701474,-0.3356821,0.1101454,0.37264338,-0.50167364,0.094492674,-0.3990977,-0.21113434,-0.13935389,0.28352153,-0.26218525,0.3795936,0.4310186,0.024355873,0.2798125,-0.50228775,-0.05929849,-0.10432707,0.47341746,0.1656107,0.29796574,0.4744695,-0.012629177,0.057736337,0.25602895,0.5051781,-0.048051376,0.2736975,0.14266431,0.5253093,0.48799694,0.20202526,0.34461486,0.04518041,0.50110114,-0.57831615,0.03181847,0.48073062,0.41783726,-0.08146495,-0.14921702,0.2796927,-0.27878302,-0.7061155,-0.3340452,-0.45150992,-0.5404936,-0.2406084,-0.69338816,-0.34213254,-0.4912706,-0.33529508,0.15791017,0.64968085,-0.1843687,0.41521925,0.31240946,-0.3336864,-0.08672097,0.07822889,0.36269102,0.30378056,-0.46605918,-0.34145164,0.5670149,-0.1588688,0.26417786,0.56642884,-0.109735675,0.138327,-0.2295688,0.41609323,0.39766386,-0.07874766,0.25559148,0.058181375,-0.5871229,-0.05945559,-0.38622198,-0.24136335,-0.53868794,-0.38909248,0.059805915,-0.1324468
Hep-G2,-1.0941995,-0.44199958,-0.17542525,-0.03204321,1.0297323,0.45929247,1.265128,0.36014718,0.59551936,-0.6232997,1.0604748,-1.1959165,-0.867254,-0.31819642,0.36603588,0.33632842,-0.5096473,-0.89289206,0.28019845,0.45971465,0.14631039,0.3982634,-0.0632593,0.518487,-1.1740558,1.1785598,-1.2538457,-0.7265725,-0.033295237,0.89051414,-1.2245998,0.8645316,0.69349605,-0.1256867,0.9312866,1.2124019,-1.444365,-0.45159104,-0.10174702,0.499503,-1.5089518,0.18896171,0.004498657,0.30524477,0.62494713,0.27645266,-1.4509633,-1.2912216,-1.2257988,0.8838294,-0.15860121,0.8234211,0.6623223,-0.100346915,-0.9519407,1.6074188,1.7569038,0.58404666,-0.5275279,0.0627342,0.09439766,-2.141254,-0.15120974,0.052969098,-0.3490456,0.55889213,-0.15102708,0.9555411,1.0118997,-1.8346179,1.4119574,-0.15760288,-0.59415984,0.00814539,0.42985633,0.8384461,-1.244213,0.11596488,0.24250606,1.0785396,0.5237193,0.56410843,-1.2002931,-0.52749145,0.12768014,0.7780617,-0.44064662,-0.105823405,-0.87392765,-1.2657839,-0.39175975,-1.9240249,1.233163,1.2398245,0.72388035,0.4408703,1.2844553,-1.2171391,1.096259,0.5931325,0.042127952,0.87869155,-0.9338297,-0.20126712,-0.11206382,0.60485506,-0.15308031,0.43887854,-0.32460907,-0.38565856,-0.46448785,-0.18378153,-0.46896482,-0.21962011,-0.46098837,-0.49996287,0.3497411,0.2548523,0.08181805,-0.16418734,0.41475222,0.055006698,-0.44694376,0.04312373,0.2637856,-0.07300124,-0.14951557,-0.24162021,0.05466406,0.37707373,-0.5683072,0.109879,-0.5310315,-0.10379067,-0.14567013,0.18405004,-0.44486654,0.5308133,0.47981516,0.010935754,0.25515395,-0.5131878,-0.020161634,-0.08084309,0.4641339,0.102820665,0.43730113,0.42907864,0.0335213,0.11215414,0.21724626,0.4973306,-0.06276317,0.29741544,0.05267153,0.4405697,0.3326638,0.010238983,0.48369747,0.022209588,0.3258445,-0.65119195,0.13590425,0.45005637,0.3620796,0.0015248209,-0.18398228,0.120037064,-0.43079874,-0.5795243,-0.2642733,-0.5962977,-0.556518,-0.052764863,-0.54210955,-0.23295954,-0.5750133,-0.35524955,0.0007381961,0.6176492,-0.18489327,0.28078794,0.3889825,-0.41675887,-0.26397136,0.12142727,0.29970372,0.2547913,-0.4826529,-0.4172094,0.4293539,-0.06251855,0.16513067,0.60148233,-0.06817434,0.2984291,-0.33518842,0.5721258,0.41400915,0.05178364,0.24197213,-0.019760936,-0.6494285,-0.0549594,-0.45712784,-0.20528,-0.4927671,-0.33397657,0.045481063,-0.12378323
SNU-C4,-1.0265219,-1.8718512,2.0858166,-0.11055515,1.1619024,1.6830771,1.916248,-0.09962638,1.1782758,-0.7236843,-1.6838843,1.1668521,0.6385972,-0.48280895,-0.5448852,1.7502308,0.0782224,-0.6170644,0.36469883,-0.6380637,1.7969651,-0.0593997,-0.5697642,1.0515033,-1.2732584,2.2717419,-0.7147988,-2.216827,-1.142868,3.250783,-0.24123044,0.10349914,1.2133778,-0.065458655,0.5633205,2.3630214,1.1033146,-0.97282505,0.84065187,-0.33934662,-2.813417,0.70620376,0.7730175,1.580223,1.0044267,0.7067132,-0.7756696,-1.3530588,-0.87761927,1.4251797,-0.68357825,2.2895238,1.9097786,1.2134473,-0.7655685,1.6690135,3.0750997,-0.9702464,-0.6492353,-0.22011755,-0.13810566,-1.3483211,0.0001494335,-0.39111656,0.9119914,1.8045409,-1.7645526,2.029566,3.177976,-1.942676,1.308488,-0.10527104,-0.5833381,2.26203,0.4680984,-0.97013575,-1.6253623,-0.88644063,-2.006066,0.87223566,1.1374131,-0.3363244,-0.19128197,-0.9622183,0.7866951,0.9212089,-0.5760572,-2.3547716,0.57378393,-1.848662,0.3802207,-1.874758,1.1394502,-0.049826153,2.536748,2.1801107,3.270653,-0.29547262,0.6958772,0.25229344,0.40228006,1.0746874,-0.8289665,-1.5630636,-2.059156,1.0819843,1.3724442,0.34811744,-1.896946,-0.35604402,-1.9841092,-1.4114481,-2.214821,1.5853205,-0.33083364,0.024846971,-1.039696,0.4836874,-0.31369022,-1.4205691,0.2695171,-0.68191236,-0.6974444,0.30797845,-1.8411124,1.4309125,0.9161083,-0.21395281,-0.11624728,0.07750061,0.4895978,0.7112071,0.50070775,0.26575276,1.937826,-0.5430005,-1.2088385,-0.19786748,-0.87172866,-1.0345148,1.9438381,0.63741076,-0.48482558,-0.035439603,0.66772175,1.9899046,-1.8402258,-0.017999798,-1.3576692,-1.7027601,1.1830654,-0.6768597,1.2394953,1.9059336,0.7825255,0.8384789,1.9755235,-0.20261529,-0.04806018,1.641999,-0.37354502,0.45523977,-1.7169204,1.6437795,-0.9636769,-0.31563598,-1.6388221,0.1272584,-0.7910948,-0.11550087,-1.70629,0.07594013,-0.64404434,1.1327492,0.5148274,-0.51567376,-2.0776608,1.4416842,1.57789,1.5331185,0.019076899,-0.094172835,-1.4053733,-0.6309898,1.5468864,-1.6689956,1.8096504,-0.56881833,0.7074381,0.49636936,1.1061212,-1.9030135,1.9965827,-0.10251212,1.1517601,-0.1041961,1.2586143,0.5438961,-1.386313,-1.0617692,1.4102082,-0.3761516,-0.21125323,-1.0558562,1.6724914,1.4362068,-1.590112,1.3925996,1.3582613,-0.8326608
U-343MGa,0.31599322,-0.34053063,-3.2281735,0.19617474,1.1275568,-0.5710874,1.5251762,-0.19921729,-1.4003555,-0.43974972,2.307284,-2.8750465,-1.5261822,0.041727748,2.3219924,-2.1912189,2.1693435,-1.5299333,-0.74629974,0.9813966,-1.5990014,-0.26977974,1.544042,0.759941,-1.1436167,-1.4659076,-0.88814235,-1.3041193,1.8790712,0.68949634,-1.4059885,1.5586587,2.115924,-1.5081313,0.9288616,1.4350348,-1.0004762,0.25534904,-1.0847269,0.29237342,-0.51429296,-0.65418726,0.035829462,1.1006685,0.15652475,0.40679488,-1.108051,-2.2028575,-0.8757717,1.6654757,3.215971,-0.89453053,0.25703374,-0.9185512,0.72163206,0.6275386,0.27406758,1.7397037,-0.0010550935,2.1312313,1.3837955,-3.0948458,0.8682807,-0.47166222,-3.2330582,-1.055745,2.1496165,2.5030243,2.0865548,0.45661467,1.7338827,0.14440978,-0.49617657,-2.5512311,0.53014195,1.9982543,1.2172753,1.058156,2.081208,-0.3975634,1.5287308,0.89582485,-1.1552975,-1.3031917,-2.150613,2.16949,-0.117442116,-0.91419166,-1.729746,-0.26397198,0.016382884,0.5176374,2.5065958,0.8593588,-0.651208,0.690633,-0.048131056,-2.2613456,-0.53910774,-1.4367201,0.9327695,1.8373255,1.9132538,-0.814177,-0.45565167,0.40636462,-0.17411736,0.5299854,-0.3739621,-0.31806126,-0.49974322,-0.051706947,-0.5033643,-0.20288056,-0.4248841,-0.47555548,0.31760147,0.06747557,0.08383558,-0.20670858,0.30267376,-0.0494446,-0.3841561,0.028500326,0.21942872,-0.046949603,-0.14460522,-0.33683887,0.1096309,0.3744333,-0.5022458,0.09475279,-0.39740166,-0.21164754,-0.13775171,0.28473467,-0.26096797,0.37746885,0.4321566,0.024836995,0.27788073,-0.5034894,-0.060550187,-0.10332519,0.47470358,0.16761133,0.29598284,0.47515377,-0.012557205,0.056473166,0.2555987,0.5067,-0.049246747,0.27539563,0.14380544,0.5251462,0.4886348,0.20368168,0.3428583,0.04497688,0.50297034,-0.5788275,0.03000664,0.47882074,0.41823885,-0.0812446,-0.15013859,0.280401,-0.27802625,-0.70818394,-0.334555,-0.4500903,-0.54129887,-0.24254331,-0.6958102,-0.34323195,-0.49193767,-0.33574727,0.1597606,0.65179515,-0.18400936,0.4165064,0.3129988,-0.3343357,-0.084812135,0.07621053,0.36154675,0.30269888,-0.46720135,-0.34154788,0.56778467,-0.16111352,0.26566842,0.5679705,-0.11107186,0.13739344,-0.22892365,0.4146736,0.39947152,-0.07929371,0.25597978,0.060280055,-0.58774513,-0.057637498,-0.38396892,-0.23971945,-0.5394922,-0.38771456,0.06015587,-0.1307038
Granta-519,1.5445483,4.0972557,2.2742026,0.075158514,0.3798426,-3.021087,-7.92723,2.652892,2.960853,2.8679917,3.9949186,-1.1877457,-1.2575449,2.7399573,-7.5088882,-4.2691374,-5.4580097,3.6432223,2.445023,4.962077,0.17920637,-1.5879675,-3.5181193,-4.569614,2.9393723,-2.469458,-0.9025798,0.5697867,0.22656521,-6.395963,0.42179358,0.24017836,-2.073203,6.5775914,-4.7013016,-7.967805,-0.35939497,7.9282455,-1.9317297,-0.96732134,3.4820395,0.98665017,-0.24715978,-9.4823675,-0.96158737,-6.288023,2.8811293,3.7969887,4.259743,-5.7949634,-3.679468,-5.312616,-0.5679084,1.0032389,4.8024144,1.7233461,-3.7084203,-2.3064246,0.49985814,-2.3656173,-1.057473,-0.24857894,4.512921,2.723342,3.9322236,-1.7498783,3.5583782,-3.6877377,-4.91637,-4.5204005,-1.9132799,2.709248,3.2604122,-4.2046814,-4.096483,2.1029592,-2.094495,-0.40334225,-3.4857128,-0.47080502,-4.2744455,4.6771317,1.4569112,0.17946702,-0.1021891,-2.2373517,1.5194389,6.867937,-4.518646,-3.1917505,1.9119616,-1.630393,0.2467804,6.0818057,-2.807078,0.683846,-4.060753,-1.6603366,-2.6423562,-1.2461646,-2.862822,-6.1626153,-2.9420717,0.9774332,2.865457,0.60485506,-0.15308031,0.43887854,-0.32460907,-0.38565856,-0.46448785,-0.18378153,-0.46896482,-0.21962011,-0.46098837,-0.49996287,0.3497411,0.2548523,0.08181805,-0.16418734,0.41475222,0.055006698,-0.44694376,0.04312373,0.2637856,-0.07300124,-0.14951557,-0.24162021,0.05466406,0.37707373,-0.5683072,0.109879,-0.5310315,-0.10379067,-0.14567013,0.18405004,-0.44486654,0.5308133,0.47981516,0.010935754,0.25515395,-0.5131878,-0.020161634,-0.08084309,0.4641339,0.102820665,0.43730113,0.42907864,0.0335213,0.11215414,0.21724626,0.4973306,-0.06276317,0.29741544,0.05267153,0.4405697,0.3326638,0.010238983,0.48369747,0.022209588,0.3258445,-0.65119195,0.13590425,0.45005637,0.3620796,0.0015248209,-0.18398228,0.120037064,-0.43079874,-0.5795243,-0.2642733,-0.5962977,-0.556518,-0.052764863,-0.54210955,-0.23295954,-0.5750133,-0.35524955,0.0007381961,0.6176492,-0.18489327,0.28078794,0.3889825,-0.41675887,-0.26397136,0.12142727,0.29970372,0.2547913,-0.4826529,-0.4172094,0.4293539,-0.06251855,0.16513067,0.60148233,-0.06817434,0.2984291,-0.33518842,0.5721258,0.41400915,0.05178364,0.24197213,-0.019760936,-0.6494285,-0.0549594,-0.45712784,-0.20528,-0.4927671,-0.33397657,0.045481063,-0.12378323
KMM-1,0.5165758,1.4853321,1.1051279,-0.19612548,0.0965687,-0.90892977,-2.2680633,0.96797025,1.116285,1.0788938,1.1791366,-0.6386841,-0.42886853,0.6981974,-2.0646482,-1.1450266,-1.6897967,1.1666771,0.85146266,1.7446611,0.37784192,-0.4582093,-1.113647,-1.2417269,0.6430143,-0.74983007,-0.57352173,0.054758273,0.039597556,-1.8152149,-0.31018102,0.31746218,-0.26350158,2.2656996,-1.2328103,-2.135853,-0.81670785,2.3279335,-0.43776712,-0.27181908,0.60668534,0.22673306,0.1068239,-2.6879442,-0.36271697,-1.8282756,0.67867076,0.7698452,1.1089817,-1.634936,-0.9666702,-1.1618832,-0.05708754,0.25739592,1.3927557,0.80250394,-0.6837503,-0.75566524,0.44565797,-0.59532934,0.0391606,-0.60578907,0.9912223,0.6084704,1.2905873,-0.22383644,1.0741459,-0.8615964,-1.3721515,-1.6941066,-0.63069016,0.60948735,0.9168631,-1.3667516,-0.98110896,0.61419964,-1.2186836,0.1677301,-0.8958292,0.07695743,-1.1728779,1.610215,0.54239476,-0.053563613,-0.23179798,-0.65850013,0.4256354,2.1477063,-1.8713942,-1.3823861,0.58883125,-0.73224807,0.16207671,1.8612403,-0.44836932,-0.16538107,-1.2026405,-0.7040676,-0.4772612,-0.44507286,-0.89105844,-1.8784608,-0.7399468,-0.1578332,0.89739317,0.9654177,0.30207583,0.36848384,-0.6903183,-0.3844424,-0.59615874,-0.66562694,-0.8154584,0.048870742,-0.5071771,-0.5037075,0.047646075,0.5653796,0.07542578,-0.46417144,0.59428173,0.014219657,-0.7172543,0.23525771,-0.24484307,0.27610412,0.23299825,-0.12272757,-0.13045602,0.44830242,-0.5260115,0.28401357,-0.47111318,0.15780029,0.3836919,-0.08681674,-0.8941597,0.54354316,0.37931183,-0.19967829,0.42001826,-0.38077593,-0.12267635,0.046313196,0.5763744,0.50305474,0.11485493,0.2906731,-0.15455407,-0.23921454,0.307579,0.34369856,0.09363668,0.7968695,0.09785146,0.33739874,0.397581,-0.31325027,0.5377676,0.29613298,-0.049607843,-0.6074723,-0.15924501,0.50162476,0.0008891523,0.12178089,-0.6204876,-0.15759449,-0.7654283,-0.36665684,-0.4546491,-0.6563846,-0.6634215,0.44462624,-0.18028653,-0.14326388,-1.1044585,-0.05570206,0.13236344,0.88790005,-0.11883478,0.016057491,0.2158846,-0.67691994,-0.1212028,-0.30030867,0.4033841,-0.09140888,-0.34964955,-0.39054245,0.3397923,-0.40103832,0.44393626,0.6347474,0.1771147,0.47951356,-0.17771104,0.78862804,0.20033872,0.051796872,0.48269972,-0.10823402,-0.72997844,-0.12680237,-0.005874485,0.32265896,-0.68125516,0.23225862,0.31201768,-0.13182425
MDA-MB-361,-0.42677474,-1.1879568,0.46046594,-0.14045577,0.45682433,0.8292076,1.1769698,0.18662854,0.06989119,-0.058236107,-0.043835986,0.046917148,0.06980605,-0.1996577,0.35803127,0.5143421,0.29551822,-0.56534183,0.07567091,0.0020595994,0.22577116,-0.43355957,-0.20423025,0.38344187,-0.6135011,0.7784641,-0.3286252,-1.4067537,0.18327948,1.6000451,-0.46153387,0.7034098,0.50095814,-0.32446802,-0.017490387,1.2551585,0.106732845,-0.59744203,-0.044912238,0.03809041,-1.7774252,0.17301282,0.41629913,0.9944519,0.10901159,0.5108878,-0.5866821,-0.79268473,-0.5730758,0.85590386,-0.08329785,0.8233527,0.9032794,0.6850749,-0.22232345,0.5329996,1.3125936,-0.33524796,-0.3999967,-0.069886595,0.3818879,-1.1623945,0.48367316,-0.3155012,0.1906078,0.9118695,-0.63656473,1.202482,1.373927,-0.8078941,0.45714393,-0.27723813,-0.2848586,0.7672079,0.12300672,-0.39045078,-0.8491701,-0.36722305,-0.609384,0.47819656,0.5809825,0.111073,-0.82258457,-0.89134264,0.30489033,0.9149181,-0.022475343,-1.1867081,0.37798512,-0.8895429,0.63764954,-1.3534268,1.1423961,0.11405613,1.2182235,1.1036824,1.7406608,-0.09530376,0.01661102,-0.1690167,0.25153163,0.5652451,-0.4916368,-1.0660895,-1.212333,0.91736436,0.3058733,0.34350628,-0.73085403,-0.42354202,-0.82379097,-0.65161914,-0.9224692,0.24494886,-0.4630682,-0.39327157,-0.012945712,0.49204576,-0.013931563,-0.4881976,0.4889812,-0.056633934,-0.5985884,0.15135154,-0.29811585,0.32954636,0.17011821,-0.14927185,-0.057019994,0.32160637,-0.35513312,0.2943564,-0.36578748,0.104334086,0.43938512,-0.105280265,-0.8318912,0.4637718,0.17424348,-0.2842312,0.6688846,-0.22366065,-0.121961065,-0.03128294,0.52612484,0.5794196,-0.065662116,0.26701224,-0.29888237,-0.3443434,0.43621823,0.18554229,0.2644588,0.7848962,0.17235497,0.45856068,0.62795794,-0.2296674,0.4624791,0.4401452,-0.027585179,-0.43051934,-0.28547937,0.72185606,-0.05559066,0.0045637637,-0.63132095,-0.03733562,-0.68041253,-0.3444024,-0.5929415,-0.54668427,-0.60735905,0.4465479,-0.122605026,-0.20919263,-1.0839006,0.11141822,0.29103178,0.8613277,-0.12501849,0.052212358,-0.015670687,-0.57104933,0.07005569,-0.34948495,0.63373864,-0.036227137,-0.18754566,-0.24738353,0.47969043,-0.49400732,0.5819857,0.46417826,0.29396036,0.34495094,-0.00092735887,0.71113306,-0.040651858,-0.123195335,0.5531093,-0.17374197,-0.60243237,-0.3025241,0.080619186,0.30360037,-0.7555702,0.21501595,0.3950797,-0.2877277
NCI-H2030,0.10849316,-0.18990383,-0.63996744,0.21927959,0.35056606,-0.39542565,0.64194024,0.1894746,-0.33304578,0.16111341,0.6038448,-0.59124815,-0.52990115,-0.12674718,0.5346825,-0.44194856,0.51529187,-0.3400685,-0.13478415,0.26591742,-0.44236356,-0.009710163,0.22810495,0.3432604,-0.107149474,-0.4948951,-0.25096196,-0.406808,0.5365048,0.90183234,-0.2895989,0.6222651,0.5279862,-0.7045647,0.006174721,0.4985483,-0.21765399,0.0432852,-0.38948488,-0.13794197,-0.3687405,0.15167749,0.093295045,0.048095554,0.1208702,0.05840995,-0.67666864,-0.8022669,0.13857596,0.729595,0.84673166,-0.18008888,-0.3045277,-0.27026856,0.12932098,0.29215136,0.42783123,0.17381121,-0.33716923,0.7719683,0.16846548,-1.0845404,0.6153809,-0.15493713,-1.0423802,-0.37850404,0.3261679,0.6542034,0.6090051,0.24997595,0.713837,0.17767838,-0.2022492,-0.44006285,-0.27430245,0.5191728,0.33102453,0.49256006,0.45971835,0.076451406,0.6274591,-0.030514814,-0.5782066,-0.17696291,-0.5567607,0.88218606,0.078293785,-0.2768825,-0.08965859,-0.33375382,0.21961738,0.07640469,0.91101056,0.30429476,-0.24538511,0.17557788,-0.15180928,-0.8046669,-0.15124331,-0.35563862,0.10618691,0.59118813,0.7556208,-0.13244362,-0.37717918,0.5058686,-0.23952451,0.43767568,-0.2775486,-0.40925637,-0.5748272,-0.08149735,-0.46536636,-0.15480047,-0.4256322,-0.43325108,0.37241986,0.15051378,0.02967582,-0.12007324,0.316847,0.02062364,-0.32335937,-0.04445576,0.33109206,-0.10911427,-0.26163894,-0.28065255,0.13462089,0.28749397,-0.4744566,0.08211847,-0.47978124,-0.18672088,-0.21557154,0.22581248,-0.3200928,0.48067132,0.37688223,0.001468249,0.37171036,-0.4451245,0.0002465498,-0.15198791,0.41223493,0.07043788,0.392295,0.44191822,-0.016053017,0.11782721,0.27649757,0.43278128,0.008814138,0.19291472,0.08837909,0.5330688,0.4576538,0.123227336,0.4281764,0.05486268,0.41218057,-0.5539895,0.11800992,0.57158643,0.39873323,-0.09194736,-0.10537699,0.24600016,-0.31478295,-0.60771734,-0.309793,-0.5190439,-0.5021863,-0.14856169,-0.5781685,-0.28983214,-0.45953807,-0.31378445,0.06988274,0.5490993,-0.20146309,0.3539871,0.28437367,-0.3027974,-0.17752716,0.17424527,0.4171251,0.3552374,-0.41172433,-0.33687413,0.5303947,-0.052084703,0.19326964,0.4930892,-0.046171345,0.18273768,-0.2602593,0.48362723,0.3116709,-0.052771132,0.23712012,-0.04165581,-0.5575241,-0.14594476,-0.49340305,-0.31956583,-0.5004303,-0.45464164,0.043158114,-0.21536326
5637,0.5636701,-1.5940071,0.4950404,0.3660613,-0.12261217,0.6231495,1.2689103,0.1173654,-1.3207071,0.36652648,-0.979387,-0.7723453,0.8312041,0.5068264,0.2002874,0.34835497,1.2029276,-0.24311379,0.14700143,0.411777,0.9138215,-0.9301698,0.8435795,1.3300004,0.7350838,-0.45493984,1.1945634,-1.2820821,0.6756794,2.90296,0.18264271,0.21663326,1.38668,-0.2134382,-0.58152246,1.3330342,1.4028776,-0.62605953,0.27020216,-1.539046,-1.6931802,-1.0192195,1.0794287,1.1194956,0.17056191,0.2258003,0.2097431,-0.9654372,-0.06491324,1.7640535,1.4489025,-0.14300531,0.6638484,0.49446797,0.91857725,-0.07138179,0.71953595,-0.16321355,0.07990287,1.1297116,0.05901446,0.06488304,0.8685562,-0.8896451,-0.8694613,-0.13165796,-0.09411852,2.0594046,2.3327458,0.3170062,-0.39065003,0.40792048,-0.5150243,0.07728865,-1.0030407,-0.23635197,0.5067835,0.3018954,-2.0195777,-0.31186882,1.0775832,-0.63526946,0.7493488,-1.2605168,-0.215678,1.7851192,0.5538016,-1.890936,0.7401543,-0.37802598,0.8540311,0.459491,0.16890788,-0.6444664,1.7879988,1.5212193,1.6663984,0.7257873,-1.7073561,-0.7735788,0.06311649,0.9124437,0.44238055,-1.5014122,-2.4927323,0.40636462,-0.17411736,0.5299854,-0.3739621,-0.31806126,-0.49974322,-0.051706947,-0.5033643,-0.20288056,-0.4248841,-0.47555548,0.31760147,0.06747557,0.08383558,-0.20670858,0.30267376,-0.0494446,-0.3841561,0.028500326,0.21942872,-0.046949603,-0.14460522,-0.33683887,0.1096309,0.3744333,-0.5022458,0.09475279,-0.39740166,-0.21164754,-0.13775171,0.28473467,-0.26096797,0.37746885,0.4321566,0.024836995,0.27788073,-0.5034894,-0.060550187,-0.10332519,0.47470358,0.16761133,0.29598284,0.47515377,-0.012557205,0.056473166,0.2555987,0.5067,-0.049246747,0.27539563,0.14380544,0.5251462,0.4886348,0.20368168,0.3428583,0.04497688,0.50297034,-0.5788275,0.03000664,0.47882074,0.41823885,-0.0812446,-0.15013859,0.280401,-0.27802625,-0.70818394,-0.334555,-0.4500903,-0.54129887,-0.24254331,-0.6958102,-0.34323195,-0.49193767,-0.33574727,0.1597606,0.65179515,-0.18400936,0.4165064,0.3129988,-0.3343357,-0.084812135,0.07621053,0.36154675,0.30269888,-0.46720135,-0.34154788,0.56778467,-0.16111352,0.26566842,0.5679705,-0.11107186,0.13739344,-0.22892365,0.4146736,0.39947152,-0.07929371,0.25597978,0.060280055,-0.58774513,-0.057637498,-0.38396892,-0.23971945,-0.5394922,-0.38771456,0.06015587,-0.1307038
RERF-LC-Sq1,0.06288167,0.25991508,-2.4404504,-0.28497174,0.709427,-0.8542973,0.8944786,0.07152475,-0.7045205,0.21131563,2.2042143,-1.8523792,-1.2481807,0.045581523,1.2925423,-1.6889516,0.96454686,-1.0710526,-0.5378511,1.126805,-1.6118038,-0.25317952,0.62067354,0.035820838,-0.66821337,-1.0728624,-0.81308544,-0.5115313,1.4141996,0.1107841,-0.93964297,1.1225586,0.83503366,-1.2819097,0.36668354,0.5386406,-1.1481748,0.51017094,-1.291162,0.12309301,0.38202652,-0.16010681,-0.10917171,0.33464757,-0.053930808,0.18132094,-0.9092241,-1.5295184,-0.4989676,0.9624394,1.9565876,-0.6015906,-0.39272282,-0.7153502,0.44552055,0.44346672,-0.10265964,1.2334982,-0.28001237,1.498393,1.0113726,-2.2081866,1.1316366,0.035064273,-2.166331,-0.84242463,1.5705141,1.3854359,0.668816,0.2590049,1.4377297,0.34952384,-0.26145157,-2.0432954,-0.012118532,1.3825897,0.44732326,0.71381134,1.743037,-0.13637939,0.8310681,0.97121876,-1.450354,-0.5502617,-1.4241973,1.2314975,-0.006023776,0.100997336,-1.3664613,-0.69294983,-0.08331525,-0.12047152,2.0663402,1.2325689,-1.0902193,-0.03753622,-0.3155995,-1.6726145,-0.05871398,-0.8028503,0.6641977,1.0941597,1.1754886,0.15658055,0.26445284,0.8749766,0.23786554,0.35951093,-0.667779,-0.4149261,-0.75315905,-0.5836789,-0.8472759,0.1612286,-0.4661757,-0.41756135,0.045255214,0.46272695,0.007112244,-0.43853346,0.48618054,-0.034677908,-0.58540046,0.14187863,-0.21108943,0.26601782,0.12782699,-0.16084215,-0.046226695,0.33959725,-0.39981204,0.26633805,-0.39832053,0.07776615,0.34875524,-0.06116338,-0.7796098,0.47983798,0.23520127,-0.23413734,0.58857876,-0.2785393,-0.10699699,-0.032588482,0.5208684,0.50319123,0.022518277,0.29275498,-0.23866755,-0.26885417,0.39395353,0.24378592,0.20295767,0.7139003,0.14892977,0.44652742,0.5665574,-0.20074168,0.47143757,0.3673355,0.022854954,-0.4767748,-0.2135371,0.66470724,0.010404199,0.013188913,-0.5644822,-0.023425892,-0.65016556,-0.38081485,-0.53374505,-0.5624959,-0.6041977,0.37273076,-0.18896353,-0.2075958,-1.0104109,0.029629856,0.23591983,0.8274324,-0.13337372,0.08313763,0.06195584,-0.55648065,0.0059686005,-0.27620015,0.56662405,0.0024380982,-0.24363375,-0.28352118,0.4614346,-0.42314914,0.509797,0.49763942,0.23148641,0.34850332,-0.063928515,0.6966227,0.045083165,-0.08383326,0.50175405,-0.14595285,-0.6192392,-0.2523963,-0.005415052,0.22999567,-0.7110438,0.13535255,0.33707044,-0.25147128
SK-MEL-5,0.57076144,0.20384212,-0.13944553,-0.15962869,0.685289,-0.8523967,0.13723461,-0.015647564,-0.32085297,-0.17554273,-0.12772113,-0.8289454,-0.22550166,-0.26205808,0.54357076,-0.55284196,-0.19766763,-0.048030607,1.0835918,0.94165033,-0.3417657,0.2585702,0.6556551,-0.13194075,-0.6592275,-0.5492771,-0.5981636,0.3327939,0.09747938,0.07560657,-0.42931706,-0.3039136,1.6272954,-0.3403235,0.2175342,0.32845968,-0.5029623,1.1217052,0.047778245,-0.20141087,0.056920834,-0.15779573,0.46182385,0.6481328,-0.35995775,-0.6064654,-0.8079361,-1.1787694,-0.10765006,0.6835101,0.7083871,0.65075475,-0.3805694,-1.233545,0.056556553,0.65667325,0.62650204,1.0519832,-0.5840508,1.1853944,0.9940602,-0.90355694,-0.87683386,-0.22345082,-0.6792472,0.13141954,-0.028815161,0.77628297,0.6559995,-0.35473663,0.6759354,0.18132353,-0.635054,-0.5998608,0.3492878,0.31724983,-0.5506027,-0.44055358,1.6149055,0.44001687,0.76179034,0.8643084,-0.40297946,0.103845134,-0.61071086,0.71654063,-0.2067348,-0.2874048,-1.6344302,-0.49955064,-0.38954842,0.57427,0.82224447,0.49586165,0.34155595,-0.40965554,-0.32022822,-0.6007857,-0.08576315,-0.32707658,0.078232996,0.5790479,0.9443952,0.7389462,0.47386512,0.5058686,-0.23952451,0.43767568,-0.2775486,-0.40925637,-0.5748272,-0.08149735,-0.46536636,-0.15480047,-0.4256322,-0.43325108,0.37241986,0.15051378,0.02967582,-0.12007324,0.316847,0.02062364,-0.32335937,-0.04445576,0.33109206,-0.10911427,-0.26163894,-0.28065255,0.13462089,0.28749397,-0.4744566,0.08211847,-0.47978124,-0.18672088,-0.21557154,0.22581248,-0.3200928,0.48067132,0.37688223,0.001468249,0.37171036,-0.4451245,0.0002465498,-0.15198791,0.41223493,0.07043788,0.392295,0.44191822,-0.016053017,0.11782721,0.27649757,0.43278128,0.008814138,0.19291472,0.08837909,0.5330688,0.4576538,0.123227336,0.4281764,0.05486268,0.41218057,-0.5539895,0.11800992,0.57158643,0.39873323,-0.09194736,-0.10537699,0.24600016,-0.31478295,-0.60771734,-0.309793,-0.5190439,-0.5021863,-0.14856169,-0.5781685,-0.28983214,-0.45953807,-0.31378445,0.06988274,0.5490993,-0.20146309,0.3539871,0.28437367,-0.3027974,-0.17752716,0.17424527,0.4171251,0.3552374,-0.41172433,-0.33687413,0.5303947,-0.052084703,0.19326964,0.4930892,-0.046171345,0.18273768,-0.2602593,0.48362723,0.3116709,-0.052771132,0.23712012,-0.04165581,-0.5575241,-0.14594476,-0.49340305,-0.31956583,-0.5004303,-0.45464164,0.043158114,-0.21536326
8305C,0.14711016,0.5644185,-2.54527,-0.23073307,0.97727275,-1.447644,0.8500586,0.10830827,-1.0230026,0.30401593,2.2817547,-1.8782839,-1.1852367,0.093600124,1.3867203,-2.0501578,0.9053143,-0.96389693,-0.3883336,1.2072315,-1.7537862,-0.16209495,0.529911,0.16449519,-0.65814555,-1.4540261,-0.971287,-0.17254983,1.5201285,0.1191829,-0.9036776,1.1501456,1.0140371,-1.4158118,0.18922374,0.33474743,-1.0732251,0.9029858,-1.3240918,0.23686804,0.64172244,-1.4744699e-05,0.0016620532,0.3270142,0.056159582,0.054461896,-0.91119975,-1.5948234,-0.26908022,0.98795485,2.2936347,-0.78739035,-0.86892474,-0.9772725,0.5572325,0.36564088,-0.37807375,1.2414315,-0.4690116,1.853384,0.76275885,-2.2005746,0.84021676,0.17914541,-2.423539,-1.1127311,1.8653342,1.2354733,0.78561103,0.41216603,1.5230621,0.5610731,-0.23559041,-2.2112708,-0.059547707,1.4454194,0.640002,0.66617996,2.2184765,-0.43159086,0.8647194,1.1151937,-1.2260872,-0.34055376,-1.773023,1.5671753,0.17827763,0.3034502,-1.475927,-0.48173434,-0.31096405,0.5097789,2.102064,1.3427951,-1.3812797,-0.10287097,-0.91916317,-2.0678277,-0.22895749,-0.88249815,0.53105986,1.0998452,1.6821473,0.5127691,0.5685025,0.30908483,-0.11017224,0.62023175,-0.46822047,-0.22890463,-0.4263376,-0.022582449,-0.5405129,-0.24988592,-0.42415276,-0.51691425,0.26400843,-0.01370649,0.13678472,-0.29140738,0.28881735,-0.11794661,-0.44359386,0.09982563,0.11026138,0.0138254985,-0.030187547,-0.39176926,0.085199505,0.4594293,-0.5294138,0.1071047,-0.3168635,-0.23601702,-0.06167139,0.34233975,-0.20316476,0.27657327,0.48619542,0.04768338,0.18614846,-0.5605496,-0.11998794,-0.05575022,0.5357759,0.26261267,0.20182353,0.50764644,-0.009139534,-0.003509432,0.23516697,0.5789664,-0.106009796,0.35603285,0.19799286,0.51740074,0.5189233,0.28233764,0.25944734,0.035312053,0.5917307,-0.6031103,-0.056029506,0.38812864,0.43730846,-0.07078108,-0.19389963,0.31403285,-0.24209118,-0.8064048,-0.35876352,-0.38267797,-0.57953715,-0.33442417,-0.81082225,-0.3954381,-0.52361304,-0.35721916,0.2476294,0.7521954,-0.16694577,0.47762823,0.34098408,-0.36516905,0.005830437,-0.019632846,0.30721074,0.25133476,-0.5214383,-0.34611714,0.6043389,-0.26770523,0.33644888,0.641178,-0.17452165,0.09306279,-0.19828844,0.34726128,0.48530954,-0.10522343,0.27441788,0.15993735,-0.6172906,0.028695837,-0.27698097,-0.16165787,-0.57768095,-0.3222835,0.07677367,-0.047936738
RERF-LC-KJ,0.13131553,-2.4380178,0.73703486,0.021249792,0.44682673,1.4564495,1.8063984,0.08368991,-0.37770128,-0.24273649,-0.7438784,0.060986593,0.790469,0.002500657,0.4237519,1.0907643,1.0501612,-0.69850254,0.189685,-0.20227942,0.80897176,-0.8741089,0.4212851,0.96142566,-0.53757685,0.8530812,0.3403345,-2.171662,0.1542249,3.2192242,-0.3057688,0.54568,1.4435891,-0.5475877,-0.08750768,2.2194011,1.2217442,-1.5180936,0.39578155,-0.53531533,-2.9369488,-0.35497075,1.0001931,1.9684982,0.299464,0.83113587,-0.5168604,-1.2193241,-0.6532182,1.6762425,0.23204571,1.0388397,1.6066785,1.0671057,0.054473132,0.6751469,2.1465218,-0.58302766,-0.39517957,0.18043257,0.57772076,-0.92969257,0.590447,-0.783118,-0.10263555,1.0940343,-1.1018255,2.2272124,2.7980278,-0.30684286,0.61591274,-0.1600104,-0.4965094,1.3318223,-0.09572761,-0.5808382,-0.3934158,-0.32254943,-1.7896705,0.37232193,0.9400567,-0.51292527,-0.22054124,-1.4255189,0.36914515,1.5328885,-0.16277748,-2.347215,1.1375507,-0.6183988,1.1047137,-1.0358702,0.9478654,-0.5529862,2.4176557,2.0567288,2.8256557,0.41636917,-0.97484267,-0.62997496,0.3642154,0.991016,-0.4378475,-1.72448,-3.0736337,0.40636462,-0.17411736,0.5299854,-0.3739621,-0.31806126,-0.49974322,-0.051706947,-0.5033643,-0.20288056,-0.4248841,-0.47555548,0.31760147,0.06747557,0.08383558,-0.20670858,0.30267376,-0.0494446,-0.3841561,0.028500326,0.21942872,-0.046949603,-0.14460522,-0.33683887,0.1096309,0.3744333,-0.5022458,0.09475279,-0.39740166,-0.21164754,-0.13775171,0.28473467,-0.26096797,0.37746885,0.4321566,0.024836995,0.27788073,-0.5034894,-0.060550187,-0.10332519,0.47470358,0.16761133,0.29598284,0.47515377,-0.012557205,0.056473166,0.2555987,0.5067,-0.049246747,0.27539563,0.14380544,0.5251462,0.4886348,0.20368168,0.3428583,0.04497688,0.50297034,-0.5788275,0.03000664,0.47882074,0.41823885,-0.0812446,-0.15013859,0.280401,-0.27802625,-0.70818394,-0.334555,-0.4500903,-0.54129887,-0.24254331,-0.6958102,-0.34323195,-0.49193767,-0.33574727,0.1597606,0.65179515,-0.18400936,0.4165064,0.3129988,-0.3343357,-0.084812135,0.07621053,0.36154675,0.30269888,-0.46720135,-0.34154788,0.56778467,-0.16111352,0.26566842,0.5679705,-0.11107186,0.13739344,-0.22892365,0.4146736,0.39947152,-0.07929371,0.25597978,0.060280055,-0.58774513,-0.057637498,-0.38396892,-0.23971945,-0.5394922,-0.38771456,0.06015587,-0.1307038
U-251MG,0.22761405,0.42925912,-1.7918406,-0.14409223,0.90922236,-0.9203848,0.87245667,-0.17169248,-0.79398143,-0.022269191,1.316306,-1.3628539,-0.7695003,-0.1182137,1.5178128,-1.3937246,1.0594792,-0.6907534,-0.54450446,0.50031227,-1.1506636,0.06178368,0.7613275,0.34198493,-0.65673256,-0.90686363,-0.75611603,-0.31401,1.0504694,0.21583429,-0.97176516,0.5204203,1.0907778,-1.1816612,0.5304879,0.7239034,-0.83376366,0.5490509,-0.9527345,0.10724431,0.07772244,-0.3004207,0.012685083,0.68980455,0.028343465,0.07432064,-0.85163116,-1.3053491,-0.2679946,0.9093511,2.0780547,-0.24794555,-0.11644639,-0.9033327,0.19065507,0.45109618,0.058954194,1.1724006,-0.33837032,1.6822673,0.98106915,-1.9600778,-0.08832007,-0.22032875,-1.663374,-0.52916574,1.0639108,1.263082,0.7912601,0.45376527,1.3057925,0.12450567,-0.29178426,-1.4006053,0.20399931,0.9683821,0.7372779,0.4093596,1.9718121,-0.40096012,0.86659443,0.59307337,-0.7623498,-0.3614784,-1.5533665,1.2959764,-0.044155184,-0.2952139,-1.1823143,-0.39058286,-0.27793884,0.6578968,1.7003427,0.44212526,-0.6343202,-0.23784725,-0.72868866,-1.4677271,-0.09331154,-0.64303136,0.67432183,1.0546117,1.7116855,0.007211186,0.6019086,0.40636462,-0.17411736,0.5299854,-0.3739621,-0.31806126,-0.49974322,-0.051706947,-0.5033643,-0.20288056,-0.4248841,-0.47555548,0.31760147,0.06747557,0.08383558,-0.20670858,0.30267376,-0.0494446,-0.3841561,0.028500326,0.21942872,-0.046949603,-0.14460522,-0.33683887,0.1096309,0.3744333,-0.5022458,0.09475279,-0.39740166,-0.21164754,-0.13775171,0.28473467,-0.26096797,0.37746885,0.4321566,0.024836995,0.27788073,-0.5034894,-0.060550187,-0.10332519,0.47470358,0.16761133,0.29598284,0.47515377,-0.012557205,0.056473166,0.2555987,0.5067,-0.049246747,0.27539563,0.14380544,0.5251462,0.4886348,0.20368168,0.3428583,0.04497688,0.50297034,-0.5788275,0.03000664,0.47882074,0.41823885,-0.0812446,-0.15013859,0.280401,-0.27802625,-0.70818394,-0.334555,-0.4500903,-0.54129887,-0.24254331,-0.6958102,-0.34323195,-0.49193767,-0.33574727,0.1597606,0.65179515,-0.18400936,0.4165064,0.3129988,-0.3343357,-0.084812135,0.07621053,0.36154675,0.30269888,-0.46720135,-0.34154788,0.56778467,-0.16111352,0.26566842,0.5679705,-0.11107186,0.13739344,-0.22892365,0.4146736,0.39947152,-0.07929371,0.25597978,0.060280055,-0.58774513,-0.057637498,-0.38396892,-0.23971945,-0.5394922,-0.38771456,0.06015587,-0.1307038
FaDu,0.36987907,-1.6494745,1.154278,0.1248448,-0.082883686,1.2131764,1.1663455,0.046330832,-0.74540406,0.12398252,-1.3736688,-0.11572373,0.88378745,0.11440186,-0.01997228,1.0922241,1.0240921,-0.23789015,0.24339445,-0.19364434,1.0973935,-0.6670146,0.49966118,1.292592,-0.009942792,0.36733514,0.85210073,-1.4938667,-0.055753477,2.5456467,0.25437543,0.25116575,1.3636256,-0.065629974,-0.4388721,1.4958626,1.4743432,-0.7253238,0.39265975,-0.89979243,-2.005652,-0.56060874,0.77178156,1.1422071,0.22368936,0.3901097,-0.01282903,-0.84728044,-0.09503916,1.5465434,0.39370134,0.5739883,1.1179495,0.6042913,0.39756283,0.01661202,0.9775108,-0.63657075,-0.16193467,0.49305624,0.032413118,0.033117265,0.36345857,-0.5747471,-0.1142906,0.5069282,-0.9123104,1.6333307,2.2704017,0.16435963,-0.4143486,0.17944497,-0.5002403,0.9224406,-0.59700227,-0.40923345,0.0011250451,-0.16706541,-1.8429251,-0.19755435,0.7985341,-0.6159136,0.5551656,-1.0575985,0.3225816,1.36984,0.3810697,-2.0888536,1.0982273,-0.523557,0.90664554,-0.06247298,-0.06616626,-1.1138617,1.7934076,1.6287427,1.7315975,0.83192027,-0.8638804,-0.5297403,-0.03029965,0.7874767,0.17099522,-1.6730756,-2.1525042,0.40636462,-0.17411736,0.5299854,-0.3739621,-0.31806126,-0.49974322,-0.051706947,-0.5033643,-0.20288056,-0.4248841,-0.47555548,0.31760147,0.06747557,0.08383558,-0.20670858,0.30267376,-0.0494446,-0.3841561,0.028500326,0.21942872,-0.046949603,-0.14460522,-0.33683887,0.1096309,0.3744333,-0.5022458,0.09475279,-0.39740166,-0.21164754,-0.13775171,0.28473467,-0.26096797,0.37746885,0.4321566,0.024836995,0.27788073,-0.5034894,-0.060550187,-0.10332519,0.47470358,0.16761133,0.29598284,0.47515377,-0.012557205,0.056473166,0.2555987,0.5067,-0.049246747,0.27539563,0.14380544,0.5251462,0.4886348,0.20368168,0.3428583,0.04497688,0.50297034,-0.5788275,0.03000664,0.47882074,0.41823885,-0.0812446,-0.15013859,0.280401,-0.27802625,-0.70818394,-0.334555,-0.4500903,-0.54129887,-0.24254331,-0.6958102,-0.34323195,-0.49193767,-0.33574727,0.1597606,0.65179515,-0.18400936,0.4165064,0.3129988,-0.3343357,-0.084812135,0.07621053,0.36154675,0.30269888,-0.46720135,-0.34154788,0.56778467,-0.16111352,0.26566842,0.5679705,-0.11107186,0.13739344,-0.22892365,0.4146736,0.39947152,-0.07929371,0.25597978,0.060280055,-0.58774513,-0.057637498,-0.38396892,-0.23971945,-0.5394922,-0.38771456,0.06015587,-0.1307038
SLR25,-0.07418247,-0.5170159,-1.1272279,0.09310424,0.5916102,0.25641298,1.1950513,0.17720434,-0.24072133,0.20238808,1.0137193,-1.2230077,-0.8475532,0.0058009624,0.9022414,-0.5538493,0.7804038,-0.9276024,-0.04390798,0.370843,-0.36814484,-0.12165711,0.44201693,0.614892,-0.37376338,-0.16285883,-0.46444356,-0.91618806,0.8046245,1.4186069,-0.59073514,1.0130937,0.6598507,-0.89104897,0.67383575,0.8507647,-0.55239695,-0.33794335,-0.6788833,0.10302141,-0.5868614,-0.12425106,0.048156947,0.42836097,0.50748837,0.43020746,-1.0390748,-1.3030314,-0.33542728,1.2031511,1.2725999,-0.09527115,0.18741998,0.024857871,-0.16805722,0.529959,0.8367187,0.38090968,-0.12423636,0.82247794,0.15935713,-1.6380595,1.0576953,-0.13654494,-1.6866384,-0.28812173,0.71527135,1.5416634,1.4854363,-0.18195803,1.1620083,0.048661783,-0.39347982,-0.9840535,0.051845893,0.9701115,0.15639448,0.6159663,0.19250837,0.31731182,1.0320945,0.08629035,-0.9015643,-0.690308,-0.58673096,1.1379701,-0.119867474,-0.6720439,-0.34600452,-0.8055094,0.06856744,-0.7252857,1.502973,0.73908603,0.078816615,0.7648369,0.8593251,-1.2676474,0.18510419,-0.1872639,0.22809485,1.0216758,0.2812844,-0.4198505,-0.7432104,0.40636462,-0.17411736,0.5299854,-0.3739621,-0.31806126,-0.49974322,-0.051706947,-0.5033643,-0.20288056,-0.4248841,-0.47555548,0.31760147,0.06747557,0.08383558,-0.20670858,0.30267376,-0.0494446,-0.3841561,0.028500326,0.21942872,-0.046949603,-0.14460522,-0.33683887,0.1096309,0.3744333,-0.5022458,0.09475279,-0.39740166,-0.21164754,-0.13775171,0.28473467,-0.26096797,0.37746885,0.4321566,0.024836995,0.27788073,-0.5034894,-0.060550187,-0.10332519,0.47470358,0.16761133,0.29598284,0.47515377,-0.012557205,0.056473166,0.2555987,0.5067,-0.049246747,0.27539563,0.14380544,0.5251462,0.4886348,0.20368168,0.3428583,0.04497688,0.50297034,-0.5788275,0.03000664,0.47882074,0.41823885,-0.0812446,-0.15013859,0.280401,-0.27802625,-0.70818394,-0.334555,-0.4500903,-0.54129887,-0.24254331,-0.6958102,-0.34323195,-0.49193767,-0.33574727,0.1597606,0.65179515,-0.18400936,0.4165064,0.3129988,-0.3343357,-0.084812135,0.07621053,0.36154675,0.30269888,-0.46720135,-0.34154788,0.56778467,-0.16111352,0.26566842,0.5679705,-0.11107186,0.13739344,-0.22892365,0.4146736,0.39947152,-0.07929371,0.25597978,0.060280055,-0.58774513,-0.057637498,-0.38396892,-0.23971945,-0.5394922,-0.38771456,0.06015587,-0.1307038
ZR-75-30,-1.4694532,-0.9480776,-0.1561175,-0.5736555,1.0849856,1.2307608,1.6943136,0.50337845,1.2855945,-0.4729788,1.6948751,-0.21981783,-1.134162,-0.8721255,0.751693,0.39119354,-0.33890617,-1.514883,-0.07836254,0.11070881,-0.35168448,-0.19133383,-0.5135528,-0.00019252021,-1.7865374,1.4750272,-2.1083667,-1.9679494,0.32404056,1.0768456,-1.1774113,1.6978345,0.18159197,-0.80659497,1.0682356,1.7040058,-1.7464819,-0.77754974,-0.56783205,1.284575,-2.0377195,1.0915127,-0.11705672,0.62832266,0.28245825,0.6063169,-1.892925,-1.256355,-1.461792,0.9082722,-0.53495187,1.2365049,1.3048123,0.9791914,-1.3151329,1.74054,2.018167,-0.09830316,-0.54783714,-0.51616114,0.69990647,-3.2099814,0.9855975,0.40220886,0.1198868,1.2553493,-0.41541287,1.3259957,1.063072,-2.1438699,1.8678166,-0.7532869,-0.34281597,0.42711502,1.0028423,0.34032765,-1.8665134,-0.47725078,0.340616,1.4532487,0.5320165,0.9119214,-2.4531045,-1.1352508,0.49327722,0.63912994,-0.66866034,-0.67355365,-0.32603914,-1.7822993,0.4176203,-3.194191,2.9224398,1.3833314,0.98309636,0.98246497,2.3306472,-1.4505559,1.8889962,0.22821997,0.6609263,0.8134807,-1.5335773,-0.70933956,-0.53104,1.206594,0.58442616,0.33317733,-0.90433013,-0.37027958,-0.6001743,-0.9707143,-0.9947047,0.14897019,-0.55108416,-0.54390305,-0.11984554,0.7840413,0.1020774,-0.6428837,0.74226534,0.013092712,-0.9263945,0.38376158,-0.5435552,0.4753436,0.49293774,-0.039533526,-0.2709992,0.5361284,-0.5582369,0.3889879,-0.4698821,0.3391535,0.6944952,-0.24929024,-1.1955062,0.57882524,0.38698402,-0.30194435,0.43743998,-0.35212255,-0.1868085,0.15215972,0.66355,0.7262987,-0.024204314,0.212531,-0.22228068,-0.42214426,0.3197715,0.30217773,0.13254003,1.112233,0.10046471,0.23156369,0.35905483,-0.5435035,0.59727585,0.41746825,-0.2911391,-0.64089286,-0.29990315,0.45825797,-0.20484033,0.2369109,-0.8888025,-0.37184334,-1.0031155,-0.24162805,-0.52587867,-0.7314403,-0.74926394,0.75394034,0.025425196,-0.06476274,-1.4414555,0.073679715,0.15999413,1.0654298,-0.07554726,-0.16131723,0.1873968,-0.87534845,-0.09780082,-0.54627395,0.3890227,-0.3260785,-0.32233787,-0.42300427,0.23601508,-0.5801295,0.5703584,0.713956,0.28991887,0.6384984,-0.14018002,0.9501201,0.14980102,0.111799434,0.60858136,-0.14091149,-0.8239049,-0.111330315,0.24569204,0.6582033,-0.77324235,0.5910465,0.4496457,-0.08338547
COLO 829,0.7461581,0.24351184,-0.46914357,-0.035071515,0.83131194,-1.0485327,0.34856093,-0.027735531,-0.76160264,-0.16639757,0.120861635,-1.0747691,-0.19253573,-0.029934231,0.7810944,-0.8447952,0.21138021,-0.13119161,0.8802542,1.0394524,-0.34273905,0.1563974,1.0033188,-0.156267,-0.5820724,-0.8123752,-0.4660578,0.42725867,0.30819556,0.37882143,-0.42791554,-0.20538628,1.7586817,-0.6098481,0.10632913,0.4271656,-0.35557535,1.2749866,-0.078194045,-0.35956267,0.26971844,-0.34122258,0.45228806,0.86366117,-0.44944787,-0.5356633,-0.6523975,-1.4532775,-0.14256291,0.91526306,1.3312275,0.4922552,-0.33200952,-1.2760923,0.41799995,0.58136463,0.25463465,1.11803,-0.57505685,1.6102049,0.87077934,-1.0553648,-0.7677417,-0.5374554,-1.097369,-0.14636867,0.34474766,1.1040154,0.9565571,-0.13633059,0.91906476,0.2866496,-0.6399551,-0.94414574,0.16194035,0.4698216,-0.12607105,-0.34221423,1.6610909,0.099218436,0.9116646,0.785132,-0.264776,0.13828602,-0.96885365,1.0381768,0.023255516,-0.34753597,-1.7283804,-0.4603755,-0.57902783,1.0350596,0.8967214,0.42243335,0.18808043,-0.31403854,-0.60082144,-0.7507137,-0.34199032,-0.57438004,0.2663596,0.9086681,1.4929725,0.780113,0.43995884,1.082994,0.35175142,0.39816597,-0.6728067,-0.32439485,-0.26348758,-0.7458336,-0.6937664,-0.21877939,-0.5803819,-0.6733481,0.1036388,0.7155844,0.21153878,-0.46393862,0.7774869,0.117792085,-0.9320028,0.38722432,-0.22524363,0.23679581,0.37596482,-0.06756714,-0.2655275,0.6510806,-0.78263456,0.28939945,-0.6251632,0.27160212,0.3629123,-0.09155567,-1.0443312,0.66730213,0.6812159,-0.0958245,0.058864176,-0.60532725,-0.13627085,0.1806908,0.6670395,0.4348633,0.35208774,0.31004617,0.043621484,-0.12100007,0.12152168,0.56725746,-0.14898844,0.87610626,-0.01077693,0.13920414,0.05256632,-0.48073652,0.6596992,0.108908355,-0.1291214,-0.8732277,-0.0018433407,0.17052537,0.04337749,0.31601518,-0.65711045,-0.37567604,-0.936468,-0.3747968,-0.26600075,-0.83176756,-0.762341,0.5023248,-0.22453868,-0.031327516,-1.200503,-0.27520332,-0.09466303,0.96155727,-0.101307616,-0.071606755,0.5495149,-0.8708292,-0.39679763,-0.27639088,0.06312978,-0.21815452,-0.58177114,-0.60660565,0.11455381,-0.29988578,0.2664416,0.90010905,0.028017126,0.70773685,-0.42933765,0.93374383,0.54347694,0.31988046,0.4041845,-0.018664867,-0.9351953,0.13363798,-0.08336243,0.416223,-0.5903878,0.32770985,0.21726604,0.10603404
CCK-81,-0.27457917,-1.6135552,2.6652906,0.1228236,0.57646406,1.3680634,1.1472126,-0.27039385,0.783164,-0.4938383,-2.2733257,1.3428015,1.1768855,-0.22124465,-0.8818048,1.8196263,0.1631645,0.210232,0.37275055,-0.55033404,2.0907028,0.14235094,-0.689118,0.9046363,-0.704121,1.790394,0.10732597,-1.4458656,-1.574406,2.8118744,0.11526501,-0.5000334,1.2276624,0.51439506,-0.18644013,1.7508224,1.8576134,-0.67787206,1.0425264,-0.8006576,-2.3776975,0.40212423,1.0145879,1.273529,0.7176095,0.50173116,0.10067646,-0.95004445,-0.4928691,0.7317493,-0.9477084,1.9475157,1.7943734,0.9474623,-0.25550693,1.073148,2.2941897,-1.4107926,-0.45496926,-0.25195342,-0.27248955,-0.10967835,-0.4658995,-0.7354882,1.3561854,1.5539012,-2.0154395,1.5140734,2.9078069,-1.4123136,0.47736207,0.04525108,-0.23722945,2.5420725,0.16337131,-1.5307786,-0.8992566,-0.9777263,-2.3915837,0.16852707,0.7497671,-0.4104672,1.0516093,-0.5184653,0.6315407,0.5388645,-0.39363384,-2.3345633,0.67732364,-0.9984035,0.62819314,-0.78567415,-0.2519509,-0.8776803,2.2827487,1.7809844,2.0832868,0.53589004,-0.05172985,0.02404617,-0.0054679234,0.65295357,-0.37110358,-1.7247419,-1.923324,0.09708208,0.81921256,0.9934734,-1.5378618,0.19606194,-0.65313196,-0.418471,-1.4030824,0.22779125,-0.3832176,-0.52245146,-0.53917027,-0.2492076,0.24035548,-1.1911861,0.20726892,-0.70704955,-0.8612878,0.5627735,-1.2463028,0.9002999,0.95549256,-0.6141139,-0.12502725,0.7610922,-0.26987487,0.41271847,0.4370691,-0.16683081,1.1375564,0.2981549,-0.29404938,-0.44973758,0.23544112,-0.25997704,0.39455754,-0.38939106,-0.58172894,0.20600185,0.9138061,1.4547069,-1.1106972,0.47230086,-0.5261007,-0.9977391,0.50240445,0.4659291,0.12528901,1.4011304,0.71892613,0.6035233,1.2585106,0.50930583,-0.30737746,0.62141436,0.6819564,-0.31257403,-1.1739649,0.4028421,-0.017007262,-0.112159416,-1.0006943,0.41924888,-0.26834986,-1.0559671,-1.0226419,0.15880531,-0.80904186,-0.24210355,-0.8980137,-0.7215427,-1.3092695,0.24220672,1.2441214,1.5974975,-0.0021288246,0.5766293,-0.20285568,-0.63508177,1.100771,-1.1852897,0.61373365,-0.3480532,-0.32295513,-0.036128283,0.9984031,-1.4850993,1.3727335,0.7364085,0.013491236,-0.22161391,0.54326785,0.06582567,0.2002536,-0.6231132,0.8234949,0.4786001,-0.61369836,0.0586427,1.0672072,0.8887405,-1.1831205,0.7072038,0.67396647,0.08198476
TUHR10TKB,1.0096643,-0.78705597,-0.97398263,0.21627815,-0.11342731,-0.5956853,0.8375102,-0.025002427,-1.5511925,0.37233925,0.3297592,-0.986325,-0.14051762,0.11377318,0.8916562,-0.6052394,1.5992801,-0.041066952,-0.57821345,0.6923366,-0.58994925,-0.4356433,0.98330927,0.86242414,0.27056396,-1.1737788,0.8200054,-0.64665055,1.3689128,1.5389184,-0.24829449,0.560328,0.845301,-1.0001442,-0.18356958,0.6668787,0.78978306,0.17882928,-0.46749523,-0.8993549,-0.45011234,-0.6316933,0.21418652,0.8026957,-0.18099806,0.29878297,-0.11493738,-1.1123521,0.15902872,1.0611242,1.8247163,-0.70926327,-0.21252608,-0.22074717,0.48800004,-0.47642374,-0.19817917,0.20922726,0.045934223,1.4135684,0.46213502,-0.5038829,0.8409541,-0.8866842,-1.7338923,-0.84082794,0.8664305,1.3743906,1.5777482,1.0344291,-0.0026708134,0.46041974,-0.01696549,-0.9250072,-0.623015,0.5567818,1.2240807,0.8303379,-0.07678187,-0.7266736,1.0713923,-0.16837916,0.49593195,-0.7385655,-1.132558,1.5132711,0.3410799,-1.2502174,0.18131569,0.4237021,0.58824563,1.5542741,0.5830052,-0.38247335,-0.22797574,0.3687927,-0.43121147,-0.26402617,-1.2969464,-1.0526391,0.31764844,1.0751084,1.3990926,-0.45915538,-1.2251505,0.60485506,-0.15308031,0.43887854,-0.32460907,-0.38565856,-0.46448785,-0.18378153,-0.46896482,-0.21962011,-0.46098837,-0.49996287,0.3497411,0.2548523,0.08181805,-0.16418734,0.41475222,0.055006698,-0.44694376,0.04312373,0.2637856,-0.07300124,-0.14951557,-0.24162021,0.05466406,0.37707373,-0.5683072,0.109879,-0.5310315,-0.10379067,-0.14567013,0.18405004,-0.44486654,0.5308133,0.47981516,0.010935754,0.25515395,-0.5131878,-0.020161634,-0.08084309,0.4641339,0.102820665,0.43730113,0.42907864,0.0335213,0.11215414,0.21724626,0.4973306,-0.06276317,0.29741544,0.05267153,0.4405697,0.3326638,0.010238983,0.48369747,0.022209588,0.3258445,-0.65119195,0.13590425,0.45005637,0.3620796,0.0015248209,-0.18398228,0.120037064,-0.43079874,-0.5795243,-0.2642733,-0.5962977,-0.556518,-0.052764863,-0.54210955,-0.23295954,-0.5750133,-0.35524955,0.0007381961,0.6176492,-0.18489327,0.28078794,0.3889825,-0.41675887,-0.26397136,0.12142727,0.29970372,0.2547913,-0.4826529,-0.4172094,0.4293539,-0.06251855,0.16513067,0.60148233,-0.06817434,0.2984291,-0.33518842,0.5721258,0.41400915,0.05178364,0.24197213,-0.019760936,-0.6494285,-0.0549594,-0.45712784,-0.20528,-0.4927671,-0.33397657,0.045481063,-0.12378323
KMBC-2,-0.9282285,-1.6285449,-0.009032968,-0.36908206,0.6302202,1.3414803,1.7460635,0.31613296,0.25568974,0.093424685,0.47158194,-0.40410817,-0.12537056,-0.29779226,0.38168287,0.44645056,0.35556772,-1.5406296,0.10654412,0.002138367,-0.013155751,-0.7144835,-0.1752164,0.54365724,-0.8288879,1.19575,-0.76585484,-2.1021714,0.5667487,2.4374955,-0.4786302,0.9692743,0.63968533,-0.6643845,0.5420722,1.942015,-0.29878032,-0.79507303,-0.316118,0.31213674,-1.5528502,0.082006924,0.260914,0.6987579,0.60828567,0.65215456,-1.3319709,-1.0071245,-1.0086632,1.4925312,0.220331,0.8393298,0.92765605,1.247652,-0.25506002,1.2835066,2.0835435,-0.012108621,-0.54205096,0.1515343,0.5472496,-1.9066186,1.0311358,0.41609776,-0.4186019,1.0025398,-0.4943836,1.8869662,1.7466384,-0.8842839,1.0064505,-0.19600692,-0.6377921,0.18603021,0.016109884,0.06082288,-1.4274162,-0.3440744,-1.0909362,0.88040423,0.6621411,0.22841749,-1.3276716,-1.3777248,0.60728467,1.1480781,-0.040378895,-1.1735511,0.31405896,-2.0319414,0.59777606,-2.3692148,1.8620832,0.9052922,1.3916348,1.636584,3.0720649,-0.6631496,0.6734815,-0.12414329,0.6140427,0.54166234,-1.0022535,-1.1028157,-1.4620596,0.34759873,-0.13548866,0.58450246,-0.43090278,-0.2642025,-0.4553995,-0.034113087,-0.5258055,-0.2312761,-0.42444232,-0.50053996,0.28522637,0.018434182,0.1158217,-0.2578744,0.2943032,-0.09082608,-0.42006195,0.07158733,0.15348166,-0.010235883,-0.07548648,-0.37002185,0.0948721,0.42577866,-0.51865774,0.10221447,-0.34874925,-0.22636893,-0.09179224,0.3195334,-0.22604954,0.3165187,0.46480098,0.0386383,0.22246605,-0.537959,-0.09645603,-0.07458556,0.5115968,0.22500083,0.239102,0.4947823,-0.010492619,0.02023819,0.24325606,0.5503555,-0.08353682,0.3241079,0.1765396,0.5204672,0.5069318,0.25119707,0.29247046,0.03913844,0.5565897,-0.59349656,-0.02196706,0.42403442,0.42975864,-0.07492368,-0.17657426,0.3007177,-0.25631818,-0.76751834,-0.34917915,-0.40936708,-0.5643983,-0.29804775,-0.765288,-0.37476924,-0.5110725,-0.34871826,0.21284139,0.7124461,-0.17370139,0.45342958,0.32990447,-0.35296187,-0.030055732,0.018312365,0.32872283,0.27167025,-0.49996543,-0.34430814,0.58986676,-0.22550465,0.3084263,0.61219454,-0.14940134,0.110613674,-0.21041718,0.3739504,0.45132554,-0.094957635,0.26711807,0.12048218,-0.6055933,-0.005484268,-0.3193384,-0.19256312,-0.5625617,-0.34818822,0.07019454,-0.08070493
