,E0,E1,E2,E3,E4,E5,E6,E7,E8,E9,E10,E11,E12,E13,E14,E15,E16,E17,E18,E19,E20,E21,E22,E23,E24,E25,E26,E27,E28,E29,E30,E31,E32,E33,E34,E35,E36,E37,E38,E39,E40,E41,E42,E43,E44,E45,E46,E47,E48,E49,E50,E51,E52,E53,E54,E55,E56,E57,E58,E59,E60,E61,E62,E63,E64,E65,E66,E67,E68
HDQ-P1,2.2537565,-0.5517962,-2.5163417,-0.48651627,-2.0532162,-0.32795826,0.52161735,0.35062796,-0.32073677,-0.26533264,-1.5942365,2.1139138,0.50007147,-0.04684377,-1.2787914,-0.62693626,-0.0061123148,-0.5018203,0.023958271,0.04723928,1.8514171,0.12316521,-2.333315,-0.6798443,2.4860752,0.05803365,0.04225646,1.0212336,1.433869,-0.22079694,0.4961878,0.4223971,1.2880967,-0.23651853,-0.18847467,0.10948662,-0.49881953,2.0389879,2.513126,-0.7279047,-0.712256,-0.5339711,0.065278485,-0.6639987,-0.0039994307,0.40875095,0.6766775,0.23264542,0.3614245,-2.334504,-0.5247962,0.35114712,-0.15009233,3.0926747,-1.1731741,0.43943742,2.2193594,-0.53096837,0.6186712,-1.1552078,0.7766991,-2.60288,1.0046011,-0.7142459,-0.71999276,-2.7146676,-1.0195704,0.7976511,2.5326104
HPB-ALL,-1.1486762,-2.794195,0.48559007,-0.13535553,-0.10144424,0.82542026,1.2406319,-0.3012781,0.60837233,-0.9233518,0.10677567,0.17411456,-1.048921,-0.6194974,-2.2476828,-1.045503,1.2021868,0.998209,0.11945999,-1.080297,-0.5468603,-0.76722324,0.9612409,0.11153301,-0.8616797,-2.1068447,-1.0688474,-1.6131053,0.35664487,0.7138512,0.30959532,-0.6769251,-1.0568665,0.11122927,-0.40011033,0.51582754,0.2038854,-1.7331319,1.1950803,0.8495421,-1.9909749,-1.8820702,-1.1560119,0.70021915,-2.9486911,0.3332074,-2.739102,-0.004124388,1.8990884,-0.6993424,0.7463897,0.66765076,0.03685516,-1.0460536,0.259286,-0.698718,-2.1617322,-2.2631712,0.6800783,-0.05370708,0.5275203,-0.097251534,1.3972943,-1.2503734,0.28904155,-1.3527405,1.4045819,0.9514549,1.0558387
CADO-ES1,-1.4544744,0.17061158,0.050652407,-2.0371456,-0.55627364,1.8502413,-0.8799266,3.3289568,0.49514198,-0.535078,-0.621661,2.240463,-0.07668579,1.5477388,-0.9715067,0.74730265,-0.12714972,-0.8629724,-0.8744372,-1.9402282,-0.32558843,0.51732713,2.175153,-0.86250746,-1.6480576,-1.1222501,-0.025618985,-2.2543314,-1.1389326,-1.6532683,0.55374014,-0.02850305,1.3784562,-1.7187154,-0.48000687,-1.1234754,0.41235393,-1.834832,-0.8712306,-1.3050458,-0.5657874,-0.44784883,0.23333302,0.15902711,-3.6685302,-0.72147113,0.47785312,0.64985317,0.850963,-0.5987159,-0.12581894,0.17600147,-0.40664935,0.74863327,-1.529352,1.6747626,-3.0052688,-1.8928082,-1.4562213,1.5660443,-0.7316737,-0.38365275,-1.102387,-0.4341556,-0.97058827,1.220406,-1.0430201,-0.1629421,-0.36362082
SK-ES-1,-1.5187981,1.8996053,-1.0847019,-1.3564385,-0.56998706,0.22096863,0.35459936,1.1686662,0.93554515,-0.3894879,0.2674339,1.4606785,0.9845456,0.4279539,-0.4174699,0.3450364,-1.1661836,0.4312053,1.0833025,-1.1016997,0.030775858,0.05919911,2.3427339,0.08840122,-2.1990817,-2.33999,0.46364328,0.8469804,-0.10664797,-0.17416619,1.4373403,-0.8560069,-0.26165637,-0.040338613,-0.859777,-0.5602557,0.6016467,-1.0870879,0.62516093,-1.9608152,-0.39162052,-1.7430999,-0.6021225,-0.17872067,-3.8780923,-0.7571769,0.52899885,-0.3418364,-0.22234668,0.8058796,1.1552838,0.80314445,-0.0037190933,0.129824,-1.9400525,0.3420158,-2.7396286,-0.24240033,-1.4464688,-0.19124945,0.4303489,-1.0062639,-0.954359,-1.0752327,-0.90405244,-2.2739813,0.9786319,1.6414286,-0.5530592
ONS-76,-3.3150737,2.3937194,1.7704961,-2.1316035,0.39645302,-0.22337808,1.9399388,0.12104043,-2.0124435,0.36410737,1.7309059,-4.6344705,0.85679513,-2.1819284,-0.7076089,-0.0037338696,3.6225882,-1.4608302,0.5006149,-0.0025157677,-1.6281226,0.42428866,-0.67572564,1.4781098,-0.21732444,1.6141821,2.8971462,-0.0035764873,0.26454467,-1.2063621,-4.1718593,-1.1389203,-2.741769,0.41884488,-0.93675566,1.5150787,-3.7662466,1.021431,-4.6086,0.27748534,1.4237038,1.2428129,2.3489285,0.6290047,4.666065,-0.203242,-0.6990017,0.9493445,4.8150697,0.1647948,-2.7749383,3.4957724,3.922422,-5.4098597,1.4002151,-3.049019,-2.0561652,0.01830057,-0.30070582,-0.43247676,-2.713122,-1.4963217,-0.29962552,2.4462206,-2.7680547,0.25693488,2.7556696,-0.32434168,-1.1453797
OVK18,-1.3653201,2.2968748,0.2325648,-0.92686576,1.4529736,0.062207207,-1.9928721,-0.315086,-0.7761168,0.049564064,-0.10630141,-0.28981817,-1.5256379,0.13813068,-0.9942186,1.3512783,-2.5217607,0.11389399,-1.777049,2.7060468,-2.231823,1.2851841,0.22733301,-0.5600218,-0.49003673,0.6835806,0.38622403,-2.8853807,0.04813899,1.6895363,0.82144123,0.63796055,0.30697036,1.4179102,-1.2063601,-0.34769464,1.2863758,-0.8523687,1.2944663,0.61005676,-0.53695655,-1.8969445,-0.062476687,0.104192235,-1.2784691,-2.244121,-1.0933063,0.49222696,-0.031357072,0.29196477,2.9655488,-2.402286,2.751264,1.0042366,-2.2089643,-0.047969554,-3.4369419,-1.1678069,0.02203048,0.09013681,-0.70933473,0.2534532,-0.49461225,-1.5162789,0.5490339,0.53882384,1.3541226,2.3835413,-2.8530407
PCM6,-0.19255558,-1.8509094,0.43623883,-0.36664283,-1.6001058,-1.2570713,0.90838206,-1.2500793,-0.32165477,1.4153525,-2.723775,1.6314257,-1.3986671,2.9232194,-0.48371485,-0.15208009,0.5501777,1.3490508,0.86697716,-1.4073191,-2.977611,0.1194428,0.7184517,-0.8026471,1.6933978,-1.23864,-0.17012413,1.5150006,-0.5769812,2.1178734,0.41502154,-2.9117904,1.8194976,0.24678764,-1.45504,-1.1217473,0.19091499,1.7162018,-2.174841,1.4215591,-2.4079423,2.0189073,-1.0422846,-1.2555436,-1.0928843,1.7438787,-2.4609866,-1.4770459,-0.7098658,-0.9102243,0.64589804,-2.2192683,-1.2187227,-1.9235108,-0.29579362,-0.20726201,-0.9592527,-1.6331265,0.3881465,1.1031754,-2.3254135,0.083886325,-2.4298618,1.031155,-0.51724285,0.09068386,-0.271442,-1.833415,1.6048695
Toledo,2.8695254,-1.583466,0.20815107,0.85217744,-0.2419887,0.064510114,5.6370378,-0.5392351,0.74513566,1.0282146,2.1778927,-0.14236106,0.109517984,-0.101538,4.1393867,-2.2482562,-0.84582853,0.08081767,3.0244818,-0.35903165,0.96124685,-2.5781355,-0.72677654,3.3247411,-0.3975471,-0.78925395,-0.8636636,4.661463,-2.6485844,3.1127872,0.96306473,-0.42599577,-2.02529,-3.425231,1.855148,0.17187801,1.7961998,-1.5360616,0.16128613,-1.6453648,1.2237201,-1.0964382,-1.8579673,0.26117224,-3.00652,-1.469571,1.5306991,-1.7913339,-1.5786573,0.59048784,1.6228783,-0.5144514,1.0130842,-0.02173621,0.75360006,-0.8747173,1.8226837,0.043992713,1.0244862,1.4250456,1.4173837,1.2055327,4.4141846,1.5476964,4.30449,-1.374055,-4.274859,-0.501528,5.097079
SK-N-FI,-1.0986991,-0.017674847,2.2528508,0.06545021,0.2492149,0.901038,-0.9668446,-0.69138527,2.0023353,1.8961043,-0.61582583,-0.7162808,1.258414,0.21658847,1.5414466,-1.3169016,-0.06391447,-2.148186,1.915693,0.63189965,-1.8997452,1.2817861,3.4502783,0.06301915,-2.487233,1.4519523,1.8619341,-1.8282282,-0.97323126,0.7493511,1.9322637,0.63049585,0.7492081,-3.9799826,1.503896,0.076943,-1.688875,-1.7213509,-0.05246573,-0.83304954,-1.2940068,0.4471842,0.33032876,2.650571,-1.4286197,0.09895703,0.78491724,0.82915336,-0.63828754,2.0060675,-1.076803,-1.6830254,-0.42486998,-0.077974066,2.0433886,-1.3201578,-3.3589594,0.53956115,-1.175255,-0.28908914,0.21184132,0.083781034,-0.8918551,0.91783094,0.36229846,-1.2642777,1.6883519,0.66784936,0.19045576
BHT-101,-2.8305802,-2.4569774,0.21471366,-0.81956315,-0.59618354,-0.7424231,-0.757176,-1.8847759,0.19324616,0.55488515,-0.87865376,-0.015811332,-1.8307911,0.030469945,-1.1064513,0.5800554,1.1909889,1.901467,4.099271,-0.2665545,1.4662715,0.56027555,1.5540053,-2.5813894,1.3186274,-2.146182,-1.5782297,4.1731715,-1.012082,2.9047797,-1.0361717,0.7858369,-0.5907744,2.2018652,0.17847213,-0.17118952,-0.8180799,0.6439465,-0.62534106,-1.1848403,-2.1188328,-1.6233376,0.9549656,-0.87679636,-2.212494,1.6383704,-0.6754221,-0.12193411,-0.36013043,-0.74899757,0.09933865,-1.2993981,-3.4911292,1.3839031,0.49491772,-1.9346383,1.2820157,-0.2242888,0.75330305,-0.8637318,-1.2446957,0.34095812,-2.27154,0.70824087,-2.0373037,-2.3689997,0.5810619,0.42929924,1.4503423
LS123,2.524478,1.0786923,0.26955122,1.2595415,0.20886695,-0.40483117,0.41420925,-0.70715386,-0.726357,0.21318422,-0.8543443,0.33139938,1.0082065,-0.9887811,-0.5504257,-1.1466906,0.65624493,-0.7253363,-2.3333647,0.08791971,2.2024963,-2.610024,-0.7048011,-0.6701801,1.0293266,0.5445946,-2.3556209,-0.71820295,2.6967056,-2.409995,1.1236628,1.2814512,1.3113267,1.1715437,0.028660934,-0.3967983,1.7126968,-0.96156186,3.753322,-0.41690284,0.027316062,1.7931899,0.5211253,0.21948478,2.036261,-0.57904613,-0.8310059,1.3539708,-1.7005103,-0.9190901,0.05673017,1.7764583,-1.9971181,1.5722134,-1.6110044,0.0110889245,3.1333828,3.1767492,0.75266016,0.054182276,0.35088742,-1.5013556,1.4736586,-0.89027405,1.1065772,0.34191748,-1.8051445,1.4387183,0.7662448
BL-70,4.841574,-0.52510035,-1.9209776,1.8989553,1.6792977,-0.9782865,3.9033785,-1.4929873,-1.1843615,0.22341989,1.881578,-1.49196,1.6096499,0.25997308,1.7443956,-2.181702,-1.4342586,-1.1474922,0.36204547,0.21252637,-0.97813785,-0.63070416,1.6509192,-0.31615335,0.59293115,0.53924274,-0.47449788,1.0158397,2.6394618,1.2392337,-1.2106124,0.3849554,-1.6964924,-0.1863701,-0.0066148415,1.2180938,2.4871583,-0.7003907,-0.31380713,1.1925876,-0.08876393,-1.3162831,-0.4381849,4.175075,-0.85298246,-0.8137156,-0.63559496,-0.9129872,-1.3963895,0.5183218,-0.8355694,2.6115127,-0.5320638,-0.34230784,-0.5814393,1.6517934,0.14742513,2.759984,-1.3665221,1.0688937,2.6896443,1.3565319,2.7939107,2.2507424,3.5845983,-0.5012947,-0.7811608,1.5848762,3.1629002
HuP-T4,3.3314347,-1.95657,-0.58687955,-2.793394,0.45248184,1.3340997,0.29875857,0.6508161,0.33535382,-0.04328923,-0.18219227,0.387227,1.365866,0.16843294,-1.5665674,-0.39507583,2.0829415,0.28700832,2.2850764,1.3075509,-0.3413835,-0.5636823,-2.1473694,1.357908,3.1092594,0.0933056,1.1269814,2.534143,3.1841645,-0.5965237,-2.285308,1.3184528,2.3624792,0.023795728,0.96647096,0.2035621,-2.3185387,0.17752206,0.43467978,0.3198185,0.31103536,1.5553983,-2.3994985,-0.46880442,2.2429345,2.8022716,-0.46328205,0.3956983,1.4342766,-2.413776,-0.52153665,2.719043,0.5636017,1.2530577,1.2932236,0.073977895,2.038779,-0.7308056,-0.10920878,1.8187923,2.1640952,-0.8680679,-2.0646677,-2.220856,-2.1323493,-0.4902996,-0.07475175,-1.9773334,1.9638692
G-292 clone A141B1,-0.11275442,0.14524011,-0.67157525,-0.48116416,-2.2008855,1.1440947,-0.21404105,1.7249529,0.53833264,0.51882625,2.0037224,0.3901215,-1.3183001,-0.939652,-0.69648993,0.6127384,-1.5637864,0.116395324,1.617522,-1.4439889,-0.2194608,-1.0887117,3.1901414,0.76732564,-1.4238966,-1.4610412,0.27809915,0.14549053,-1.1028447,-0.17553765,0.36383086,-0.60489553,-0.8829934,-1.4180971,-0.20798758,-0.2543789,-1.4277657,0.40072483,-0.73367834,-2.1641626,-1.9392178,-3.1234317,-0.20246895,0.025604943,-0.7923414,0.8804911,-0.056866426,0.15683138,1.3950241,2.910739,1.2029955,-0.69563764,-0.6744945,0.88189054,-0.29935178,-0.9804129,-0.40781808,0.2623045,-0.6893123,0.5266569,1.0718064,0.4296391,-0.4505799,-2.3652253,-0.51430565,-1.4425222,0.094484195,1.0383708,1.2146578
Loucy,1.1640321,-3.5048904,0.8486407,-1.0809932,0.4899364,2.5678122,4.8203483,-1.5853035,2.2346165,-0.14371642,0.8515356,-0.96080875,0.5822429,-0.5903198,1.2655978,-0.91709185,2.3478036,0.07466785,1.2495854,-0.9546297,0.1728333,-1.5266689,0.17719492,2.6215465,-0.24863867,-0.43207973,-0.1084926,1.5992341,0.8804579,-1.2613966,-3.344364,-0.3321672,0.1811184,-0.78914773,-1.2271488,0.55725485,-0.08449157,-3.8534112,0.65385884,2.9748418,-1.5112308,-2.3849897,-1.7346826,1.4677615,1.0376259,1.2325683,0.753045,0.9970863,2.6491935,-3.6521242,1.0021051,1.9044389,0.6571902,-2.3657928,0.862993,-1.1626921,0.14962101,-1.0742052,1.2299759,0.11367001,-0.8103158,-0.1769113,2.4986162,-0.21598838,-1.5474002,0.86036414,0.75352764,-0.095319375,2.6479447
DU4475,-4.083285,4.7921634,2.6040013,0.07417267,2.8966928,-1.8981948,-1.7452352,-3.3733876,-1.2211916,-0.9052288,-2.500808,-3.8482065,0.51487046,-2.1259754,0.18548599,-1.6758473,0.8312352,-0.24970353,-3.801154,0.516949,2.148808,-2.314016,3.3734775,0.63027227,-2.5743825,4.1379128,-2.0601416,1.2505497,-0.09478176,0.88336056,-4.910824,0.776415,-0.74843925,0.72724843,-3.5974846,-0.9967047,2.7198925,-0.94601625,3.0802631,-1.2518605,0.4339955,1.9829743,1.4312912,-2.5386925,0.63747835,-1.8393302,1.1756374,0.5780874,-1.76408,1.5261782,0.2309317,0.74188805,2.4008029,-3.6542778,-1.3534421,-1.879125,-0.47250623,1.6739542,-1.7811955,-1.5653427,-3.3695118,-1.2642841,2.6701674,1.2460432,1.2409599,-0.71986866,1.2399789,2.0916734,-3.775196
NCI-H1048,0.5967517,0.20546463,-2.198307,-0.8097222,-0.51826805,0.9017548,0.44723696,0.47242928,-0.43744445,0.3444121,0.061868876,0.9531355,-0.07302646,-1.295255,1.0611886,-0.39179587,-0.5351277,-0.9407548,-0.44002637,2.0712585,0.4079436,0.7612987,2.0449557,0.049889863,-0.36394814,0.45550713,1.6844487,-2.3662965,2.342523,-0.34857377,3.2175696,-0.1778848,0.22929029,-0.44946986,-1.378889,0.06264564,-1.8969128,-1.5078423,2.5446565,0.47758567,-0.8128502,-1.8395516,0.9483033,0.48946434,0.62176126,-0.16739506,-1.8316132,2.6518722,-0.3574564,-0.16460131,1.4414072,1.8897376,-0.20970589,0.67036045,-0.3200909,1.9307319,-4.0522738,-0.55865926,-0.60642004,-0.78165895,0.13973013,-1.5210499,0.1316967,-2.376724,-0.60099626,0.6194773,0.73669124,0.41291624,-0.86622226
SHP-77,-1.7252369,-0.5161007,0.3825893,0.032876533,0.65450615,0.36007,-0.20031431,-0.06703798,-0.05040296,0.28137046,-1.3408077,0.52394146,0.7245833,0.15842272,0.39950407,0.50691605,1.3193381,-1.104746,0.9694403,1.1497551,0.37636283,1.676116,1.9732325,-0.30721334,0.3706842,0.2417461,0.41061896,-0.8597548,-1.5956105,2.0988188,0.51520354,0.3081541,0.28066826,0.36300522,0.83247066,0.50466394,0.40407395,-1.1160302,-0.112404026,0.365801,-0.8729026,0.10060942,1.671555,1.0439253,-2.4801779,-0.9507646,0.45308584,1.0956523,-1.1656042,0.26644996,-0.4754876,-1.3534709,-0.19703116,0.23380017,-0.80820656,2.0570219,-2.325928,0.57780564,-1.815323,-0.38499844,-0.18364552,1.6811606,-0.4426381,2.3269794,1.2084538,-0.16064231,-1.057337,-0.8010748,-0.42550814
5637,1.5115241,1.3745226,-1.0283695,2.3290396,-0.093962505,-2.643007,-1.5341265,-0.15661359,-0.6921812,-1.8432175,0.74262196,-1.0888848,0.5163171,-0.90465903,0.18548082,-2.0319402,1.8197862,-1.7800759,-1.7126368,-0.39658973,1.5233073,-0.67559016,1.4610313,0.8794869,-0.33188403,2.7113304,-2.1845617,0.3178437,1.875638,-0.12689215,-0.18457893,1.2507936,-1.224717,1.1468333,-0.3333885,0.57408255,0.35525337,4.37377,2.6295388,-0.726469,0.83728105,-0.39059222,1.8685318,-1.0118471,0.19349074,0.35903978,-0.36612514,-0.7739186,-0.9786185,0.5630203,-0.7868486,-1.0814546,-1.3702433,-0.49226862,-1.5451214,-0.06417906,1.6146773,1.2745692,-1.1830204,-1.5547932,-0.6542976,-1.2884707,0.1635157,-1.0852991,-1.1853484,-0.75380623,1.1496991,1.3351196,-0.026532546
BC-3C,0.027394868,-0.7726693,0.9556227,-0.43104088,-0.577375,0.54363155,-1.0972466,1.3990145,-0.146056,1.0114123,-0.15888807,0.14412819,-1.3139563,-2.1140893,-0.03754687,-0.73332244,0.9979136,-1.629541,-1.2130777,0.0666986,-0.4621996,0.67716336,0.4070546,-0.40916327,0.79719436,-0.43036315,-0.9140356,-0.6977123,-0.63215446,-0.89888436,-0.5833516,-0.19977471,-0.6441943,-2.2750225,1.2568284,-0.9654552,-0.52236986,1.9551833,-0.022581063,-1.0565593,0.62144786,0.07184762,1.6864885,0.72221947,-2.1058338,0.70443577,-2.7496805,1.499825,1.7008682,2.358456,-0.7294188,-0.10730378,-0.08108324,3.0533352,-1.2452196,-0.5256058,-0.7877124,-1.1360953,0.107387304,1.2851331,0.122090206,-1.1680281,-0.877389,0.52130115,-0.6515091,-1.0103278,0.99307287,1.9195285,1.1127837
SIG-M5,-1.4009031,-3.6528697,-0.8946121,1.3458813,0.5490743,-1.0193824,1.4429904,-0.054202378,2.46332,1.9858415,-0.48744425,2.267604,2.1906862,-0.21820422,0.8052653,-0.5101252,-2.310049,-0.16192085,-0.4165404,-0.50013685,0.116237134,-1.0739379,1.5263311,-0.31804675,0.28985322,-2.8962963,0.67993975,-0.15960413,-0.9655001,0.36671656,1.6897196,-1.0427392,-0.5594509,-2.2095418,0.744153,1.885251,2.345734,1.9231335,0.31873462,-0.9563161,0.32087195,0.2150071,0.7622094,-0.028103441,-1.724693,2.0723848,-1.024697,-0.1367029,-1.4010483,0.11046231,-0.3415646,-1.0033379,-1.9512675,-2.004159,-1.2348777,-0.043995578,-0.69782877,-0.34353778,0.7880471,-1.2279143,-0.6115664,-1.6373246,-2.1044166,-0.683814,-1.1409885,-0.42037773,-0.101633936,-0.3887343,0.6392241
SNU-1105,-0.24344574,0.6694544,0.028633816,0.8040976,-3.1152682,-0.35432696,-0.7078767,0.9554337,-0.5725306,0.676681,-0.7153801,-0.16363883,-1.4425929,-1.6609155,-0.51323754,-0.24553168,-0.11672079,-0.114393525,0.32502234,0.7394189,0.7324441,0.96901035,1.0298401,0.71269083,0.7914686,-1.1694219,0.6906646,-1.3651707,-0.97584677,0.29772502,0.86493975,-0.9126489,-0.8689607,0.22353163,-0.21688104,0.09611898,-0.59080714,0.6697307,-1.7917578,0.574839,-3.1398435,-1.871418,-0.34601668,-0.1099342,-0.21131676,1.350649,0.75699985,0.2627832,0.97977114,0.91455036,-0.1444129,-1.86474,-0.17173755,0.4453687,-0.9416644,-0.49987924,0.25091964,1.6056368,0.2922799,0.16804096,0.94318616,1.430145,-0.69344854,0.000693962,0.9571491,-1.2595866,0.33614615,1.0441947,0.6171332
NCI-H1573,-1.7339715,1.2705733,2.4242232,3.5029752,2.2682467,-0.10310683,-0.04036188,-0.36381498,0.4717139,-0.11868554,1.1498715,-1.9042058,0.77011454,-0.78832066,1.134058,1.8964379,1.5253371,0.124125905,-0.14411967,-0.31852722,-1.858712,3.157247,-1.3772055,2.713953,1.9133967,2.7683594,-0.056280684,-0.6336333,-2.5194902,1.461795,-0.45340517,-0.5538644,-0.7934699,-0.117068045,2.9800005,0.06165418,0.68727034,-1.8479395,0.059938576,1.2042377,3.928027,4.0925026,-0.65303534,-1.4677976,2.242047,-0.90051657,-0.27526116,-3.3426714,0.88914406,2.6712708,2.5630827,-0.990482,1.859312,0.147173,1.8087872,0.44385415,-0.25788245,-3.1315262,-1.4056735,1.5482407,0.46563458,2.3579788,0.11014439,1.4071084,2.4386148,2.4815059,0.7717102,0.082514614,-2.6587188
NCI-H1793,1.0728519,1.7836068,2.9552324,0.621338,-0.054859184,-1.9040359,-0.4394082,0.23063792,0.5006082,-1.2357999,-0.80785143,-0.3241795,-1.5147619,-2.0169523,-0.41068897,0.9873078,1.9772846,0.34378278,0.41307098,0.45227236,0.26618063,0.82981044,-3.1775405,-0.14206684,-1.307278,0.70525706,-1.556295,0.33625513,-0.032901406,-0.80618244,-1.8131442,-0.17559308,1.5844547,-0.08988337,2.3966608,1.0474551,-0.47869104,-1.4987981,-0.13832432,2.1939054,0.33686516,-0.12936191,-0.953318,1.6249108,1.5325449,-1.1503545,2.0328014,-0.18947892,-0.23751208,0.024064586,-1.8922724,0.33112937,2.1256104,1.8623356,-1.4278029,-1.1190062,1.7091675,3.0420487,0.83744466,1.1632587,1.5840324,0.6200323,2.3494434,2.9913363,1.0885549,0.89368486,-0.36326194,-1.1838673,-0.35573122
KLM-1,-0.3101334,1.3452451,-0.9774927,1.3945736,1.5286738,-0.8050035,-2.435225,2.4920487,-0.6611228,-1.6828284,2.0648208,0.1575439,1.6379325,-1.4512918,-0.8929176,0.6294975,2.1848164,0.22287357,-0.05989565,-0.53050137,-0.7612164,-0.18985364,-1.2110397,0.9673519,1.7514132,-1.8877211,-1.2009159,0.07545435,0.64592576,-0.89280796,0.29265863,0.67447984,-1.5876081,1.4721749,2.7769713,1.6644526,0.2267182,-0.060367588,-0.0029892414,-1.1229345,2.1835067,3.2132878,0.6104691,0.119039305,-1.5638158,-0.21080717,-1.5837399,-1.6174467,-0.51017934,0.2429916,0.83637756,0.3802326,-0.13172637,-0.62388045,-0.8000511,1.8989295,0.17388934,-0.36456037,-0.48316082,2.6097717,1.8050042,-0.88811105,-1.016521,0.3665778,-1.2229007,1.5791084,1.3376927,1.2090272,0.021858932
A-549,0.32906997,-0.6111503,1.4934242,-0.61072725,0.9161875,-0.12096056,0.07662035,1.0926,1.4639311,1.4883741,-0.35250238,-0.0003957972,0.99585885,0.04822172,-0.47174957,0.5796939,-1.503526,0.262912,0.9809271,-0.3406628,0.66841596,0.80573195,-1.5975478,-0.70804256,0.28447986,1.1484587,0.9730089,0.06773578,-2.2645702,-0.8703049,-0.9310984,-0.8546186,0.5287402,-2.2575285,0.35657373,-0.114206016,0.61163586,2.3422463,-0.3304635,-0.4486526,1.5607773,-0.76759243,-0.9559692,-1.0658317,0.7884396,-0.5592407,3.5365012,-0.1768769,-0.33112746,1.77405,-1.9337178,-0.14962265,1.7259989,2.1927373,-0.66285986,-0.22025265,3.0016847,0.5726668,0.19614425,-0.24069779,1.6444092,0.8298304,1.2841927,1.6531655,2.6156592,-1.5365046,-1.3397235,-0.7224404,0.6141996
NMC-G1,0.14290182,0.87925905,-0.20112754,0.2584142,-1.757422,0.2350902,0.124571905,1.2590389,-1.2612629,-0.7553539,-0.9094227,-1.2527919,-0.6254705,-2.4130716,0.88585126,-1.0464026,3.3615987,-0.56893945,3.194025,1.2040911,1.9739377,-1.391069,2.2410936,-0.4152969,-1.4074993,-1.20721,0.17613712,2.3486652,0.48793352,2.2899864,1.7313045,0.26592723,0.15100665,1.1175286,1.0353628,0.66161853,-3.3321307,-0.059210233,-1.4958194,-2.1610582,-3.0821984,-0.4579512,1.2276586,0.27334395,0.08285838,1.7470499,-1.4570816,-0.6229195,-0.62620026,0.21508001,-2.1086214,-0.9918137,-1.5379503,0.90813565,0.54136515,-1.9106784,1.1667842,2.6484115,0.80694383,0.95323586,1.0150111,-1.0388573,-1.1392,0.0069014747,-1.5415493,-1.1816033,-0.039514363,0.3281198,2.5426433
F5,-0.6149285,-0.1167807,1.1232446,0.30644673,0.13240363,1.0520978,-1.6737554,0.65619576,0.14218314,1.3543018,1.7914737,0.6322815,-0.898227,-0.4525417,-0.1946316,0.9990638,-1.705006,-0.36150673,-0.79019594,0.25569603,-1.3654479,0.49115565,1.334737,-0.5809797,-0.41596755,-0.4049305,-0.36303455,-2.4597938,-0.40151268,-0.42657423,1.0258151,0.91415906,-0.42034963,-0.21149823,0.0090351105,-0.7187443,0.91853756,-0.4443285,0.2356776,-0.9939332,-1.2020969,-1.9036603,-0.30219203,0.72587174,-0.9195181,-0.38749608,0.3820046,0.89315283,-0.3909109,0.60346097,0.8187196,-1.4210888,-0.48024386,0.7597396,-0.9202617,0.050614968,-1.6016619,-0.3911131,0.4664377,1.1420681,-0.48308015,1.0317588,-1.2778094,-1.0681405,0.040401343,-0.08671521,0.7148248,1.6677971,-0.22618803
VM-CUB-1,0.18898408,0.040551655,-0.66918314,1.3116164,-0.28520703,-0.7337248,-1.4758224,-1.0188698,0.39181662,-0.13203529,0.8172935,-0.5386848,-0.4611831,-0.4338356,0.19426893,-1.1528399,2.1658237,-0.8683385,-1.52568,-1.2972845,-0.10996728,0.43558317,-1.5463907,1.4795879,0.5796064,1.3850756,-2.2539084,0.41285664,0.06618736,-1.087496,-1.4683297,1.8811389,-0.19819936,-1.0325922,1.9416096,-0.5327651,0.3002375,2.1324525,1.2538929,-1.4390191,1.9713645,1.6415461,1.3315734,0.927998,-1.9762008,0.34666556,-0.7870304,0.30089864,1.584586,0.729247,-0.40506077,0.15680638,-0.93704677,0.85564655,0.86787444,-0.89299506,0.50335497,-1.6685034,-0.41983008,1.0130639,-1.1772507,-1.2485088,-1.2015771,0.078669414,-1.9716922,-1.8389336,0.7864799,-0.71905786,0.26836795
ES-2,-0.2105634,-0.76258636,3.612477,-0.2603368,0.8175685,2.8757536,0.20952937,-3.0429971,1.971345,-2.2719069,0.1489307,-3.2579796,-1.5703104,-0.015123937,0.44543928,-0.642737,1.4696178,1.8066308,-0.7067491,-0.28495267,1.1478065,-1.9632783,3.1275399,0.6200098,-3.494834,0.49885687,1.3620158,2.3887436,-0.8548214,-1.8373369,-1.6218705,-1.6470892,-1.251562,1.4598984,-1.1717134,-1.1222552,-1.1883032,0.059465043,-1.8257346,0.26008847,0.8654622,1.677112,-0.9018592,-0.97673583,1.7151376,1.8266728,0.20042236,-1.3465738,0.27799925,1.6751794,0.13037613,1.708715,-1.9077944,-3.2512887,2.8172808,-2.1389444,2.2127936,1.6993189,-0.8943829,-2.383899,0.3951907,3.3353422,-2.000657,-0.10134661,-2.2104402,0.56641144,1.4431583,0.01559642,-2.5219984
BCP-1,0.8990382,0.24692357,0.20211178,-1.8875989,0.21653625,-0.020288654,-0.1810404,0.7754684,-0.4135397,-0.1754913,-1.555823,0.78621477,0.034216944,0.74639034,-0.89892405,0.91079247,-1.1933106,0.5987065,1.3168167,-0.38308722,-1.9075258,-1.7736058,0.7779562,-1.1917975,-1.1363264,-2.8408902,-0.8832975,1.4441912,-0.18489394,2.84374,-0.46646583,0.15918642,0.702506,-2.0991135,-0.8448473,-1.0356581,0.36024928,-1.4033124,-0.5637803,-2.0021677,-2.178757,1.1191149,-1.6879674,1.6879233,-3.2832077,0.11098404,-2.8524077,-1.4653188,-1.7662997,1.9337747,1.1175696,0.16589515,-0.56276137,0.01369131,0.55790603,-0.81179404,-0.36417916,0.07824219,-0.25458497,1.3288945,2.2499785,-0.4518518,-0.64233017,0.43364036,0.32878536,-2.0952373,-0.88293386,0.2836842,1.0296763
ECC10,-1.1239376,-0.1734728,-1.4211024,-0.2217906,0.67305833,0.7611066,-0.8389253,2.4123003,-1.2976981,-1.1779649,1.3337814,1.1615597,-1.1745081,0.15464649,-0.26952642,0.9881358,-0.16043425,-1.2926745,-1.1653764,-0.7268603,0.92886907,-1.127092,-0.19080652,-1.8179206,-1.0568583,0.80437046,-1.3259614,-3.3945017,-0.0383583,1.3286451,1.429955,1.7469729,0.67862964,-0.19600797,0.82288367,0.6676332,-1.2130061,-1.0714104,2.5256643,-1.1401167,-0.6388319,-1.8634168,3.1613123,1.8170592,-1.3721633,-2.8626127,-0.079152696,2.3655171,-0.73094994,-1.1074437,-0.54714435,-0.8091297,0.5688904,-0.34872082,-1.23444,2.3425145,-1.5244102,-1.8915797,0.537758,-0.48479137,-1.3016728,-1.0466647,2.8175466,0.022555072,0.06267162,2.4722624,-3.184684,-1.0555058,0.5568271
SW780,5.2204323,1.7111667,-0.5849814,-0.570081,0.6659668,-2.3891044,1.7948548,-0.51701957,0.73344463,-0.31604543,0.5861991,-1.2795522,1.0458251,-0.74983364,-0.81579596,-0.8395694,1.0527165,-4.4920964,-1.9142183,2.0545304,0.057657197,0.715043,-3.8248746,1.3200678,2.1260648,1.7124097,-2.2272403,1.1234584,2.437078,-2.7317648,-2.6398668,1.1305418,0.5215223,-1.6679615,0.22113203,0.06555298,1.2928594,-0.35685933,1.1658576,2.9361036,2.0207133,0.08037485,1.4122684,4.132981,2.7070944,-1.6716051,1.7981488,-0.6792756,0.75075674,-0.06489144,-0.7935343,4.0884466,1.956453,0.020486653,-1.8739249,2.0721521,0.493161,2.9119642,0.15988338,-2.7084086,1.5564883,-2.8757215,3.1232545,2.118536,1.2534311,0.59757614,-1.8149285,0.31988,-0.06530805
Hs 934.T,2.7026863,1.1627669,2.5535307,-0.2932119,-4.1855187,3.4303012,0.8932851,2.9113207,0.30634978,4.121106,-1.5672294,-0.8078511,1.7834957,3.151706,-0.12288835,-1.188333,-0.79520035,-3.2790492,-1.9420475,1.6105311,2.5311759,3.884277,-0.14439979,1.7870047,-1.258992,1.959172,3.7272007,-2.0363958,2.2390435,-3.370543,-1.2483218,-4.1376934,3.6467474,-0.66273797,-2.472738,-4.510109,1.8252044,0.5638603,-3.9428506,2.8136024,-1.4284021,-1.7978741,-5.1869683,-0.1436376,5.362011,3.2411368,0.41095558,-0.421765,3.2954664,1.2483681,-3.8803544,1.8261752,2.0162647,2.0477967,-0.16515665,-2.5874414,-0.7669213,-0.60281205,-2.0199244,0.68748915,0.94982725,1.2917677,-2.7317646,-2.1780055,1.1219784,-3.253157,0.46897155,2.2869666,-5.0978446
CAL-51,-0.60574436,-0.2973396,-0.110129125,0.6906436,-0.26876026,0.099940956,-0.6073811,0.67632514,2.5814414,1.0794497,1.0253211,1.2609742,-0.20740545,0.71300435,0.8324799,-0.5843691,-1.915514,1.320809,2.293736,2.0044746,2.759351,1.813744,-1.0187747,-1.2430242,-0.16774668,-0.95837903,2.766001,0.2831191,2.793988,-1.1385038,2.1205027,-1.3001499,-0.052852795,0.25142026,1.2286057,-0.13432078,-0.291675,-1.6204337,1.0887603,1.7892921,1.5353982,-2.263754,-3.2300894,-1.0637546,-0.3921191,0.7658147,2.9115582,1.7794034,-1.6017774,-0.2007564,-0.055068914,2.5718722,2.029031,1.0556145,0.2636707,-0.4363223,-0.49175844,-0.25675097,0.20799862,0.37266698,1.3972181,0.72978204,0.5042669,-1.7742553,0.7989776,0.46574107,1.7113838,0.20548758,-2.5631435
SNU-216,3.3456886,-1.0286858,-1.3333151,1.604467,1.1058366,-0.6817852,0.30356848,-0.08429165,-0.2735929,-0.5424335,2.2485235,1.5442501,0.009312645,-0.20773092,0.49409565,0.09925863,1.3125937,-1.6662028,1.4792814,2.9602518,-0.56198734,2.638724,-0.3840138,-0.8613363,3.054288,0.46621367,1.2920909,0.1389958,4.09865,-0.7413828,1.1964031,-1.0184753,0.44939616,1.6236637,0.8161681,1.811384,-1.6884636,0.036670864,1.3028986,1.3250724,0.92266405,-0.9790611,-0.5413742,-0.45600972,3.379458,0.70627856,-2.5796611,0.7784842,0.68137765,-3.0479796,0.959407,1.0706991,-1.5847017,1.0792837,-0.37284872,-0.13515149,-1.085771,-1.1416488,-0.08198026,-0.29952654,-0.5868253,0.004757799,-2.9294047,-2.122645,-3.30058,3.3132582,1.63337,0.5322948,-1.690425
KM12,-1.9815279,-2.462234,0.33584553,-0.12272746,1.4391116,0.49499017,-1.0444021,-0.81858754,-0.08625746,1.2305043,0.11745262,0.25548986,-0.66643375,-0.038893178,-0.810455,0.7615235,0.80315137,-1.2142591,1.3184881,1.0565736,-0.46005663,0.62859,1.1363493,-1.698595,0.18525566,0.5080763,-1.5838159,-0.906685,0.9366263,0.19607499,-0.13782904,1.2196113,0.17554863,-0.43967295,2.8293588,-1.087242,-1.0179794,-0.31493533,1.6071671,-1.4843497,0.77722335,0.42063192,0.23416387,0.9112771,-0.1287402,-0.048873276,-3.3690672,1.8192387,-2.0039337,1.2853754,-0.6881309,0.70056915,-0.08242494,0.61863583,0.43729597,0.53436357,-1.4328194,-2.9646327,0.20457603,-1.0061326,-2.0429964,-0.21710096,-0.08638698,-0.2429738,-0.45866764,1.3883455,-0.022405505,-1.8976731,-0.18099827
PLC/PRF/5,-1.4443953,-2.7306702,0.6178893,-0.15733998,1.1297437,1.4156345,0.24748756,-0.2817767,0.49113476,1.0211573,0.6476612,2.2421854,0.04938119,1.9716027,-0.6855205,1.4214739,-1.2092457,1.0287209,0.9866837,-0.10948117,0.3350134,1.6629361,0.12430048,-1.5553067,1.6654531,0.8991104,2.3661013,-0.37393472,-1.1787179,0.3838919,-1.2028712,-0.5516424,0.97707033,1.4184909,0.81534684,-0.553432,-0.08387801,0.69739115,-1.6965396,1.1174319,2.4914856,-0.53654647,-2.1240454,-3.3585546,1.0504066,-0.5298131,2.1440067,0.6440412,0.14166158,-1.1434221,-0.8967641,-0.65936863,1.5879246,1.7634511,0.43697122,-0.99148405,0.50662273,-1.6068969,0.22717914,1.3758396,-0.71002823,3.6091862,-1.2582555,-0.40936786,1.387033,1.5455413,-0.0662171,-1.5822661,-1.2218016
NCI-H716,-2.6567624,-1.8475438,2.6930916,-0.62303936,0.1304609,0.6678162,-0.7006769,0.6827507,-0.5353856,1.0822387,-2.4795287,0.48989093,-1.2361743,1.1568599,-1.6400411,1.1752325,-0.06398231,-0.91839224,1.9740472,0.35305813,0.17237413,1.2133092,2.2122433,-3.2463105,-0.48638764,0.35686022,0.40467122,-1.1641808,-2.2038138,2.736689,-0.20778564,-0.37427056,0.8191539,-0.4156758,1.527746,-0.62248266,-0.37651747,-0.4958724,-1.1116644,-0.58890164,-0.77669126,0.09386916,0.21365178,0.28503755,-1.926001,0.0487303,-1.857708,0.83747286,-1.0798236,1.9330194,-1.3815631,-2.1932297,0.73007107,1.7649494,-0.48554304,-0.4716925,-1.1492612,-1.1311839,-1.5068147,-0.6706177,-0.3939978,1.9358053,-0.21937609,2.149957,2.0622518,0.51586217,-1.1248416,-1.2800871,-0.5380828
NCI-H661,-1.0535979,1.6113875,1.1294158,0.7109289,-0.1362052,0.38965762,1.0780872,1.5111904,-0.7704975,-0.7800544,2.2873042,0.06319487,-0.37937427,-0.945669,0.9652838,2.1901991,-0.9473786,2.3589263,2.5366466,-1.7932558,-1.8051721,0.4538611,-0.1662018,-0.3922159,-3.1795158,-1.5918207,0.70106363,-0.57245713,0.1286701,0.60680246,2.4591599,-0.47891682,-0.8869485,0.31931645,1.1361918,1.9527831,-1.8081197,-1.5199378,-0.49921846,-1.2761523,0.81684065,-0.49922162,0.14828223,0.4532575,1.0066011,-1.005505,-0.232477,-1.3208975,0.40404382,-0.21121317,1.601708,0.7670542,-1.3779297,-0.56509995,1.3202215,-2.0799365,-1.1190472,0.2928624,0.6139155,0.5490146,0.3665532,1.1713895,-0.25626338,-0.10930658,-0.86657107,0.67144513,1.4349486,-1.034446,-0.6333245
SNU-1079,-0.5007562,1.0190148,-2.0031266,-0.93662494,2.682221,-1.7895972,-0.04155185,2.7504787,-0.06833382,0.013566839,-0.77928996,-1.6787966,1.0382631,0.48495653,1.921179,2.1180444,-1.6706194,2.702955,0.71207076,-1.6030164,0.18565306,-1.4421647,-3.0503323,-1.2202077,-0.5749973,-0.0095305545,-1.0080179,-1.2260127,-2.4305446,1.7652135,-0.7004418,1.9480846,-0.7557902,-0.5788915,-4.035167,0.9681097,0.3626758,1.1510146,0.7414205,0.263102,-0.9421217,-0.63438344,3.3613632,-2.3028698,1.6590059,-2.1765428,1.8482164,-0.736667,-0.7436955,0.24056342,0.38468572,-0.9722427,-0.22077453,0.10191964,2.4882348,-0.7614054,3.4016235,2.03415,3.1109338,-0.80305874,0.70556724,0.27252966,2.78836,0.57016003,2.6782556,-0.3362377,-1.5189394,0.53719604,-0.6210437
Hs 343.T,0.3339898,1.0957088,0.97790384,2.0288153,-3.621537,0.21995883,-0.9924573,2.826762,-2.0127702,1.2348963,0.6342433,-0.22401632,-1.3267145,-0.20949012,-0.85844564,0.73497784,-0.6831304,-0.22640379,0.16169144,-1.4188197,-0.4856664,2.2571824,0.2225332,-0.040225312,-1.3898761,-1.0030551,-1.8085636,-2.7336576,0.0842562,-0.23681697,1.5829874,-1.050995,-0.46893424,0.4545106,0.25266722,-0.6456364,0.9554553,0.2866617,-2.500614,1.0180948,-2.2342474,-1.5357895,0.02606305,1.3681465,1.1406397,0.67939985,-1.6321715,-1.4798945,1.8395514,0.7907314,-0.19056483,-0.9697769,-2.6916547,0.8089284,0.26098865,-1.6926645,-0.7969082,1.4567991,0.104165405,0.33571,0.4471491,1.6027026,-0.10618217,0.07026732,-0.2616181,-0.26595807,-0.16461957,0.6423706,-1.2790854
MDA-PCa-2b,-0.42471296,1.5130043,-0.51227814,-2.0319564,-0.27580956,-0.4756771,-2.1788146,-0.24353498,-2.1012952,-0.3108095,-2.016263,0.6257942,-1.8008809,0.80104756,-0.8481814,1.3802247,0.8647501,0.5206764,0.48755476,1.5536324,-2.2701235,1.8567795,-0.89082944,-0.29457483,0.9749043,-0.12883633,0.7902603,-0.9838082,1.2612563,0.9899246,0.35592037,1.5895908,1.4153627,0.16903354,0.84143203,-0.75582033,-0.83894753,-1.5174115,0.77490515,-0.77391994,-1.406053,1.2081757,-2.0104165,-0.6171847,-0.8034593,-0.43032473,-1.368122,0.108054444,-1.4421667,-1.0433509,1.1409007,-0.5780109,2.9699,0.9217327,-0.90947163,2.5685363,-3.4155521,-3.1187878,-0.37160227,1.4054238,-1.2590492,0.0063777864,-1.2447491,-0.24307562,0.41105977,0.5375264,0.8390908,-1.4292506,-0.07596795
OVCAR-8,2.2236238,-2.7585852,1.9682672,0.22940171,-0.029867437,5.0790834,1.5888907,-0.061059806,1.0508492,-0.7083162,2.3360884,1.3813546,-1.4136511,0.028479427,0.80025315,0.006326787,-0.6670804,1.3014233,-3.7923212,-0.36701053,1.9036511,-2.1125383,0.10031151,0.41029084,-1.1045833,0.57815653,0.77449965,-3.8906577,0.98909163,-1.835437,2.6289306,-0.48287213,2.0964978,0.5202612,-0.28165594,-1.9983895,-2.075555,-2.1548357,2.23947,1.9887736,0.55341953,0.010799583,0.69892997,-1.4374785,1.0948328,1.2336037,0.11298814,1.9116926,1.5310142,-1.8688638,1.8432184,-0.46169478,-2.3535156,1.7968934,1.280358,-0.5748271,1.7331254,-1.532791,2.168641,0.75913274,0.3747427,2.1688724,-0.7211204,-2.951733,-0.6456698,2.8110409,-1.4834924,1.0822544,-1.2044182
Hep-G2,-2.9544256,-3.0683668,-1.470199,-0.78013295,1.4751204,0.38765278,0.67073613,-0.6152453,-0.9932653,0.42498845,3.2099836,1.8298603,-0.6925479,1.5345521,-1.991076,2.6920705,-3.2910764,0.6218289,-0.505145,-0.60178727,-4.1450186,-0.9157591,-1.252524,-1.9589655,1.8857304,0.24907015,0.5171184,-3.3109171,-1.5604291,-0.8781851,-0.3684962,2.82941,-1.5758195,1.2301986,1.9883223,1.1673585,-1.2968205,-0.054980814,-3.2848556,0.8253728,1.7919261,0.08209234,1.1748618,0.89689785,1.9238477,-2.9073625,0.37453282,2.5534945,-0.54202366,-0.4245937,-0.66211617,-1.8525614,2.4933894,-1.1469717,1.7919607,-0.41126028,-1.9544601,0.04580097,2.7930932,0.6485879,-2.2235901,2.8743558,1.0959846,0.03189168,0.47046074,3.7958446,0.5726751,-2.0294576,1.594261
Hs 281.T,-0.74604857,0.39672402,-0.22470087,1.8226907,-3.5249627,-0.23557352,-1.5135075,1.2003319,-0.5209512,0.8426512,0.62341183,0.06685041,-1.8985037,0.28562844,-1.8874649,-0.24607909,-1.6909975,0.6111508,0.44527894,-1.3290535,-0.19181973,1.3276963,0.4593362,0.20361364,-0.94002706,-1.3118904,-1.5134053,-1.347173,-0.29946297,-0.9794676,1.466302,-1.8143301,0.17855792,0.879298,0.7897547,-0.43513396,0.2150565,0.71385384,-2.863669,0.42189306,-2.0789242,-2.1784406,-0.7589531,0.35808522,0.28601682,1.6423055,-0.020054674,-1.319473,1.1874967,1.3668349,-0.7134744,-1.6221849,-1.3121854,0.60245883,-0.18951885,-1.1411387,0.765309,0.67729527,0.7296195,0.909093,0.04381335,1.2038128,-0.8474535,-1.1174475,-0.3653034,-1.2080376,0.15477566,0.33164287,-0.48388696
NCI-H524,0.04824589,-1.116581,0.6517207,-1.769133,0.09938534,1.0670955,0.4904595,1.8456439,1.0357933,-0.60116506,0.40616608,0.8110392,-0.7743285,1.0595982,1.2282152,-0.48191607,1.092587,-0.5296431,0.6814236,0.02519479,-0.5490641,1.1863238,2.1817682,0.49793565,-2.6141362,0.5823395,0.46947932,-2.0045562,0.44129318,0.07702342,0.47246134,-0.14808102,0.3893518,-1.9408908,0.29233244,0.23085186,-2.063675,-1.327327,0.53060406,0.5256328,-0.37311953,-0.81471545,1.6974692,1.1162776,-2.6860476,-1.1199967,0.196392,1.318773,-0.20564635,0.28528225,-0.9210914,0.37421632,0.80857944,-0.31731793,0.27953592,1.9389515,-3.1527395,-1.3993595,-0.9636005,-0.13704419,-0.16043726,1.1923484,0.81459373,-0.13042067,-0.07585562,0.6638431,-0.030794352,-0.9982024,-1.1825382
A3/Kawakami,-0.7396594,0.59620196,0.03736564,-0.41331467,0.78736603,-0.8891349,-0.29237825,-0.45369565,-0.18668723,0.6227145,-0.57591105,0.53884447,-0.24816903,1.0916004,-2.3210604,0.3570429,-1.3848124,-0.3806657,-1.1065961,0.23435876,-2.4785533,-0.47216374,1.6252071,-0.5458095,-0.7572162,0.10861769,-1.2109672,-1.0755577,0.5095949,1.2131597,-0.65253866,-2.0182161,1.0256567,0.18905379,-1.040896,-1.6368227,-0.06678909,0.40677744,-0.6380433,0.32801044,-0.05868247,0.3509173,-0.4781246,0.6324982,-1.297618,-0.18782735,-2.2859874,-1.0630814,-0.6783759,2.53627,0.6713083,-0.40512574,1.5609283,-0.7029211,-1.4591212,0.11959816,-2.4438388,-1.2083737,-0.301525,0.033960488,-0.9707023,-0.51150364,0.19465224,0.05604069,0.9228121,-0.9147338,0.7767218,-0.0564111,-1.248702
Karpas-299,-0.07438927,-2.5464,0.83713937,1.0702043,0.6647715,1.3146813,0.5724087,-0.35834152,1.8128482,-0.58915114,-0.086424775,2.103716,1.095681,-1.2222618,-0.38162535,0.7481734,-0.8507879,0.025586247,-1.2379541,0.33394516,-1.7561759,-1.0491275,1.0433822,1.1957836,0.5819114,-0.20779213,-2.0987601,-0.7570688,-3.1805713,1.4484649,-0.5772689,-1.3647989,0.90042394,-0.43458322,-1.7087803,-0.8672529,0.3169669,-0.3911859,-1.0160564,1.3768753,-1.0806272,1.7423866,0.7548286,0.17817259,-0.67411584,0.8416103,-1.0457783,-2.0239165,0.40762806,0.45456243,3.506046,-1.5991586,-4.7162714,-0.42615527,0.7776564,-1.7555542,-1.8506033,-0.84261084,0.8099814,-0.68105257,-0.20183772,-0.03265233,-1.807318,-0.051606268,-2.1614928,1.427581,-0.8874758,-0.73284245,-0.955276
KP-N-RT-BM-1,-0.36194375,-0.50082713,0.79262376,-0.12316768,-0.20357789,2.4105933,-1.3343153,0.8200845,1.2818824,-0.14228839,0.6476548,0.820241,0.8949518,0.2431421,0.41675732,-1.7031121,-0.74074066,-1.352599,0.8317934,-0.3411611,-0.2219215,0.29112813,3.5704973,-0.5184711,-2.5170426,2.1135676,1.0437585,-3.1495888,-0.35927564,0.6598351,1.0315633,0.23255421,1.3694383,-2.762022,0.09817731,0.44700402,-2.418544,-2.4533308,0.60427165,0.1900523,-2.175508,-0.7319836,1.2277465,2.3271723,-1.6940482,-0.17933694,1.0754554,1.64752,0.7517726,0.4665621,-1.5983858,-1.4142994,-1.3368418,0.43171486,1.8176395,-0.7915706,-3.5543435,-0.49040708,-1.2673787,0.15286513,0.40420198,-0.2262835,0.66519135,-0.33815295,-0.18600483,1.2107953,0.34241682,0.34274524,-0.23677643
23132/87,-1.3231875,-1.4958943,0.020416565,-0.56927633,1.3661536,-0.10216445,-2.3932436,-0.775384,-0.5780944,0.64164937,-1.7835914,1.1555043,-1.9212517,1.2709064,-1.0967693,1.6010543,-0.054019134,0.035651773,0.9338694,0.3618996,-1.2292157,1.5429938,-1.658305,-2.9743195,2.3547847,-0.6803156,-1.4372528,-0.9300018,-0.4183853,0.8183346,-0.053003762,1.414674,1.7859675,-1.2491454,1.4283826,-1.2141254,-0.31805763,-0.8807521,1.4926627,-2.2210784,0.19918846,1.2783936,-0.48457363,-0.8761651,-0.5371948,0.21113849,-3.0405993,0.6274567,-1.0904714,0.8715804,0.46832073,-0.9433454,0.3436052,2.617809,0.61658937,0.45241654,-1.0896511,-3.860129,1.0625291,0.40940556,-2.0566099,-0.39062008,-1.5304481,0.19138539,0.24659811,0.50976396,0.34634423,-0.4649752,-0.24124393
NALM-19,0.36122122,-0.47810555,-0.08522048,1.8955265,-1.3242879,-1.0319732,1.5409213,1.2466048,-1.5497143,0.1394508,0.69428617,1.0206802,1.1655575,-0.4295981,1.2577281,-2.1349888,-0.6494705,0.14072418,0.7853359,-1.9052546,0.9665807,-0.12244661,-0.2505666,-0.92001706,0.11987984,-2.0250103,-0.06415977,-1.3871561,1.9273778,0.49652302,1.6647866,-1.0212902,-1.4740089,-0.90235376,-0.5364859,0.6098959,1.9156914,0.010189878,1.3768294,-1.1315444,-1.5231795,-1.269882,-0.78651226,0.10304634,-2.4994164,1.4059148,-1.9101651,-0.6258877,0.43802884,-0.9362139,-0.36534297,0.36785746,-1.6439003,-0.95539546,-0.18907735,0.3390557,-1.3696078,-3.1366837,-0.31177434,0.66709465,-2.139625,-1.8117507,0.411712,0.29857403,1.4660163,0.3443894,0.26157898,0.5268551,1.8057588
NCI-H1105,-1.0295544,0.054705992,-0.30798152,-1.1740823,0.04165388,1.7383469,-0.3127741,1.1915128,-0.15389803,-1.886848,-1.5941014,1.1184158,0.769569,-0.10160742,0.722437,-0.4811754,2.5084963,0.92863715,-0.36568257,-0.5132785,1.989588,0.5442472,1.0006919,-0.5369902,-2.1227887,-0.073458,1.4783385,-2.039077,0.22983384,0.23538905,2.147283,-0.5711208,2.0629084,0.68470687,0.7674477,1.2249804,-1.822593,-1.7586136,2.9709442,-0.73831904,-0.66959035,0.826507,1.7707996,-0.2805264,-2.113551,-1.0622877,0.1666738,1.6618896,-0.7435973,-1.4428544,-0.7977652,1.3252437,-0.6386708,0.45983508,-0.9621006,3.021605,-1.8501021,-1.4401662,-1.3111632,-0.36317024,0.15226817,-0.48253804,0.3367948,0.21822053,-0.6281662,-0.016856395,-1.5590972,-1.6037574,-0.80430007
NCI-H2291,1.4599204,0.3792185,0.41990593,0.58520037,0.33685273,-2.5355785,-1.2989343,-0.89005727,0.3877637,-2.0023606,-0.17256112,-0.8515338,-1.7103561,-0.7306328,0.33250904,-0.41955706,1.7047354,1.4097104,1.6322045,-0.78994286,1.0296588,-1.2687101,-2.0898514,0.98107255,-0.11770494,1.8678162,-3.4911819,2.4777334,0.10689561,1.369299,-1.5033038,1.9819316,1.0961193,0.97554576,0.7456911,0.45818853,-0.34564897,1.4914635,2.561344,0.55176234,0.40794092,-0.5095438,0.11243701,-1.5012779,-0.23255703,0.7732517,1.5131384,-0.82296944,-1.3788877,-0.47293013,0.46395501,-1.5751092,-0.67627925,1.3206643,0.4175466,0.44714904,4.514286,1.293129,0.44379786,0.32938787,0.11271685,0.2108289,1.4724085,0.4414124,0.40600666,0.1385188,-0.97676444,-2.1533825,1.2950488
SK-MEL-2,-1.6253406,3.0619228,-0.28455263,-2.4769604,1.1025943,-2.3125296,2.956542,-0.109951004,1.1215109,-0.2770393,-0.15563509,-2.2059207,-0.098832965,-1.9197075,4.289838,1.1362044,0.3908708,-1.6555836,1.8108853,3.1299777,-2.6409364,-3.2369452,-2.4636106,4.213924,-4.5299616,-0.24447927,-4.586281,3.337355,-1.7671442,0.83753765,0.9108447,2.4625208,-0.06677252,-0.4998459,-0.23084491,-0.25800923,-1.5754459,-1.4429932,-3.2687588,-0.26133144,1.050079,-0.8722755,3.3042426,1.0927993,2.4658413,-0.5139753,2.1720536,-3.0280604,-3.5274975,-0.24399462,-0.63972986,-3.7749686,3.5514252,-3.064689,1.9781706,0.03500712,-0.5746482,5.3215165,4.681229,-0.3037152,-3.7576795,-2.2866297,1.7521145,-0.4717613,0.29587346,0.6369932,0.09368462,-1.4158647,1.6333523
SNU-1214,2.890316,0.4341009,0.04731138,-1.0243415,-1.0925481,-0.6419586,0.68003833,1.3662041,1.2746484,-2.0301175,0.6454709,1.5791459,-2.2240982,-1.2214237,1.7074721,-0.57293004,3.5136561,-0.57428426,-1.0520449,-2.8595514,-0.24841928,0.49750665,-1.6108321,2.342124,-0.31248972,-0.9305001,-1.4785058,2.7188282,-0.8460051,-3.8781586,-2.4774027,-0.9156703,-0.09152913,-3.5159385,1.4644799,-0.42885423,-0.2605234,-0.17983645,-0.24062295,0.959365,3.9845605,1.5311916,0.95333177,0.7617569,-1.3353233,-0.8840772,0.32364005,0.29295504,2.7979138,0.89575535,-1.2758939,4.3325458,0.22272265,1.2220802,0.5283346,0.3928679,1.3743176,1.0451193,-1.3318601,1.5233366,1.9631786,-0.57924944,0.8658631,1.8720907,-2.085454,1.5030322,0.011047551,-0.77129656,0.5681367
S-117,0.421478,-0.3871416,-0.29322243,0.9006677,-1.414432,-0.81335276,-0.13399778,-0.46536797,0.7619295,0.63704324,-0.08770167,-1.0491257,-1.2075891,-0.7193504,0.1866407,-1.1286464,0.4683046,-0.28463635,-0.66976017,1.0161462,0.5970655,0.73698354,0.4038957,1.104454,0.014661791,-0.5798086,0.1444128,-0.6006249,-0.4803657,-0.25132954,1.7799933,-0.48614484,-1.4038838,0.01215075,-0.55559546,-0.09392731,-0.36981478,1.7595317,-0.55831385,0.4069107,-1.5944046,-1.3391668,0.5159972,0.33067858,-0.70153344,0.90802,0.5434774,-0.18607254,0.6175979,0.5425665,0.5496706,-0.6247168,-1.2040737,-0.5540303,-0.025234468,-0.19897416,-0.010375038,1.0843557,1.0212227,-0.7756039,0.6443159,0.97720623,-1.6035851,-0.8501042,-0.23052928,-2.2054405,0.27663785,0.5174757,-0.5341223
LN-18,0.56340164,-1.8367198,-0.9019151,-1.3705227,-1.4456494,1.3562437,-0.8768887,1.8681897,-0.5004886,-1.637317,2.6248946,1.0335416,-0.9619133,-0.3457008,-1.8727908,0.4890467,1.4710872,1.429215,3.2303486,1.1508943,-0.9199178,0.16033109,0.48181057,0.3460003,0.5588602,-1.4157212,1.4521047,0.83120304,0.6774985,1.187903,-1.865506,0.56028986,-1.6820226,1.0918016,0.9928802,1.7847998,-3.5138934,0.07684374,-3.6321833,0.015117612,-2.1153011,-0.5957317,-0.4239484,0.8815763,-0.27078676,1.2350268,-0.3959578,-0.28817737,0.91500753,-0.2800761,0.017773308,-1.0847805,0.65965843,-0.5607656,1.4532537,-2.0775232,-0.8684678,0.9734959,-0.10571264,1.4304726,2.0917346,1.926995,-1.2513145,-0.10761312,-3.1380467,0.22561017,1.895472,-0.53448355,0.7334832
SUP-M2,1.472676,-1.1962825,0.7211718,0.98796684,1.7013253,1.7193112,3.210008,-0.743705,2.9532955,0.26296762,-0.53336453,1.5478079,2.1025853,-0.1292488,1.4689684,0.09463299,-0.3385191,-1.6007193,-2.2983205,0.63595146,1.5316921,-1.7239213,1.3098887,1.4044594,-0.08972387,1.387217,-0.82624876,2.05206,-3.683747,1.0618416,-2.559317,-2.2926915,1.7451899,-0.5099027,-2.3549938,-2.5120766,1.5032223,-1.2170529,-0.28934446,1.7512594,0.49401188,1.0360543,-0.54275745,-1.0007354,-0.15694943,-0.8168395,2.167948,-1.9599044,0.38125253,0.15271482,2.044553,-0.2726662,-0.5027414,0.16291735,-0.79185456,-2.3254428,1.5800948,0.45160028,0.4413617,-1.0006835,0.22174089,0.4092605,0.97121376,1.8257082,0.72079456,0.45371866,-2.5386887,1.145289,-1.1127936
Mono-Mac-1,-1.2861646,-3.0474896,1.1171509,1.7439395,1.0367343,-1.6405046,1.1607816,0.7450474,1.5798668,1.4131166,1.4648058,3.6515505,3.703519,-0.7158786,2.0215712,0.95780784,-3.3459113,0.012359291,-0.05523929,-3.6351635,0.6852057,-0.5619694,1.2707474,-0.591256,0.5417337,-1.5661495,2.1272848,-0.56283677,-0.44891134,0.2826312,0.23571344,-2.638843,0.14412194,-1.9909126,-0.05070834,1.2331393,1.6131779,3.143116,0.6770898,2.10206,3.0917888,0.13975921,-1.1851106,-1.768872,0.070400245,2.647159,0.6022483,-0.20275661,0.18017957,-0.93066,0.06822913,-0.7896388,-2.733726,-3.569233,-0.7182526,-1.182273,0.85980046,-1.167189,-0.3789323,-2.1860263,-0.75330883,-0.898263,-1.6579437,0.9978275,-1.2680227,2.623739,0.46170038,-0.8026247,-0.21230307
LS1034,-1.1561182,-1.6592456,-0.06428499,1.0428283,1.383508,0.38770217,-0.62924963,-0.3089979,-0.34439927,2.7577753,-0.28070235,1.0935504,2.0993876,1.2664244,-0.8491156,-0.7998305,0.346312,-3.3278115,-0.45220903,2.4903495,1.7371634,-1.1216469,-0.0299293,-0.40577123,2.2264442,1.0451916,-0.7170155,-0.17076305,2.0903876,-0.75583977,-1.1918519,1.2812607,-0.17613126,0.6270092,2.9604688,-0.16407555,1.652594,-1.1734848,0.39771712,-0.0056847557,1.9240654,2.4182546,-1.1908212,0.65223926,3.2178903,-1.5065486,-1.1088569,2.6866484,-2.576819,-1.1809852,-1.8415861,1.5423105,1.9879279,-1.6377388,-0.013164576,-1.4155871,1.1729386,1.04197,0.6307085,-0.8940737,-1.032399,0.11845346,1.1800473,-1.0070732,0.9076765,1.6470639,-1.5823033,-1.2523937,-1.0120575
MM1.S,-1.0842823,2.0313416,-0.18623139,-0.75953287,-0.46414807,-1.1909353,-0.4819735,-2.4996507,-1.8706743,1.2419304,-3.7653167,-2.0197146,-0.41869298,1.9324217,-3.6825736,-1.7543844,-0.22830053,0.3609995,-2.070955,-0.38745508,-2.9577112,-2.0645437,0.9703747,-1.2670761,0.9990784,0.09455876,0.35447636,-0.99082,1.8348774,1.3353771,0.035280276,-1.124535,0.9612526,0.30247757,-1.4275467,-1.2356458,-0.4516914,0.9048722,-1.7320994,-0.83566153,-3.2263663,3.2319825,-0.7990416,1.266623,-1.4048586,0.8989864,-4.235311,-0.56953335,0.20974642,0.717274,-0.04580514,-0.67275155,1.7446083,-3.1901994,-0.9222116,-0.37394094,-0.9747295,-1.1032641,-0.115905926,0.7045954,-1.886599,-2.461526,-0.7199889,1.307944,0.27207816,-1.9448899,0.53632367,0.024725765,1.1315168
SW837,-1.5262568,-1.4930943,-0.24503049,0.13884357,0.47191885,1.3724953,-0.16061412,-0.4057575,0.4536101,0.9131132,-0.30315274,0.9981803,0.9462705,-0.3601193,-0.31884894,0.43533146,-0.47814432,-0.731347,-0.76020384,-0.11688072,0.11934054,-1.3369384,-0.6941686,-1.5998092,0.5892154,0.024082482,-0.41443568,-1.8913183,-0.83258206,-0.6240063,2.4243443,-0.19518234,0.8766883,-1.30912,1.5813494,-1.120762,-1.7875351,-0.22644156,2.9009376,-1.4051474,1.3265774,1.8657056,1.6209347,-0.20995313,0.037064925,-0.43350473,-2.2459457,1.7894545,-0.7222961,2.0249248,0.46059635,0.55767334,-1.835868,1.4744952,1.3323622,0.6351623,-0.19511268,-2.4339871,0.96978664,-0.70623463,-0.47674817,-1.5175258,0.24363637,-1.0336286,0.15966332,0.9989649,-0.94439375,-0.6351136,0.15768626
BT-549,1.0457358,0.7361104,-0.951991,0.76835614,0.111552276,-0.21806955,0.4738723,1.4912566,-0.24284047,0.070834056,0.58886683,0.2023994,0.9774612,-0.4853329,-0.10420564,-0.1168867,0.57625884,-2.3004017,-0.032437157,2.8347728,-0.3687188,0.92929703,1.5443461,-0.62480223,-0.68790823,-1.111476,0.80907685,0.21376003,1.7620676,0.520581,0.60656506,-0.5874303,-0.29296827,2.6681335,-0.1389484,1.4128712,-0.51950127,-0.37865704,-2.3289974,-0.017639108,-1.3806559,-1.2221826,0.5861858,1.2008307,2.5589523,-0.547963,-2.519051,-0.6517147,0.13343036,-0.8830373,-1.1345925,-0.27134213,0.7850231,-0.27800253,-1.7378725,-3.634901,-1.7703722,3.1798086,0.570965,-0.68195283,0.846122,-0.2379458,-1.4452778,-1.3914528,-2.0749903,-1.0416617,2.0675318,3.5884888,-2.0203362
HDLM-2,-0.2997146,-1.1553593,1.3257242,-0.46548733,0.7176571,-0.020180225,0.53251624,1.2737405,-0.116805844,0.20627005,-1.2685716,1.2741499,0.9925999,-1.0343561,-0.95777756,1.1276551,0.48000664,0.29116023,-1.0228721,-0.2611951,-0.9752807,-0.4862636,0.85280097,0.7643157,-0.44708905,0.2786853,-1.3522698,-2.0844927,-2.414457,2.3070009,-0.35220557,-2.2728891,2.03878,-0.06597491,-1.6356556,-1.1746871,-0.38391584,0.17351201,-0.35146403,1.666962,-2.2506137,0.870476,-0.97675693,-1.1060671,-0.0063048713,0.12696919,-0.7729777,-1.0281606,-0.4020276,-0.3658794,0.3513797,-1.2983882,-1.2250248,-0.92979544,-0.9809128,0.14012738,-0.6875164,-0.81154764,0.9745975,0.037934557,0.8248498,1.0559353,-0.58385074,0.4760336,1.0027875,0.59566486,-2.7357256,-1.8216164,-0.17586914
Hs 944.T,-0.4731651,-0.6050601,1.0670943,-1.3060329,-0.83724433,0.6208269,-0.31957844,1.0260625,1.0025164,-0.07806719,-0.508428,0.42787707,-0.8799793,-0.40140012,1.3434385,-0.42611882,0.68063724,-1.424547,-2.0594094,1.0484344,0.6539207,-2.856797,0.14960709,3.0121577,-1.4583564,0.74629855,-2.4984007,-0.1802091,-1.0976486,-1.8947364,-0.0005632555,0.9443058,0.32668668,0.36193106,-0.36972794,-1.4129903,0.32966745,1.8190632,-1.430584,0.7954644,0.6244748,0.027224217,0.9664453,-1.804508,-0.37728053,1.4908756,2.2221677,0.3184647,-2.2939258,-1.1970009,-0.8164145,-3.868425,1.7565973,-1.3359852,-1.1394607,1.413649,1.9219366,2.0401437,2.019172,1.2504042,-2.487698,0.14168955,0.34445998,-1.4101142,0.070398584,1.6985345,-0.91408116,-0.7671824,1.2538004
NB1,-0.30930862,1.6948309,1.9790443,2.0192637,-0.4601646,2.2705681,0.49786764,-2.5606534,2.7168062,0.3276159,-0.58327824,-0.16764754,-0.748649,1.1381309,1.1208454,-1.3580587,-0.79948246,-2.1059728,-1.044836,0.9882858,0.50578177,-0.3471431,2.6393752,0.4205879,-2.647491,1.8122925,1.4580736,-0.5538956,-0.81931144,-2.182673,-0.32882917,-0.9233237,1.0342788,-2.2246885,0.7790836,-0.09986719,0.052556485,-4.6470356,-0.76775336,1.1999968,-0.0010491759,-0.4907094,-0.34563747,3.0003114,-0.40065733,-1.9317541,4.0027494,2.3112872,0.26480004,0.5961415,-0.81982857,-0.73139936,2.4036992,-0.26915988,-0.49127847,-0.7025546,-1.0197794,2.6932063,-1.3481091,-0.082140565,-0.6042671,0.7863067,2.3895905,1.9492196,0.4520191,1.9036533,0.15706289,0.7619145,-0.7217693
MDA-MB-361,1.0136454,2.2147343,0.0757678,-1.4169804,-1.2840452,-0.51676303,0.649036,2.9990208,-1.7820785,-0.43422592,0.30552208,-0.3371147,1.8626018,-0.4957501,0.13273591,2.5774524,-1.6387541,-0.51001334,1.3291014,-1.452187,-0.6236691,0.16785276,-2.6310043,0.9799239,1.1960049,1.3803067,2.4572008,-1.7294867,0.4099683,1.4060173,-0.7428072,2.5863771,0.17271881,-3.2624764,-0.44282314,0.6578799,-2.0148282,0.000896886,0.3305289,0.28374583,0.613375,1.2558827,-1.2968801,-0.27727613,2.5712771,1.2460614,1.503292,-0.26809046,1.9879949,0.100655556,0.74958503,0.44463763,2.252112,-0.8611639,1.5679324,1.0832546,-0.29626787,-1.9112402,-1.8835993,-0.0713217,1.1190004,-0.16261877,0.86889756,-0.4915812,1.7321465,1.5552489,-0.7564456,-2.589149,0.5862849
NCI-H1581,-1.215204,0.13536374,1.1624366,-0.062233806,0.75591046,0.8479545,-1.5409461,-1.4576753,0.27629805,0.08192553,3.2560165,0.55591416,-2.0457327,-0.709394,0.36702725,1.2391833,-3.6572652,2.5427985,1.4870535,0.21158189,-3.1136155,1.7776356,2.3839002,-0.69897854,-2.062024,0.19595933,1.5130907,-1.3001928,-0.60161877,1.6918311,1.71644,-0.7663622,-1.2448055,-1.0579838,0.32135183,1.0466478,-1.4014318,0.044790596,1.0192218,-0.7339804,1.2449523,-1.8148961,-0.1149301,0.810241,-2.6329012,-0.6175671,-0.8650823,1.0095015,0.83678854,2.360376,3.9614975,-0.14533013,-1.8594443,1.331079,0.7102664,-0.07928464,-3.809166,-2.3023622,-2.0216765,-0.078690484,0.39119467,1.3194368,-2.3957748,-0.55394924,-2.0886981,0.9504114,1.9280889,-0.5153225,-2.2485988
OCI-Ly3,-0.038031735,-1.3963343,-0.4355673,0.504732,0.7336981,-0.7901921,0.78293294,-0.9160512,-0.686035,0.9717419,0.3662668,0.5204143,0.6707556,-0.25854054,-0.22511669,-1.5391206,-0.55984676,0.26634836,-0.5258842,-0.17657392,-1.3462999,-0.655685,2.2920537,0.5357994,0.8178735,0.056572527,-0.36111733,-0.4197135,0.057630487,1.5960622,1.6260649,-1.8807638,-0.62990624,0.2810643,-0.14069317,-0.38558277,0.23653045,2.0468836,-0.04978054,0.2982399,-0.346371,0.26477826,-0.47399384,-0.14886071,-1.9625323,-0.1902122,-1.8702985,-0.50625855,-2.0489385,1.1876079,0.18593727,0.4207947,-1.542441,-1.6759531,-0.5270963,2.3472233,-1.3970042,-0.20703878,-0.092089504,0.3020732,0.75855947,0.32457617,-0.3681471,0.27197668,1.7902542,-0.32445586,-1.5708143,-1.1202062,1.4299084
G-361,-0.34701943,0.732391,-0.5142233,-3.3721628,0.10622967,-0.5167139,-0.47845626,-1.9710146,0.664612,-0.09937084,-1.5376074,-0.42390674,-1.4009672,2.060092,1.3873829,-0.32614,-1.4593323,0.50403297,1.231981,-0.13115516,-1.299646,-2.8034928,1.7783176,-0.57210684,-2.3444617,-1.1629583,0.69654644,2.7953699,0.93147135,-1.7098812,0.19888061,1.816683,0.6051822,-1.0802878,-1.2283547,-0.5559939,-0.58544254,-0.18245693,-2.3815978,-1.8951828,0.5372612,-1.1700697,-0.46332926,0.29716492,-0.9619185,1.5592101,1.7954707,1.347471,-1.9654754,-0.7001628,-0.9692884,-0.42972732,0.40407416,-1.6569108,1.0080984,2.1438844,0.86826247,2.7761502,-0.2287927,1.5500705,-1.9655523,-1.8690608,-2.3341913,-1.0251245,-1.5690736,0.6841494,0.52709055,-1.7896374,2.7893348
JHH-1,-1.1355903,2.028153,-0.28930604,1.5864495,-0.4727172,-3.1540015,-0.56225705,-3.4298682,1.9627753,-1.279929,-0.09714494,1.0628905,-1.1844074,0.14355645,0.39388663,-0.93769777,-1.215746,1.6796844,-0.77552444,-0.00390461,-0.15740323,0.42454228,-4.3512826,-0.24969499,1.298654,0.75573057,3.1124215,2.748266,-1.1901604,-1.7747468,1.3028208,-0.07482154,-1.143298,-0.21179014,2.5267048,3.0859466,0.94779205,0.4821332,2.0368767,2.2283263,4.665503,1.704584,-1.2630733,-0.18542576,1.1118404,-5.6323047,4.9678354,1.2502166,-0.5125619,-1.6364435,2.2693365,1.4465128,3.147936,-1.5273646,0.9609772,-2.3981895,1.7162647,3.9928162,1.0310736,-2.7674048,2.423752,0.5948515,3.6920838,3.2304149,-0.4723338,-0.31261748,2.1997433,0.05404067,-0.39536822
NUGC-2,0.8121386,2.561611,-2.295874,1.7316923,-0.27166697,-2.036474,-1.5027748,2.547532,-2.8442805,-1.564598,1.2003976,-0.049188167,1.0195571,-1.4257792,-0.500349,1.420372,0.49904543,-0.047308326,-1.524251,-2.5820596,-1.5444926,-1.0139675,-2.071566,-0.21238768,0.3230189,-1.5250952,-1.8597375,-2.3275883,1.2699447,-1.0821822,0.3568169,2.3740025,-1.3873842,0.38822544,-0.10010399,1.938327,0.27603406,0.1690927,-0.11574931,-0.37568036,0.5393136,2.2681386,2.657306,1.8659533,1.206634,-1.3682638,-1.9997803,-0.93359447,0.45986608,0.09424847,0.1690857,0.63153857,-1.6002564,-1.1322415,0.32520255,0.3552544,-0.20149355,1.9818503,0.36422062,1.4409496,1.1149912,-1.31929,0.8541822,0.8750476,-0.5210159,1.5675968,0.8253837,0.67185473,0.6468269
A2780,-1.3670841,1.2599272,-0.15177716,-0.43874943,0.55679053,0.5319653,-0.8835685,-0.89265776,0.4263904,0.8618248,1.7383169,0.64852256,-1.323496,0.14828521,-1.4180233,0.6354477,-3.576907,0.4921722,-1.1729993,1.2107852,-1.9795991,0.226581,1.6676831,-0.72408473,-1.531317,-0.21238662,0.15784287,-2.0406375,0.30005732,0.54349244,1.0026337,-0.42313686,-0.60251915,0.75444585,-0.2806015,-0.7298979,0.5985744,-0.9527755,0.9917858,-0.44037738,-0.108028546,-3.0011528,-0.22057152,0.951666,-2.1935818,-1.533903,-0.25086802,0.7296178,0.0006980313,1.54173,2.3678582,-1.0824449,1.7062134,1.0949668,-2.0036757,-0.53266954,-3.520786,-1.1169162,-0.3117087,-0.2465164,-0.7601089,0.19701885,-0.28834474,-1.5456445,0.077428944,-0.33308378,1.6231,2.4133487,-2.1144094
NCI-H2030,1.4977256,-2.9237275,-1.8970661,3.4241092,2.8393173,-0.9777046,-1.2606083,-0.6147355,1.4727066,-3.0897253,3.001194,1.1092937,-2.78687,2.3923945,0.67916703,0.6835604,-0.7083527,0.7555099,0.66292024,0.31800246,-0.9960198,3.5483234,-0.8866765,-0.7007337,0.91971874,0.40436965,-1.0455557,0.3042484,-2.1795914,0.05234097,0.7308288,-1.6969173,-0.73330545,1.769759,2.0907478,3.5612237,0.6263203,1.8852534,-2.6774862,1.0823231,2.7465322,-2.2015545,1.5109209,-0.1770031,-0.28413716,-1.0540248,1.7382864,-2.663781,-0.39089817,-0.2766162,-1.4857514,-3.2041056,-1.1183712,2.0216405,0.6259392,2.180872,1.2896597,-0.18193977,0.39968538,0.16879311,0.88409495,3.0144424,-0.7976284,0.697128,-1.1062696,3.5173838,-0.86163354,-1.2411903,-1.7527769
SiMa,-1.2963485,-0.6100272,0.24076171,-1.5329767,0.566489,0.9513298,0.41372573,0.4627375,1.5727823,0.81925267,2.150238,-0.35135487,0.7417577,0.51161414,1.3558578,-0.09455751,-1.7390178,-3.4045467,1.475092,0.56899786,-2.0299935,-0.24090102,0.9906795,0.55450124,-2.2615488,1.6620762,1.2881305,-3.1329079,-2.6182296,2.9067113,2.0213103,1.4052904,0.20139557,-4.5697837,0.3426348,1.12132,-3.4035997,-1.8092468,0.34656644,0.66985947,-0.58371943,-2.238654,3.9773865,4.512292,-1.4380529,-1.5981703,1.7119933,1.5314631,1.3503164,2.019435,-0.036040545,-2.9138076,-0.08533563,-0.7196192,3.020964,-0.06357703,-4.5642877,-0.40643454,-0.33261204,-2.1874802,0.63904285,-0.4651633,1.2543814,0.15585738,0.6619481,0.7550547,-0.41335395,-0.5383168,0.07105763
Calu-6,-2.940793,-0.44432762,2.4980578,1.7079374,0.1689389,0.8346221,-1.6690975,-0.88284475,-0.9813127,-1.0480624,0.37417254,-0.6520196,-0.45889392,-0.8728585,-2.7467475,0.4529423,-0.9280261,0.78828835,-1.393536,-1.3774914,0.7701917,-1.465848,1.6065454,-0.89502317,0.5690414,1.2110351,-1.6326832,-3.1499636,-2.1054711,0.9306288,-0.5380234,0.819849,-1.7604539,1.145466,1.339718,-0.27895397,0.5110663,0.55803293,0.06890148,0.65469223,-0.03682652,0.69634014,1.5721133,-0.25893945,-2.4808972,0.5105226,0.4359705,0.023504343,-0.29042894,1.8312666,0.22458395,-4.2395773,-0.06423912,0.3752798,-0.15609914,-0.055116758,2.1420972,-0.27189887,-0.58439195,-0.17441423,0.2408817,1.8152804,2.016869,1.7208074,2.523324,1.8108238,0.14921106,0.9952602,0.9484582
SNU-398,-0.94979537,-0.20764518,1.2483195,1.0872461,0.585897,2.12156,0.95443976,-0.6709068,2.145979,0.71130425,3.800765,0.6006244,-1.5524625,1.4649227,-0.9592547,0.3689631,-1.6534182,-0.5287669,-1.9500338,0.23427808,-1.4924392,0.0796888,0.592172,1.8497171,-2.3169606,1.9010117,2.814013,-1.8895952,-1.3351965,-0.85957193,0.74064857,-2.1353168,-0.1534124,-1.1419497,3.260893,0.7560512,-1.0309894,0.33804616,-0.8058563,-1.2118903,3.6744232,-0.6018191,-1.9656596,-0.1369574,-0.7020739,-1.690355,2.5769768,0.25085926,1.4882228,1.8499849,0.42273065,-1.7238564,4.7498865,-0.27029788,-1.4197123,-0.34979394,-0.35850137,-2.8457243,-0.34431365,0.6600224,-0.25698146,1.9986558,0.598208,-1.425505,0.5607414,0.6337436,-0.82359517,-1.7167684,-1.6668262
SNU-182,-0.7337667,0.4549537,-1.8743618,1.1011393,-2.2969007,0.25451285,-0.32189265,1.8999294,-0.6324189,-1.6207436,0.63360107,1.5922849,-0.42866975,-1.6984912,-2.0583196,0.5951461,-0.73384404,1.2548553,-0.52497315,-0.48569623,0.6542496,0.5758274,-0.34282503,-0.77304775,1.4931759,-1.753871,0.41627198,-3.1970606,0.3024053,-1.265493,1.7128139,-0.32101244,-0.75172514,1.7150623,0.24268249,-0.04823778,-1.2809298,-0.6730978,0.5926687,-0.052572653,-1.7378961,-1.0169291,0.044363145,-1.0427977,-1.1470108,-0.31802437,0.87216365,0.7448329,0.61695397,0.35322443,0.6600492,-0.027792206,0.3586166,1.4473073,-0.41876796,0.30192482,-0.8669028,0.25783825,1.2228155,0.63321394,1.8424155,1.3727471,1.3059908,-0.70070064,0.6886692,-0.37804163,1.8454351,2.059085,0.5487354
SU-DHL-1,1.6043352,-0.57471144,-0.4334675,0.20984635,3.9532766,1.1473067,4.2197495,-1.0535834,4.325133,-2.7657604,0.36488545,-0.9720261,1.3475407,-1.1229558,1.7596531,0.5420629,-0.92662275,-2.5503383,-0.7185931,3.4432974,-0.89865565,-1.756,-0.96355194,2.3705046,-2.870297,2.116886,-5.073478,2.5381787,-1.5686753,1.3586462,-4.6085753,-0.23878956,1.60864,1.9860939,-2.2554924,0.7196579,1.2798547,-4.0578537,-2.1338089,4.476307,0.60444087,-1.5819309,2.040981,3.8481016,2.712578,-2.234733,2.2705612,-2.86686,-0.35441408,-0.6096982,2.273357,1.0092057,0.54952395,-1.3632584,0.35524195,-2.6520355,0.4036579,3.3295896,2.7445953,-2.3970737,0.24668534,0.31670347,4.211703,0.39950117,-1.0646499,2.161558,-1.4916303,-0.17671265,-3.5472417
TCC-PAN2,-1.1110537,-2.9248056,3.134183,-0.8981448,0.6844702,-0.6670515,1.3225305,0.23282793,0.98986423,2.6613002,-1.2198468,0.118000954,1.3599762,0.7010103,-0.37682498,0.43578655,-0.50224805,-1.9136199,2.6366265,1.6109453,0.67204136,0.15757653,-2.1592352,-0.64854014,3.2535443,0.34171277,-0.16558988,1.9418954,-2.560017,0.19335464,-1.2163113,-0.09315424,-1.3104874,-2.1442425,0.17943367,0.11464989,1.5974933,0.9110302,-2.0655923,2.2130914,2.332129,0.7830192,-0.71045935,-0.9125508,3.2171257,0.38533098,0.01558152,0.86197174,-0.5268015,0.44181255,-0.45087582,-0.8794335,0.13091777,0.21010366,1.509641,-2.4849825,2.867681,2.1263154,0.5870163,-1.7843361,0.6116275,0.93001175,0.73092264,1.6736612,1.0015355,0.6956017,-1.0038058,-0.061550796,0.17589994
NCI-H23,0.88025934,-2.0245252,-0.87598336,1.5239702,2.5665405,0.17378391,0.540539,-0.3047135,2.2261615,-3.2452781,2.7247326,-0.7769355,-1.4586556,0.9110214,0.14014988,0.67011213,-0.8845317,2.2590458,1.6661683,-0.9921112,-3.2175932,0.93195885,0.38378754,0.8169762,-0.8558887,0.20691997,0.26606095,1.0363944,-1.4622061,-0.9243243,0.6849419,0.3601365,-2.416767,0.3312978,2.4147894,5.6392975,-0.6263949,1.372685,-1.8860509,-1.58169,2.790685,-0.7907807,1.5618042,1.121286,-0.76067936,-0.56338847,1.7280604,-2.2716014,0.067345776,0.69827956,0.94345,-1.8507862,0.21170221,-0.010217423,0.44745976,2.447854,1.6000439,0.27056068,-0.47969761,0.11327974,1.4377986,2.2319245,0.081865154,-0.42272514,-1.5653939,0.96827984,1.2541326,-1.6050161,0.8079866
ZR-75-1,1.0703026,4.4907117,0.23242348,-0.16972509,1.0445606,-1.9044229,0.4595602,-0.29386258,-1.6735001,-1.5303897,0.64252263,-1.3033191,0.7614209,-2.0078018,-0.3373746,2.4824862,-1.0752921,-0.1897912,-0.94222784,0.5180596,-1.1320242,-0.58587927,-1.7867719,0.23657358,-0.13549508,2.4016345,-0.83267003,-0.47364077,1.1359326,2.1265285,-2.8861563,1.4357334,1.413878,-0.4927385,-0.6597837,-0.38902923,-1.7519386,-2.9020808,1.9565053,0.5529857,-0.6152625,1.4279203,0.22730672,0.73747754,3.4277678,-1.2415478,0.7492656,-1.818639,-0.16646472,1.7449806,0.8459736,0.19721955,4.0023327,-0.83919835,-1.1609056,0.3626363,-1.2560511,-0.7492015,-0.15786871,-0.779461,-0.782228,-2.463426,2.9907753,0.43788823,2.18937,2.0413678,0.3243398,0.8451295,-1.097115
HCC1143,2.7111428,2.6878724,1.1944243,1.0032141,-0.55864364,-1.6464194,0.5678387,1.072242,-0.16978544,-1.5712305,0.58139074,-0.48176777,-0.6612243,-2.1087668,2.7687016,0.43501958,1.2510321,-0.20941375,-3.8510187,-0.9852537,1.0748154,-1.0838368,-4.359743,2.5981529,-0.18210515,2.2015746,-0.9544992,-1.063275,-0.9074065,-1.1400356,-0.6803731,1.915534,0.33313847,-0.7526792,0.2099067,-0.7550627,0.50613034,-0.061099313,3.226421,3.0457635,2.1233122,2.0564353,1.1039071,-0.55631065,2.1060023,-2.1369565,2.6674292,-0.14444506,0.65055084,-0.26212344,1.4578133,0.7250026,2.1741414,-0.9153504,0.7783553,-0.03222815,2.9402204,2.1696892,1.0161251,-1.4198865,1.3008503,1.3109181,3.4057539,0.58277327,1.853178,1.8692156,-1.761488,-0.45325607,-1.6266366
JHOS-4,-0.91777426,1.5529583,-2.8224056,1.2651,0.27055344,-0.13661529,-0.91567326,-0.19719651,-0.37161845,0.4509797,1.1111962,0.92148083,2.4963489,0.07485884,-0.33890283,-0.09561272,-0.8802401,1.1959966,-1.9967877,-0.13477509,0.77024627,-1.0359797,-0.98448884,-0.243001,0.958711,0.5702365,1.9492121,-1.2142256,1.6211294,-0.7568822,2.3582454,0.21756546,0.9429196,2.40629,1.2077191,0.3149009,-0.7266265,-0.32192308,1.7673275,-0.26748806,1.2774602,1.6489904,-0.06484325,-0.96474415,1.0806785,-1.1886424,1.0438807,0.97876084,-1.1309853,-1.2793354,0.21495801,0.6049845,0.9744309,-0.24802849,-0.5221071,0.38116595,0.072040536,0.2500942,0.70636016,1.136603,0.56488055,-1.0874138,0.19768515,-1.509077,0.18095668,-0.26587313,0.53632456,1.0329769,0.054904364
NB4,-1.1562104,-3.4474814,1.3475907,-0.65997,1.1337252,0.469547,1.676879,-1.5697901,2.4798887,0.24771954,-0.38220423,2.1686766,2.1726663,-0.8885196,0.6361748,-0.1142156,-1.363268,2.2779193,1.2287873,-1.9350882,0.01349517,-2.2985682,2.4463708,-0.8175626,0.025764853,-3.2460492,1.4232262,2.6545792,-1.2608734,-1.6074533,-2.327791,-0.8760929,-1.1859381,-1.8338646,1.1742613,1.3248733,1.6986307,-0.99688977,-0.8262398,-1.3225864,0.8337926,1.4755083,-1.8075889,-0.22333355,-1.7849808,1.4341543,1.8598394,0.043499574,-1.3379829,-1.6639234,1.7992246,1.7712877,-1.6511283,-3.5151176,-1.0658593,-1.8850577,2.0015857,0.5184908,1.1099653,-0.85039693,0.29098815,-0.01018922,-1.5093939,2.9466836,-2.8656147,0.83360976,0.64941436,-0.5866397,1.4598143
RCC4,-1.0541471,-1.218927,-1.0430311,-0.62298495,0.5253551,-0.9407131,-2.4915578,0.55991006,0.13611506,2.5044215,-1.0758588,0.5062816,0.021105863,0.1091841,1.2008337,-0.63794976,-2.3086884,1.1299142,-0.42720005,1.667597,-0.23138008,1.2473654,-1.6624206,-1.0900339,1.5310557,-0.5402021,2.572478,-1.320701,-0.9156541,0.4781815,2.229434,-0.55353487,-0.758369,-0.3931928,-1.6666721,1.31465,0.6708647,2.6971624,-0.14826643,0.6898313,-1.4896111,-1.338913,-0.11019827,-1.8962135,1.6837208,-0.6552033,1.3545802,1.5503776,-0.8591918,-1.7913836,-0.35950994,-1.071723,-0.47954866,-0.5752892,1.0175198,-0.7247492,0.0319013,1.1909525,2.4370143,-0.44133916,0.39364117,1.0874183,-1.7690694,-1.3220512,0.012943871,-1.5173303,0.55046767,0.3410756,-1.5503339
NCI-H2172,1.3056602,0.6347074,2.661125,1.3955549,0.4199958,-1.1920552,1.8543941,-2.7773933,1.6171784,-3.639415,0.6376176,1.091145,-4.3970795,-2.6974208,0.29310346,0.5780857,0.35910773,1.1672919,-0.41558886,0.33833557,0.11018905,1.9963496,-1.7536973,-0.7730408,-1.620014,0.7668001,-2.1794548,0.38294232,2.0817397,-2.6692002,-2.3351512,-2.3337548,2.3095565,2.2084372,0.9014219,1.4886271,-0.5931773,-3.4767728,1.2555765,5.2850456,2.1934261,-3.121588,-0.02069703,1.1860045,2.4273527,-1.0018214,2.1098437,1.0011972,1.1499925,-1.5623617,0.4857571,1.8526244,1.5217243,1.8329157,-1.5709813,-1.1647259,-0.27151498,2.5891294,0.8935535,-0.7282551,-1.0521238,1.6283069,3.2056234,1.9136647,-0.5708747,3.7194922,2.6162832,0.67685306,-3.1251366
SCC-15,3.5398135,0.40409786,-0.94278634,0.5030409,-1.8298248,-0.06939453,1.6641111,1.0581237,0.81944036,-1.2989386,0.30732623,1.0797436,1.5213574,0.18070509,1.653064,-0.39296693,2.5100965,0.11403045,-1.9410164,-2.7122567,2.4506538,-0.46591532,-2.5992532,1.4349829,0.9419854,0.4956733,-0.57411104,3.0164557,-1.3362268,-1.1566126,-1.3015487,0.572563,0.39162534,0.4612166,-0.8922155,-0.22957459,0.76766855,1.7806493,0.33539066,1.0986164,1.8606883,2.3089726,1.9592996,-0.53641146,1.2403651,-0.9264338,1.7796385,-2.0124753,1.8650291,-0.75642514,0.020219035,2.2219143,-2.0721974,1.1091052,0.3390132,-1.1520689,3.1949964,1.7263969,-0.6006652,-0.4276087,1.8528905,-0.49695054,-0.02100167,1.350806,-0.9270668,-1.8018293,-1.0334951,0.7747727,0.42099345
UACC-893,-0.41417405,3.5408354,0.5024641,1.4467142,0.0009467304,-2.245368,-0.16142136,-3.0496607,-1.9576744,-3.3519719,-2.4881814,-0.036444113,-1.4600296,0.2596402,-1.182721,2.6900625,-2.024481,2.3254607,-0.31267196,-2.914488,-0.7841005,0.78746605,-1.7559386,-1.8073378,2.3742225,0.2756944,0.38622123,0.48255467,0.04287008,0.27730677,0.6887932,1.20002,1.760436,0.49948972,-1.7322294,1.1692747,1.2433879,-4.687971,2.1863213,2.092506,0.9047759,2.6257977,-1.7238324,-1.8811822,3.4665277,0.5816383,-0.8669188,-1.1098237,1.9971826,-1.651319,3.3752031,-0.11718857,-1.995251,0.01951868,1.1509498,0.031089574,-0.871921,-0.6430382,-2.3901637,-0.8737863,-0.49335775,-0.40891385,-0.1055713,-0.0902018,0.40563738,4.6139073,0.8347765,-0.095767766,-1.6362512
SNU-407,-1.9359878,-1.4734037,-0.6253839,-1.2786489,0.38828325,1.1430167,-1.8001546,0.23336051,-0.4787687,0.6976974,-0.6950597,0.7479736,-1.2473751,-0.45566046,-0.14997368,0.30908474,0.83797324,0.43609703,0.37908617,0.09492184,0.54310614,-0.5613534,-0.072610274,-1.055723,0.23529938,-0.64033514,-1.9256724,-1.1752352,1.4899299,-0.5479353,0.99892443,1.1955003,0.97274894,-0.9869194,1.630828,-1.6361027,-0.8885959,-1.1676459,3.7419004,-2.3844259,0.20582595,0.65486443,0.27216265,-0.8262028,-1.004591,0.21135923,-3.5683758,2.6272006,-1.6809039,0.7366683,0.31379277,1.4142478,-0.06264826,1.5907303,0.56754386,1.717933,-1.5366945,-3.812868,0.92921364,0.4885829,-1.721892,-2.0715036,0.6746388,-1.7343876,-0.26818395,0.3387363,0.10150282,-1.0118304,0.5638702
RPMI-8226,1.2522919,0.15410689,1.5388329,-1.4684905,1.7858211,-0.23424149,1.331265,-2.9805963,0.10450876,-0.9138224,-1.0635421,-0.66012686,-1.2096608,-1.0370158,-1.3385212,-1.1670684,-1.3122258,-0.6270317,-0.76683855,2.447548,0.01469332,-3.22134,-0.72421896,0.1881336,1.186094,-0.005112879,-1.0135449,3.6244924,-0.41930065,0.62347645,-3.7891104,-2.3196537,0.09363818,-0.0038020462,-1.769046,0.28211933,1.3939703,-2.718434,-2.4689908,1.6010262,0.26898372,0.84994507,-1.9354442,2.5585635,0.32722825,-0.61628264,1.6121595,0.83517516,-1.2221779,-1.5892113,1.1081254,1.4539695,2.201778,-4.5189233,-2.2876,0.24183998,1.7247722,3.4165606,1.3255548,-0.1478532,0.8378524,0.54346937,2.920928,5.3262186,-0.03567607,1.4501264,-2.613587,-0.46362433,0.80715555
CAL-27,2.9765382,-0.16049452,-3.206046,-0.26791903,-1.1563909,0.17195189,-1.4447347,0.6104511,-1.6910293,-1.4345506,-0.4051348,1.8766372,1.7665474,0.40830195,1.6021882,-0.1769182,0.8628747,0.21521877,-1.3843826,-1.3021519,-0.36288437,1.3413538,-0.55971014,0.06704664,2.1317058,-0.58139175,1.6843387,2.85069,-1.0583465,1.15799,-0.7196939,0.41840938,-1.1529123,-0.13148299,-1.3062434,1.4691769,1.0052378,3.3688302,-0.6267759,-0.22895405,2.0111845,3.3754447,1.772087,0.009557135,-0.47354144,-1.884845,-2.9914806,-0.24111497,2.4248836,-0.39840096,1.4633992,2.0914435,-3.9863102,2.0771222,1.1875309,-1.1833812,-0.860197,0.62138677,-2.96557,-0.06597294,3.6563685,-0.77979904,-2.4443948,1.2952121,-3.2919383,-1.7545302,0.6838642,1.3732464,-0.49242717
C2BBe1,-2.8302243,1.052093,0.7081978,-0.6170873,1.1137676,-1.6306629,2.63791,-3.2370892,0.5371218,-0.32614636,-0.7086158,-4.090432,-1.3978417,0.79778266,-3.343386,0.43241432,-1.5146203,1.3761882,1.866316,0.39844087,-4.4666724,0.9831139,-4.083759,-1.805311,0.004155401,1.4019815,1.872844,0.15696071,1.4424905,-3.767179,-0.75873977,1.7193573,-0.869728,0.1214574,3.9058864,3.312948,-2.007539,-3.5191216,-3.0960073,0.6179732,3.3742468,2.7037172,-1.8795985,3.5911324,5.613458,-2.750615,1.0285904,1.2418783,0.99404067,0.22350335,-0.29285055,5.5729556,4.0339594,-2.0580132,2.6092741,-1.7419918,-0.5995897,1.5524325,2.324881,-1.2910495,0.19309214,2.1403801,3.1651175,1.5694152,-0.054218143,0.39715335,2.6106837,-4.184553,-0.24000882
COR-L311,-1.4611518,-0.50740504,-0.64459616,-0.846022,0.5638786,0.7200989,-0.85779715,1.1209469,-0.18663113,-1.0559046,-0.8132605,1.089637,0.44765234,0.09968174,0.0696847,-0.31067768,1.5330105,0.5443048,-0.80839586,-0.9139691,0.2465915,-0.35063913,1.0915549,-0.36328387,-1.0980964,-0.38600123,0.17479487,-3.1914058,0.9124322,-1.7352235,2.4417217,0.11008166,0.4748238,-0.37824127,0.2110644,0.7192421,-0.34332857,-1.7118026,3.6641817,-1.017044,-1.2867216,0.52169544,1.3714163,-0.08471562,-2.3075852,-1.8635249,-0.5977181,2.041883,-1.8429816,-0.9291942,-0.5910073,1.0893558,-0.8305089,-1.17532,0.05937899,3.8146365,-2.7868326,-1.3647181,0.0087560415,0.13637574,-0.6681843,-0.54774755,1.0116007,-0.90872675,0.28995535,0.709243,-0.3697505,-1.1087211,0.19271426
IGR-39,1.2446194,-1.2517793,-2.4167163,-0.9123606,-0.43919268,1.0875132,1.7180963,2.3871603,-1.680278,1.0793228,2.8696268,0.08136697,-1.1125697,-1.7780746,-1.3190598,0.66472656,0.7642058,-3.6998608,-0.61462873,4.1370344,-2.3246505,-2.9501622,-0.18491198,0.3795123,0.7612569,-2.9674275,0.7461502,-0.7621372,0.1306707,-0.31668517,1.8458929,1.1047974,-1.2147954,1.1784089,1.6872705,1.9272455,-3.8992069,-0.36021826,-4.469298,-0.77297413,-2.4667625,-1.6981281,2.8471525,3.5316532,4.6063476,-1.4560926,-2.2965984,0.82977283,0.19893104,-1.3072481,-0.7000338,-1.8012002,1.6898891,-2.2879088,-1.000499,-0.9545523,-0.34851426,3.3860714,4.575943,-0.3362766,-0.06067638,-1.0989336,0.18871927,-0.65036124,-2.764391,2.1924515,-2.162541,0.9700631,2.518079
SNU-1272,1.0312049,-0.5390296,-1.3308431,-0.8022288,1.9707283,-1.170119,-0.2980359,2.0351396,2.6360617,-0.3143305,-0.4190652,-0.5148834,1.5242583,1.8913043,1.1982588,-0.8298337,-1.3106804,1.9888651,0.9234285,0.7226865,2.152787,0.114626855,-3.1659632,-0.66341823,-0.779563,-0.35598928,1.9637148,1.5673845,-2.2490156,-0.27258572,1.1154138,-1.8574636,-0.91835856,0.15113638,-2.06461,1.8338399,0.33450097,3.7799594,-0.7997542,0.8376297,0.8373183,-0.8789243,0.51030344,-2.3588705,0.7519867,-1.4915595,4.6575184,-2.353761,-1.515557,0.007147312,-1.3228893,0.63711274,0.7456788,0.1888835,0.8872892,0.075730205,4.709057,2.5863318,2.0782566,-2.0539963,3.5726519,1.1146667,1.1807613,0.51848084,2.20463,-1.6432668,-1.8389101,-0.20758307,-1.8405912
U266B1,0.56585747,-0.24676609,-0.69716865,-1.1928787,0.7960557,-1.1526939,-0.64984953,-1.4921216,-0.41668278,0.53028476,-2.0408316,-0.23542672,-0.38078195,2.8289802,-0.72391117,-0.7405702,0.490353,-1.0959226,-0.29177204,-0.918395,-3.7908893,-1.0691125,1.8010864,-0.7637114,-0.5798626,0.093851745,0.014174594,0.44422024,0.54688543,1.481986,-0.63919944,-1.6204658,2.1648138,-0.5035764,-0.96518403,-0.23332578,-1.5131369,0.9416823,-2.3534775,0.28882766,-1.9643962,1.3194072,0.28002056,2.8834195,-0.64680666,-0.10217279,-2.7913058,0.06739357,-0.7615888,0.30976102,-2.1561954,-1.2922893,-0.23675483,-2.374429,0.813697,0.53412175,-0.9304379,0.9313114,-0.16695827,1.0795628,-0.7571418,-0.48279196,-0.9243559,0.7091282,-0.6840576,-0.4200485,-0.16291411,-1.1873719,1.2498097
SNU-478,1.5594735,-0.7431748,-0.32028657,-0.08358262,-0.46604607,-0.557008,0.19484088,0.17587243,0.19105247,0.07022808,-1.3644875,1.8456576,0.7952001,0.56335723,-1.4240364,-0.23044476,1.4371327,0.55317545,0.3775815,-0.96971625,2.9321127,-0.35513383,-0.7334082,-1.2088463,3.1105165,0.5224355,0.17178562,2.6421783,0.4011675,0.027401373,-2.5112078,0.5649612,0.4592265,0.15564896,-0.25021553,-0.8245211,1.1086264,0.9573017,1.603671,-0.4345948,0.7213285,1.5884405,-1.2047572,-2.6174133,0.046806116,-0.2303008,1.0090184,-0.2781535,0.012898285,-0.9184001,-0.21222147,1.4816512,0.4966031,2.1762142,-0.88713455,-1.2056832,2.9308023,0.010203893,-1.2467278,0.10365334,1.19945,0.07397205,0.8655749,0.72108686,1.5305433,-1.160619,-1.070335,0.52184844,0.8386807
MSTO-211H,0.18352622,-1.6841927,1.5440925,0.11309438,-0.44735378,1.0274297,-1.3675554,-0.5696229,0.38367498,0.3073092,0.48567036,-1.1462697,-1.2064546,-0.6773368,-1.1404004,-1.090469,-1.0504055,0.31737816,-0.710245,1.2390774,-0.14807689,-0.07992663,1.8050106,-0.70397955,-1.3607224,0.121255405,-0.8857473,-1.0275257,-0.5673723,0.37649485,1.49134,-0.55039746,-1.0534972,-0.5731263,0.3342881,-1.1212327,-0.883897,2.079974,0.21819462,-0.27980793,-1.0296283,-1.1431825,0.7229476,0.99084437,-1.8953035,1.3491918,-1.9126134,-0.34671494,-0.34925336,2.9023283,0.1441266,-0.511212,-2.960011,0.9959174,0.277424,0.060710296,0.16281138,-0.5063383,0.020967152,-1.6213846,1.2930621,0.17726952,-1.474248,-0.65636116,-0.06430721,-1.0983261,-0.39824086,0.7548275,-0.532594
BICR 18,0.16098548,-0.0021762028,-1.9254915,0.50239307,-0.7466103,0.032629974,-1.7245957,0.23461667,-0.26087943,-0.50214714,0.27635515,1.5968465,-0.21145453,-0.78604335,-0.034036104,-0.21875624,1.3823457,-1.8042158,-1.5294919,-0.8883439,-0.78878677,0.2438616,0.66427827,0.36822143,0.4619882,0.19680816,-1.0073735,-0.34361088,-0.38436118,-1.0197643,-0.8847214,1.4058111,-0.34743208,-2.0820372,1.700978,-0.6577062,0.17062831,1.191071,0.72947794,-2.1866727,1.6824275,1.1972432,0.7160015,1.1240244,-2.5838652,-0.9390448,-1.6278529,1.3579469,0.6527206,1.4870794,-0.0745217,1.1349658,-0.81261754,1.5465593,0.113028206,0.9533284,-2.080249,-1.2697481,-1.8758847,1.0534114,0.10284502,-1.1227505,-0.6329856,0.26997298,-1.1384481,-0.724872,0.59813476,-0.66347843,0.80412537
GDM-1,-0.3672357,-2.4526703,0.80757535,0.9195208,-0.042252485,-1.0479684,-0.7524038,-1.3448826,-0.15223484,1.6519402,1.4318665,0.77633905,1.9810418,-0.3426888,-0.13022463,0.6068138,-0.6763727,0.4530546,0.10282609,-0.99589324,-0.951024,-0.07237786,0.33780992,-0.2924253,0.9503418,-1.5291823,-0.61082757,-2.1033955,0.32752123,0.08069884,-1.37671,1.1403651,-0.13033909,-1.3359097,0.1321224,-0.5587043,2.5928814,-0.5677495,0.54291475,0.028262995,-2.235215,-1.0062039,-1.2504059,1.5360162,-1.7033445,2.1740847,-0.94137806,0.5847486,0.05663371,-0.7257808,0.17568561,-1.5231444,-2.184671,-1.868812,0.66725886,-0.3308218,-1.4824455,-2.1307187,0.27906775,-0.051132657,-1.6345453,-0.8338337,-1.8065397,0.21610443,-0.58191156,0.4113536,0.93105435,0.19389372,1.3904294
639V,1.6943367,-0.4844894,1.4490271,-0.43018875,-0.6882192,1.5262469,-1.2391834,2.0485227,0.9175118,-0.788642,0.71647716,0.5718454,-1.099878,0.7460698,-1.1002382,-0.3619981,0.90019506,0.72913265,-0.028302977,0.1497413,0.99663234,-0.5080736,0.56188035,-0.5084624,-2.5515544,-0.32736132,0.4885537,-1.3970695,2.928163,-1.4125005,-0.31358388,0.88810825,0.45816472,0.3525095,0.9940455,0.11328991,-0.7102608,-0.70082426,0.55606556,-0.13244063,-1.2939317,-0.86556107,-1.6167089,0.99580365,-1.056365,0.8179016,0.20968603,0.46112484,-0.42678553,-0.6864114,-1.1335673,0.21159661,0.803314,0.5708635,-0.6597727,-0.9946411,1.0199757,0.4120074,-0.38808912,1.5989659,1.4751818,0.7861376,-0.045447096,-1.9962275,-0.7404908,0.032202885,0.8245499,0.0030405708,-0.8672025
HOS,0.19797523,0.087835714,-0.9419902,1.2013807,-0.5121526,-0.032502923,1.2366621,1.2581458,0.8877598,-0.7767701,2.022066,0.6817476,-0.050168455,0.6641701,-2.12853,-0.46326146,-0.85172194,-0.13833153,-0.42094478,-0.5688018,0.6083908,0.0076102093,0.7314122,-0.6373698,-1.6431249,-0.31414792,-1.0008078,-1.6983477,2.1314635,-2.5280373,0.8209104,-1.5831851,-0.34434748,1.4007418,1.0918785,0.020477653,-1.0734488,1.0721159,-0.46645808,-0.39294854,0.6261797,-1.8811884,0.67590237,0.52760696,-0.826192,0.18868387,1.4020092,-0.8401353,-0.3778606,1.1588038,-2.0315065,0.5531805,1.3384963,-0.31033435,-1.886345,0.4984247,0.7898459,0.062230445,0.9672469,-0.15478498,-0.4824304,0.59986347,1.9915814,-1.2164117,0.9019654,-0.34858933,1.0392766,0.53140664,-0.3530033
KLE,-1.3968935,1.81613,-1.6495205,1.3915786,0.42727748,-1.5338758,-0.7139828,1.9251003,0.673856,-1.5364027,1.5050017,1.3238156,0.34002933,-1.3300685,2.038236,0.57263184,1.6588584,2.1466925,0.57271993,-2.083311,0.7319219,-0.35254392,-0.16297247,0.55691034,-0.6489389,-1.3834286,-1.0415571,-0.03595296,0.41825214,-0.90124565,1.2913123,-0.22668104,-0.23134217,1.8570517,1.3380444,0.3886302,-0.9429476,-0.8128515,2.013885,0.017447907,0.8124263,0.66760486,1.071226,-2.8742802,-1.2855905,-1.4142357,1.630425,-0.19913122,-2.038177,0.09356086,-0.5903054,-0.30085668,0.73826796,-0.68111396,1.0601103,-0.34711444,0.66735476,1.8859079,2.2120895,1.4398046,0.9735498,1.2389615,2.26604,-0.87076247,1.0618681,0.35907537,2.364007,1.968802,0.25094032
KMM-1,2.8512638,1.9885404,1.8930125,-2.023665,1.0619475,2.061952,3.4267385,-4.7020016,0.58342,-1.5586553,-1.5247308,-3.9415402,-2.70622,1.733936,-0.15038602,-2.6561363,-0.9243983,-1.5942572,-0.053453613,4.4588017,-0.23875831,0.025708482,0.8775943,0.36291736,-1.7694238,1.9033958,0.5310682,6.6895566,1.4302189,0.46039742,-4.9674735,-2.8528254,1.4680094,0.7122513,-2.741799,-0.74407566,1.1279336,-3.3067236,-3.564719,1.2385998,-0.0726299,-0.09155762,-3.7339272,2.4712715,1.5354896,-1.7864094,0.8074791,-0.50592387,0.85500944,0.6878465,-0.50722635,3.9781375,4.6060143,-1.4465787,-1.5047575,-1.7024323,0.0042859204,2.711383,-0.9820759,-0.80391276,0.26895884,1.1397415,2.4274359,2.5604796,0.83803475,-1.0483295,-0.5321776,1.4326088,-2.5846028
KPL-1,3.2790358,0.34872764,-1.9751406,-0.71109486,-0.0549716,1.9142158,0.7911564,2.7688966,-1.2189898,-2.4099119,-0.17091942,2.731588,0.8294462,0.90087646,-0.28752357,2.6788003,-0.79418856,-0.27650934,-0.15681875,0.1214131,0.8508531,-0.90156883,-1.3598218,-0.33740696,2.7318914,0.6988642,0.14574777,-0.16754162,-1.0035931,2.7105384,-1.7347376,2.0870488,1.4047178,0.13481985,-0.44502634,-0.26135278,-1.3005452,-3.3229768,-0.5283345,0.5974377,-1.0210725,2.1323094,0.0640637,-0.6956097,0.7697067,-1.1746287,1.732683,-1.1310037,0.13718203,-1.9428897,1.4185764,-1.073538,1.8248798,2.2037966,-0.36586356,1.7081103,0.96780366,-1.2169362,-0.6864712,1.3360802,2.0599978,1.2004018,1.8557113,0.33386067,1.9429352,4.247514,-3.9424028,-0.39694166,1.0426953
MDA-MB-453,0.106977284,3.9137986,-1.1524299,0.09795654,1.158557,-1.5409405,-0.06652286,1.0032141,-1.9061439,-0.6716628,1.3861573,0.97233677,0.3558926,-1.4064696,0.050064504,1.8756815,-2.1517663,-2.000665,-0.9283322,2.7343364,-1.4951977,0.72037405,-0.27383125,0.6094339,1.4556365,0.8298323,0.36175233,-2.4822292,1.1901593,1.7737107,0.71431446,-0.03321735,0.17101023,-0.44484985,-0.49892354,-1.8251616,-1.6649766,-1.7137681,1.668695,-0.79628605,0.02319232,0.73282,-0.18096775,-1.622189,1.2263341,-0.07600129,-0.74882936,-0.91421336,-0.7053235,1.3232074,2.6577501,-1.2391651,4.514438,-1.5763571,-1.2780025,1.247899,-4.5508184,-3.8944035,0.23528102,-0.4440547,-2.796102,-0.45811814,-0.11606534,-1.4059545,1.9536362,3.0849886,1.2068268,1.0476822,-2.9147234
NCI-H2126,-0.28038597,0.19300476,-1.1480993,0.95682895,-0.078964815,-1.5750927,-1.7217058,-0.9632476,-1.4431361,-1.5378288,-2.7642267,1.8939003,-0.26589435,1.6918572,-1.6183579,2.1756384,0.8904339,0.7548917,0.62740433,-1.0098692,-0.91079,4.28094,-2.6144495,-1.7775772,3.4049501,0.3575152,-0.73475194,-0.4088706,-1.0808722,0.7002319,0.33573198,-0.13546412,1.7266736,0.9285775,0.2984391,-0.18529533,0.82359004,0.21089174,0.9059157,0.23596738,0.23248865,1.5597776,-0.0916625,-1.5285015,0.19966361,-0.25813758,-0.60435253,-2.2603424,0.26326895,-0.7642545,0.1515382,-1.990366,-0.59361446,3.2536347,0.36084557,1.9065087,-0.7471782,-3.0508802,-0.92678285,-0.48048532,-1.0523564,-0.9381118,-0.8018503,1.7698526,0.5725049,0.035295695,0.94861645,-0.19578105,-0.10430667
RT-112,0.8818892,-0.116161905,-1.5851659,1.0480037,-0.11568258,-2.0695617,0.2282112,0.23709682,-0.33571976,0.0064296313,0.7480951,0.00402835,-0.17551476,-1.6356994,-1.788872,0.7274169,2.5152867,-2.403367,0.13361105,1.1357435,-2.2950773,1.4596467,-0.63483083,1.0322568,3.6451976,-0.9637195,-1.4930959,-1.2914904,1.8147612,-2.3160295,0.24522707,0.79807806,-0.876113,-0.65529984,1.8525103,0.51161826,-0.9278091,0.26500347,0.49847642,-0.63949454,0.18693447,0.8825936,1.6291589,1.5100129,0.593836,1.2538518,-2.3593895,-0.0815911,0.99266994,0.28920588,0.42889428,0.4270953,0.32218403,-0.54729116,-1.0537173,2.1031802,-2.1455083,-0.877259,0.5580152,0.103903025,-1.5073006,-1.8789138,-1.1965615,0.072929576,-2.1262019,0.8843531,2.2277238,0.24321091,1.2194372
SW620,-1.4996965,0.458305,1.1568058,-0.2712308,2.466062,0.04247333,-0.93039,-0.10793993,-0.21210779,1.2014492,0.6533183,-1.5189762,1.5531528,-0.26088735,-1.043435,-0.90369165,-0.09606649,-1.6428993,-0.52048904,2.6540513,0.31542504,-2.1731153,0.71440053,0.04313214,-1.1423621,1.6918546,-2.2861226,-0.3423974,0.060579818,-0.57495344,-1.8678198,2.746166,-2.5287023,-0.0027470328,2.0914173,0.48558912,2.3621075,-0.34171492,0.09343635,-2.0047157,0.9289611,1.3938769,0.55105084,1.6510535,-0.61526716,-3.0388565,1.9289968,0.17954664,-4.07162,1.2817992,-1.9374454,-0.41074836,3.7124748,-1.2389172,-1.4960794,-0.020912066,1.5929838,2.8498054,0.677209,-0.12570485,0.3142736,0.90839076,3.7653842,0.72606945,3.141138,-0.62726396,-1.5450845,-0.19117081,0.37927306
TE-8,0.27549428,0.6238441,-0.9770428,0.66170454,-2.2236598,0.66031915,-1.0105973,2.0044384,-0.40304062,-1.0528835,-0.09483142,1.1716737,-0.9800358,-1.4728211,-0.36542764,-0.32409188,0.87769085,0.045668907,-1.340166,-0.54793817,0.62220734,0.7755063,-0.4558878,0.24126789,0.39411172,-0.8371879,0.3439226,-1.82151,-0.21086113,-1.1192265,0.9774358,-0.05435442,-0.6091691,-0.20407322,0.638344,0.3794275,-0.4927257,0.38174403,0.27535328,-0.40709004,-0.6444354,-0.13836652,0.5579041,0.0042781513,-1.6116768,-0.40242437,-0.13021578,0.7771477,1.35267,0.63962525,-0.23616701,0.08088806,-0.033042856,2.0681498,-0.65419745,0.38475448,-0.08471727,0.097696126,-0.20935766,1.1622683,1.6469233,0.08130284,0.22786178,-0.36537874,-0.42751774,-0.797253,0.77834255,1.2210298,0.26676977
EHEB,-0.62900835,-2.2515874,-0.1439262,0.7380143,1.2983974,-2.5719543,1.1922256,-0.70130694,-0.38797873,1.6701496,-1.2719542,-0.44115603,1.5142735,0.54710585,-0.7092853,-1.5933622,0.4045881,0.67568743,0.33021948,0.063501135,-0.8959032,-0.4691421,1.3180047,0.32175234,2.2324202,-0.009858302,-0.5415022,-0.29569194,-0.56164587,2.6639419,1.3165416,-3.5897162,-0.13871212,0.2933989,-1.2132319,-0.7604494,0.25359982,2.841519,-0.8722881,1.8754393,-1.5055393,0.9635827,-0.4111382,-1.286613,-0.999862,1.2535417,-1.4387728,-0.95700645,-2.1407714,0.5044362,-0.85673505,-0.31456003,-1.5764658,-2.8465447,0.48256475,1.720341,0.42489618,0.11093104,0.84920883,-0.1868703,0.70193475,0.8065601,-0.73486,0.8403409,2.2629414,-0.781912,-2.2715423,-1.8454072,1.0146735
LC-1/sq-SF,0.08128052,0.29880032,-4.1504765,-2.6055775,-0.2754227,-0.6146797,1.151872,0.12783496,-1.133804,-1.1602696,-2.0098538,1.9222009,-1.4304025,-1.2260523,-0.06533609,-0.490726,1.2348374,-3.0539765,0.6380819,0.978769,-1.7625241,-0.21857888,1.2920591,-2.3778791,-1.1381222,-2.0844188,-1.439407,3.9420893,0.9441862,2.3105915,-0.9503085,1.2332127,1.8163549,0.4987124,1.0352143,1.3836836,-1.7358748,0.16921565,-2.0487823,-2.7751832,0.14755389,-2.0113413,4.2612762,2.8435078,-1.4831134,-1.7161664,-3.8185663,0.36131096,1.5953251,-0.82915306,-1.3931527,1.4631624,0.48358434,2.588478,-3.05798,-2.8412724,-3.7098863,2.1493363,0.61580324,-1.3616366,-0.9699519,-4.201685,-0.123683214,0.6500664,-4.3153105,-3.0586295,0.7468654,1.9976637,1.9506184
Mono-Mac-6,-0.94797516,-2.9084706,-1.343269,0.8790022,0.28810167,-0.9137087,0.4693055,0.18413375,1.7906331,1.279498,0.3966384,2.7977316,2.9823673,-0.5604927,0.5212438,0.3351326,-3.0359526,-0.4867842,-1.0629956,-0.89091235,0.23518755,-1.7319831,0.77745736,-0.27603945,1.1596242,-1.6258473,0.95730317,-1.1459554,-1.3546791,1.0337561,-0.16968437,-0.3836277,0.27984285,-2.2981179,-0.48063803,1.1081889,1.5861506,1.7388625,-0.02928149,0.038716637,0.46828398,0.0018472346,0.86470145,-0.17519017,-0.95718545,1.8099294,0.52191585,0.30889902,-0.39293242,0.45392507,-0.07418068,-2.0525763,-0.49235767,-2.2732887,-0.85202324,-0.8720768,-0.6729119,-0.66091675,0.5312468,-1.2914032,-0.61899686,-1.4585696,-1.4932351,-0.5404369,-1.1138854,0.46168754,-0.6147393,-0.472504,0.367486
SNU-213,2.3761108,-1.6894839,-0.70204455,-1.9044178,3.2055707,1.6408658,-0.22600093,1.5726906,-0.6735208,-1.5389704,2.821854,-1.2252676,1.0108819,-0.12574703,-0.09719522,0.8862702,1.0915508,0.41768274,0.5338786,2.5550642,1.2552193,-0.45301962,-1.9494689,0.62006944,3.1241112,1.2639998,-1.1980253,-0.1303508,1.4167209,1.2866687,-3.4218836,0.6244987,0.37697807,2.018957,-2.8471131,-1.653494,-2.8298655,-0.21775228,-0.3749448,3.3771913,0.8095134,0.43815938,1.3177761,-2.3409648,3.3962278,2.2310193,-1.5740222,-0.32698935,1.9413798,-0.38880232,0.84141505,2.1596549,-1.581436,0.42055765,3.785734,0.6978916,2.0614872,-1.6557707,1.5060933,0.4810318,1.8865561,1.4129864,-1.2936541,-2.7146,-0.49806792,4.653516,-1.372388,0.42626074,-3.3322823
Hs 274.T,-1.3776307,1.6180186,-0.76124704,1.5437729,-3.0097811,0.5504526,-0.16471224,2.1273928,-1.3364624,1.482483,0.6491834,-0.057365224,-0.5813304,1.0411502,-1.6545292,0.37261915,-0.49885124,1.1889536,0.3798232,-2.7795365,-0.2532523,0.42649004,-0.25386146,-0.2418721,-1.2254224,-1.7547728,-0.74963856,-1.0605576,0.90917736,-2.0422559,0.9470263,-1.3436772,1.024061,2.1530159,0.7100282,-0.40894845,0.08117946,-0.2752937,-3.7945104,-0.66329217,-1.9593991,-0.8264949,-0.80747104,0.14408067,1.8503802,0.39792314,-0.051971197,-0.8637414,1.6788157,-0.46826124,-1.5407742,-0.5361557,-0.39414814,-0.059425026,-0.57970214,-2.467082,1.301092,1.0681545,1.9465669,2.5815423,-0.77593225,0.43590218,-0.15700504,-0.20920238,-0.2590994,-1.4254215,0.9791136,1.079056,0.34908003
NCI-H510A,-0.47593927,1.3231609,0.17652729,-0.37498555,1.0754427,1.141017,-1.8554692,1.1061008,-0.7770455,-0.5362894,-0.46014136,0.35569242,1.7451485,1.885551,1.3675712,0.6568366,0.7728656,-0.35205373,-0.2232558,-1.26101,1.9115832,0.15851648,0.47632745,0.5256928,-1.5173026,1.5111719,0.14422779,-1.1600865,0.22956729,0.7603205,-0.80718625,0.7504026,1.7939095,-0.47551715,-0.21718252,-0.122191735,0.28978848,-1.7228246,2.0945613,0.4568586,1.1510047,1.3053014,0.5460705,-0.28000766,-1.4492575,-0.85255396,2.3787,1.1563047,-0.82331395,-0.24459735,-1.0320036,0.20293412,0.48583642,-0.5272952,0.43901774,3.6228428,0.20646685,-1.1446228,-2.7254841,0.8072925,0.834316,1.2861636,1.362212,-0.20857838,1.9068118,1.4696379,-1.9770132,-2.442999,-1.8625911
GSU,-4.0277243,-0.3399989,-0.6420709,-0.7686573,1.8206244,1.6420102,-2.1789722,0.3726842,-1.7550923,2.2421935,-4.004336,-1.685314,1.1888748,2.3607826,-1.6760741,0.82098657,0.5424181,-0.293535,-1.760466,-0.44007415,-0.08490903,-0.7682686,-1.5684919,-2.3493104,0.7553241,0.85358274,-0.69380486,-2.329393,-0.17169383,0.81608945,-0.92604095,3.0105367,0.7370495,0.3848087,0.14201808,-0.99123335,1.9097865,-0.2624282,1.4174191,-3.1906154,0.4096579,3.8456469,0.48642108,-0.6813011,1.8629087,-2.1323192,-4.797725,0.53789604,-0.28769895,0.092052594,0.12993899,0.07821741,1.930736,0.744743,0.5994903,-2.0724976,-0.018424168,-3.2590034,0.49471852,-0.123169735,-1.6963508,-1.8278499,0.8078029,-0.7823831,0.3250496,-1.6581014,-0.2607739,0.46500334,-1.2856432
NCI-H1792,0.27213514,-2.970064,2.242015,0.7597654,-0.42735273,0.6367802,0.23172057,1.1589931,0.46041468,0.25986686,2.7075078,0.022869462,-0.71453553,-1.3464204,-1.4546101,1.4989371,0.7432012,-0.36495873,-0.024743453,-0.83057076,-0.22728212,-0.9676817,-0.17015025,1.0300081,0.2740244,1.6964816,-2.2139044,-2.3168216,-1.0192173,-0.77563065,-1.9098451,0.6821053,-0.68984276,0.9405147,2.0394363,1.4352769,-1.206409,2.369669,0.0064202277,1.668585,0.26657677,-1.8011506,2.3209786,1.3206452,0.55879533,1.901375,1.2181625,0.34085613,0.06817612,0.8854633,-0.16983148,-3.1264534,0.15154396,0.8090957,-2.6483388,2.6540298,2.930993,-1.3859093,0.11045291,-0.3007839,-1.0855813,0.68263555,1.4762223,1.233085,0.02383954,2.4007223,-1.2170159,-0.95756835,2.0557432
SNU-C1,-1.7645432,-1.003855,-2.1265414,-1.0848228,3.1133237,1.9480411,-3.7413323,0.9108668,-0.5210877,-1.8042514,-1.9870737,0.37422147,1.8642055,1.8696487,-2.7624197,-0.035067238,-0.33815968,0.63103247,-0.11425025,0.72779214,0.7931895,-1.8608953,0.09366457,-0.52867156,2.3277097,0.65793484,1.2793796,0.85513234,0.03471081,1.3806844,-4.200296,2.4471138,-0.08905877,0.47489244,0.072992064,3.029631,1.9916074,-0.2654204,-0.72276276,-2.9839413,1.5645597,3.609783,-2.3960993,-1.7396477,0.11560598,-0.65645814,-1.7147096,0.5123718,-0.2512992,0.5486103,-0.7149162,0.03685309,3.0071008,0.50738513,0.330545,-0.3697631,1.4419338,-1.0358151,-2.69249,2.0155272,3.6891465,0.91192526,0.22474381,-2.1752,0.4710908,0.032279253,-0.85573,-1.1938256,-1.8283184
NCI-H929,0.35103276,-1.2411201,-1.3609948,1.2339344,2.0843036,-2.381635,0.10574353,-1.8527462,1.7041577,0.9831967,-2.3795767,-1.0154091,-1.0476921,5.0139446,-0.3896382,-0.49671245,1.312427,-0.54647416,-0.51051986,-0.8310257,-4.1093006,0.52639496,2.0179753,-0.7609683,1.106045,-1.0849144,-1.0408702,-0.24900605,1.2210139,-0.16275904,-0.6527142,-2.2697906,1.3782438,0.34821135,-1.5287901,0.12705684,1.1908101,-0.024810722,-2.2038002,1.076743,-1.8052946,0.9493372,1.1546915,1.7730652,-0.5535072,1.1875916,-3.3971076,-2.049137,-0.82499945,1.5831811,-0.95564044,-2.772315,0.8226161,-2.6716373,0.6663934,1.9799144,-1.5090034,-0.074023746,-0.47840038,1.254565,-2.189547,-0.77656007,-1.169873,-0.71652234,0.27718943,-0.50631464,3.0372334,1.6013904,0.023133494
TT2609-C02,-0.14546788,0.8247683,2.514938,-2.1406553,-0.6113293,0.8756616,0.82176584,3.1901276,1.2631478,0.41517448,0.57448786,-1.8070238,1.7741125,-0.9904257,1.412029,0.26094988,0.24283943,0.80066335,3.923154,-0.46912932,1.8295043,0.47458842,-0.4694811,1.5404633,-3.8289273,0.33838582,0.6823737,1.6905016,0.88147897,1.3815122,-0.2665963,0.05699898,0.30919462,-1.348344,-1.6909628,0.13598832,-1.4863317,1.3302363,0.60652244,0.42851546,0.6819223,-2.2284176,-2.0114236,-1.1780882,0.568719,3.0719812,1.092456,-1.3295814,0.84268475,1.1565762,-0.14094098,1.4016293,-0.3776674,1.594665,0.7700439,-1.2829115,0.67853194,-0.8618192,-2.1333656,0.29041997,1.5653259,-0.9765787,-0.590822,-1.6750647,-0.12809113,-1.9833329,0.64422417,-1.2098267,-0.998645
FU-OV-1,-1.1029736,-0.278151,-1.5460634,2.2782059,0.6707159,1.4171662,0.23063473,-0.77877784,3.6688094,0.32450122,1.0203454,-0.24273038,1.4074094,2.6481242,1.7331734,-0.68434304,-0.83610696,1.2193403,-1.5911431,-0.42744693,1.1240628,1.2519991,-0.7229021,1.040372,-0.0910812,1.648007,3.9886043,-0.8765788,0.37008077,-1.7932569,2.2540221,-0.5048945,0.09037139,2.162221,0.95316756,1.3011625,0.16220441,0.1932485,0.56855017,2.7282832,3.384376,-0.25664532,-0.92939675,-1.3832885,0.7475987,-1.3634082,4.0262766,0.6559928,0.48090202,-1.2296612,-0.3399419,-0.18386619,2.0600607,-0.4948641,1.7759211,0.062663615,0.69202566,0.34196058,0.003869135,0.082012445,1.4942011,1.6944815,0.8822483,-2.234798,0.31655917,-0.20898642,2.143884,0.5517925,-1.9238546
BJ1-hTERT,-0.5600064,0.9104679,-0.29421175,1.5380836,-2.937527,0.03950298,-1.6387906,2.581435,-1.1674236,0.6816183,0.6800721,1.1776311,-1.3125262,0.058892686,-1.4790915,0.12706974,-1.7067183,0.8826061,-0.14216131,-2.0023584,-0.3608449,0.7875029,0.18067327,-0.26597977,-0.19456671,-1.7535855,-0.6663161,-2.6231527,0.12846808,-1.8374933,1.5113506,-1.2781256,0.19623849,0.40294945,-0.2039335,-0.6786668,0.33071893,0.56525195,-1.5219384,-0.48437783,-2.5326595,-1.578419,-1.3105694,-1.3051103,0.1628202,1.314104,0.5457251,-0.84653616,0.8671392,0.58288217,-0.9474446,-1.3385447,-1.0274225,0.39103752,-0.14215438,-0.8441316,0.36962613,0.018372484,1.0107949,1.6078345,-0.13728426,1.502827,-0.52336663,-1.4248263,0.49628833,-0.820739,1.3112798,1.039912,0.18388706
RERF-GC-1B,0.55601406,1.4773251,-3.8582697,0.33515847,-0.5140045,1.1537852,0.86498314,2.35008,-0.27592105,-0.0434047,1.7313743,3.0867403,0.7905626,-0.7287257,-0.5047436,1.1177018,-0.17008689,-1.4675412,-0.8948893,0.7457241,-0.8983321,-0.3420641,-1.0223631,0.5847669,1.1298009,-1.3935695,1.6142789,-1.2487941,-0.41891268,-1.2825968,1.0167365,-0.33784062,0.37781614,-1.2926879,1.589022,-1.4810268,-1.9079798,-0.85000294,-0.36607,-3.7591305,0.86446786,1.2767633,-0.7786002,-0.9986844,-0.72204405,-1.1466646,0.6717433,-0.6537163,-0.21610892,1.9136449,-0.2095289,1.4974297,3.7726786,0.955228,-0.31367826,0.48124492,-2.051004,-2.3539526,1.4460136,2.3506594,0.3350664,-0.5171666,-0.31411317,-0.9983643,0.86529917,-0.91847473,0.5333961,0.41796732,0.90909815
RERF-LC-A1,2.100529,-0.5362193,-0.65718883,0.96288913,1.2073972,0.5048552,-2.7805574,-2.6584618,0.3081143,-2.1522565,1.4329485,0.04998398,-1.1614709,0.065883294,-1.1133261,-0.6744476,-1.6803079,1.472669,-0.764963,0.3149252,0.78052616,-2.4643016,3.1113155,-2.4406147,-0.3152825,-0.7981583,1.9081974,0.25520518,0.94187045,0.69042206,1.1172659,-0.10049501,-0.46538237,1.509037,-1.6501254,0.5848327,-1.0624864,0.7326984,1.5826939,-1.207248,-1.7053776,-1.8891124,0.11360468,0.09018362,-1.6043979,1.2749159,-1.3569708,0.21765338,-0.5644687,1.9581255,-0.044035107,-2.1012542,-2.9824517,1.5818379,0.41785365,-0.13994493,1.970174,1.7199976,-1.2308015,-0.24897888,2.7638571,-0.42262048,-2.4606488,-1.8712614,-1.1332338,-0.34668013,1.4134727,2.9576945,0.4068153
Ishikawa (Heraklio) 02 ER-,-0.934506,1.429222,-1.5081992,0.6677884,-1.1241132,-0.4732672,-2.239111,0.14255321,1.2405527,0.23553342,-0.5121761,0.7968738,-0.13779531,-0.05823408,0.40798733,-0.6242586,-0.21056494,1.6594265,0.60558486,1.424367,-0.06291454,1.4360482,-1.4922483,0.8089355,-1.1632081,-0.55417746,1.8673649,-1.0057548,1.694831,0.066842645,3.2686067,0.17306374,0.12686405,-0.87306154,2.479028,0.4955446,-0.9760285,-0.33452332,2.3235862,0.5269928,0.9200968,0.6521295,-1.5001506,0.80240893,-2.4988222,0.19896528,0.17840415,0.877821,-1.4778476,0.9819137,1.0437744,0.7133277,1.5299182,1.4439509,1.0003912,1.3669531,-1.9193844,-0.5834764,-0.67690897,1.0956402,2.6348765,-1.2025223,0.00077984645,-1.1240126,-0.23256998,-1.4053628,2.022558,-0.8952725,-1.1568722
KMRC-20,-2.7964468,-0.42113703,-2.134478,-0.7055904,-0.4298871,-0.121215604,-0.73589456,-4.1067157,0.426031,3.0766768,-4.3152394,-3.0950873,-1.8033912,2.694571,0.07554093,-0.22854891,-0.7045064,2.7293239,0.4294106,-1.1980131,-3.2007482,1.9995357,0.9757809,-2.4303257,1.3568121,0.04121253,5.715682,0.5723951,-0.9475389,-0.017213479,2.8007672,0.12667845,-0.6658033,0.002726823,-0.7142663,1.4236071,-1.1055961,2.445603,-1.22762,-1.6640168,-2.0973473,0.33343634,1.1298031,-0.322223,1.2983965,-0.7318938,-1.2364383,1.291272,2.186751,-0.86051,-0.30311683,-0.48596948,-0.26562274,0.6678297,1.9586123,-1.4452318,0.13796291,-0.83795506,0.7731851,-1.6689674,-1.4554715,-1.8891848,-2.2755058,-0.06729627,-2.019417,-4.119079,2.846511,1.2213742,2.6024668
MHH-NB-11,-1.2033937,0.46102148,1.7736572,-0.521943,-0.3568596,2.3474646,-0.64189315,0.5973177,0.68420535,-0.22715336,0.4445136,1.5262184,1.0071733,1.2408062,0.7864843,-0.95389396,0.19688724,-0.6511928,1.0557443,-1.0838972,2.0394313,0.6639262,4.7573586,-1.2024186,-2.3907478,1.113749,1.6442509,-0.31862193,1.1761851,0.40126368,-1.5280945,-1.4071299,0.934989,-0.5881899,-1.6400077,-0.6183942,-1.1055214,-2.2506142,0.2511076,-0.13764004,-1.0639697,-0.524823,0.03774297,-0.46770525,-1.8788186,0.2693378,1.5300449,1.6072543,0.9526395,-1.0681821,-1.1369269,-0.36160222,-0.5079978,-0.2722605,-0.06307037,-2.2878792,-2.21578,-1.0918883,-2.3412108,0.42147458,-1.746655,0.2753819,-0.4872615,-0.035774373,-1.5676085,1.1086116,1.96398,1.973914,-1.870053
WM983B,-0.30277058,-1.5434864,-0.71253043,-1.1108781,-0.3816912,2.4099119,2.0856903,1.1461465,-0.022150848,0.16872926,0.53355825,0.759305,0.77929324,1.394585,2.3831978,-0.14970285,-0.102625966,-1.6029981,-0.4291004,0.23566107,-1.0248979,-2.6146812,1.0327396,1.2442168,-1.260497,-0.792349,2.2886634,1.0651191,-0.50592446,-1.2244399,3.0908098,0.26029128,-0.7428714,0.5210836,0.54718804,0.96628064,-2.6649125,0.72902066,-4.3244333,0.44561714,2.1250813,1.5615894,2.125243,0.4520487,2.1818938,0.6039263,-0.15291448,0.3297098,0.130651,-2.9040964,-0.26032257,-0.9285712,-1.5024263,-2.8027499,1.7248771,0.26340902,0.07330725,2.18495,1.1132472,-0.22625552,-1.2555989,-0.5386237,-2.2486022,-0.67811817,-3.0030043,3.1706543,-0.7776793,-1.6260372,2.0831053
SNU-503,-0.66891134,0.5309871,-1.8837423,-0.091872685,-1.0540609,0.10067925,-1.9581007,1.1661708,-0.5149413,-0.4334332,-1.2948748,1.8933092,-0.89657944,-0.35342807,0.65944386,-0.55850863,2.0991738,-1.4413142,-1.6288663,-1.6893847,-0.39919913,0.26343465,0.090166785,0.23021652,-0.50190985,0.06851874,-0.86577094,-0.5313795,-0.08723615,-0.61380976,-0.7822427,1.078287,0.9679718,-2.3653982,1.9995438,-0.41864997,-0.23602727,0.6335727,0.7483377,-2.1077015,2.465795,1.7943124,1.290995,1.1643786,-3.44251,-1.4317081,-2.1550863,1.9729763,1.3859938,1.2864851,-0.69323325,1.7998375,0.043593183,2.1730974,-0.18126929,0.5864958,-2.6553376,-1.6141096,-2.0775018,2.1800334,8.251704e-05,-1.858022,-0.21078491,0.8003126,-1.4466568,-0.7828318,-0.055943295,-1.398244,0.49050772
JHOM-2B,-1.0427341,-2.0110247,0.47190794,0.0009396784,-0.6461491,0.25667834,0.6523694,1.8491265,0.18973401,0.6566279,-0.659008,1.8870307,-0.19690087,0.4997584,0.50304514,-0.12948562,2.1327226,-0.79977614,3.057375,1.2662007,3.240269,-0.66377443,-2.4885936,1.0046622,2.934429,0.6005212,-0.07895517,1.9269409,0.31051213,2.879724,-1.5209624,2.161195,-1.1359377,-0.9642959,2.750914,0.39054066,-0.82500094,-1.1150264,1.6307378,0.19693565,2.6463373,2.8367698,-1.651684,-2.4467723,0.9877379,-0.05382876,-1.074989,0.5679573,0.111150816,-1.1165175,1.0393353,0.6506026,2.3945606,0.59278375,1.9703778,-2.2649345,1.168231,-2.1294491,-0.40591654,0.44268438,0.74300385,1.3513498,1.9455163,-1.9827348,1.7606745,2.885232,-2.6673145,-3.7093,-0.60783345
