,E0,E1,E2,E3,E4,E5,E6,E7,E8,E9,E10,E11,E12,E13,E14,E15
UACC-62,-2.397326,2.0761192,-0.70294285,0.6483866,0.06884849,2.5104556,-0.021131173,1.1377579,-0.6453733,-0.6307719,0.7852212,-3.4220026,0.9650445,2.1861067,2.1213503,-0.41501603
KYSE-510,0.06477139,2.2247198,1.3742807,-0.073295236,-0.124103814,1.3887649,-1.6129442,0.49217907,-1.6407493,-0.8522438,3.5558264,-3.385722,-0.44380927,0.0022219825,-0.17059194,-4.9055405
NCI-H250,-1.5429069,0.59292126,0.12784082,0.7378988,0.89786774,-0.023442255,0.2002543,-0.03274118,-0.42381173,0.52464384,-0.8136513,0.3265356,-0.279947,-0.4908516,0.4771999,0.46729937
K-562,-1.2293143,0.99655443,0.96157867,-0.79270166,-0.28350604,1.0566835,-1.8152494,1.807277,-0.44813317,-1.8389157,2.0622032,-2.4326668,-0.44268024,1.2755159,1.8052237,-2.4655259
COLO 205,-1.4073673,1.5154681,-1.6162405,0.5162564,0.1401802,2.6267593,0.9631196,-1.1128684,0.2895474,0.2238861,-0.17287703,-2.0982518,1.5988853,1.2259102,0.7172384,0.8946112
SW1417,-1.6726425,1.6958169,-1.0273943,2.324695,0.7821269,1.3278822,1.6064752,-0.50643694,-1.5185246,1.162182,-0.6772759,-2.1918585,0.7773211,0.2830477,-0.0066623203,0.73563254
SK-CO-1,3.6485589,-2.1281471,-2.313674,0.005803264,0.68209064,0.32146603,1.6352687,-1.62447,0.7688581,0.9041163,-0.43083254,-0.9869423,1.5210625,-0.11001441,-1.9803001,2.1804554
HTC-C3,-2.0874481,2.1642098,0.21355245,-0.6546893,-0.6026614,2.5847597,-1.1544355,1.3175609,-0.14285077,-1.5630469,2.1588242,-3.2267118,0.6058731,2.3467472,1.731272,-1.9714856
T24,-0.8980708,0.23241983,0.45095962,-0.07269517,-0.004463941,-0.049234353,-0.74820834,0.081739195,0.1207348,-0.28352562,-0.050362557,0.39355177,-0.45089456,-0.31589046,0.3729956,-0.24553002
NCI-H1437,-0.80781543,0.97847474,0.724264,-0.76490855,-0.2755952,0.96128106,-1.8980813,1.8385929,-0.28223562,-1.7259458,2.0295045,-2.5312183,-0.4494364,1.3054575,1.5941976,-2.5466242
A-704,0.08772798,-0.5857716,-0.10956788,-0.4964282,0.12939517,-0.008168317,-0.46487498,-0.032558907,0.42050526,-0.37571624,-0.014638571,0.09260372,-0.20233917,-0.12958114,0.06534773,0.28465658
SK-LMS-1,-0.7662498,0.18219234,0.43258733,-0.111134395,0.23961118,-0.039365914,-0.5813474,0.24489707,0.11278592,-0.31859475,-0.061204456,0.45423657,-0.5406214,-0.3287742,0.29585052,-0.37340403
EB2,-0.9407108,0.25353467,0.489568,-0.054777242,0.26751256,-0.021067176,-0.6008421,0.19615035,0.08255868,-0.23076172,0.024862304,0.41114116,-0.51903313,-0.2958973,0.7888983,-0.19885147
KYSE-410,-0.11724213,-0.38084722,0.103844054,0.6020267,0.6422014,-0.71027875,0.1434847,-0.49411094,-0.17792223,0.73062176,-0.8618575,1.1823157,-0.42759845,-1.0873969,-0.4118465,0.6503847
SK-MEL-3,-1.7772355,1.2731246,-0.3392848,0.045866877,-0.42400146,1.6202348,-0.20747206,-0.3855665,0.30873555,-0.19128178,-0.024536766,-0.7291803,0.4525865,0.5604752,1.1291072,0.18767476
HSC-2,-0.3647196,2.2053356,1.3913399,-0.052891843,-0.02077369,1.3910066,-1.5174248,0.59701127,-1.8866649,-0.85710835,3.5770614,-3.0869842,-0.5376644,0.046682093,0.09431481,-5.031715
CW-2,0.10609889,0.7271054,-0.80614954,2.0213592,0.6465997,0.15570447,2.0264463,0.21103781,-1.8053235,1.3038957,-0.37045717,-1.9231534,0.8694925,0.78168726,-0.57388145,0.72614485
697,0.33260167,-0.5682894,-0.10748969,-0.4640168,0.22758803,-0.13530652,-0.24361406,0.011841905,0.50508064,-0.3774356,-0.02545115,0.09878361,-0.09106693,-0.13975924,0.18481116,0.15485029
NCI-H1299,0.3826454,-0.5659219,-0.108232595,-0.2733418,0.2082374,-0.096390724,-0.6793649,-0.022399053,0.5266144,-0.41775548,-0.0122199105,0.096152365,-0.004702814,-0.12412667,-0.13788098,0.100813925
SiHa,0.10388208,-0.6003801,-0.10531549,-0.38244075,0.17611913,-0.01292499,-0.49565858,0.20311034,0.48597765,-0.3763776,0.0312334,0.094996095,-0.036496863,-0.09168481,0.31080335,0.048827186
CGTH-W-1,-1.0831894,0.9673077,0.87423766,-0.8522957,-0.28132722,0.97090536,-1.8748367,1.8702372,-0.36629584,-1.7515008,2.1476166,-2.4805498,-0.3737241,1.2395301,1.3829732,-2.0769103
Lu-165,-1.0250218,0.23834163,0.45656347,-0.13319153,0.06997325,0.025462054,-0.64774317,0.21987393,0.10894015,-0.25462347,0.031087317,0.43969902,-0.47658747,-0.330735,0.8759343,-0.29851052
ESS-1,3.2082288,-0.58431846,0.9045956,0.37061316,0.6138001,-1.5233155,-0.04305321,0.042611532,-2.1415515,0.78897524,1.9051231,-0.7380091,-0.98058695,-1.2582463,-2.2956471,-3.049376
NCI-H720,-1.0296255,0.22093694,0.5026532,-0.20033288,0.15104294,-0.041745834,-0.6646163,0.18731701,0.11513111,-0.27997398,-0.05773884,0.42083514,-0.51189303,-0.34070486,0.5906624,-0.5333001
CCF-STTG1,-1.3979152,0.39231893,-0.111237586,0.7116483,0.18987986,0.11207118,0.13879094,-0.17322329,-0.25313213,0.5212766,-0.8441442,0.17675123,-0.12110853,-0.3125409,0.4588215,0.7776832
TGBC11TKB,6.6328993,-2.0484688,-1.3078779,1.416082,0.803523,-1.4902214,2.7072058,-1.8493274,-1.6206372,2.4812279,1.1104434,-1.1374189,1.2252862,-1.4210727,-4.16827,-0.65124774
HCC1954,0.19777195,1.2895292,0.38818538,0.5027085,0.64342827,0.45760742,-0.5212287,-1.2896838,-1.2182182,0.18147066,1.3491611,-0.39220992,-0.6805422,-2.1608667,-1.4348314,-2.6721811
MRK-nu-1,0.13103922,-0.6048751,-0.10669264,-0.36673766,0.108258516,-0.055087566,-0.43976283,0.024243264,0.48917988,-0.34913176,-0.06932962,0.09260534,-0.13615125,-0.11030574,-0.019326389,0.3098417
SJNB-7,-0.918984,0.28366077,0.5267846,-0.08621618,0.06836672,-0.047642194,-0.6285675,0.22952619,0.0925136,-0.34470695,-0.044923503,0.42112693,-0.53674686,-0.32923517,0.29349816,-0.30329537
HO-1-N-1,-0.8672368,0.21919878,0.526259,-0.1293257,0.071525134,-0.057947636,-0.83225125,0.23948163,0.11397718,-0.27936321,0.05203233,0.43985602,-0.48465768,-0.32966974,0.6963841,-0.35230294
SW837,5.357704,-2.9384005,-1.384298,-0.089750044,0.18103096,-1.7982848,1.9921468,-0.45495844,-0.1477861,0.65587807,0.18672438,-0.5265092,1.2932571,0.2523989,-2.8474073,1.2381128
D-502MG,-0.778275,0.20394942,0.28759357,-1.0349345,-0.026249662,1.0048542,-1.8372006,1.6408638,-0.0034147874,-1.9493146,2.2221096,-2.7164612,-0.1431477,1.3413975,1.4021797,-1.7820199
Lu-134-A,-1.5758355,0.5312974,0.11842026,0.84084386,0.42517343,-0.03984814,0.10378136,0.05484419,-0.44726107,0.6157441,-0.8161748,0.36567974,-0.28944254,-0.45217317,0.48993254,0.46324727
SNU-387,-1.2231207,0.97786695,0.8299402,-0.87155366,-0.2797191,0.9326989,-1.8529724,1.8923548,-0.29963762,-1.7283524,2.2714276,-2.454323,-0.3327166,1.3202391,1.0115867,-2.4079638
LP-1,-0.92363596,0.20911977,0.45261827,-0.012739621,0.1511404,-0.025772773,-0.6650865,0.14185253,0.110699885,-0.27249432,-0.038754236,0.42043003,-0.4697183,-0.30215192,0.4493403,-0.37891063
SK-HEP-1,-1.349386,1.4891528,0.57768446,-1.0044893,-0.7917764,1.6471874,-1.5190201,2.4723036,-0.39810747,-2.169892,2.5908563,-3.7291236,0.43269676,2.6294107,2.265839,-2.590447
GOTO,0.14001381,-0.579358,-0.10757265,-0.3447323,0.181894,-0.03221376,-0.3977774,-0.0015006773,0.419701,-0.32028162,0.020187423,0.09510879,-0.040333893,-0.06793137,0.1673894,0.3669818
H4,-1.8835152,0.9179469,0.16395152,0.5268744,0.52317184,0.9001625,-0.5962731,1.6649117,-0.8088194,-0.74646264,0.8034614,-2.5215378,-0.0377601,1.2045835,0.92280054,-0.820883
786-O,-1.5782839,1.440566,0.52307814,0.61119646,0.10257547,0.728402,-0.41466254,1.9800038,-1.2157816,-0.87672967,1.1098186,-2.365857,-0.16091223,1.2820145,1.4523242,-1.3848821
SW1710,-1.3983082,0.98072684,0.782574,-0.77837425,-0.27710766,0.9921409,-1.6868606,1.8719753,-0.41791788,-1.5767567,2.3008158,-2.3380225,-0.44219807,1.2551228,1.5379701,-2.4752955
ChaGo-K-1,-0.9869912,0.26986283,0.48341247,-0.15989256,0.021141283,0.015843399,-0.6562735,0.13615525,0.072294265,-0.24462135,0.0029631797,0.45103264,-0.5106761,-0.32363042,0.377128,-0.23808286
SCC-15,-1.0704249,0.20827335,0.41360128,-0.12993266,0.16017437,-0.02830593,-0.5979984,0.14938334,0.1335895,-0.31134754,-0.018517558,0.38504863,-0.46051148,-0.33655465,0.5861141,-0.27728343
MeWo,-1.920416,-0.25568065,1.0210693,0.47570375,0.49858007,-0.88685876,-1.1843765,4.0878563,-1.321244,-1.1797172,0.74744046,-2.667553,-0.71354616,1.9397895,1.8768935,-0.42004627
RPMI-8226,-0.06902043,-0.33081156,0.11738246,0.5085306,0.8363784,-0.7691198,0.18584882,-0.5709453,-0.2136087,0.5829841,-0.86297256,1.1830721,-0.4605907,-1.0937482,-0.5588948,0.5741795
HCC2157,-0.927365,0.19898042,0.469417,-0.13124898,-0.15980962,0.01050882,-0.5048128,0.14448962,0.13547447,-0.24627517,-0.04758414,0.43863094,-0.49794167,-0.3693169,0.36561006,-0.3377297
TE-6,-1.2044463,0.98940057,0.83764243,-0.7874338,-0.28499323,1.0507871,-1.85266,1.8357009,-0.36479914,-1.8132944,2.3743768,-2.1754222,-0.3936894,1.2995471,1.6097125,-2.3603246
KINGS-1,-1.491921,0.9962444,0.9603444,-0.7980125,-0.28441137,0.92576975,-1.9597039,1.8554962,-0.45975155,-1.7751973,2.0603771,-2.447768,-0.2736117,1.2515566,1.3908019,-2.5379765
Calu-3,-0.834252,0.24133602,0.48057,-0.16560711,0.000575684,-0.09563948,-0.9143314,0.1289347,0.12794659,-0.3126421,-0.04939809,0.3865413,-0.5272897,-0.30683717,0.2198883,-0.1433293
LAMA-84,-1.3106235,0.98070484,0.87109405,-0.80569065,-0.2937672,0.8793753,-1.8732173,1.908989,-0.33631003,-1.7566335,2.108628,-2.305561,-0.44667384,1.269453,1.708802,-2.48005
A2058,-2.360782,1.5493191,-0.80045563,1.1865522,0.6909662,1.5345144,0.75521076,-0.59320486,-0.114402376,0.6612569,-1.037744,-0.7526072,0.5145161,0.37935787,0.6158973,1.1744443
RL,-0.85391974,0.20461388,0.4892436,-0.19832446,0.061173353,-0.027436733,-0.611976,0.12669425,0.1253496,-0.28854164,-0.05727974,0.4421596,-0.4758095,-0.33547905,0.5958478,-0.3540281
PFSK-1,-0.9103701,0.22138853,0.4506497,-0.13478614,0.060715318,-0.048848957,-0.72512805,0.14912544,0.12717903,-0.2758212,-0.016447775,0.37488735,-0.5286463,-0.31210876,0.4793862,-0.3356398
SW684,-1.0515956,0.22815078,0.47543186,-0.20123322,-0.052709587,-0.02403732,-0.70224637,0.17421867,0.08468555,-0.2892879,0.016975213,0.39824542,-0.55816597,-0.34177014,0.3331708,-0.26307574
SK-N-AS,0.114843346,-0.5535521,-0.10724294,-0.36136428,0.21586843,0.004275441,-0.56342345,0.13391297,0.53461015,-0.36884695,-0.024426077,0.092846915,0.0014030114,-0.09163955,0.14006352,0.24627513
UACC-257,-1.737786,1.1179531,-0.7004777,0.009746063,-0.17762814,1.6683772,-0.023560874,-0.40905496,0.4861131,-0.18253489,-0.2284739,-0.8546569,0.63764614,0.69437057,0.7709788,0.5876165
NCI-H2196,-1.5185864,0.65124625,0.124151945,0.8906161,0.46031615,-0.04565736,0.1937538,-0.00013840571,-0.38764173,0.65213215,-0.81071967,0.32977933,-0.27509758,-0.42262787,0.46423537,0.5532643
NCI-H1993,-0.9631343,0.2427702,0.43004805,-0.13860558,0.1621013,-0.010200715,-0.62566864,0.17710033,0.12895368,-0.33701465,-0.01851017,0.474439,-0.58711135,-0.34956118,0.49903026,-0.20920216
8-MG-BA,-0.89915013,0.21841809,0.44201767,-0.14550175,0.024284728,0.0068429,-0.7917392,0.26222312,0.09900312,-0.28915638,-0.117338635,0.40620056,-0.46353763,-0.35172608,0.5518439,-0.3818443
SW962,-0.87511,0.1966119,0.48299646,-0.103579685,0.13414493,-0.11491262,-0.7924056,0.17658716,0.12646161,-0.21136127,-0.07714634,0.37354776,-0.5211424,-0.3184434,0.6463573,-0.18468407
5637,-0.9303246,0.23554154,0.47600442,-0.12807044,-0.036189936,-0.08613507,-0.71216923,0.13965733,0.18643656,-0.2827092,-0.04481528,0.4363011,-0.528265,-0.34570372,0.45060855,-0.20888105
KYSE-150,-0.9748514,0.25348178,0.5172033,-0.15729092,0.24064505,0.09459859,-0.53961384,0.17524795,0.16867007,-0.27571508,0.007884424,0.3946832,-0.5193029,-0.33389556,0.5374435,-0.2065565
KE-37,-1.96178,1.4120009,0.50552285,0.56633216,0.12572546,0.7081425,-0.5366236,1.9512302,-1.1660717,-0.5514227,1.0798318,-2.002756,-0.1632364,1.2002301,1.5644722,-1.2702494
J.RT3-T3.5,-1.1951504,1.2537546,1.879954,1.0319884,-0.10861206,-1.1350411,-0.28874555,3.62133,-2.2389653,-0.62412757,1.4329585,-2.1447217,-0.8218453,1.6826534,0.90566343,-2.2639701
SF295,-1.8818538,1.4035183,0.6777683,0.60957336,0.11196747,0.7275392,-0.5677125,1.9260437,-1.2407163,-0.5726372,1.012913,-2.2980454,-0.17369063,1.2370743,1.5755187,-1.2997725
HT-1197,0.872663,0.37195876,0.0866518,0.24216683,0.433806,0.45644036,-0.27275258,-1.5289643,-0.9181893,0.43489248,1.4920181,-0.78437155,-0.13924657,-1.354019,-1.4176304,-2.1517866
SIG-M5,-1.673505,1.0283426,-0.6667154,0.01863886,-0.17344114,1.6865113,0.04896301,-0.43661597,0.5206565,-0.17880453,-0.18008223,-0.86369365,0.6377998,0.6890456,1.2261616,0.7070938
D-336MG,-1.9012065,1.4871328,0.49724182,0.54887897,0.04763788,0.7592299,-0.5733848,1.8980962,-1.2465698,-0.7489819,0.9983173,-2.3597043,-0.1619706,1.282582,1.5912946,-1.386224
EFE-184,-0.9002527,0.21513967,0.58246416,-0.0650833,-0.07779322,-0.010106994,-0.8130816,0.15696192,0.10479414,-0.22168426,0.046886355,0.40901485,-0.4937941,-0.3530295,0.29650015,-0.27297962
IST-SL1,0.16190347,-0.5483806,-0.10598688,-0.35576543,0.16789292,-0.034831554,-0.4426531,0.026110355,0.4980943,-0.38547865,0.0051187538,0.09274912,0.0012438372,-0.07508908,0.53062105,0.22584546
LB2241-RCC,-0.3778802,0.20350026,0.26570284,-1.1207663,-0.04692619,1.1059595,-1.6898774,1.7492166,0.06878091,-1.9640671,2.1409953,-2.8126278,0.019856602,1.4187574,1.5603111,-1.9014823
MOLT-13,1.7904238,-0.32566112,1.4398553,-0.7655256,-0.35154256,-1.0260044,-1.1506085,3.5527952,-1.3218722,-1.7137625,2.8254266,-2.6485817,-0.5805696,1.8030511,0.25022727,-2.8823702
RMG-I,-0.23414236,0.20113757,0.30937442,-1.0191523,-0.14236915,1.0716466,-1.8352842,1.7135092,0.04408434,-1.8861346,2.1577604,-2.7497828,-0.02592102,1.3366166,1.4985499,-1.775767
MPP 89,0.12154071,-0.56829566,-0.10646979,-0.3984701,0.12284981,-0.06888631,-0.27402484,0.025092477,0.5087065,-0.3195042,-0.027154468,0.093586296,-0.11176242,-0.12105118,0.23512441,0.20124222
HSC-3,-1.0367491,0.9740095,0.78741586,-0.7986771,-0.27521768,0.99613214,-1.7882855,1.8715303,-0.3967094,-1.8543508,2.064966,-2.4623609,-0.45449206,1.2360749,1.6786863,-2.4549465
NCI-H2052,-0.36398786,0.20622732,0.29580483,-0.92743397,0.0071304515,1.0047367,-1.8591591,1.7270569,-0.038907938,-1.9403716,2.0208142,-2.8157387,-0.05445144,1.3760473,0.9282,-2.04729
EW-18,-0.9800608,0.18340985,0.46324152,-0.26516092,-0.11649447,-0.07848598,-0.5652393,0.26337704,0.11011006,-0.24674004,-0.057316177,0.42552635,-0.51232564,-0.32124996,0.5639738,-0.08103934
PC-14,-1.0013323,0.23243003,0.4407836,-0.14141142,0.10460911,-0.0142780095,-0.8197919,0.15501961,0.09151014,-0.3144314,0.01384601,0.43213192,-0.4994373,-0.3543797,0.28457773,-0.38361895
MHH-NB-11,-0.41985086,-1.5646971,0.076715335,-0.12470762,0.5402322,-1.0876033,-0.83671343,2.0609589,0.22327189,-0.74710125,-0.45232284,-0.20940942,-0.48333248,0.5272897,0.88311,1.2420087
HCC2218,-0.84889895,0.20294014,0.44738033,-0.13072616,0.16804326,0.016547948,-0.7545841,0.1611096,0.15221298,-0.25674653,0.02006853,0.40276498,-0.53528684,-0.3025369,0.34985137,-0.36146536
CHL-1,-1.6134529,0.98418605,0.8708537,-0.7919089,-0.27661628,1.0412098,-1.7544713,1.8416269,-0.33830655,-1.7082555,1.9671836,-2.3370924,-0.5294285,1.3269509,2.1183116,-2.4063387
KG-1,-1.0698402,0.24147952,0.43130895,-0.027369305,0.24385968,-0.047257125,-0.5548215,0.20865232,0.13088103,-0.22154878,0.013736162,0.43931797,-0.51521033,-0.34574032,0.40981105,-0.35668355
HuO-3N1,-0.9998563,0.17405556,0.501491,-0.16932806,0.07322134,-0.024166306,-0.732767,0.19732717,0.118482694,-0.2535342,0.014117412,0.42898735,-0.5078908,-0.3280716,0.56663233,-0.38136953
OMC-1 [Human cervical carcinoma],1.2639288,0.38015303,-0.15702096,0.2789333,0.6151928,0.45246342,-0.3006351,-1.5269567,-0.8877661,0.6789081,1.4551444,-0.77724665,-0.19423094,-1.6441338,-1.1685492,-2.3967726
TALL-1 [Human adult T-ALL],-0.9678027,0.27886096,0.4393469,-0.07861741,0.12854384,-0.16312717,-0.8933297,0.16032094,0.17075838,-0.31123585,-0.028443785,0.43569487,-0.50357413,-0.31246224,0.5084676,-0.22458479
CAL-148,0.030535653,1.2755541,0.4565745,0.4898157,0.70193523,0.4632517,-0.5792056,-1.2128296,-1.1255492,0.22859646,1.4409139,-0.4741275,-0.6437865,-1.9305574,-0.8344673,-2.7707257
AsPC-1,2.351544,-1.3518311,0.6936964,0.32967344,0.14061478,-1.9233768,0.37374267,2.3273497,-1.643824,-0.48030943,1.0921128,-1.4316151,-0.36793953,0.97303194,-0.8656244,-0.8508551
OAW42,1.3318754,0.3833507,0.005455114,0.20921068,0.88271266,0.45958832,-0.1921563,-1.5311627,-0.9018363,0.35968173,1.4392893,-0.75281996,-0.27275556,-1.4706023,-1.137469,-2.3127093
KALS-1,-2.053203,-0.018715156,0.73166907,0.5580634,0.38857242,-1.000036,-0.4469774,1.9399853,-0.58326715,-0.11407463,-0.9313101,0.17062503,-0.79778296,0.39118072,1.1103497,0.82194823
KYSE-520,-0.99171597,0.19600745,0.43423423,-0.10786283,0.18029805,-0.047240227,-0.6863042,0.21828903,0.11590092,-0.29933143,-0.025793018,0.42432135,-0.5362296,-0.32180265,0.49103,-0.27566975
COLO 824,0.39090624,-0.6061563,-0.10868801,-0.3865632,0.1415241,0.016799118,-0.6017374,0.029345397,0.41864157,-0.337856,0.023914099,0.095129095,-0.13057563,-0.12524888,0.17918326,0.20821169
KLE,2.1293385,-1.8067743,0.5208145,-0.20173971,0.23760389,-1.7016758,-0.26614857,1.3637259,-0.65169233,-0.13338113,0.7586102,-0.22632088,-0.44359672,0.19309333,-0.83777505,-0.5459993
NCI-H460,1.5265764,0.3830151,-0.20642717,0.9303907,1.1161834,0.47479436,0.027285904,-0.4974453,-1.8903594,0.24292478,2.072918,-2.5268056,0.014876574,-1.1588631,-1.293434,-2.4521458
ML-2,0.21670592,-0.6849944,-0.44605285,0.14409399,0.6846072,0.08097491,-0.25100806,0.6340785,-0.29452977,-0.30765882,0.39888564,-1.6410791,0.18977411,0.42720392,0.22199398,0.25293335
NCI-H716,-0.99858487,0.21574038,0.522494,-0.13922584,0.1356118,-0.11916466,-0.76027983,0.2112663,0.14439908,-0.26268688,-0.035769276,0.3799262,-0.53092116,-0.33632776,0.34798828,-0.26066557
SAS,-0.9458057,0.26965025,0.5706056,-0.12000422,0.10697755,-0.062804975,-0.6718263,0.15095091,0.09371528,-0.31568378,-0.034576047,0.4644581,-0.5169718,-0.32393563,0.3950499,-0.36390984
HT-1376,-0.9729545,0.17782275,0.47550175,-0.07138796,0.13428296,0.025489785,-0.69372827,0.22197863,0.15195835,-0.24786209,-0.04805398,0.43152276,-0.52764016,-0.32763302,0.45925707,-0.26851383
SJNB-14,-0.87973666,0.20892464,0.4710173,-0.032944426,-0.1106905,-0.10542174,-0.7707193,0.26238993,0.124699004,-0.35577342,0.08918049,0.45983985,-0.4371625,-0.33961585,0.40714586,-0.3501294
LS123,2.3421066,-1.2956331,-1.7264283,0.3745891,0.715115,0.3161472,1.4255073,-1.432401,0.2934299,0.8172808,-0.56252503,-0.5416032,1.2647694,-0.34092712,-1.4882478,1.6087667
LC-1F,-1.173947,0.98898613,0.8066101,-0.8021551,-0.2820066,0.98372835,-1.7734165,1.8474113,-0.38633856,-1.8904816,2.1456213,-2.4373922,-0.27485067,1.2671189,1.9035959,-2.3611393
CAL-120,-0.94112325,0.21276924,0.45963222,-0.043233894,0.020686463,-0.0042099394,-0.6651176,0.17637452,0.12981182,-0.21500266,0.00890157,0.4157568,-0.5417043,-0.32507715,0.66868514,-0.37630597
HDLM-2,-0.06347553,-0.5715944,-0.10767293,-0.45034492,0.061407268,-0.0033731386,-0.44438356,-0.012939382,0.50509727,-0.33016914,-0.010123868,0.09417737,-0.04584019,-0.10143714,0.3410236,0.28718382
NCI-H292,-0.25010687,0.20291498,0.23310646,-1.0091243,-0.023648832,1.1584597,-1.8113285,1.676844,0.024218801,-1.859093,2.0402775,-2.6740496,-0.21386668,1.3604587,1.5908422,-1.8625026
SH-4,-1.6583192,1.7181529,-0.32716835,-0.7090217,-0.33206373,2.763921,-1.1410859,1.1771415,0.1397205,-1.745481,2.002425,-3.6505554,0.76458675,2.1901975,2.020799,-1.5790063
Becker,-1.4935606,0.9743553,0.77831894,-0.87470794,-0.28790897,1.0173515,-1.7838637,1.8656454,-0.35260406,-1.8484449,2.0530248,-2.2197247,-0.29783523,1.2483879,1.4205889,-2.453654
HEL,-1.3430172,0.9788731,0.9464456,-0.8691191,-0.27439362,1.0092055,-1.7143506,1.8791856,-0.321188,-1.7576193,2.2571754,-2.380884,-0.36525,1.2494185,1.5477622,-2.337137
KGN,-0.5586674,0.20159656,0.34491587,-1.0388234,0.04426404,1.0951349,-1.751486,1.7772564,0.08275384,-1.856521,2.235453,-2.8031862,0.016804479,1.2836531,1.4501758,-1.9310504
NCI-H1666,-1.8694068,1.7128421,-0.23758808,-0.69457954,-0.33054554,2.7551749,-1.2444732,1.1629379,0.12968677,-1.7398338,2.3206663,-3.7077801,0.7294534,2.1240275,1.6301734,-1.6676894
Daoy,-1.9007723,0.01002188,0.88370615,0.51903886,0.5572206,-0.89615583,-0.9802388,4.10258,-1.4958531,-1.2384113,0.70877784,-2.749944,-0.7228863,1.9394823,1.8862092,-0.36478314
LCLC-103H,-0.89444613,0.9868762,0.80514944,-0.8165901,-0.28075728,0.93957824,-1.8114675,1.8944415,-0.3313046,-1.6941309,1.9977648,-2.4821079,-0.54127836,1.33826,1.7726531,-2.32385
BT-549,-1.5689555,0.57753956,0.10596235,0.93849343,0.25572366,-0.03120374,0.09948225,-0.04794873,-0.41960657,0.5622706,-0.8118307,0.36344162,-0.32777706,-0.47848558,0.32698792,0.5821006
NCI-H1563,-0.50143135,0.20151041,0.35718223,-1.0695921,-0.041794233,1.0365866,-1.6272469,1.7038062,0.10639827,-1.8776397,2.2320943,-2.652113,-0.0945947,1.344525,1.4384974,-1.8798898
BxPC-3,-1.2567323,0.9939685,0.9324271,-0.8790659,-0.28475255,0.9833391,-1.8673781,1.8974998,-0.31091028,-1.7146161,2.18558,-2.4641247,-0.5444898,1.2114292,2.1780536,-2.3723664
Onda 10,-1.529771,0.56903565,0.11416273,0.8801495,0.45136455,-0.034676746,-0.024868771,-0.07566154,-0.43631247,0.61161786,-0.8145861,0.35965365,-0.33264214,-0.48065093,0.71156955,0.56570137
NCI-H322M,-1.1882787,0.98689693,0.81029594,-0.7953633,-0.28594717,0.9562272,-1.897007,1.893532,-0.32041585,-1.7889425,2.4463763,-2.2405424,-0.5222276,1.274135,1.3392553,-2.318216
BFTC-909,0.05045665,2.2495546,1.286962,0.11818376,-0.1766566,1.3806337,-1.4316378,0.39113587,-1.8011984,-0.936875,3.5997016,-3.2704268,-0.55382586,-0.11512478,-0.2456152,-4.9576817
DMS 53,-0.89157647,0.24396376,0.46205512,-0.17027481,0.089257,-0.06783728,-0.6852692,0.2570587,0.1146816,-0.24710593,-0.015983155,0.432241,-0.47050035,-0.33168435,0.7117989,-0.23186626
MKN1,3.349373,-0.5518468,0.930071,0.4004738,0.3707971,-1.5612403,-0.04092124,-0.24349947,-1.8207203,-0.30273777,2.3495698,-0.7139136,-1.2837055,-1.1184535,-2.3184075,-3.112385
PC-3,-1.5036938,0.5910042,0.11203772,0.9151218,0.6432482,-0.01597819,0.18979965,-0.0570358,-0.3596586,0.7055716,-0.8143818,0.4130936,-0.35241732,-0.47695383,0.3280996,0.41518512
MMAc-SF,-1.5807481,1.1049002,-0.6864083,0.007567652,-0.030595854,1.6932143,-0.027032804,-0.41465572,0.4898963,-0.18330808,-0.21927902,-0.84586525,0.63813776,0.6862662,1.0515299,0.62070715
EW-13,-1.5293368,0.5866893,0.14344388,0.84238636,0.4417712,-0.0034248866,0.082303435,-0.011227325,-0.4465987,0.53814346,-0.80545545,0.3645788,-0.31002453,-0.45332655,0.21248788,0.5641165
GMS-10,-1.5808355,-0.77932644,0.816329,0.014006853,0.48762998,-1.2350205,-0.9768102,2.22526,-0.19468436,-0.63946044,-0.55577785,0.20330128,-0.92597973,0.348554,1.1610222,0.6752241
MDA-MB-468,-1.5268165,0.58296937,0.101698175,0.8690704,0.49736762,-0.03481261,0.07024972,0.04793099,-0.44671422,0.5399806,-0.80879277,0.3518404,-0.32277286,-0.44033998,0.2906674,0.46220922
MZ-MEL-7,-1.106895,2.882598,0.42129287,-1.097226,-2.210547,2.5031352,-0.09411068,0.5039452,0.4895675,-1.1013926,1.6148825,-1.418369,0.88961923,2.5852072,1.259937,-1.6662879
A101D,-2.5240443,2.096874,-0.74901307,0.67388016,0.07856098,2.5105693,-0.062086567,1.1143653,-0.6544863,-0.6631345,0.8203415,-3.661528,0.92062324,2.2229824,1.7564232,-0.37511197
EW-24,0.35384372,1.4019651,0.54851246,0.5309894,0.09128517,0.46822494,-0.508958,-1.1607759,-1.2145301,0.32823735,1.5308948,-0.43383938,-0.7251144,-1.9938104,-1.0058832,-2.8793702
NCI-H2009,-0.24430935,-0.39771557,0.1157429,0.4971476,0.72581816,-0.8454209,0.09410491,-0.5688317,-0.15788822,0.61394703,-0.86039925,1.1811924,-0.4416745,-1.113427,-0.25919288,0.6966654
SN12C,-0.7704025,0.25660694,0.46869642,-0.11337193,-0.037495553,-0.0013151802,-0.44387442,0.12480656,0.07485929,-0.29655313,-0.0033404212,0.39672548,-0.54782754,-0.33922738,0.57001495,-0.28785223
YH-13,-1.359852,0.9859093,0.9601062,-0.84548926,-0.28386465,0.97989833,-1.9403412,1.8565655,-0.3392518,-1.7600626,2.0212367,-2.3061461,-0.4415229,1.2446568,1.8373647,-2.3045871
NCI-H1694,-0.92806256,0.2869377,0.5097134,-0.26114082,0.14792778,-0.050018676,-0.72096765,0.20282215,0.12041198,-0.33223662,-0.049433686,0.41059497,-0.4917178,-0.3385561,0.6739711,-0.22285835
COLO 829,-2.3554335,2.0969691,-0.802047,0.66868347,0.15878469,2.5098028,0.084277466,1.1315205,-0.6459403,-0.66811204,0.90486205,-4.021453,0.91984665,2.1306715,1.9829067,-0.3926096
NALM-6,-0.11802399,0.19354188,0.23124743,-1.0491359,-0.037878208,1.1053411,-1.7199873,1.7387435,0.05461531,-1.9776311,2.081351,-2.670879,0.047150753,1.2954274,1.1467736,-1.9204085
SW954,-1.0930299,0.20997235,0.49221966,-0.19472504,0.016760603,-0.033300597,-0.8156671,0.13464485,0.15334658,-0.25798824,-0.044336922,0.41002408,-0.5304603,-0.3207993,0.639632,-0.45191345
SNG-M,0.69261485,1.5798558,0.57467943,2.3165088,0.20783742,-0.921261,2.0070093,-1.9911419,-2.2877822,2.7736773,-0.70092857,1.4048376,-0.25123733,-1.7359519,-2.5857775,-1.2256422
LCLC-97TM1,-0.6949454,0.35645902,0.3041745,0.4972537,0.41268092,-0.061032996,-0.28862172,0.94723606,-0.82858384,-0.13694744,0.3600579,-1.2504157,-0.21967065,0.42538875,0.561009,-0.4662689
LA-N-6,0.49767154,-0.6820861,-0.47091207,0.35644105,0.6801583,0.10340004,-0.046997406,0.73485845,-0.31756848,-0.6390897,0.43489513,-1.745268,0.22007373,0.40865034,-0.055373304,0.20188332
SW1783,-1.6245738,0.5634469,0.14220971,0.86857986,0.23893325,-0.028614793,0.1389222,-0.027760614,-0.4406383,0.60288,-0.81346744,0.34112838,-0.27097645,-0.4927114,0.43638667,0.537326
769-P,-0.5238008,0.20558643,0.29720616,-1.037566,-0.04097586,1.0653195,-1.6859885,1.6037108,0.028007278,-1.917694,2.1760552,-2.7204688,-0.1537472,1.4095805,1.3382165,-1.8693323
HuCC-T1,2.8527088,-1.8961496,-0.034387168,0.27945742,0.2562271,-2.0715902,0.96531045,0.1526861,-0.5479421,0.78327364,-0.08161867,0.7393273,-0.22342174,-0.52481747,-1.9832296,0.38647515
Mono-Mac-6,0.23765811,-0.572249,-0.105800316,-0.37344652,0.11838022,0.035464343,-0.45909896,0.005519323,0.45292696,-0.34942293,0.02487516,0.09589412,-0.21691221,-0.12539794,0.316508,0.38959867
Panc 03.27,-0.6780389,0.37111923,0.30490878,0.5437981,0.40383843,0.05291048,-0.39767367,1.1065156,-0.8834164,-0.250333,0.42206794,-1.2277541,-0.21963295,0.38516128,0.6604403,-0.4083731
SW1990,0.23088594,-0.6792797,-0.46806362,0.28407493,0.6828543,-0.0053002723,-0.17993936,0.7370189,-0.29528594,-0.30799195,0.50968903,-1.6174798,0.2510457,0.4948874,0.20561951,0.14185485
ME-180,0.9962988,0.48513544,0.34763184,0.30750507,0.72585857,0.44253814,-0.31060427,-1.6281252,-0.8895496,0.43294117,1.269217,-0.755609,-0.122163035,-1.728851,-1.3703566,-2.1412344
TGBC1TKB,-1.5918001,0.55086815,0.12556489,0.86918586,0.60107225,-0.049789827,0.124204256,0.039473504,-0.44166043,0.5249245,-0.813412,0.35049295,-0.33814338,-0.46757793,0.6330377,0.34986648
NCI-H2170,-1.0508829,0.98511,0.80781746,-0.80290866,-0.27865776,0.9707184,-1.7195671,1.8200779,-0.4983884,-1.8914475,1.9512138,-2.2614448,-0.5355147,1.251432,1.2899685,-2.4282691
SJNB-10,-0.39570853,-1.5282049,0.13105568,0.13428016,0.42723617,-1.2022656,-0.93194956,1.994963,0.21978274,-0.75875264,-0.45788413,-0.20204218,-0.4683983,0.5776402,0.8813885,1.1254003
CHP-212,0.17103066,-0.55364484,-0.109508604,-0.30407542,0.18450688,-0.02874582,-0.41882792,-0.013883211,0.5047588,-0.3682001,-0.007819623,0.09576916,-0.15983033,-0.11344403,0.21107368,0.22870353
COLO 678,2.6845481,-1.612534,-2.38552,0.20263846,0.90236765,0.91602844,1.35547,-0.025165483,0.05028823,-0.22698417,0.61666834,-3.3348205,1.8677192,1.504772,-1.096899,1.3760937
A-673,-1.8202826,2.16412,0.07063724,-0.6161967,-0.5900725,2.617044,-1.1629845,1.3125107,-0.13396397,-1.622309,2.275758,-3.476079,0.5490488,2.2665944,1.7335299,-1.9631226
HuP-T3,-0.7688694,0.35193524,0.25146985,0.5936549,0.3201876,0.019422024,-0.13693953,1.0000885,-0.82105756,-0.18202369,0.36329195,-1.1954956,-0.235754,0.46972376,0.74730945,-0.483933
KO52,-0.97590214,0.26178548,0.5509014,-0.112578005,0.12454949,-0.09610984,-0.86798525,0.26531094,0.072050884,-0.25865474,0.0044816993,0.4594308,-0.49399114,-0.28895697,0.657388,-0.30712652
GR-ST,2.023898,-1.6841317,0.51969594,-0.20795093,0.22871518,-1.8888763,-0.27039385,1.5702184,-0.5949577,-0.60907453,0.6794617,-0.22109552,-0.48243442,0.078124374,-0.7356161,-0.46586007
SNU-1,1.0820041,-1.2041266,-0.4865114,0.19183277,0.52069724,-0.70579726,0.33591127,-0.7157791,0.2825565,0.5517509,-0.7472336,0.8684297,0.036524665,-0.9269386,-1.0751802,1.1313249
Caov-3,-0.9751491,0.22642483,0.48418722,-0.10893553,0.19136263,-0.043700553,-0.8462246,0.21870461,0.16124317,-0.33643997,-0.012696332,0.4762203,-0.50579864,-0.32650384,0.5054506,-0.3625187
NCI-H441,-0.16684353,-0.36095786,0.13081257,0.5650127,0.57980037,-0.77177995,0.22147101,-0.38594103,-0.14922918,0.5911216,-0.85875005,1.1816579,-0.46626353,-1.1205744,-0.32989043,0.56857866
P31/FUJ,-1.5438919,0.5885646,0.15281947,0.84713066,0.7314961,-0.01936334,0.05216732,-0.06206939,-0.41775197,0.5572018,-0.8114924,0.3114895,-0.3517849,-0.47547442,0.21114028,0.47840863
TE-5,-0.30190092,2.2290976,1.5320799,-0.027175382,-0.12290512,1.3695326,-1.5056449,0.44741413,-1.8890178,-1.4500618,3.9208193,-2.863288,-0.5007655,-0.13044043,-0.5588318,-5.1210136
EFO-27,-1.5523553,0.5748109,0.098124936,0.84477997,0.23483333,-0.045098417,0.097639605,-0.00049901474,-0.41982782,0.50735104,-0.80880255,0.37016562,-0.35995576,-0.46333507,0.16474321,0.58070004
BC-3,-1.8149817,0.9079404,0.15838705,0.45042014,0.45956534,0.9072965,-0.70159036,1.5915836,-0.9517547,-0.7684896,0.9515837,-2.755885,0.017553058,1.1722921,1.1410027,-0.8359048
IPC-298,-1.1227406,0.9794323,0.8875802,-0.8181007,-0.2744559,1.0487826,-1.8588234,1.9258175,-0.40433958,-1.7362301,2.397027,-2.3420172,-0.32343042,1.2664173,1.1122419,-2.5401485
LB647-SCLC,-0.80682945,0.19986613,0.49184865,-0.15157093,0.14170578,-0.058271863,-0.8819235,0.1918298,0.10632696,-0.30315197,0.048957378,0.40428004,-0.515837,-0.31587687,0.22197479,-0.40517733
NCI-H446,-1.6140932,0.5320611,0.103159234,0.86121166,0.3634535,-0.032944396,0.1512225,-0.1070835,-0.36532176,0.48673475,-0.8124887,0.3131372,-0.3300661,-0.5005665,0.40496612,0.60595125
CaR-1,-0.94107544,0.984517,1.152838,-0.8487434,-0.27782547,0.9617882,-1.8914838,1.7914912,-0.3946676,-1.844538,2.1720023,-2.3952792,-0.468669,1.2763605,1.8536375,-2.5290167
SCC-25,-1.2596651,0.9890064,0.7177951,-0.7804783,-0.27871,0.98497736,-1.8286602,1.8531665,-0.37247884,-1.6884465,2.1951892,-2.6191225,-0.38599116,1.2734793,1.1868612,-2.2223907
MHH-PREB-1,0.24296024,-0.5579235,-0.105459206,-0.327403,0.19186625,-0.113483384,-0.45231825,-0.14443785,0.4983998,-0.37717277,-0.022614043,0.09556048,0.011452898,-0.11300976,0.02844423,0.20793381
AM-38,-2.2372897,1.7020097,-0.3013192,-0.6808738,-0.33655298,2.7554908,-1.236849,1.1774601,0.14268437,-1.7352625,1.7121934,-3.754538,0.7475737,2.2155943,1.9906956,-1.6777885
OAW28,0.20192999,-0.5493716,-0.10914264,-0.32383147,0.20687369,0.0060785227,-0.46193928,0.07790519,0.5331795,-0.381668,-0.036463227,0.09583131,0.011177555,-0.10174443,0.41694066,0.121303886
A-549,0.38556537,-0.68139744,-0.46570033,0.29970992,0.6911489,0.11628603,-0.19940683,0.63024384,-0.30840024,-0.32095164,0.45553094,-1.6290472,0.22320916,0.40943342,0.10374146,0.14964023
MZ-PC-1,-0.8505113,0.3576254,0.33916178,0.5064037,0.3099686,-0.030394206,-0.29016188,1.0332673,-0.7931604,-0.25293183,0.4493339,-1.196789,-0.22277038,0.41106352,0.3336915,-0.48740762
NCI-H526,-0.8059163,0.2370079,0.43750495,-0.18418506,-0.031494528,-0.050180152,-0.54901254,0.19692887,0.11801401,-0.28113657,-0.07481565,0.4454782,-0.47987556,-0.3000644,0.38027185,-0.15201212
NCI-H810,-0.89931035,0.2381629,0.48618186,-0.04203342,0.11073461,-0.030271398,-0.69158113,0.19150959,0.11490783,-0.31612444,-0.050853357,0.41523537,-0.588345,-0.34175277,0.42504457,-0.1787592
TUR,-1.5422347,0.5425318,0.123902045,0.8925494,0.66621566,0.0042521395,0.06689117,0.07390398,-0.40243086,0.57844245,-0.81478477,0.32369474,-0.27586177,-0.46616486,0.13310884,0.4173467
RD,-0.95241594,0.18383056,0.49630597,-0.18275368,0.18870196,-0.029164061,-0.7483207,0.21314661,0.12969391,-0.30321553,-0.023480408,0.44253334,-0.48304644,-0.32783034,0.7707784,-0.37956095
Raji,-0.8843034,0.22862032,0.50986105,-0.12859581,-0.087227456,-0.028566841,-0.7713792,0.1885337,0.12277311,-0.34499055,-0.029194407,0.3903584,-0.4608426,-0.32209197,0.53501576,-0.23799475
CAS-1,-1.8128067,1.3912308,0.54787964,0.4838509,0.15421352,0.6986706,-0.53140634,1.8469284,-1.2055981,-0.6172031,0.94339985,-2.4102573,-0.17510416,1.2801583,1.0612832,-1.3292447
CAL-33,-0.2761108,2.2361085,1.1070381,0.039845854,-0.025466919,1.3809133,-1.6463134,0.36382627,-1.6441871,-0.7651384,4.056274,-2.8745039,-0.5772917,0.18346575,0.3733679,-4.984238
ECC4,-0.16356176,-0.39824533,0.10437395,0.51795006,0.3330375,-0.77836084,0.1421031,-0.5619428,-0.14253937,0.79528755,-0.86261266,1.1862489,-0.43344754,-1.1237915,-0.018231511,0.65269107
HCC1395,-1.8024089,1.4311376,0.5432914,0.63444436,0.07653185,0.70354366,-0.51039463,1.9609475,-1.2180091,-0.641188,0.9312114,-2.5166452,-0.16574596,1.2713203,1.2446165,-1.3147788
J82,-0.49859813,1.5826246,0.13648668,2.0009203,1.1008029,0.13857761,0.71960926,-1.3218385,-1.9430199,1.5224879,0.3367478,-0.509409,-0.41650766,-1.7018313,-0.670804,-1.735012
D-542MG,-2.0522761,-0.045338683,0.60428274,0.63835096,0.38089213,-1.0907874,-0.30531082,2.0245538,-0.5825073,-0.074178234,-0.91855246,0.30324447,-0.8021275,0.36169273,1.123256,0.79672825
MOLT-16,-1.3152707,0.981027,0.9348614,-0.84556353,-0.28963614,0.96089745,-1.8566813,1.8744608,-0.3313501,-1.8054671,2.231917,-2.196647,-0.44655544,1.2349417,1.6484289,-2.3363004
A2780,-1.3853035,0.39753634,-0.10369659,0.79175663,0.4437906,0.10628006,0.28282443,-0.01296065,-0.19836485,0.4218824,-0.8420482,0.17811747,-0.07194389,-0.32463202,0.3853279,0.7448659
HL-60,-0.94534194,0.9896717,0.97052956,-0.72957546,-0.2769019,0.9888424,-1.7029179,1.870891,-0.43559182,-1.8035417,2.0525756,-2.3161058,-0.5652392,1.2656057,1.8231606,-2.494325
NCI-H1792,-0.2058926,-0.38700628,0.12159063,0.6722075,0.553377,-0.78717995,0.170767,-0.44828662,-0.14340936,0.5914926,-0.85953474,1.1824481,-0.4348944,-1.0874574,-0.69133466,0.57730186
MFH-ino,-0.2796192,0.1967249,0.2253854,-1.0566274,-0.03337884,1.0412163,-1.6016582,1.6491992,0.018129375,-1.8871757,2.221999,-2.8049371,-0.073157266,1.4290802,1.4077995,-1.828757
DMS 273,-0.9038359,0.23099366,0.46398422,-0.12220467,0.3986239,-0.03097513,-0.5482764,0.17200074,0.12674658,-0.22852762,-0.017494157,0.41896093,-0.60562986,-0.28476033,0.76678014,-0.3649056
KYSE-270,-0.88014436,0.20011747,0.4897367,-0.16526632,0.14274058,-0.111525,-0.65222394,0.19670215,0.105412155,-0.27162874,-0.04651379,0.43028525,-0.5330497,-0.3327406,0.5975328,-0.21567935
A-375,-1.8288747,1.7116568,-0.38864693,-0.71629304,-0.3342591,2.7415981,-1.1682123,1.163145,0.14010476,-1.7419616,2.0588622,-3.8604646,0.6076708,2.1885917,1.578973,-1.5545645
NCI-H650,-1.0995302,0.20407553,0.47462267,-0.033814162,0.22640395,-0.075396,-0.61342746,0.17680676,0.075581655,-0.2505106,-0.04950174,0.40881607,-0.47354084,-0.3043633,0.73062885,-0.17459808
IA-LM,0.999651,-1.2120142,-0.44904345,0.25978696,0.6784803,-0.69969195,0.46015304,-0.74649924,0.27223235,0.451827,-0.73575497,0.86237544,0.009842576,-0.72744805,-0.6839248,1.0428619
SNU-475,-0.7214396,0.1593654,0.45863277,-0.09952482,0.17836761,0.014005389,-0.75951654,0.12255724,0.0731524,-0.34123382,-0.13220787,0.39860123,-0.47316942,-0.32160646,0.34907535,-0.30022556
MDA-MB-134-VI,0.19730724,-0.5938232,-0.10932907,-0.3206668,0.20424464,0.03642231,-0.42082956,0.027792301,0.52041376,-0.35883677,0.061448768,0.0927945,-0.07712666,-0.082587,0.2788686,0.33736113
MKN45,-0.35974225,0.20315722,0.29983124,-1.0456702,-0.07174538,1.023003,-1.8623013,1.6095285,0.0041646827,-1.8968916,2.2050936,-2.8865197,0.017056234,1.34676,1.4356427,-1.724262
SK-PN-DW,-1.5532233,0.51267934,0.11213786,0.8708218,0.41918284,-0.027929857,0.2473978,-0.033449315,-0.40244034,0.46626928,-0.8090985,0.35165894,-0.33237407,-0.47325072,0.40865308,0.53144234
SK-MEL-24,-2.5946016,2.0855677,-0.7256268,0.68578905,0.08597601,2.5079265,-0.115477584,1.1235584,-0.65190697,-0.7189792,0.85853225,-3.862167,0.9736999,2.1506546,2.1901546,-0.39700243
CMK,-1.2406641,0.979337,0.87167335,-0.77963215,-0.2879791,1.0264943,-1.7529534,1.9399091,-0.35930037,-1.8349824,2.1657796,-2.2892203,-0.47771776,1.2815725,2.101048,-2.5076203
TE-15,-0.9907458,0.9839246,0.8800221,-0.8180653,-0.2865805,1.0111291,-1.7387527,1.8615428,-0.2666135,-1.774159,2.223734,-2.1903384,-0.5170303,1.2913007,1.4660987,-2.3485577
JVM-3,-1.6064438,1.0148082,-0.6690296,0.019774217,-0.34296486,1.7104434,-0.14405926,-0.3965454,0.5068542,-0.17547432,-0.24831064,-0.8773777,0.63747346,0.6966409,0.6975366,0.5337672
NCI-H719,-0.81019723,0.24252558,0.39306635,-0.18453002,0.047027502,-0.025597021,-0.7473518,0.16860129,0.12043998,-0.3155768,-0.08470629,0.38905236,-0.45536155,-0.33310696,0.699425,-0.11515565
KP-N-RT-BM-1,0.021545455,-0.5396457,-0.109600134,-0.48056066,0.099619366,-0.035955288,-0.56770754,0.03223785,0.5056465,-0.3886731,-0.014298868,0.09561172,-0.068178594,-0.047337625,0.2889222,0.0641807
HT-1080,-0.07261875,0.20501716,0.3075024,-1.0731467,0.024090618,1.1064337,-1.8165543,1.5627902,0.0003159158,-1.9147675,2.1879904,-2.717332,-0.11562121,1.373238,1.3722271,-1.8019277
DBTRG-05MG,-2.682073,2.077619,-0.7574613,0.6549781,-0.004378885,2.5095022,-0.06707659,1.1801337,-0.6475538,-0.74717784,0.88209885,-3.7426035,1.05942,2.1931467,1.6741726,-0.4060611
SaOS-2,-0.8389327,0.22753568,0.51667494,-0.117968515,0.035494253,-0.028269222,-0.8546329,0.18822211,0.13512836,-0.2859437,-0.09580493,0.42725122,-0.5696922,-0.3080137,0.2276395,-0.39472812
C32 [Human melanoma],-2.4112303,2.0490136,-0.74167854,0.63257354,0.01146961,2.509357,-0.08632195,1.1236937,-0.65256786,-0.6524027,0.8799257,-3.7148366,0.89767724,2.080741,1.3918233,-0.4096655
Evsa-T,-1.5540564,0.55674523,0.14321148,0.88891506,0.58601385,-0.027513139,0.27023527,-0.04547905,-0.39380327,0.47747695,-0.8125499,0.37252226,-0.34243348,-0.49716428,0.21142232,0.45108688
Kasumi-1,-0.8529592,0.26451686,0.5534662,-0.13868394,0.1398693,0.019273195,-0.7750836,0.25945178,0.121940866,-0.31457692,-0.091455214,0.40404806,-0.5268667,-0.3342929,0.45551738,-0.23861618
A-427,2.0703206,-1.6096004,0.076467864,-0.42063594,0.27174413,-1.2670963,-0.46585345,1.9329995,-0.40688846,-0.84332407,1.338847,-1.7267474,-0.024205044,0.9873191,-0.32848802,-0.47162557
NCI-H2122,-0.81990695,0.3487678,0.34450215,0.5767649,0.32949543,0.04320362,-0.18252203,1.0013117,-0.8068454,-0.089281045,0.37355256,-1.1989348,-0.22991724,0.36669397,0.58769906,-0.52131623
SW1573,1.784634,0.4504934,-0.3851959,0.91316664,0.829437,0.46547708,0.066573255,-0.3799262,-1.788758,0.2575614,1.9804397,-2.2952945,0.086243235,-1.118556,-1.2829108,-2.288279
HCC1599,-0.5102484,1.7992731,-0.12020146,-0.41218993,-1.0086496,1.7834084,-0.09666965,-1.4786946,0.36487448,0.01676999,1.0549691,-0.10379194,0.39234447,0.023790816,-0.3336168,-1.644274
D-247MG,-1.6385942,0.9080248,0.09832698,0.426115,0.45499083,0.86749905,-0.71382236,1.6502376,-0.87218857,-0.89136463,0.86002105,-2.7492344,-0.009643474,1.2060051,1.4572679,-0.84374887
HCC1187,-0.98319256,0.24661937,0.5372645,-0.08310618,0.071218155,-0.0025826618,-0.64651,0.21136855,0.10588959,-0.26321062,-0.012887608,0.4689186,-0.4781359,-0.33291295,0.3779325,-0.27263752
Lu-139,-0.94929886,0.22277683,0.54518926,-0.16373664,0.15168825,-0.043621153,-0.47555107,0.14987025,0.10692969,-0.2909519,-0.083568975,0.42468968,-0.4441394,-0.33081913,0.581311,-0.37127495
KYSE-140,-1.188072,0.9839776,0.83958346,-0.7916098,-0.28445357,1.0300953,-1.7229662,1.8591199,-0.3481411,-1.7364156,2.0680451,-2.4890723,-0.5163272,1.2838259,1.7321944,-2.44638
GI-1,-1.2224957,0.065086305,0.8651386,1.5799971,1.1900204,-1.2963355,-0.1718767,0.6438982,-1.6538503,0.71652085,-0.43399674,0.17526901,-1.168008,-1.419801,0.038396478,-0.3644305
NCI-H1581,3.2295988,-1.6992712,-0.9238751,-0.75129145,-0.035823442,-0.033415273,0.48654553,0.20758924,0.31407768,-0.32485625,0.8534851,-1.4408925,1.0269811,0.9145205,-0.95741457,0.29935572
OVCAR-3,-0.9003448,0.17074573,0.49869478,-0.16258147,0.04361436,-0.024539005,-0.70131284,0.14781523,0.116848424,-0.2534453,0.030691504,0.41890624,-0.56812984,-0.2929384,0.35750264,-0.26738873
NCI-H2126,-1.1998787,0.9908939,1.0382644,-0.7513502,-0.28005645,1.0290602,-1.9459186,1.8537762,-0.39607918,-1.8011402,2.1622138,-2.392689,-0.43263012,1.2623707,1.0476602,-2.3645906
A-172,-1.7112105,0.8999184,0.07378945,0.51254547,0.37888795,0.88703,-0.63044083,1.6391739,-0.84915006,-0.9992754,0.8802687,-2.7072341,-0.034542967,1.2554084,0.90383065,-0.78731215
C2BBe1,1.4520526,-0.70927507,-1.3891251,-0.117111616,0.2729066,0.8393591,0.49720544,-0.655135,0.49420166,0.0023813825,0.120368056,-1.2896208,1.0974956,0.41127867,-0.13008198,0.92865676
SCC-4,-1.352231,0.98463744,0.9955991,-0.83581215,-0.27597433,1.0215862,-1.8199649,1.8932245,-0.35273972,-1.7745982,2.15051,-2.422083,-0.43154436,1.2577913,1.7852097,-2.29096
SNB-75,-0.8106326,0.23186411,0.5447588,-0.02537132,0.12177898,-0.03603157,-0.6076189,0.20596719,0.07619025,-0.21766812,0.037576072,0.38199458,-0.52795297,-0.35302058,0.6449027,-0.3310963
HCC1937,-0.9611056,0.19289699,0.453433,-0.12719446,0.090995476,-0.038509488,-0.71270615,0.16827257,0.11587233,-0.26234084,0.035886355,0.46798435,-0.5032953,-0.3398237,0.4602748,-0.37340882
SCLC-21H,-0.9129469,0.25634873,0.48815852,-0.08559389,0.31566978,-0.0629856,-0.6781623,0.12100061,0.16815758,-0.2668298,-0.080519184,0.46507707,-0.5922784,-0.34047112,0.6142395,-0.23960187
NCI-H2347,0.24782237,-0.56632537,-0.10573148,-0.3491404,0.26494542,-0.05048257,-0.33818072,0.026977926,0.47978047,-0.41787368,-0.018269043,0.09682425,-0.17054018,-0.03260439,0.13818987,0.21413128
MHH-ES-1,-1.2029791,0.9922135,0.7832057,-0.83716613,-0.27208185,0.97259533,-1.8090534,1.8299421,-0.3978678,-1.774923,1.9664042,-2.4695911,-0.26322564,1.3042803,2.1294289,-2.3802192
NCI-H661,-0.22650978,0.3337691,1.6588858,-1.3426598,-0.9090155,-0.19850871,-1.953268,3.0624902,-0.80323356,-2.252868,2.496334,-2.2317677,-0.19041449,1.7861178,1.3054434,-3.2093744
EW-11,-1.036839,0.2024947,0.5031912,-0.09287919,0.14345324,0.04242965,-0.56133246,0.20809866,0.12254343,-0.32437408,0.04806964,0.42564783,-0.51329565,-0.3059039,0.5230957,-0.39393488
NCI-H1155,-0.89974385,1.2662097,0.91147375,1.2380338,-0.26913735,-1.1708914,1.4121647,-0.102248505,-1.0186151,1.1383891,-1.3857507,2.3304143,-0.58913434,-0.6163465,-0.43128452,0.2511465
Ca9-22,-1.02182,0.20248032,0.48226914,-0.14927176,0.09125352,-0.13545197,-0.7664101,0.18707107,0.08592279,-0.33153915,-0.07500145,0.37614918,-0.4821856,-0.3057531,0.5903778,-0.43913728
LoVo,6.8355002,-4.055803,-2.1293914,-0.58243763,0.56856674,-1.4009981,1.8212284,-0.78998417,0.4836408,0.26184028,0.35681126,-0.9406104,1.4641323,0.13199791,-3.2586317,1.7222584
RXF 393L,-1.9729558,1.4102279,0.5056629,0.5526179,0.08017598,0.70448345,-0.53376865,1.8988854,-1.0865694,-0.53896624,0.9832007,-2.3673959,-0.1674898,1.2903872,1.48055,-1.3071346
Ca Ski,1.500207,0.44012362,0.23344594,0.22016482,0.8613628,0.44574606,-0.26795378,-1.5228763,-0.86533564,0.66991735,1.4822552,-0.75146616,-0.18901989,-1.5631613,-1.4885647,-1.7673907
EPLC-272H,-0.95733696,0.19581649,0.45589098,-0.13478248,0.1291649,-0.02939512,-0.65320396,0.19047834,0.14484967,-0.3096071,-0.065878354,0.43669996,-0.49600387,-0.3148103,0.6090944,-0.404164
RPMI-8402,-1.318474,1.3134801,1.7846351,1.2013357,-0.09498303,-1.1971977,-0.29165888,3.950284,-2.386083,-0.60902905,1.5171077,-2.3033745,-0.89988214,1.5950768,0.9799749,-2.2126105
DG-75,-1.0252268,0.22373962,0.45250434,-0.07460408,0.090371594,-0.02413089,-0.5881956,0.18834727,0.112161316,-0.29014233,-0.09367432,0.39775962,-0.5426803,-0.32318088,0.09488693,-0.32401305
NCI-H2452,-0.44446433,0.20183107,0.281319,-1.02888,-0.01027092,1.0644321,-1.6501943,1.6950709,0.035407964,-1.9273213,2.2481058,-2.731946,-0.111181244,1.4424545,0.8410572,-2.0045102
BT-474,-0.42044714,1.2328031,0.7202599,0.3685782,0.7284801,0.44417554,-0.58322644,-1.1729755,-1.2659063,0.3670931,1.3576962,-0.413866,-0.6071521,-1.9471822,-0.7632458,-2.8661296
HCC1569,-1.1114693,0.20872338,0.4567247,-0.07156296,-0.040306278,-0.063318685,-0.5854647,0.25852448,0.052343067,-0.27929083,-0.029584873,0.43655485,-0.4360959,-0.29303527,0.7099241,-0.43698502
Panc 08.13,0.4777174,-0.6772583,-0.44284713,0.15606776,0.67322093,-0.0073338337,-0.23243709,0.73748225,-0.29032952,-0.42461076,0.44351518,-1.6528555,0.17295,0.49430183,0.19536853,0.15108454
NCI-H596,0.018358335,1.2299412,0.43034708,0.58507144,0.2991905,0.417799,-0.5273339,-1.1766866,-1.1475444,0.488844,1.4899607,-0.56932133,-0.7091479,-1.6019049,-0.010149002,-2.8322165
SNU-5,-1.2224134,0.99193865,0.78003395,-0.79702955,-0.27891958,1.0060794,-1.8870742,1.870862,-0.36550963,-1.7318923,2.2471833,-2.456579,-0.40911084,1.3399062,1.7104596,-2.3916674
PF-382,-1.960474,1.3924228,0.475104,0.55314475,0.14479312,0.7280094,-0.6464902,1.8650442,-1.0633011,-0.61868787,1.0049231,-2.3482144,-0.1782042,1.2230511,1.4260504,-1.2687222
SCC-9,-1.0123684,0.9884635,1.0404404,-0.71347016,-0.27727103,0.9960535,-1.7073455,1.9163203,-0.35186696,-1.774531,2.1509502,-2.5861418,-0.5771844,1.3578717,1.7317142,-2.5348883
BT-20,-0.4208296,2.2343388,1.8374588,-0.113282904,0.05551114,1.3604159,-1.3618737,0.4879286,-1.983499,-1.2220404,3.7534995,-3.106797,-0.62667394,-0.09759982,0.5555957,-4.7931824
NCI-H1395,-1.486222,1.0849967,-0.6637327,0.011472722,-0.051146016,1.6804192,4.1134655e-05,-0.43738493,0.42829856,-0.1941538,-0.22658068,-0.8641623,0.63795483,0.6889933,1.267238,0.41699022
U-698-M,-0.98734146,0.20433085,0.41352287,-0.1982368,0.14266217,-0.07069907,-0.6491612,0.22934559,0.08866597,-0.2876368,0.049978532,0.42079768,-0.3605078,-0.30678964,0.46191323,-0.32213217
OS-RC-2,-1.7998098,0.927318,0.077590466,0.45499715,0.40664813,0.89648193,-0.71753126,1.7100364,-0.9076347,-0.9102801,0.9244573,-2.5351324,-0.037954785,1.216515,1.3210763,-0.7897804
Loucy,-0.95265925,0.19041228,0.45485896,-0.09053311,0.07873089,-0.08095126,-0.95326626,0.298419,0.099958755,-0.26766202,-0.029280491,0.3890234,-0.49185845,-0.3448322,0.5201706,-0.3205473
NCI-H358,1.1249672,-1.1869504,-0.48047888,0.24633896,0.56252,-0.78067267,0.32226616,-0.60111254,0.24897042,0.50263935,-0.7408649,0.8444756,-0.08115873,-0.8715401,-0.7367583,1.0705384
NCI-H1693,0.7377386,-0.88905346,0.84878075,-0.83781594,-0.09298382,-0.8300891,-1.125248,1.1643963,0.038898643,-0.82723856,0.80228317,0.16680124,-0.89662015,-0.022379607,0.09356376,-0.80197346
TE-11,-1.1179984,0.9877452,0.92646307,-0.7545084,-0.27931985,0.956373,-1.8584936,1.7871748,-0.33311218,-1.7699518,2.1406372,-2.4324431,-0.322496,1.1680685,1.5262781,-2.2320654
SK-MEL-30,-0.8340404,0.19892757,0.45973703,-0.07373944,0.1778279,-0.005858289,-0.7532381,0.22600132,0.11700873,-0.30574143,-0.058274917,0.44107264,-0.5873228,-0.31437638,0.5487435,-0.34205294
HuO9,0.12322101,-0.5502305,-0.10508144,-0.33648953,0.28556278,0.017042153,-0.53467095,0.20140685,0.5258019,-0.33915168,-0.0042827846,0.09452929,-0.11993432,-0.17971581,0.1868034,0.04347752
A-388,0.61722887,1.1777447,0.31461617,0.5191356,0.3541789,0.4587372,-0.5496432,-1.3905315,-1.2295297,0.43660045,1.4557055,-0.5338505,-0.70154434,-1.9347107,-0.7523205,-2.8755207
MEG-01,-0.99521536,0.22178353,0.47485682,-0.057081953,-0.04388506,-0.06829184,-0.6454779,0.14877927,0.08863989,-0.21267965,-0.0145154465,0.46063736,-0.5053749,-0.3255013,0.37916288,-0.26550883
CAMA-1,-1.522925,0.5917157,0.10808881,0.8006505,0.36972928,-0.050455883,0.06389561,-0.06991625,-0.42590466,0.5832219,-0.80689365,0.3567033,-0.29213443,-0.4993108,0.5796705,0.44258907
KOSC-2,-1.0565671,0.9799177,0.95492566,-0.79032236,-0.27253276,1.0272936,-1.9962431,1.8616831,-0.3260651,-1.8375345,1.7845178,-2.2298582,-0.42862752,1.234745,1.4074924,-2.185041
NCI-H727,-0.0955625,-0.3505276,0.11376016,0.6528307,0.6670554,-0.7551022,0.11302928,-0.48772395,-0.19924748,0.6129777,-0.859958,1.1848397,-0.45318803,-1.0911012,-0.5847996,0.5554243
SNU-C1,-0.88536394,0.20842552,0.49241224,-0.07740192,0.13605282,0.013336942,-0.7441737,0.24512663,0.116391346,-0.22618337,-0.037253268,0.3962234,-0.45429793,-0.30285874,0.56007963,-0.45209473
Mel JuSo,-0.5287739,0.20084798,0.34161615,-0.9880973,-0.07517487,1.0725225,-1.797802,1.6646093,0.030157465,-1.8368461,2.1281915,-2.8189845,-0.0048741773,1.3694056,1.1463153,-1.9759612
MZ-MEL-2,-0.31373072,0.20182776,0.34595904,-1.0675567,-0.04121909,1.0683625,-1.7762336,1.6908011,0.056946654,-1.9561278,2.086924,-2.8285794,-0.04903337,1.2478571,0.5600003,-1.9207163
RCM-1 [Human rectum adenocarcinoma],3.0008857,-1.9262669,-0.034896273,0.12525898,0.32632825,-1.8511425,0.8673762,0.1216515,-0.51476973,0.8936745,-0.0909299,0.6967757,0.010487508,-0.63888615,-1.7858971,0.4273038
IGR-1,-1.9914488,1.7095364,-0.23408243,-0.7041483,-0.3321094,2.7555692,-1.259312,1.1898934,0.12929222,-1.7341397,2.101055,-3.879261,0.7768104,2.1807399,3.1714692,-1.4604247
LC-2/ad,-1.4917663,1.0006373,0.9987995,-0.77681977,-0.27488628,1.0035756,-1.7092149,1.8902003,-0.35512343,-1.719855,2.487567,-2.556417,-0.36531737,1.3080479,1.5414729,-2.4474955
SJNB-6,-0.7972719,0.22822419,0.4540077,-0.035066046,0.379227,-0.09726065,-0.5901059,0.080966994,0.07205725,-0.26736927,0.010947533,0.39706448,-0.62579226,-0.32807228,0.5118588,-0.29132128
TE-10,-1.2653459,0.9859714,0.90948224,-0.84768385,-0.2914443,0.97839695,-1.7866861,1.8829261,-0.35691878,-1.7312367,2.3427136,-2.2387245,-0.5087908,1.2224675,1.2206246,-2.4657989
VA-ES-BJ,-0.21817623,0.20442271,0.30924472,-1.0232155,0.03833732,1.0935069,-1.7467788,1.7653302,-0.015904345,-1.9274839,1.9279524,-2.8118382,-0.19440426,1.2944078,1.7308161,-1.8767905
RERF-LC-MS,-0.8831686,0.19040492,0.4457017,-0.041680895,0.0041456074,-0.05776057,-0.6356968,0.20237276,0.073099375,-0.31128496,-0.06354098,0.43803984,-0.50758696,-0.2899132,0.63170314,-0.11979979
SK-OV-3,-0.037091985,2.2425318,1.222855,-0.03176005,-0.16025302,1.3953267,-1.3560157,0.4144015,-1.9489709,-1.1676573,3.9941194,-3.0980968,-0.5418305,-0.14270301,0.19682568,-5.0898924
FaDu,-1.1485542,0.9840226,0.96483415,-0.75798374,-0.27780113,0.953793,-1.8127717,1.8238935,-0.32641974,-1.7580057,2.1977048,-2.5671034,-0.7038934,1.2570708,1.1384165,-2.4620492
NCI-H1417,-1.1130123,0.9884211,0.8856033,-0.8402182,-0.28563228,1.0225329,-1.9902327,1.8596022,-0.3716554,-1.7500836,2.1780727,-2.341152,-0.42890835,1.2098006,1.8201813,-2.4163187
ALL-PO,-0.8169248,0.25019217,0.48855326,-0.19527318,0.15279068,-0.052840874,-0.6523623,0.12576652,0.11248011,-0.3222836,-0.08826358,0.41474423,-0.44322985,-0.28717345,0.6280334,-0.32824993
NCI-N87,-1.0296036,0.18053491,0.495138,-0.14339109,0.008170567,-0.018516472,-0.62112373,0.2239431,0.12415527,-0.34760207,-0.07540968,0.3973648,-0.6182982,-0.29339194,0.5425708,-0.31917784
Jiyoye,-0.9302004,0.19369161,0.47758323,-0.12980075,-0.095496066,-0.113900244,-0.6656014,0.22307757,0.1310854,-0.26736906,0.005469281,0.41221747,-0.51113486,-0.30779266,0.9504467,-0.2728841
NCI-H1651,-1.433113,0.96699685,0.783841,-0.8023071,-0.29402933,1.0564871,-1.778461,1.8800071,-0.30379087,-1.7113273,2.2774236,-2.4132485,-0.30721366,1.3183899,1.1779916,-2.4230227
NCI-H28,-0.39774328,0.19866115,0.23009375,-1.06584,0.0106958,1.0832176,-1.7731649,1.6701672,0.0023704562,-1.9636871,2.0236232,-2.73313,-0.14059156,1.3979717,1.7709497,-1.8610603
COR-L88,-0.9875425,0.19913393,0.4637499,-0.121077076,-0.023910515,-0.012708958,-0.7910892,0.23250666,0.09456402,-0.2682698,-0.054178774,0.43926212,-0.53222615,-0.31596467,0.33562762,-0.302789
LB771-HNC,-1.2185977,0.97960234,0.94988316,-0.79095143,-0.27140763,1.0128958,-1.7238077,1.8221002,-0.3910671,-1.8231019,2.1571896,-2.1850717,-0.45579422,1.3110276,1.2995737,-2.5016165
EW-12,-0.9519834,0.23817426,0.43883404,-0.2270959,-0.19304803,-0.04530138,-0.6186781,0.2216083,0.13125576,-0.20406905,-0.051291883,0.43368563,-0.47007883,-0.35353968,0.38322937,-0.25000283
BALL-1,-1.1293564,0.9821565,0.9110382,-0.7964161,-0.28745678,0.96339273,-1.8986746,1.8749787,-0.3404688,-1.7945716,2.1449537,-2.3124797,-0.4129014,1.2643701,1.67297,-2.2635608
MN-60,-1.4546044,0.25116035,0.62903327,1.7489641,1.5305427,-0.73886454,-0.5184923,2.719069,-2.061767,-0.067420125,0.79171574,-2.7642205,-1.0034393,0.12794982,0.7045312,-1.0079377
NCI-H2141,-0.93592805,0.22591051,0.50742817,-0.10727711,0.043379243,-0.067948475,-0.48608014,0.18799354,0.16967222,-0.27766037,0.039805084,0.43280226,-0.4568671,-0.31724152,0.50276506,-0.27899516
PA-1,0.24749878,-0.5579467,-0.10698435,-0.3384907,0.21893764,-0.05612279,-0.64062047,-0.047109876,0.47741693,-0.31054756,0.0056991745,0.09223482,-0.052203104,-0.061194886,0.1968479,0.27055842
DMS 114,0.8846023,-0.90597874,0.83406776,-0.787207,-0.09203309,-1.080924,-0.979236,1.2947872,0.03912934,-0.8552528,0.7889062,0.17754585,-0.8709062,0.022908613,0.28941852,-0.9795225
BL-41,-1.0485815,0.24853912,0.441808,-0.093607195,0.2185562,-0.009419316,-0.8646585,0.20752156,0.078951605,-0.19779286,-0.048320733,0.40651208,-0.50483084,-0.34951085,0.70173347,-0.13746329
T98G,-1.1916211,0.9915189,0.8377659,-0.7462137,-0.26589483,1.0090514,-1.7319916,1.8680534,-0.40104395,-1.7524353,2.281228,-2.3694336,-0.4348822,1.3082134,1.8408632,-2.3145323
H9,-1.3188766,0.9859981,0.94858664,-0.840014,-0.28197342,0.97851276,-1.864253,1.8407707,-0.40044308,-1.916366,2.5108163,-2.204628,-0.28526932,1.2758666,1.3211254,-2.3972387
EKVX,-1.0138557,0.17793888,0.44987625,-0.104465924,-0.07566295,-0.06269656,-0.61508155,0.18833746,0.14382178,-0.26455775,-0.057298265,0.40888533,-0.51828223,-0.34996712,0.4185408,-0.2545067
SK-N-DZ,-0.92111105,0.25558263,0.48630828,-0.09972221,0.20312609,-0.06703788,-0.84564304,0.23155782,0.124653466,-0.25557548,-0.025154868,0.4375129,-0.56945664,-0.3369332,0.46816015,-0.20956165
MCF-7,1.1886181,1.3346331,0.056800753,-0.33153614,0.30815008,1.4986253,-1.5633454,0.2704671,-1.3459021,-1.1381946,3.717507,-3.6358697,-0.26886645,-0.15461393,-1.0959373,-4.4952526
D-423MG,-0.8681262,0.2013616,0.4666239,-0.07636239,-0.08368873,-0.035570037,-0.8252988,0.11693744,0.13542055,-0.2584413,0.02229974,0.3764127,-0.49684227,-0.34231848,0.33485073,-0.3239588
NCI-H69,0.33593065,1.2733788,0.7436609,0.40406865,0.8440423,0.42182136,-0.5128418,-1.2374364,-1.198681,0.49383408,1.4353876,-0.3309679,-0.63632005,-1.9550802,-1.0260049,-2.7772927
AN3-CA,-1.0392615,0.90796024,1.8978579,2.362316,0.42259943,-2.4924316,0.753139,2.3116682,-3.1024384,1.5064273,-0.22534291,0.25069037,-1.463565,-0.7200333,-0.47262657,-1.4545616
COLO 679,-1.6381636,1.713453,-0.49424958,-0.6905593,-0.33216748,2.7617157,-1.3651431,1.1597862,0.14093846,-1.7466903,2.2779248,-3.733644,0.72559226,2.2123044,2.1131036,-1.6616949
CFPAC-1,-0.16685699,-0.39963448,0.115499936,0.5779383,0.84729886,-0.7332138,0.15254022,-0.32292598,-0.19854619,0.76962185,-0.85868084,1.1880684,-0.44826326,-1.0669723,-0.37221795,0.71081746
MKN7,-0.9755406,0.26111132,0.48098198,-0.018074699,0.13666564,-0.028285462,-0.7104844,0.21452889,0.0894494,-0.3285457,0.0056436546,0.45901653,-0.43019828,-0.3076785,0.39347255,-0.3278684
HCE-4,-0.79655063,0.2867072,0.49124745,-0.21202466,0.071733385,-0.002250187,-0.6315752,0.1878685,0.1388237,-0.26941204,0.011905611,0.40528122,-0.53541625,-0.31333414,0.54078954,-0.37102854
Daudi,-0.7036287,0.2350656,0.4905507,-0.16830425,0.19047132,-0.055401865,-0.76182145,0.12284725,0.10396505,-0.2442206,0.00554597,0.4993548,-0.49251336,-0.3020727,0.62392706,-0.18932042
SF539,-1.6021373,0.5832165,0.1711553,0.83343995,0.5590522,-0.0066817813,0.03350994,0.0145346,-0.40251854,0.53294533,-0.8155712,0.41898087,-0.29879725,-0.48057437,0.41676128,0.54255724
EFO-21,-0.89984185,0.2464951,0.48045978,-0.18954322,0.0031641573,-0.02952648,-0.39118978,0.20295948,0.13009033,-0.17513308,-0.07642034,0.38072193,-0.46975946,-0.34917334,0.43934157,-0.4139711
HuTu 80,-0.0724828,-0.57132673,-0.101137474,-0.42813307,0.25454894,-0.020529218,-0.42727762,-0.09310655,0.46247527,-0.3443298,-0.036705628,0.095147155,-0.067831345,-0.10424281,0.3822705,0.35980853
OE33,-0.97104096,0.988078,0.9906769,-0.79695755,-0.27997625,0.9489262,-1.8658359,1.8381244,-0.36193383,-1.8178985,2.439888,-2.5724034,-0.3888782,1.4056826,1.0358325,-2.4256396
NCI-H1650,-1.3208239,0.97400767,1.0262892,-0.876061,-0.2767822,0.97412175,-1.7811277,1.9069843,-0.26623678,-1.8149992,2.0416944,-2.6444848,-0.52499175,1.254371,1.9043365,-2.2921517
NCI-H226,-0.349505,0.20182101,0.21405177,-1.0549849,-0.07186519,1.0710477,-1.6660686,1.6113361,0.099517226,-1.9018726,2.2508924,-2.7617927,-0.10424848,1.4549115,1.0759398,-1.6985487
CAL-39,-1.1439958,0.9739068,0.96049863,-0.8005576,-0.2864111,0.96379036,-1.7788053,1.8809713,-0.43723467,-1.8119832,2.2593367,-2.5262768,-0.35293192,1.3219786,1.6466097,-2.1288984
ARH-77,-0.64142793,0.19902551,0.4556845,-0.11373542,0.02325017,-0.046172246,-0.66364944,0.25318593,0.07889143,-0.28844196,-0.06218644,0.38899338,-0.47974226,-0.3061278,0.58866715,-0.4081894
Capan-1,-0.12604997,2.2234313,-0.02350072,0.22836387,-0.9864527,1.6531951,0.61837006,-0.50193393,-0.74303997,0.13715099,1.1531479,-1.4559245,1.0162513,1.0885785,0.3180783,-1.9148272
U266B1,-1.7383804,1.2885972,-0.40260038,0.049483545,-0.1940628,1.6189862,-0.18806458,-0.39948988,0.37345278,-0.16449197,-0.071709886,-0.67544293,0.4482767,0.5613003,0.76487356,0.15120375
OCUB-M,0.20822552,1.1514232,0.8846997,0.5061525,0.6700921,0.45022842,-0.52638954,-1.1736841,-1.1785274,0.4629431,1.4796855,-0.5047166,-0.6911099,-2.0137405,-0.48099494,-2.881103
IST-Mes1,-0.50269973,0.20320989,0.18267034,-1.0668519,-0.1393776,1.0702552,-1.7508775,1.6120752,0.022471726,-1.9412156,2.2194893,-2.7543452,-0.20767134,1.4006419,1.6018176,-1.8903512
IM-9,0.08819093,-0.5872376,-0.107986584,-0.36036688,0.20235707,0.028974544,-0.15947258,0.10567577,0.41563004,-0.36951357,0.00656618,0.094832346,-0.06322078,-0.09533461,0.22725187,0.17912504
SHP-77,-0.16180263,-0.3739578,0.11907008,0.6083481,0.497644,-0.73912746,0.28844213,-0.6039581,-0.18000661,0.60415334,-0.8601799,1.1825658,-0.43528956,-1.0799594,-0.42313305,0.52413404
SK-LU-1,-0.7706351,0.36616984,0.22481291,0.58943737,0.3280276,-0.07591654,-0.20946713,0.9994787,-0.8006045,-0.11223047,0.39448774,-1.1202649,-0.22114983,0.31393275,0.4523951,-0.4181253
NCI-H524,-0.9830413,0.19221361,0.4959664,-0.016888812,0.071268685,-0.04100958,-0.7249123,0.09441529,0.13560392,-0.20452115,0.01573829,0.4079158,-0.48156673,-0.2984278,0.60964364,-0.28764012
MDA-MB-361,0.788235,1.2966866,0.3163529,-0.35643607,0.21536312,1.4957012,-1.4903953,0.31240246,-1.25149,-1.3331276,3.2931125,-3.6152258,-0.09805381,-0.2312198,-0.76559067,-4.336776
BB65-RCC,-0.8918378,0.218518,0.48487994,-0.14891027,0.1516914,-0.028862936,-0.5216102,0.27173725,0.10185243,-0.25494137,-0.08971396,0.4270311,-0.5139678,-0.3309107,0.4209414,-0.35520256
COLO 800,-1.8995693,2.1568115,0.023648053,-0.6003653,-0.64918405,2.5926409,-0.9540998,1.3062143,-0.13672668,-1.6720607,1.9165546,-3.413679,0.4874806,2.319941,1.682473,-2.05569
MLMA,-0.97634655,0.20762682,0.47890663,-0.123375416,0.11332534,-0.06574785,-0.6759576,0.2634008,0.06790985,-0.31229088,-0.07973,0.4111526,-0.48833966,-0.3277,0.60785294,-0.35496294
NCI-H2171,-1.2317294,0.1110969,0.8512609,1.5375886,1.0603145,-1.3047214,-0.17197904,0.5577879,-1.5905745,0.9881202,-0.46022612,0.2881555,-1.0661926,-1.3075106,-0.28634822,-0.46686012
KNS-81-FD,-1.523974,0.26357207,0.63074064,1.9352841,1.506003,-0.74151397,-0.49547595,2.666762,-2.2955854,-0.03365445,0.74868906,-2.751011,-0.9802865,0.32361507,0.6204768,-0.9947128
Karpas-422,-1.6101053,0.57047206,0.119287096,0.947083,0.519238,-0.031452585,0.14378014,-0.034152336,-0.49119374,0.5154717,-0.8067995,0.37503934,-0.32617372,-0.46180058,0.45207733,0.50906694
NCI-H1623,-0.940129,0.21595493,0.46457478,-0.10711082,0.1423159,-0.020739079,-0.5893064,0.22232604,0.062294856,-0.23093365,0.003284676,0.44351035,-0.49293762,-0.35121176,0.4294837,-0.28295946
COLO 668,-0.19093819,-0.3601771,0.11090408,0.44121632,0.45192143,-0.75104225,0.13040988,-0.42175612,-0.1645322,0.6913346,-0.86230564,1.1827638,-0.41907883,-1.0774406,-0.38201898,0.5961582
SW900,-1.3052956,-0.32920656,0.75791997,0.9125937,0.3941022,-1.1745712,-0.32409668,3.138122,-1.2344332,-0.4066678,-0.064251155,-1.1863699,-0.6164718,1.2786193,1.1638634,0.16117889
ECC10,2.660372,-1.5754299,-2.022012,-0.40516827,0.3612583,0.905921,0.9605338,-1.1110394,0.84723413,-0.20048712,0.14907648,-1.604554,1.520773,0.54422766,-0.6198833,1.471447
CAL-27,-1.3964806,1.0028604,0.8396597,-0.8758445,-0.283348,0.96162343,-1.8971202,1.851896,-0.32875082,-1.7397292,2.1595938,-2.2977395,-0.43183872,1.2657127,1.5636207,-2.427277
MHH-CALL-2,-0.9891507,-0.993139,0.26190537,0.32664454,1.0716641,-0.75379795,-1.0307558,3.5492764,-1.0959767,-1.4909588,0.79385716,-3.3007674,-0.42424482,1.8564451,1.5085588,0.08741931
NUGC-3,-0.9251129,0.20907703,0.45521364,-0.16562924,0.022956595,-0.034600552,-0.5328847,0.14490712,0.09559521,-0.24496338,0.058689103,0.42007416,-0.49550325,-0.30659285,0.8348572,-0.24278185
DMS 79,-0.9476218,0.25277108,0.49817288,-0.16224992,-0.051251568,-0.040839035,-0.6726979,0.2664424,0.09738962,-0.31014264,-0.017379537,0.39575633,-0.59366596,-0.315545,0.41506565,-0.32179356
L-363,0.13089284,1.1852458,0.6216247,0.47765386,0.29511565,0.4564288,-0.5542048,-1.2870717,-1.1669103,0.4836647,1.6074417,-0.4509368,-0.732132,-1.868775,-0.99297917,-2.711628
Detroit 562,0.18695644,2.2365801,1.0018078,-0.24139391,-0.0410182,1.399724,-1.344532,0.47193348,-1.7721789,-1.098708,3.2794013,-3.2252796,-0.5399417,-0.082250014,-0.15462382,-4.9953923
639V,0.62799144,1.2073783,0.6136362,0.5408399,0.932332,0.4739928,-0.55441177,-1.3460258,-1.2454941,0.5276098,1.4928229,-0.44858342,-0.6781435,-1.6810597,-1.1400645,-2.7068613
NCI-H82,0.13971922,-0.5455851,-0.10872017,-0.52472913,0.08075925,0.04392465,-0.7040541,0.04411649,0.4822296,-0.39585754,-0.066219464,0.094269566,-0.0029042363,-0.13847426,0.17659217,0.40242353
NCI-H345,-0.8703533,0.19349158,0.4700501,-0.057989664,0.17496657,-0.12506056,-0.6095524,0.19054992,0.1117485,-0.30566642,-0.052575655,0.4234513,-0.53070927,-0.31520933,0.46344638,-0.29347485
IST-SL2,-1.6429179,0.5999072,0.12858367,0.85332596,0.34065047,-0.026388172,-0.014021203,-0.013715058,-0.3488517,0.49725413,-0.81270415,0.42517942,-0.31438518,-0.50880045,0.36776388,0.5816602
U-118MG,-1.7719493,1.4128919,0.37431574,0.58492374,0.05977109,0.71668655,-0.54645973,1.833872,-1.0999186,-0.7450686,0.8663752,-2.3271904,-0.17002782,1.2319463,1.2522628,-1.2606791
HAL-01,-0.26811174,0.20536117,0.3766689,-1.0132023,-0.049282573,1.0305303,-1.6475682,1.7034903,0.033303887,-1.9024614,2.0915518,-2.7241466,-0.08047592,1.4004825,0.7277799,-1.9295964
NCI-H1648,-1.2691386,0.97758394,0.77157617,-0.8419477,-0.27704728,1.0101534,-1.7677926,1.8471383,-0.40977836,-1.8046787,2.304215,-2.4745462,-0.45436472,1.283589,1.2691658,-2.6093779
OE19,-1.01815,0.2076021,0.53176117,-0.1445396,-0.021616057,-0.07570033,-0.64930725,0.22218347,0.13770908,-0.26386705,-0.04878071,0.4122749,-0.4338178,-0.29382393,0.37554204,-0.4285066
SW1463,5.579283,-3.0176275,-1.4190731,-0.05875624,0.13938332,-1.7282732,1.8252826,-0.9693216,-0.14551824,1.0014056,0.15527703,-0.34591532,1.2707433,0.14992614,-2.9343276,1.1827599
T84,3.3426456,-0.46017313,-1.7642757,1.5686312,1.5411952,0.30134282,2.2467892,-3.033486,-1.2646717,2.439318,0.20310542,-1.2291065,1.161574,-1.5560496,-2.9108295,0.0716435
LS411N,1.9548497,-0.38095555,-1.3220772,0.39204073,-0.10891988,0.4550967,1.5620158,0.21077938,-0.4761321,-0.1012519,0.42842615,-2.3943398,1.5459508,1.6681886,-0.792761,0.62191737
NCI-H747,2.3015225,-1.2843342,-1.743385,0.373523,0.58801514,0.19416647,1.5260553,-1.4946458,0.37800357,1.0053437,-0.5477163,-0.45977643,1.2223434,-0.37257332,-1.4944232,1.6523205
CAL-12T,-2.0472198,2.1521132,0.14648566,-0.60904473,-0.6620574,2.581888,-1.3469341,1.3142072,-0.14007571,-1.6473298,2.0542705,-3.4612637,0.6117504,2.2473912,2.0334835,-1.946121
Caki-1,-0.5249052,0.2008597,0.32689616,-1.083556,0.06778226,1.0863446,-1.5288854,1.6980968,-0.01217198,-1.9230202,2.1751797,-2.7039146,0.019119412,1.3636609,0.89903283,-1.9710414
NCI-H1793,-0.38497192,-0.22071227,-0.7253063,0.7212993,1.4853439,0.93412167,-0.5513398,2.8418715,-1.5922681,-1.2508168,2.0079448,-5.5250278,0.59002256,2.055615,1.1844889,-0.7035812
A-498,-0.773909,0.20647198,0.26606283,-1.0618099,-0.039956912,1.0573854,-1.7850803,1.6038109,0.070427164,-1.886153,2.306016,-2.8183687,-0.10908514,1.3283019,1.3190802,-1.7663369
HOP-92,-1.9177649,-0.15731864,0.9094422,0.41059905,0.4142195,-0.9437896,-1.0924586,4.3046207,-1.3707765,-1.3333323,0.73195505,-2.7795503,-0.7487387,1.9463341,1.8761686,-0.3647784
ONS-76,-0.42956573,0.20708309,0.33981502,-0.9354081,-0.04884687,0.97763145,-1.8297276,1.5597987,0.09121926,-1.9010253,2.1917374,-2.7239141,-0.18891832,1.4881101,1.3001081,-1.8439388
MIA PaCa-2,-0.9673289,0.36889735,0.232724,0.5536025,0.41567108,-0.06829295,-0.2892564,1.0670378,-0.8649605,-0.22426696,0.3639957,-1.2500525,-0.23369083,0.3140642,0.10245621,-0.47744152
SBC-5,-0.48135114,0.20386064,0.33163956,-1.0069962,3.586337e-05,1.081839,-1.7009921,1.7377976,-0.0065796003,-1.8587246,2.0818307,-2.884486,-0.109742805,1.3655597,1.4379776,-1.9638586
NCI-H1703,-0.9893037,0.9806136,0.9894309,-0.8713724,-0.27676105,1.0374784,-1.8853493,1.804514,-0.3845351,-1.7637835,2.1825082,-2.460436,-0.40904632,1.3188337,1.3305843,-2.4238048
KM-H2,0.06292214,-0.52227956,-0.10992916,-0.36608678,0.21685044,-0.045000665,-0.38787508,-0.07999404,0.48037845,-0.3616193,-0.029700577,0.097786486,-0.023580838,-0.06976432,0.32496962,0.44136357
LC4-1,-0.15169476,0.20554675,0.31300217,-1.021559,-0.16885887,1.1186378,-2.0029037,1.6362417,0.08713998,-1.8903483,2.049499,-2.7752001,0.046983317,1.4275388,1.1433567,-1.8994578
BB49-HNC,-0.21400963,0.20575489,0.28693277,-1.0313802,0.104249336,0.9931925,-1.8253636,1.6837777,-0.021224696,-1.971094,2.060933,-2.5578783,-0.015264105,1.3645217,1.103932,-1.9254645
LB373-MEL-D,-0.6442807,0.20739195,0.2734731,-0.989668,0.08821558,1.0499465,-1.7372562,1.677829,0.014345033,-1.9351197,2.2418633,-2.899522,-0.006149024,1.4467129,1.312163,-1.8245732
G-361,-1.691043,1.708235,-0.3417394,-0.70224875,-0.3335453,2.7395148,-1.1596634,1.1509537,0.13407734,-1.7314564,2.218014,-3.881492,0.67775387,2.1680706,2.2380457,-1.6281649
DU145,-1.066789,0.97759515,0.944123,-0.83243096,-0.28113523,0.99139714,-1.7611533,1.9341094,-0.39828116,-1.8445976,2.1868896,-2.3810253,-0.36753047,1.2632632,1.5205058,-2.4253232
D-392MG,-1.6226096,0.93716836,0.1737796,0.41862124,0.5092778,0.91403675,-0.714288,1.6570551,-0.906032,-0.7871142,1.0729461,-2.8716936,0.024353959,1.1478,1.6161175,-0.85720986
SK-MEL-5,-1.9468997,1.7047884,-0.395986,-0.6962994,-0.32608393,2.7653992,-1.4323502,1.1461787,0.13743894,-1.7425538,2.0154512,-3.8575172,0.7120574,2.1647527,1.7974048,-1.4491229
DV-90,1.0245091,-1.2191101,-0.46870324,0.2501694,0.62925303,-0.6166961,0.28699994,-0.6422166,0.2657447,0.38519633,-0.73970896,0.7856174,-0.06481363,-0.78965175,-0.8982356,1.041174
A-253,-1.0963532,0.98944175,0.79344285,-0.7716612,-0.2665396,0.954577,-1.9280663,1.818337,-0.22658528,-1.8662771,2.1067188,-2.3048434,-0.24027851,1.2130243,1.2790571,-2.3494587
MDA-MB-231,-1.911768,1.6592743,-0.48631757,0.7772047,0.12230874,1.6080393,0.24288169,0.6184629,-0.636932,0.057326898,0.22996086,-2.1759565,0.69678074,1.2654253,0.9523169,-0.1273975
SK-MEL-1,-1.5083225,1.1028281,-0.61899257,0.011459236,-0.043306652,1.6951164,-0.09937243,-0.42739826,0.560479,-0.18662378,-0.22234502,-0.9039581,0.63784057,0.6909317,1.3080598,0.6424268
YKG-1,-2.0787606,1.3853289,0.5412697,0.6112315,-0.009951614,0.7150821,-0.6003745,1.8238921,-1.1466,-0.75242114,1.1854542,-2.3721855,-0.16115405,1.1915045,1.2404932,-1.3496963
S-117,-0.7961036,0.9933941,0.9589504,-0.8450356,-0.2884519,0.9551822,-1.8220158,1.8502353,-0.4147228,-1.8333176,2.0640185,-2.4776685,-0.64230686,1.2498453,1.4305689,-2.5104666
GAK,0.031200372,-0.5913316,-0.10950903,-0.44396815,0.13668911,0.161456,-0.2837389,-0.012088884,0.46359545,-0.35405868,0.010151159,0.09719224,-0.13586202,-0.13682705,0.13869974,0.40823326
D-566MG,-2.5945225,0.64851063,0.94265604,1.2221146,0.32441542,-0.72512543,-0.402155,4.1467667,-1.7429209,-0.7602253,0.20703161,-2.5431392,-0.51866883,2.1567056,1.9410095,-0.13640203
ABC-1,-1.033429,0.18397385,0.48944443,-0.042054564,0.09213833,-0.046493866,-0.5987586,0.23824884,0.09625392,-0.24056,0.016063824,0.39130226,-0.48919848,-0.3324978,0.24996895,-0.16698064
NCI-H128,0.18200174,-0.5609725,-0.109279126,-0.45713553,0.20137471,-0.032421894,-0.23712946,0.024325283,0.4641236,-0.36146715,0.015281476,0.09484648,-0.1538138,-0.11322846,0.22724187,0.29950854
SW1116,2.31405,-1.2720102,-1.7292912,0.3736563,0.69357586,0.15551578,1.4500353,-1.413387,0.34987137,1.0351273,-0.550295,-0.5797006,1.13172,-0.38847476,-1.6127815,1.6135921
SK-NEP-1,-0.9280828,0.9826662,1.0270905,-0.811086,-0.28549704,1.0058335,-1.7470154,1.8985971,-0.40523016,-1.7974638,2.3199937,-2.4006486,-0.4425402,1.3000816,1.2585738,-2.3609104
LXF 289,-1.6038765,0.9786062,0.8313803,-0.8085783,-0.28581852,0.95652753,-1.7732406,1.9026563,-0.41343164,-1.7117708,2.2244902,-2.4126058,-0.4675674,1.2561966,1.3580642,-2.3694494
NCI-H1522,-1.5744114,0.5976811,0.15911943,0.8698637,0.37266707,-0.007890432,0.14601615,0.02743502,-0.4653555,0.46787697,-0.80861354,0.4068433,-0.27911797,-0.4714507,0.4321041,0.48971662
MG-63,-0.24296969,0.1997001,0.30480605,-1.0530022,-0.10045801,1.0389183,-1.6348562,1.663958,0.087503,-1.8505236,2.2699132,-2.641243,-0.013349228,1.3668826,1.5774794,-1.7553209
ETK-1,-1.1653489,0.9830189,0.9094253,-0.7572596,-0.2941153,0.9805396,-1.9462373,1.8665173,-0.34209612,-1.6978219,2.0104537,-2.2406263,-0.3924261,1.2705716,1.2889563,-2.685209
ACHN,-0.57797885,0.20215698,0.28513992,-1.1291279,-0.04107242,1.1194551,-1.7518051,1.6339067,0.057995263,-1.8454679,2.0642748,-2.7100365,0.09319086,1.377874,1.2898577,-1.7961212
NCI-H2228,-1.0766681,0.9846726,0.8009023,-0.7658036,-0.27482837,0.9938952,-1.7822459,1.8614317,-0.35176015,-1.6845527,2.1585894,-2.3691747,-0.35012826,1.2314628,1.4022502,-2.452902
BB30-HNC,-0.9370432,0.27983677,0.50101805,-0.20176762,-0.006160021,-0.02790192,-0.6549027,0.22481163,0.11224091,-0.27657673,-0.06108078,0.36259472,-0.501344,-0.31313467,0.506195,-0.24094792
RPMI-7951,-2.923683,2.5880663,-0.32019958,0.804256,-0.35959882,2.3330069,0.12587538,1.3194776,-0.9286271,-0.55824727,0.8796731,-3.4352,0.8483343,2.1849813,2.045781,-0.8353139
MKN28,0.8216826,-1.4942391,-1.0203198,0.14526208,0.56592405,-0.3347324,0.3332076,1.0547456,0.21383776,-0.43039504,-0.2507408,-1.487955,0.7377926,1.2403811,0.09935971,1.6549401
KP-4,0.2969318,-0.6848453,-0.44174477,0.20117092,0.68571556,-0.00503302,-0.10574213,0.76466566,-0.31415874,-0.36592904,0.41616637,-1.7087961,0.20518991,0.3979755,0.1291863,0.17739151
D-263MG,-1.9934745,1.4139689,0.62962574,0.566069,0.22235838,0.69305044,-0.5972868,1.7593479,-1.2040538,-0.6938318,0.97851217,-2.322647,-0.16107935,1.2551647,1.4458969,-1.3662148
DMS 153,-1.0090936,0.1991319,0.4843191,-0.13243733,0.12585585,-0.09523101,-0.5933638,0.174501,0.10903874,-0.24099998,0.0029369611,0.4246274,-0.4814627,-0.36429918,0.5116201,-0.34539518
MFE-296,-0.90295476,0.21308984,0.4395848,-0.19904643,-0.022292793,-0.0057477374,-0.7023519,0.24366769,0.059863232,-0.24315862,-0.0326651,0.40988564,-0.46230498,-0.29921153,-0.097162664,-0.2791695
TGW,-1.5099238,-0.7501587,0.765046,0.2746866,0.4995772,-1.2480024,-1.1304666,2.153319,-0.20073883,-0.5814923,-0.558092,0.15377317,-0.9290023,0.3676961,1.1706716,0.64838654
ATN-1,0.020635553,-0.58106637,-0.1087476,-0.2841368,0.16095114,0.061048288,-0.66607416,0.017773375,0.47227174,-0.3306063,-0.08490789,0.095135644,0.006729305,-0.13865459,0.14300305,0.27335972
DoHH2,-0.37666306,0.20045067,0.31183785,-1.0269917,-0.11747804,1.0591543,-1.7850108,1.5729941,0.06962183,-1.877353,2.2623951,-2.821464,-0.09384806,1.3582566,1.4693246,-1.8613185
OVCAR-8,-0.83151907,0.2216578,0.43275237,-0.075692534,-0.049250327,0.0025895536,-0.70434636,0.18160045,0.07749356,-0.20637292,0.029125657,0.4744057,-0.5670054,-0.32523265,0.56561786,-0.35772866
SR,-0.5280442,0.20889835,0.25096232,-1.0207449,0.0040195137,1.0465839,-1.7430531,1.699237,0.0997879,-1.8635571,2.40329,-2.6519742,-0.19409974,1.269861,1.1009254,-1.8116634
DK-MG,0.6468829,1.2506639,0.44354182,-0.35597745,0.32083762,1.496639,-1.5047941,0.038044944,-1.2651142,-1.4027551,3.835489,-3.6276126,-0.27378666,0.039784305,-0.6709342,-4.3780613
HCC1419,-0.98576504,0.18176182,0.49696323,-0.07018916,0.13227285,-0.017033905,-0.6353681,0.12954189,0.12655072,-0.28157154,-0.021181475,0.41889992,-0.562775,-0.30343398,0.6924236,-0.27574095
YAPC,-0.6761638,0.3749591,0.30031443,0.5125631,0.5167292,-0.027734498,-0.30164987,0.95427716,-0.82595885,-0.14195904,0.4691401,-1.1728529,-0.25174785,0.36149016,0.81963265,-0.521699
PLC/PRF/5,-1.3279264,0.987183,0.70025706,-0.777202,-0.27523625,1.0598596,-1.7190036,1.8288639,-0.31535184,-1.8247381,2.2300074,-2.5254047,-0.3130351,1.2071918,1.1462708,-2.6114535
SW48,3.2371628,-2.826751,-0.16132715,-0.62849146,0.6863173,-1.6295052,-0.14833929,1.2675928,-0.04624917,-0.6645986,0.7039268,-0.651635,0.12721491,0.16826786,-1.1849695,0.1765376
KYSE-450,-1.1815408,0.9945665,0.9580902,-0.7687258,-0.28468856,0.9847247,-1.8310306,1.8995876,-0.44481024,-1.7283553,2.0470474,-2.3086169,-0.34226066,1.2776979,1.6064668,-2.6147718
NCI-H838,-0.04558135,0.28807658,1.5802758,-1.3246723,-0.93001235,-0.05824758,-1.9894176,3.0919447,-0.632588,-2.178332,2.9714146,-2.1045263,-0.20301974,1.9935039,1.3148817,-3.2768333
Karpas-45,-0.09454165,1.8344885,2.2951524,0.40626645,-2.2581449,-1.588944,0.88091207,2.9229758,-1.9003614,0.45607442,1.1558497,0.12022838,-0.6001831,2.1726806,0.24847049,-2.2246666
HN,-1.264207,0.98524743,1.0943708,-0.84322715,-0.27212912,1.0126656,-1.9004871,1.8403643,-0.28726876,-1.7404,1.9924653,-2.396376,-0.50697476,1.2011893,2.2909024,-2.443912
COR-L279,-0.835217,0.18781283,0.49990737,-0.15218551,-0.01403068,0.03028743,-0.76284885,0.10822388,0.10831693,-0.25032082,-0.040610015,0.44473365,-0.53978413,-0.31461033,0.70075494,-0.33602688
EW-16,-1.1926621,0.98270303,0.884374,-0.78966105,-0.27372292,0.98343605,-1.8231074,1.8683013,-0.47976816,-1.8189398,2.273928,-2.2570257,-0.60610276,1.2797709,1.1486844,-2.4439273
Karpas-299,-1.0109873,0.2200053,0.45192873,-0.043811306,0.10930036,-0.06068734,-0.724202,0.19038446,0.13063999,-0.25056383,-0.0078120306,0.4410927,-0.5187413,-0.34447682,0.32647347,-0.24902256
MFM-223,0.26156503,1.2746122,0.8219767,0.43676782,0.3432794,0.45929363,-0.56378466,-1.2643576,-1.20105,0.5542261,1.5898455,-0.45293552,-0.7259449,-1.5674893,-0.5735172,-2.8520677
ES3,-0.79436207,0.23235732,0.4744207,-0.13037539,0.2668149,-0.018420449,-0.70797527,0.22167829,0.1496959,-0.28610772,0.06501631,0.4367904,-0.5515514,-0.32797223,0.48065457,-0.22441195
Calu-1,1.0903662,-1.201354,-0.4592313,0.11864287,0.6460791,-0.76164705,0.5800687,-0.73297536,0.35290873,0.51830566,-0.7405991,0.80079275,-0.09069808,-0.90205944,-0.8140653,1.0190307
MC116,-1.6071172,0.56323475,0.12744989,0.9200193,0.25803506,-0.037840955,0.10925951,-0.0415932,-0.47412223,0.59485215,-0.8109142,0.2532694,-0.27580297,-0.5119187,0.6439337,0.4334423
TYK-nu,-1.0904877,0.9845381,0.934885,-0.901744,-0.28600705,1.005807,-1.8789445,1.8961428,-0.32239377,-1.7902836,2.0802267,-2.3127255,-0.39826226,1.272107,2.024005,-2.4293804
NCI-H1304,0.44449943,1.1843235,0.5075674,0.5450238,0.35205102,0.43180278,-0.5553617,-1.2050966,-1.1957937,0.66020966,1.6672169,-0.39022195,-0.6985805,-1.7087816,-1.6120162,-2.6430113
HCT 15,5.2466335,1.6212015,-1.2699244,1.025397,-1.2266872,1.206519,4.0889797,-3.8091471,-1.6340607,2.434519,1.4161497,-0.6730103,2.403666,-0.38372594,-3.7428608,-1.8316103
NCI-H2342,-1.044543,0.1791278,0.47508925,-0.12667193,0.11784825,0.025123965,-0.5394779,0.22170703,0.13064656,-0.28438997,-0.08392099,0.4113264,-0.47222063,-0.3362032,0.353565,-0.17696518
ZR-75-30,-1.0191096,-0.105839215,0.59808826,1.3932489,1.1996596,-1.1773798,-0.1205125,0.9677288,-1.4420437,0.55719596,-0.4827293,0.023825284,-0.9667279,-1.1497247,-0.2019785,-0.19011451
TGBC24TKB,1.3341872,-0.7074558,-1.3869592,-0.113792956,0.2833272,0.78534317,0.6468864,-0.7955274,0.51710147,-0.022897694,0.13346033,-1.3055092,1.0082424,0.4547117,-0.7451258,0.929048
MOLT-4,-1.9655869,1.349608,0.4779111,0.59380037,0.22433472,0.7244645,-0.58169234,2.0135226,-1.1379969,-0.76181406,1.018448,-2.243131,-0.1682281,1.3316783,1.6185608,-1.2665358
C-33 A,0.51450646,1.1171707,1.3434764,2.2715352,0.9257833,-1.705745,0.8017273,0.5184645,-3.2754138,1.4058977,0.86123466,-0.18286963,-1.0668819,-1.638196,-1.7926536,-2.543757
Mel Ho,-2.1475337,1.7076132,-0.4744043,-0.6871034,-0.3348924,2.7478468,-1.5474584,1.1628667,0.13600443,-1.7321274,1.9711407,-3.973413,0.71303445,2.1366591,2.1047034,-1.7017779
FTC-133,-1.7625754,1.1324692,1.3718458,0.6719478,-1.2528962,-1.3417195,0.9324213,1.3878521,-0.37645972,0.800278,-1.6462054,2.5755742,-0.48205677,0.7079,0.6886531,0.86714756
LN-405,-1.5163409,0.57516456,0.11933096,0.94962466,0.5266635,-0.03377839,0.017621227,-0.13016905,-0.41240457,0.4069256,-0.81540185,0.29828218,-0.38968405,-0.49911517,0.71124995,0.44059065
SNU-C2B,-0.10156529,-0.35872975,0.1199111,0.5954515,0.49502054,-0.78161734,0.18250373,-0.54216176,-0.16236548,0.6160853,-0.8630376,1.1839949,-0.4542189,-1.0982559,-0.4550829,0.6051885
SUP-T1,0.05960346,2.221432,1.0241052,-0.14832392,0.030855633,1.3706446,-1.2895974,0.51625454,-1.8488384,-1.3296413,3.2265658,-3.1457295,-0.48344547,0.09024803,-1.06243,-5.159866
22Rv1,0.6486926,1.21113,0.41279733,0.7171271,0.7876829,0.44490445,-0.5319577,-1.4154198,-1.1930013,0.12593219,1.3645937,-0.47700325,-0.623459,-1.7971774,-0.6203145,-2.7948887
KNS-42,-0.90993464,0.19723515,0.47537908,-0.03789728,0.10536607,0.025681019,-0.66937643,0.22205988,0.14039831,-0.26454532,0.0022221059,0.40988314,-0.48565122,-0.35009304,0.43059394,-0.17484385
RL95-2,-1.2653285,2.3835602,-0.14579529,0.88449955,-0.39285338,1.493989,1.0734719,-1.3052765,-0.6121675,1.1790658,-0.18751128,-0.20200908,0.59839964,0.030941445,-0.08329521,-0.5822594
NCI-H2030,1.4926409,-1.3376901,0.15064894,-0.03357964,0.23437978,-1.385751,0.27588552,0.13651936,-0.103450306,0.123598516,-0.47574064,1.0859201,-0.27325368,-0.6607981,-0.9338169,0.50963
EW-1,-1.4439735,0.9898135,0.90216017,-0.7218062,-0.27820212,0.9614734,-1.805432,1.8633535,-0.3767571,-1.7119663,2.2688956,-2.4141388,-0.60997707,1.2659901,1.6003484,-2.3973093
AU565,-0.69607294,0.2179139,0.5044855,-0.14980157,0.054736905,-0.10555494,-0.569758,0.18517295,0.12833883,-0.2802748,-0.03966826,0.3966995,-0.56091386,-0.31419256,0.4605016,-0.1986606
EC-GI-10,-1.2093728,0.98551315,0.89217454,-0.8651223,-0.28759784,1.057937,-1.7438003,1.8586148,-0.3178363,-1.7461661,1.9006519,-2.4315343,-0.40306383,1.2121953,1.3410461,-2.406528
THP-1,-1.1333083,0.9857477,0.8716546,-0.8556546,-0.28655186,0.9777788,-1.6779287,1.8554723,-0.38505757,-1.7405275,2.3499622,-2.4719694,-0.3005279,1.3237526,1.7595029,-2.4926946
VM-CUB-1,-1.3572245,0.9802798,1.0474381,-0.74961144,-0.2836858,0.9882643,-1.8948507,1.8017321,-0.33811024,-1.8116872,2.3933008,-2.3376262,-0.31805766,1.156385,1.3558083,-2.3586814
MS-1 [Human lung carcinoma],-0.77760553,0.20221466,0.4737793,-0.06804134,0.020800628,-0.0044734087,-0.6247787,0.20977534,0.15845026,-0.2761829,-0.07960439,0.38935244,-0.46381155,-0.3269732,0.654518,-0.26584712
DU4475,-0.11983967,0.62999046,-2.2641191,0.23744473,-0.02568639,2.6801085,1.2092226,-1.1746877,0.6744003,0.13857327,-0.17709206,-2.4511402,2.0267243,1.3768784,-0.063323334,1.5882347
NCI-H2029,-1.1254771,0.19266312,0.53577995,-0.0070959553,0.23136875,0.012492243,-0.5629288,0.17393775,0.09738765,-0.22240049,-0.02826455,0.36971167,-0.49084944,-0.33244297,0.67956954,-0.23784965
HEC-1,0.95372665,0.3824836,-0.012246808,1.8491946,1.4444644,-0.6142325,0.9743591,-2.208581,-1.7149048,2.1903074,-0.0065180287,0.45158502,-0.45578602,-2.6962893,-2.5363352,-1.0179671
NOS-1 [Human osteosarcoma],-0.9959473,0.23399541,0.45921612,-0.13550636,0.21755993,0.016742796,-0.75628734,0.22683972,0.08444188,-0.30987698,-0.062021144,0.41386822,-0.43259174,-0.30239457,0.58001494,-0.33004045
NCI-H748,-0.8419269,0.17911534,0.4074834,-0.20314899,0.20247456,-0.07734231,-0.7063849,0.2510773,0.21616203,-0.23088983,0.06452521,0.3834095,-0.5577871,-0.32067057,0.41635954,-0.29549968
P30/OHK,-0.18878657,0.1985698,0.3368769,-0.99020773,0.020073876,1.096551,-1.7501565,1.6957694,0.06328556,-1.9021285,2.1589963,-2.6939502,-0.021341667,1.3618525,1.1932089,-1.921634
Hs 578T,-1.2915303,0.9746572,0.7624599,-0.7510743,-0.28096527,0.9510064,-1.8685998,1.8545384,-0.33242756,-1.8645842,1.9149754,-2.3492947,-0.25786752,1.2681259,1.7560498,-2.2164316
BEN,-0.7894647,0.20755653,0.46921185,-0.07317689,0.06577197,-0.063275605,-0.76326376,0.17318195,0.15187865,-0.29292595,-0.022607852,0.41216,-0.5668765,-0.32781228,0.8719464,-0.26828614
HSC-4,-2.0238135,1.3531212,0.57734907,0.5796807,0.07812635,0.69100136,-0.56880087,1.7979782,-1.1667236,-0.7777394,1.0387238,-2.4446552,-0.16799134,1.2965437,1.3783399,-1.2256682
BHT-101,-1.7093807,1.3112491,-0.4419488,0.037314888,-0.20637792,1.6153643,-0.1478534,-0.3944304,0.41050187,-0.16081211,-0.06611867,-0.74610275,0.45073777,0.56304115,0.7143427,0.20372774
IGROV-1,0.25527763,0.4772849,0.9003936,-0.75473046,-1.0508363,-0.48383117,-0.041248433,-0.19127521,0.48510924,0.030593466,0.0005476549,1.8960099,0.1250093,0.06906238,-0.28988832,-0.5295876
NCI-H2081,-1.3906194,0.35554537,-0.11465405,0.64063394,0.45867097,0.06955069,-0.07080981,-0.14590925,-0.29742104,0.50154895,-0.8360699,0.17186303,-0.17173654,-0.36016256,0.06905776,0.6436479
HT-55,1.5815233,-0.7098665,-1.3890533,-0.1165012,0.2547711,0.80816025,0.46519637,-0.8293647,0.5307915,0.0040129456,0.12773596,-1.2595928,1.0655305,0.375056,-0.5025414,0.8397619
COLO 320HSR,1.5386558,-0.7105289,-1.3900301,-0.12101216,0.34176153,0.86620295,0.5206884,-0.92982924,0.50117666,0.0050718305,0.13255556,-1.2983974,1.0447706,0.37393996,-0.5281884,0.9161678
Lu-135,-0.8267555,0.22281183,0.4183889,-0.08879721,0.21650615,-0.0777999,-0.5589582,0.24543396,0.070189364,-0.2547094,0.030220348,0.42764276,-0.57038295,-0.32680547,0.23102188,-0.34733346
Lu-65,-0.8973945,0.3379496,0.29009426,0.5319134,0.29413277,-0.015494464,-0.18458354,1.0512557,-0.8053494,-0.026302636,0.3781263,-1.2901402,-0.20965388,0.3442721,0.56807464,-0.4849106
HPAF-II,-0.94063187,0.35923937,0.38841242,0.4750174,0.4059009,0.023162857,-0.21853536,1.1600013,-0.8442929,-0.22461855,0.37882566,-1.3119637,-0.22920674,0.4688434,0.6922167,-0.4444189
UO-31,-0.5897068,0.19832839,0.37587693,-0.98970073,-0.13174167,1.0298662,-1.6406214,1.7010366,-0.041262344,-1.922662,2.3474808,-2.733471,-0.20463884,1.3264279,1.6993408,-1.7849219
ES7,-1.0486861,0.22386658,0.4731792,0.017522588,-0.08172383,-0.0154237505,-0.7480288,0.2143138,0.14523491,-0.29240888,-0.07309355,0.44325623,-0.54776084,-0.33657733,0.63103676,-0.31854433
Kuramochi,-0.8870284,0.19394699,0.5402709,-0.24280554,0.042864643,-0.023004416,-0.5460831,0.15245713,0.12420184,-0.28578135,-0.0396161,0.4532807,-0.5157485,-0.3160798,0.84526706,-0.3199381
NCI-H64,-0.8113376,0.24013284,0.4417967,-0.06213139,0.023395084,-0.05597567,-0.90194905,0.21562745,0.1292561,-0.28773192,0.02204572,0.4117219,-0.57139504,-0.33196977,0.61514187,-0.29019752
NCI-H1770,-1.6030053,0.5889337,0.101139225,0.8191068,0.3653934,-0.0067886263,0.20840384,-0.025736522,-0.3677651,0.5822376,-0.8167552,0.29087153,-0.32972845,-0.49728355,0.37472877,0.52210844
SK-MM-2,-0.9655379,0.21257481,0.44593945,-0.07121512,0.16944683,-0.072941035,-0.59450305,0.24301551,0.13824679,-0.3504289,-0.072142586,0.41093785,-0.4827724,-0.34918562,0.64024955,-0.33182305
AGS,2.1716003,-0.5881378,-0.5827106,1.3620266,1.6082621,-0.5380597,1.0557343,-2.3445394,-1.2877508,1.6227596,0.021602962,0.093036264,-0.023718892,-2.6456156,-2.728509,-0.4311144
GP5d,4.786093,-1.377608,-2.4111946,1.2681787,1.5705031,0.5087664,2.376133,-3.427195,-0.77612984,1.770933,0.32519463,-1.5377157,1.606662,-1.5042499,-4.303227,0.5064468
SW780,-0.6333591,0.20526546,0.33753178,-1.0587548,-0.019830454,1.0501176,-1.8138855,1.6202328,0.022219136,-1.9079393,2.1098526,-2.924595,0.0895203,1.3281887,1.0364317,-2.2039626
NMC-G1,-1.9426119,1.7087,-0.3574566,-0.6667583,-0.33850855,2.7414863,-1.2596465,1.1870761,0.13808507,-1.7370703,1.9418112,-3.7901552,0.7027059,2.2303932,1.947717,-1.5714377
TE-9,-1.322728,0.9764785,0.8012501,-0.8165106,-0.2790576,1.0091006,-2.010978,1.9018186,-0.271328,-1.7620656,2.112261,-2.4853358,-0.44822133,1.3275912,1.5221733,-2.3208628
NBsusSR,-0.9168944,0.19885291,0.48176354,-0.19182147,-0.06940421,-0.009735495,-0.588269,0.22419801,0.104061596,-0.2263175,-0.048894875,0.42384222,-0.44359976,-0.33436832,0.37488395,-0.25544018
CTB-1,-0.16294076,0.2084864,0.33651096,-1.0632523,0.0050735474,1.05785,-1.7152106,1.6902547,0.071361735,-1.9565703,2.1113706,-2.8059108,-0.07710591,1.3365371,1.2076509,-1.9997493
BV-173,-0.44298446,0.20365119,0.25571343,-0.9556148,-0.17409363,1.0207459,-1.6855369,1.7369155,-0.010415703,-1.9620696,2.2014468,-2.7767906,-0.06994489,1.2877007,1.489786,-1.7788392
DB,-1.0337086,0.22213021,0.50839126,0.038201824,0.29219094,0.013698854,-0.8612149,0.21540649,0.096780404,-0.30317268,-0.018774029,0.4075722,-0.5363826,-0.31735963,0.17446423,-0.3241109
NCI-H1355,-0.11223325,-0.4027557,0.115832895,0.5784345,0.5348664,-0.6905484,0.22966133,-0.35477963,-0.17141153,0.7168264,-0.85665303,1.179856,-0.42167485,-1.0910841,-0.3709496,0.6828352
HCC70,-1.56116,0.5486895,0.14099383,0.845763,0.42365107,-0.034553327,0.18310334,0.036011152,-0.3918815,0.67951965,-0.80749905,0.38622066,-0.32686222,-0.47109023,0.33663875,0.45952612
LK-2,1.0803113,0.34950224,-0.66156965,-0.67627954,-0.20636658,1.8421257,-0.3465127,1.1113791,-0.12551819,-1.437684,2.1081772,-3.7969007,1.058445,2.1641743,0.26429147,-1.2836007
CTV-1,4.0567393,-0.91875786,1.1018327,-1.8170627,-1.9709517,-1.2154957,0.11257776,2.3027248,-0.062095053,-1.0192215,2.5483878,-0.80654097,1.0428349,2.4666736,-0.7696857,-2.2338316
WRO,-1.1054338,0.9848261,0.9141409,-0.79929817,-0.27603632,1.0153534,-1.7905002,1.8986707,-0.34162223,-1.7675834,2.149662,-2.560955,-0.57829833,1.3299733,1.8216188,-2.6354644
SK-N-FI,-0.06517149,-1.6515862,0.8571853,-0.17959023,0.14312376,-1.9158093,-0.54988354,2.8152966,-0.4591943,-0.7356711,0.03735315,-0.3028906,-0.6619811,1.0932481,0.8467217,0.3648937
RT-4,0.99517465,-1.1221651,-1.4093088,0.44299257,1.3986609,0.97424424,-0.33291778,2.5321198,-1.0031822,-1.6327739,1.9919538,-6.1835027,1.0305123,2.3425243,0.8119138,-0.09532392
KM12,-2.1001172,0.7839657,0.75246465,-0.09237176,-0.8459292,-0.43125576,-0.044300005,1.779812,0.0029080175,-0.118213475,-0.98196965,0.63346934,-0.22121836,1.4243093,1.4327841,0.8261148
OPM-2,-1.5261883,0.6232375,0.16044956,0.94274217,0.4760534,-0.020292077,-0.03323649,0.01871834,-0.46216264,0.65416867,-0.8091833,0.30303615,-0.29438475,-0.47276127,0.33262098,0.4345181
OC 314,-0.8204067,0.22977325,0.51638764,-0.08256461,0.272042,0.005480133,-0.5610794,0.23991981,0.10530874,-0.26710734,-0.02696892,0.43127078,-0.52966607,-0.32148817,0.5349261,-0.2660261
TE-12,-0.7122023,0.20742801,0.25669485,-1.0502788,0.047768883,1.0899646,-1.6941743,1.7032923,-0.02072395,-1.9572437,2.1759133,-2.7013788,-0.19729146,1.3158729,1.2473009,-1.7716424
CCRF-CEM,-0.3629003,0.5702288,1.2131261,1.6342133,0.06270419,-1.674485,0.7417458,2.640719,-2.6564243,0.5435371,0.5231281,-0.96158856,-0.6902795,0.86820704,-0.11176372,-1.1926738
HMV-II,-1.872777,1.3358654,-0.40478268,0.039734647,-0.15482499,1.6169344,-0.041467205,-0.4005761,0.3772076,-0.14528409,-0.12563826,-0.6815299,0.4523541,0.5437612,0.70612234,0.19998564
U-251MG,-1.8561764,1.3614981,0.51952654,0.58087254,-0.028814964,0.7267094,-0.53542405,1.8273355,-1.2333373,-0.80352724,0.9082905,-2.1979485,-0.16107729,1.2527801,1.4748918,-1.2890244
H-EMC-SS,0.18535924,-0.5640466,-0.10113792,-0.23998593,0.19554172,0.12734404,-0.11818081,0.06348927,0.48865986,-0.39212704,0.011527522,0.09787895,-0.07624491,-0.11239678,0.5612885,0.29562297
NCI-H209,-1.0409266,0.2491664,0.48465806,-0.090628065,0.14851475,0.008229982,-0.61466163,0.19603407,0.13650246,-0.2550988,-0.059749126,0.39276737,-0.50400186,-0.34956867,0.38804486,-0.38450408
RS4;11,-0.29641345,0.20622347,0.35536394,-1.0729519,-0.09908689,1.0538715,-1.6276551,1.6105239,0.049002416,-1.930284,2.1338875,-2.7399468,-0.08786324,1.3785787,1.1695412,-1.7476261
TE-1,-1.0318998,0.2499585,0.5147588,-0.14518276,0.04889413,-0.10808318,-0.525788,0.15553722,0.08380022,-0.32307246,-0.022550276,0.41130143,-0.57575613,-0.34482318,0.6291357,-0.39883214
LB996-RCC,-0.30804887,0.20227326,0.40092397,-1.005384,-0.1090918,1.018437,-1.6024193,1.6960024,-0.016457677,-1.8408872,2.2218218,-2.7116315,-0.18557033,1.3553997,0.8448406,-1.9616898
M14,-2.1550977,2.159528,-0.066316746,-0.6154168,-0.59003013,2.6078506,-1.3524355,1.3206958,-0.12112032,-1.6468765,2.07896,-3.6482646,0.512116,2.1500423,1.3520296,-2.0141172
NCI-H378,-0.86192006,0.27837166,0.45606986,-0.11854462,-0.0809276,0.02523373,-0.35664058,0.18434185,0.087483846,-0.26782647,-0.050986543,0.4339859,-0.5383948,-0.35549363,0.06311324,-0.44898754
KS-1 [Human glioblastoma],-0.42432976,0.20632543,0.28762007,-1.0171822,0.07548774,1.0963964,-1.6684328,1.8284937,0.065697305,-1.9544464,2.2009215,-2.6695476,-0.23768106,1.2887572,1.8524971,-1.821326
LB831-BLC,-0.91883135,0.24821499,0.4654957,-0.09281959,0.13112324,-0.060179956,-0.67320585,0.20607662,0.05276641,-0.346133,-0.045257203,0.42651698,-0.49876323,-0.3335158,0.14977574,-0.55147874
NCI-H1838,-1.487777,0.98887414,0.8731659,-0.79657537,-0.29256153,0.9859564,-1.7102581,1.9755841,-0.4061846,-1.6932219,2.1848385,-2.3497536,-0.5731529,1.3271403,1.7381754,-2.5154192
HGC-27,-0.100215636,2.0056238,-0.8965802,2.4537315,1.3968797,1.2421831,1.8868263,-1.8544294,-2.1201918,1.6313773,0.1265741,-1.7343624,0.5937849,-1.1457967,-1.5396209,-0.9533373
KMOE-2,-0.8378586,0.21858127,0.49525455,-0.17314635,-0.12664226,-0.013836836,-0.5400919,0.21878594,0.11377087,-0.25903702,-0.04746928,0.45241445,-0.5078111,-0.32005367,0.42932305,-0.42787465
Capan-2,1.1130464,-1.1863579,-0.4669061,0.2564668,0.6447313,-0.67057633,0.6218362,-0.6741629,0.24920686,0.5218811,-0.73360056,0.7506438,0.034132138,-0.85702574,-0.9003345,1.2457893
COR-L23,0.4302342,-0.6851351,-0.44982105,0.26251775,0.6819459,-0.016721737,-0.13420674,0.7989002,-0.28854775,-0.30053943,0.48192382,-1.7194326,0.25029612,0.40295905,-0.024191245,0.16434477
SK-MEL-28,-1.8144196,1.2994115,-0.38966796,0.04766689,-0.11834535,1.6451597,0.07734263,-0.38228136,0.3334128,-0.1528142,-0.19499871,-0.6458918,0.450933,0.5601159,1.0589309,0.29007304
SNU-449,-1.118537,0.9959371,0.74764633,-0.8229551,-0.29717585,0.9592347,-1.7616371,1.875391,-0.2922915,-1.8301919,2.1559367,-2.2988455,-0.4872644,1.3366263,1.8055825,-2.3975642
Huh-7,-0.9657248,0.19371079,0.45724234,-0.13280684,0.06717513,-0.016423842,-0.6919196,0.28352898,0.13563497,-0.2685449,-0.07426098,0.44034913,-0.3994468,-0.3424576,0.7099497,-0.3357962
VMRC-RCZ,-0.124112606,0.20538875,0.3401576,-1.0246692,-0.07821184,1.0508476,-1.8702333,1.6174521,0.026818162,-1.9891677,2.2152073,-2.723936,-0.018378064,1.3766341,0.68446004,-1.8427775
KYSE-180,-1.0928813,0.98025316,0.8114087,-0.86076844,-0.2845312,0.95602787,-1.928979,1.824302,-0.26449764,-1.7922143,2.3917542,-2.2918212,-0.3929579,1.2576032,1.5638237,-2.5011106
SW948,4.796721,-1.4072567,-2.498318,1.1366098,1.6264228,0.43699476,2.2793758,-3.293626,-0.75579697,2.4354558,0.34655803,-1.5817331,1.6257882,-1.1523697,-3.0375443,0.5305089
MC/CAR,0.29898185,-0.5768899,-0.10966481,-0.41802815,0.1478027,-0.09440638,-0.45877236,-0.04345626,0.45929715,-0.3752186,-0.004751537,0.09416128,-0.09571421,-0.120705634,0.04665678,0.37847552
LB1047-RCC,-0.37785926,0.20282169,0.25632626,-1.0568916,-0.07440803,1.1098907,-1.5999045,1.7427073,0.09265577,-1.9365666,2.196862,-2.7428246,-0.02969145,1.3998055,1.576755,-2.0788815
DoTc2 4510,0.56736594,0.8437658,-0.83213717,-0.9104638,-0.5018245,1.8283311,0.00535872,-1.7807103,0.9175167,-0.22405621,0.801673,-0.6178988,0.69562984,0.09342243,-0.5678059,-0.80994415
LS1034,2.314776,-1.3095065,-1.7438256,0.37457192,0.6044022,0.16810693,1.3106053,-1.4544626,0.29322878,0.85063803,-0.54576653,-0.5167549,1.1968896,-0.22309113,-1.5285828,1.6356786
GCIY,-0.9347896,0.22176148,0.44280007,-0.07516324,0.20446154,-0.042348895,-0.86144876,0.15576953,0.06805037,-0.31809875,0.107376754,0.41448283,-0.48178032,-0.31971988,0.3256414,-0.1489581
P12-Ichikawa,-1.179719,1.1500462,1.6878397,1.1399224,-0.2212301,-1.2874949,-0.29093874,3.7411838,-2.3487785,-0.55045766,1.4904213,-2.198897,-0.83514893,1.5202488,0.9631321,-2.2325017
KYSE-70,-1.0611275,0.97943795,0.8590084,-0.8321227,-0.28504598,1.010713,-1.791773,1.96042,-0.3336603,-1.799144,2.2103612,-2.3645341,-0.40648007,1.2833534,1.4718542,-2.3753471
Rh1,-1.0920553,0.2248487,0.47077125,-0.06233533,-0.003963776,0.023320723,-0.7039234,0.17138353,0.13018608,-0.26271057,0.0282784,0.4554379,-0.57647216,-0.3124544,0.6588893,-0.314256
SF126,-1.6936626,0.9241761,0.1032818,0.41627297,0.3902646,0.897755,-0.7237409,1.6733066,-0.87548184,-0.8161784,0.96336746,-2.8252835,-0.046570048,1.2203412,1.2513889,-0.8335816
GT3TKB,-0.07142403,-1.5552897,0.9323908,0.10442357,0.040421583,-1.9665784,-0.68297863,3.1533868,-0.5864422,-0.8444617,0.010141198,-0.32097107,-0.6819725,1.056579,0.80066335,0.4105569
GaMG,-1.1595479,0.986415,0.859537,-0.8027659,-0.28503367,0.9608437,-1.8757892,1.7931255,-0.3564117,-1.8143265,2.01362,-2.4067686,-0.24258752,1.3213592,1.4934331,-2.2444973
T-47D,0.28646392,1.229412,0.7001976,0.45253888,0.72922575,0.4309433,-0.41709143,-1.2077465,-1.1680218,0.667697,1.4675568,-0.46201405,-0.6700606,-1.6816559,-0.751616,-2.7678647
HH [Human lymphoma],-0.99100655,0.2013585,0.4355894,-0.1790523,0.15414128,0.012039583,-0.7502757,0.20228824,0.1257858,-0.31178346,0.033662543,0.41318566,-0.5126671,-0.3057467,0.23145968,-0.40294006
RKO,-1.0988867,0.7648631,-0.47911718,1.6647795,1.3833379,0.5639183,0.48309726,0.36993366,-1.5097035,0.6231088,0.051845957,-2.1232271,0.22446187,-0.055744484,0.020650059,-0.007707432
UACC-893,0.40806478,1.2505596,0.7952164,0.49419588,0.48846424,0.43930745,-0.48613086,-1.2528994,-1.2071825,0.6120527,1.7153742,-0.43006667,-0.7555847,-1.8770177,-0.9459465,-2.7114725
LOX-IMVI,-1.7195778,1.7081783,-0.46916837,-0.6872915,-0.3393699,2.748356,-1.1991407,1.1912217,0.13486834,-1.7414417,2.209481,-3.782598,0.73893684,2.240883,1.520946,-1.4549537
EGI-1,-0.74064803,0.35416508,0.2598113,0.48992908,0.3436709,0.025066093,-0.31545517,1.0077482,-0.7954704,-0.11965026,0.46412978,-1.2533474,-0.21432878,0.36743566,0.68278915,-0.43593836
NCI-H522,-1.0143673,0.21099724,0.4162138,-0.100732006,0.053373378,-0.052786008,-0.6757892,0.18974797,0.12364521,-0.27592307,-0.023815151,0.45521078,-0.5073088,-0.30597597,0.11563319,-0.26522225
NCI-H1975,-0.12317172,2.228223,1.0867577,-0.14859907,0.15065715,1.3955299,-1.4073515,0.5471736,-1.8780158,-1.1283942,3.5912,-2.8653398,-0.63949037,-0.111815944,-0.20175488,-4.9524755
TC-YIK,-0.9436253,0.22986889,0.4643408,-0.07708501,-0.010065936,-0.0911921,-0.6824996,0.22889557,0.107357875,-0.3042181,-0.019392505,0.42349526,-0.47047088,-0.30360132,0.85022557,-0.41736782
SW620,2.3884978,-1.2913178,-1.7134625,0.37431884,0.5832753,0.22769259,1.2674365,-1.4519312,0.34629214,0.8214278,-0.53760433,-0.55913174,1.1698878,-0.24172875,-1.3402951,1.6546764
NCI-H1734,-0.08514747,-0.35940316,0.119125865,0.588508,0.4032308,-0.7555591,0.13485114,-0.5315623,-0.14385702,0.6119716,-0.86097735,1.1845858,-0.45880634,-1.155153,-0.24397944,0.63758105
SiMa,-0.3769898,-1.5797095,0.28937173,-0.19376913,0.57197267,-1.1660589,-0.6432662,1.8937576,0.22079504,-0.7446346,-0.46301523,-0.17968707,-0.5444455,0.6015124,0.86310804,1.0797002
TCCSUP,0.14579567,1.3612406,0.8434972,0.44477257,0.41723835,0.4546152,-0.564777,-1.3236308,-1.2826498,0.2496938,1.5369588,-0.5208479,-0.7245873,-1.4901476,-1.0653715,-2.7818294
SNU-16,-1.1964763,0.98802686,1.057266,-0.76957476,-0.27223456,0.98649263,-1.8161604,1.9132899,-0.3062294,-1.7447656,1.9558797,-2.0462685,-0.37546968,1.2242489,1.1438533,-2.266511
NCI-H1963,-0.94696754,0.25175923,0.47385216,-0.13456245,0.036445256,-0.048124637,-0.550837,0.26459613,0.08031057,-0.269611,-0.092443585,0.4653885,-0.49643195,-0.3361161,0.5336901,-0.2946482
NCI-H520,-1.2835636,0.9882009,0.86317724,-0.78911775,-0.28195542,0.92885447,-1.8251753,1.8698894,-0.30381063,-1.7659206,2.3486001,-2.3871143,-0.22346418,1.2694197,1.8580322,-2.471367
PSN1,-0.69759375,0.3622311,0.28195715,0.5267291,0.2680388,-0.016005915,-0.25135437,1.0754685,-0.85331714,-0.14873306,0.41031882,-1.1371293,-0.22727057,0.3095795,0.40999913,-0.5460436
RCC10RGB,-0.3125323,0.2076971,0.20186959,-1.0138175,-0.11725633,1.0041698,-1.6721927,1.673355,0.10953725,-1.9794626,2.3173022,-2.7969406,-0.112000495,1.4461942,1.5262456,-1.6885476
HCC38,-0.85182464,0.97815245,0.82027406,-0.77537966,-0.289429,1.0105036,-1.7746845,1.828483,-0.3606587,-1.7565043,2.3448899,-2.295649,-0.4840017,1.2158394,1.7467837,-2.5896251
SK-MES-1,-0.8337137,0.9773364,0.9844223,-0.80146664,-0.2916872,0.9463063,-1.841019,1.9050492,-0.32738513,-1.796319,2.1452847,-2.404999,-0.5197783,1.1509986,1.6644596,-2.4994826
Caov-4,-0.88612133,0.23805888,0.47508833,-0.17935288,0.105974376,-0.11642399,-0.47353065,0.12365212,0.077011034,-0.2482974,-0.024893062,0.44433016,-0.44963053,-0.35540897,0.66056454,-0.3053845
Calu-6,-0.16947007,-0.38570082,0.12092573,0.61067325,0.5631232,-0.75440615,0.15350355,-0.4736032,-0.12822755,0.69121933,-0.8602576,1.1826721,-0.48002744,-1.1245573,-0.35813707,0.6030699
SKM-1,-0.77326214,0.20486183,0.48281375,-0.1048789,-0.08257837,-0.09579805,-0.69871783,0.16397396,0.12480704,-0.24584287,-0.007856168,0.3914532,-0.43218043,-0.31164882,0.5877458,-0.3168645
RVH-421,-2.7431903,2.111653,-0.7041414,0.6549526,0.19427024,2.51023,0.02794353,1.1041,-0.64763814,-0.6920012,0.81867474,-3.9194665,0.9492211,2.150021,1.6946371,-0.4346992
SF268,-1.1801606,0.9743231,0.77256703,-0.8388914,-0.27203754,0.95038533,-1.7686906,1.9017875,-0.4197088,-1.7481581,2.04309,-2.5285273,-0.4817644,1.2592083,1.7868729,-2.4791443
SK-MG-1,-1.990405,-0.13504912,0.91880226,0.5931701,0.59338737,-0.8940004,-0.87044376,4.2551756,-1.4537791,-1.2368792,0.6782843,-2.609143,-0.73503125,1.9410325,1.8532608,-0.39324906
UMC-11,-1.5656011,0.9838172,1.0228682,-0.84164757,-0.27783853,1.0165532,-1.7920306,1.8490056,-0.40204737,-1.7216506,2.2329545,-2.2777896,-0.32186416,1.2901771,1.5518656,-2.4427216
SJNB-13,-0.83585495,0.13734257,0.5159137,-0.07629568,0.22810772,0.026106257,-0.5877792,0.17495939,0.14337297,-0.27850625,-0.09219086,0.43347105,-0.4823004,-0.3133432,0.10463661,-0.32958633
Ramos.2G6.4C10,-0.947139,0.19003507,0.4972872,-0.2221745,0.039356608,-0.059513345,-0.67174137,0.1350098,0.11155711,-0.24356836,-0.052692175,0.47257164,-0.48705366,-0.29010284,0.60408425,-0.4060437
EW-22,-1.0017956,0.25321782,0.479965,0.0068772584,0.19776481,-0.040850054,-0.65826786,0.21905866,0.08921878,-0.3190282,0.013018213,0.38001058,-0.49539664,-0.32119635,0.2215761,-0.30310497
SK-UT-1,-0.18210244,2.0093188,-0.85551924,2.2608755,1.0476562,1.2445459,1.6859221,-2.0175204,-2.2064617,1.7915732,0.21291332,-1.7983434,0.8514452,-0.8756367,-1.3417817,-0.8676148
CP67-MEL,-2.5352728,2.0797548,-0.76489305,0.6576306,0.14818484,2.510057,-0.0832317,1.1396574,-0.6516929,-0.6539333,0.85240656,-3.662629,0.99499834,2.0946527,1.789246,-0.40170082
HT-144,-2.5659842,2.1515334,-0.7624865,0.66040426,0.18018435,2.5093477,0.080700606,1.1442186,-0.64481235,-0.7652205,0.95677215,-3.4930787,0.90181625,2.192051,1.7815483,-0.42348734
HT-3,-1.0780296,0.24530368,0.41868582,-0.16245142,0.073642276,-0.008971853,-0.5755281,0.2691262,0.1182967,-0.30670744,-0.0024593845,0.44171795,-0.4668616,-0.34248486,0.4372756,-0.34005892
ES8,-2.0205994,1.4409274,0.5018986,0.57180274,0.08698665,0.75302935,-0.53325695,1.9150106,-1.0464927,-0.7661424,1.1868502,-2.2977908,-0.16587463,1.3001692,1.1591544,-1.2766272
EM-2,-1.3575828,0.978353,0.87518233,-0.75276744,-0.27737477,1.0207189,-1.6493781,1.8863217,-0.45948717,-1.8253708,2.284516,-2.3641994,-0.4621077,1.2625389,1.5605221,-2.4061573
MFE-280,-0.044873923,1.2503537,0.77107716,0.5396661,0.39671844,0.43507385,-0.5312064,-1.2309253,-1.2646488,0.48585737,1.4492507,-0.42645696,-0.61007726,-1.4551197,-0.53382385,-2.6856215
SW1088,-1.9728746,1.396953,0.51622623,0.5322264,0.078474276,0.712016,-0.551409,1.8285409,-1.1425096,-0.6295018,1.0466611,-2.221009,-0.16267145,1.2308437,1.5380864,-1.2714472
