,E0,E1,E2,E3,E4,E5,E6,E7,E8,E9,E10,E11,E12,E13,E14,E15,E16,E17,E18,E19,E20,E21,E22,E23,E24,E25,E26,E27,E28,E29,E30,E31,E32,E33,E34,E35,E36,E37,E38,E39,E40,E41,E42,E43,E44,E45,E46,E47,E48
AU565,-1.1085533,1.1053398,-0.41230345,-0.9604978,0.24353132,0.12928614,-0.37879044,0.8029902,0.5870322,-1.6350622,-0.4047084,-0.53222597,-0.7256071,-0.17944607,0.41252816,2.1971924,0.12798914,-0.23461938,-0.42131516,-0.18747783,-0.05503136,-0.3707989,-0.15298991,2.6335824,-0.390252,0.12784669,-1.3159246,-1.863763,-0.29997167,1.1368086,0.9522826,-0.8769001,1.0019414,0.64414257,2.1080027,2.9838693,-0.7971386,2.6596513,-0.13985021,0.7771119,1.1800181,-0.97694135,1.3626894,2.072882,-2.793811,1.3684443,-1.6611336,0.6504806,-1.8135624
NCI-H1755,-0.5782087,1.0819052,-0.11606218,0.36816233,-0.2873665,-0.29599395,0.5513795,-1.7414426,0.49067184,-2.3190622,0.31830767,-0.40017194,1.5706283,-2.783861,-2.225931,-0.7758872,-2.1013577,-0.57145476,-1.5462893,3.1036417,1.4512374,1.2121723,0.88022697,0.48219162,0.26529557,-0.42364505,-0.06246644,-1.0127127,-0.075957775,1.7543454,-0.36825207,0.11412333,0.7574566,-0.3970399,-1.2035216,-0.11005284,0.6699009,0.5127388,0.6053542,0.42760533,-0.18559238,1.2607536,0.5644693,0.27951977,0.6235184,-0.25441834,-0.38811514,-1.7398095,0.7973155
CAS-1,-0.11704303,-1.6560357,0.24622911,1.2748419,0.8836528,-0.76262176,1.2616328,-0.5415665,0.24044374,-0.8049359,0.5946174,-1.1198452,-1.3027942,-1.1037321,-0.36714032,-0.027340207,-0.011089878,1.3436447,-0.7425676,-0.8030738,1.7129209,-0.88933206,-0.9118191,-0.12567782,-0.97900784,-0.049378492,-0.42312542,-0.8281506,-1.6363777,0.6005717,1.3775471,1.1650023,1.2330815,-0.19715203,0.01737681,-0.23172392,1.5440987,1.1359259,-0.9632055,-1.8593996,-0.8072517,1.2393323,-1.7955531,-0.1185015,-0.14348863,-1.1492455,-0.49881932,-0.5607059,1.8719014
RKO,1.2980076,0.8691214,-0.065631084,0.077562064,0.36077976,-0.8342884,-0.7020763,-1.2486176,0.36646992,0.2555297,0.23234947,1.5265507,-1.4465195,1.4225477,0.35698798,0.99697286,0.79416555,-2.0187914,-1.9335754,-0.1852225,-1.3430684,0.584844,0.13113552,1.168688,-1.1547577,0.008536581,0.7207708,2.2251973,0.16401005,-1.473381,-0.18194619,0.32848626,0.14108081,-0.82196105,-1.2781979,-0.643465,-0.18441512,-1.5892785,1.0435702,0.6281033,0.060739815,0.34893334,-2.0510912,1.2104355,1.0176107,0.03977433,-0.4622652,1.4926237,1.1207262
SNU-C5,0.119712204,0.12676065,-0.0571844,-0.68517756,1.5831494,-0.18720901,-0.2652454,0.6861606,-0.65097845,0.04904803,-0.9138777,0.558835,0.5526522,0.98789036,0.9455303,1.1641101,2.1369793,-1.673933,-0.68838215,-0.6121497,-1.8325319,-0.1955072,0.74240845,0.3485134,0.8481075,-0.17282297,1.0910285,1.9873735,1.9122678,0.6956324,0.2971547,0.1784858,-0.47686478,-0.4372542,-2.0436778,0.40838778,-1.90654,1.2389269,2.120954,0.8837703,-0.911692,-0.30621406,-0.3728053,-0.73648995,1.7840972,1.7153419,0.7172341,-1.6261097,0.27573353
SK-N-DZ,-0.6039368,1.8194994,0.4538158,0.6018053,1.5354228,1.2674474,-2.0075157,-1.784498,-0.7367182,-1.1439462,1.1246026,-0.99323314,1.07601,0.320195,0.2602808,1.1513449,-0.22320211,-0.74870354,-0.08739947,-0.22291481,2.301825,-0.75075215,1.4307365,-0.43865013,2.0041606,0.37225744,0.34114605,-0.5948367,-1.8124964,-0.74431735,-1.446478,1.1292206,2.7321517,-0.531763,-0.5071238,0.027723892,-0.71926284,-1.7807659,-0.20964462,2.0570076,-0.2997725,2.3322246,-1.5313532,0.56120354,-0.89155155,-0.9435679,-0.4405409,-1.0071887,2.0052142
NB4,-1.0855914,0.9152413,-1.0145366,-1.357425,0.61460257,-1.7791501,-1.3889836,0.30541188,1.4291457,1.1663059,-0.7026117,1.4350636,-0.17632562,0.6439844,-1.260249,1.1833924,-2.106584,-0.6394197,-1.2408851,0.6806673,-0.16801807,1.5311538,1.8738502,1.245197,-2.788867,0.36807433,0.29129198,0.860994,1.0677502,-1.1968501,-0.14902481,0.5180653,2.0039976,-0.5001166,0.36001426,0.4398923,-0.8767821,-1.5181856,-0.38167697,1.5359601,-0.9607646,1.1591679,1.1333036,-0.2767525,0.59930724,-0.26472065,-0.8304478,0.8451182,1.3176949
5637,1.7313298,-0.51970565,0.54543614,0.2103929,-0.4732939,0.30481726,-0.5041208,-0.33437547,1.859219,1.75672,-0.5220059,-1.0352829,-0.5660563,0.74587154,-0.98744375,-0.071563095,1.7849758,-0.56627804,2.0747695,-0.40910983,-0.43241245,0.5901618,1.0886002,3.004484,1.0090826,-0.8087723,3.0040116,-1.0173472,-0.34058636,0.6943879,0.18374011,-1.377307,-0.45254642,-2.123166,-0.74030554,-0.1978312,0.9907167,0.94387025,-1.5282028,-1.3284663,-1.0988123,-0.042742256,-0.28948376,-2.2164245,1.1519717,0.022652447,1.336212,-1.9906706,1.0759901
PLC/PRF/5,2.2288914,1.1645857,0.3838656,0.7334971,-0.5997363,1.2046463,1.6528153,-1.1065569,-0.95664495,-0.20168717,0.7193878,2.0563471,-1.5747684,-0.551309,-0.7070549,0.60130847,-2.1505842,-0.25517595,-1.6520654,0.7392057,1.0041289,1.2288909,-0.36145887,-0.4751379,-1.171124,0.2205678,0.7216864,-0.77083707,0.18985485,1.1934488,-0.7083496,0.7145967,-1.0297705,-0.30359676,-1.5618502,-0.86379147,1.6514773,-1.9161001,-0.20995827,2.1067963,3.1251233,0.012119007,-0.6824052,1.0472153,-0.28060874,1.4336382,0.28347522,1.8869283,-1.544588
HCC1599,-0.15988488,-2.303383,-1.2345217,1.1860752,-3.0355608,1.3747677,-1.7765431,0.47451714,-0.41271564,0.009675985,-0.73257446,0.67080116,-0.36827797,4.010613,0.4900776,0.9379003,1.4478166,-0.14128028,-0.17820469,-1.0442461,-2.0606751,-0.020396702,-1.9653435,1.2529145,-1.3996361,-1.6702899,-1.993645,0.40521207,0.86290544,-0.7270707,-0.4196887,-0.71313536,0.76862824,-0.18677038,0.605245,-0.96089125,-2.187774,1.0442524,0.2750529,-0.6631202,0.646531,-0.52978384,-0.6838156,-1.118396,-0.60498774,-1.1463615,0.76371735,0.116138145,-2.630882
ST486,-2.667168,1.4366755,0.0986654,0.19949864,-1.312253,1.6657368,-0.62394154,0.6335457,0.465558,1.7806935,0.75315976,0.13664825,1.276761,-0.871378,-0.5441858,-0.2520712,-0.2143207,-0.015957706,-1.0750955,0.5634125,0.56554765,-0.021374233,0.5105843,-0.59579057,1.0599647,0.2721194,-1.7322304,0.93771815,-0.2471062,-0.6750016,0.92073506,0.3662482,0.45023295,0.14770652,-1.7270497,1.1487949,0.09525286,-2.59068,0.30391997,1.0062728,1.3181287,-2.519324,-0.8981373,0.8243464,-0.5053426,0.3175641,2.2529902,-0.102962464,1.4361026
RD,-0.45067662,-0.58677256,-0.74166894,1.0956831,1.2333237,0.47650182,0.3524506,0.93074995,0.15822695,-0.15294464,1.5314537,-0.049068138,-1.1155173,2.6718397,-1.6947865,-1.0723984,-0.0505234,1.1331061,-0.3653347,-1.6949719,1.4835169,-1.3857924,0.9759887,-2.2196012,1.0433277,0.12333672,0.09311688,-0.40481803,0.5777402,-1.2238585,-0.27082473,-0.0525781,1.0244504,1.4157665,-0.105573155,-1.946526,1.0082291,-0.25455433,-3.163464,1.1474158,-1.4329865,1.7632444,-1.2687116,-0.10747802,-0.22865692,-2.2145875,0.8343938,-1.3176199,0.91258657
KOPN-8,-2.606256,0.70575345,-2.0993338,-1.3318841,-1.437341,-0.8219821,1.8732808,1.6120391,2.0688438,2.2853549,0.72693884,-0.25205418,0.92177975,1.1549932,1.6874982,2.347869,-0.17377944,0.3635661,1.7651017,-0.17743097,-0.16691405,0.68601984,1.1425632,-1.0503399,0.9332247,2.0944085,0.5852859,-1.8716843,-0.23399398,-1.087046,-0.08750535,0.6674539,-0.6484944,-0.9618052,0.49072653,0.101130314,1.3073364,-0.21304406,-0.72162324,-0.06609668,0.97390705,-1.8702991,0.21746193,-0.26451626,0.86827135,-0.6429822,1.305949,-0.91484344,0.8348828
Hs 742.T,0.56388426,0.5390141,0.0058518685,-0.63681966,0.39077008,-1.3267908,1.8344882,-1.9217353,-1.1527866,-1.8134443,1.0471517,-0.2716393,0.13947932,-0.9405371,-0.18702377,-1.2304677,-1.3606018,2.205897,-0.36002937,-1.7369132,-0.6894397,0.009065505,-1.6286403,0.6444413,0.46010196,-1.430322,0.3451364,0.32424432,-0.20464621,0.5894947,0.8945339,-0.83243185,-1.8921795,0.04856845,-1.570586,1.2251428,-2.9090872,-0.23440266,-0.5886909,-1.3393492,-0.53158695,1.3432233,-0.7726209,0.004174797,-0.8481542,-1.0022603,-0.8336544,1.6563307,1.7798023
RVH-421,-0.3161791,-1.1868125,2.3220408,-1.2483821,-1.1678385,0.051052295,0.7800425,-0.59032863,0.28449005,-0.7720391,0.008792451,-1.2976081,-2.6394835,-0.74379516,-0.68116766,-1.1242096,0.75250685,0.012707356,1.118501,0.010122195,1.5215666,-0.42921758,0.011663923,-0.6402736,-1.6176133,-0.0022444823,-1.4224685,-0.32843506,-0.9816004,-1.6713825,1.3072108,-0.9551287,1.9401395,-0.05759368,-1.7062877,0.09399797,0.54816675,-1.412898,-0.22114316,0.9206865,0.4845179,0.85935485,-0.4208986,1.5604509,-0.88107085,0.8430376,1.2214068,-0.017583782,0.35612264
Li-7,-0.46115965,0.80703574,-0.40055928,0.88070524,-0.18623354,1.2111217,0.483689,0.6853454,-2.6092463,-1.688458,-0.4627011,0.8642966,0.12869473,-2.1694994,-0.89396775,1.6252571,-1.5938917,1.5959098,-2.2011745,0.080959395,1.9952501,0.600896,-0.1154056,-1.2573218,-1.3618975,0.09616308,0.1702542,-0.4020657,-0.50746596,1.9934781,-1.7127353,1.6051079,0.30421597,0.44848835,-0.55011654,-1.8655472,2.2160723,-0.07054668,1.001143,-0.7017089,1.2112887,-0.20066799,-0.74183357,1.6080655,0.37213066,1.3876065,-0.9992671,-0.5427944,0.309265
NUGC-2,0.55573934,-0.2818594,0.36143523,-0.387476,0.18171367,-0.8578659,-0.4110291,0.65723646,0.8493164,-0.15164483,-1.9945064,-2.2086008,0.62428665,-0.98357666,-0.4153277,-0.5180499,-0.49178794,1.3384632,0.07401055,0.17114097,-1.2243482,-1.1347541,1.548896,2.6473415,0.2607493,-1.606078,2.318908,-0.5547741,0.0289889,1.1792521,0.18431292,-1.1770177,-1.2480818,0.8733351,1.3828582,0.11267266,0.6894911,1.2921305,0.71027577,-0.42623377,0.68487984,-1.0385147,1.4914237,0.07990143,-2.7636023,0.7269065,0.47335583,-1.7226919,0.18981694
SK-MEL-3,-0.043034565,0.72897005,0.6899577,-1.255293,0.64095247,-0.39980122,-0.06646551,-1.7493858,0.088995636,-0.26979154,-0.2473162,-1.8161945,-3.5092466,-1.9742103,-0.13982919,-1.5757132,0.8204315,0.1339736,0.4057482,0.25676188,1.4091843,-0.7001145,1.6140817,-1.9589517,-0.40548736,0.47113737,-1.6502444,0.33144802,-2.5273638,-1.8848766,1.1531463,-1.1038114,1.2416683,1.5873635,0.28778303,0.4774354,0.56412137,0.18822807,0.50969535,1.3195307,-0.8304788,-0.00887146,-0.05803976,0.9859534,-1.5020628,1.8662033,0.05136293,1.0933627,0.43822816
HCC15,-0.3804326,1.428262,1.2066879,-0.89114994,2.3493254,0.388376,0.9225451,0.18475102,1.6033362,-1.756259,0.6916794,1.4139841,0.20511723,-0.19657964,-0.4513998,0.39719903,-0.78058356,-2.2196233,-0.3550769,1.7082303,0.39965576,0.72451293,0.5056046,0.47140202,0.24514326,1.076493,0.3929362,-0.8332771,0.9811618,0.7319242,-0.011762768,0.6868508,0.33169666,0.5562185,0.27490762,0.7123017,1.0595756,-1.1696129,0.13743567,0.2894139,-1.1510757,2.453823,2.307479,1.0210837,-0.07392507,0.6118671,-1.5977305,-0.25181654,0.52492183
TO 175.T,-0.6804964,-1.1503334,-0.12516534,-0.6951669,-0.009756577,-2.0259712,2.0031972,0.5868951,-0.643999,-1.6554294,0.9390102,0.65826285,-0.8387816,0.19819236,0.9318216,-0.6462884,-1.5900861,0.96023095,0.56124306,-2.1485426,1.2395003,-0.9616307,-0.42278624,-0.38515684,2.1145978,-0.6300919,0.41994208,-1.3283621,0.32802182,-0.066083774,0.5661737,-2.4086077,-2.2585635,-1.0128502,-0.9922542,-0.39866677,-1.9804174,-0.099333055,-1.1436608,-0.45294896,-0.40170953,3.6135345,-0.2170139,-0.21060935,-1.2864187,-2.2822142,0.5283858,1.6858271,0.2876833
SNU-119,2.0989392,-1.2141625,0.5228504,-1.314237,-2.3656282,2.1982365,-0.6383524,1.5380747,-1.5344675,0.6999271,1.2910507,1.2725704,-0.6677085,2.189694,-1.0271213,0.9630573,0.3809133,0.6719126,0.8688249,-1.6835489,-0.34989032,-1.4809364,-1.1337241,-1.0056547,1.9080197,-2.6268446,-0.017654825,0.2335043,-0.40148735,0.5026207,0.43500015,-2.260673,-1.4504944,2.0341086,1.4286654,2.2421527,-0.82833314,2.121945,-0.32696208,1.7233671,-1.32611,-0.45438105,1.6176127,-0.4065425,-0.63472664,0.8137361,0.56490904,0.12983447,-3.5069904
GA-10,-1.7408702,2.0660014,0.031096429,-0.26153576,-0.15653889,1.2499712,-0.6159376,0.4140153,0.2149046,2.4504924,0.21198088,0.10835828,1.9194379,-0.16033888,-0.160014,0.3753479,0.7362749,-0.6293363,-0.658074,0.27185953,1.0049217,-0.42571774,0.802628,0.17934982,1.0514424,0.531126,-0.9541641,0.42546853,-1.0704784,-1.6732662,1.0603877,-0.20395716,0.6362236,0.12588638,-1.916275,1.8315659,0.483597,-2.7386973,-0.16075687,0.66508347,1.2640601,-2.6118317,-0.06408304,1.9644073,-0.04596547,-1.0869329,1.2276496,-0.022214592,1.7717035
SK-MEL-31,-0.74123573,-1.2507974,1.3214872,-1.9380252,0.40542778,-0.6700744,0.61300606,-0.50572366,-0.1563328,-1.0217607,-1.0111315,-2.1922562,-2.3267674,-1.9478695,-0.3353598,-1.1398224,0.03859578,1.4180526,1.2780862,-0.87537616,0.6501109,-1.3938519,-0.573561,-1.0574657,-1.852392,0.11701628,-1.4824091,-0.25949773,0.5364725,-0.6399088,1.6353875,0.25611818,1.1539805,0.5506303,-1.5846378,-1.1890783,-0.07306547,0.23816986,1.4689367,0.39610526,-0.09538818,0.0037943572,0.08451821,-0.119109236,-2.7706926,-0.26852956,0.44315225,-0.85005695,1.6226014
CW-2,1.6692128,-0.52421623,-0.8245268,-0.88997024,-0.67744625,-1.569777,0.13413975,1.4538759,0.2992518,0.35611185,-0.6891308,0.86784995,-1.2965156,2.3171384,2.723474,1.9006797,0.26746517,0.9311368,-2.4088979,-1.4776089,0.1392275,0.3635464,-1.0680934,1.4758359,-2.3327117,0.79183435,0.7920441,2.8212035,0.4207802,1.348832,-0.60932904,1.4309894,-1.1442403,-1.1612759,-0.37427467,0.66419774,0.6225373,0.3292451,0.7143627,-1.2938038,-1.3452885,-1.6061383,-1.0093864,-0.52958924,1.7238619,3.3774335,-1.3506076,0.5476017,-0.5184159
MCAS,-0.11408353,0.28720373,0.9478654,-0.58253753,1.8569727,0.7542894,0.14152843,1.084145,1.0823332,0.3442912,-0.30507398,0.02163149,0.61745757,-0.38069123,-0.03934029,-0.3375987,2.2671404,-2.1997783,1.2227268,-0.08456108,0.699696,-0.17866792,1.3353022,0.4977141,1.8385,0.96949875,0.9595797,0.2872975,1.2267175,0.82974815,-0.3219812,-1.6289582,0.056135613,-1.4607222,-1.1097751,0.6411585,-0.79994667,0.66029304,1.1154191,0.2769256,-0.2853532,0.26574096,0.14909863,-0.8616323,2.2686694,1.3981786,0.805304,-1.7082665,0.7045498
BCP-1,-1.0010743,1.9300709,-1.8467798,-0.111274935,0.4996785,-0.45286143,-0.20598397,-0.88418525,-1.2705761,0.64649546,0.5386137,-1.1663591,-0.2937648,-0.42539862,-0.016605478,-0.43055415,-0.42013696,-3.1665351,0.890726,0.4767646,-0.94414496,-0.115889005,2.1019797,0.88042295,0.54297984,1.3914189,-0.5823103,3.2459385,-0.11575583,-0.495262,0.009866191,-0.9429019,-1.1620754,-1.4012477,1.3104658,-0.2074028,-0.04004496,-2.1860693,1.4581617,-0.7225212,0.15007354,-1.8561308,-1.2857298,1.563982,0.22776492,-1.8913708,-1.0579606,3.1703198,-0.94384885
KMRC-20,-0.47101247,-1.170227,0.4142062,-0.0028580464,-1.4252678,1.8116829,-1.5762678,0.4026924,-1.1824622,-0.6524972,-1.6315198,2.5810525,-1.1114167,-2.8044815,-0.7509569,0.17146412,0.41858712,1.3938774,0.22361742,-0.4552075,1.4638908,-0.13402541,-2.5239925,-1.1352348,-1.5875192,0.2933667,-2.0662243,-1.3073941,-1.9608388,0.2562697,-0.21444383,0.39082208,-0.65747684,0.4768323,0.16325456,-1.1575165,-0.2691702,0.7990018,0.9488444,0.1525361,-0.3900277,-1.090037,0.2837493,0.91771996,-0.3377371,-0.45538992,-1.2238853,1.368705,0.2842383
ML-1 [Human thyroid carcinoma],0.06973014,-1.565893,0.2810516,0.4000727,-0.3449452,0.89267313,2.0725873,0.38882294,-0.864109,-1.4647527,1.0328025,0.7684625,0.7964387,-0.8324201,-0.79808426,-0.05872478,-1.2329012,1.8377529,-0.09382182,-0.39147756,0.08173132,0.20085943,-1.2473252,-1.3635911,-0.26457685,-1.6828754,-0.024469614,0.16562009,0.34696037,-0.35900244,0.006693342,1.3117163,1.2950232,1.2429254,0.36459422,-0.8106101,1.089181,0.75543714,0.6764933,-0.15192133,0.7840269,1.567275,0.64098305,0.3399628,-1.3352877,-0.9266794,-0.16884813,-2.245608,0.25168583
NCI-H2171,-0.07156925,0.1785652,-0.30006889,0.5885904,-0.7751276,-0.6068832,-1.4732083,-2.1181452,0.383029,-0.14389858,0.76547045,-2.0713031,0.5581629,0.66008776,2.016122,-0.19527346,-0.57912105,-1.2030501,-0.96238965,0.9307064,0.5852312,-0.6367906,1.2647828,-0.14360934,1.7428178,0.18396404,-0.8732834,0.8683667,-1.0796696,-0.37546214,-1.4823202,1.4310833,0.72922385,-1.8064072,0.7554736,0.50535595,-0.80735755,-0.70995986,-0.52735466,0.1912837,-0.50085706,0.9219584,-1.6390691,-1.488557,-0.22551668,1.3135595,-0.55943877,0.11571232,-1.1465002
CAL-51,-0.40371707,-0.081045456,-2.6058064,1.1005188,0.25513372,1.0219417,0.29549158,2.0079656,-4.4239545,-0.6061641,-1.6308274,2.413699,0.031280603,0.3986594,-0.34533727,1.0604528,0.15704599,0.4420043,-1.2878492,-1.9411523,1.6405222,-0.008763203,-0.41754255,-2.3838847,1.3930792,-1.7300528,0.0024261447,1.0213535,-0.2168687,-1.9381415,-1.2402478,0.17499365,0.65132725,-0.12702408,0.17154692,0.012155698,-0.48369673,0.30316082,-1.2884257,2.4334724,-0.6845968,0.7074434,-0.24466664,1.3721057,0.5978406,-0.25110868,1.3885508,-0.037661918,-1.3172978
NCI-H1568,1.322394,0.49059084,0.2992544,-0.25339556,-0.6528623,0.15310653,-0.03447801,-1.1409127,-0.4073081,-0.7929405,-1.7370589,-1.1999797,1.4984788,1.7492352,-1.0867232,-0.34044075,-1.1256926,-0.32036605,-0.18663563,1.5688908,-2.61366,0.9061447,-0.89705086,2.0895555,-0.6752776,-2.5690174,-0.2541738,-1.0564404,2.474542,0.8009721,0.49184284,0.3098327,-1.0509385,1.7733203,1.1613199,1.8244382,-1.50949,-0.05507737,-0.9841998,1.3645326,1.4604151,-0.68209255,2.3183956,0.8069336,-2.77619,0.72974104,-0.24705957,-0.57432586,-1.9296708
KHM-1B,-3.1940444,1.6498083,0.35762677,-0.628687,0.04937955,-0.1950846,0.0028076302,1.6466383,0.8587415,1.568778,3.720573,0.095454305,-0.2550075,-1.1668066,0.6534129,-2.3252735,1.4274118,-0.9649098,-0.069892935,1.1836574,-0.55001575,-1.895287,1.0408593,-1.5433136,1.9189427,1.9598688,-1.701275,1.0903295,0.102222994,-1.0798516,0.13117407,-1.4729608,0.6783457,-0.9960926,-0.3847245,-0.3871348,0.7126398,-1.8313624,-0.41734052,0.09565038,0.7341738,-0.867865,-0.2887854,0.09911864,0.721142,0.31752378,-2.0624254,1.909756,-1.6392031
IGR-39,-0.95804286,-1.2833668,-0.80712914,-1.3099418,-1.0082171,-1.186814,0.50468034,-2.0254385,1.1097381,-2.0149946,-1.5678202,-0.5250322,-0.4421286,-0.9087257,-2.0112026,-1.2040823,1.1745172,-0.27523574,-0.9123372,1.8480555,0.027184106,-1.0565826,0.6528548,-0.16769105,-1.0938281,0.5718746,-1.0903922,-0.793522,0.53737766,-0.66708016,0.49342918,-0.090645,-1.1520525,-0.41719532,-0.14288259,-0.88329756,0.34956732,0.73668474,-0.7406236,0.9985243,-1.505811,-0.71006423,-0.2691807,0.33211145,-0.57725734,-0.5922706,-0.14063233,-1.501303,1.9799875
JHH-5,0.94062537,0.92964786,-0.04154327,0.66485935,-2.3919165,0.10539476,-0.44934812,0.4908167,-1.7026854,0.15556392,1.1769282,2.0499992,-1.0864083,-1.0798655,-0.26914793,-0.5121388,-1.7947253,0.41522434,-1.3972924,0.3139627,1.4261184,-0.2784024,0.86003196,1.2704953,-3.2444994,-0.805715,2.364623,0.7031854,-0.8760973,2.3203137,-1.3646547,0.3742446,-0.07315292,-0.68343395,-1.2099841,-1.8433914,2.4154477,-3.4957042,-0.29197437,1.9119463,0.40899757,-0.0007818397,0.18028079,0.06566894,0.83735573,0.775602,-1.421921,2.4440079,-2.783809
MDA-MB-361,-1.5480437,0.6133842,-0.88425565,0.89941037,0.8175652,-1.3718083,0.63814706,0.7625865,-0.88357717,-2.5299342,-1.5637529,-1.9762775,0.5257303,1.4274526,1.2927325,1.4973263,0.12182184,-0.6355661,-0.9546762,0.8388911,-0.52023697,0.18817964,-0.553423,-0.23347093,0.3986793,0.15986858,-0.9208193,-1.9428127,-0.1277991,1.1326413,-0.4278638,0.10010959,2.7200954,-0.9834363,1.5799497,0.94123137,0.1602286,1.0319498,-0.048890848,-1.886732,-1.1466069,0.11834088,0.25067276,1.3179283,-0.3340255,1.2234296,-2.020415,-0.3366176,-0.57557917
NCI-H1650,1.024122,-0.7939591,0.5173926,-0.29401377,-0.011021767,0.68366754,-0.6827966,0.04787746,-0.18089591,-1.309714,-1.3953569,0.13833596,1.4094306,2.0665946,-1.2977273,-0.1297155,1.1745863,0.04968803,0.073624425,0.71104336,-2.7155187,-0.36048687,-0.8403062,3.0032928,-0.40045705,-1.4805446,1.17611,-1.1849077,1.0168397,-0.70575064,1.0820103,-1.0867095,0.46764275,1.3129356,0.77431625,0.95527273,-1.220399,0.46263993,-1.6321809,0.8914625,1.1296844,0.40975773,1.8321931,0.5825672,-2.6226528,-0.64831513,0.5250587,-1.1082468,-1.1774436
EBC-1,-0.58864135,0.23872754,1.5724354,0.6535434,0.2182123,1.5996532,-1.5702903,0.04012751,2.438268,-0.29976943,0.11087541,-0.31254748,-0.61561066,1.0638969,-2.0951636,2.1036866,2.2945158,-1.8181617,0.4241782,0.9213383,0.24645174,-0.30435374,0.43711492,2.4988089,-0.074829146,0.67359614,0.8846867,0.52985144,1.6598336,0.77007556,1.0490165,-0.6704976,0.5451138,-1.3733797,-2.0457873,0.44835752,1.0371708,-0.36160237,0.13046618,-0.4603388,-0.7371106,0.49656656,-0.5044569,-0.050745293,1.1226317,-0.5304629,0.8936247,-1.3968666,1.7984462
Capan-1,-0.8459441,0.5358381,0.30905682,-0.764867,1.6886011,0.9033294,-0.4320713,1.5282897,-1.8657069,0.026178341,-1.5289844,0.4599286,0.49743074,0.03635986,1.6369399,1.3283107,0.31210837,0.46162993,0.44491673,-0.911546,0.9694147,0.5569078,-0.95040935,1.5291511,-1.7178354,-0.7992172,2.0722528,-2.0507812,-0.114385225,0.9777558,-1.0104529,-0.24877883,1.2409916,0.38572398,-0.45417342,0.08360653,0.855683,1.5480874,0.4029049,-0.39233053,-0.26032916,0.87963974,1.4598043,-2.097129,2.8246906,1.2469357,1.174752,-0.4432931,-1.3986452
A-172,0.7379454,-0.71473145,-1.2156124,-0.8692553,0.7155618,-1.157391,0.39641386,-1.6108649,-0.13897438,-0.9544982,0.085305,0.23017347,0.14540485,-0.5369663,-0.15137978,-0.7656631,0.76059717,1.1702852,-0.34734786,-0.20480375,-1.4079716,-0.72684777,0.25857484,-0.26777345,-0.15211946,-0.15655588,0.8736533,-0.5358341,-0.85672057,-0.77791613,0.88174593,1.2091167,-0.6259493,1.3912582,0.4570858,-0.9574131,0.5841863,2.2561283,-1.2991191,-0.38123578,-1.3120645,0.11698149,-0.56239766,0.2655004,-1.5269939,-1.5278616,-1.3163927,-2.08963,1.4301825
NCI-H1581,1.2479358,0.6297847,0.5240646,1.7815156,1.4120013,-0.18088683,-0.40953556,-0.5016114,-0.81430477,0.15714782,1.2312233,1.2717897,-0.7729517,2.451428,0.9234688,0.11106856,-1.1765745,-0.49098995,-1.446432,-1.060461,-0.35091773,0.112656444,-0.80595416,-0.83290863,0.06589225,-1.0888988,0.07062301,1.3425636,0.36103076,-1.7438533,-1.1323453,1.1621797,0.27130622,0.81292737,-0.26365894,-0.2984547,0.62143725,-1.7473464,-1.1029533,0.57581484,-0.17428227,1.0861948,-1.9512986,2.1459184,0.3686845,-0.93026704,0.35851187,1.2626901,-0.6348051
KYSE-410,-0.37716168,0.45391142,0.41454166,0.54963666,1.2122018,0.6217553,-0.12657717,0.50359315,-0.44296107,-0.34450907,-1.3318175,-1.9771158,0.90312177,0.03931796,-1.3851528,0.4705511,0.8439956,-0.7416893,-0.5595461,-0.50661737,0.23194186,-0.84948856,0.58264256,2.3026974,0.8504362,-1.0848534,1.8715171,0.17722347,1.1948838,0.8652242,0.41609126,0.030642439,1.8762307,-0.9538552,-0.82248145,0.37336284,0.22729279,-0.8843565,-0.122971684,0.91872287,0.23515436,0.2586896,0.0855169,-0.11297013,-0.48923826,0.70922905,0.7721612,-2.2548006,1.5483469
KMS-34,-1.915803,1.2659396,-0.15243351,-0.37485448,-0.30377287,0.115685664,-0.6347235,0.27653694,-0.13641423,0.13563173,3.4556425,-0.39145496,1.2340763,-1.8651936,-1.2571712,-2.2324913,0.59156835,-1.1327142,-0.8827039,1.6194425,-1.4669297,-0.099542014,1.0056099,-0.2929263,0.7139194,3.0457122,-2.4926348,2.7854614,-0.86880744,0.11475518,-0.05889915,-0.056383215,0.06400862,0.700824,1.0741944,-0.21146992,0.40044078,-1.1791619,0.6152176,-1.8521496,0.14770767,-2.0464287,-0.3087236,1.5028805,1.2958856,-0.45064586,-1.8469148,1.2005289,-1.1386122
HCC1428,-0.54162997,0.74608773,-0.37659028,1.1612794,0.8868492,-0.07953585,-0.9270397,-0.29428118,-0.79603493,-1.4509331,-2.5088925,-1.1161855,1.179989,1.9416484,0.18449152,1.8192042,0.041478213,-1.4157854,-0.91695476,1.3769826,-1.0025648,0.11791487,-0.47767752,-0.20882344,0.3957983,-0.30259016,-2.0476584,-2.130037,0.42522886,0.07979685,-0.58891565,-0.400932,1.8619201,-0.019752577,1.2531381,1.1677612,-1.0703692,1.3622215,0.3324129,-1.2694877,0.5195868,-0.5772234,-0.28241307,2.0687327,-1.6780014,-0.3981435,-1.0923535,0.7592322,-0.85973585
SLR23,0.8709462,-0.316693,-1.1955767,0.8945353,-0.68364483,1.4889534,0.3717693,-0.29084778,-0.67931986,-0.2424426,-2.0421374,2.7949622,-0.16603829,-1.2618433,0.5195226,-0.4022693,1.7394036,1.3475232,1.280353,-0.5303592,-0.54115945,1.1235425,-2.361613,-0.3871998,-1.4715554,0.6154777,0.40945372,-2.889667,-1.4785556,-0.7800705,-2.514569,0.29649132,-0.9064658,-0.5879588,1.3130128,-3.394599,1.2859362,1.2070117,-0.6002544,-1.0364,0.82490176,-1.0353564,-0.19878368,-0.37817064,0.45543113,-1.5442537,0.123431824,0.21992561,0.08804719
SW780,0.18458292,1.4033213,1.2624727,0.64213043,2.1318688,0.17301765,-2.441189,1.0715944,-1.4447379,-0.17939982,-2.9758515,-2.5719495,2.097354,-1.3188822,-0.52838206,-0.764983,-0.41479403,0.16007459,0.74375975,0.43023428,0.060189866,0.74807245,0.6231276,2.0692136,-0.93060607,-1.7715521,2.4696858,-1.5671233,-0.055860326,1.6255592,0.62954146,-1.0443671,2.0815744,1.7219095,0.7713312,0.47486657,0.6450925,0.38065636,0.036234,-0.7241651,0.00721258,-0.52115303,1.0409387,0.61799794,-0.52801853,-0.051042743,0.80885196,-1.712162,-0.36988807
NCI-H2126,1.0175099,1.3901378,1.2290471,-0.10954404,-0.4567333,0.78117937,1.2654094,0.13052107,-0.68578726,-2.1097524,0.6121844,-0.33242178,1.4434615,0.5237809,0.067969725,-0.16859761,-1.4989262,0.017832907,0.5290018,2.4705353,-1.1135283,2.4426033,-2.6627886,1.1232587,-1.5890894,-1.581242,-0.5643441,-2.7464683,0.5360309,2.7248485,1.4902588,-0.5689052,0.98888224,2.3377244,1.2350287,3.277033,-0.5244488,0.76435804,0.5895941,0.4242165,1.2134794,0.60070854,4.0712757,-0.119777456,-0.8952608,1.4634924,-0.08183177,0.17616332,-3.835383
JURL-MK1,0.2990873,2.8422546,-1.7839364,-0.41800746,-0.4780816,-1.4134328,-1.1711028,-0.059493076,0.8537915,0.86843705,0.04130312,-0.529166,-0.7610173,-0.15465283,-0.55704445,-0.2093231,-1.673262,0.97161764,0.355441,0.4318361,-1.2910707,0.76237094,0.75646394,-3.0297241,-0.109145746,-1.0640593,-0.650578,2.0612695,2.7404187,-2.2801428,-1.5204039,-0.6259484,-1.8189275,1.6212131,1.2730176,-1.172912,-0.8337747,1.5101248,2.621643,0.41841692,0.27358735,-0.22178766,0.6139916,-0.104005635,-0.3931572,-1.1260645,0.38804826,1.3611002,-0.98721623
BHT-101,-1.4958838,1.631781,-0.076305,1.3285375,1.3187255,1.0999553,1.7862582,-0.36874118,0.37950373,-1.0752637,0.8048334,-0.007363815,-1.427568,-2.5949576,-0.4224377,1.2114196,-0.17210996,1.3138696,0.33438817,-0.14172958,0.50496894,0.9442596,-0.98379135,-1.0600352,-1.1539927,0.35471076,0.6972755,-0.3062309,0.84867615,0.9812847,-0.5634148,1.0092541,1.2038717,-0.4879214,-1.5467741,-1.0332699,0.6899507,0.7043022,1.3338937,0.06309113,0.9884591,1.4554073,-0.0359966,-0.7145512,1.7504364,1.089444,-0.1521374,-0.1604622,1.2034516
DM-3,-0.054903507,0.12924331,0.16353232,-2.4072528,2.1613388,-1.4607786,2.0058146,-1.7964475,-0.6176304,-2.7437549,0.9408509,0.28327617,-0.58403385,-0.21841593,0.75204045,-1.0971508,-0.20230977,1.7349503,0.16288394,-1.5640701,-1.0400213,-1.2720054,-0.10735953,-1.2925396,0.70442927,0.8905374,0.53289074,-0.9316642,0.13056852,0.08551431,-0.32638472,-0.94106525,-2.4413981,0.36251077,-0.26773247,0.17067975,-1.6013178,0.74312365,-1.8208152,-1.2526141,-2.0206556,1.7302878,-0.4888108,-0.75313425,0.83143646,-0.6959456,-0.96876574,1.6713953,1.5040371
HuP-T3,0.4167131,0.8515277,1.7560295,-0.8624172,1.8263463,-0.08685651,-0.98332727,0.05789522,-0.5139555,0.11022337,-0.10760358,-0.021735132,0.767643,0.0651357,0.44168335,0.17318694,1.5578136,-1.1962504,1.061524,0.46572632,0.18004799,-0.1654894,-0.61672854,0.95837224,0.29380164,-0.10958816,2.508699,-0.6395603,0.25933447,0.4544565,-0.040705867,-0.3651338,-0.64402336,-0.8991733,-0.5778095,1.903765,-0.37819377,-0.040515244,-0.27289632,0.029772744,-1.3276845,0.28244793,0.23550338,-0.35155174,3.111425,2.1524,-0.9070143,0.4445341,0.76005477
OUMS-23,2.2231898,2.0625806,-1.1853664,0.7243294,1.7332249,-1.4201642,0.9206939,0.52105165,-1.7923455,0.8805388,-0.73450994,-1.8684958,-2.0884876,1.9553895,-0.23215549,1.7540321,0.17299925,0.834952,0.06256271,-1.594477,-0.290349,-1.6854461,0.30765167,-1.0325454,1.1444596,-0.13169293,0.6805365,1.1790018,1.3651998,1.6583537,1.0228565,-1.0944312,-1.0922544,0.9825996,0.7544067,0.30480516,0.0820362,0.87528116,1.0976669,2.2562282,1.018477,-2.0605328,-0.08015078,1.457493,-3.0830116,0.7635315,-0.9829279,0.97899604,-0.99690366
GR-M,-1.5216553,0.97727835,-2.4239883,-0.95244384,0.1958148,-0.11226417,1.1270338,-1.8192126,1.1419343,-1.5725112,-0.1181584,0.61182266,-1.4124551,-1.1893628,-0.20100094,1.3885617,-0.1440333,0.39116168,-1.7595866,1.3196943,-0.3736467,0.6437342,3.0251448,1.5732356,-0.76404434,0.2865985,2.3331757,-0.8069143,1.0252024,-0.4108308,-1.4830736,0.18947802,-1.7113862,-1.6383035,0.080725685,-2.6771607,2.7519603,1.5284066,0.08958475,-0.42438722,0.53602886,1.0381978,-0.25693563,-2.117515,0.78938675,1.0431654,0.5397483,-1.4558791,1.9089301
MES-SA,-0.01409814,1.249323,-0.82214475,-0.2707184,2.0395668,-0.4116022,0.15572368,-0.8893828,-1.2250562,-0.9773876,-1.0210286,2.1756525,-0.33835554,-0.92365855,1.599064,0.24478656,-1.0477592,-0.4845879,-2.040078,-0.72599304,-0.87192035,0.18709172,0.7734634,-0.14124909,1.0116395,-1.5189158,-0.007393159,0.29461485,-2.4114325,-3.5853996,-0.22674833,-0.82362354,1.3746254,1.90355,1.3149016,0.2823403,-0.17069119,-0.6102906,0.3471775,1.4217317,0.469525,2.4568615,0.81403357,2.7567785,-0.5731417,-1.6786714,0.1739098,1.0186067,-0.65761435
Peer,-1.4481083,1.979295,-1.1670705,-0.105456114,-0.9271772,0.47278976,-0.8413557,0.54832965,0.07992697,1.68136,2.1131206,-0.089517355,-0.48992425,1.2030838,0.34089732,3.001302,-0.42012256,-0.6708193,0.14422542,0.48925418,0.8985269,0.65314543,-0.7796957,0.11606301,1.025595,-0.1691732,0.9321623,0.58715576,-1.6870623,-1.7758783,0.21692887,-0.95385134,2.42222,-1.4671779,1.3372608,0.7491533,0.99481815,-1.484624,1.4564686,-0.39165372,-0.6325732,1.7466059,0.17315382,-1.879451,0.6845437,-0.9404926,-0.09578955,1.665717,1.7783122
NCI-H716,-0.28222904,0.60800177,1.7377981,0.725946,2.0008035,-1.1999527,-0.45386738,-1.0489677,-0.4353509,-1.010165,0.42743155,-1.0224214,0.20552547,-1.9297719,0.92611694,-0.5168871,-2.878388,-1.2303224,-2.070015,2.1254556,3.1042886,-0.8706372,0.869171,-0.5594331,0.17809528,1.4439564,0.3578088,0.31757468,-0.35563338,1.3624285,-0.45859376,2.4723299,1.6491656,-1.0251571,-1.9162905,-1.460027,3.025794,-2.1882477,1.0127283,0.63954973,-0.1328676,2.0727656,-0.43597376,0.2641818,-0.11890751,0.22893202,-1.1424853,0.5605777,0.18524154
EFO-21,2.1405032,-0.367918,0.12575956,0.08216725,0.21921109,1.2297126,-0.87079364,0.57834435,-2.8944294,3.7549682,-0.7760427,1.5559301,-0.73046315,-3.098095,-1.1503841,0.6468388,0.42981216,0.16209736,0.028850868,-1.8603162,0.8083066,0.80035865,-0.6966346,-0.7420394,2.171102,-1.8515508,1.3137145,0.6941115,-0.31354198,-1.0971631,1.7526863,0.37425148,-1.3071876,0.024165979,-0.65484303,-0.19599028,-0.23416692,1.9511648,-0.32672012,1.7239997,2.806479,-0.1864312,-0.9838041,-0.22308317,1.1841042,1.6928587,-1.1508137,-0.23928179,0.6394086
SNU-410,-1.3137674,-1.0034962,0.20482072,-2.3724604,0.6883738,-0.69005615,-0.096215054,-0.8801286,0.27466977,-1.0757438,-1.5843353,0.55092776,0.41292933,-2.4149375,-0.7988308,-0.035958312,-0.50283355,-1.2931069,0.48465547,2.713794,-0.9711301,-0.4410249,1.1714946,-0.19410363,-0.8444896,0.10154477,1.1250947,-2.4763782,0.58652514,0.36659163,0.36938184,-0.034462087,-1.31827,0.4215189,0.68255514,-1.9520572,1.5331374,1.7201322,1.2290176,0.7736567,-0.59588313,0.55090857,1.2253609,-0.749914,0.21645314,-0.22987649,-0.48803344,-1.5359205,1.2945745
TGBC11TKB,-0.060337134,-1.0553725,-0.06304067,-1.0006015,-1.0107014,-0.3859545,-0.5571793,1.626828,-1.018179,-0.7411172,0.5725844,1.4257601,0.05499876,1.3944894,2.603743,0.7553734,0.24335355,-0.020770628,-1.066954,-0.5935291,-1.2254975,-0.35591117,0.110703856,-0.68407416,-1.031634,-0.26076466,0.36727417,2.3796349,1.1606303,0.31510982,0.28516683,-0.7716769,-0.923608,1.2543695,-0.872578,-0.27246857,-0.27889857,0.9216123,2.4975014,-0.28331736,-0.44387165,0.15421417,0.47799852,-0.7010573,1.7872586,0.67351925,1.0815096,0.7311844,-2.7008562
TCCSUP,-1.5474916,-1.1802549,-1.3160158,0.1294601,2.0296392,-0.7598332,1.4396563,-1.0497433,-0.84683275,-0.51111484,-2.4754767,-0.41943815,1.1970032,-2.5462544,-0.9602179,0.6508106,-2.4532819,0.05223661,-1.9848876,0.70069885,0.451316,-0.017596655,0.7382339,1.5544307,0.4341405,-0.4655603,-0.19342043,-0.9479694,-0.45726132,1.5444651,-0.24233179,0.7326844,0.010824061,-0.35461795,0.013671521,-1.311865,-0.019710742,1.2109461,1.7457638,-1.1875244,0.09026424,1.4638573,0.62043667,-1.3679211,0.072513804,-1.7066083,0.8249228,-1.7900542,1.9037399
HOS,0.69403356,-0.12566939,-1.5428281,0.4823374,-0.20571345,-1.3015655,0.39725932,0.26559827,-1.0459543,0.15006286,-0.15727405,-0.84748024,0.16303732,1.6490449,-1.636968,-0.20424265,-0.69234216,-0.8716644,-0.9807166,-0.915255,1.058772,0.1440683,1.0553275,-0.44453597,2.3695703,0.34161904,0.64398056,0.6656426,0.24656567,-0.34901887,-0.019220933,-0.32133654,-1.1168085,-0.57541376,0.43530813,-0.6165872,-0.15486374,-1.2508907,-2.4037352,1.0879697,-0.94233036,0.21640824,-1.4501225,1.6066074,0.68825215,-0.12687033,-0.3310963,-0.81795883,1.2632506
NCI-H1975,-0.07010005,-0.7626543,1.1508071,-0.45557,-0.030513272,1.0942595,1.1707319,-0.11732904,2.4659781,-2.2802835,0.78982705,0.48791394,-1.1462727,0.6903916,-2.0318406,1.3398601,1.0533135,-0.834786,0.52064013,1.2564796,0.34635898,-0.546202,-0.28540957,1.5670371,-2.1166275,0.4013952,0.42599943,-0.23038004,0.06256959,0.2519598,-0.055688478,-0.91357243,-0.06658422,-0.20789576,0.62966794,1.4604342,1.182852,0.5809313,0.25577044,-0.15523867,-0.55594176,0.568095,0.032820098,1.332072,-0.3395545,-0.5956991,1.3612889,-0.22110896,0.1560687
OE33,0.38675296,0.81111044,1.9239085,1.1840054,2.3914762,1.0842553,-1.5659618,0.3613851,-0.6404357,-0.1284577,-1.2440523,-0.3978671,1.2772188,0.5882103,-1.574272,-0.6417233,1.5518415,-0.47203428,0.13248725,0.82024086,0.19928381,-0.39407644,-0.8937531,0.8451504,-1.185186,-0.2643447,0.5184714,0.047964472,1.5347356,0.983345,-0.279665,-0.27242643,1.5912654,0.7795373,-2.0088243,0.73243827,-1.1610141,-0.5359956,1.075838,0.77492774,0.025338443,-0.5203483,0.52572477,0.24837239,1.7085843,0.88364065,0.5869528,-0.21645463,0.4666641
NCI-H526,1.5685691,1.208889,-1.1249405,-0.3930537,-0.18677333,-1.1621662,-2.120839,-1.6575872,0.16993085,0.16299707,0.077550195,-2.3348374,0.90866894,3.523029,2.5547004,0.2515082,-0.24884127,-0.6327216,0.971506,-0.08299615,1.6316798,-0.6881491,0.819698,1.2613058,1.5665182,0.2402424,0.27366757,1.403682,-0.3559747,-0.80314904,-2.1401513,0.8795436,-0.289665,-0.87260944,0.82031685,0.9307933,0.5362054,1.0669811,-0.48391882,0.26355842,-1.6948416,-1.2311646,-0.90726477,0.22055489,-0.90153134,-0.19956152,-0.09257684,-0.5803844,-1.2217265
SNB-19,0.5217233,-2.3778522,-0.1517294,-0.008529739,-1.4977303,0.7869877,-0.5623786,-0.6535442,-0.5307472,-1.3038623,0.18039814,0.2543151,0.33719042,0.98641247,-1.3406647,-0.66186875,0.49569055,0.42873976,-1.3651091,-0.48017636,-0.60447013,-0.50659823,-1.3110479,0.076769635,-0.41157734,0.44676805,-1.9447937,0.3535826,0.7895359,-0.27624187,1.0163729,1.4875085,-0.29038474,1.0608896,-0.011948696,-1.5722055,0.53078175,0.7384283,-1.3269231,-0.7006615,-0.29529518,-0.7851663,-0.96727407,0.527324,-1.5482479,-1.2787914,-0.41774908,-2.0597157,0.40679583
Hep 3B2.1-7,0.659519,1.6746912,-0.8674406,0.9609451,-1.1338247,1.8185464,0.46773332,-1.444422,-2.927937,-0.82264036,0.38074955,0.14090854,-0.23965637,-0.64709574,-1.4356011,0.77821153,-1.724771,0.88272136,0.4425282,-1.0247549,2.0562644,-0.4547349,0.48866314,-0.09187213,-1.1709123,-0.28035194,0.3788588,-0.326692,0.74219877,2.9639997,-2.0414894,0.7917182,-1.9870363,-0.34991032,-2.33891,-1.3103669,-0.044163987,-1.458744,1.4830513,2.5963178,2.491662,-2.2157643,-0.6753778,1.4900085,0.14762142,-0.051545504,0.19281703,1.5758243,-1.2656658
Panc 02.03,-0.19784407,0.052461393,1.9334947,0.9196049,2.5765193,1.8939427,-0.80290097,0.6684746,-0.2700932,0.21334179,-0.8142423,0.06869216,1.2858101,0.26211026,-0.5969136,0.15911616,2.045276,-0.8057808,1.0938172,0.46054956,-0.900725,0.18375754,-0.86619675,0.488494,-0.6233245,-0.558045,1.0030262,-1.1984048,1.2256817,0.90335,0.35476357,-0.21421972,1.5073497,0.8120512,-0.9433902,0.10139151,0.012949225,0.61226976,0.9411794,-0.5615654,0.0883689,0.44554117,0.88210076,-1.2518387,2.4253721,-0.047679618,1.2595365,-1.2348545,0.50438076
BC-3C,-1.0205894,-1.7963842,-0.7011532,0.03401016,-2.7215946,1.0841379,-0.4647422,1.7682338,1.6376876,-0.94174814,-0.80125624,0.9140361,0.8608351,-1.477,-0.65551853,-2.6913607,-0.312315,-0.23852788,-1.5356824,0.03814674,-1.4577587,-0.1933751,1.9445887,0.57467896,0.9507267,-0.8645674,1.1801409,1.2219763,-0.009303096,-0.8325982,-0.78671706,-1.3917497,-0.75875944,0.16896822,1.869032,-2.4573977,0.75064164,-1.438385,-0.61362284,-0.27884293,-0.44871518,1.2373762,1.4218265,-0.8115097,-1.1018307,0.12808631,1.0808493,-1.842946,-1.3735826
Toledo,-2.9543462,1.5692124,-0.41887563,0.298181,-1.5850142,1.2427564,-1.2923267,0.49037728,0.5026395,2.0304441,0.89355147,-0.72411335,1.2628324,-0.2791447,-0.31560493,-0.096897006,-0.072257355,0.48394483,-0.043179076,0.43049353,0.47669536,-0.057337143,1.4747902,-0.8500099,0.51944214,-0.025848117,-1.1032808,-0.39627436,-0.44735208,-0.80907893,0.521378,0.6522562,0.9528505,-0.17447375,-1.4444685,0.543408,0.87623465,-2.0251944,-1.4478428,0.45877787,0.9259887,-2.7346742,-1.5935647,0.9767584,-0.21144381,-0.56963617,1.1047143,-0.8043777,1.2337755
LS411N,-0.45075274,0.47366622,-0.5408653,1.0019075,0.648016,-1.1021147,-0.21011984,1.1780531,-0.22571984,-0.10098654,-0.73674476,-0.188585,-1.6712698,0.8112514,2.7290328,1.5613322,0.7962616,-0.5015903,-2.4447792,-1.1202505,1.5643684,-1.1020474,0.30065718,0.8251394,-0.7403757,0.3521728,0.0019078283,1.9847542,0.5251378,1.4623706,0.027584668,0.80150354,0.5563901,-1.1518096,-2.2446382,-0.6745197,1.3313767,-0.54277426,2.5934463,-0.40951267,-1.1514134,-0.13765642,-0.64414275,-0.18525055,1.094932,1.881529,-0.78163797,0.70720476,0.15281402
RMUG-S,2.0076709,0.67583674,1.3243,-1.0083239,1.430015,-0.65918314,-0.7113124,0.44492322,-0.49286506,-0.63568234,-2.1714969,-1.0567982,2.2529984,0.019091608,-0.31520396,-0.92314184,-0.8566851,-0.9677044,-0.10289368,1.1091388,-0.9102287,0.7780983,0.23889604,2.744052,0.41343144,-0.7988945,0.9641491,-0.89518064,-0.57446384,0.8855932,1.0001616,-1.3000585,0.8752707,1.8822448,1.8802307,2.0499375,-0.95230466,-0.21334085,0.23185867,0.18745536,0.91921926,0.27825698,2.6057992,1.8397179,-2.2160761,0.22809228,-0.7529429,-0.46100682,-1.2280182
HEC-1-A,1.9354385,0.04244896,0.18037248,-0.1032347,0.69146967,1.9150844,-0.31730103,0.77221876,-1.8506205,0.58654153,-1.049293,3.059828,-0.23695728,0.9900787,-0.054987576,1.0761917,2.7534668,-1.8594797,0.5047505,-0.8133889,0.04538159,0.2630469,-0.99148303,-1.5948218,0.6728069,-0.26164854,-0.3751005,0.06955669,-0.16813454,-0.62081325,-0.24373761,-0.65586853,0.44594198,0.15286101,-0.57786316,0.47908816,-0.8865965,0.59062755,0.16693519,1.7589424,-0.72565645,-0.102582686,0.19147603,1.4697033,0.99114466,0.024699785,-0.445822,-0.22196867,-1.0839964
PE/CA-PJ34 (clone C12),0.8475499,-3.4706461,0.66075367,1.8893051,-1.8015977,0.5299933,-1.0191113,2.7412207,2.4439626,0.3468746,-1.6070858,-0.20519003,1.022765,1.2732699,-0.034399085,-2.3316085,-0.24211544,0.49173012,-0.7952448,-0.35229704,-1.0077729,0.16708663,0.1471852,1.8403018,-0.21677914,-0.21443985,1.1938608,0.28941748,-0.18940438,0.15968417,-0.22620143,-1.0055532,-1.1841668,0.773682,1.900857,-1.3850487,-0.0092820935,-1.1031119,-0.53254664,-2.2697577,-0.09218877,0.36627617,1.0267177,-1.6224511,-0.52727425,0.23561396,2.8796883,-0.6779218,-1.2434645
HEC-1-B,0.08897637,0.1576788,-1.7198688,0.5181313,0.3632121,0.8383539,-0.034017924,1.1936826,-2.928238,-0.16888243,-1.2385061,3.638055,-0.79846305,-0.3739856,0.6764754,1.5701263,2.652179,-0.6047727,-1.4755664,-0.9681003,0.27520135,-0.08562833,-0.09705832,-3.1656516,-0.16985527,-0.62658244,0.3053835,-0.16339268,-0.9435717,-1.6044104,-0.41028547,0.78045154,0.116580315,0.7470858,0.46751922,-1.3602748,0.6297053,0.66190624,-0.35664707,2.4723344,-1.101828,0.5203781,-0.087319136,1.1644776,1.624708,0.07989019,-0.70821416,-0.2568502,-0.61104643
TCC-PAN2,-1.0993445,0.63652456,1.3279076,-0.700505,3.5133452,0.02404355,-0.27478233,0.824449,-0.3131003,-0.4003433,-1.5725793,1.5398732,-0.07902406,-3.5812273,0.56678766,0.51708484,0.9692509,-0.36226204,-0.5928162,0.82488436,1.8877617,-1.8477557,2.1003919,0.33140656,-0.6796668,1.2892483,1.9047748,-1.6986405,-1.0728266,0.61381006,-0.17192116,-0.30613,0.8069006,0.34474373,-1.6216563,-1.3946439,2.7511833,0.49493223,1.3362616,-0.44454882,0.009728947,1.57893,1.3708875,0.63985384,1.0457666,0.078909576,-1.5689429,0.062440254,1.1447716
ACC-MESO-1,0.13341293,0.33570138,-0.11227704,0.43289563,0.13507764,0.11533723,-2.3460805,-1.7291191,0.28946444,-1.1566699,-1.5557828,0.4526228,1.3075563,-1.3363568,-2.6414063,-0.8884412,-1.3382227,-0.8227875,-0.80976975,2.6501868,0.18092048,0.5506744,-1.1264724,1.7794242,1.0194333,-0.2976833,0.27587932,0.18060195,0.70367336,-0.26132792,1.1439817,-0.13950297,-1.9791704,1.033221,-1.1231862,-0.697282,-0.31296447,-0.06792351,-0.24405012,0.85748935,-0.5053816,0.33376098,0.34811884,1.1833938,-1.3241223,-1.6842443,-0.34409636,-0.4082767,1.9236755
COLO 678,0.72344285,0.6349619,-0.5407402,-0.78559387,2.6803026,-0.14314644,-0.839466,0.5036772,-2.2199008,-0.82548326,-2.0493371,-0.32754117,2.7534301,1.0713906,0.35671774,0.812307,1.0122647,0.756064,-0.60785335,-0.2836554,-2.412502,-0.73717,1.4535208,0.46972632,-1.4277377,-1.2649947,1.0892671,0.23253834,1.1783234,1.0276855,-0.5971075,0.9155209,1.6946284,2.6350658,0.55878687,0.3097765,-0.97287345,2.1141937,1.0354844,0.75784165,-0.051048223,-1.600793,0.9625272,1.219752,-1.1346256,-0.16534933,-0.4229567,-3.154489,-1.0297544
KO52,-0.800943,0.78110456,-0.69918054,-2.1114686,-0.8233333,-1.6263932,-0.7985176,1.4256989,-0.009406082,2.5466385,1.4291556,1.1227858,0.29407603,1.0503325,-0.27105215,2.0595198,-0.86346465,0.026449144,2.1275773,0.06524664,0.38346404,2.12495,-0.7968811,0.11457307,-2.1292858,0.813619,-0.109889865,0.66217387,0.485491,-0.38444927,1.2241737,1.0440451,0.76174486,-0.45563433,1.1645086,0.43083683,-0.5941509,-1.3879343,0.7908102,1.1311129,-1.101202,-0.32252046,1.794368,-0.88377357,1.3727347,-0.48722804,-1.7582227,0.8587198,1.4894636
NALM-1,-2.9063516,0.6683663,-2.1735556,0.5846957,-1.6806417,-0.40805256,1.2365572,1.8246291,1.6066236,1.592456,1.5603477,-0.04932645,0.93683505,0.7266978,0.45722687,1.5192122,-0.16674425,1.1678991,0.050789706,-0.7915496,-1.0507822,0.6691444,-0.08285872,-1.8426474,0.039304562,1.2596959,-1.2888582,-0.45086765,0.20767128,0.039799802,-0.15157422,1.486603,0.51309013,0.45010737,0.77138865,-0.7560352,-0.24193092,-0.792254,0.7926851,-0.06100202,0.7188243,-1.9720253,-0.008354776,-0.2839107,0.7196866,-0.47757336,0.7602062,-0.23539487,1.88811
COR-L47,1.6554055,-0.8382243,0.15806374,0.24677041,-1.2652142,0.058802865,-0.87670344,-3.0809574,0.24698032,1.2696296,0.7517784,-1.3912476,0.60737133,0.6660546,3.5921283,-1.259091,-2.0722773,-0.54040265,0.39090386,0.78590876,0.7586793,0.96479774,0.2310387,-1.1055325,1.9217666,0.741029,-2.1672475,0.47192463,-0.16827315,0.7578011,-1.0473038,2.6010206,-1.6367958,-1.2579869,0.25704584,-0.37364802,-0.7266277,0.021169854,0.70956564,-0.4389551,0.55191255,-0.0709001,-0.6375296,-3.8499968,0.35666358,1.601605,0.8635848,0.19547683,-1.6969304
HDLM-2,-1.5576832,-1.6790746,-0.10867432,-0.14276981,0.5142907,-0.074965,-1.3563775,-1.650414,1.2154658,2.472404,1.1972071,0.21965314,-0.6983994,0.1599806,0.1750679,-0.53448206,-1.4486334,-0.6461791,3.8360894,1.4425023,-0.9052667,-0.74439186,-0.9986677,0.8950369,-1.8257171,2.2938738,0.13837008,-0.67452383,-0.52984905,-0.56807643,-1.2432829,0.5806974,-1.2581236,-1.970891,-0.26939303,-1.0793633,-0.9146053,0.32102785,0.3918902,-2.155751,0.4517982,-0.936783,-0.99457926,-2.8962266,0.03384445,-1.4475116,-0.81159854,4.1949897,-0.020387305
SNU-869,0.031207696,-0.10969264,2.113787,0.41428998,2.8769507,1.8540736,0.40588373,1.1307335,-1.6462262,0.9822242,-0.003178683,0.33894983,-0.5540281,0.79186213,2.2087276,1.2130225,2.356228,0.98897886,2.1756105,-1.2533817,0.46496087,-0.40420106,-1.4075173,-0.79706764,-2.0843742,0.6748311,0.6389461,-2.0083864,0.4838035,1.3979806,0.1292601,0.42870086,1.5643797,0.5355424,-0.8891237,-1.2415872,1.6072177,1.0888216,2.0548747,-0.9083997,1.6457403,-0.6438534,0.051469725,-1.7119039,2.1476274,0.8978016,0.29692686,-0.39664683,-0.15202501
TE-14,-0.051206984,-1.6625739,0.42452604,1.0212253,-1.5208296,-0.0975294,-1.5619667,2.965506,0.6551829,0.14791767,-1.2892333,-0.36950332,0.7167969,0.3218473,1.5620518,-2.0724568,-1.4623245,0.15362683,-1.7377629,-0.819645,-1.4671193,0.60940623,0.265494,0.39461958,0.14174365,-1.2679694,0.20084313,1.4536556,-0.21152681,0.9573756,-0.5219347,-0.33173254,0.6951876,1.1082433,1.9562515,-1.0442321,-0.53283703,-1.9327552,0.75248224,-0.9888162,-1.4741173,0.8479961,1.5485799,-1.0717317,-0.6147917,1.7080424,0.59359384,-0.76807296,-1.9969057
Panc 10.05,0.5527384,0.108597934,1.6441749,-0.8330374,2.657207,0.29818895,-1.4675467,-0.27958405,0.86306226,0.87021625,-1.6668118,0.9525565,0.5319587,-0.020995919,-1.0761287,1.1767642,1.8993784,-1.9327661,-0.5118642,0.89391005,-1.379373,-0.6598316,0.66342837,1.2949016,-0.10584776,0.023585886,-0.22213784,0.08431152,0.88730013,0.5294083,-0.22721878,0.11741996,-0.56487125,0.38524392,-0.21339145,2.013983,-1.7776575,0.8229284,0.49909556,0.24571098,-0.89662194,-0.39760765,0.33355126,0.74181026,1.7436676,1.3489181,-0.94323534,-0.015022577,1.0892913
EN,0.5914585,0.37160316,-1.4395124,-0.40945572,0.6806716,-0.23261918,0.48071098,-0.8165337,-0.56886196,-0.20215482,1.1221892,0.82560694,-2.3291986,1.9290171,1.2622595,1.7353647,-0.36284217,-1.8099545,-1.1052889,-1.2638394,-1.2745714,-0.50800925,0.30872563,-0.51176727,0.6260228,-1.1160285,1.0976111,1.5655596,-0.4049387,-1.7544084,-0.15080348,0.73529273,-0.060567446,-0.56993246,1.7063513,0.19821927,0.6122953,-0.10737821,-1.0655383,1.8655466,-1.0130574,1.1917518,-2.3675945,0.51857,-0.8832413,0.36627194,-0.17989402,0.49245048,-0.9708022
SNU-182,2.3290713,-0.0523581,-1.6289012,-0.12736438,-0.5261456,-0.24035953,2.1248317,-0.75179124,-3.332183,0.32142174,1.1171823,-0.7004283,1.0005358,0.72463536,-2.0446537,0.8148857,-2.0684896,0.97195625,-0.5232896,-0.9327097,1.1542451,0.39574522,1.1306803,1.2416542,1.7604713,-2.358278,3.2255032,0.36514777,-0.9506801,0.67901206,0.5673598,-0.12684162,-0.8483956,0.080557406,0.12564564,0.15027949,1.5449549,0.24450251,-1.2854055,0.6151498,0.7328286,0.2999735,-0.43288547,0.29395464,-1.046403,-0.61740816,0.6153577,-1.9343534,0.8489796
MEC-2,-1.9628547,-0.15016459,0.9862227,-1.3658257,1.6806378,0.19309379,-0.27055147,0.76837444,1.9885988,2.8858285,1.2630564,0.3788622,1.195446,-0.36575702,-0.35753393,0.53110707,0.7353601,0.24673112,1.160332,0.81904083,-0.17428917,-0.59129465,-0.8588243,0.5165084,-1.5634828,2.9509282,-0.17555445,-0.2286187,-1.4480622,-2.2925706,0.007238418,1.4706593,0.67176884,-0.009786627,-0.9788175,2.9016109,0.20821059,-0.400667,-1.3358343,-0.48245502,1.7218845,-2.8285475,-2.0798554,1.1695485,1.2452339,-0.06371792,1.1198053,0.87219065,1.3532319
COV504,-0.9500546,-3.3639817,0.9826531,0.058738507,-0.7193898,0.6228023,-0.94228023,1.208583,-1.0807502,1.36971,-0.24213651,0.35098532,0.19643733,-1.1672761,-1.1926777,-0.34108403,0.9453325,-0.15934105,1.9367248,-0.20841844,1.6578416,-0.85998607,0.56888115,0.052437797,1.8610426,-1.347559,0.5518713,-0.5201216,-0.46203908,-0.120860174,1.7156426,-0.039224,-0.18270364,-1.5526829,-0.48248106,-0.73265916,1.2484435,0.60510904,-0.36016417,-0.43664142,-1.8677477,1.3670223,1.1660503,-1.2022749,0.6887969,-0.08874226,-1.0418056,-2.6147847,1.9294244
23132/87,0.9074383,2.265884,-0.16158655,-0.5373155,0.94643235,-0.8631937,-0.14811441,1.50169,-1.3974994,-1.2122718,-0.113336325,1.1606613,1.0007018,-0.39799875,2.8502548,-0.8371051,0.15109535,-1.1598377,-1.650328,0.25376755,-1.0084466,1.3128523,-0.6145829,-0.733589,0.6148824,1.3379171,-0.7542865,0.604356,0.8694143,2.5521638,-0.38050187,-0.42007446,0.62600726,1.0004442,-1.0971766,0.0035240531,-1.1978571,0.6326708,1.6000174,-0.3821505,-0.48080918,0.66013956,1.8289876,-0.41488117,1.3794475,1.9811008,-1.9152807,0.8764234,-3.5935667
786-O,0.24164388,0.5375849,-2.0653517,-1.0523386,-1.0075982,0.8053431,-0.32130373,-0.03136041,0.828423,-0.47373363,-1.411669,2.2106774,-1.5083449,-1.8209366,-1.4826295,0.7296855,1.2331613,0.19589278,0.110719785,-0.467962,0.47799975,0.8096372,-1.581075,0.39956155,-0.8005519,0.8400125,0.97953194,-0.33312896,-0.6208988,-0.3193818,-0.533343,0.10017764,-1.0658734,-1.424621,-0.58672076,-0.9373854,-0.21779318,1.7227312,-0.9500788,1.0245461,-1.7719362,-0.7736847,-1.2166842,-1.0494527,0.15097974,-0.36124307,0.61170477,-0.34300363,1.224381
BICR 16,1.5883088,-1.2286927,0.16658483,0.123847,-1.7323866,-0.59059674,1.1849205,1.0035121,1.9633048,0.670781,-0.4609423,-0.2812973,-0.3006408,-0.32638565,0.06451748,-2.059453,-0.744299,0.53855044,0.05143524,0.14869146,-0.9635771,-0.73285556,0.33171466,2.3150575,1.5360591,-1.2195879,2.0669506,-0.4818876,-1.8732623,-0.040402543,-0.4044684,-2.6376579,-1.4765295,-0.49650568,1.8072633,0.51018393,0.18890445,-0.37483025,-0.9231132,-0.68099284,0.67175126,0.60576934,1.616149,-1.1688685,-1.3731915,0.6410068,0.9641909,0.9499246,-2.0657132
HEY A8,0.5568966,0.9786638,0.66142094,0.26109335,0.30068183,-0.5202223,-0.6922457,-0.23646352,0.34720364,1.88624,-0.3179427,0.2841004,-0.977419,-0.8619863,-1.7782876,0.01938658,1.1594563,-0.6757641,0.13156243,-0.47673398,-0.5354746,0.9399516,0.5483844,-1.0878949,1.655493,-0.22497231,1.0180762,0.32806537,0.47809845,-0.8118825,1.2570057,-0.51353073,-1.0443225,-0.30386284,-0.88113666,-0.3704183,-0.6376676,-1.3885764,-1.1704236,0.9109248,-0.78761387,0.6475398,-0.7177833,0.60624516,2.9338672,1.0275348,-1.0130359,0.0030001476,3.1585505
KALS-1,0.6538567,-2.3981998,-1.2745044,-0.2403519,-0.03077741,-0.02216487,1.40928,-1.3053412,-0.9326056,-0.22023782,-0.9079839,-0.14206061,0.55128497,0.12920591,-2.2886398,1.4042994,-0.5287652,0.23473176,-0.8136922,-0.93623465,0.84524184,-0.9114995,-1.1181214,1.3422999,-0.27115074,0.08339681,-0.6682894,0.9822969,0.2871024,1.0711144,0.8147789,2.2278347,-0.9006904,-0.34018752,-0.28305417,-0.88177234,0.26539275,1.1542485,-0.21408676,0.4201334,-0.80373377,-0.32764283,-0.8451158,-0.46083558,-0.70523745,-2.33232,0.23667029,-2.5263112,2.2527614
MOG-G-UVW,1.2204894,-0.38389084,-0.30893803,0.79285336,0.7777602,-0.83387667,1.6173702,-0.33912864,1.3415511,-0.081366226,0.6520024,-0.27737173,-1.7539091,0.8913784,-1.3103306,0.7284397,0.1971885,0.7041132,-0.6013896,-0.772914,0.29376072,0.11511151,-0.53536063,0.06138454,-1.218385,0.84062564,0.31108275,0.6186712,-0.10932541,0.50750196,1.5352224,0.43329057,-0.09803044,0.38947925,0.33622655,-0.61918503,1.183747,0.055788714,-1.0557512,-1.1427782,-0.6184524,0.43637887,-1.8006158,0.52858585,0.07771031,-1.4615226,-0.52083176,-0.23656012,2.010366
OVCAR-8,0.7042703,-0.5505467,-2.0320284,0.15052208,-0.8798523,-0.63662434,-0.8880557,-0.895689,-1.2774549,0.8854149,-1.1475748,0.60132515,0.4800673,2.01775,-1.3813818,-0.96706426,-0.19100799,-1.2053133,-0.47292525,0.1424083,-1.5948656,0.38362923,-0.021067,-1.7929453,2.818078,0.27336267,-0.34429798,-0.63710093,0.61029506,-0.46453255,-0.18427905,-0.4098029,-3.3073306,0.3652757,0.6764296,-1.0921569,-2.061047,-0.5706165,-2.0725975,1.3077422,-1.770992,-0.7719545,-0.3228215,-0.6777886,1.5294936,-0.1914219,0.30220625,0.6896557,0.32350743
LN-464,-0.6759216,-0.4063129,0.87148434,-1.2399148,-0.074806556,0.017356647,0.613539,-1.1124027,0.50846195,0.05060001,-1.0400199,-1.7776548,-4.201732,-0.5230165,0.918621,-1.5154209,0.30829155,-0.56417173,1.5209115,-0.49258232,-0.13434887,-0.28060588,-0.32412946,-2.0272703,-0.8129636,0.710248,-1.4284054,-0.5873099,-0.048584286,-1.8983707,-0.019094583,-0.3469176,-0.5291419,-0.012844019,0.82170475,-1.662967,0.7269946,-0.92495614,-0.43575448,0.5308767,-0.3565201,-0.2721197,-0.77434987,-0.562918,-0.7234608,2.0013597,0.8581084,1.8002287,0.38003647
SNU-668,-2.8354568,1.6501981,-2.142923,-1.2983594,1.9502525,-1.4167199,2.1103745,-1.0262916,-0.75826913,-2.6090238,-0.99726546,0.49654353,1.4674706,-3.246955,0.22543459,0.22872454,-1.4812884,-1.8726476,-1.9841839,2.8842735,-2.1785967,-0.021872226,2.2577453,0.02049363,0.33120126,-1.7634252,0.6878504,-0.869527,1.0092769,0.30441117,-0.18488376,0.89003074,-0.76036775,0.01839167,1.9132179,0.3077229,-1.2768188,0.5864288,1.2144684,1.3244513,0.04972431,1.98835,1.928298,0.40138724,-2.0167642,1.0299748,-2.8512268,-0.28068322,0.026459597
GMS-10,0.816712,-2.293378,-0.5609111,-0.18314205,-0.43049687,-0.8320952,1.1190611,-0.12818885,-0.18082449,0.6325053,-0.34591198,-0.38404483,-0.13762262,-0.15641962,-2.322926,1.556756,-0.91951495,1.0388546,-0.017155811,-0.48423043,0.3882176,0.29878354,-1.0368534,0.18708901,0.10525594,-0.4516704,-0.08858258,-0.031951968,0.034208454,0.96559685,2.1071646,1.3840599,-2.0148764,0.20211011,1.1241382,1.1519849,-0.10784349,1.4163989,-1.6746153,-0.40765637,-1.1067741,-0.147525,-0.37610418,0.00038962066,-0.03512879,-0.29331464,-0.584523,-1.5407816,2.108859
SUIT-2,-0.31611925,-1.1498344,0.027168613,1.2206492,0.7462757,1.1110773,-0.9506789,1.5886955,-2.0476103,-0.42730576,-0.7686275,2.1517558,1.2263104,0.6391776,0.2663721,-0.93700236,0.008273998,-0.18820989,-1.6553171,0.47270215,1.6836542,-0.53402495,-0.49498662,-0.5747746,-0.88259095,0.31002113,1.5798469,-0.36143148,0.8377948,-0.13137028,-0.86084884,0.4740989,0.5347762,0.11958552,-1.4887881,-3.338713,2.314921,-1.637403,0.15290181,0.07202194,0.11571313,0.94766647,0.053260766,-1.3386066,1.408958,-0.4855283,1.156658,-0.19634613,-0.11858491
PrEC LH,0.43520895,-0.19200625,0.4747836,2.1933756,-1.322666,-0.75998694,2.5475438,1.433645,1.0512568,2.2401767,-0.5663201,-1.3284209,-1.1865329,-1.1916891,1.7993046,-1.1047708,1.7776046,0.76628,2.874118,-1.8077705,-2.7418168,0.7475268,-1.228346,-2.6647928,1.3925482,-1.677691,1.2714568,-0.7423728,2.4892397,0.58259153,-0.5001065,1.0436214,-2.201891,-1.9219934,1.404812,-1.4723032,-0.25325644,0.02027672,-1.4670634,0.06716791,1.2650522,-0.6954957,-0.3719316,-1.6407781,1.1153978,2.494746,-0.2420251,-0.54232,-0.44599545
T3M-10,1.3414226,-0.38483542,1.8585732,-2.3021896,0.45385033,-0.65812147,1.397663,-0.3116104,1.8474908,0.4094644,-1.239422,0.7557223,0.24459004,-1.4519576,0.22798757,1.869626,0.63550097,-2.056017,1.8549749,0.97846323,0.1580824,1.7387342,1.0717459,1.6640706,-0.5002006,-0.13511938,1.2362579,-0.8647537,-0.86801195,0.11056355,0.46287343,-0.5396084,-1.5636427,-1.3287362,1.0071757,3.09509,-0.8753315,0.57192266,0.5340404,-0.57529205,0.66075665,1.0234619,0.7916662,1.4846162,1.9479448,1.6061747,-0.55585843,-0.15492612,0.9562046
NCI-H1341,0.44233137,-2.4148693,-0.13148083,1.1438028,-1.9700319,-1.4578112,0.45837072,-0.0350415,1.2177621,0.33311942,-1.0750194,-1.1787162,0.5416461,0.05705923,2.35275,0.7825996,-0.3169775,-0.53667015,-1.6924685,-0.20236892,0.75880325,-0.47340128,2.6401532,0.73861843,0.4089255,-1.5634074,0.978777,1.6755542,-0.39836374,-1.3200911,1.2523612,1.6056539,0.46940106,-1.3724754,1.213349,-1.3308722,0.28864875,-2.2507253,0.449633,1.2191303,2.229286,2.384648,-0.48825854,0.14969109,-2.4310508,0.5655694,-0.5127522,-1.9407381,0.41227803
HT-1080,0.23980819,0.19048998,-1.3561059,-0.0009773299,-0.656007,-1.2216552,0.3301455,-0.8536036,1.6156961,-0.148787,-0.1513069,-0.7547151,-0.7656613,-0.3727843,-1.1995832,0.53270817,2.111418,-0.032033045,-0.79017365,-0.63311267,-1.5021963,0.36386922,0.5837134,0.06475931,-0.19781962,0.75257754,1.1946462,1.3501137,1.345977,-0.82855624,1.3492683,1.0550976,-0.51037836,-1.1192353,-0.4578593,-1.0602379,-0.6276099,0.6104417,-1.4233359,0.883235,-0.2834861,0.00056839176,-2.0339842,-0.38480234,0.7065861,0.42501253,-0.62693596,-1.8792281,2.7466874
U-178MG,0.46416673,-1.0855494,-0.3540283,0.07250281,0.17880179,-2.0425396,2.2408714,-0.1309788,1.8855345,-0.69871515,-0.40131277,-0.51035863,-1.097693,0.10017675,0.48091286,-0.63383996,0.092936024,0.865155,-0.30863217,-0.85041803,-1.1771197,-0.45526445,-1.2423147,-0.7612913,-0.6905684,1.140069,-0.22854461,-1.4360387,0.10798375,0.20925619,0.3963956,0.96411055,-1.641514,-0.11660101,1.7431825,-1.5871593,-0.2434397,-0.10726459,-2.72162,-1.979294,-0.3064237,0.7885289,-1.7740592,-0.1207087,-1.4614924,-1.0414195,-1.5116372,0.94786817,1.4942601
NCI-H2170,0.49699602,1.2087437,0.885138,-1.1629319,0.3376175,1.7994033,-1.10019,1.213919,-1.1352661,-1.6475362,0.6693971,0.31646496,1.211338,2.0992744,-0.538525,-0.3652502,-1.0189036,-0.5215772,-0.45803478,-0.24417838,1.0365652,1.4538147,0.1310752,1.7519197,-0.8572187,0.5490861,-0.69576097,0.42049652,-0.43443894,1.7098317,-1.4149245,-1.5597659,2.4960947,1.3854256,0.6001113,1.4671286,0.19926956,-0.27736008,-0.4127257,-0.590683,-0.8907585,-0.6429255,0.89224994,1.3973455,1.6457483,0.40728426,0.30464503,-0.2929745,-2.6923583
LoVo,-0.069742866,-0.54610455,-0.35272676,-0.048344627,0.09261232,-1.9920161,-0.7303787,2.31244,-1.7480376,-0.12596631,-0.8371628,0.46158546,0.5783289,0.8956347,2.1297421,0.6175962,0.43859595,-0.9671998,-2.0790665,-0.8147875,1.194782,-0.56156194,-0.267627,-0.097998925,-0.15612102,0.4982773,0.86042345,1.8765438,0.97626096,0.8729031,-0.12058978,0.81911117,0.12807633,-1.0250986,-1.5386472,-0.79616946,-0.09236114,-0.55129933,1.4029007,0.2850184,-1.1266946,0.28678533,-0.7376127,0.13791369,1.7464212,1.7835737,-1.1956301,-0.04639908,-0.28301725
SNU-478,1.2217388,0.5445156,0.11209437,-0.012682408,-0.4724162,0.5105652,0.57692194,2.1543736,0.37875623,-0.32084373,-1.099404,0.03683463,1.0798101,-0.38729438,-0.8437285,0.549391,-1.1237768,-0.58853126,-0.10092876,-0.5928108,1.4589854,1.9942447,-0.4073885,3.313305,-1.580197,0.011347275,2.009918,0.22211823,-0.19200346,2.408362,-1.668556,-0.5582031,0.8679077,-1.3370552,0.52212566,0.844439,-0.7099233,-0.5119421,-0.20357342,-0.95897716,1.1004306,0.27302262,-0.10400235,0.11657367,0.84811723,1.3752105,0.34798154,0.090533376,-0.9492466
U-138MG,-0.23939456,-1.1015989,0.52123904,0.64787155,0.80599517,-1.274536,0.66621035,-0.5013347,1.6315962,-1.8912061,0.653538,0.9126311,-1.8484532,0.2710428,-0.11480437,0.41151798,1.0964066,1.0680963,-2.205405,-0.74436593,-0.82926816,-0.5213721,-0.42942202,-1.1827488,-1.6462756,0.45195487,-1.4472377,-0.39414567,-0.28649992,-0.2576247,2.295736,0.14150393,0.60319144,0.5669032,-0.86804014,-0.09299819,-1.6884922,0.3458977,-1.2135336,-2.10492,-1.2655945,3.069686,-1.8295444,0.04604527,-0.109906435,-1.8740969,-1.1951184,0.9903455,1.4502583
U2OS,1.6659527,-0.3216707,-1.8147899,1.55638,0.51034975,-0.6915836,1.4433156,-0.059453383,0.22555695,1.113388,0.74527735,-0.39555264,-1.004042,1.6790441,-0.18420456,1.5021676,1.5910358,0.45708257,-0.7604517,-1.7334881,-0.9589431,-1.0084558,0.97270155,0.09318978,2.1042743,-0.73122096,2.591623,0.5815009,-0.86058164,-1.5508122,1.1081074,0.45285147,-0.06836624,0.2598595,0.733025,-0.60311556,1.8250848,1.6309154,-2.0391054,0.44195166,0.21265846,0.6772635,-1.536241,0.26962596,-0.7725723,-1.1959858,0.6401574,-2.262912,1.1065674
DV-90,0.43326876,0.3454031,0.12684736,-1.4419572,-0.6967731,-1.7206364,-0.10751808,1.3732381,-0.66959465,-0.8409032,0.1658877,1.0620424,-0.05938968,1.4400562,3.1484177,1.0767578,0.04076289,-0.7082968,-1.4816852,0.4759643,0.27505687,0.3450316,-0.83322066,1.6784043,-0.86068505,-0.78501076,2.1901705,1.6725328,0.46781477,-0.099980555,1.0481784,-1.1975334,-0.0118351,-1.070671,-1.0733237,0.7510355,0.6357183,-0.4329308,0.8551494,-0.1462621,-0.50586396,1.2006401,0.15975024,-0.5300395,0.9282992,1.4047706,-0.39656532,1.210665,-1.9261111
HCC95,0.68317086,-1.5919845,0.81994003,1.7629648,-2.137866,0.9215973,-0.9283786,1.2628125,0.03802038,0.6094658,-0.13825005,-0.5471784,1.1962298,1.246195,0.4084639,-3.2979512,-0.23355012,0.39451638,-1.6108513,-0.27488032,-1.1100188,-0.25581232,0.48841777,-0.09681453,0.79101837,-1.7841204,0.45591572,0.9804881,0.25126368,-0.08109698,-0.500445,-0.43011722,-0.07175329,0.5780369,1.1563934,-1.4797139,0.6592384,-2.9208639,-0.6879288,-0.47932538,0.17323174,-0.49433014,0.6125385,-1.1805869,-0.43039197,1.5375857,1.097631,-0.8106393,-1.2859162
AsPC-1,-0.57906616,1.4006962,0.5729275,-0.0014608875,2.9785624,-0.83849233,-0.21807274,2.7666807,-0.9036418,-0.87849903,-0.5522543,1.1171994,1.1544876,-3.381379,1.3601189,-0.87659043,1.0587082,0.8553257,-0.5448136,0.34629437,1.7526668,-0.6952548,1.4045514,-0.5836574,0.58188426,1.2619073,2.3902295,-0.77762336,-0.6219455,1.6753054,0.19470428,-1.3515654,1.776701,1.3030964,-3.0325534,-1.11479,1.824488,2.1312404,1.8175186,-0.1170794,-0.7370415,1.4558799,2.0237374,-0.07432097,0.3315077,0.7168344,-0.8554541,-1.7878292,-0.5895167
KNS-62,-1.0345623,0.1771321,1.7561669,0.5301655,-0.10350189,0.084385596,0.018569566,1.5365754,2.00214,-0.18920133,-0.40396348,-1.9973446,-0.56143403,-0.7350211,1.4821895,-1.1520132,1.8293343,-0.19531609,0.38137728,-1.3315005,-0.20723185,-0.7040998,0.742242,1.5389622,0.81691515,-0.54674345,1.4742359,0.3343773,0.41545036,0.29366678,-0.28608522,-0.89512396,1.7608801,-1.978279,0.063963406,0.019038599,0.62768275,-1.7377406,-0.32602498,-0.53026897,-0.5629099,0.5298553,0.53560245,-0.6451472,0.12923239,2.711653,-0.32369202,-1.3759174,0.35422447
LN-308,1.6713732,-0.9467247,-1.5227764,-0.7467748,-0.64985025,-0.08735171,1.0273939,0.43352807,-0.5416927,-1.173103,-0.7316191,-1.0093012,-0.35666534,2.2034335,1.2821548,0.75346583,-0.801307,0.45525768,1.3478276,-1.4434645,1.0223875,0.5430726,0.20268682,-1.2545578,0.6611887,2.8276143,0.893325,-1.5510867,-0.42473844,0.30467045,-0.53520805,0.6762887,-1.9915805,0.64974713,2.3176458,-3.3314893,2.6921773,0.0010689646,-1.2408255,-0.7591275,0.42416978,-1.0030931,-0.99919987,0.8989325,-2.025678,-1.1768942,0.66184855,-1.5031537,0.2883381
MOLM-6,-0.87687004,1.1524366,-0.89450765,-1.9686363,-1.3320584,-2.107042,-0.4648922,0.9535085,0.6744637,1.8913661,0.9484616,0.6349362,0.80310607,1.2093159,0.14685756,1.7013248,-1.0948459,1.2554516,2.3698235,-0.21817857,-0.8919844,2.718098,-0.6751096,-0.028551832,-1.8500772,0.43802485,-0.064062335,-0.16153334,0.8058919,-1.1748952,-0.19454187,0.8193765,0.9047721,-0.0469898,1.9350975,-0.035301957,-1.1132644,-0.27407885,0.8596888,0.15184733,-0.008101935,-0.15289032,2.6732967,-0.3581675,1.8334521,-0.49456584,-1.6074145,0.2235802,1.0454379
NCI-H661,1.7074667,-0.7438723,-0.0851488,1.062152,1.6736803,-0.9126942,0.691029,-0.9145366,-1.7270225,0.31175837,0.107531905,1.3646661,-0.25973266,3.2982473,-0.66782534,-0.007306505,-0.97185224,-0.5896127,-2.027996,0.37596026,-0.72799915,-0.5529797,-1.8759205,-0.6941563,1.1852921,-0.16035837,-0.021412073,-0.3587825,0.9073272,-1.5140886,0.8273056,0.7380916,-0.85831106,0.8329189,-0.8214365,0.1898679,0.41586012,-0.8920674,-3.5154014,2.111517,0.99331796,0.10613116,-1.6741884,2.1263757,-0.9954514,-0.6211617,-0.2789123,0.8601831,-0.6267105
BDCM,-1.5891937,-0.24534324,1.2251493,-1.186457,1.4865319,-0.54133415,-0.44433603,0.66553855,2.1315591,1.5581561,2.2917175,-0.28625637,1.357966,-0.4697637,-0.9355238,0.39372346,-0.08721769,-0.5517359,1.683213,1.1681849,0.25213537,-0.15483755,-1.0846759,1.0850209,-1.7995738,3.0567813,0.57191914,0.51976126,-1.0170112,-1.1893911,0.15772578,1.5968184,1.2933741,-0.59148824,-0.7595903,2.3600461,-0.33464336,-1.1749295,-1.0538015,-0.20271914,0.91653866,-1.3259459,-2.2234206,1.7091831,0.92008525,0.3775338,0.46866986,0.5551633,1.4312605
COR-L88,0.6335658,-0.7262375,-0.6825548,0.5290903,-1.5676559,1.4551834,-0.9936794,-2.3685942,0.31840283,0.16426542,1.1966246,-1.1342732,0.43779987,2.3420994,1.3604412,-1.0125114,-1.6786594,-0.6579328,-0.22444946,1.2161367,1.6810085,0.07016342,0.002592272,-0.53237224,0.9949924,1.166278,-3.1137633,0.25377727,0.41002917,2.8280978,-2.6119008,1.4853004,-1.6338586,-0.7048231,0.020049602,-0.93115216,0.14675193,0.8280937,0.90310425,-0.41016552,-1.4145072,-2.1291258,-0.64692396,-3.6468601,0.7752037,0.8471037,1.5217475,-0.077093914,-1.8395692
HPAC,-1.7222655,1.1800474,0.5903838,-0.15964696,2.2202277,1.1130599,-0.057052247,2.2779222,-1.6375365,-1.7058783,-0.9041224,-0.41530553,1.9558208,-1.565408,-0.29540908,-0.23787194,1.3999459,-1.5052828,0.064818405,0.39504713,0.5214552,-0.6961819,1.3226736,-1.4138881,0.6031781,-0.848243,1.0065721,-0.5228063,1.0006757,1.6684339,1.2760189,-1.7204462,2.2538383,1.7291801,-0.60278857,0.70357376,-1.4688817,0.38576442,1.8607506,2.2457676,-0.30494022,1.8511245,1.9980514,-0.31857213,0.48079464,-0.1771234,1.3435003,-1.7805295,-1.4710444
JeKo-1,-0.9282214,1.3701546,-0.6140762,-1.2048445,0.122082904,-0.5247119,-0.005785999,0.27287835,0.8636101,2.5255919,-0.19287588,0.043655716,1.8082349,0.6597693,1.9695323,1.0265704,-0.69065845,0.9124837,-0.33022037,0.23221046,0.7840188,0.5127829,1.7572507,-0.27745965,1.0171492,2.0062623,-0.6789438,-1.1473007,-1.9406668,-1.9462714,-1.0100411,0.93372023,-0.43207148,0.43679124,-0.39607796,0.95200324,2.4514325,-0.8717335,-1.3371742,-1.6820875,1.6871358,-2.6102037,-0.56215036,2.4566114,0.53717804,-0.77611154,1.0546219,-0.3707606,1.1910597
GaMG,0.3745395,-1.1675876,0.88883454,0.81287956,-0.14939927,-0.35583156,-0.77115023,-0.66036433,1.1246394,-0.5276014,-0.8138323,-0.020109892,-0.61554086,-1.6721157,-1.7213864,-1.0930426,0.8226212,-0.41775504,-1.3645152,1.853531,0.36508906,0.995372,-1.7966375,-0.42610493,-1.5343084,-0.095770985,-0.22052708,-1.2364224,0.0012638746,-0.9652231,1.9683149,1.1605786,0.6999146,0.16205193,-0.45117745,-0.30291697,1.2642505,1.0610003,-1.6755924,-0.184176,-0.14566654,0.43708247,-1.553493,0.11416344,0.3955987,0.85205984,-0.17219728,-1.3719572,1.7702992
Mel Ho,-1.0444326,0.5844102,0.5581109,-0.9071688,0.8595085,0.42458528,0.13719785,-0.2703619,-0.001935551,-0.19100145,-0.2660493,-1.5284653,-3.9124358,-0.75165915,-0.090895854,-1.6334034,0.6253852,-1.0902025,0.72516936,-0.2528422,1.4095953,-0.3044456,-0.38530537,-2.0643845,-0.057643794,1.2587575,-2.0601363,0.37273115,-0.23476075,-1.8169403,0.5806458,-1.1397394,0.8102345,0.2821372,-0.20886886,0.053951725,-0.26360005,-0.37396163,-0.29313007,2.022521,-0.14608875,-0.42815697,-1.0984347,0.30752486,-1.0435115,2.6276555,1.4711717,1.9749373,-0.080478
WM115,-1.6370844,-1.1758732,0.9829968,-1.1895235,0.24880272,-0.39272803,0.5481648,-0.0084058205,0.5262867,-0.8925256,-0.19553237,-1.8716232,-2.4248157,-0.32705334,0.15094453,-0.35949025,1.2201611,1.3266557,1.5951415,-1.2101309,-0.03518177,-1.5204614,-0.10493936,-0.88295126,-0.31266004,-0.4319339,-1.1342452,-0.76803046,0.2472919,-1.9320905,1.4866505,-0.2706833,2.4632676,0.0011339262,-2.3229175,-0.9359173,0.45475474,0.32110268,-0.27089253,-0.031473383,-0.5145911,1.5207335,-0.22490944,0.31830686,-2.5683727,-1.0322244,0.35493818,-2.1892896,1.2439206
JH-EsoAd1,1.431741,0.9096959,0.5279673,0.43320346,2.8158305,0.9845237,0.3715529,0.59507143,-0.3517423,0.24005078,-0.8971834,-0.6216664,0.74756503,3.0415547,0.3083714,0.65013295,1.3656404,-0.1877376,2.1037662,0.16077802,-0.9200839,0.24167864,-0.516055,0.018915761,1.1127936,1.3064722,2.1801057,-2.217761,2.1403747,1.4141697,-0.4872523,-0.98182535,-2.6060438,1.065506,1.6711279,-0.73533213,1.2564673,1.0431252,-0.9358282,-0.85906756,0.37670794,-1.0422989,1.1910189,-1.1766818,1.6980155,0.62970537,1.4108565,-0.23195063,0.02478715
SNU-308,0.70378757,-1.0239743,2.3227227,-0.33065367,-0.06390054,1.5478127,-1.7349422,1.148337,0.90975857,0.48877314,-1.4595248,-0.2136015,0.2038291,0.7788129,1.6789867,-1.220029,0.9516496,-0.32679337,-0.4815532,-1.1471021,-1.2980527,-0.42070243,-0.5369988,2.34459,-0.78274804,-0.8898059,1.6111599,-0.07540738,-0.37324288,0.39034048,-0.3445967,-0.8041162,1.0728581,0.43034893,0.69783443,-0.33478144,0.22908229,-1.5059701,-0.8031029,-0.89283496,-0.553366,1.013162,1.2125567,-2.414199,1.0779727,1.441287,1.0625463,-0.011137588,-1.6190155
SK-HEP-1,0.730497,-0.45251742,0.44856244,1.1759708,1.4388263,-1.1883146,-0.67331713,-1.8647841,-0.88691854,0.7211202,-2.4757824,0.04711526,1.703552,0.0055609643,-1.5460106,-2.391977,1.2263482,-0.06062212,-1.0215645,2.1238897,-1.4821252,0.43260926,0.008340141,-1.3568864,0.46072245,0.11357025,-0.38169935,-1.1247504,0.969896,-0.8843068,0.7852068,0.3448961,-1.2204725,0.49417505,-1.4752163,-1.2748435,-1.1633912,-1.0431318,-1.4955212,0.45657003,0.45378235,-0.9684542,-0.7141993,0.37457424,1.6133851,-0.0040470893,-0.11341421,-0.564979,2.38565
LN-382,-0.92860764,-2.0474799,0.917366,-0.26744205,0.518805,-1.6771348,2.0077975,1.2657132,1.1961986,-1.7927397,0.63839453,-0.6003821,-0.4784905,0.24939369,1.6622328,0.2575086,-1.1388288,1.2092513,1.095512,-0.074480996,0.8493121,-0.7970862,-0.6006227,-1.2894334,-0.7764224,1.4307486,0.4347387,-2.8960524,-0.5798605,0.90415615,0.020823874,0.7836633,-0.96173155,0.0410299,2.3919768,-1.7251664,2.133566,-0.47320738,-0.9407404,-2.7446141,-0.791822,1.8640988,-0.025086625,0.46028394,-1.2660803,-0.9900887,-1.2937124,-0.01964681,1.3524376
TALL-1 [Human adult T-ALL],-2.8066645,2.1063156,-2.0444536,1.0173616,0.91998374,0.7861875,0.09893067,0.21217829,-1.2342563,1.040876,1.7754825,-0.99163216,0.14633393,-0.0867859,-0.9378135,2.3310893,-0.7098771,-0.5974591,-1.1075153,1.2225688,-0.2770984,-0.21199962,-0.57931983,-1.2975544,1.3399804,0.059136648,0.079091385,0.11627441,-1.2580122,-1.3227127,0.9555075,-0.65887445,2.1190703,-0.3575206,2.5379412,2.1966054,0.68433636,-0.40241566,0.07926082,-0.110536605,-0.18397872,0.34394044,0.007957354,-1.5397432,1.2814496,-0.27614635,0.5709259,2.1761024,0.5351407
MUTZ-5,-3.1079888,0.723387,-1.9667367,0.23165068,-1.6742997,-0.18792999,1.5239078,1.8733438,1.4689058,1.5273173,2.1026256,-0.15268765,1.1172833,0.6381826,0.92086244,1.4220331,-0.60090864,1.3216263,0.2955652,-0.3701998,-1.2090715,0.19710012,-0.13897042,-2.2541487,0.68071735,1.1323721,-1.0506598,-0.82366407,-0.033492964,0.1710208,0.22196183,0.96986055,-0.20090705,0.89395195,0.714216,0.12456863,-0.061518975,-0.60025746,0.64220154,-0.044626772,0.8831987,-1.9356097,-0.05580599,-0.6748978,0.26270318,-0.50433606,0.984606,-0.018071156,1.1651552
HCC2935,0.5301395,-1.4710027,2.2013128,-0.15906394,0.077344425,2.0255506,-0.49892008,3.3209422,1.218554,-2.0170465,0.6318356,0.16879196,1.4153359,2.3236816,-1.7027128,-0.7319132,0.088136226,1.3730413,2.260835,-0.56136346,-0.3101456,-0.0864907,-1.8326081,0.85692227,-3.6257384,0.7347817,-0.0025128424,0.35963264,1.1760331,2.0254543,-0.78008616,-1.2522621,1.9272021,2.596965,0.717853,2.2385025,-0.05809223,1.6349161,-0.2518819,-1.0518342,-1.0295178,-1.8021464,1.2378123,1.6331927,-0.5754435,-0.7944566,2.1980846,-1.2745017,-3.2001767
REC-1,-0.71976554,1.0066829,0.040754825,-0.25687683,1.4703736,0.2374026,-0.9976489,0.42350805,1.1562316,2.5798287,0.02988723,0.90386087,1.2865889,0.022770733,-0.17595878,0.30773252,0.29449552,0.7207833,-0.59238213,0.3330266,0.25130564,-0.003926932,0.060670678,0.043252498,-0.8024598,2.0391567,-0.326628,-0.069342315,-1.6764292,-2.429138,-0.8865649,1.1351799,0.8038682,0.6893974,-0.32765764,1.7015802,0.79142743,-0.35540277,-1.244307,-0.7161425,1.808755,-2.8232038,-1.8943259,2.0815115,1.0266417,0.06011285,0.6338835,1.0571562,0.9958655
SCLC-21H,0.14847027,1.0335772,0.2785409,0.48413992,-0.2659782,-0.57239884,-1.7000027,-2.7525632,-0.28369945,-0.14657304,1.7557204,-2.1397514,1.6122129,-0.43143365,2.8800209,-0.84099483,-0.55536133,-0.18887274,-0.5151873,1.0222524,-0.07104337,0.1795231,0.3077599,-1.8529058,1.3172204,-0.4744678,-1.8454508,0.53167427,-0.42499703,0.14550382,-1.9209831,2.9147549,0.8464506,-0.79203534,0.043663237,1.2737262,-2.1503625,1.141283,-0.15098974,0.2520423,-0.04518917,0.15257277,-2.0561032,-1.655401,0.65126544,2.19067,-1.0568258,-0.585621,-1.8137066
HCT 116,0.12717307,0.32621866,-0.53752977,-0.366734,1.4339715,0.0632342,0.03671562,-1.2582744,0.5063193,-1.0365493,-0.25590134,0.80396545,-0.62415653,2.6463602,0.89359784,1.2123555,2.0669153,-2.4080415,-0.7297534,0.18880063,-1.3640729,-0.5712626,1.1164552,0.92805696,0.935323,0.51142776,1.0547523,1.6629605,0.9506449,-1.6912239,-1.378284,-0.41544706,0.06616674,-1.4546355,-1.2809838,-0.20066515,-0.07797034,-0.53188074,1.0134557,0.33659968,-1.6653557,0.9467371,-0.26106453,-0.056766197,1.487397,0.27240622,1.3576249,-0.43267384,0.739835
Hs 895.T,0.29325736,0.014067847,1.1363186,-1.1213866,1.315878,-1.4116689,0.7737644,-1.3919327,-1.0465572,-1.8366033,0.7283419,-0.2830749,0.37705672,-0.22956687,-0.112359986,-1.3412225,-0.5638093,1.0405143,0.18166363,-0.7601867,0.21502054,-0.5078275,-0.93550473,-0.68838674,0.5364492,0.39357543,0.7134365,-0.53797776,0.0039705858,0.1785062,1.1611683,-0.64371806,-1.7265334,0.42164767,-1.1719507,0.7095312,-1.695095,-0.98999554,-1.2774496,-0.546269,-1.3457178,1.5762521,-0.632516,0.4724306,0.7245689,-0.69187087,-0.81266296,1.350347,2.0325522
KNS-81-FD,1.3807129,-2.674207,0.12676612,-0.07218105,-0.89499366,-0.77769125,-0.025936905,-0.63760984,-1.8306618,0.0986126,0.8143281,0.12636346,1.5039445,0.9868688,-0.82130986,-0.21749921,0.5482651,1.8444936,-0.94187295,-1.1835452,-0.28325045,-0.9683162,-1.3676462,0.4934985,0.5325396,-0.67430085,-0.6483325,0.53653944,-0.15762833,0.7505743,2.081456,2.191496,-1.2830389,0.98255354,-0.44500795,-0.5766041,-0.310358,0.68437696,-1.1807929,-0.90311956,-0.50151414,-0.3467471,-0.82524973,-0.047507986,-1.275301,-1.1284597,-2.2278943,-2.3965297,2.1923115
NCI-H2196,0.8405818,-2.3234515,0.122256875,0.51645917,-0.73516375,1.0854267,1.3648249,-3.0677974,0.6880202,-0.7696711,1.5674185,-0.19097742,0.22586967,1.5076859,2.3647358,1.6555254,-1.1457329,0.49417633,0.111668415,0.8102168,1.3299487,-0.2780127,-0.6080173,0.18919402,-1.3484379,0.2287773,-2.3309875,-0.32029477,-0.47426897,1.4290222,-1.5092614,3.5579488,-0.54112923,-0.38573748,0.6408847,0.89614683,1.1617801,2.2047415,1.5605153,-0.94052744,0.58209187,-0.91809016,-0.15991046,-1.8184566,-0.22615533,0.68372947,0.8656331,-0.8505971,-1.3840107
SK-N-BE(2),-0.57898813,1.3604829,0.8203852,0.7601148,1.3466223,0.30721864,-1.877946,-1.4864967,-0.9315943,-1.2985567,0.92161804,-1.0802202,2.116591,-0.25616497,0.99639684,-0.34711653,-0.9154596,-0.3181197,1.1042666,0.29775742,2.152375,-0.27305636,0.96905935,-0.15212193,1.0898671,-0.2617772,0.7334639,-1.0597632,-1.5410726,-0.16230641,-1.2065057,1.2914393,3.0805626,-1.0919795,-0.9707658,-0.02311581,-1.502462,-2.3672497,0.008234518,1.4519976,-0.4379389,3.0738773,-0.8605954,-0.33986333,-1.3346455,-1.5134296,-0.54369974,-1.0418302,1.3277347
MOLP-8,-2.1630652,2.3769755,0.28864712,-0.0061513577,1.2024488,0.45604473,0.28658274,0.24777642,-1.63828,-0.21316123,3.8444657,-0.5746213,1.1378288,-1.2867999,-1.3593295,-2.373148,-0.21960182,-0.2960304,0.07028098,0.56001085,-2.2447054,-1.8410246,1.3398099,-2.2757518,1.9625959,1.2438203,-1.4353355,2.417728,0.80473053,-0.445851,0.38834545,-0.84674656,1.402541,1.4492197,-0.91644883,-0.35615695,-0.66124296,-2.1291294,0.09829163,0.8429998,1.8061192,-0.8010991,-0.6376027,1.6668137,-0.83131045,-1.5924213,-1.1588427,1.630815,-2.2113426
ES-2,-0.22303012,0.33002687,1.0464948,0.86489177,-0.48095557,-0.561516,-1.2093962,-1.7521818,1.0114688,0.7788258,0.13961235,-1.2292356,-1.6125174,-0.5887962,-1.9565407,-1.047922,1.9683543,0.078844585,-0.4691547,0.8022756,0.04000755,-0.007090061,0.9557922,-0.7554512,0.42951962,0.24979897,0.03214518,0.12036066,0.52657545,-0.86605716,1.366684,-0.61611784,-0.52084166,-1.026062,-1.9850538,-0.8022262,0.64998955,-1.1473556,-1.4083622,0.08154072,-0.60305,-0.25138515,-1.7175812,0.03350256,2.637982,1.1418555,-0.68181795,-0.2867796,3.3259046
SNU-1196,-0.16865142,0.077816874,-1.1677508,-0.41507018,2.179609,0.22487159,0.7947867,1.0988631,0.08597407,-0.016054906,-0.779111,0.6681089,-0.27057433,2.362461,0.940818,1.1328381,2.1366558,-1.3122824,-0.72856885,0.06877137,0.12652194,-1.1633863,1.6944458,0.36883488,0.17489503,1.594152,1.6522555,-1.7497464,1.0847394,0.7710651,-0.6757228,-1.4000517,-0.018941652,-0.575897,-0.031828746,-1.5215877,1.6200061,1.652239,-0.2548379,0.43573862,0.07226886,-0.22365884,-0.32600075,-2.003015,1.5354036,0.14776312,1.6133279,-1.2761123,-0.90009207
BICR 22,1.3811154,-1.4852793,1.4166627,1.2680361,-1.0781802,1.2597696,-0.7019546,2.5557017,2.1899602,1.3796974,-0.85491914,0.6223747,-0.4200977,-1.4912372,1.1265388,-2.3817708,-0.07753408,1.6032586,1.2251723,-1.0249045,-2.093551,0.988445,-0.38957572,1.7784505,-0.30482158,-0.8103125,1.3225296,-0.544669,-1.562551,1.306366,0.24743927,-2.4028132,-1.3424556,1.7272553,2.3741024,-0.45637253,-0.5812834,0.6553543,0.6314054,-1.7107242,1.356741,0.14809483,2.320103,-2.3250096,-0.6171984,0.762279,2.2346926,0.91217315,-2.9912686
HEC-265,1.4580107,0.22850133,-1.4338697,0.53736633,1.3202871,0.4261546,0.7148459,0.6427981,-0.60709584,0.71315205,-0.9087982,0.65386504,-0.8634482,0.8725125,-0.21970291,1.058017,3.4252725,-3.167501,0.6909351,-1.276939,-0.3884424,0.3411611,-1.1152331,0.24430636,1.4516612,1.5030732,0.27589554,1.0968674,0.3123921,1.0336723,0.7612528,0.04580252,-0.9241905,-2.3804245,0.06645105,0.43226647,-1.8066949,0.42331925,0.9531935,1.6629525,-0.79561925,-1.7472436,-1.665263,-0.17041297,0.39534852,1.1039128,0.21248049,-0.2612153,1.1355346
A2058,-1.9829601,-0.025787126,-0.5014247,-1.6347393,0.38546783,0.6051252,0.59322923,-0.35927698,-0.9781182,-0.97232777,-1.287201,-0.8710572,-2.692053,-0.4770214,-0.25233373,0.34991473,1.2683434,0.036421116,0.0067484416,-1.657794,-0.20437825,0.3245349,0.44811445,-0.6085532,-0.6660615,-0.018041175,-0.82302094,0.74362105,0.3822545,-1.9902258,0.023714684,0.42582163,2.4232824,-1.0877923,-1.0914345,-1.6258576,-0.3146282,-1.2826298,-0.3293497,1.5746047,-1.0880727,0.6204838,-0.8741009,-0.261409,-0.8272455,1.5956924,1.1125395,-1.5759927,2.2818117
Mono-Mac-6,-0.52337337,0.42297482,-0.37545213,-0.29541788,-0.5420002,-2.302137,-0.6300525,-0.02184895,2.1758916,1.9739412,-0.7189785,1.0096945,-0.64155185,-0.23769528,-0.63169754,-0.055509422,-2.3943589,0.9175282,-0.47393036,0.34936464,-0.7188252,2.003346,1.4597764,-0.35428894,-3.2114906,0.22500323,-1.1809458,-0.7110812,0.22984481,-0.92473906,0.07720004,1.6384281,1.7884529,0.5438386,1.4747018,-0.054033276,-0.5381251,-1.0000302,-0.6293972,0.7066979,-0.21981652,0.37408257,1.8781297,-0.33401477,0.34622037,-0.20908777,-0.84441566,1.1679925,0.67177016
HTK-,-0.80803096,0.83580697,-1.2626039,0.733063,-0.06389676,-1.5853956,1.0439001,-0.10593641,1.3619796,-0.38931808,0.42959216,-1.7945473,-1.778825,0.26864326,-0.43961143,-0.21742013,0.6917286,-0.0064651854,-2.1002843,-1.0024801,-0.66712236,0.30680916,2.0111792,-1.4434131,1.4518448,0.53883994,1.111658,0.100818634,1.6187397,-1.8791993,-0.23326935,-0.28939065,1.0519515,-1.7957945,-0.7340194,-1.4447503,0.18523373,-0.6383783,-2.3258035,0.09246111,0.05264745,1.7215462,-1.8645661,-0.82763743,1.9089292,2.0496566,0.0043586586,-1.1224144,1.7291929
SH-10-TC,-0.9701318,1.062175,-2.0552301,-0.57382876,1.890303,-1.0056413,0.70831597,-0.9794826,0.94570965,-1.0081007,-0.94324446,0.38117954,-1.7699248,-1.8877352,-0.9655209,0.9034197,0.77657276,-1.0726982,-1.6507657,1.5000126,0.22109139,-0.8993463,1.2861848,-0.35437024,0.79478025,0.808432,1.6035582,-0.5996376,0.5646399,-0.46445465,0.94991153,0.00082793087,-1.4120765,-0.8195934,0.0956679,-1.0110233,1.3258996,1.6048607,0.103576444,1.7832274,-1.302977,1.0352197,-0.084673196,-1.0102504,-0.52434534,0.86847,-0.86563456,-0.5223988,2.1463916
Hs 940.T,-0.71796954,-0.4763956,-0.7364527,-0.8257215,-0.19371544,-1.8639196,2.2203083,0.2765622,-0.8366099,-1.7832539,0.782588,0.004678011,-1.0104748,-0.28862727,0.8568038,-0.72010964,-1.3643954,1.9208792,0.99656177,-2.5718634,1.2003968,-0.8812327,-0.6870881,-1.2211238,1.9478763,-0.39969957,0.33362764,-1.2978632,0.6837138,0.060546163,0.5311011,-1.9685705,-2.708635,-0.5779217,-1.0872054,-0.39677006,-1.9090863,0.42427677,-1.185978,0.049661905,-0.4972652,2.532451,0.057596937,-0.13633409,-1.5676352,-1.8686624,0.5917988,1.0362443,0.42423165
CAL-78,-0.13870329,-1.3248588,-0.38569078,-0.020714805,-0.7041596,-1.2793157,1.2178955,-0.5608303,0.826535,-1.4581906,-0.037740983,-1.0109305,-0.08445507,-0.1807352,-1.4050369,-0.3435432,-0.99450666,0.41824424,-0.3709927,-0.075446665,0.2552684,-0.025883164,-0.22853093,-0.46373054,-0.50649214,-0.477486,-0.31894818,0.11542398,0.91462386,0.1931819,1.0036769,-0.13705476,-1.3053527,-0.051227458,0.1882693,-0.010025887,-0.9245912,0.56096816,-1.0206985,-0.94612837,-0.6053294,1.217056,-1.2070049,0.23769869,-0.022698142,-1.443491,-0.04392863,-0.109605774,1.1539747
SALE,1.1004528,0.54929805,0.16546407,0.85187805,-0.8755794,-0.56686485,2.192893,1.0180143,1.816444,2.0215719,-0.39230037,-1.3257673,-1.471165,-0.23639917,2.6998055,-0.9595458,1.0040379,0.20036787,2.5256796,-1.9718543,-3.4651318,0.8571391,-0.050384052,-1.0639172,1.9173925,-0.82786137,1.4324607,-0.66357726,2.0339203,1.2534847,-0.7998679,-0.05896645,-3.445082,-1.06156,2.335986,-1.0027335,-0.8377075,0.3155773,-1.3676075,-0.62808436,1.2154006,-0.6521939,0.35884148,-2.54398,0.33170968,2.4958644,0.04258477,0.69627094,-1.763294
LN-229,0.7763419,-2.2290773,1.1708562,-0.36207733,-1.366023,-0.6671118,0.5236581,-0.6593577,-0.5634804,-0.5124904,-0.5886585,-0.47092742,-0.32383725,0.8296192,0.15340999,-0.6816893,1.231913,0.60489964,0.38275233,-0.43273616,-0.35907403,0.18161991,-0.47736165,0.37357306,-1.7522148,-1.3524038,0.033654764,-0.29171893,0.22566201,-1.2386074,2.1014957,0.93569297,1.9338291,-0.4202442,-1.9323822,-1.9098439,1.5144882,-1.4236165,-0.19257355,0.22193284,0.1803437,0.8882526,-0.4363512,0.41087437,-1.7813857,-1.4216843,0.41557747,-3.430612,1.7770892
NCI-H929,-1.8692806,-0.005486205,0.99073416,-1.7314105,0.060448498,-0.70591605,0.25648528,0.8853158,-0.20864965,0.85242087,3.1995084,-0.2858438,1.9774969,-0.8875754,0.044695735,-0.9280686,0.8949025,-1.4201126,1.2976571,2.4804344,-1.5572352,-1.080336,0.87662405,-1.4788969,1.7262206,3.288185,-1.4154828,-0.40841937,-0.49849787,-0.8870849,1.4410231,-0.3328892,0.10174805,0.42187652,1.2924819,0.8510831,1.1226578,-0.37863672,-1.725332,-0.89785403,1.8189762,-1.1257454,0.33179194,1.7033108,0.6686038,-0.5423484,-2.2759187,0.6894637,-2.7996995
F5,-0.30815884,0.13446684,-0.9190048,1.5693727,2.9294832,-1.547173,1.4102147,-1.9746208,-0.572916,-0.2266332,-0.9462274,0.4518121,-1.3532999,0.9835254,2.8254707,0.14066398,-0.7357583,-0.061463296,-0.72745824,-0.4151352,-0.6378496,-0.15455766,-0.013301805,-0.043406494,2.024835,-0.5651946,1.1332713,-2.1868322,0.03099446,-2.9697366,-0.9271821,0.6476878,-0.61531043,-0.39817268,0.6492575,-0.9960976,1.6000392,0.08095202,-2.4309983,-0.6239618,0.26949376,2.8164046,0.672941,-0.5181852,1.5716609,-0.26903078,0.23339775,1.6595135,0.14554466
Hs 281.T,-0.027843952,0.02913349,-0.5675215,-0.8525579,0.5836769,-1.2293692,2.1492712,-0.64010483,-0.17088655,-2.140131,1.4748529,0.18386285,-0.77015734,0.061414875,-0.725711,-1.1662076,-0.24354176,2.0277586,-0.445633,-2.0759084,-0.57104087,-0.7742672,-0.85255444,-0.93505585,0.32639593,0.25228524,0.12542123,0.12692425,0.8054657,0.24978378,0.32934216,-1.2977209,-2.0858817,-0.206566,-0.7776196,0.110278875,-2.383188,0.39808923,-1.8714412,-1.239718,-1.3469838,1.4228693,-1.5757973,-0.23970708,-0.043759275,-1.5575862,-0.49453828,1.4216629,1.4002413
Hep-G2/C3A,0.9853183,2.073006,0.9901291,-0.38521194,-1.8728296,0.38904557,0.26844215,-1.1680746,-0.2312013,-0.35010448,1.0940487,0.5942229,-2.0896902,-0.9345229,-0.48698902,1.404456,0.25124282,1.362052,0.011089867,-0.22877994,1.7269573,-1.2011718,1.3135182,0.25523186,-2.3954067,-0.24376084,0.96748245,0.4346554,0.10622401,2.496276,0.15411842,0.12791125,-1.7447253,-0.3459543,-2.632853,0.26775283,1.5104265,-1.972979,1.1283258,3.1803133,1.3526448,-1.920939,-0.28655314,2.3940961,0.16926315,1.5234714,-1.5872939,1.4888723,-0.3177047
253J-BV,1.0117712,-0.81279415,-0.11681853,1.3950987,-0.14662199,0.9306101,-0.2814607,-1.0136769,-1.0816274,-0.2268468,-2.3332365,2.807946,0.35747075,-0.93065685,-0.13112223,0.12914704,1.0260924,0.32532096,-2.3470864,0.48513374,-1.10822,1.6610978,-2.6773336,-0.30002162,-1.809757,-0.75124514,-0.33064124,-0.49212527,-0.2609276,-1.7595363,-1.0466784,1.7720575,0.55835,-0.4534034,-0.46914288,-1.6012778,-0.4057263,-0.5643585,0.36166915,0.28631622,1.5779587,0.42449805,-0.8016001,-0.45020133,1.0612359,0.6207017,0.46251303,0.21449001,1.2561964
DMS 273,-0.29433942,-0.95146155,-0.41836166,0.4851821,-0.36622018,-1.5719353,-0.61958843,-1.3585861,-0.5762717,0.20097041,-0.015518831,-2.7103386,0.17941831,0.39567804,0.8463216,-0.3406628,-1.3210542,-0.18669505,-2.119919,-0.54683316,0.715839,-1.4479753,1.6194,-0.6062248,0.30310032,-0.6112367,-0.6247024,2.398583,0.09559203,-1.4081923,-0.7215874,2.533698,0.8224356,-0.4502828,0.7784486,-0.3680602,-0.4187939,-1.4266495,-0.613957,0.8315322,0.23064831,0.8800511,-2.0271385,-0.05470536,0.1695531,1.3753146,-0.9338926,-0.29619288,0.25202084
SK-MEL-30,-0.76647174,-0.23330523,0.40613446,-1.281701,0.0114643015,-0.2781999,0.031378914,-0.6544824,0.45119634,-0.89919496,-0.1767692,-1.4348803,-3.1050901,0.1320081,-0.61299664,-1.4147296,1.2846906,-1.2884501,0.88297874,0.42969558,1.0192988,-0.6611124,0.8902916,-1.8177073,-0.4504228,1.1231861,-1.8335191,0.56666124,-0.51464593,-1.6139455,0.61288995,-1.4993051,0.45695636,0.5826663,-0.52107805,-0.8532445,-0.010091781,-0.3771107,0.81028295,1.5879227,-1.1154981,-0.40979296,-1.2034612,1.2390487,-1.0630693,0.95254135,1.3515348,0.2672216,0.67533714
HCC2279,-2.7459517,-0.7872369,-0.5928627,-1.335983,-1.7380815,0.14211659,0.43735987,0.26100123,0.82542014,-2.4766812,0.8363909,-0.3248248,-0.09564187,-2.065546,-2.8793657,0.045499757,0.5673565,0.65666854,0.2678605,2.0886335,0.86090255,-0.70177484,-0.16773655,-0.5899763,-1.1431026,1.1949942,-0.70861953,-0.46749294,1.2794634,1.15778,-0.33239692,-0.371847,-1.8114538,-1.4091651,0.4743672,0.13079384,-0.72565544,1.5491058,-0.19766809,-0.30812502,-0.55075276,-0.77223104,-0.45784375,-0.30637416,0.05770782,2.0586023,-1.8337239,-0.07661498,1.1401012
CPC-N,-0.4666633,-0.6147326,-0.06764597,0.91096425,0.47813225,-0.54055357,-1.4503355,-2.2743416,0.19592974,1.5798297,-0.14702506,-1.4263967,-0.019039914,0.10073804,2.0642128,-0.49482384,-0.38071796,-2.190336,-1.1092426,1.8789642,1.1999404,-2.6784425,0.62430567,-1.4912317,1.9276558,-0.03718337,-1.3123409,1.4753761,-0.74156874,-1.1079397,-1.5381489,0.68993485,-1.1694736,-1.3799078,0.9228849,-0.55443263,-0.61418897,-0.8247569,1.0109786,0.8441076,-0.09995152,1.287556,-1.7981014,-2.3221345,0.23756932,0.26220125,-0.9659803,2.3344946,-0.58774036
SNU-407,-0.7220619,-1.6071227,-1.0168794,0.15553989,-1.1052507,-1.1649224,-0.07201101,2.2089357,-1.5102592,-0.21804865,-0.79128414,-0.1636238,0.9967382,2.235468,2.209241,0.76084006,0.39199018,0.05255738,-0.5359567,-1.7588421,0.21185862,-0.7368661,-0.99249107,1.3399385,-0.39120165,-0.8467543,-0.32716155,2.4788144,1.286269,1.1526055,-0.31414598,0.24872705,1.0239344,-1.1124309,-1.4511045,0.09938324,-1.3356324,0.11447398,2.105417,-0.04052131,-1.2081528,-0.54496396,0.5362208,-0.6092028,1.5154368,0.5654748,-0.020197261,-0.8114543,-1.6217687
NCI-H2009,-0.39716595,-0.4869939,0.69739,0.66372645,1.2067019,2.1483488,0.21441266,0.40025148,1.3457711,-1.396558,0.77392507,-0.22746973,0.042062692,2.408361,-2.3195045,0.34791166,1.5651674,-0.17279053,0.51531374,-0.07422453,-0.34385607,-0.75869817,-0.78222823,0.598686,-0.6952704,0.9501369,0.5500853,0.4282829,1.9464331,0.54608244,-0.78913355,0.027114572,0.81172776,0.14376682,0.2744442,0.5426229,0.20581894,0.081711404,-0.6580189,-0.38733235,-1.3572241,0.1061199,0.30219692,-1.0609742,1.5992656,0.4028747,1.3417584,-0.684586,0.8164189
NCI-H1618,-0.16487037,-1.4259075,0.3631022,1.160324,-2.6171124,1.0095019,-1.8600898,-1.0655912,0.24384382,-0.2354736,1.8767358,-1.3058228,0.3710109,1.9131893,2.3954308,0.04636881,-1.544677,-0.43157926,0.092764355,0.6018196,1.3034157,0.088138856,0.4522799,-1.1808308,0.8585118,-0.805453,-2.1359322,-0.14398488,0.021562785,1.8185787,-1.5535982,1.8893601,0.269487,-0.9249769,0.882611,-0.55980295,0.18076766,0.16550447,0.117843784,-1.0902977,-1.2248772,0.7498533,-0.9660732,-2.4942424,-0.35086173,0.73915654,0.30961224,-0.7384288,-2.2240107
RD-ES,-0.7147545,1.8894639,-0.75989944,1.4782567,-0.43268934,1.485299,0.16933537,-1.7661419,0.40256283,0.0070991646,0.8309304,-1.4105496,-3.1995103,-0.378115,0.740813,1.5646011,-0.9466292,-0.4241795,-0.23274752,-2.2424254,1.2341139,0.4426892,3.6422641,-1.0472327,2.0645635,-2.5180075,-0.58951545,1.2330986,-1.0671519,-2.4783146,-1.6514524,-1.046389,1.0947814,-1.2049656,0.875802,0.4776758,0.42332837,-0.23237334,2.0432467,-0.117887095,0.5459494,2.0270207,-0.67929137,0.8318888,0.0012810403,0.10523879,1.9067901,0.9184826,0.8083975
RCC4,1.5693276,-1.143081,-1.5969585,0.2140291,-1.0848876,0.76549196,1.0481915,-0.49938813,-0.4764227,0.5205158,-2.3099773,3.2641392,-0.471366,-1.1490337,0.9801342,0.43498963,1.1703135,1.4528768,1.8209172,-0.5056919,-0.30315313,0.08118542,-2.6239066,-0.9798798,-1.8083072,0.11744536,-0.15541941,-3.0410163,-1.2121748,0.48129582,-2.2929716,0.88871896,-2.6266813,-0.7111938,1.6891843,-2.6301284,0.01236818,2.354784,0.3620105,-0.5913962,0.40315416,-1.6735414,0.03758687,-1.2637763,-0.60788816,-1.712046,-0.69213235,1.152072,-0.4548802
EM-2,-1.5748087,1.4416945,-1.1365756,-0.9650681,-1.1954552,-0.815008,-1.4859338,0.35531536,1.621586,1.3484453,0.80266494,0.9387127,-0.14948234,0.358448,-1.5772358,0.45414084,-1.9674153,0.90898436,-0.037141442,0.6445011,-1.6068697,1.932878,0.53106236,0.34037325,-2.4630194,-0.65629995,-0.6729333,1.4643999,1.6531844,-0.9756536,-0.56329894,0.3973847,1.4435952,0.04493277,1.361751,1.1541845,-1.4890939,-0.7721081,0.10897211,0.94475734,-1.3758093,-0.43818998,2.2509012,-1.0144516,1.1545331,0.45374477,-1.0056782,1.1525141,0.343156
WM266-4,-1.9931977,-0.55817646,0.40662768,-1.4652101,0.17711577,-0.64641464,0.6300141,0.49196395,-0.05841741,-1.2595851,-0.82940197,-1.878946,-3.3387175,-0.38598523,0.76540565,-0.6867177,0.9905251,0.36911625,1.4816362,-1.2061542,0.7751602,-0.37162134,-0.0060210903,-2.0765836,-0.7943012,0.3369946,-1.3368381,-0.1639801,-0.48257762,-2.1898322,0.36006314,-0.81168884,1.6548042,-0.23961411,-0.55524135,-0.8967992,-0.18971016,-0.5063169,-0.20448269,0.5974541,-1.1229957,0.7033626,-0.7094624,1.1161903,-1.5290692,1.2882429,0.99738246,-0.23873374,0.80557424
NCI-H1623,0.8544782,0.32171348,0.6804019,0.12365915,0.2618932,-0.022581968,1.150826,-0.09117169,-0.5796877,-2.1708817,-1.348525,-0.06016985,2.8190365,1.1622986,0.13141692,-1.1860207,-1.1025276,-1.9474733,-0.28807503,1.5954207,-0.90527004,0.64147794,-0.043645263,2.1812358,-1.7454562,-0.6794859,0.3926525,-2.0627792,0.55223364,1.3828622,-0.12975657,-0.52745247,2.4536855,1.2784312,0.6330624,0.026726685,-0.2919425,-1.9730208,0.14526504,1.2675999,1.7352918,1.4242465,2.800803,0.81860095,-1.4710745,-1.9121091,0.73968154,-0.5351215,-2.9768102
NCI-H1092,0.22852933,-1.4442819,-0.14487642,1.5528606,-1.7070671,0.41233167,-1.7813208,-3.0438936,-0.27048045,0.41887116,0.48180988,-1.2904317,1.1188852,0.5500443,1.84549,-1.5425023,-2.1781676,-0.83437365,0.14622407,1.7193097,2.2251806,0.20286164,0.7919248,-1.1889721,0.95274305,0.33532587,-3.5127373,-0.20458171,-0.15073738,1.4796827,-1.2385247,2.4715405,-1.0935454,-0.800153,-0.006580917,-0.8287636,-0.76616263,-0.34749678,1.0082701,0.48744795,-0.4666266,-0.13489217,-0.46956086,-3.0127192,-0.32418412,-0.3879762,1.2402974,-0.014917262,-1.3439689
MHH-CALL-2,-2.9842088,0.31162304,-2.0361636,-0.030003786,-2.033804,0.11775149,0.85252637,1.4213301,1.3608111,2.03059,1.2873585,-0.15629265,1.3025439,1.3725551,0.1972888,1.6195511,0.18300618,0.15056577,0.7540865,-0.18595704,-1.1670192,0.6297179,-0.25239852,-1.4655728,0.3636853,0.88105845,-1.0874598,-0.4565915,0.7569836,-0.20862159,0.3661463,1.3502457,-0.11940698,-0.2570785,-0.14887956,0.3393978,-0.6945526,-0.7211871,0.41350394,0.5630864,0.58770937,-2.226925,-0.19898401,-0.5609711,0.8227554,-0.5763616,1.0900517,-0.66145897,1.5824779
MCF-7,0.022768913,1.397103,0.7215989,1.4611843,1.0175629,0.0026342974,0.8418058,-0.7815944,-0.10353273,-1.5107992,-1.3490527,-1.5545863,0.14500421,0.46413237,-0.4373226,2.044098,-1.2742317,-0.57935053,-0.94532984,2.192012,-0.8545481,1.029062,-1.0679343,0.39062145,-1.1996633,-0.8830843,-0.87050277,-1.4956361,-0.026314892,0.98998725,0.040050626,0.21538198,2.7442994,-0.174962,0.7205152,1.6896011,0.6189167,0.26118207,0.81235963,-1.4773016,1.3591193,-0.026979666,-0.07884645,1.9644793,-1.8915226,0.43675047,-0.7652944,0.84236866,-0.77239317
Lu-65,-1.3907226,-0.45929554,1.41936,-0.93276674,-0.06943958,0.5753683,1.4017171,-0.0963994,0.8306505,-1.1739417,1.044477,0.8571967,-1.1193902,-1.4479338,0.49690896,1.7123016,-1.3518988,-2.6019845,0.0115762465,1.2223072,1.149386,0.7679408,1.4487674,-0.023197673,-1.0122784,0.44376022,-0.46638992,0.7064186,0.74217105,1.5832857,-0.042179678,1.2023644,-0.06173849,-1.6786618,-0.35468444,0.052619085,1.1901222,-1.9227163,2.3464408,-0.043031108,-0.53470474,2.510294,1.1916258,0.37746254,1.7317657,1.6645646,-2.038872,-0.040675744,0.065097176
HL-60,-1.4423424,1.4090103,-1.2759871,-1.6299922,-1.428798,-1.6032559,-1.1269766,0.0060035195,1.4164364,1.2924813,0.28658816,1.7557428,0.26479003,0.26337188,-0.45902604,-0.35666156,-1.3614157,0.26163912,-0.17426914,1.1875583,-0.8861275,2.8959355,1.3657559,1.4625342,-2.9028065,-0.4140035,-0.48732907,-0.24405,0.41345054,-1.4749545,0.058598015,0.08256166,1.827148,-0.46348697,1.1693531,0.33554083,-0.48345906,-1.2220784,-0.7070201,1.0177146,-0.34538734,0.13195531,2.860027,-1.0389092,1.4309981,0.14343953,-0.9708211,0.6805893,-0.03511077
A2780,-0.142574,2.459118,-1.3309113,0.93639404,2.5187695,-0.011401288,-0.06851098,-0.73879874,-1.2154226,-0.82741576,0.6462269,1.648089,-1.5923058,0.89381325,0.25545147,1.2901984,-1.4272413,0.2791782,-2.2851384,-1.9375997,0.2528621,0.42172885,0.10491192,0.4931302,0.89892316,-1.221456,0.37439132,2.3078105,-0.34074262,-2.6375985,-0.80188036,0.41480747,1.1000968,0.27261794,-0.21122968,0.9904245,-0.86955416,-1.5516822,-1.2183756,2.2438953,-0.31261626,1.9449109,-1.1100401,2.2634892,-0.24341835,-0.44795758,0.46938848,1.6488223,0.21202657
SNU-878,0.3200224,-1.0176355,0.5120042,1.0761839,-1.1893669,1.0702444,1.6432874,0.97389644,-1.8045504,-1.5322177,-0.6067123,0.54290736,0.04025846,-1.1996716,-0.6349073,-0.801639,-1.2064689,0.90541726,-0.99912775,0.19642605,3.2943537,-0.04103283,-1.7378805,-0.57878155,-2.203512,0.87053317,-0.48278478,-1.387358,-1.332451,1.7168967,-0.8393889,-0.023667518,1.2122502,-0.64221555,0.6645927,-2.022097,1.7959937,-2.3687084,0.8465321,-0.480446,1.9129688,-0.063232526,-0.050993543,0.5589533,-0.123482615,0.4458919,-0.7261829,1.6561584,-0.40187544
FaDu,0.11518917,-0.7218472,1.7058072,1.0064207,-0.344605,1.8837614,-2.0029805,0.64961356,0.8790393,0.4823717,-1.4702002,0.29516017,0.17195633,0.9405257,0.25052783,0.08954462,0.19633086,-0.10808189,-0.24221322,-0.51889884,-1.5305601,0.4527755,0.44988856,3.3109667,-0.12149065,-1.592366,0.5892099,0.16862194,-1.3131541,0.101550855,0.01899913,-0.9752842,0.28260225,1.102717,1.7840232,0.8084099,0.42159143,-2.0692415,0.3340741,-1.0990499,-0.3222676,-0.073699474,2.245774,0.59972143,-0.30888417,0.5340724,0.9832074,0.061710045,-0.1656986
JHUEM-3,0.28561327,-1.7494453,0.4081175,1.9449321,-0.7245835,2.1627038,0.06143768,1.6736264,-2.1749563,-0.244501,-0.96708906,0.17390302,0.7079578,0.3320367,-1.4454763,0.5231977,1.4076387,1.7093179,2.7589598,-1.0342143,0.8653186,0.16036133,-3.538531,-1.3426766,-0.4957462,-1.2662405,0.78782773,-2.2765512,0.08732155,0.8058187,-0.8012872,0.13765556,1.5397573,-0.45972788,-0.4375149,-0.7912101,-0.07232167,1.6141521,-0.16460699,-0.20818102,-0.50485224,0.1103503,0.80181825,-1.2810174,1.0712372,-0.82836384,1.5830481,-1.7930216,-0.577916
COR-L105,1.332154,-1.4180712,1.7449819,-1.8988122,-0.86447114,1.1910195,1.1028693,-1.0333718,-0.17732012,-2.2474725,-0.16529964,2.6082165,2.6115289,-1.5447192,-1.8927846,0.34361356,0.40074462,-1.3458983,-1.1382252,2.3028214,-1.2935842,0.5565679,0.9051413,0.32469678,-3.3860734,0.19413574,0.053420763,0.57764333,-0.32726434,1.1989081,-0.91390806,1.096105,0.7112496,0.45707247,-1.0632915,0.56945246,-1.2786561,-0.8754367,2.7340891,0.68828124,1.3706336,0.19680999,-0.07007695,1.6995609,0.5120848,0.11626721,0.0024420153,-1.8616234,-0.15650275
A4/Fukuda,-1.479305,1.773648,0.16972342,-0.40568116,0.865558,-0.43809944,0.53547263,0.18147416,-0.44307292,0.47902894,2.914878,-0.37464598,0.12601247,-0.6990232,0.02344422,-0.91174793,-0.5977839,-1.0154155,-0.14963767,0.9820255,-0.7591263,-0.9286447,0.97091216,-0.17389134,0.5589818,2.0334349,-0.83938,1.3629105,-0.30843526,-0.06895412,0.18782043,-0.99774754,0.18391404,0.024060577,0.4076292,0.23700607,0.61781937,-1.768124,0.18039787,-1.3516824,1.3826948,-0.85980713,-0.6635797,1.3765613,0.5704583,-1.0021945,-1.6678262,3.1012053,-1.6254191
Reh,-2.0518246,0.6858326,-1.1161988,0.48823258,-1.6060051,0.28367963,0.604257,1.505603,0.98296475,1.2707499,1.5723958,-0.036166552,0.6797984,0.49874437,0.1570449,1.6417052,-0.4626721,0.10475881,-0.7207363,-0.4695196,-0.39220634,0.40674636,0.053107943,-1.0090773,0.84858894,0.54793566,-0.6992922,0.7003021,-0.507705,-0.47144008,0.09894642,1.1522924,0.88431334,0.17598337,0.67733455,-0.38673127,0.26732597,-1.8507199,1.2103044,0.29748628,0.80661154,-0.58037686,-0.5411201,0.11849944,-0.2081444,-0.47038886,1.1399939,-0.47361788,1.9879286
NCI-H2081,1.7507817,-1.0557787,0.4886278,0.98480934,-1.1575062,0.40553266,-1.6968483,-2.0269146,0.36695242,0.5052555,0.96339226,-0.694558,1.3907202,1.3620597,1.4817946,-1.9279418,-1.1715119,-0.95863736,-0.42533618,1.0328096,1.5360724,0.65187687,-0.7602145,-0.30652,0.4486476,0.8521001,-3.1315582,1.3684111,0.048979435,1.179068,-1.7420981,2.5418012,0.056092124,-0.56794685,-1.137649,-0.33870617,-2.1267774,0.05591813,1.3703231,0.66646266,0.46768713,-0.38283792,-1.1199503,-2.6447117,-0.14801125,0.53103375,1.5528154,-0.1263316,-1.6236478
MOR/CPR,0.124660075,0.5783735,-0.44665655,-0.14459996,0.7446201,-0.18194316,0.5687399,0.44709978,0.50007546,-0.63990784,-0.14883134,0.73088825,-0.6786925,0.975223,1.2414144,0.71171445,0.46557927,-1.0210559,-1.1873232,0.3953607,-1.5522298,0.3086483,0.075341366,0.2986849,-1.3079953,0.39494938,-0.8222959,0.11354996,0.24689846,0.48382497,-0.37159598,0.1536636,1.5006932,0.68753266,1.4067948,0.30291104,-0.04958453,0.85471326,0.52844363,0.648283,0.27706385,0.18865287,0.96193635,0.025533631,-0.08324333,1.0334758,-0.63934886,0.19955233,-2.5562592
VCaP,0.78088707,1.335986,-0.7788617,-0.47419125,-1.0542868,0.18433638,-1.7690281,-1.3610266,-0.90595394,-1.1302383,0.32613444,0.026454896,0.11102876,1.5296973,1.3497248,-0.4190066,-0.1239261,-0.42425802,-0.5632831,-0.06849609,-0.16554761,0.54830736,-0.23024996,-0.15252918,-0.6294126,-0.46059546,-1.691299,1.4156353,0.6669855,0.9657673,-1.0028682,0.800244,-0.693155,0.3071978,0.108343,0.8877925,-0.7570895,0.114577904,0.35599658,0.029220928,-2.384034,-1.9366137,-0.23722018,0.27707636,0.26873314,0.59789944,-1.5182458,0.4618519,-2.2324493
COLO 205,0.24911442,0.04921761,0.2757225,1.331818,1.1344771,-0.3647299,-1.0525138,1.3623306,1.2551274,0.8310568,-0.40549245,0.34969965,-1.382649,0.79091036,1.4670339,0.65821934,1.6410562,-0.42978433,-0.5146174,0.6226671,3.4799447,-1.2761757,0.14371131,1.2897887,-1.4084783,2.0315523,-0.3472451,-0.06773664,-1.0649527,2.0074463,0.26372862,-1.3900863,1.2812092,-0.80873644,-2.071184,-0.6315316,2.667992,1.1185675,2.4026573,-0.90023637,-0.6737129,-1.1562223,-0.033237226,-0.062072534,1.1666418,0.05807988,-0.7354545,0.72051877,-0.49151808
NH-6,-0.21917085,0.09879438,0.8258329,1.1217083,1.0721612,0.28411424,-0.70099884,-1.870966,-1.2450389,-0.5455113,1.606186,-1.6787579,1.9667784,-0.11640526,1.0329119,0.4509499,-1.1569346,-0.06193283,1.0969584,-0.120840676,2.0754302,-0.08711375,0.52949005,-0.42209387,1.8880699,-0.68099743,0.6819236,-1.5507529,-1.4109069,0.63301754,0.04186719,1.8106698,2.4829884,-1.0404928,-0.9035257,0.4824707,-1.3596137,-1.1889509,-0.5637376,0.97085524,0.10667108,2.9452853,-1.0486808,-0.8342232,-0.68080527,-1.3696716,-0.5064309,-1.7806523,1.3537062
SK-RC-20,0.5078481,-0.27278638,-1.3276665,-0.49022046,0.6090427,-0.9449634,0.7021972,0.03741064,-0.5316125,-0.683734,-2.7380123,1.1432403,0.4243027,-2.397379,0.38461882,0.2472137,-0.48078093,0.8545072,-0.27749228,0.87658983,0.59989214,-0.65122235,-2.1056068,-0.12337216,-0.47299445,1.3465525,0.72952867,-1.8926054,-0.4763397,0.9851295,-1.8802872,1.4694809,-3.200782,-0.39869654,2.0496683,-2.379614,0.9192409,1.4525282,0.7814485,-0.7058428,-0.07894311,-1.1191041,0.49668735,-0.626338,-1.1289513,0.68007666,-1.9904505,1.2985812,1.550465
EoL-1,-1.5397549,0.031130191,-0.29647443,-1.6501596,-0.2931995,-1.7409558,-0.6880327,1.1992526,2.5898836,1.685493,-0.397919,2.1854644,0.3183567,0.20350264,-0.03401593,0.48082954,-1.6868991,1.2547557,0.14545631,0.7284205,-1.7769202,1.8826818,0.44325107,-0.75190943,-2.8764014,1.7279629,-1.8964608,-0.6086831,0.031020146,-1.5946199,-1.0703589,1.4381703,1.0439095,0.6740439,1.4933355,0.1779594,-0.8046731,-0.43706137,0.11867365,-0.8617777,0.13921672,-0.44591373,1.2691791,-0.04948992,0.40085712,-0.9639836,0.08518415,0.8350182,0.56807756
