,E0,E1,E2,E3,E4,E5,E6,E7,E8,E9,E10,E11,E12,E13,E14,E15
BCP-1,0.023579542,-0.0030797329,-1.3857375,-0.53981996,0.0002647604,1.4144368,-1.150427,-1.6934922,-0.43787625,1.0563713,0.6123401,-0.22946918,-1.9577571,-0.8293918,-0.019708797,-0.7194984
EHEB,-0.05085881,-1.0353357,0.2676666,0.8997199,1.70042,0.22673662,1.1242912,0.15278317,-0.45707348,0.39137828,-0.063792504,0.66667527,-1.0524265,-3.0455143,1.7844198,-0.3431496
KMRC-3,-0.07104306,-0.6604881,0.51262474,-0.46362713,-0.35078615,-0.14419846,-0.071925774,0.13108039,0.9352415,-1.2938726,-0.3815656,0.2842509,0.38478512,-2.0253108,0.6580144,-1.4527532
KOPN-8,0.30659643,0.20428778,0.71832955,1.9432346,0.86139685,0.29537526,-0.40682247,0.33947563,-3.1922154,0.37781784,-1.5074149,0.083211966,-1.3696593,-0.7686799,1.1520679,0.68538964
Hs 751.T,-0.9209927,-0.57169616,-0.6777041,-1.9280243,-0.12657191,1.1200386,0.3913123,0.24652849,-0.37715623,0.37899068,-0.51979214,1.4631405,-0.64899635,-0.12439869,-1.0109482,-1.7142985
Namalwa,-0.0060429564,0.005064737,-0.83498716,0.33432913,1.3946354,0.69004,0.74838006,-0.18555267,-3.0066717,-0.090802535,-0.027038813,0.09118208,-0.96597296,-0.62492937,0.72933143,-0.19859101
HH [Human lymphoma],0.094330415,-1.1109989,0.2018132,-0.48235762,0.31799492,0.3571854,0.7593868,-1.7567916,-0.7398532,-0.13491629,0.27816135,-0.31113794,-2.2138424,-1.038432,0.56354606,-0.10396568
T84,-1.3123899,0.3464199,0.7545244,-0.094093174,1.1599492,-2.3883522,0.7655262,-1.8112706,1.0902469,0.08309346,-1.7044206,1.5376847,-0.11118653,2.6070418,0.384874,1.4374783
8505C,0.3912548,-0.39822528,-0.07711284,0.45785037,1.167774,-0.3672198,-0.74746585,3.2093084,-1.3794559,-1.2122325,-0.43294522,0.20863594,-0.5416033,-0.94489217,-0.4777598,-2.2752116
PCM6,0.66874444,0.03210994,0.25679082,0.22656222,1.8154448,1.5480385,1.0703963,-0.9207206,1.6953249,0.91980296,0.48796594,0.11821577,-1.5356442,-1.4763069,1.060774,-0.43728817
BICR 18,-0.54556453,-0.5814797,-0.061062004,0.35752082,-0.1939843,-0.314839,1.4812241,-0.2665028,0.9950778,1.7645696,1.8433459,0.23113948,1.8159256,2.1032286,-0.7213471,2.2072477
KHM-1B,-1.4717094,-0.20089167,-0.72306746,0.37517866,0.35382122,0.6760218,-0.78124464,-0.8169467,-0.073991075,0.2979624,-2.2469614,-0.16829294,-1.8421,-1.5596234,0.82354724,0.5179611
HCC1428,-0.606922,-0.21425937,-1.5447798,1.5274181,-1.2062943,-1.1377869,0.09010219,-1.0076572,-0.26362926,-1.324289,0.47752517,-0.15823175,-1.0984105,-0.00031759392,-0.41166797,-0.73573524
TGBC11TKB,-0.33578035,-0.5892249,1.5770314,1.7308382,1.5832787,-2.189639,0.7180149,-1.9155115,1.7653767,0.65474355,-2.2987633,0.3547245,0.3808953,3.2645724,-0.7305932,2.0568125
BFTC-909,-0.98481995,-0.81459105,2.252151,0.5692576,0.140176,0.92157143,0.821212,0.07406743,0.633107,-0.14014588,-1.2104548,-0.24390964,-0.40714717,0.70254874,1.1291411,-1.2200538
KM-H2,-0.26187807,-1.7731625,0.15319006,0.030269302,0.87704307,0.7595096,0.62067205,-0.728909,-1.2735999,-0.47062787,0.30536467,0.104252234,-1.5176257,-2.141686,0.19507371,-0.9813768
DMS 114,0.35487556,0.62256944,-0.026526924,-1.2476997,-0.24350391,0.7014218,0.07677334,-0.7544078,-1.0495499,-0.45607167,-0.35190213,-0.8769156,0.5684263,0.106908396,-0.61297524,0.35289162
Hs 936.T,1.3064086,0.7108311,-0.57565427,0.47281522,1.2162969,1.8457496,-1.2962558,1.0981613,0.43547198,-1.3665663,2.125794,-0.50545156,-1.4773794,1.1629122,-0.8562515,0.14657229
OVCAR-8,0.41666147,0.22057283,0.9373989,0.24279985,-0.90144503,0.17405337,-0.03579691,0.36295506,-2.3152633,-0.5496633,-2.5185394,0.7098267,0.07358845,-0.11954261,0.035693645,-0.54305434
SK-N-SH,-0.080974996,-0.7335088,-0.045722235,-1.2271152,-0.746012,0.21668443,-0.6563908,0.91926175,-0.7943962,-0.18755084,-1.3614377,-1.593415,-0.6819993,0.33916095,-1.0975753,-2.0725274
EWS-502,-0.90582246,0.7145845,-0.6790263,-1.4425732,0.08205835,0.7739504,0.7224589,-0.52449346,-1.1194702,0.82350105,0.6094841,-0.61965793,-0.2711481,1.4623173,-1.0159328,0.63421965
Hs 706.T,-0.6561005,-0.79347515,0.15578495,-1.4982862,-0.1646076,1.2079971,0.19209124,0.26027858,-0.14799592,-0.19424434,-0.50209045,0.8402187,-1.0735452,-0.653827,-0.3250261,-1.4625666
HuH-28,-0.6317717,-0.84989023,1.7535902,-0.39482403,-0.012684878,-0.30145448,0.6742851,-1.1945496,0.72926044,-0.39604995,-0.08448946,0.6083285,-0.21787207,1.1366761,-0.2996954,-1.1977572
JHOS-2,0.111877516,-0.33395144,0.12945163,0.48517078,-1.0729705,0.9247745,0.9276683,-0.63238055,-0.49439165,-0.38986826,0.08094174,1.7790767,1.0735979,0.08035845,1.0486299,0.14950946
COV434,0.03763423,0.04299351,-0.5530714,-0.39888495,-0.37633651,0.032146446,-0.12274033,-0.45037422,-0.5016153,-0.7931137,0.25753817,-1.0543382,1.5857941,-1.0305388,-1.4640652,-0.053804655
Rh30,-0.06345706,0.4989028,0.3923183,-0.79009724,-0.38077328,0.5961509,0.40026015,-0.051234476,-2.4350488,-0.8580179,0.14764008,-0.22210771,-0.7064207,1.2782423,-0.97919333,-0.24831727
SCaBER,0.3744502,0.26613018,1.3543687,0.6292385,-0.49242187,-1.4698843,1.1858408,0.90458465,0.03571753,1.852004,1.2797964,0.47827777,0.969946,0.93552226,-0.5515786,-0.52109176
CAL-120,1.1331682,0.5717024,1.3031406,-0.28885064,-0.09230982,-2.0745184,0.76522994,1.1490506,-1.3624516,-1.3861245,-0.27435088,-0.060910173,-0.047344446,0.2899823,0.17383316,0.3360861
VMRC-LCD,-0.5835472,1.1609513,-1.5100737,-0.49472556,-0.73290277,0.8902848,-0.7595211,-0.8192183,1.1504805,-1.0548806,-0.7105157,-0.8539961,-0.70265406,0.29760274,1.1779816,-0.018497866
Karpas-299,-0.15430135,-0.51761496,1.1526313,0.120109074,0.20232052,-0.42033237,0.05834088,-0.79073894,-0.64157057,0.63637674,1.3221968,-0.14524184,-2.4603715,-0.1217112,-0.1834013,0.13233076
NCI-H596,-0.8663499,-0.37871078,1.39416,1.6442821,-0.29187292,-1.0033296,0.6869315,-0.18553482,1.0762539,0.65211195,0.5647002,-0.13151729,-0.37188956,1.434435,0.11718094,-0.8177545
SNU-349,-0.9081025,-0.98793006,0.50546974,-1.8937943,-1.2724098,0.08516535,-0.86598307,0.8646079,-0.14482228,-1.3435378,-0.44078276,0.6813863,-0.033874936,-2.0272095,2.3459191,-0.6664652
AML-193,-0.42510474,0.24927711,1.1576169,1.5712707,-0.6097889,1.3241327,-0.40263838,-0.4804735,-0.032016218,0.90158087,1.3143871,-0.54877955,-0.7652819,0.26269895,1.0553064,1.7404329
PL45,-0.4351006,0.34411266,0.2678472,1.0335588,0.14916417,-0.9230362,0.09049903,-0.037540674,-0.33112743,0.84508,-1.5396053,1.0268517,1.2783071,-0.5962354,-0.33405295,-0.06762527
HuP-T3,-1.0416561,-0.6624765,-0.49179503,0.5293765,0.3578873,0.18957165,-0.43179077,0.49125126,0.9884679,1.6228993,-2.2685776,0.7307902,2.481215,-1.3904667,-0.55188406,0.43374696
COLO 684,2.6602952,-0.15305267,-2.392508,-1.0420722,0.81161857,1.7210808,-0.30242446,2.047954,-0.11886514,-0.11475615,-0.7408005,-3.0795743,-0.44057193,-0.2971653,0.4497142,-1.8124524
JHOC-5,0.99195486,0.1129279,1.0127974,0.7814512,-0.12651235,-0.52073646,0.12504072,0.59607714,0.21362764,-1.077168,-0.020755284,-0.61982954,3.0326078,-2.1111815,0.1469144,-0.09216853
LN-235,0.15754984,0.41867056,1.1599768,-1.3246772,-1.2596488,-0.28772977,0.04974546,-0.31827453,0.5839986,-0.18854989,0.73204786,-0.4386451,-0.6082663,0.83833015,-0.77233535,-0.62093973
RERF-LC-A1,-0.2139638,-0.8870427,0.5201799,0.20734261,-0.06280478,0.73705447,-1.0696944,0.4903559,-0.99235916,-0.31662703,0.15121236,0.4465755,1.1934537,-0.20287144,-0.5294448,-0.5770186
BHT-101,-1.253956,0.36660603,0.15961212,-0.0631365,0.57976323,0.77653605,-0.17681326,1.3480839,2.73304,-0.78758514,-0.62382436,-0.4691372,0.094158635,-1.9368,0.22113486,0.4167617
G-402,-0.80173445,0.25738746,0.16106398,-0.6277676,-0.48906696,1.7508509,-0.63609093,-1.3235723,-0.29276,-1.2695552,0.09531708,0.36700648,0.645857,-0.17415243,-0.88424456,0.5233464
PaTu 8988s,-0.8662345,0.6970838,-1.0657227,-0.17100228,-0.04636572,-1.302097,-0.531705,-1.4375355,1.377172,0.44601676,-0.7354813,0.8751267,0.27767086,-0.84940404,-1.2573731,0.43951854
SK-N-DZ,-0.82822555,-0.6218719,-1.5410631,-0.8440685,-1.1773705,1.3661083,-0.14130993,-0.4482819,-1.3704836,-0.54718953,-0.6076618,-1.002267,-0.85993946,0.3009998,-1.2133919,-0.52717614
KP-2,0.019931734,0.8325951,-0.10703429,0.82499254,-0.27854255,-1.0118549,-0.40520975,0.4400771,-1.062479,0.32897708,-1.306445,1.4005992,-0.38687235,0.5297014,0.42730954,-0.38309658
SW1353,0.02971567,-0.096133865,1.2909299,-1.5797719,-0.53839743,0.7312609,0.09593684,0.061595883,-0.38467932,-0.79906493,-0.25432968,0.63041043,-0.9694037,-0.20727953,0.51068217,-0.9643629
Panc 10.05,-0.23702037,0.3938042,0.77411234,1.3881257,-0.6558202,0.5793962,0.037494373,-0.9155832,-0.2515728,1.0027441,-1.1019132,1.7688974,1.4725441,0.66775846,0.37538445,0.9737656
U-178MG,-0.58985364,0.13718358,1.2161257,-1.1784506,-0.5766193,0.96114266,-0.6027201,0.73210317,-0.7995446,-0.4852166,-0.11089659,0.4383692,-2.1515167,0.6441097,0.26614487,-1.6144217
647V,0.59204,0.06900119,0.19002384,0.84435683,-0.4380447,-0.4966372,0.8556685,0.99107414,-1.2056862,-0.21016514,-0.062879615,1.0064938,0.64088863,0.0073585683,0.9971831,-1.011541
Hs 611.T,-0.043923438,-1.0207208,-0.3974687,0.7291278,1.6557978,0.11881705,1.3187511,-0.017538106,-1.5323869,0.56337935,0.44743705,0.65805084,-0.6510053,-2.3317215,0.6133926,-0.09944308
KMRC-2,-0.4039914,-0.23618829,1.1184815,-0.2123707,0.27673572,0.30431223,-0.6741206,0.05606299,0.59398216,-1.6175134,-0.14735088,0.1430228,0.08674399,-1.7669173,0.6794137,-1.1864544
TE 441.T,-0.9151506,-0.30542085,-1.3657103,-0.85170686,-0.06576307,0.2599459,-0.28318617,-1.2451048,-0.9105191,-0.80826885,0.1727195,-0.008956252,-0.39411816,-0.3928261,-1.7359551,-0.7850678
JK-1,0.48301554,1.909261,0.00052475184,-0.27011684,0.43373844,1.0573658,-0.6692163,0.5398432,-0.2924558,-0.7527802,0.20236456,-0.8580422,0.74500406,-2.5261848,-0.03664282,2.9425004
HDQ-P1,1.1590042,0.0316038,0.3112988,0.40223417,-0.59279066,-1.7962447,1.3440224,0.027195077,0.3927658,0.7386051,1.1030796,0.9290332,0.99427104,-0.29308647,0.084369846,-0.013562385
HCC78,-0.124398194,0.47167403,0.0464648,0.7762811,0.31353062,0.13801424,0.08259063,0.5429792,0.41910192,0.08558122,-0.25935826,0.5133729,0.014983606,-0.45580295,1.8889909,-0.17210595
HLF-a,-1.0812243,-0.10152816,0.41488406,-1.8393798,-0.09904949,0.9441409,0.3661511,0.546411,0.56483305,0.11865272,-1.198421,0.5870309,-0.01508284,-0.95154434,-0.31985614,-1.1815569
VMRC-LCP,0.22740884,0.40792987,-0.0053243404,0.45100817,-1.1002406,-1.3632832,1.1153449,-0.010104431,1.233731,1.9298856,0.9884716,-0.47905445,0.38306385,0.6861354,0.21443075,0.38602123
EFM-192A,-0.7849261,-0.84021926,-0.8101153,1.9202137,-1.2320172,-0.1263407,0.223769,-2.2871585,0.6664667,-0.8847542,0.9275723,1.099556,-1.0502093,1.70717,0.51433897,0.06763442
AsPC-1,0.25996244,1.4669424,0.54960126,0.33198774,0.9975241,-0.5510919,-0.27915314,-0.96533304,2.2749012,0.6740814,-2.4135935,1.6639622,-0.026719017,0.41113394,-1.1191751,-0.34965348
LCLC-103H,-0.071521744,0.30117735,2.0427647,0.26887095,-1.3189791,1.1930416,-0.26032576,-0.15032282,-0.18984723,-0.76177984,0.0035979673,1.0426947,0.4986332,0.45122787,1.0636091,0.44053978
SU-DHL-4,0.6712685,0.4253483,-0.33886892,0.69197565,1.6665807,0.26762083,0.936189,-0.31969386,-2.5820448,-0.48133984,-0.25754178,0.18742265,-0.2034904,-1.1773763,1.1041725,0.35894603
NCI-H2066,-0.3491102,0.89418304,-0.87250066,-0.9732568,-0.6514607,0.9737471,-0.888583,-1.108594,0.97892255,-1.0671296,-0.7529695,-1.0932202,-0.76528275,0.24472584,0.5396964,-0.08746332
NCI-H661,0.27985883,-0.5814781,-0.085816994,-2.279219,-0.7600583,-0.58048844,-1.2295305,0.6628891,-1.9039904,-0.24510416,-0.7869215,-1.3350302,0.73722756,-0.21314567,1.1300443,-0.82915115
HCC1937,0.06792434,-0.1457649,-0.44356874,0.35218012,-0.23030609,-0.8739412,1.3098838,-0.40533668,0.06615285,1.0352156,0.61630726,1.0046611,0.1017614,0.013096757,0.24188034,-0.41116077
Karpas-620,-0.39881974,0.3333139,-0.2658025,0.77951515,1.0126663,0.09736466,0.12014126,-0.7780565,-1.4105223,1.1001998,-1.5833042,0.50268656,-1.8652563,-0.8416207,0.85232323,0.5151514
HGC-27,-1.9481066,-1.0595195,0.026315806,-2.5603614,0.14140941,-0.25274342,0.32646504,-0.45707655,-1.9625423,-0.8434397,-0.23421477,-0.028366959,-0.9070139,2.0673256,1.3837289,1.8367251
Hs 274.T,-0.7544519,-0.38127214,-0.11950199,-1.7304415,-1.0646032,0.44363773,-0.23084903,0.084736586,-0.49206707,0.73982245,-2.19336,2.003436,-1.0881451,0.26376504,-1.2726803,-1.54435
KM12,0.21535377,-0.3504694,-1.1918778,-1.4207515,0.8526077,0.9972771,-0.2666078,0.33431268,1.4483263,-0.009070594,1.6160318,1.1348002,1.1519088,0.11805697,1.0322714,4.2418156
KMS-21-BM,-2.0599377,-0.572653,-0.6723754,0.68818086,0.16259995,2.5631037,-0.24457766,-0.9762576,0.6987188,-0.21951756,-0.59441996,0.5027877,-1.9341642,-1.3145177,1.6285363,0.1438856
SLR20,-0.22459546,0.8248929,0.6485857,-0.031499807,-0.31080323,0.56142426,0.46186504,0.26817757,-0.23767334,-0.10495424,-0.9702066,-0.45806924,0.5103915,0.12994583,0.502712,-0.5604832
Hep 3B2.1-7,-0.11434266,1.0208266,-0.4358283,-1.5934993,0.103228755,0.10232892,-0.02811237,-1.7955651,1.3754252,-1.0635828,-0.42840227,-0.30848715,0.42154968,-0.5075599,0.7313103,-0.16292556
SNU-407,-1.1176022,-2.9649525,-2.207065,0.4179308,2.1994028,-0.6222852,-2.9139404,0.76022696,0.071663216,0.60896796,-1.9781871,1.6727935,-1.2835499,0.8620918,-0.5966269,0.6689303
MKN45,-0.44728628,1.6518945,-1.032523,-0.5617875,0.8146261,0.05863477,-0.32838547,-0.5011657,0.9090129,0.21180463,0.24961616,0.10052481,0.42034143,0.47922102,0.024237484,0.28646013
TM-31,0.50995195,0.3715075,1.3472755,0.014025331,-2.760747,0.58086675,-0.71494424,0.5514998,-0.812269,-1.1981782,1.1431772,0.4368274,0.66059136,1.7067446,-0.05526152,0.5168765
TE-4,1.3200606,0.22646874,-1.1086516,-0.08904612,-1.4007407,-0.1926779,-0.97291416,0.58988416,1.6906617,1.6274722,2.4712348,-0.65808487,0.7837848,-0.8171946,0.6380333,0.020606643
PE/CA-PJ15,-0.07775827,0.5350621,0.34281576,1.0363925,-0.6315605,-1.2440048,0.9237387,0.62553644,0.23764405,1.0786353,1.0239447,0.19456,0.082280755,0.8339608,0.15957095,-0.52507025
COLO 775,0.34677702,0.10055946,-1.2175157,-0.042012576,0.13291752,1.9698471,-1.6686169,-1.1253725,-0.22743197,1.3526635,-1.8161728,1.2307103,-2.473426,-1.52297,1.5448623,-0.61104214
SNU-1033,-0.063741155,1.7129124,-0.1291143,-0.9572935,0.56539464,-1.7754217,0.6198173,-0.28986168,0.48955786,0.030660922,-2.1140752,0.8936498,0.23260584,1.1156743,0.55478,1.4172257
NCI-H2291,0.34464842,1.0015006,1.071181,0.91447717,-0.4502215,-0.891915,-0.4079636,0.5334108,0.5955388,0.5555449,-1.4483043,0.4389376,1.0834001,-0.009797664,0.7256667,0.4354548
HuG1-N,-0.861623,-1.1028044,-1.4422306,-1.4063977,0.7531032,-0.94870526,0.9181938,-1.1187015,2.8192358,1.7734107,0.38712597,0.16515787,2.0910504,-0.35643503,-0.14341241,1.8249363
SNU-398,-1.0394268,0.11452723,-0.62298846,-1.7096468,-0.8901245,0.4880358,-0.49011517,-0.21556738,-1.2411853,-0.07317737,-0.06980297,-1.1762874,1.6069641,-0.7109664,-0.28047058,0.9201277
SHP-77,-1.2922808,0.3526965,-1.504899,-0.46361935,-1.1648922,0.930864,-1.2134053,-0.2810774,-0.009516826,-0.47419882,-2.5706198,-0.39828733,-1.1200693,0.023302328,-0.2553538,0.03801316
G-401,-0.23771444,0.2171116,-0.4308948,-0.65910494,0.021829084,1.1180031,-0.22328605,-0.8595741,-0.80409306,-1.4156334,-0.38724205,-0.81492895,1.093925,-0.73107237,-0.94638604,0.06767324
S-117,-0.10792012,-0.29077724,2.1136522,-0.14349581,-1.1005433,1.5700842,0.19311595,-0.056733206,-0.26456156,-0.27533486,0.026713144,1.200544,0.364093,0.21028537,0.7064368,-0.059446584
RL95-2,3.2574844,-2.9312928,-2.3782275,0.12074128,1.9284414,-0.29957688,-0.8645039,1.5324227,-0.28563303,0.63381016,3.8665957,0.18484767,0.32303274,0.70591426,0.20997891,-0.8525199
HCT 8,-1.80892,-0.033485718,0.07261215,0.78562886,0.5896872,-0.7652073,-1.0897528,-1.4722862,0.20989178,-0.72321767,-1.2990499,1.5363576,0.35031477,2.0450718,-0.6795341,-0.33247924
Hep-G2/C3A,-1.1146355,0.73190254,-1.1721747,-1.0278572,0.5171488,0.098945074,-0.055073492,-1.7423669,1.661002,-1.1299436,0.039130688,-0.14805269,0.50826854,-1.0103633,-0.05305852,-0.34609795
JHH-2,-1.7638073,-0.4325179,0.7872738,-1.771184,-1.0657604,0.2911877,-0.85294193,-0.1738826,1.1510514,-0.03688575,0.86501217,1.312604,0.32694745,-0.8361749,1.2119266,0.27996573
Loucy,-0.07674958,-0.23019364,0.033271108,1.6031932,-0.6939736,0.30784658,0.6455666,-0.7030691,-2.0900228,-0.32816502,0.15557069,-2.084045,-1.0666277,-0.0012088567,0.6210553,0.5415233
MHH-CALL-4,2.6133146,-0.26389062,0.19084212,2.121275,0.8568479,1.8041598,0.14824934,0.7044299,-2.3022249,0.5097776,0.60098124,-0.07328808,-0.97481626,-0.23109098,0.95174915,1.0828418
SNU-8,1.233925,0.25169507,0.8171569,0.032782435,-0.8926147,-1.2372755,0.6483093,-0.33016485,-0.4940649,0.061850745,-1.7731162,1.3489462,1.5877774,-0.28933018,0.32480317,-0.24014865
UM-UC-3,0.38404197,0.33455595,0.65890056,-0.32669055,-0.84713,1.1929044,-2.3909376,0.54302466,-1.3378876,0.796592,-1.3393892,0.32185912,0.61760074,-1.4960259,-0.94866467,-0.5673692
NCI-H508,-1.5076507,-0.17605074,-1.0439017,0.43790615,1.5351803,-0.9819209,0.5740844,-1.3025306,2.8924487,0.21559305,1.0984321,0.141924,0.41527772,0.17865418,-1.0449979,0.5524465
PE/CA-PJ41 (clone D2),0.24492678,-0.045181073,0.839038,0.8716481,-0.6393937,-0.63508236,1.1431279,1.370973,-0.28092268,1.362932,0.4320826,0.6115651,0.23635258,0.39061257,0.31500992,-0.84019727
F5,-0.5593847,1.138195,0.14075156,-0.7806037,-0.012850528,1.4072516,-0.38707522,0.11882975,-0.949037,-1.3121212,-1.1879433,-0.3637438,-0.35304123,0.5067813,0.48678026,-0.8720084
NCI-H1623,0.6130382,0.015195547,-0.24142875,0.18646744,-1.0291667,-1.7123228,0.79135746,-0.6112431,0.93976367,1.1870252,1.1445006,-0.48404267,0.19793484,-0.03549348,-0.3314648,0.45577088
SCC-15,0.74936956,-0.011217601,0.472877,0.20858227,-1.3487425,0.05752624,-0.06133491,1.3356742,0.41389284,2.8031995,0.59636956,0.82678044,0.83106333,-0.51116276,-0.08374003,-1.6168215
KG-1,-0.5778408,-1.133066,0.315636,1.5600684,0.71631145,0.857246,-0.98020726,0.31480193,-0.45866612,0.4531535,0.58540666,-1.708007,-0.07785642,-1.3743571,0.07928023,0.98091567
Hs 698.T,-1.0736542,-0.4434465,-0.29355767,-1.9606692,-0.6403692,0.9016717,0.39034328,0.53877914,0.017216189,0.5303842,-0.6427698,1.3781409,-0.39804968,-0.055397227,-0.84933335,-1.6403728
MFE-296,0.33064947,-1.4108529,0.42016134,-0.6161853,0.6304577,0.9774715,1.6270351,-1.3142531,2.2690303,0.059507407,0.1537895,-1.4322157,2.5126948,1.1199989,-1.1405628,1.8523273
MOG-G-CCM,0.05669498,-0.036423344,0.63352996,-1.3936263,-1.0980626,0.724525,0.055115514,-0.3282346,0.24795103,-0.9354623,-0.14954856,0.20067717,-1.4969172,0.3843736,0.21579474,-1.0752773
CADO-ES1,-1.7145622,-0.34051242,-1.6189184,-2.3332846,-1.1771964,1.2579772,-0.08546313,0.036093272,-0.6563859,0.9434523,-0.25430408,-0.8806096,0.08895491,0.013621878,-0.21428393,0.88965005
JJN-3,-1.2792466,-0.25476107,-0.6424509,0.3423308,0.97424567,0.93935806,0.31051797,-0.71269107,0.46673796,0.4755314,-0.21964729,-0.64676833,-1.2377226,-1.4986929,0.4353347,-0.04655922
MDA-MB-453,-0.27321416,-1.4885769,-1.9035187,1.7149737,-0.013080382,0.9070659,-0.5263481,-2.357511,0.7377753,-0.1838602,1.7121092,0.66302943,-0.769023,1.0998679,-0.39504394,-1.1257346
NCI-H28,1.1068959,0.42450473,1.2764739,0.92042196,-0.32911053,-1.776749,-0.94132537,-0.6735453,0.8290286,-1.7313882,1.322348,-0.7965821,1.4750475,-1.4197094,-1.0793941,-0.21901214
COLO 818,-0.94961715,-0.13004027,-0.39717057,-1.8565294,-0.023669431,-0.6696092,-2.0692337,1.6889188,-1.4260263,-0.9929883,2.1379795,0.590457,-1.1427963,-0.23950648,-1.4512299,0.09626016
8-MG-BA,0.4944202,-0.5551499,1.781724,-1.0423175,-0.6792251,1.2439111,1.0753683,-0.4737551,1.3144445,-0.580537,0.4031003,0.46975416,-1.2980161,1.0836469,0.72615993,2.8974931
COR-L51,-0.4944794,1.052723,-2.2190957,0.29091787,-1.1200752,1.4945887,0.13748722,0.662592,-0.74814093,-0.6433311,-1.4583571,-0.7397097,-0.1348796,1.2328628,0.8214138,-0.2361285
HCC1897,-0.3021838,1.187175,0.28879014,1.3344512,-0.68807465,-0.3588983,-0.09579837,0.49573845,0.49147555,-0.51793903,0.2503184,-0.7417468,-0.22392866,0.54179484,1.2009836,-0.48438308
Hs 934.T,-1.0406877,-0.33679593,0.17183854,-1.7181598,0.121915564,0.7854814,0.25800806,0.4675154,-0.018974679,0.79933006,-0.46934205,1.2811913,-0.10721987,-0.404335,-1.1952777,-1.6453968
KMS-11,-1.2261274,-0.095622346,-0.97824806,0.016290154,0.44309062,0.9306074,0.5037852,-0.78773165,0.2968862,0.44030792,-0.13516082,-0.70700467,-0.744784,-0.8850846,-0.033223838,-0.15337263
LOX-IMVI,-1.0782574,-0.11758681,0.91282547,0.6897465,0.07538119,1.4789706,-0.612268,1.4500766,-0.64343446,-0.7813206,0.06150375,0.54076064,0.8142757,-0.7839527,-1.0500269,0.35136986
NCI-H1385,-0.8881217,0.065700434,-1.6348884,0.246647,-2.15121,0.5489525,-0.72321755,0.07695405,0.6395078,-0.66455734,-3.1070566,-0.7653276,-0.5410758,-0.47397587,0.4005866,-0.064606205
OUMS-23,-0.7630108,-1.3260857,-2.229504,-0.2982177,0.33326596,-1.7821501,1.5270504,0.09339418,1.140993,-0.7573869,-0.08518632,0.37383476,1.110442,-1.2701505,-1.8990746,1.4534177
ML-1 [Human thyroid carcinoma],-0.57529145,-0.59496224,0.4105139,-0.11914633,-2.5957375,0.39214727,-0.20955962,-0.63852566,1.4359626,-0.8060881,0.5338092,0.08264813,0.3027122,-0.07820609,-0.40657032,0.46394137
TUHR4TKB,0.2773409,-0.10608102,1.2738252,0.09435339,-0.2788597,-0.6565572,-0.59369147,0.24170321,0.90740174,-1.5860693,0.3217605,-0.06186805,0.7502338,-1.8686831,0.41899273,-1.2003663
NCI-H1436,0.47734815,0.8177675,-1.8759769,1.3346368,-0.42632174,1.459073,0.37222847,0.16084698,0.30684218,-0.29840022,-2.330696,-0.99182963,0.6610563,1.1882454,-0.6160872,-0.31644166
NCI-H2286,2.8258853,0.26637292,0.85865897,1.0513966,0.5506671,0.48650745,0.13963717,1.0812355,-0.26144335,-0.105287045,0.2850413,-1.8134074,0.9202929,0.3889041,0.011073111,-1.8598706
EJM,-1.0711367,0.13634437,-0.72239107,0.10410987,1.2530801,1.0913286,0.5744745,-0.21896212,0.18849981,0.98946506,-0.55768776,0.28063196,-1.7889999,-0.9471983,2.0609808,-0.16671568
SNU-878,0.24886538,0.55054945,0.7196232,-1.1201038,-0.4271833,-0.4745937,-0.8984148,-1.2613468,2.110967,-0.86390895,0.5290855,-0.516521,-0.85237026,-0.5522386,0.44130614,-0.09574209
CH-157MN,-0.82652813,0.65831476,1.4167813,-0.43433416,0.47942618,1.0062035,-0.087846644,1.0364864,-0.98561907,-0.09526489,-0.65726644,0.29134145,-1.1343434,0.15244037,0.48120418,-1.2089596
HPB-ALL,0.024019942,-1.5079111,0.019404635,3.0755918,-1.0705174,1.1531768,0.5470787,-2.5203724,-0.4874441,-0.18575191,-0.6395166,-0.21029818,-0.20980869,-0.2062481,-1.4771545,1.0578238
EB2,1.4082991,-0.68657035,-1.288368,-1.2608508,1.9187019,-0.2694406,1.065845,1.1377184,-2.3144126,0.9184997,0.72535086,-0.2540796,-1.7453679,-2.506598,2.0602894,-0.070222884
EPLC-272H,-1.1282667,-0.7921005,0.66898483,1.897044,0.012417808,0.028818179,-1.063296,1.6812073,-0.8885555,0.8429879,0.9763272,1.0338621,0.10554827,1.6164848,0.089627355,-1.9707173
JIMT-1,-0.9253077,-0.23215738,0.54575145,1.8003373,0.27132952,-0.4541459,1.3655553,-0.319237,-0.17622153,-0.37960815,-0.7150435,0.66775364,0.92623556,1.240668,0.5490619,-1.2678396
ST486,0.008671382,0.17784186,-0.83546793,0.3613112,1.0106025,0.58394486,0.64338106,-0.02035969,-2.846114,-0.14379469,0.0015244558,0.2265495,-1.0843881,-0.42767382,0.81459296,-0.04997861
Ishikawa (Heraklio) 02 ER-,1.5482417,-1.7235605,-1.8177745,0.21058483,-0.8647944,-0.3397818,-0.40418503,0.55071306,0.69479316,-0.9060366,2.887858,-0.38617274,2.5686858,-0.6435783,-1.1644114,1.6034584
OS-RC-2,0.59362817,-0.8236188,1.9706208,1.2081288,0.90882,0.6033667,0.42666718,-0.41432214,2.34361,-2.560855,-0.2500502,1.556452,0.09559628,0.42560497,-0.1613663,0.74179643
TIG-3 TD,-0.6233428,0.46277118,0.82003796,-2.0888176,-0.22588725,0.9274248,0.6362443,0.18413256,-0.22453305,-0.09094933,-0.9020255,0.6464172,-0.3958786,0.3945884,0.047630254,-1.2165892
UT-7,0.18936709,1.5238235,1.0075659,0.81892467,1.0702331,0.7497836,-0.6250262,0.4092002,-0.978825,-0.5544963,0.31623262,-1.8110964,0.76802367,-0.82315904,1.0329303,0.9119202
SNU-685,0.30191064,0.58692485,1.1328696,-2.3607936,-0.6583125,-0.95752734,1.7367411,0.037603978,0.6388615,-0.13503073,-1.1462103,-0.9034913,0.031963997,0.72801274,0.21251975,0.8112917
NCI-H1581,0.25856256,1.1506453,0.35116848,-1.2364961,-0.34333435,-0.7875252,0.76194704,-0.17945972,-0.559082,-0.78433913,-1.1842788,-2.0262687,1.0672029,0.72087497,-0.109292686,1.3639
HCC1500,-0.52928025,-0.1094702,-1.6434156,1.0747002,-1.2351539,-0.8078651,-0.26350334,-1.2499073,0.25390863,-1.2691981,0.6014502,-0.61409026,-1.1259934,-0.14374577,-0.47641453,-0.69437313
CAL-85-1,0.98350537,0.13943426,0.4688165,0.6053505,-0.59085524,-1.7522204,1.1068134,0.23496342,0.95584947,1.0570412,1.1097271,0.57287425,1.7183465,0.04483259,-0.0020032674,-0.32032514
NCI-H520,0.14529082,0.9603298,-1.4581021,-0.5260171,-0.2086859,0.4250854,0.42574188,-0.50770366,-0.2361625,0.44413266,0.13273641,-0.8183984,0.7721457,0.457167,-0.50598985,0.46507862
NCI-H1373,-0.16970319,0.4464379,1.4603434,1.1490303,-0.23538855,1.3261186,-1.2437966,0.057140727,0.2895477,0.4711049,-0.5150377,1.6719999,1.041234,1.3243898,1.0835863,0.79284
SW1783,0.4773507,-0.6689256,1.7436347,-0.82935435,-0.43719867,2.289979,0.1800854,-1.0622829,1.6787953,0.2772517,1.0902939,0.5679999,0.4349375,1.6008005,0.11819221,-0.06235513
Kasumi-2,0.55253476,0.057200674,0.79233164,2.0517864,-0.04937531,-0.17586538,-0.12442698,0.3669633,-3.5340743,0.56250685,-1.2600777,-0.2941824,-0.44927856,-0.35058358,0.73899347,0.67897564
RERF-LC-Ad1,-0.35319793,0.6041596,-0.22886053,1.6587435,-0.28328714,-1.134872,-1.2642741,1.9456491,0.68728435,-0.5718666,-0.9444597,0.4765248,0.06579614,-1.0673409,-0.2855873,0.44861
MOLT-16,-0.9892466,-1.154091,0.47820425,2.4785235,0.29414597,0.30103385,0.8059614,-1.654658,-0.8766899,-0.40227827,-0.21550992,-1.9431674,-1.2000858,0.7370833,1.0570016,0.20956598
CAS-1,0.8006298,0.5887997,1.0618331,-1.2881656,0.043864526,1.8730847,-0.1859012,0.035814032,0.8718362,-0.77706474,0.23499285,-0.18107747,-1.0975442,0.43431574,-0.5538028,-1.0857744
Jurkat E6.1,0.6485497,-0.122952096,-0.63211924,1.5612108,-1.2919762,0.0735732,0.12890187,-0.716867,-2.486981,-0.89703315,0.11806926,-2.1075845,-0.4131531,0.11156681,0.14665523,0.5715437
PANC-1,0.36605182,1.2730255,1.2617639,-0.083788596,-0.5723291,-0.40040794,-1.2750157,-0.014009194,-0.67376685,-0.684377,-1.5242838,0.17090309,-0.06577429,0.16774361,-0.1600184,-0.023834648
SNU-C4,0.42434734,-1.0404718,-0.78366303,1.8980454,2.1451607,0.8488328,-0.7561928,-1.1760437,3.0920472,-0.44402373,0.77282256,1.8733603,-0.01762864,2.6878362,-1.3348782,2.3980188
SW403,-2.14435,-0.19028357,-0.47707668,-1.2890257,0.546929,-3.0268106,-0.30026805,-1.628552,0.6238364,0.6802516,-0.9982685,0.41230974,-0.38883168,1.4814111,0.78699726,1.5357822
Ki-JK,-0.7620154,-1.1636338,0.40601796,0.07073639,0.21330683,-0.34366998,0.13266145,-0.8441494,-0.3041306,0.9814788,1.5032504,-0.2594205,-1.8543966,-0.48886597,-1.1924593,0.073282376
RD,-0.39594415,0.10707651,1.0013697,-1.3006406,-1.1120445,1.9289645,-0.14962396,-0.5846173,-1.7485809,-0.52071905,0.38418302,1.0585413,0.18940991,1.7065221,-0.9394759,0.53912127
JHH-4,0.55053365,0.5825201,1.5635117,-1.0775689,0.6350595,0.12612845,0.15446717,-0.8357097,0.7389197,-1.0008484,-0.14531392,0.38203448,0.87419885,-1.1514419,0.67503333,0.023500877
SK-HEP-1,0.06792748,-0.8272411,-0.036006924,0.6013192,1.5203471,-0.3344194,-1.0786852,2.5856862,-1.6904888,-1.5719919,-0.48304692,0.02968781,-0.67658395,-1.3309416,-0.62199175,-1.7081159
LK-2,0.7584456,1.4538268,-0.9278844,-0.61651003,-0.15046263,-1.4766657,1.1878301,0.31545758,-0.38245654,0.13059777,-0.20675518,-1.5518373,0.8523978,1.2733401,-0.29924053,1.8922988
YMB-1,0.31857857,-0.04861939,-1.2843506,0.77623814,-0.9988995,-1.2754173,0.50019073,-1.8933636,0.8184044,0.0076189516,0.87922025,-0.31123462,-1.4630973,0.34636092,-0.1688723,0.09265718
U-937,1.2783369,0.6553154,0.7670065,1.6070912,0.9775916,1.1484594,-0.07914902,0.3401424,0.34643728,0.8668529,1.8725588,-1.0526731,-1.4731159,0.152043,0.009733759,0.611263
D283 Med,-0.045141313,0.6426274,-0.44649565,-0.2898785,-0.18287799,1.0965375,-0.0572732,-0.48271307,-0.5962885,0.11094973,-0.6491484,-1.6192787,0.3115257,0.4753687,-0.43776813,-0.12865984
HCC2218,-0.37791255,-0.77456015,-1.8299818,0.94823664,-0.94817436,-1.225732,0.2240336,-1.138834,1.0846502,-0.011078822,0.86167496,-0.043384623,-1.5576462,-0.6216783,-0.41297504,-0.5876338
F-36P,-0.055517305,1.5412674,0.98558086,-0.4587568,1.3100104,0.88071716,-0.2622813,-0.39226186,-0.6528502,-0.4378529,0.14865217,-1.3264195,0.24266502,-0.64221907,0.81803477,0.95714706
MDST8,0.68727136,0.0011779703,0.17342807,-0.37768766,1.4549747,0.98729575,0.012932108,2.4322553,0.3834585,-1.7380143,-0.34333277,-0.20736307,-0.5804412,-0.8686298,-1.2903205,-0.013926143
NCI-H358,2.8981743,1.593276,0.76481515,1.3763715,0.24542202,0.3178606,-0.36442962,0.5958905,1.1405152,0.19515322,1.9134629,-0.0012948513,1.0633355,1.1832387,0.13685134,0.87868875
KYSE-70,-0.8531605,-0.35805428,0.30447122,0.56359345,-0.6033041,-0.25281066,0.98427117,-0.44897923,0.48229715,1.3554307,0.23167038,-1.0763104,0.41021785,2.3632514,-0.5946635,-0.2641166
JVM-2,-0.15130576,-0.995706,0.4365351,1.0470747,1.6019336,-0.091696754,1.0531684,0.02832259,0.019140892,0.5458655,0.2772667,0.40306196,-0.79509914,-3.10739,1.5796615,-0.05702658
SNU-1105,0.06684592,0.16328278,1.2693377,-1.6666756,-0.7108679,0.93089986,-0.25318888,0.25317457,-0.24332573,-0.8010884,-0.35646415,0.2831655,-1.0302272,0.2949793,0.10325371,-1.3002572
G-292 clone A141B1,-0.9410152,0.14288281,0.26721975,-1.9278572,0.29451123,0.9934432,0.13570058,0.0037675519,-0.58851075,0.269303,-0.08516506,0.5218326,0.3592924,0.022583794,-1.5686166,-0.6746502
EoL-1,-0.54009104,0.21785201,0.7333567,1.6313446,1.0760735,-0.34453863,-0.42460132,0.62179077,0.08754462,1.1051544,1.5923713,-1.5243758,-0.6121028,-1.5171769,0.0076451153,0.5873691
Mino,0.8040927,-0.07279407,0.4368496,1.0415254,1.8391588,-1.144039,0.9018578,-0.6679502,-1.7414253,0.75553644,1.547397,0.38300818,-0.23922652,-1.3672771,0.23816158,0.7358996
WM793,0.24172449,-0.027506186,0.26163426,0.8919894,0.9052367,0.7863137,-0.8145859,2.2826674,-0.56822735,-1.9373087,1.0771736,0.6843769,-1.2561346,-0.32592142,-2.04325,-2.0015464
Hs 766T,-0.81698656,0.33823478,0.8611122,0.06936144,0.013446957,-1.1923424,-0.35459286,0.8272222,-0.5022935,1.3948584,-0.7499168,1.5988756,-0.33147526,-0.25327274,-1.6884999,-0.3741917
BICR 56,-0.89266354,-0.77587545,0.24495645,0.9577323,0.114844956,0.064546056,1.453101,0.088150606,1.0119896,2.3571594,0.45931196,0.9187329,0.5457375,1.7103034,1.1313608,-1.2302862
NCI-H1648,-0.1040735,1.0475338,-0.065000825,0.816574,0.3003581,-0.51281875,0.6227818,0.95583475,0.6097577,1.0814219,0.37497568,0.43800318,0.31122798,0.14626484,0.92366683,-0.10933095
COR-L105,0.9840384,0.27933404,1.1183509,-0.38496333,-0.14344856,-1.321771,0.45941493,-0.7611859,1.5831006,0.56890064,0.9200743,0.10680676,0.9777896,-0.62742966,-0.14330141,0.24767093
SW579,-0.6847768,0.5821625,0.9073541,-2.0010133,0.30141208,0.92374974,-0.074119344,0.3058336,-0.7000573,0.27727497,-0.3223284,0.8933201,-0.96084017,0.60709345,-0.39526826,-0.89242107
SNU-738,0.8889406,-0.7238922,0.21673878,-0.06572987,0.05256229,-1.0602007,-0.20976917,0.5797128,-1.8479986,-0.49487737,-0.60418296,-0.42167413,-0.98481226,0.16912888,0.53542405,-2.614058
SW1710,0.6787309,0.40002948,1.8707838,0.08139724,-0.4064255,-0.5274062,-0.09898431,-0.26845536,0.37675068,-1.9833145,0.09363495,0.16195315,0.13920678,-0.8818754,0.9965583,-0.8230688
639V,1.6729912,-1.6816589,0.5630892,-0.16240513,0.9283376,0.8775238,-0.12611562,0.48132637,0.3433871,-0.34674188,-2.531106,-0.013396869,0.97939473,1.0264044,-0.60471886,1.757871
SUP-B15,0.15389995,-0.514637,-0.20735312,1.3368802,1.2753854,-0.68436843,0.9671477,1.7397226,-2.5677996,-0.29285187,0.15403947,-1.1739072,-0.7091465,-1.0680501,0.7369037,1.1130854
FU-OV-1,0.75341314,0.34779456,0.813978,-0.020607296,-1.68246,0.16146588,0.20540771,-1.9775407,-0.5382078,-1.7873363,0.73143613,0.86063117,2.1901293,0.3594783,-0.30941918,0.86672664
HOS,-0.16357076,-0.23301871,0.80166894,-0.22727497,-1.0283865,1.7480408,0.6075933,-0.9535711,-1.4272923,-0.23208192,0.14470401,1.208673,0.60270655,0.8419837,-0.31595445,0.3567833
SNU-213,0.4166621,1.0307645,0.46203926,0.6101337,-0.12767634,-1.3143739,-0.115558326,0.61852974,0.4152233,0.8773869,-1.5692639,1.4768403,1.1136421,-0.38129783,0.77302265,-0.07792006
Caki-1,0.0028611624,-0.40335155,1.6734563,0.38650638,-0.8865526,0.5655375,-0.42850026,-0.7360067,0.8780573,-1.1432393,0.4523424,0.6403713,1.1900731,-1.2592057,-0.08104913,0.03008064
CAL-29,-1.0974922,-0.2747833,0.62769264,1.7771792,-0.18658622,-1.3609554,1.9178271,-0.09724764,0.2649068,0.991091,0.26778132,0.94887704,1.1755269,2.176243,-0.04059281,-1.1362734
EN,2.351899,-2.510096,-0.43759114,-2.0554821,0.40209582,2.9034972,0.20496924,-0.9192711,-0.0348842,-0.8335747,-0.27470663,0.6263931,1.0119098,2.2340398,0.94339967,3.5924814
Hs 172.T,-1.2775329,-0.32224238,0.16628349,-1.5950127,-0.3564994,1.020666,0.21594031,0.47232988,0.72287476,-0.18592519,-1.257345,0.32218835,-0.7016462,-0.99864984,0.105430655,-1.3390363
HuNS1,0.55723,-0.42661595,-0.40569112,-0.10407091,0.1353568,0.7686545,1.0287375,0.62544626,-0.5426103,0.5000654,-0.2468823,0.9869066,-1.5130298,-3.268961,1.1178781,1.9666414
GCT,0.53996944,0.10428665,0.72377795,0.71181154,1.6837114,1.7273506,0.008190616,1.8712113,0.15104802,-0.6067619,0.28483906,0.2286772,-0.510746,-0.82004845,-1.0280244,-0.4877081
SF172,0.18478219,0.7239967,0.30426502,1.0184118,-0.31952506,-0.6879555,0.26943168,0.89992684,-0.80349874,-0.23921663,0.52216053,0.32174334,0.75888103,0.4898576,0.7874054,-0.73935676
T98G,1.3670784,0.15923496,1.1881977,-1.1614169,0.6522111,0.26775914,0.84801227,0.20867136,0.81946945,-1.1262169,-0.05883205,-0.08638347,-2.0592923,0.40647608,0.1456058,-0.09109851
OVSAHO,0.4427269,-0.14091223,-0.8169758,-0.67289364,-0.3652668,0.07912208,0.8469269,-1.3870118,-0.88034207,-1.197676,-0.5131057,0.6370696,0.21317214,-0.45631516,0.31382057,-0.76810753
EFM-19,-0.7165629,-0.90945256,-1.5366417,1.6638747,-0.26459864,1.0337068,-1.3916457,-1.3824432,-0.5280787,-0.47445154,-0.016924735,0.7632332,-2.1770344,1.3410455,0.7860193,-2.8634126
MDA-MB-175-VII,-0.4712412,0.03724841,-1.9932762,0.860956,-0.502228,-0.8710689,0.44777125,-0.49355084,0.38983533,-0.10962361,0.28102443,0.4875944,-1.7814219,-0.14818934,0.8724382,-1.2160686
Hs 618.T,-1.1541994,0.19339977,0.19185054,-1.9164644,0.22128078,1.2882073,0.102291144,0.7312592,0.38936242,-0.024065971,-1.2078412,0.6730642,-0.16571322,-0.7354068,-0.44849122,-1.2868907
Kelly,-0.45040992,-0.39367372,-1.0674137,-0.9948331,-1.5302105,1.1081792,0.20069072,-0.82118094,-0.8330005,-0.072119504,-0.9090559,-1.2495888,-0.96711075,0.7728244,-0.52751875,-0.48437345
RERF-LC-Sq1,-1.3056364,-0.9986164,1.7451773,0.8421631,-0.6991154,0.8636856,-0.0043755653,0.19780177,-0.16859056,-0.8873678,0.3331611,1.3245959,0.051649705,0.9059786,0.14888957,-0.640328
OCI-Ly3,-0.23561437,-0.82250726,-0.4136532,0.43655697,1.6215714,-0.16099675,1.169464,-0.4772868,-1.1568811,0.5664962,0.59389246,0.5213518,-0.2613153,-2.1554809,-0.064909406,-0.03467309
Fu97,0.32068038,0.8621719,0.15478703,-2.4633493,0.39596632,-1.6792125,1.4190356,-1.9568492,1.1244935,-1.4722383,-0.71669567,-1.0202554,-0.30799693,-0.30757692,0.382427,1.1902689
Panc 04.03,0.038412914,-0.8994131,-0.30349097,-0.13009952,0.9035619,-1.4884318,0.264405,0.9569021,1.270189,1.7430211,-2.24501,0.6213387,2.4035149,-0.97010636,0.048608948,1.7651792
SK-MM-2,-1.036234,1.0430268,-0.43153992,1.793517,1.0660994,1.4432999,-0.75871724,-0.38231173,0.30494568,-0.9010753,-1.2831075,-1.7275343,-1.080661,-1.4219567,2.5418518,0.02720572
SK-MEL-24,-0.9487775,0.11340185,-0.18454559,-0.5113283,0.9146844,0.2503945,-1.4459038,1.5542972,-0.5567984,-1.3598807,1.3969618,0.81290144,-1.8858458,-0.27664897,-2.2031722,-1.2277482
TE-14,-0.6289566,0.10306114,-0.7237954,-0.802764,-1.1713761,-1.5983697,0.18421619,0.23021086,-0.31616148,2.312153,2.0801938,-0.17886959,0.4672068,0.8485444,-0.066950604,1.180669
JM-1,-0.53169507,-0.3443131,-1.467501,0.6868224,1.2109851,0.37184545,0.46222082,-0.042556506,-2.8199155,-0.12507045,0.32833794,0.17636134,-0.7033904,-1.1118147,-0.25786054,-0.030688616
NUGC-3,0.89682716,0.7352894,0.6510661,0.6694772,0.59918916,-1.0918552,1.0469679,0.53074425,0.23208477,1.125746,0.7129247,0.4880707,2.2770329,-0.24046189,-0.059175912,0.10896887
B-CPAP,-0.33808154,-0.19901127,0.73053277,-0.25279754,1.0066208,-0.34201866,0.9311641,2.2812707,0.5262489,-0.9935041,-1.1790504,0.20471463,-1.6278211,-1.2636245,0.39218068,0.25533238
WM983B,-0.84514874,0.3919309,-0.43689358,0.32563126,0.97884434,0.28951964,-1.4782087,1.6661557,-1.2224102,-1.4886105,1.3277495,0.20667323,-1.5197136,-0.15792064,-1.4481218,-0.66026175
KYSE-180,-0.0065563265,0.33866256,-0.022592138,0.3878667,-0.6366991,-0.92044806,1.0543745,0.7672171,0.17617197,1.9336919,1.1935022,-0.6386963,1.8643034,0.73371077,-1.5345821,0.42093173
COR-L88,-1.2572833,0.5597229,-2.5979722,-1.1064113,-1.5797188,0.86905473,-0.50548583,0.41010597,-0.9825064,-0.1679191,-0.78478247,-0.9823133,0.8286917,0.1954307,2.051995,0.89092565
SH-4,-0.8880947,0.71940595,-0.23760113,0.66872793,0.3080733,0.10413304,-1.6848984,1.6891506,-0.101962134,-1.7631656,1.0909169,-0.9291507,-0.41650006,-0.26762497,-1.642828,0.08364592
BL-70,1.1827502,-0.2438231,-1.9819279,-1.7178595,1.5822693,0.09461511,0.91126674,0.5981768,-3.1581743,0.17026962,0.6629228,-0.35838982,-1.3850448,-1.4176282,1.370468,-0.07349868
HCC2108,-0.7433364,-0.80935985,0.47216722,0.03409488,-0.34168237,0.9107274,-1.8209876,0.97605014,0.08796277,0.87113595,-2.1639295,0.118259706,0.8512849,-0.7985787,-0.65788466,0.24219431
JHOS-4,1.0741804,0.20927045,-0.79353493,-0.18530405,-0.53383327,-1.0794053,0.89169496,-1.1498407,-0.24847163,-0.522519,0.31637612,0.662383,1.4981041,-0.2431764,-0.3123956,-0.1897452
OC 315,0.7590234,0.19594136,0.23805492,-0.09897528,-0.018940028,-0.0030169375,-0.38107738,0.046595357,-0.32564297,-1.3295034,0.04403405,-0.0033442518,0.9039311,-0.772427,0.29124936,-0.29052925
IMR-32,-0.764988,-0.63198775,-1.7026279,-0.6005436,-1.1732868,1.3547847,-0.32677838,-0.386343,-1.5484289,-0.121948384,-0.63767344,-0.88692456,-0.97787297,0.5388892,-1.4757658,-0.58538175
SNU-869,-1.915804,0.36508903,0.29733455,1.8069379,1.286679,-0.69013685,-1.0238307,-0.6590799,0.5045204,-0.4897765,-1.8899382,1.0185195,0.7391291,0.69378835,0.74537337,-0.25649145
Hs 255.T,-0.4257123,-0.061447285,0.08719461,-2.2275343,-0.5363357,0.84285736,0.8003063,-0.10392136,0.3143095,0.22615734,-1.2593604,0.9366784,-0.6122915,0.034444407,0.2814009,-1.1807705
SNU-46,0.03098702,0.514028,1.0186701,-0.41407928,-0.5220753,-0.33076012,0.54439044,0.3960191,0.17599791,0.61703664,0.076572075,-0.16154423,0.71100664,0.25202882,-0.23032852,-0.31190643
LN-382,-0.6701225,0.64200646,1.0105336,-1.2960771,-0.513812,0.34368485,-0.18680057,0.070940174,0.43138173,-0.3016085,0.14149855,-0.04735906,-1.8647003,0.732107,0.100075155,-0.86922204
GR-M,-0.38127634,1.7705977,1.2105992,-0.30556583,0.2698994,-0.19139905,-0.19934656,0.1360921,0.55327857,-0.36516795,-0.080261946,0.09336287,0.42532197,0.42704633,0.030288056,-0.4888349
COLO 201,-1.6653932,-0.31203398,-1.8882186,-0.59945583,2.4932034,0.7655301,0.5490668,0.24285516,1.7717943,-0.4019603,-0.087587416,0.4025442,1.8738672,0.629316,0.47310218,0.82401264
NCI-H69,-1.7477082,0.51559776,-0.89833295,0.9672448,-0.59112304,1.2136879,0.4635403,-0.27177754,0.12859029,-0.48380348,-1.3739827,-1.0807012,0.3095011,2.7486284,0.4561154,-0.60988235
WSU-DLCL2,-0.145333,-0.17927244,-0.23226435,0.9558529,0.83141667,1.6868554,0.7820315,-1.4596136,-2.249443,-0.3916873,0.17312002,1.2068774,-0.07739129,-0.61588705,1.166694,0.7858103
HCC1419,0.08276687,0.1610551,-1.9002422,0.97122765,-1.0442723,-1.0516424,0.22129327,-1.2256125,0.055582717,-0.67828655,0.37553585,0.21114552,-1.6890918,0.5627984,0.34962368,-0.73992056
IA-LM,0.19574633,1.0443163,1.5967609,-0.6159184,-0.6230484,0.0806805,-0.23063983,0.8209704,-0.51648325,0.6165035,-2.7089505,-0.048919823,1.132301,-0.3562284,0.60226905,0.50129986
TC-32,-1.2126392,0.52634907,-0.77744895,-1.7083055,0.048746813,1.0348232,0.781122,-0.6013229,-0.940552,0.744902,0.33202553,-0.020810641,-1.1725354,1.4964137,-0.7219255,0.2805667
DBTRG-05MG,0.22054209,0.34452942,-0.62579,-0.92842925,-1.5464109,0.16992813,-0.7315724,2.2046347,0.05574233,-2.11525,0.041476138,0.6427447,-0.6543968,-1.7239472,-1.34945,1.0798322
SW1417,-0.46661115,1.2241275,-1.421573,-0.66655916,1.624003,-0.9427095,0.6886882,1.1387126,0.31846398,-1.261189,-0.31070495,0.7406255,0.29373205,0.3001982,-0.69724387,0.94835436
HK-2 [Human kidney],0.5331935,0.6726801,0.8223074,1.0293165,-0.6675828,0.35813665,0.094294265,0.03284122,0.78288245,-2.0063314,-0.94045615,-0.91168594,0.4717375,-0.9738748,2.2046964,-0.88353693
COV504,0.52814794,0.5997763,0.61885816,-0.89024717,0.3242613,-0.3919345,0.26151082,0.28882727,-0.9918829,-0.6083778,-0.08493425,1.5997087,0.28731573,-0.23308094,-0.36661547,-0.8881991
SU-DHL-8,-0.28064924,-0.8402747,-1.7436786,0.9166662,1.7100644,0.8324021,0.19828059,0.8847717,-2.6595273,-0.9508691,0.29560065,0.878734,-2.0934408,-1.4672296,-0.19857813,0.22352134
NCI-H1184,-0.2166139,0.72199553,-1.3840734,-0.42305323,-0.875232,1.1876798,-0.15530194,0.1631407,-1.2846859,-0.91847247,-0.9445949,-0.858029,-0.008821319,0.94904244,-0.12320343,-0.32029334
DoHH2,-1.0939944,-0.7276568,-1.5209163,-0.59504426,0.90527123,0.578269,0.46126595,0.09465172,-3.2338848,-0.08207248,0.028132495,0.09770173,-0.17437974,-1.8232261,1.3612267,0.556404
MKN1,-0.6409379,-0.89394265,1.421849,1.5148304,0.5204124,1.7732615e-05,0.7901953,-1.2740355,0.96609306,0.3626068,-1.5619366,0.373989,0.101525135,2.3526611,-0.81641215,-1.0322849
MDA-MB-468,1.2852898,-0.37276074,-0.005823659,1.7103484,-1.17235,-0.15078798,1.1278936,-1.2365896,1.0882511,0.34698284,2.5208254,1.4834983,0.5644859,1.0352182,-0.22101575,0.5578104
NCI-H3255,0.3366801,1.0175464,-0.21206734,1.7922801,-1.0787784,-1.7708127,0.5544283,0.8780567,1.5745255,0.22756651,0.86057025,-0.40589926,1.1756024,0.11035186,1.0316983,-0.358061
NCI-H650,-0.48319918,-2.4779432,0.7027656,-2.3100615,0.33781707,-0.07497141,-2.895255,1.5833491,-1.4987744,1.9374142,-3.106577,-0.4861785,1.0756017,0.04992844,2.0937166,1.0867895
NCI-H2405,-0.24648488,1.7556671,0.91172343,-0.2427971,0.24285334,-0.33377218,-0.5857117,0.63557637,0.7979945,-0.15338662,0.0012459345,-0.29261082,0.46664065,-0.09922349,-0.07416374,-0.38985556
C2BBe1,0.57351637,1.2456797,-0.35353807,-1.8504207,0.26706848,-2.427825,1.9560848,-1.3877934,1.6921678,-0.37463942,-0.1702536,-0.5488457,1.3568846,0.100377664,-0.052048765,1.2158815
NCI-H727,-0.6487161,1.5561156,-0.89049244,-0.6989138,-0.8228494,-0.09566159,-1.0723809,-0.8673529,1.5219104,-0.16261958,-2.2281444,0.02935819,-0.8360069,0.08011744,0.9423489,0.25828293
SK-ES-1,-0.58554655,0.52233756,-0.58669806,-2.1758583,0.16819504,-0.08665628,1.6040506,0.10133274,-1.1881591,0.66015893,-0.17982408,-1.0784824,-0.7553785,1.9664024,-0.7232109,1.611011
LS1034,0.03025307,1.5083619,-0.20640653,-1.5460624,1.2157218,-2.334173,0.25087866,-0.9826107,0.31535998,0.13733084,-1.6475847,1.0057702,-0.6732896,0.87121147,0.42959797,1.8348246
AZ-521,0.27827564,0.8050062,0.09661736,0.52630544,-0.8540053,-0.4954093,-0.22664762,-0.088987984,-0.5880015,-0.7892523,0.28975537,-1.555394,3.1900394,-0.38738453,-1.9069076,0.09518848
OE19,-1.1276467,-0.25927618,-2.4581947,0.19993186,-0.099261165,-0.28447977,-0.9554441,-1.3531953,2.6457903,1.6926126,0.8066317,0.42420053,1.5221678,-1.3518274,-1.9370445,-1.0193012
JVM-3,-0.63167703,-1.1045036,-0.23518485,1.770827,2.4132226,0.07924513,0.6463274,1.0946761,0.32871577,-0.48239133,0.29433662,0.7064574,-1.3321708,-3.7617147,0.97656155,0.5006918
NCC-StC-K140,0.5483889,0.1902363,-1.1928858,0.18965611,-1.4431251,-0.50316983,0.7088176,-0.093318425,-0.24903755,1.8512479,1.0555758,0.8316777,0.48019117,0.08355332,-0.93564636,-0.9660866
YH-13,-1.9513426,-0.7556017,1.3834248,-0.8777805,0.19009559,0.5939432,0.41870058,-0.47462016,0.5404841,-0.52021444,-0.4146754,0.24044389,-0.28263408,1.1484394,-1.0495579,-1.6956508
OVKATE,1.5329747,0.33307853,-0.5532289,0.16099986,-0.52041864,-1.5729458,0.8534137,-0.54865676,-0.7189524,-0.7491113,0.92054236,0.7356439,1.1605449,-0.27318555,-0.3237412,-0.0039280253
NB4,-0.0724814,0.75899714,1.3787562,1.1765313,-0.25286677,-0.82439685,-0.9854537,-0.28430015,-1.0419871,1.1545808,-0.3270231,-1.1705657,-1.3154591,0.2178697,-0.18726067,1.4385601
SCC-9,-0.99158114,-0.6426906,0.24560095,0.8084145,-1.4976587,0.48451266,1.1222107,0.5298469,0.56922865,1.8751309,0.68578386,1.3781846,0.89221376,0.7445694,-0.10573895,-0.29154223
SET-2,2.3902183,1.7554746,1.3423177,0.73495996,1.5753422,1.9805592,-0.13339472,-0.26020202,-0.42478535,-0.41238782,1.2301266,-1.1740068,0.16644673,0.81910723,1.344476,1.2313576
HCC364,-0.037051655,1.51781,1.0743848,0.53918195,-0.110492416,-0.083485276,-0.7381462,0.9610514,0.15410511,-1.1109543,-0.0072080605,-0.19544286,0.43419445,0.26889294,1.0195061,-0.76497036
HCC15,0.2658255,0.8483853,0.5794007,-0.55926067,0.44937566,-1.0757602,0.26504424,0.7094626,0.26926157,-0.44656023,-0.5523496,-0.7563742,-0.6542202,0.32720834,1.2948096,0.9722942
HT,1.1354798,-0.19084373,-0.68172425,-1.301266,2.3661675,-0.97286737,1.3878176,0.2335827,-2.6701114,-0.08601013,-1.9422911,-0.90009546,-1.4780415,-0.65842026,1.9397178,-0.029358976
RPMI-8226,0.67471635,0.03178406,-1.1733551,0.034186542,0.009506548,1.4174249,-1.514435,-0.8831126,-0.44565195,1.994865,-1.416658,0.6426706,-1.6052934,-1.5297936,1.1378733,-0.19992231
NCI-H211,-0.25980437,0.68719095,-1.5850523,-0.729425,-0.12206975,0.43968356,1.0034913,-1.3004687,-0.5640786,0.36988205,-0.37811795,-0.39967445,0.466013,0.43319276,-0.02214587,0.622471
NCI-H684,0.030006077,-0.9558058,-1.6652286,-0.31916302,1.5455158,-1.4091352,-0.18869102,-1.000756,2.6941762,0.7972063,-2.3680124,1.2505292,0.15685806,-0.5668537,-2.0720494,1.5634061
MOLM-13,-1.0478829,-0.27372918,0.6168122,0.5559028,0.02122578,-0.8984627,-0.8645125,0.9807182,-0.36301884,1.646792,2.249126,-1.5875641,-0.1249978,-1.6024439,0.61795175,1.901661
DB,-0.33420035,0.13479447,-0.4639628,0.054592043,0.6037778,1.4885541,1.1808641,-1.803909,-2.096881,-0.34781444,0.36598828,1.5565948,0.04122427,0.14795057,0.56543213,0.8944057
BEN,-1.8403816,0.5607903,-0.70388377,0.7489172,-0.3801427,0.60224485,-0.23918815,-1.5703185,2.3473265,-1.4895705,-1.7219757,-1.2081276,-0.14159243,1.4155878,1.5404985,-0.6146
CAMA-1,1.7081506,-0.23663132,-1.948977,0.36869252,-0.8016024,0.96408135,-0.31233728,-1.7485652,0.2191129,0.028178342,1.1664695,0.5150659,-1.9182092,-0.14044167,-0.514896,-1.620082
42-MG-BA,0.86168104,-0.019865949,1.1668487,-1.1436799,0.12811658,1.1943105,0.749174,-0.0006146757,0.3144496,0.73387647,0.8841189,0.49636585,-0.6354733,0.81420094,-1.3434274,-0.78424454
HCC1833,-1.2945296,0.37205148,-1.1985756,-0.16965286,-1.5466884,1.989357,0.10428529,-1.9035531,2.4802155,0.33792478,-0.5984697,-0.47821477,1.2620368,1.2286446,1.6827533,0.8209144
SNU-475,-0.133913,-0.5317864,1.1695503,-1.1019205,-2.086324,0.765424,0.34982938,-1.8305635,0.94839954,-0.104096,0.36767775,1.1331767,-0.2919883,0.69728184,0.14613697,0.5186917
KP-N-SI9s,-0.28415254,-0.7014962,0.5431806,-1.4585894,-2.3979502,-0.64237636,-0.33199662,-0.8763278,0.37529972,0.4952579,-1.6824665,-0.42709717,-0.25549442,-0.08097502,-2.147259,0.033124465
U2OS,-0.568957,0.020092884,0.0881634,-0.60171247,-0.8699058,0.028497051,0.232932,0.2952544,-1.0639294,-1.1489978,-0.13629943,-0.008712574,1.1182302,-0.095325656,-0.9683346,-0.33968243
T24,-0.19278815,0.35220063,0.89018613,0.3314671,0.35680968,-0.20027708,0.23986973,1.502326,-0.9311038,-0.5950762,-0.012231243,0.64165854,1.1121706,-0.92017365,-0.51143605,-1.0289567
Hep-G2,-0.9800275,0.7419203,-1.0248708,-1.2539444,0.32894215,0.0925193,-0.17257017,-1.9178417,1.5270267,-1.4102292,0.14770828,-0.5170985,0.3481843,-1.03668,-0.24909604,-0.16758227
BxPC-3,-0.38267022,0.93714684,0.18686487,0.3390066,0.5899581,-0.6599162,1.3918322,0.58033067,0.4836991,1.8391358,0.37082747,1.3088124,0.70222944,0.7995723,-0.090460114,-0.6110748
TCCSUP,-1.9892839,-0.8825274,0.51698166,0.3029916,0.1755415,0.5140625,0.57141185,-0.34548318,0.92091864,-0.48331782,-0.7623814,0.1026918,-0.59528524,0.5826535,0.3646644,-1.3257219
BC-3C,-1.6559225,-0.44505498,1.2465833,1.1997869,-0.14751017,-0.9297751,0.37832627,0.34842852,0.50741905,1.1271122,0.61234486,0.0029027462,0.71569854,1.7360183,-1.343221,-1.0027754
NCI-H1092,0.31958792,0.24754386,-2.343729,-0.8105153,-0.17231557,1.0899433,-0.77159107,0.74597645,-1.1456833,-0.68274254,-2.0655491,-1.6101749,-1.2344192,1.0917987,1.10943,-1.6825155
GaMG,1.9328622,0.062303513,1.850797,0.17923217,1.5744666,-0.03450207,-0.98827296,1.1172111,0.07023585,0.04391987,-1.451051,-1.1654258,-0.9038966,0.48691905,-0.45827508,-1.8364904
NCI-H2106,1.1822613,0.23458573,-2.0803564,0.10593388,-0.5695737,2.8918087,0.761053,0.018120682,-0.116888136,-0.77689123,-0.89365184,-0.50358796,-0.23489799,0.6705816,0.67232317,0.005667545
WM266-4,-1.1842953,0.46133947,-0.43467644,-0.22932068,0.6202384,0.34644672,-1.5658016,1.4649434,-0.2449365,-1.3408006,1.4156905,-0.21045466,-1.4922837,-0.0056436015,-2.0549593,-0.5075338
SK-MEL-5,-0.70525867,0.6354876,-0.4338914,0.07217873,0.6042747,-1.3247198,-0.97242355,2.0856397,0.13370508,-1.7626024,0.8860298,-1.642386,-0.68007797,-0.2898147,-1.4572446,1.0163149
COLO 680N,0.25784236,0.33583838,0.4449425,1.06557,-1.1572788,-1.1386585,1.4170088,0.6317217,0.50678444,1.1705766,0.38544318,0.103172176,0.945745,0.57692856,0.41539708,-0.6307291
KYSE-450,0.5618834,0.5667015,0.94691014,0.876693,-1.8816761,-0.6455051,0.40167958,-0.50643027,0.047522716,1.2853822,2.210249,0.08041614,1.6576183,1.8279136,-1.3539298,1.773684
NCI-H2172,0.5315372,-0.91925234,0.27226734,1.4666728,-0.3036958,-0.34035054,0.6072027,-1.0906253,0.92006886,0.36748585,-0.7168615,-0.6649554,0.28935164,-0.13237752,-2.323095,-0.8218539
COV362,1.3088641,0.26420557,0.34683704,-1.5546768,0.6707701,-1.0027664,1.560395,0.26921403,-0.9031935,-0.5817525,-1.0086063,0.5209398,0.37395072,-0.42686802,0.30325407,0.7345236
TE 159.T,-0.8392116,-0.37998697,-0.19868962,-2.0312588,-0.20284645,0.69681925,0.47686026,0.251554,0.4165308,1.0806426,-0.43465814,1.166315,0.17905182,-0.32764205,-1.3388009,-1.4698602
Hs 839.T,-1.3504956,-1.4024957,-0.23002169,-1.9323486,0.1579176,0.77481717,0.14769897,-0.028434483,0.51898336,1.4560301,-0.7287503,1.3306726,0.49746042,-0.46273127,-1.9207577,-1.1670079
GOS-3,1.4164139,-0.60062176,-0.00079137366,-0.3239511,-0.9611928,0.61244833,-0.076832704,-0.4087909,0.7109028,-0.94440496,1.3712198,-0.26924118,-0.25561652,-0.025239676,-1.8202925,-1.1001765
NCI-H1793,2.892726,0.17689216,0.573035,-1.8687407,-1.1096889,-1.9498496,-0.32987776,1.4865954,0.47939503,-0.090541884,0.05803375,-0.34390762,-1.1422951,-0.9354571,0.5742567,2.8542647
A-253,1.0685177,0.4373164,-0.07352239,0.96201444,-0.16076276,0.40722594,1.1041752,0.74106854,0.064190276,1.2912059,1.6151185,-0.05192132,0.081148066,1.4055551,-1.0702051,-0.47285324
KP-N-YN,-1.1187401,-0.9263474,-1.2398319,-0.36502352,-2.3485405,2.1201293,-0.17829198,-1.0458763,-0.79375976,-0.14066312,-0.4744639,-0.21758965,-0.4563488,0.9004137,-1.1419699,-0.08891821
Li-7,-0.31593877,0.70553637,0.16597402,-0.39095005,-0.71358335,-0.81114733,-0.6697339,-1.1711259,2.3788037,-1.0208217,0.34620345,-0.89824176,0.9804919,-1.11043,-0.43831298,-0.030355308
SW480,-0.23809129,-0.21253842,-0.07858124,-0.078666165,0.27874,-1.1799911,-0.3200688,0.8662428,-0.24757534,-0.12315464,-1.9691077,0.6721922,1.1461248,0.1989027,-0.7466229,1.4390229
HEC-59,2.1458848,-2.961329,-0.55391556,-1.0905786,2.0617747,2.4111865,-0.50199854,-1.3144356,-0.45786875,-1.1502045,1.3999413,0.7278069,1.1094882,2.8929439,2.301968,1.0070167
M059K,0.7138011,-0.22818007,1.2672223,-0.8260696,-0.7348669,2.0117106,0.5569027,-0.70241153,-0.013391579,-0.6542312,0.9493432,1.884307,-0.1109624,0.82810915,-0.3349243,-0.11780942
FTC-238,2.0949512,-1.1388264,0.22612369,0.06380698,1.0385847,1.5043631,-1.8353479,0.94212866,-0.29528832,0.5011865,0.1463692,-0.55234855,0.024051234,-0.20308883,-0.7100481,-2.222299
MKN74,-0.06032465,-0.072486594,0.45703915,0.85073435,-0.78880596,-0.7333345,1.0174559,-0.09946877,-0.7710381,-0.442241,0.43891585,1.1002389,0.5505967,1.4522433,0.74791366,1.6774695
MOLM-6,-0.025035817,0.4994415,1.164281,1.3140918,0.5906263,0.47498336,-0.35439128,0.2191669,-0.6707439,0.6252725,0.5025394,-1.741674,-0.9143357,-0.47894445,1.0435269,0.6317682
OCI-AML-2,-1.0929724,0.1550178,0.5406291,1.454566,0.80541986,0.11573818,-0.5219169,0.8539187,-0.55066466,1.1980051,1.4314511,-1.1582369,-1.4476552,-0.92873794,0.24809738,0.3893971
RKN,1.5158831,1.2017312,1.3988173,-0.85288066,-0.70238715,0.96581775,-0.65227854,1.3132387,-1.61174,0.048407827,-1.8985351,1.68967,-0.7883271,-1.163682,-0.14904533,1.4921687
L-1236,2.3803372,-0.6744088,-0.19918248,0.35201994,1.3953767,2.3690293,0.8067278,-0.92927796,0.94555473,0.06211716,2.1119094,0.41448694,-1.4231782,-0.68405086,-0.3979897,-0.052254744
SUP-T11,0.12064514,-0.84378487,-0.6127679,0.46977437,-0.4346639,0.43179876,0.42672762,-1.9659593,-1.1527817,-0.6173097,-0.17786965,-1.1744561,-1.8121712,-0.5416496,0.72240967,0.20824845
T-47D,-0.6382594,-0.622079,-0.5181122,1.7842784,-0.6746493,-1.0172601,0.6993894,-2.0281081,0.5094324,-1.171071,0.11260673,-0.5001445,-0.9005549,1.5067924,0.2174599,-0.7294822
SU-DHL-5,0.6700262,-1.4412743,-1.0160843,0.54667485,2.310271,1.8158336,1.9318875,-1.2198117,-0.7151717,0.6118039,1.1541123,-0.31737176,1.399645,-0.69584954,0.28052405,-0.68170375
TE-1,0.38282576,0.2627159,0.32204497,0.47952586,-0.5939822,-0.48140502,1.1714686,0.330068,-0.28031638,0.43359432,-0.02468974,0.15241812,1.4138023,0.16257611,0.2562047,-0.51494724
TE-9,-0.33677122,0.2531175,-0.77248776,0.25899017,-0.06637163,-0.5490841,1.3591444,0.047728185,0.06446744,2.000115,0.90478367,0.7969988,-0.22051552,1.0873276,-0.17476916,-0.2593764
Daudi,0.40403593,-0.0003880039,-0.81570965,-0.55281633,1.9210026,-0.28175193,1.9562376,0.44223562,-3.048325,-0.7225248,-1.3157618,0.06248588,-1.7484901,-0.71654934,2.0816717,1.0004956
CFPAC-1,0.3962725,1.0727514,0.6761621,0.100071475,0.38706443,-0.87828285,0.52492255,-0.11378221,1.4278424,1.518818,-2.1748564,0.9390822,1.8062551,-0.8273642,0.8138722,0.16105315
A-704,-0.27208132,-0.1848546,0.48415372,0.13320728,0.6089545,0.37485898,-1.0444406,-0.5740282,0.80588096,-1.4585177,-0.11779823,-0.35200268,0.13209876,-2.0550718,0.5314248,-0.8882204
HEC-265,2.4950104,-1.4140388,-2.0465627,-0.28989798,2.5426133,0.5477723,0.291588,2.338988,0.7903724,-0.6164378,-1.1227843,0.30257505,0.83512664,-1.4107065,-0.23833829,-0.20428939
SBC-5,0.70984304,0.2581959,-0.12536559,-1.536456,0.28149757,-0.23213314,-0.79059386,-0.2903444,-0.69218594,-0.05012761,-0.9240861,-1.9221574,-0.105781175,0.18359737,0.2541874,-0.85288996
SNU-1272,0.43690893,-0.2984943,1.230561,0.3387788,-0.10715469,-0.63573873,-0.3906107,0.2371556,0.6843239,-1.5920469,0.14884166,0.08428186,1.1614879,-2.0839236,0.19092223,-1.1651647
HPAF-II,-0.5947039,1.5443041,-0.08463158,0.14427434,0.5935084,-0.8555542,0.049291074,-0.79474765,1.2934409,1.061285,-1.6016251,1.4770315,0.5379881,-0.01712561,0.12909797,-0.17784955
MDA-MB-415,0.3453958,-0.7272844,-2.4554389,1.0308393,0.44274554,0.4421247,0.62088555,-0.24193381,1.7058308,-1.2980175,0.80366325,1.0095432,-2.2382307,-0.55476135,-0.2549498,-1.1824626
SNU-387,-0.10803736,0.28748342,1.3420652,-0.9411222,-0.13761151,0.13009135,-0.3174799,0.40388685,0.10109978,-0.37995633,-0.064597435,0.6624774,-1.3408921,-0.19661115,0.6982401,-0.9382244
143B,-0.5943532,0.45521823,1.0407274,-0.1396245,-0.106223196,0.086979926,-0.55062056,0.7258094,-1.8830619,0.0169849,-1.5821053,0.59070843,0.53454345,-0.20799555,-1.5614793,-0.14394286
NALM-19,-0.22687806,-0.37056196,-0.6119117,2.2352798,0.50925505,0.4042832,0.23125306,0.83889776,-2.358824,0.23385006,0.51083755,-1.1582488,0.34366363,-1.3811365,0.36613864,0.22535098
ME-1 [Human leukemia],-0.6983721,0.52336615,0.76509076,1.7093259,1.0499997,1.0948102,-0.8152431,0.6703103,-0.43921083,-0.03743188,0.15415363,-1.9151355,-0.024310898,-1.4212793,0.6604002,0.47573152
LS123,0.5754565,0.7439352,0.41854873,-0.5758507,0.38799506,-2.3715355,1.18586,0.4261574,-1.0688502,0.39076293,-2.225776,1.7129987,0.08393258,0.7332982,0.57470435,0.9509932
UM-RC-6,0.4907722,0.98605293,1.125831,0.8041075,-0.32780328,-0.8480376,-0.6788655,-1.1115359,0.001315492,-2.4241185,0.5239622,-0.46496361,-0.08887461,-0.27837774,0.62443745,-0.6968197
HMC-1-8,0.09799022,1.2590218,1.2499307,-0.4181152,-0.881118,-0.43939236,-1.281943,-0.23756078,-0.63556015,0.52367437,-1.6026528,-0.5201105,0.52617276,0.6013495,-1.1483797,0.9324575
Caki-2,-0.56088436,-1.0195178,0.22602849,0.5389697,-0.055895794,-0.19071607,-1.2350981,0.24156749,1.4064859,-1.5802319,-0.17323005,0.06633961,1.487953,-2.0499163,-0.2741049,-0.09550012
Hs 695T,-1.9403512,-0.412342,-0.9198058,-1.497394,-0.10739909,0.71052474,-2.0558689,0.955606,-1.3818593,-1.8385881,1.7686504,1.6413404,-1.1735036,-0.11585738,-0.5374315,0.23965546
Lu-65,-0.88815653,-0.842062,0.13752562,0.103641406,-0.12168997,-0.31901947,-1.7956473,-0.5616065,1.4474856,0.9482256,-0.65818244,0.56055224,-0.3008883,-0.6122319,-1.1525567,0.8042458
MOR/CPR,1.6735119,0.57077855,-0.65561944,-0.47468674,-1.1869713,-1.3099128,0.22383259,0.10087616,-0.31981504,0.057616625,-1.258058,0.978141,-1.4257241,-0.1792029,0.5319721,3.573746
T3M-10,0.51829845,0.1422772,1.1786684,0.35239738,-0.38366613,-0.7093625,0.21446341,-0.18626155,0.39902288,1.2692006,-1.5646273,0.96864223,-0.37633994,-0.29797357,0.8863246,-0.11212292
COLO 792,-1.6594186,0.24432692,-0.19688559,-0.16380109,-1.0058757,0.26497847,-2.4537358,0.6560378,-1.576614,-0.8144552,2.2948143,-0.15274371,-0.087220326,0.5893652,-0.22310652,0.325001
KMM-1,-1.5755007,-1.4099952,-0.6087591,0.4345895,0.2011514,2.3987339,-1.1073197,-1.8249755,-0.1253653,1.032527,-1.3630725,0.6118586,-0.05899342,0.5624492,-0.11706375,0.18594326
NCI-H196,3.2108154,-0.13727805,0.72856903,-1.5778611,0.23944005,2.444438,1.447586,-1.1648142,0.6466944,-0.08176499,0.8219425,1.0432181,-1.4274088,2.3778195,0.23866054,-0.8327855
HCC1588,-1.2821156,0.66503495,-1.9950525,0.4892897,1.0630666,-1.5333451,-1.246222,0.30954245,1.1378084,-0.41446182,-0.05009421,2.045129,-0.9104653,-1.0765034,-1.599371,0.24775246
KU-19-19,-0.68100405,0.65205,0.06960781,0.84511095,-0.48763654,-0.6060767,0.592564,1.7958832,-0.21719402,0.66003263,0.4422593,-0.43635705,2.5751362,0.029799718,-0.8059269,-0.53628117
NCI-H522,1.2223388,0.29192668,-0.034992255,-0.9193847,-0.061249726,-0.61093926,-0.11975742,-0.17249104,-1.1335443,-0.21874687,-0.7370005,-1.9079701,0.7361107,0.495376,-0.16804805,-1.0308474
LC-1/sq-SF,1.5243113,0.21745998,-0.71831656,-1.516309,-0.8035704,-1.3258482,0.23453411,1.5053984,-0.5940507,1.3946071,1.7770585,-1.7467664,-0.7072616,-0.017539483,-0.18159257,0.09943776
PE/CA-PJ34 (clone C12),0.0050677033,0.7579805,0.49908546,0.75664407,-0.5163602,-1.0714197,1.1904625,1.0643805,-0.12756519,1.9294616,1.1611818,0.37091327,0.4723912,1.361181,-0.49333563,-0.12840009
HEC-1-B,-0.321568,-2.276947,0.26725355,1.3632965,1.333237,-0.8961792,-1.2464042,-0.74295115,1.0991305,-2.686941,-3.2544818,1.0136373,1.1986302,-0.059315637,-1.7740653,1.4876109
Hs 822.T,-0.7197494,-0.65682834,-0.25092563,-1.9749953,-0.46156272,0.73783374,0.7207059,0.22977825,0.37535742,0.8976993,-0.73043126,1.3896098,-0.10649371,-0.48243004,-0.920835,-1.5101498
SK-N-FI,-0.36591253,-0.28499207,-0.7611557,-0.86459666,-1.391745,1.6582971,-0.5017031,-0.26946825,-0.9044251,-0.5945067,-1.0328625,-1.169744,-1.910006,0.8749501,0.017128022,-0.79642487
SNU-C1,-0.70724255,1.1336491,-1.3918816,-0.78217846,0.771307,-0.69198024,0.26106304,-1.3955257,1.2505981,0.7460937,1.0189457,0.82584536,-0.63123596,0.52935433,-0.37634698,0.029894039
CW-2,0.7520643,-2.9615567,-1.8761108,-0.70762575,1.7721944,0.74113584,-4.0188375,-0.750165,1.3366622,1.4856958,0.70586216,1.918968,-0.11630803,1.429585,-0.0078603625,1.9318455
SNU-245,-0.29077464,1.2539246,-1.2311994,-0.49550188,0.36398023,-1.4097228,0.38866737,-1.4624254,1.4040419,0.8644748,1.3659668,0.5940645,-0.07159076,0.6442621,-0.71548927,-0.028467078
SNU-899,-0.9736301,0.41686633,-0.35223737,1.4788017,-0.11199744,-0.4839073,1.0578616,1.5931957,0.782473,1.4618696,0.046207815,0.042908814,1.1313392,-0.27504888,0.30940133,-0.7224459
NCI-H2087,-0.45834538,0.5081944,-0.72002834,1.2250673,0.3961752,-0.100315265,-0.27099353,1.4557344,1.1865368,-0.5500233,0.5784011,-0.2854333,0.43155172,-1.0745908,0.032324202,0.7915829
NCI-H1105,-0.025549104,0.94372094,-2.1196213,0.1343195,-1.1731594,1.3716221,0.0456531,0.60851526,-1.3719118,-0.98741245,-0.90136796,-0.6203954,0.18810478,1.0925723,0.6984132,-0.22336091
TOV-112D,0.3978312,0.9723703,0.41631898,-0.8532036,-1.1717582,0.29441425,0.70656556,-0.73993844,-0.35877112,0.38024318,-0.20703347,-1.6710883,2.0868895,0.7306338,-1.340598,0.6218194
HCC1569,0.437996,-0.3802752,-1.4154812,-1.6516368,0.017554957,1.1090279,-0.28820813,-0.55976146,0.2434568,-0.3289226,1.7105658,0.30794257,-0.7829202,-0.08353636,0.6449422,-0.22892188
OVISE,-0.054735504,-0.68420994,0.38539147,0.77885175,0.3980288,-2.1061924,1.8195142,-0.8831282,1.0476305,-1.2526582,-0.8555799,-0.06790974,2.555869,-0.5327274,0.829135,0.8173292
786-O,1.3963944,0.37249833,1.507327,0.27848172,0.94199616,1.1625533,0.23696978,0.15540332,0.91806793,-1.2426739,0.21321583,0.21778749,0.28282905,-0.8293846,0.7156334,-1.2293777
Granta-519,-0.73505265,-0.7117566,-0.47785333,1.0133497,1.8898197,0.5216726,0.558522,0.27729017,-1.3778927,0.47686228,0.17766672,0.46317172,-1.0559762,-2.214993,1.1417247,-0.32694986
PK-59,-0.99370974,0.37733832,-0.56668186,0.25127935,-0.012124615,-0.6200278,-0.08212927,0.5852825,-0.028407387,0.7175758,-1.7574433,1.827955,0.4054692,-0.31674728,-0.38367712,-0.5633416
BT-549,-0.36025518,-0.51648724,0.4840713,-0.58520424,-0.24802049,0.41068783,-0.058304653,0.00839706,-0.16329807,-0.24119392,-0.031575043,-0.122802585,0.18470031,-0.92785543,-0.96340245,-1.1683505
NU-DUL-1,0.038198665,-0.087561,-0.1813499,0.8400004,0.8896849,-0.03673981,-0.18930389,-0.42872375,-3.474729,0.412777,-1.2622573,0.9477643,-1.8195803,-0.476052,0.28151083,0.40118337
NCI-H1563,-1.2286211,-2.1978872,-0.80806863,0.03088601,-1.0140586,0.1409806,-0.19700591,-0.32882148,1.3245778,0.57599366,-0.7218126,-0.058651958,0.31106997,-1.4662683,-1.0230105,-1.0437647
HEK TE,0.17430854,0.26942554,1.0738816,-0.1715898,-0.53595287,0.46587306,0.45848298,0.40771252,-0.935578,-1.6179507,-0.83078533,0.56807566,0.1057747,-0.29369408,1.0531644,-1.5548978
LNCaP clone FGC,1.7243338,-2.0492058,-2.2530105,-1.5069607,-1.2412108,0.7351365,-1.3211101,-0.6821309,0.44109258,0.16904372,1.9850512,0.41305622,-0.23209324,-0.53645724,0.4804951,3.3642073
IST-Mes1,-0.25842863,-0.8085548,0.23296292,-0.010129383,-0.7931588,-0.005464282,0.38132912,0.2523033,-0.7562518,-0.59837896,-0.7129953,0.4009161,0.29131413,-1.2042717,-0.67190766,-1.5038372
Hs 281.T,-1.1536745,-0.14016461,0.27176264,-1.8245237,-0.16861673,1.2159297,-0.008800602,0.84344786,-0.2086613,-0.021105982,-0.99058765,1.216365,-0.6289099,-0.3580191,-0.32998252,-1.6819872
JMSU-1,1.3639207,0.5129405,1.9683927,-0.37620747,0.53386694,-1.5943453,0.83767706,1.1502682,-1.6029427,-1.2896945,-0.34547165,-0.342073,0.72211385,-0.20759566,0.023081519,0.5303041
Hs 729.T,-0.21026005,-0.36666128,1.0882004,-1.3409568,-1.1020924,1.4052525,0.318791,-0.83866984,-0.3231276,0.15271173,0.45580065,1.6121945,-0.17814492,0.83090353,-0.5928755,0.08999495
LS180,-0.34957662,-1.563585,-2.141809,0.025527801,1.4126848,0.24181059,-1.7880538,0.6514745,1.7607805,-0.7234966,0.7694373,2.476646,-0.74891734,0.17583525,-1.0327717,4.0445504
COLO 783,-0.6689652,0.35530448,-0.4822338,0.17009418,0.42822054,0.42605916,-1.8002505,1.6095984,-0.7416525,-1.6843407,1.3584423,-0.16254844,-2.1736677,0.14725919,-1.1790531,-0.7949102
CMK-11-5,-0.6901948,0.51811486,0.44287732,-0.62904173,0.06940707,0.023466472,-1.1997287,0.15050082,-2.0158336,-0.037222162,0.9753204,-1.7068472,0.7370186,-0.75014275,1.3304064,1.985235
NCI-H2081,0.844417,0.96729594,-2.9173136,0.6356437,-1.0677524,2.800952,-1.0584476,0.41857705,0.13124114,0.03669714,-0.3788158,-1.1020826,0.63310635,-0.0710472,-0.33532798,-1.1122015
SW48,1.2620168,-3.7571146,-0.18352485,0.50445986,1.9827532,-2.7900188,-2.3148642,1.418082,1.1645361,1.4228925,1.9872113,0.29448304,2.0413606,0.8148798,-1.8343123,3.4030423
HuTu 80,0.15783824,0.81020784,-0.017423172,0.20751707,-0.8469704,-0.3420653,-0.103330374,-0.1770557,-0.37136206,-0.5766922,0.081766,-1.6856838,3.019454,-0.47726846,-1.9834051,0.026431954
HuP-T4,-1.1236213,-0.5501152,-1.3490129,1.3938022,0.6074946,0.038302284,-0.91753477,0.86967343,-0.1427821,0.66453385,-1.5447662,1.9605496,0.5988911,-0.5243286,-0.12656385,-0.2807167
BT-483,-0.5692788,-1.0686526,-0.9284304,1.5429085,-1.6567495,-0.7251802,0.905186,-2.0138042,0.31511927,-1.8696333,0.049738396,0.80887127,-1.3677874,2.3443234,0.8610337,0.79721147
Hs 870.T,-0.4167445,-0.044682164,0.27059698,-1.9640021,0.36369717,1.0807914,0.48932344,-0.049500696,-0.6283755,0.6507958,-0.66243047,1.4190489,-0.8921356,0.30484048,-0.46761447,-1.4848304
SNU-C5,-0.6058862,-1.736839,-0.11579479,1.2904242,2.1206956,-0.68577796,-0.1698397,0.85619026,0.36176276,-0.3112044,-0.46844336,1.1716319,2.1033618,1.6018571,0.39990738,1.3009981
UACC-257,-1.8890358,0.08979053,-0.7332242,-0.3516755,0.27074727,0.20763548,-2.138642,1.8872272,-1.2422527,-1.0388488,1.5262095,-0.5905729,-1.068771,-0.21317817,-0.5802031,0.76990724
IOMM-Lee,-0.54797965,1.1166817,0.9156899,-0.028730694,0.42965806,1.0293051,-0.19951881,0.90937865,-1.6254768,-0.7646941,-0.75578105,-0.09261568,-0.45389375,0.5462173,0.44967896,-0.7611981
CL-14,2.0537815,1.7221531,-0.74972326,-0.9206569,1.2903862,-0.5566654,1.7829688,-1.1246891,1.3644425,-0.2052666,0.83029616,1.3173181,-0.07588472,1.9146173,0.84534645,0.9264326
COR-L279,-0.7481313,0.826723,-1.5467948,0.2928631,-1.0527259,1.7890077,0.39633867,0.2060374,-0.29673803,-0.41556075,-1.8982934,-0.777164,-0.3179449,1.2805154,0.8767477,-0.78961974
P12-Ichikawa,2.2818282,-0.68801683,-0.61822873,2.1215696,0.2535309,1.3232999,1.2120278,-1.4744976,-0.47529882,-0.23988183,-0.3584011,-1.6347842,-0.8338986,0.48390463,-0.9022853,0.58803713
YD-10B,-0.5275381,-0.055892803,1.0014158,0.7283917,-1.5268235,0.526804,0.63457876,0.6192874,-0.38919777,1.79888,1.4536072,1.3364253,0.24481007,1.9345984,-0.15375479,0.50032043
NCI-H929,-1.8133802,-0.6338,-1.2221279,-0.7020944,-0.1787295,0.8809231,-0.27330405,0.36013278,0.1050489,0.7035514,-0.21998566,-0.772427,-1.3529234,-2.0121968,2.0800428,0.7830355
BHY,-0.6260549,0.20256975,0.4432421,1.5011235,-0.4182961,-0.85050064,1.0036749,1.9149134,0.6948365,1.7023168,0.7117353,0.16206567,1.2053638,0.0021194438,-0.05941228,-0.83685017
SLR26,0.81655467,0.47845396,1.8368651,0.43385413,-0.8395797,-1.1907457,-0.5500303,-0.13738824,0.65223664,-1.801654,0.6265016,-0.7458563,0.25022525,-0.8130195,0.9769626,-0.89665836
HCC1359,-0.5089671,0.09166372,1.3824995,0.34849608,-0.46480045,2.1393354,-0.59495145,0.37297568,-1.3695621,-0.1320809,-0.23180819,0.72347236,0.1480194,0.42217645,0.38529396,-0.18479455
CAL-33,-1.2798747,-0.120066345,1.4855629,1.6828773,-0.33506742,-2.3295546,2.3634777,0.31053382,1.1208544,1.2280704,0.16982858,0.14245975,0.20341855,2.7824135,0.7556525,0.7087529
SNU-308,0.97933215,1.5985315,-0.5367541,-0.14065184,-1.139264,-0.545367,0.9714426,0.7728979,0.457755,1.7340797,0.7554044,0.9346565,0.8719293,-0.17914045,-0.31627494,1.9659243
NCI-H526,-0.5405454,-0.068571866,-2.147435,0.0097628655,-0.7142256,1.2462423,1.1487142,-1.773468,0.058910348,0.5443408,-0.70476747,-1.3936203,2.363122,1.3047953,0.48765832,-0.27575526
NCI-H1395,-0.4946264,-0.4954026,-0.9595225,0.8524882,-0.60695314,-1.2868559,-0.53622645,-0.4078572,2.8055935,-0.74069405,1.6731288,-0.73320085,-1.3636886,-1.5398345,-0.9041723,0.8607565
KNS-60,0.2246918,-0.16735016,1.3273329,-1.1925151,-0.70870346,0.61362845,0.2955289,0.12435975,-0.3838083,-0.52134454,-0.27798367,0.29813784,-0.8440955,-0.0680942,0.47997102,-0.7851827
EFO-27,0.55952764,-2.383645,-0.17951721,-0.56293225,0.85862505,0.9569636,0.07025016,0.07961979,1.1018412,0.7339406,1.8141482,0.7169565,2.0005255,0.3973354,0.39437982,0.04526993
KMS-20,-0.7837123,0.096819766,0.049958915,0.07344585,0.59859467,0.58993256,-0.32359436,-1.0377055,-0.44343838,0.64189637,-2.1113265,0.433419,-2.8376184,-0.94456947,1.3627013,0.2886743
MEC-1,0.21049123,-0.36604795,0.18902974,0.95727324,1.6658239,0.03130985,0.93649036,-0.07509073,-1.0843576,0.67269343,0.31359798,0.15544854,-1.1900779,-1.9718535,1.4991324,0.15569311
HD-MY-Z,0.94522375,1.1454057,1.4778917,-1.1267506,-0.27708656,0.8018724,-1.7447991,0.44731733,-1.0461003,0.6380421,0.7930967,0.096038,1.2058592,-0.71226245,-1.1579194,-0.844619
IPC-298,-0.24079688,1.5976995,0.89674926,-0.14865467,0.6703899,0.11642314,-1.6535069,0.7421293,-1.148275,-0.61524016,1.3744773,-0.739051,-0.90371364,0.9584757,-0.76446897,-0.5453008
KE-39,-0.015777335,1.316833,-0.23678604,0.051883712,0.30915484,-1.6876538,0.12530662,-1.3670918,1.4286137,0.38223392,1.4648476,-0.17942636,1.1331391,0.10540987,-0.66282415,0.5369048
KMS-28BM,-1.9643742,-0.0036664605,-0.2623836,0.9392071,-0.40539032,1.8859777,-0.6248738,-1.4534919,0.6231548,0.76109743,-1.6802917,0.45650458,-0.7804938,-0.6232838,0.45584098,1.0486453
UM-UC-1,2.04708,0.75849336,-0.27806666,0.92223334,0.25189358,0.37390798,1.0808272,0.75789654,0.5118616,0.8277986,1.6998317,1.7471181,-0.5014039,2.1390662,0.6461636,-0.67009455
Hs 944.T,1.9392093,0.14013611,0.19171719,0.7037417,2.9421315,1.3689221,-1.3046416,1.3579017,0.23008993,-0.37781554,0.10902473,-0.72046554,-1.520975,0.84153724,-1.4895146,-2.5560458
SKM-1,0.8332403,0.5476305,1.7650107,2.2046885,0.34922692,-0.25815302,-0.65661454,-0.24393976,0.10531293,1.6838118,-1.6613019,-0.9262683,-1.1682417,0.37400657,-0.8900427,1.3049531
NOMO-1,-0.4687617,0.32643902,1.4986908,1.876453,0.75260764,-1.4515003,-1.4103278,0.31007066,-0.57369184,1.0952955,0.647433,-0.306552,-1.2330016,-1.1902696,-0.6480296,1.1086135
JHH-6,-1.0454203,-0.064686805,0.90624225,0.107559,-0.5952413,1.2541938,-0.36803988,-0.36251092,0.43387443,-0.5630081,0.23422424,0.91958386,0.10262667,-0.45835635,0.20283787,0.124829575
AM-38,-0.71757275,-0.10422324,0.3264873,-0.14258648,1.006582,0.8589203,-0.33293352,1.90341,-0.9189054,-1.200876,-0.08840239,0.6011613,0.21602267,-1.2198573,-1.1164247,-0.049694657
Reh,1.4917684,-0.99241954,-1.435669,-0.51878256,0.6552508,0.9604502,-0.43641546,2.147161,-3.0804884,0.02098773,1.6965649,-1.3415762,-1.0575349,-1.5132192,1.6826847,0.57848555
A-172,-0.24148549,0.051433533,0.5323165,-0.91798544,-0.7368241,0.5029788,-0.31441423,0.3665556,-0.26107648,-1.1675657,-0.4490623,-0.03546602,0.24543925,-0.484373,-0.7883067,-1.1066883
NCI-H1355,1.2282419,0.17604189,1.5994592,0.11009903,-1.5722648,-1.7539532,-0.739282,-0.68779725,0.84211457,0.85910726,-0.5086487,-0.7833902,1.1496706,-0.30143625,-0.55434537,0.95704883
RERF-LC-KJ,0.5575667,-0.056961834,-0.5006117,0.9053671,-1.2088197,-1.6119808,1.0569313,-0.7206236,1.7814865,0.927878,0.7590678,-0.5747882,0.049901552,-0.54354,0.7691493,0.07455984
SNU-16,-0.41289118,1.103786,-1.272702,-0.26194465,0.1700114,-0.41597787,0.041681126,-1.2245398,1.7421088,1.0182589,0.70322764,-0.13089558,-0.82533085,0.6320307,-0.082529835,0.6817642
TE-11,0.17162955,-0.1704948,-0.10321313,1.6229293,0.56394905,-0.005203206,0.72768176,1.2593726,1.0340186,1.7512702,-0.10632599,0.42894036,0.58120537,0.6930971,-1.5963484,-0.10046679
Ku812,-0.15253833,1.5267789,0.57203585,0.42649642,0.8561525,0.571645,-0.10164431,-0.35462487,-0.93671465,-0.10381501,0.0700631,-1.7407417,0.75479853,-0.27807897,0.5510125,1.2003865
HCC70,0.9084504,-0.016448647,-0.77497786,1.1835339,0.12795337,0.35063747,1.461378,-0.3328098,1.4190121,1.0171169,1.111764,0.62014484,-0.17801808,0.55714107,0.019467682,-0.78818405
SK-MEL-2,-0.6741714,1.2934297,0.45918334,-0.3131792,0.5166166,0.47232196,-1.7744129,0.71741426,-1.1670643,-0.92037106,1.1877946,-0.20919718,-2.0514066,1.046032,-0.16329184,-0.7740499
CMK-86,-0.4502362,0.99496174,0.4081651,0.9769281,0.8332459,0.45446652,-0.44348514,0.14540587,-1.0604068,-0.4275586,0.47676706,-2.0462008,1.4017134,-1.2055169,-0.015842471,1.4520524
KP-3,0.3605088,-0.10120303,1.182615,-0.38502365,0.30492926,0.26543444,-0.51799315,-1.5048326,1.6497796,1.0271646,-1.6742463,-0.038738236,2.5892267,-0.28631958,1.1469697,0.5194664
COV644,-0.4945594,-0.044385865,-1.3281788,-0.022370387,-0.16001663,-0.2623115,0.8224459,-0.12156149,0.75381136,0.45057467,-0.49887452,0.7473387,0.96041334,-1.0785053,-0.25040945,-0.79755056
G-361,-0.41753677,0.5381082,-0.39813083,0.7870283,0.091965884,-0.10231801,-1.4595044,1.5342671,-0.12119613,-1.5662379,1.5619938,-1.0324444,0.01912776,-0.20973283,-2.065442,0.48027584
SLR23,0.46506482,0.51995414,1.7320577,0.64638346,-0.37335908,-0.78597194,-0.4876644,-0.027076297,0.04137853,-1.914048,0.13030483,-0.12774026,0.5190164,-0.9694534,0.8501633,-1.2078737
MFE-319,4.646729,-2.476326,-0.3986872,-1.5844008,1.9811549,-0.50612897,0.90968114,0.15475824,1.7132891,0.6275856,2.504821,0.1868065,2.3186145,1.0478767,-0.68402636,2.572742
HARA [Human squamous cell lung carcinoma],3.4570053,0.8489925,-0.3028502,-0.6454185,-0.13890596,1.4817016,0.38093498,0.39305335,0.14246203,2.625979,1.763109,0.18458554,0.7941241,1.2609113,-0.65291953,0.19456539
A-1207,-0.00033286028,0.9073851,1.3446726,-0.3679203,-0.018955791,0.42002794,-0.7145715,1.3942763,-1.4531894,-1.3271577,-0.22022597,0.4887903,-0.70781773,0.17991255,0.42709732,-1.2215145
BJ1-hTERT,-0.5434897,0.2527052,0.5218873,-1.6506166,-0.39527977,0.70981014,0.71767145,0.17829826,-0.4946826,-0.20182659,-0.82168204,1.1692816,-0.8477064,0.42674923,0.034882296,-1.6741259
MHH-CALL-2,-0.5431117,-0.60412395,0.07696901,2.5311368,0.02875776,1.0398291,0.22679004,0.09836143,-2.3120627,0.12405263,0.9238253,-0.10579287,0.5318106,-0.8861639,0.40893856,0.8145675
NCI-H2141,0.060603224,0.9979788,-2.1066813,-0.04844157,-1.4396261,1.2082074,0.3403747,0.3842032,-0.90853006,-0.6855156,-0.9821448,-1.0313597,0.38776428,1.2882488,0.6749773,-0.04819569
BICR 31,-0.13537346,0.1646113,0.1438169,0.45623967,-0.78278327,-0.94665545,1.5526112,0.32368457,0.24751942,1.7919028,0.45662206,0.3723842,0.3762535,0.5327401,-0.16780828,-0.6688667
LN-340,-0.25345966,0.9593791,1.1233665,-1.0819911,-0.7725826,-0.067960754,-0.5477254,0.2233336,0.03190877,-0.59954715,0.6713928,-0.43376794,-1.021809,1.0160643,-0.71710867,-0.6726625
OVTOKO,0.2602959,-0.048837807,1.0053691,0.03831572,0.4726241,-0.58664113,-0.1491429,-0.36876324,0.270739,-1.5813282,0.34460875,0.44304845,1.3565822,-1.7126817,0.023582377,-0.39285254
SNU-761,-0.18531033,0.060590927,0.32370827,-0.85754955,-0.99086857,-0.8653006,0.3304189,-1.0506092,3.1610873,-0.7537981,0.0045257583,-0.4115103,1.666272,-1.6661726,0.49077415,-0.5144266
WM115,0.3471796,0.011060933,-1.1030823,-2.1240687,1.0712576,-0.047526833,-1.5837023,2.6014302,-1.5037102,-1.3248801,1.507865,0.031472288,-2.4275603,-0.7514771,-1.2482388,-1.3499279
KE-37,-0.044721838,-0.9956601,-1.0137432,1.8875898,-0.88587475,0.20572941,0.20233628,-0.8778406,-1.7477195,-0.55559915,0.029615108,-1.7452183,-1.1027923,-0.95978427,0.037404887,0.51279885
LN-319,0.6701176,0.8396557,-0.08889949,-0.18210797,-1.8101931,-0.16255803,-0.5224256,0.8237644,-1.0827776,-1.8969926,0.7508333,-0.7025144,0.27337134,1.1989316,0.10734241,-0.40046903
TE-8,0.37831482,0.08388089,0.6587292,-0.42613623,-2.0859373,-0.869489,0.9115617,0.4330549,-0.30402675,0.77093256,0.39783388,-0.049861327,0.6616562,1.0284761,-0.45727652,-0.7232813
U266B1,-2.6484616,-1.5569229,-1.5127853,0.26367682,0.8674113,2.0545268,-0.054606505,-0.12537861,1.1371903,0.2539086,-0.7672611,0.91147316,-0.84936774,-2.1607664,-0.44719574,0.873252
SNU-1214,0.014360234,0.21582165,0.077424355,-0.028448494,-0.42766732,-0.64657825,1.2033125,0.79382116,-0.14876293,2.2641556,1.0784981,0.5518443,-0.41743347,1.4033389,-0.69378376,-0.23644711
NALM-6,-0.044892088,-1.688541,-1.0426289,-0.54744375,1.0322365,-1.3138746,-0.76885474,2.282199,-4.613485,0.09310854,-0.7041501,-1.608984,-1.4078318,-0.9731334,2.2376778,0.43930408
Panc 02.13,0.76577455,0.16374902,1.1803153,0.52104026,-0.4146012,-1.9370819,-0.6988822,1.7306062,-0.009282398,1.6908848,-2.170634,0.1875637,-0.4009689,0.5950105,1.7987819,-1.6582073
VM-CUB-1,-1.464057,0.09892907,1.3477145,1.1654574,0.41387945,-1.034859,2.2666516,1.0281496,1.2058915,1.4953314,-1.2937273,-0.4598237,1.2174404,2.1404312,1.2142355,0.8269214
RMG-I,0.9753024,-0.28352597,-0.18051042,1.0092124,-0.26578707,-1.2766117,0.6062981,-0.6188933,1.3234692,-0.96869177,0.6397202,-0.05692575,2.2667477,-1.9362462,0.25491127,-0.10700286
HT-1197,-1.4230444,-0.6906989,-0.17826247,1.6452439,0.66933835,-0.2519701,1.0737327,0.46894225,-0.8204928,-0.3062115,0.19177616,0.6598866,0.8443007,0.84848654,-0.009922823,-1.5992516
KMS-27,-2.030529,-0.36735678,-0.3824221,1.0426791,0.3580861,2.2381883,0.025265792,-0.97730494,0.6064653,-0.11884625,-0.3111401,0.35702613,-1.2468309,-1.3467376,1.4738759,0.5145277
L-363,-3.0337086,-1.9229052,-0.8398777,0.91567016,1.4751482,1.3613635,-0.1659469,-1.166425,1.0146601,0.340049,-0.8876509,-0.78252083,0.008084333,-0.6268914,-0.39136094,-0.7871194
8305C,-0.5452742,0.050693072,0.8871912,-0.1620479,0.7867152,0.6802275,-0.103785194,2.5884714,-0.6141537,-1.2900368,-0.3474063,1.0806091,0.029489938,-1.1803621,-0.5667536,-0.8676404
CHP-126,-0.41007686,-0.22857001,-1.0102258,-0.88234955,-1.8145394,1.3106039,0.21100025,-0.779473,-1.0234945,-0.13393556,-1.3134322,-1.3511194,-0.7630201,0.92286426,-0.4118371,-0.7678056
COLO 678,-0.35174927,0.6945077,-0.96228427,1.6768268,-0.915051,-2.258316,-0.5621904,-0.07894385,-0.7743312,-0.4111025,-0.46326935,1.0003153,0.5359416,0.14588116,-1.2537076,-0.21066733
Hs 939.T,-1.0032103,0.49348786,-0.08282071,-0.033562973,0.792796,0.30288148,-1.6057271,1.8125298,-0.3137353,-1.2254905,1.5085398,0.019833464,-1.2297332,-0.08132815,-2.082501,-0.6404393
Hs 688(A).T,-0.85532427,-0.61811095,-0.15096395,-2.403685,-0.4667665,0.82386893,0.7746844,0.0092676515,0.14476767,0.6925564,-0.7202572,1.263525,-0.3542724,-0.398034,-0.85671777,-1.2709318
MV4-11,-0.4143411,0.380485,0.9482981,1.8696563,0.6399042,-0.6448225,-0.38162437,0.7630424,0.16509026,1.0855442,1.9511577,-1.7064586,-0.3017839,-1.162939,-0.3073936,1.111759
HCC1187,-0.2997301,-0.8914719,-1.8629237,0.04493855,-0.48857117,-0.31417015,1.1961418,-0.8420651,-0.5852083,0.08204587,0.8289025,0.357817,-0.04495227,0.13328557,-1.2918416,-0.65777165
NCI-H1876,1.0283757,0.45540386,-1.696811,0.7624773,-0.7795364,0.9715333,0.34645048,-0.03554158,-0.64556783,-0.62209094,-1.5909402,-0.42385143,-0.11953784,1.4509265,-0.8071554,-0.114763066
NCI-H810,-0.6062919,1.0737022,-1.7440729,-0.9478304,-0.7502174,1.1562531,-0.5845233,-1.1550397,0.5917393,-0.83720964,-0.97064173,-0.89400506,-1.0126578,0.79490155,0.7334913,-0.35475132
GP2d,1.2465357,-4.109057,-2.4324105,0.30886793,3.0487382,0.49767596,-3.6991718,-0.6240685,1.9160423,1.6701902,-0.84759027,0.594831,0.23021199,1.4770465,-1.4827855,0.789669
MM1.S,-1.5338173,-0.2410518,-1.0219531,0.6360041,0.90411955,0.83431584,-0.460194,-0.21583478,-0.23274115,1.1453162,-1.8635834,0.48925796,-2.3583539,-1.4997611,0.846436,0.22741626
SK-BR-3,0.16484389,-0.45951346,-1.2674383,0.89454573,-0.7291411,-1.2696307,0.7597001,-1.3168536,0.12652545,-0.22212754,0.6874404,0.7253874,-1.5857397,-0.08545514,0.6145063,-0.660623
TOV-21G,0.8776686,-0.4574899,1.1269417,1.942973,0.7448808,1.1598294,0.2718862,-0.51430386,1.5629016,-2.0114768,-0.66832834,-0.57138383,1.3878597,-0.29339442,0.11193684,-0.8536023
LN-428,-0.25454566,0.4014359,0.8170628,-0.13745037,-1.1758088,0.043381535,-0.46219236,0.36871567,0.01871815,-1.1106509,0.27507526,-0.4690612,-1.791187,0.5542847,0.6514079,-1.111706
Caov-4,1.008103,0.04313989,-1.0081772,-0.326298,-0.7791037,-0.72476006,1.216846,-1.272337,-0.5900118,-0.39785373,-0.15620592,0.34689042,1.3384253,-0.24163051,-0.1902311,-0.28043124
K-562,-0.124923915,1.55144,0.46418068,-0.46561167,0.66425043,0.4815332,-0.16016307,-0.7103228,0.34478974,-0.12198233,0.18623903,-1.7794398,0.8125584,-0.42497915,0.26366714,1.0386536
A2780,-0.31362638,-1.2315793,-0.61838496,0.20910594,1.8174181,1.9850011,0.24850732,-0.77482396,0.9018297,-1.1764975,-0.42603663,-1.5139419,1.7453659,0.13762222,-1.7825058,-0.4790619
LS513,-0.37891024,0.20741135,-2.19011,0.49088228,2.083904,-1.7134386,-2.30648,0.6711781,0.30850774,-0.4261257,-0.31423312,0.63625485,-1.8645158,-0.78920275,-1.4408056,-0.5531835
NCI-H854,-1.8102661,1.0581055,-2.6472452,0.3004422,0.41638783,0.73906857,-0.71555775,1.0880518,2.1258438,-1.0838971,-0.56672215,-0.018317632,-0.96339166,-0.55680895,-0.047490336,-0.33547062
RERF-LC-MS,-0.12260736,0.5793219,0.82479393,-0.75364035,-0.7342712,0.13014616,-0.56013834,-0.024536628,1.1400458,0.122432224,-0.13964318,-0.71915334,-0.33314037,-0.08022473,0.19134054,-0.120548695
UACC-62,0.57294226,0.77569103,-0.1354099,0.5644314,1.0545801,0.12882343,-0.8951277,1.1326693,1.0760831,-1.2816433,2.2751188,-0.57652587,-0.25413856,0.07228319,-2.859989,-0.4011915
CML-T1,3.1785238,-1.7591258,-0.90088415,2.042253,1.5315213,1.0020117,0.43812507,-0.39473087,-0.78327155,-0.28235605,-0.5374115,-2.1671948,-2.6245124,0.29747492,0.29114866,-1.205767
Mono-Mac-6,-0.07740099,0.67095304,1.2814045,1.444762,0.37831518,-0.5170372,-0.18689491,0.256808,-0.10668035,1.2010704,1.3195306,-1.6438017,-0.80078506,-0.28947896,0.49547747,0.7116203
COLO 741,-0.17009991,0.7706257,-0.19010839,1.0060238,0.036457002,-0.45723906,-1.7800952,1.0603067,0.11791393,-1.9216253,1.5614686,-1.4196556,-0.39038992,-0.29044703,-1.6868192,0.34220445
NCI-H1755,-0.9136042,-0.16676109,-0.1624669,0.16439521,-0.1701794,0.17602903,-0.019654687,0.8416761,1.770956,-0.7553652,-0.34363842,-0.36190048,0.02271124,-1.5402701,-1.1979121,0.39098716
NCI-H460,-1.4753945,-0.8019521,1.0806528,0.97695476,-0.27159718,-0.67237276,-1.4154762,-1.1111244,0.4060386,-0.05059893,-1.0907779,-0.20512617,-0.4013954,1.1712921,-1.0477135,0.110848434
TE-10,0.0840191,0.7523179,0.11589655,0.2803498,-0.55585164,-0.7427768,1.3684745,0.72684383,0.22970688,1.7216394,0.40320808,-0.06963885,1.4121423,0.93651253,0.089771375,0.08123216
A-498,0.2669604,-0.9724518,1.0285805,-0.39369822,-0.49890774,-1.7437742,-2.1099365,-0.15921637,0.588863,-0.9517367,-1.8973267,-0.15994385,-1.4358778,-1.1038232,0.58166665,-1.8643379
SLR21,0.024356924,0.6325096,1.0021967,0.5407839,-0.63952273,-0.0046305954,-0.027704664,-0.6695018,1.1021026,-1.7727549,-0.9385888,-0.5666662,0.31704473,-0.934592,1.7616211,-1.0583531
COLO 205,-1.6158096,-0.47631273,-1.8235245,-0.54840636,2.3645298,0.34974894,0.34225693,-0.32411575,2.2139938,-0.31147805,0.38274798,-0.17850152,1.0891805,0.24753192,-0.03241074,1.3239375
EC-GI-10,0.1572963,0.60087264,0.7553041,0.45497563,-0.95872664,-1.2374923,1.109081,0.61992675,1.273421,2.4144664,0.6430715,-0.6395064,1.3440182,0.58615303,-0.022067618,0.3840036
KYSE-30,1.2270867,0.08921774,-0.29773647,0.3341051,0.63122636,-3.0360105,0.529937,1.2825941,-0.7276261,0.14583655,-0.51746166,-0.12852852,-1.3557335,0.46595955,1.4021231,-0.77081645
REC-1,0.5904635,-0.22051714,0.65202725,0.82673836,1.3961254,-1.0481316,1.3792356,-0.6957084,-1.7215326,0.83793044,1.1038182,0.12751564,0.14338799,-1.3903221,0.40866822,0.5790879
769-P,0.7715328,0.2592015,1.8371667,0.7545413,-0.015841233,-1.7211468,-0.7614322,-0.43046853,0.7875775,-1.762135,1.1077615,-0.17712674,2.0954616,-1.7003654,-0.50356805,-0.45107114
A-375,-0.6335591,0.3072452,-0.3240179,-0.30743355,0.9229594,-0.01837017,-0.6408489,1.0839633,-0.5769454,-1.2544272,1.331818,0.47494882,-0.18030715,-0.33966085,-2.0719228,-0.022151668
GSS,2.3083444,1.1499697,-0.6948272,0.08009336,1.3946053,-1.5278594,-0.2456824,0.927128,-0.86237717,-0.5512705,-1.7826334,-1.7613696,-0.67870706,1.2614105,-0.33655107,0.089273274
HSC-2,-1.4077362,-0.20520718,0.94068825,1.5109208,0.09567211,-0.14948706,1.2239791,0.58968586,0.34581783,1.5107853,-0.06368743,0.07262783,0.24920852,2.2344637,0.14205673,-0.75582665
KNS-81-FD,0.45740563,-0.09089102,0.7361471,-1.0357431,-1.2846009,0.19731295,-0.18744017,0.17541535,-1.0494623,-1.392998,-0.15309587,0.30862913,-0.5383988,0.12343767,-0.10944747,-1.3265115
EM-2,-0.12120013,0.5173032,0.8461223,1.4981858,-0.09437922,-0.2146874,-0.3996142,0.18851493,-0.15417714,1.0183915,1.0105165,-1.9382923,-0.6368477,-0.072367884,0.71924216,1.0187602
Hs 229.T,-1.0718236,0.051951114,0.40236524,-1.4823111,0.35167685,0.9643386,0.17634457,0.63057494,-0.33016947,-0.015674505,-0.7983774,0.84955055,0.0004457049,-0.5453985,-0.7780195,-1.3490856
MES-SA,0.32296556,0.1940723,0.18221293,-1.0513302,-0.17574126,0.76283514,-0.08290911,-1.3720024,-0.50759953,-0.9088709,-0.25105804,-0.8554357,0.023618601,-0.116088994,-0.26955697,0.17674541
CCK-81,-0.38022757,-1.7519009,-1.1337363,0.11397937,1.8414277,-2.28981,-0.75233406,-0.38360643,2.1376712,0.053896382,1.0735464,0.08501787,0.12873212,0.23677841,-1.5947098,3.2863972
SK-MEL-1,-1.5433832,-0.11884177,-0.21750732,0.28031313,1.272422,1.2198696,-1.1635746,0.78652537,0.65994966,-0.3085149,1.3029051,-1.6862137,1.0140884,1.1703148,-0.98634225,0.03506749
SNU-1196,-0.33129966,1.4745362,-0.49633074,0.03633546,0.5619506,-0.1669241,0.5842763,-0.1811863,0.43551275,0.30281362,-0.1831038,0.3684764,1.507048,0.7805929,0.14771219,-0.29632258
GSU,-0.33104813,1.5217865,-0.5687931,0.050321676,0.21444091,-1.747945,-0.84321237,-1.4108855,1.1784589,0.76455367,-0.06389645,0.9728017,-0.26348105,0.6790356,-0.8587598,0.38843063
MCAS,-0.8099962,-0.8656455,1.6590405,0.71259975,1.3869307,-0.56899536,0.2318389,-0.17212477,-0.017642248,0.73575246,-2.2076237,1.3878654,1.2816248,3.100704,1.8171178,0.8595679
Hs 739.T,-0.98201966,-0.55948013,-0.025808346,-1.9821392,-0.23628968,1.0110238,0.32721817,0.28354216,-0.047036674,0.106819995,-0.7330421,1.1303445,-0.83016706,-0.43548167,-0.646771,-1.4428667
HCC1195,0.8455135,0.7721384,-0.3630789,0.65783054,-0.2904167,-1.6171182,-0.3259867,0.5928356,1.0690633,0.30039743,-0.14133444,-2.195652,0.73287106,0.37049213,1.0449991,-1.1049383
A3/Kawakami,-1.2589852,-0.32851714,-1.1366874,-0.53479034,0.306488,0.96479833,0.5257386,-1.4336671,0.65351385,0.34320793,-0.3868572,-0.6532818,-1.0451169,-0.9609946,-0.057072856,0.15556756
DM-3,-1.6618031,-0.5912923,0.11508169,-3.769725,-0.023830095,0.017961534,0.31611702,1.6322752,-0.1869527,-0.12700295,-1.7270914,0.58143383,-0.01926405,-0.83015513,1.4407362,0.14108382
SLR25,-0.46706894,0.73228925,0.4068665,-0.16041578,-0.07987658,0.49452734,0.24043068,-0.048572652,-0.15684846,-1.2122854,-1.2385921,0.96459955,-0.076807424,-0.246016,1.3596214,-1.7721398
RL,1.5996265,0.123092845,-0.6198905,0.67665726,2.0090153,1.3999516,1.4230887,-0.6551743,-1.2267708,-0.12123107,0.2300384,0.22812286,-0.13048053,-0.9764974,0.60017407,0.1020533
HEL,2.4310992,1.8795027,1.6341885,-0.07403651,1.4055461,1.1504402,0.44734982,0.031618573,-1.3996122,-1.0287739,0.6454514,-1.4884062,-0.26587677,1.3614106,2.187309,2.505045
NCI-H82,-0.7875499,0.07452703,-1.0480543,0.099630944,-1.1483824,2.6905658,-0.3441382,-0.29479948,-0.30708948,-0.048133843,-0.7088599,-0.88627213,0.79563636,0.47676107,-0.4216029,0.45911533
SW1116,0.97996676,1.3023007,0.20282531,-0.010969747,1.2732793,-2.147709,0.60396326,-0.94930404,1.4437518,0.5886699,-2.756315,1.2763541,-0.45896226,1.2516043,-0.78359884,1.3699043
NUGC-4,0.18099079,1.032722,-0.38871196,1.2473097,-0.85034704,-1.8367031,-1.7905768,-2.056811,1.6809154,0.057885915,3.3349426,1.4102805,2.3835163,-0.8659064,-2.1687555,-0.20413105
SNU-81,0.5949046,-3.3666553,-1.4882151,-1.083044,1.5737593,-0.08328228,-2.3244567,-0.02529854,1.3587912,1.6718079,-0.8713126,1.908665,0.4187912,2.367229,0.5272643,2.547575
SK-MES-1,0.7167176,0.8196705,2.1751866,-0.56807643,-0.486352,-1.9074965,-0.035201747,0.3061713,1.2531682,0.932773,1.4880091,-0.1693693,1.1901106,-0.050384704,-0.70928115,0.1745142
ES-2,-0.63358355,0.44004294,0.79344225,-0.14947909,1.0912119,0.6141486,-0.22406898,1.8768643,-1.1115545,-0.6878444,-0.35791388,0.16965422,0.4555209,-0.90214145,-1.0185233,-0.37746197
CL-11,0.009181629,0.40499797,0.7823376,0.6797037,1.8225049,-0.618157,0.444892,-0.82538074,0.4723474,0.3015885,-3.0968795,1.0932585,0.90280074,2.8483813,-0.5723024,0.21332085
HCC2935,2.373642,1.0448165,0.23107128,1.8600225,0.18854354,-2.863302,1.4332784,0.88925946,2.6602168,0.4010979,2.0785158,-0.9678495,1.2839599,0.56090534,0.07591214,1.4367442
ALL-SIL,0.30311096,-1.0807196,-0.5011111,1.9132543,-0.83695245,-0.13426173,-0.40920302,-1.055566,-1.3016254,-0.7404988,0.3585234,-1.9573324,-1.0531116,-1.0719587,-0.075528994,0.36967745
OAW42,-0.78983223,-0.8383217,0.057075195,0.93112,0.47963735,-0.04304993,0.20843706,-1.6568265,0.4182378,-2.249237,-0.5574168,-0.03138714,1.0495669,-0.29122502,0.23810929,-1.170551
DMS 153,-1.7223701,0.4088439,-1.232996,0.6628381,-0.4274161,0.29316816,1.3586771,-0.2304048,0.43562493,-1.0778528,-2.286428,-0.82984906,0.05944769,2.457721,1.8517386,0.88936037
Ci-1,0.12962146,-0.8790469,-0.70078635,0.5705246,1.7808357,-0.05067501,1.475992,0.1406855,-0.9530901,0.2012095,0.50828,0.23714164,-0.47322166,-2.510188,-0.016477298,0.8209128
NCI-H2342,0.45729235,-1.8679385,-0.25633043,3.0078294,0.2035918,-0.10241539,-1.1156199,-1.5184819,0.31292886,-0.10844684,0.46180528,0.9307126,0.8659582,2.7790196,0.15113005,-1.1923339
RKO,-2.369054,-0.9255113,-0.4824799,0.36509693,0.80199784,0.95270073,-1.5749261,0.72423756,-1.136956,-1.5076519,0.78492415,0.91394234,0.74309015,0.054300215,-0.017021753,1.2010409
KCL-22,-0.8756698,-2.115665,0.4923261,1.4348748,0.33728713,1.3147745,-2.778269,0.25006604,-1.2207808,1.0573186,0.4041895,-2.1947365,0.44325733,-0.5165515,0.42224833,-0.50248414
TF-1,0.22418906,1.5618658,1.1297917,0.5331035,0.91618544,0.50037086,-0.31995487,-0.025839463,-0.95157605,-0.39911982,0.33608162,-1.8174129,0.6798173,-0.40200374,0.5570772,0.9350212
WM1799,-1.1225344,-0.47720954,-0.36677036,0.32093728,1.0562583,0.81092495,-1.9499902,1.4935888,-0.37825406,-1.3588496,2.0044622,-0.078181595,-0.8374537,1.0649219,-1.446568,-0.9381908
IGR-1,-1.2513534,0.11418569,-0.764131,0.34899798,0.7434946,0.76367545,-1.2916645,1.6945658,-0.5780246,-1.5119717,1.0581839,-0.05036138,-1.4096292,-0.2983509,-1.5193293,-0.08146037
HT-29,-1.9849734,0.048794694,-1.1593527,0.33547494,1.4765588,-1.2406819,0.7995676,-0.90597963,1.37142,-1.7869601,-0.4010573,1.0507509,-0.4645937,1.0570146,-0.040385883,0.81046
FaDu,-0.0033263415,0.4353483,-0.04001138,0.8879561,-0.26392075,-0.85030955,0.7465486,0.04166943,-0.4227986,1.1224114,1.1766597,0.11375336,0.069242924,1.0959058,-0.22604495,0.014994847
SW1463,0.45006105,1.1520063,-0.42796755,-0.33737695,1.4643388,-2.0731735,0.36091772,-1.4779575,1.577384,0.39254874,-2.5983415,0.9229717,-1.3011687,1.3929434,-0.83858776,1.2423273
SNU-61,0.42699158,1.1965635,-0.29639503,-0.7824926,0.6223871,-2.615333,0.07022403,-0.7780437,0.4786045,0.25073963,-0.9931572,1.2975873,-1.6648595,0.7831714,0.24860112,1.6793009
NCI-H1048,-0.526138,0.00023804791,-0.5513259,0.87412524,-0.061511487,-0.18573588,0.64391637,-1.4225938,-0.962288,-0.79228264,0.14504647,-0.37124792,0.74532336,2.2479396,-0.92513925,-0.20929387
Hs 571.T,0.5313749,-0.3553992,-0.07412379,-2.760767,0.2682529,-0.13261332,0.1115205,0.13505247,0.038185623,1.3099185,-1.2863934,0.43486676,-1.1150196,0.76614,-0.16747263,-2.423351
1321N1,0.17707412,0.4173132,1.2397698,-1.8683261,-0.15963727,0.35128045,0.31460327,-0.6113867,-0.14158525,0.5502097,0.26062062,-0.11586672,-0.06780105,0.2642451,-1.0099953,0.2849679
SK-CO-1,-1.1073117,0.18113557,-0.9509466,-0.454355,1.3349643,-1.3386549,-0.3605891,-0.45254245,0.88091403,0.6347024,-0.80883294,0.8356703,0.09876818,1.6404963,0.43977213,0.85088116
SK-N-BE(2),-0.42612675,-0.48879802,-1.1042317,-1.1984135,-1.6938741,1.2470142,0.097186394,-0.73174685,-1.3687904,-0.22239155,-0.73375404,-0.74754936,-1.7910318,1.2743294,-0.5392677,-0.62463367
VMRC-RCZ,-0.02385704,-0.5436448,0.57013756,-0.13602611,-0.092289716,0.09795105,-0.78713155,-0.36798236,0.6591178,-1.8773961,-0.054652527,0.034490466,-0.24842611,-1.9678954,0.8065792,-0.9912196
NCI-H292,0.4506973,0.1325173,0.32898948,1.1896167,-0.8985373,-0.8549306,1.0715673,1.427039,0.0828245,1.0005068,0.28884912,0.4340367,1.2009794,0.34986004,0.8575678,-0.9967866
TO 175.T,-0.7245942,-0.47587264,-0.3751953,-2.0947928,-0.23717983,0.67139536,0.5856895,0.057159245,0.16561586,0.8562033,-0.3680589,1.475471,-0.31267458,-0.22009405,-1.3492134,-1.419807
UACC-812,0.2269633,-0.53135157,-2.509635,1.1789799,-1.6129239,0.13542154,-0.86008495,-0.9695549,-0.31352738,-0.34413704,0.46511233,0.7870287,-1.4303175,-1.2234305,0.050144367,-2.1581452
KYM-1,-1.0444669,0.5159389,-0.43627867,-1.2261286,0.5568531,1.7823763,0.028188717,-0.52782774,-0.039202813,-0.6540245,-1.0497314,-0.88164496,0.7809053,-0.64214057,-0.5760051,-0.40542418
LMSU,0.48523143,0.008081693,1.0980748,-0.75307083,-0.6204945,1.4473543,-1.0725785,0.5957207,-1.0599314,0.91504973,-0.08358315,0.7806474,-0.4361363,-0.82157296,-0.0906746,-1.6523665
FTC-133,-0.113866985,-1.0769124,0.75617766,-0.16226374,-0.72664666,1.8388746,-0.076427534,-0.17548257,2.637436,0.9588425,0.5019175,-0.043441392,1.1822124,-0.41198733,-1.4346021,0.47583324
ACHN,0.84025085,-0.105240054,1.6698796,0.61959565,-0.3203685,-1.0192872,-0.26890007,-0.030496445,0.55501,-1.4973018,0.4399899,-0.42857662,2.4037151,-2.1450505,-0.2952845,-0.52106965
ESS-1,0.40037066,-1.3912557,2.1564693,2.070679,0.44168958,2.1009443,1.3033508,-0.8230175,1.0071707,0.07874942,-0.9417991,1.2582544,0.5719607,1.9124913,-0.22986895,-0.5188623
OCI-Ly10,1.4006362,-0.7070756,-0.14564013,0.34086183,2.0859437,1.4480577,2.2500026,-1.8553069,-0.26135227,0.8920394,1.3462104,-0.49904525,1.9051471,0.16853404,0.2805337,-0.06491773
PLC/PRF/5,0.7836316,1.0986474,0.6211721,-1.2120799,-1.75899,0.84929895,-0.4526226,-2.0923398,1.5094793,-1.4058921,0.6333612,0.90517277,0.24511056,-0.5111685,0.35072553,2.746736
YD-38,0.24511772,0.53832066,0.8573396,1.5144489,-0.29915616,-0.66765594,0.9560087,1.5685195,-0.44973117,1.0225319,0.4550673,0.35559475,0.970516,0.6548663,0.49594286,-0.68738514
DEL,-0.21348774,-0.5281542,1.1492869,0.011761655,0.11813507,-0.27641112,0.061081212,-0.7342784,-0.58625877,0.7181549,1.0988841,-0.1378986,-2.1702266,0.023875238,-0.2571329,-0.08460398
NCI-H1975,-1.2919879,0.11609038,1.6320415,0.448754,0.33339524,-0.9726163,1.0689723,0.013551334,0.95528406,-0.73232275,-0.80848575,0.12525766,-0.28579473,1.87524,1.5671871,0.6181508
HuH-1,-0.20054156,0.6432555,0.45974535,-1.3046958,0.28381276,-0.28286704,-0.3774443,-1.884251,1.9392614,-0.7545787,0.24285899,-0.4645896,-0.671437,-0.5797768,0.40991178,-0.0014089588
Hs 742.T,-0.9529154,-0.48561722,0.13886273,-1.8582203,-0.3291601,1.0990298,0.2929568,0.516077,0.25236928,0.46727994,-1.041648,0.94990873,-0.2917456,-0.5745439,-0.3937872,-1.4448498
DMS 273,1.102181,0.41430482,-0.7186584,-0.13986905,0.026593717,2.1682568,0.43303373,-0.53419846,-0.24557072,-0.000918651,-0.04361822,-0.74816066,-0.36998406,1.0913173,-0.86175376,-0.3138859
LN-464,-0.91284364,1.5120715,0.7545998,0.15407728,0.1595144,0.35048354,-1.5565023,0.9748046,-1.4138277,-1.0102489,0.949904,-0.56224376,-1.4953142,1.376541,-0.17687728,-0.9467066
KYSE-410,1.0643281,0.367136,0.5584118,-0.6736773,0.4689806,-2.9311838,0.1901186,1.3421754,-1.5800762,1.0125192,-2.5193868,0.107342646,-1.1166574,1.4169625,0.5952656,-0.20660846
MIA PaCa-2,0.024206487,1.1446745,0.9307431,0.14114884,-0.06530904,-0.40623015,-1.1244084,-0.33392844,-1.3812349,-0.539121,-1.3759519,0.28309005,-0.5902058,0.50327444,-0.83954376,0.020768773
TE-5,-1.647416,-0.06820943,0.48729262,1.4903593,0.14222209,-1.3382987,1.8386567,-0.13465405,-0.32190666,0.08124051,-0.5120858,0.27532557,-0.6028337,2.5772707,0.9201691,0.6699759
Hs 852.T,-0.37020585,0.19428687,0.12006463,-0.16256437,0.021321818,-0.45266908,-1.33573,0.61518323,-1.4665847,-0.81631976,2.0526264,0.14414032,-1.5199628,0.45178378,-1.8077939,-1.5038112
RMUG-S,0.29349944,-0.16016228,-0.43586522,0.69511175,-0.5436827,-1.4474874,0.8057314,-0.40347695,-0.19717225,0.8620819,0.92388964,0.92653817,-0.27348152,0.33582786,-0.23575008,-0.6909204
HEC-1-A,-1.1032265,-2.2835307,-0.7071334,1.4715916,1.0306737,0.042441543,-3.0785224,-0.4244358,-0.52389,-1.8594611,-1.8271316,2.6804318,0.8054184,1.0743816,-0.44139838,-0.52920645
NCI-H2452,-0.15253155,-0.5838915,1.1675686,0.03945055,-0.48896748,-0.45127887,0.10494038,0.63038,-0.064732134,0.03451116,0.17371272,0.36482486,0.3406099,-1.252263,-0.7113396,-0.8759748
IGR-39,-0.53111696,-0.06333634,0.36610648,-0.051440515,0.3792965,0.106109485,-0.96766686,1.6873971,-0.6727525,-1.8215148,0.6484635,0.5620484,-1.0308952,-0.6644349,-1.1254821,-0.80421895
23132/87,0.23368594,0.6328266,-1.4717749,0.6968247,-0.62833667,-0.8955108,-1.2783227,-0.96203476,1.9470654,1.1544685,1.842716,0.3368765,0.88144296,-1.141679,-1.0166142,-0.5595069
SK-N-AS,-0.6586968,-0.36332828,-0.13631786,-1.6014286,-1.049041,0.4635683,0.20873974,-0.6598546,0.41631734,0.37993985,-0.26651335,-1.1098989,0.0015542506,-0.02458289,-1.7658118,-0.3586546
KG-1-C,-0.39081657,0.11309021,0.5657902,-0.36768088,-0.23012832,-0.0284745,-0.7098378,1.2519468,1.3222402,-1.4498861,0.34165892,-0.17901106,0.082383946,-1.1518383,-1.769146,-0.13872926
COR-L24,0.32050273,0.15390138,-1.4997638,-1.1027642,-0.62281096,0.6675114,1.5102475,0.787091,-1.5234255,-0.97509253,-2.2167878,-0.87927693,-0.81654304,0.8264135,1.4255524,0.95524037
GA-10,0.122590095,-0.13339207,-0.9698575,0.059985593,1.3135924,0.40128052,1.0893118,-0.48912513,-2.896764,-0.03890693,-0.019974582,0.3578586,-0.9677076,-0.6244787,0.6724373,-0.06178791
U-138MG,1.4310985,1.0883338,1.0276275,-2.746957,-0.40551522,1.9335504,0.02548718,0.43964046,0.3561017,0.26907003,-0.08527477,1.305215,-1.1579816,-0.45248803,-1.2350539,0.96931946
HCC2157,0.44063914,0.24483202,-1.1386684,0.082729444,-0.08127929,-0.49859872,-0.16459095,-1.1482897,-0.5715493,-1.0514152,1.0055754,0.51635236,-1.1737053,0.35961267,0.04850266,-0.26839158
OC 314,0.6566112,0.3654051,-0.09605242,-0.08450161,-0.10362858,0.13340402,-0.32835484,-0.26306403,0.016893696,-1.2846835,-0.08694123,-0.20563121,0.9053336,-0.7506566,0.29695052,-0.3016686
A-673,-1.7767384,-0.40932328,-1.6342498,-0.74608445,0.54195267,1.0346297,0.801647,0.40428916,-0.3807387,-0.4553889,0.75336653,0.098276526,-0.7074867,0.05581704,-1.988399,0.8981682
SNU-1,-1.7371417,-0.7194609,-0.7601642,-0.54350245,-0.5455173,-1.3604486,-2.1842031,0.19338033,-1.5874401,-1.1605881,-0.18769147,-0.11685624,0.15211299,-1.7203652,-1.851733,1.0219859
OAW28,0.9830251,0.009015689,-1.195488,-0.010526668,-0.990251,-1.0051932,0.834527,-0.68669784,-1.0551115,-0.45643353,0.55358016,-0.029015709,1.2007084,-0.28799987,0.014336143,-0.08837967
M-07e,-1.1791612,0.5533376,0.059172258,-0.10672258,0.13771,0.07438343,-1.0796957,0.4331771,-1.3249384,-0.32032615,0.8036548,-2.1315124,1.354719,-1.6451706,0.93981284,1.7448547
TEN,1.2455422,-0.23375848,0.20834589,1.1724185,0.20021255,1.7974933,-0.1541053,-1.6962326,-0.12561554,-1.9380497,-0.825618,3.026308,0.05620057,0.69772536,0.97898746,1.4164847
SUP-T1,0.6942303,-0.8673709,-0.60445964,0.56906,-1.1664233,-0.06997042,1.1134256,-1.46547,-1.8486379,0.27610272,0.20312253,-1.1176742,-1.1045045,0.15145084,-0.33904696,0.8003622
TE 125.T,-0.27271724,-0.31292653,0.19595414,-2.1739695,-0.32980287,0.56083566,0.89639723,-0.1874338,-0.3596134,1.0641946,-0.4980141,1.4954026,-0.49805635,0.27035037,-0.6463592,-1.2543888
NCI-H1573,6.1452456,-0.32570314,-0.8219586,-0.28805006,1.8142226,-0.7937267,-1.0855142,0.44220218,2.2284741,2.2072203,0.06969609,-0.96621567,-1.0483054,0.6113524,0.7861159,0.0026201596
SNB-19,0.88068944,0.5140734,1.2514027,-0.21087955,-1.4961818,-0.5977823,-1.0483872,0.45259225,-0.88516057,-1.5857494,0.8307659,-0.31681788,-0.3470955,0.76991135,-0.54660875,-0.6035786
T.T,0.65190464,0.30959973,-0.7026992,-0.16610289,0.31808543,-1.9552642,0.9069849,-0.11117474,0.27267063,2.5936022,0.56887597,-1.3880538,-0.388009,1.7741838,-0.5247703,-0.5412875
DU4475,-1.4292954,0.2404626,-2.5298643,0.010842331,1.0480944,-0.23475842,0.60216516,1.35205,-0.41781068,-1.2445135,-0.60056365,-0.109280184,-1.1362762,-0.10153484,-0.17207487,1.0892973
AMO1,-1.7475284,-0.039904993,-0.39855152,0.5262866,0.7529263,0.67297834,-0.8195839,-0.8755729,-0.40420723,0.05362808,-1.9485103,0.019742247,-2.3973207,-1.7138156,0.4811508,0.21404822
BFTC-905,0.11259904,1.2132611,0.2656899,1.0951313,-0.29553622,-1.1293713,1.0090896,0.86531436,0.41833463,1.691575,1.1960828,-0.33704334,0.9813209,1.0495114,-0.41782677,0.22436659
