,E0,E1,E2,E3,E4,E5,E6,E7,E8,E9,E10,E11,E12,E13,E14,E15
PE/CA-PJ49,0.24654911,-0.5465382,-0.1087255,-0.4837069,0.10650452,-0.021434858,-0.2532902,-0.05147661,0.56827044,-0.40470278,-0.0199224,0.09288933,-0.05159058,-0.16820946,0.26785457,0.31900683
UACC-62,-2.1773531,1.4232697,-1.0386277,1.0728447,0.390421,1.6643676,0.91537553,-0.6294927,-0.044431984,0.6225495,-1.085616,-0.9521782,0.7409992,0.5433022,0.8503648,1.4297688
HEC-59,-0.22390205,2.8779883,2.3654115,2.5782013,-1.8922768,-3.1291206,3.2369118,3.271271,-3.7995934,2.5461922,-0.4559409,1.3291129,-0.30573586,2.0000172,-0.7988024,-1.3767544
MOLM-16,-0.87317324,0.21898021,0.45122102,-0.09157947,0.29041824,-0.021293508,-0.6709526,0.08787428,0.16192491,-0.2722037,-0.0672798,0.40534496,-0.43584445,-0.31879556,0.35053134,-0.337314
KYSE-510,2.2319217,1.997486,-0.72748053,-0.08298978,-0.5895292,2.2436187,0.35818532,-3.1364586,-0.6367852,0.5458718,2.7512708,-1.3557332,0.9075036,-1.590316,-2.3174136,-3.5089386
JMSU-1,1.3806047,-0.7043145,-1.388275,-0.11340929,0.3165805,0.9134198,0.56270236,-0.7863904,0.5026723,0.050744843,0.1257104,-1.2915664,1.0974319,0.52585775,-0.55736285,0.9864459
K-562,-0.87220806,0.24768728,0.4600519,-0.07607379,0.014691055,-0.103617765,-0.5831668,0.09884951,0.13380894,-0.2744754,0.05946961,0.46262193,-0.55470103,-0.35164192,0.4861917,-0.21205577
NCI-H2023,3.1056266,-1.7153922,-0.9177174,-0.7429321,-0.039420284,-0.32285637,0.38900784,0.5189453,0.29982126,-0.6311064,0.88665307,-1.4174143,0.5899024,0.8730487,-1.0641296,0.2943612
COLO 205,0.5131875,0.2680769,-1.9706506,-0.62590224,-0.8040866,2.3309314,0.9427989,-0.19565132,1.0576317,-0.52585137,0.31143308,-2.5076702,2.3208036,2.6509366,0.1551027,1.4956067
SUIT-2,-0.68194675,0.37807512,0.3257787,0.56874853,0.51363945,-0.0060678106,-0.20896842,0.9511226,-0.8429828,-0.18827409,0.4345204,-1.1222249,-0.21578483,0.35089278,0.4476855,-0.44419953
KP-N-SI9s,0.99947405,-1.1918967,-0.4602621,0.21790099,0.62000585,-0.6403756,0.2541158,-0.6557706,0.28050202,0.35562402,-0.7389121,0.8390281,0.03806364,-0.90297216,-0.84136057,1.0689514
SW1417,-1.2242204,1.4476672,-1.7288558,0.5532761,-0.16017476,2.6572363,0.9489589,-1.109576,0.42669487,0.19953421,-0.20812912,-2.1081264,1.553812,1.1555368,0.7345516,0.9694171
SK-CO-1,3.8213367,-2.6875267,-2.111516,-1.1703446,-0.48957235,0.10819109,1.6326205,-0.49535763,1.949536,-0.21042915,-0.64941,-0.4128063,1.8892189,1.7172195,-1.1809343,3.0506537
Hs 606.T,-0.9263434,0.24224994,0.4422765,-0.2220127,0.16744632,-0.012914365,-0.8171171,0.21560432,0.14170843,-0.25724098,-0.016302012,0.43476626,-0.4444798,-0.30668274,0.73675156,-0.19653493
SW480,3.5835004,-1.1142224,-1.2173591,0.13808542,-0.76176894,-0.32416213,2.1109188,-1.2726842,0.24195234,1.2551132,-0.639895,0.5469681,1.6677585,0.3899213,-2.2189956,1.4531693
T24,0.18117964,-0.5637258,-0.10874647,-0.3726659,0.23879065,-0.07781078,-0.2997083,-0.071171686,0.42813638,-0.37493998,-0.032475248,0.094560534,-0.030662838,-0.12643723,0.30355376,0.33574387
NCI-H1437,-0.8490611,0.24389309,0.46245795,-0.07989822,0.27195302,-0.042084586,-0.6321917,0.22558255,0.11818399,-0.24028315,0.0062489286,0.3580855,-0.5302287,-0.3102186,0.4851781,-0.38876456
A-704,0.107540205,-0.5924707,-0.106696606,-0.3778566,0.11923597,0.024872564,-0.6361658,0.066817775,0.4492647,-0.319454,-0.043433376,0.09508422,0.006533511,-0.0743541,0.24307513,0.33759844
SK-LMS-1,-1.5146403,-0.7728678,0.7857038,0.08376832,0.4996424,-1.2289343,-1.0235549,2.207255,-0.2003686,-0.6419649,-0.5525758,0.093269154,-0.92646164,0.39652115,1.1776245,0.70608634
TF-1,-0.8945346,0.22125459,0.47263873,-0.23370796,0.14223993,-0.052873585,-0.94493806,0.20038283,0.1159529,-0.28597456,-0.06733765,0.38378274,-0.5046905,-0.33685684,0.3088411,-0.36881143
NCI-H196,-1.5560546,0.5535988,0.12959415,0.85969335,0.47973874,-0.036373414,0.20128667,-0.05038878,-0.42166206,0.577587,-0.8148213,0.33495516,-0.32308137,-0.4916004,0.2638858,0.38216364
EB2,-1.2048972,0.110022396,0.8464457,1.4986227,1.2595842,-1.3025167,-0.17204763,0.6065356,-1.6134014,0.89418674,-0.4428998,0.13022572,-1.2737219,-1.4859042,-0.15694594,-0.4307572
KYSE-410,3.8535762,-2.3119814,-1.3736683,-0.1902146,0.19238696,-1.0413495,1.5302502,-0.5658746,0.32720828,0.62264174,-0.111530155,-0.23470895,1.211643,0.14263514,-2.1454363,1.3085815
SK-MEL-3,-1.801673,1.357693,-0.4170863,0.041849934,-0.14982307,1.6193315,-0.1406194,-0.40043378,0.34049836,-0.14935726,-0.03223359,-0.6771307,0.45399538,0.5388612,1.09655,0.25929332
HSC-2,0.40964797,2.2358668,1.4626274,-0.22353548,-0.22592372,1.3457042,-1.5419631,0.42763785,-1.8734412,-0.9285432,3.545211,-2.9027634,-0.588266,0.011613629,0.5302109,-5.2368603
CMK-11-5,-0.5628964,1.8270979,0.14319104,-0.42509797,-0.9553133,1.6746469,-0.24906416,-1.4835411,0.35322028,-0.15640447,0.9407464,-0.08209739,0.60464674,0.07078761,-0.21720606,-1.6527808
OV-90,-1.299497,0.9805928,0.87220526,-0.80462885,-0.28382885,0.9984598,-1.7853647,1.8652633,-0.21769759,-1.8336867,2.3533502,-2.279007,-0.1724385,1.1731386,1.4533719,-2.4561007
NCI-H1385,1.075247,-1.2120756,-0.4818611,0.24909633,0.61413383,-0.84901404,0.37630168,-0.59943765,0.3179481,0.4816437,-0.750691,0.85639894,0.0172269,-0.8064288,-0.8470107,0.891366
KG-1-C,-1.6142491,1.0163802,-0.630583,0.008307887,-0.054477733,1.7164685,-0.20110144,-0.46463317,0.46403354,-0.18560648,-0.22180524,-0.85223055,0.6380212,0.70366013,0.9322433,0.648101
CW-2,6.564164,-0.11000736,-2.0892909,1.3754032,-2.2466524,-1.1710324,6.006272,0.22013012,-1.527575,2.4146495,0.15774421,-2.1546676,3.518365,3.896815,-3.646958,1.2422266
697,0.19986358,-0.60453916,-0.10493509,-0.34982625,0.16177,0.01881101,-0.41504577,-0.11751069,0.4786283,-0.35183644,-0.07934655,0.09853975,-0.09707907,-0.07691265,0.2965948,0.32216316
NCI-H1299,-0.009845205,-0.5663032,-0.10749945,-0.37250677,0.18326598,0.041882385,-0.3652242,-0.034897577,0.4549003,-0.38740364,0.013813533,0.099400066,-0.11896066,-0.11610779,0.4056032,0.18216184
DM-3,3.0964398,-0.12044691,-2.4740725,-0.8598937,-0.45748615,2.5714204,1.6516966,-2.819348,1.30387,0.021862172,1.2230554,-2.266261,2.512543,0.9862184,-1.7776488,0.23227447
CGTH-W-1,-0.842253,0.22820432,0.45627668,-0.09713129,-0.014927961,-0.01246156,-0.6005653,0.19341743,0.09749606,-0.28113264,-0.028011149,0.41614634,-0.50297785,-0.30566266,0.712837,-0.3215318
ESS-1,-0.08304237,0.80514973,1.8732145,2.2499437,0.51402116,-2.795911,0.78845626,2.219636,-3.8347886,1.7017711,0.45658058,-0.34434044,-1.3961718,-0.5354624,-0.9117478,-2.0684605
CCF-STTG1,-2.20561,1.4017786,-1.0416181,1.0730363,0.6624491,1.664711,0.7264846,-0.6147198,-0.13569555,0.67375934,-1.0626731,-0.98220956,0.86914474,0.52545077,0.8060844,1.3512403
Hs 698.T,0.12432966,-0.56062484,-0.10718474,-0.3504707,0.13964035,-0.10063149,-0.52122843,-0.106885076,0.4305034,-0.3035797,-0.03509321,0.095746316,-0.077032916,-0.10187998,0.28728575,0.19847333
TGBC11TKB,6.7856026,-2.037728,-1.3196782,1.2361444,0.9343934,-1.6606954,2.94634,-1.9783413,-1.6688784,2.3425417,1.0250843,-1.2281532,1.228946,-1.0477443,-4.5919456,-0.6838797
U-138MG,-1.5339097,0.5093732,-0.71687394,1.6791803,1.403539,0.59153175,0.47823042,1.0155311,-1.3810028,0.5266159,-0.19575895,-2.589903,0.30921078,0.5153738,0.4699543,0.62911075
HCC1954,2.5578363,0.35884136,-1.1195297,0.511088,0.80972004,1.3208162,0.8553925,-2.1643033,-0.8342838,0.59829867,1.5459504,-2.1189446,1.0131985,-0.7978952,-2.0073624,-1.5724567
SW837,5.561101,-2.8845587,-1.390655,-0.10354169,0.18088007,-1.4434114,1.9971309,-0.44002536,0.007278383,0.6723396,0.19381246,-0.54045707,1.428023,0.16972683,-2.957802,1.2233719
MDA-MB-436,0.120613605,-0.58515936,-0.1062083,-0.47732162,0.26112333,-0.00024579838,-0.5683095,0.05303804,0.47930282,-0.40283534,-0.044574387,0.09515104,-0.071140975,-0.112602346,0.28066635,0.10512002
RCH-ACV,2.581845,-1.4505053,0.05346274,-1.170817,-1.8459052,-1.3757076,1.2430843,0.6638762,1.2611761,0.017082036,-1.108399,2.3845952,0.32653177,1.5481997,-0.678169,1.9225756
SNU-387,-0.94368315,0.233299,0.53091854,-0.1415984,0.13651736,-0.04756053,-0.7490858,0.17448083,0.09107676,-0.2577005,-0.046262518,0.4458195,-0.41804734,-0.3087129,0.5123368,-0.3179012
SU-DHL-5,-1.8415265,0.29692507,0.352908,-0.06152965,-0.503856,-0.20120443,0.086745456,1.5549458,0.23082455,-0.24381001,-0.88907003,0.25541484,-0.16756806,1.1808895,1.3421935,1.1946232
LP-1,-0.7529985,0.22063357,0.46358427,-0.24968103,0.20910037,-0.047928993,-0.8471832,0.13586667,0.14683567,-0.1977545,0.022919476,0.4331838,-0.45871055,-0.33906674,0.30834138,-0.37751675
OCI-Ly10,-2.1223738,0.7071304,0.752463,0.16451605,-0.7844316,-0.31810445,0.105258375,1.8074607,-0.009860191,-0.26963192,-0.9449077,0.68989253,-0.1293866,1.4233397,1.3859448,0.6890656
H4,0.3074013,-0.58793414,-0.10745549,-0.37915596,0.16873981,-0.021163268,-0.35297567,0.00945071,0.5185679,-0.33707774,-0.021185204,0.09442212,-0.06735181,-0.113455564,0.08800517,0.3378019
JL-1,0.3009192,-0.5599235,-0.10777959,-0.439909,0.14065252,-0.06188448,-0.48488545,0.055874284,0.53875047,-0.4050007,-0.026957652,0.097926505,-0.010649778,-0.13993357,0.19499192,0.1493815
786-O,-1.5587078,0.5333825,0.15439959,0.95802957,-0.047548383,-0.012833255,0.10847804,0.040306643,-0.4360203,0.567135,-0.8117658,0.3524475,-0.33111474,-0.44301096,0.3024482,0.48212004
Namalwa,-1.5690521,0.97783256,0.9733133,-0.7631579,-0.28108737,0.9220551,-1.7777692,1.863487,-0.3741706,-1.868039,2.2733676,-2.448707,-0.45729294,1.2401046,1.1132172,-2.4848228
SK-HEP-1,-0.764733,0.28623226,-0.10675542,-0.46989432,-0.080395445,0.80201864,-0.58907163,0.6925129,0.35352445,-0.8120077,0.5556978,-0.9566048,0.17454413,0.84883946,0.7191841,-0.23340619
SW1710,-0.9745308,0.22147147,0.5189141,-0.20833555,-0.047458358,0.0020332858,-0.7445318,0.18279001,0.12972201,-0.1634185,0.014593288,0.45479515,-0.4713924,-0.34209767,0.9509731,-0.40076905
ChaGo-K-1,-0.7433549,-0.15143251,0.8214731,-1.1575979,-1.0244002,-0.26744917,-0.7253512,1.5931355,0.830861,-1.1652476,0.25978428,0.51135784,-0.22743224,1.3006254,1.2024906,0.060216717
KMRC-2,0.078549564,-0.57983774,-0.10411984,-0.32169145,0.21148664,0.057264563,-0.28893864,-0.05485047,0.5198329,-0.3824497,-0.019060388,0.09272501,-0.14316338,-0.115026936,-0.099182904,0.312008
MeWo,-0.05015722,0.6963799,1.9773569,-0.42087287,-2.4835443,-1.8181314,0.5459772,4.4785824,-1.2493871,-0.8863191,0.6031907,-0.07277535,-0.4083371,3.7087643,1.0921437,-0.95375127
SCC-15,-0.7768385,0.24220479,0.4857706,-0.039816797,0.062012188,0.0038809404,-0.7262649,0.19591261,0.10417023,-0.27341628,-0.046891764,0.46095794,-0.5000315,-0.3211928,0.4542956,-0.22839136
RPMI-8226,-0.15282552,-0.41149825,0.1208797,0.42409357,0.6473695,-0.6926271,0.063390195,-0.5896296,-0.13214552,0.7380398,-0.86463004,1.1833345,-0.4399628,-1.1258769,-0.39325842,0.64530057
JVM-2,0.1826422,-0.5654162,-0.1116084,-0.45580626,0.121355735,-0.07222122,-0.4503933,0.05901368,0.46309063,-0.3698656,-0.07920519,0.09576434,-0.06779818,-0.12880908,0.7346691,0.26062015
Hep-G2,0.13563998,-0.5743312,-0.10657259,-0.34236073,0.1229354,0.0075543113,-0.37906513,0.09048624,0.48161364,-0.37684137,-0.00993841,0.096064396,-0.00076121837,-0.12508053,0.17432834,0.22174886
SK-MEL-31,-0.89298767,0.21753371,0.44455114,-0.17199045,0.08612865,-0.015990565,-0.5793862,0.30829513,0.102138504,-0.28738344,0.022058759,0.38195914,-0.4938364,-0.3293139,0.488912,-0.2580826
BICR 56,-0.45129123,-0.17925557,0.79374486,-1.1326188,-1.0604434,-0.2886352,-0.9006363,1.5961207,0.8129401,-1.1527841,0.11868027,0.45787063,-0.35404536,1.2717807,1.2586589,-0.16126287
HCC2157,-1.0540441,0.21747062,0.47492257,-0.14393848,0.12917383,-0.09938277,-0.6835854,0.19523267,0.11696525,-0.31096745,0.04331883,0.42920345,-0.5271484,-0.3153148,0.35842407,-0.35047197
TE-6,-0.79995036,0.2017246,0.38016734,-0.04858268,0.11224932,-0.123416856,-0.72808975,0.13862483,0.09347958,-0.31951308,-0.055484988,0.37359405,-0.5226222,-0.29920065,0.8761002,-0.2569275
Hs 604.T,0.14431676,-0.59372455,-0.11169365,-0.30005476,0.19226433,-0.027017755,-0.28494325,0.14331059,0.47225058,-0.33711353,-0.003722081,0.093503,-0.04043428,-0.049743798,0.034906678,0.27177727
KCL-22,2.3975003,3.5126224,0.75186026,-0.5444946,-2.010004,1.7741296,1.2755177,-2.877091,-0.97643274,0.78706527,2.6975224,0.6686557,0.36325628,-0.7891248,-0.88037026,-4.9160023
Calu-3,0.11419204,1.8716418,1.6219015,-1.3681251,-2.0705683,0.73012614,-0.78718805,1.1367465,0.219072,-1.3620276,1.5986592,-0.1340869,-0.28946203,1.7616442,0.518512,-2.420156
LAMA-84,-1.0759354,0.19171238,0.43569094,-0.095451385,-0.17613673,0.035711706,-0.5513887,0.1590333,0.071994804,-0.26611698,-0.0726746,0.40436092,-0.5428096,-0.3299981,0.5415817,-0.27976567
NCI-H1105,-0.91143525,0.23244607,0.3698081,-0.046285093,0.037903417,-0.048534654,-0.6570713,0.26443636,0.116314396,-0.32645223,-0.0002114959,0.39921895,-0.4838526,-0.32692683,0.12495226,-0.3155714
RS-5,1.3668176,-1.6374737,-1.5380508,0.53407377,1.168172,0.26347083,0.40407288,1.0741493,-0.3122299,-0.28538907,0.42831686,-3.1421242,0.9144165,0.7974594,-0.27564132,1.1919144
CAL-78,-0.9278825,0.24081007,0.5106874,-0.13978858,0.15780391,-0.03227798,-0.5440368,0.1508014,0.12513289,-0.23210257,-0.022531517,0.44624367,-0.39986894,-0.31096107,0.44245774,-0.18787786
A2058,-1.9431221,3.520574,-1.1093569,1.0986731,-0.5213132,3.0485072,1.6864872,-1.7488351,-0.44139186,1.251476,-0.1564899,-1.3691449,1.5734391,1.0135622,-0.14830747,-0.15367663
RL,-1.511078,0.5967699,0.12860626,0.88287884,0.32247517,-0.00393435,0.25436488,-0.13751878,-0.41835275,0.51665306,-0.80721486,0.4259772,-0.3372383,-0.45652896,0.5487298,0.6056055
MDST8,-2.2507958,2.5608082,-1.8802379,1.20698,0.0409024,3.5112553,1.1817824,0.60729015,-0.8328741,-0.024041995,0.6451034,-5.1324544,1.9492593,2.8043005,1.63521,0.31392077
SK-N-AS,0.15856904,-0.593194,-0.10619744,-0.3807919,0.2658367,0.041101504,-0.34348762,0.10532351,0.51230407,-0.37375578,-0.022680415,0.09617185,-0.1622732,-0.10649499,-0.1236209,0.28318626
SNU-626,-1.5321647,0.56519485,0.13018264,0.8639328,0.5053016,-0.03310477,0.17073143,0.06315519,-0.44176033,0.50664175,-0.8100336,0.3179781,-0.30217865,-0.48746648,0.6035241,0.47316158
RCC4,-1.0527092,0.22571915,0.46185735,-0.077703215,0.057568695,-0.062241174,-0.61237526,0.18440032,0.17098913,-0.22515763,-0.026888162,0.44926897,-0.57938945,-0.3234038,0.47912478,-0.3136821
Ci-1,-1.9975779,2.1625314,-0.008292086,-0.627985,-0.64531946,2.5775678,-1.1938531,1.3135763,-0.1325413,-1.6375453,1.9951649,-3.430568,0.5945073,2.2652552,1.867013,-1.8306406
HMC-1-8,-0.20565943,-0.32489964,0.11609579,0.5866192,0.44148234,-0.76301694,0.3666946,-0.4641149,-0.17965147,0.4825638,-0.86580443,1.1810367,-0.4543315,-1.1263961,-0.4276647,0.764748
IST-Mes2,-0.8246462,0.23365207,0.45730895,-0.22455627,-0.14996395,-0.073041484,-0.92456764,0.22717726,0.088355854,-0.31605023,-0.09838703,0.4266011,-0.5595094,-0.32315814,0.63790685,-0.27230865
UACC-257,-1.0011384,2.5209217,-0.91683304,-0.5121174,-0.78266865,3.5463479,0.27694952,-2.0784125,0.62917036,-0.07603811,0.6105799,-1.5663376,1.5447302,0.8300234,1.1991503,-0.72444195
NCI-H2196,-0.96093285,0.17046331,0.49673688,-0.07889269,0.13284889,-0.08502984,-0.60402286,0.19452992,0.104264386,-0.26378405,-0.0983158,0.42780083,-0.46513593,-0.31566346,0.50546944,-0.16452189
8-MG-BA,-1.708367,0.51019204,-0.22772364,1.2662263,0.10326925,-0.0020161346,0.63819164,1.4779838,-0.6789313,0.4664653,-0.912584,-0.9471349,0.32422858,1.0991473,0.8636876,1.3039048
SU.86.86,-0.15520276,-0.36295703,0.106968276,0.53427476,0.64210624,-0.79418314,0.14065164,-0.59263927,-0.19997896,0.69965696,-0.8649182,1.1820911,-0.44674098,-1.1448833,-0.33103785,0.69499034
FU-OV-1,-1.5329485,-0.7634212,0.6914109,-0.1758454,0.5075698,-1.1332514,-1.1654317,2.149541,-0.1951513,-0.6245447,-0.5572001,0.19711158,-0.9260684,0.34118143,1.19236,0.6616526
HCC366,-0.9674902,0.1530336,1.5058206,1.4286882,0.95436025,-2.0844834,-0.07711976,1.6673533,-2.3808024,0.81361634,-0.06339284,0.04401949,-1.4227031,-0.77696955,-0.27479893,-1.015116
NU-DUL-1,-0.11549151,-0.3198577,0.11066911,0.6105038,0.50575244,-0.8032913,0.17352073,-0.48433915,-0.17991996,0.68973726,-0.8602826,1.1895626,-0.45450303,-1.1258987,-0.30969346,0.62023836
HuT 78,-0.7944621,0.21231295,0.43809247,-0.11007489,0.062403396,-0.008069759,-0.65620196,0.23165984,0.108416624,-0.27408817,-0.08757118,0.41040978,-0.53078884,-0.3328472,0.17029029,-0.15154684
5637,-0.84442216,0.21528964,0.47333,-0.016164735,0.029590387,-0.07774528,-0.6906033,0.16097094,0.14161867,-0.22159086,-0.031649727,0.4079077,-0.57908547,-0.3133983,-0.026041448,-0.26195106
KYSE-150,-0.94790703,0.2388668,0.49029613,-0.20429787,0.09957009,-0.085012145,-0.6750181,0.17891558,0.14398979,-0.27353582,-0.063588396,0.42247495,-0.5113852,-0.31018165,0.7707586,-0.36861393
KE-37,0.14680503,-0.59540164,-0.10953542,-0.321972,0.15653536,0.026957698,-0.46323958,0.049260218,0.5157542,-0.34212866,-0.015372081,0.095484585,-0.09895145,-0.0803709,0.09900226,0.31618056
SF295,-1.5169029,0.5729392,0.13272913,0.7546686,0.648447,-0.0026390199,0.113009915,-0.00032053795,-0.41925123,0.5081373,-0.8091314,0.3471959,-0.30946943,-0.49573627,0.51935863,0.46088222
SNB-19,-0.9876535,0.19976366,0.46485388,-0.07061472,0.042367127,-0.05763797,-0.6467612,0.2260993,0.11196031,-0.28052595,-0.022712888,0.39466092,-0.53550065,-0.35741806,0.36982608,-0.4735765
SF767,-0.9631778,0.22205399,0.47147503,-0.16373852,0.17590535,-0.0023801401,-0.6870819,0.19108577,0.101949394,-0.23571165,-0.025947738,0.46491718,-0.43324995,-0.32934785,0.5275725,-0.39878082
HT-1197,1.2646316,0.35918018,0.091809005,0.24598128,0.6230426,0.44936132,-0.24649437,-1.489377,-0.82217276,0.09396742,1.6131351,-0.7654448,-0.22897963,-1.2296412,-1.6627872,-2.2287245
IGR-37,-1.7423888,1.3118476,-0.36196125,0.033212934,-0.23887487,1.603061,-0.094391525,-0.3867852,0.37202856,-0.18937169,-0.08955759,-0.6693912,0.46760774,0.55602396,0.8692631,0.080642335
SIG-M5,-1.6229107,1.0816244,-0.6462571,0.017762704,-0.06024614,1.6733814,-0.11944395,-0.42024428,0.58561665,-0.18328471,-0.18008894,-0.82410514,0.6382257,0.70231026,1.0720385,0.5790001
EFE-184,-0.48489168,-0.08997354,0.8133656,-0.9681676,-1.0642984,-0.30286852,-0.91302025,1.5751649,0.8185733,-1.2233375,0.3569998,0.462096,-0.28203154,1.2968699,1.1442283,-0.28578272
Toledo,-0.15966414,-0.40428066,0.120969996,0.556389,0.63619226,-0.70628846,0.20085569,-0.4999769,-0.18086168,0.6956151,-0.85925394,1.1883746,-0.47527057,-1.1020274,-0.62563276,0.6977694
UM-RC-6,-0.78162634,0.24173982,0.52335256,-0.056504108,-0.021729104,-0.023541104,-0.6085223,0.19990955,0.09741128,-0.20063244,-0.031594627,0.46815333,-0.47763503,-0.31058714,0.44304952,-0.37359375
SF8657,-1.0006021,0.22709936,0.44328707,-0.05869405,0.114885114,0.04191412,-0.6413245,0.22088876,0.12453117,-0.27339652,-0.029625429,0.42404336,-0.5261865,-0.33462745,0.5285653,-0.36218566
WM266-4,-1.4832274,1.0799141,-0.69600827,-0.0052364115,0.106988706,1.6930403,0.04527089,-0.4005766,0.48809868,-0.1770314,-0.2475751,-0.8528972,0.6380371,0.6852445,0.6366838,0.59360653
BICR 22,-1.0659122,0.23414376,0.47019958,-0.2096104,-0.0661368,-0.05864561,-0.7228486,0.23614788,0.09275355,-0.2672193,0.008988023,0.44039568,-0.570418,-0.28630397,0.6172786,-0.2232889
COR-L51,-0.97232974,0.1911144,0.46536112,-0.12910762,0.045356613,-0.06856197,-0.68224776,0.18951038,0.089731835,-0.2877129,-0.00066503696,0.39819562,-0.50937456,-0.2995486,0.10473773,-0.3047597
HLF-a,0.20672005,-0.6151525,-0.10725789,-0.4472945,0.2565742,-0.041781522,-0.52736664,-0.00459072,0.43187025,-0.3600495,-0.039704137,0.093346454,-0.036658,-0.06107006,-0.19709742,0.3495361
SUP-M2,0.110534124,-0.5987052,-0.10650808,-0.29217562,0.24343845,-0.07782576,-0.453984,0.011220492,0.50177675,-0.36996776,0.011622272,0.09507531,-0.17595865,-0.0820044,0.16932207,0.36966342
MOLT-13,2.058213,-1.5972128,0.5217532,-0.13226971,0.1860707,-1.8489698,-0.051485196,1.5282248,-0.59231496,-0.16907562,0.8468218,-0.2530912,-0.5191361,0.14732905,-0.86546797,-0.5878289
SUP-HD1,-1.3622007,0.36270982,-0.110232405,0.7214927,0.49909613,0.116496176,0.11013958,-0.061321083,-0.2892281,0.2967646,-0.84294415,0.15035883,-0.10885531,-0.3312752,0.41480458,0.77948207
COLO 818,-1.1254785,3.1469736,-0.4376659,-0.21593705,-1.3968555,3.3971746,0.63516134,-1.9350755,0.48716003,0.12160011,1.0691028,-1.2386241,1.4707947,0.9368941,0.30521658,-1.176459
RMG-I,0.22653383,-0.5835068,-0.10688147,-0.39011973,0.20501406,0.032839596,-0.42268872,-0.06415601,0.47808966,-0.35280216,-0.014458069,0.09624445,-0.1157438,-0.11162126,-0.08133568,0.37498975
MPP 89,2.5410495,-1.5641401,-1.9969633,-0.39439607,0.39148456,0.83873963,0.9442776,-1.0953721,0.90331715,-0.02792579,0.14716727,-1.6648061,1.6109147,0.74502754,-1.0600897,1.5457032
HSC-3,-0.7364109,0.22269018,0.53700686,-0.18381622,0.06193773,-0.09610054,-0.6354219,0.20491163,0.085614845,-0.26641914,0.008964449,0.45416522,-0.52008367,-0.3098455,0.29492676,-0.41703224
HT115,5.8616953,1.050219,-1.8692722,1.2399877,-2.6215892,0.15840267,5.906556,1.8441095,-2.4439094,1.6310551,0.93088293,-4.3336973,4.5053954,5.608264,-2.7912126,0.51635635
NCI-H2052,0.08527322,-0.5626519,-0.10906632,-0.37125182,0.24486016,0.011284221,-0.5713152,0.0040697083,0.43784076,-0.34334794,-0.061079957,0.093020216,-0.015950538,-0.11724272,0.19522,0.4361257
OVKATE,-0.93678635,0.24800675,0.52520126,-0.19088726,-0.040053047,-0.019099332,-0.69913983,0.18709385,0.10213899,-0.25379655,-0.03732044,0.39851135,-0.47634938,-0.32368907,0.9536575,-0.23775165
PC-14,-1.1674031,0.21233022,0.43063822,-0.16077536,0.14173374,-0.025822595,-1.0201674,0.25558418,0.12134452,-0.27645248,0.05423721,0.4940027,-0.4902267,-0.3165313,0.6222207,-0.36445802
MHH-NB-11,0.14770094,-0.56982154,-0.108912036,-0.35837594,0.1941796,-0.07019456,-0.39668143,0.022270232,0.48467952,-0.3402005,-0.082768336,0.094680496,-0.00083275884,-0.085105546,0.2938162,0.24011038
HMEL,-0.8068773,0.298463,0.4686532,-0.25433964,-0.12864473,-0.07475137,-0.87199265,0.20502153,0.15688697,-0.24952175,0.0055881366,0.41269934,-0.45045397,-0.32389164,0.40405464,-0.35574636
HCC2218,0.21663776,-0.56281227,-0.10817379,-0.26596165,0.1557137,-0.08268997,-0.35942882,-0.001210276,0.46519062,-0.36531806,0.05168563,0.09632859,-0.112341024,-0.0892165,0.30012846,0.30135706
CHL-1,0.8409387,2.2665565,0.333225,-1.0563893,-2.5318174,0.9697896,0.9232615,-1.2592237,0.32314667,0.06497419,1.4419155,1.1721764,0.58839935,0.78618383,-0.76016235,-2.2792923
MOLP-8,-1.2155647,0.2129514,-0.9658065,1.5162956,1.4283556,0.7113136,0.54232174,1.0052587,-1.1244272,0.48446134,-0.21529685,-2.7184527,0.56929624,0.62666017,0.3782903,0.90989864
BICR 16,-1.1197726,0.23475857,0.44585985,-0.0019768998,0.15375659,-0.029408742,-0.84099203,0.1636745,0.1170189,-0.3147667,-0.06356552,0.4404622,-0.5548178,-0.30854154,0.36876017,-0.27212843
Hs 940.T,0.017449215,-0.5647052,-0.11078957,-0.30593193,0.1025396,0.02338121,-0.4731133,-0.058019754,0.4549204,-0.33740085,-0.048844878,0.09742375,-0.0704852,-0.07622525,0.033026427,0.32892776
KG-1,0.3333089,0.45594054,0.8613775,-0.7247117,-1.2043301,-0.53671324,0.17622747,-0.17092413,0.48569375,-0.022424664,0.024996206,1.8937819,-0.1474648,0.08102586,-0.41431662,-0.4703415
TALL-1 [Human adult T-ALL],-0.8972717,0.20331886,0.48553315,-0.038221695,-0.009076238,-0.02916837,-0.7183896,0.27727717,0.15252279,-0.26193014,-0.06165619,0.41787788,-0.5178629,-0.31895486,0.8441882,-0.22504441
VMRC-RCW,0.19683121,-0.5607371,-0.10829781,-0.34810686,0.13388342,0.04815844,-0.14884987,0.12902394,0.47396296,-0.44954136,-0.022243451,0.10074113,0.0006145686,-0.08694996,0.2608779,0.38194335
COLO 704,-1.2438554,0.3358681,1.3589766,1.6823423,0.84383106,-1.980694,0.11639646,1.4749866,-2.185037,0.6717148,-0.37807107,0.18595822,-1.3639561,-0.9829424,-0.30380034,-0.6615932
CAL-148,0.055580646,1.5177702,1.3391769,1.61391,0.8494825,-0.797719,0.3824259,0.20462738,-2.7555687,1.1061375,0.8991882,-0.22017348,-0.90157706,-1.308519,-1.4017245,-2.6200972
AsPC-1,2.972009,-1.9340994,-0.034161374,0.24123487,0.3260883,-2.1455503,0.8246688,0.13958511,-0.4606319,0.5142901,-0.0711723,0.67526877,0.13215218,-0.77071166,-1.7519218,0.3998744
K029AX,-1.5548006,1.0470291,-0.7050643,-0.00097146165,-0.07542375,1.7103074,0.09605278,-0.4443644,0.460555,-0.19056772,-0.17689647,-0.8849941,0.6378219,0.6897806,1.0700384,0.47521958
KYO-1,-0.8737413,0.20346233,0.46260595,-0.10257159,0.07745819,-0.09620355,-0.94203675,0.1708758,0.14105347,-0.286238,-0.059652414,0.42774385,-0.5490184,-0.30875364,0.46416622,-0.29326487
OAW42,1.3150967,0.40014338,0.019902337,0.36543864,0.7335736,0.44507396,-0.29354402,-1.1819525,-0.86323285,0.456603,1.4358634,-0.77454025,-0.13559747,-1.6541208,-1.4031968,-2.1677344
KALS-1,-2.0531282,-0.05698245,0.7399733,0.89456606,0.35124815,-1.0084292,-0.44959244,2.003903,-0.58414084,-0.05370454,-0.9260204,0.27077138,-0.7822432,0.41714317,1.1320168,0.75691175
KYSE-520,-0.9806228,0.22537382,0.4829371,-0.063599296,-0.005934812,-0.0532522,-0.84080243,0.14613225,0.12052434,-0.2563015,-0.010492317,0.3989154,-0.4869114,-0.33514228,0.4934845,-0.2878214
KLE,2.4433537,-1.7040608,0.97172654,-1.400569,-1.3376331,-2.1933773,-0.07482624,3.0703938,0.20036092,-1.0198829,0.8946133,-0.00066701695,0.019815419,2.286183,0.05447542,-0.13826568
MDA-MB-435,-1.5751013,1.3636994,-0.31899548,0.042994082,0.08988993,1.6146315,0.06735791,-0.40116552,0.3073721,-0.18907265,-0.09161978,-0.74959534,0.44789758,0.54292786,0.9902864,0.21299614
LS180,2.0150292,3.2481627,-3.0874753,3.7197304,-0.670659,2.7392614,6.332542,-3.0501466,-2.5542088,3.3671355,-0.9084534,-3.1300387,3.9536989,1.9163876,-2.8181303,1.3501798
NCI-H460,2.1673365,-0.62605965,-0.55790186,1.4182736,1.6069514,-0.55411714,1.1747937,-2.063413,-1.2597706,1.7473352,0.062096562,0.0934962,-0.023783322,-2.0586913,-2.2279735,-0.6767386
NCI-H716,-0.101800434,-0.40333825,0.118285544,0.51174104,0.6105142,-0.7230331,0.20908692,-0.51006746,-0.14987977,0.65661967,-0.8572405,1.1796933,-0.4460326,-1.0837357,-0.57648104,0.6301876
HT-1376,-0.9335331,0.19464521,0.4864038,-0.14983384,0.23106539,-0.036150455,-0.7765681,0.19755821,0.08644597,-0.32674634,-0.056435693,0.38602298,-0.4985756,-0.33648735,0.540385,-0.35432488
MHH-CALL-4,1.0446906,-1.1736236,-0.45921248,0.259701,0.54407597,-0.70078474,0.4925538,-0.69430083,0.2694365,0.5553849,-0.7385034,0.822031,-0.002602649,-0.8290282,-0.7693633,1.150004
42-MG-BA,-1.568916,0.57018876,0.114874184,0.7907176,0.60840607,-0.027665658,0.07101448,-0.015307918,-0.4163412,0.44035012,-0.81192577,0.41711992,-0.22021979,-0.4648317,0.3465584,0.38741875
PL45,1.052408,-1.199007,-0.5146392,0.1878857,0.6467627,-0.80626655,0.45791662,-0.68482965,0.295214,0.425452,-0.7465001,0.8050279,-0.012412411,-0.85825044,-0.9790518,1.1428002
KYSE-30,2.9453435,-1.750559,-0.92378616,-0.7641902,0.034917764,0.011286125,0.46128803,0.3671939,0.3497365,-0.5408594,0.8658286,-1.4476095,0.7326745,0.8691799,-1.0443411,0.13304988
LS123,2.2289288,-1.2749212,-1.74258,0.3741394,0.6768608,0.30216286,1.4134128,-1.4032457,0.34198686,0.76777875,-0.56424236,-0.47701547,1.1586686,-0.31307727,-1.5291165,1.5695261
TT2609-C02,-0.9305095,0.22960846,0.4807467,-0.044488773,0.33145672,-0.0803843,-0.36016142,0.28603578,0.13815589,-0.24633375,-0.09404548,0.42160246,-0.49205154,-0.32096708,0.47099096,-0.26412502
KPL-1,1.385956,0.4320287,0.21572226,0.32031497,0.39861912,0.45155773,-0.3166893,-1.4381201,-0.8289884,0.12809105,1.6458614,-0.73138154,-0.23606959,-1.5154266,-1.3398122,-2.345588
LC-1F,-1.2039858,0.07533906,0.83283854,1.6005487,0.9463006,-1.3029157,-0.17183697,0.8929434,-1.6191391,0.6768716,-0.46439406,0.32575107,-1.2056053,-1.4383585,0.030010715,-0.3929467
U-343MGa,-0.917567,0.20134446,0.48054662,-0.16939302,0.19372657,-0.05691371,-0.6913947,0.17936787,0.1409833,-0.30437177,0.019379362,0.44671372,-0.5753212,-0.33961844,0.24979323,-0.23713939
NCI-H684,6.7323213,-2.5727437,-0.9923105,-0.42192256,-1.3243847,-1.681742,2.8566194,-0.83229977,0.050035056,1.3863306,-0.0751843,1.0871093,1.5256629,0.93061215,-3.684715,1.1667975
NCI-H1836,1.4641356,-0.70734245,-1.3903754,-0.12016499,0.31116658,0.88621193,0.6164746,-0.7217372,0.46440446,-0.07258343,0.11277712,-1.3124104,1.0798587,0.33120918,-0.22978246,0.9271618
CAL-120,1.3114398,-0.7163209,-1.385682,-0.11363007,0.35390276,0.9622685,0.6681319,-0.5503214,0.5149198,-0.05528953,0.09752221,-1.2830285,1.0461377,0.39394435,-0.93192875,0.8974742
HDLM-2,2.5204427,-1.5554452,-1.9931662,-0.41622856,0.4203158,0.8438444,0.77032894,-1.0479784,0.85579914,-0.049386017,0.14872201,-1.6494169,1.625214,0.768442,-1.0669484,1.4624766
NCI-H292,-1.0315304,0.22938445,0.48878047,-0.16816953,0.010038249,-0.054609485,-0.76095873,0.28070626,0.090084136,-0.2779595,-0.07734184,0.3939959,-0.57813865,-0.3338925,0.26992142,-0.2763774
SH-4,-1.6844893,1.0398194,-0.7066806,0.0041776467,-0.11290409,1.6940703,-0.2599759,-0.4082938,0.51612276,-0.18094447,-0.24532111,-0.8630609,0.63751256,0.6858218,1.0159197,0.6304817
SNU-201,-1.561111,0.5820112,0.13369966,0.8717393,0.50819415,-0.008573634,0.025454722,-0.033380143,-0.3868117,0.46064004,-0.80613375,0.35802087,-0.3072592,-0.4889891,0.31593317,0.47310424
SNU-410,-0.16441385,-0.4012916,0.11083243,0.47810736,0.82964534,-0.7506771,0.20061076,-0.44547302,-0.1811966,0.7271365,-0.8602322,1.1833208,-0.448614,-1.0956966,-0.47037032,0.70543337
TUHR14TKB,0.022347368,-0.57102394,-0.10858375,-0.4461042,0.2361072,-0.09056774,-0.27840096,0.013137684,0.46225476,-0.3815829,-0.04941042,0.09085332,-0.09969665,-0.06255469,-0.0071133524,0.3564698
Becker,-1.0027368,0.18784143,0.49216118,-0.17371593,-0.23930842,-0.05710155,-0.65840346,0.2199727,0.14572796,-0.29773518,-0.030499013,0.39645076,-0.45539364,-0.34444284,0.54257536,-0.09839697
PE/CA-PJ41 (clone D2),-0.90083206,0.22425206,0.4642172,-0.17147952,-0.02639819,-0.08351141,-0.50856876,0.24696212,0.15107083,-0.26576734,-0.01582261,0.4021089,-0.5149035,-0.34499314,0.56550086,-0.30460167
HEL,1.5074111,-0.7169796,-1.3894541,-0.109438315,0.2898238,0.9585606,0.6447801,-0.8791478,0.5034916,0.032766566,0.09743778,-1.3254677,1.0635744,0.43126184,-0.26878336,0.78487396
Hs 737.T,0.18281236,-0.5634433,-0.10646951,-0.36883974,0.10857675,-0.08616173,-0.48679468,0.06655526,0.45145532,-0.36272845,0.009929009,0.09515549,0.0016620234,-0.1113153,0.38958496,0.12776181
NCI-H1666,-1.5754083,1.0926299,-0.6870572,0.012405286,-0.10315659,1.6710801,-0.13872276,-0.43061817,0.56879747,-0.18687046,-0.24599048,-0.8327179,0.63830066,0.68108344,1.0836048,0.51326084
HCC2814,-0.82049865,0.23990905,0.5137676,-0.19242305,0.20537896,0.007034477,-0.735085,0.17489004,0.10865059,-0.30900526,0.032863434,0.38292736,-0.43642694,-0.2833317,0.32034928,-0.22778317
OVK18,-1.2942529,0.86210537,0.7925557,2.4638867,1.5159302,-1.4954387,1.0827291,-0.58016044,-2.0337672,1.8922131,-1.409119,1.4762688,-1.0765435,-2.0481038,-0.99181443,0.025309132
Daoy,-1.2368463,0.089891195,0.8468952,1.5020543,1.6996528,-1.301729,-0.17171556,0.6830549,-1.5470563,0.63670474,-0.44863316,0.2876037,-1.2182301,-1.2980995,-0.21935757,-0.2784158
HCC1588,-1.2684765,0.67302704,-0.87397546,0.8871929,0.2607725,0.92176855,0.8659756,-0.89116234,0.21366648,0.77775913,-1.0932349,-0.15907969,0.58324414,-0.12995662,0.323279,1.363073
LCLC-103H,-1.5201715,-0.7922193,0.80784863,0.164409,0.47167087,-1.2691339,-0.7976122,2.2316637,-0.1987582,-0.6155787,-0.55230486,0.18667875,-0.9269351,0.3366959,1.1884097,0.6902322
BT-549,0.14961733,-0.5776165,-0.10841459,-0.4257337,0.07269883,0.06748609,-0.41052592,0.100515544,0.5225236,-0.33583307,0.021145355,0.096442595,-0.06085712,-0.085539035,0.043235205,0.302499
NCI-H1563,1.3612665,-0.65153545,0.12722702,-1.0606468,-0.78864783,-0.3367317,-0.078850366,-0.4632826,1.025424,-0.2898779,-0.029271537,1.3437052,0.43164945,0.104923666,-0.5518323,0.15137725
GR-M,-0.94337094,0.14480859,0.45051998,-0.14624065,-0.12699085,-0.08012022,-0.617187,0.13064343,0.1303823,-0.31021962,-0.018407559,0.41789368,-0.5493025,-0.3268209,1.017385,-0.28189927
BxPC-3,-0.8768063,0.19404276,0.5005828,-0.12840545,0.417624,0.045531727,-0.41899544,0.15073879,0.12808973,-0.25972006,-0.0074346736,0.4619592,-0.4403913,-0.3332533,0.7602804,-0.33393678
TEN,-0.107231915,1.3507934,-0.8610417,3.3094907,1.6383357,0.3255937,1.8038683,-1.1063306,-2.9901993,2.2887661,-0.039837107,-2.0528426,0.6354329,-1.6961423,-1.7080418,-0.7608191
BFTC-909,0.08262046,1.210683,0.7304541,0.4358567,0.3237328,0.4491526,-0.43390137,-1.1874552,-1.2555687,0.025124878,1.4078224,-0.45706314,-0.5919059,-1.672854,-0.9762512,-2.7298012
ACC-MESO-1,1.6189038,-1.9018377,0.1654509,-1.2285655,0.14393958,-1.0900215,-1.0531878,0.9366523,0.53497314,-1.1809069,0.8602164,-0.23629943,-0.1586138,0.14493385,-0.36287528,-0.102791846
DMS 53,0.7626855,-0.894715,0.8788981,-0.8575669,-0.092746384,-1.1186538,-1.2205738,1.2277467,0.046200708,-0.96206206,0.7271312,0.22497937,-0.82324344,0.005601651,-0.02721779,-0.7330587
MKN1,3.2834866,-0.5981775,1.0335659,0.43057188,0.47775424,-1.5622658,0.067633286,0.27858353,-2.0277705,0.08342068,2.0657258,-0.63460505,-0.7067298,-1.6912622,-2.2020593,-3.2972507
PC-3,-1.0341136,0.16962238,0.5465867,-0.07551353,-0.15420675,-0.06936616,-0.8456002,0.17933568,0.0988168,-0.32980534,-0.070211515,0.40026236,-0.481705,-0.35354027,0.30466497,-0.3029576
SW579,-0.7588577,0.18737298,0.5234223,-0.106971666,-0.0009913966,-0.09836042,-0.74462986,0.24014276,0.038347088,-0.22937828,-0.071381465,0.42720172,-0.65141916,-0.3271741,0.1784502,-0.23232213
HPB-ALL,2.7640736,-3.2037036,0.2376633,-0.4216768,0.4116367,-2.6442704,-0.12446323,3.3350613,-0.4003098,-0.91152143,0.5593728,-1.1544331,-0.33208713,1.2036233,-0.474628,0.77690655
GMS-10,-1.602448,0.6021747,0.13788587,0.8589768,0.5059504,-0.014213141,0.03559334,-0.058921296,-0.4012917,0.64357615,-0.81295806,0.37490505,-0.29120174,-0.5364626,0.5348325,0.39844453
MDA-MB-468,-2.0535846,-0.023412237,0.76306623,0.8958568,0.50467074,-1.0481862,-0.3876283,1.9042999,-0.58253896,0.009263586,-0.9174391,0.22462504,-0.73809797,0.3874061,1.13031,0.83020306
JHOM-2B,-1.7837361,1.3103393,-0.49307552,0.048902474,-0.14222322,1.5561198,-0.027593046,-0.401117,0.38456386,-0.17883559,-0.17926247,-0.72891766,0.45174617,0.54771423,1.2111645,0.15261078
A101D,-1.5679483,1.057622,-0.75171965,0.012355863,-0.06182208,1.7009647,-0.16240218,-0.42802456,0.43306795,-0.18322346,-0.24865949,-0.8785011,0.6377686,0.68983793,1.1706836,0.5847322
NCI-H2009,-0.21902406,-0.33890915,0.119474925,0.4527526,0.6857877,-0.8060442,0.36499935,-0.46582535,-0.13515846,0.5762383,-0.8613206,1.1811057,-0.46357167,-1.0969418,-0.5468348,0.52769834
IMR-32,0.121170774,-0.53975856,-0.10759095,-0.34721,0.19533011,-0.021616157,-0.34191024,0.039282627,0.45504174,-0.37884143,-0.020639261,0.09853794,-0.14621714,-0.07791473,-0.016526893,0.2777493
YH-13,1.0357656,0.49871704,0.15772216,0.22079763,0.59210217,0.45115593,-0.25424364,-1.56535,-0.8868813,0.372189,1.4680234,-0.7375581,-0.15333532,-1.6462967,-1.6299572,-2.1566222
NCI-H1694,-0.9851132,0.24557176,0.47181395,-0.040172458,0.17182812,-0.083639026,-0.7378117,0.1668435,0.10062094,-0.30280125,-0.031546064,0.43279633,-0.5112155,-0.32122588,0.35458523,-0.30145046
COLO 829,-1.242711,1.6093241,-0.04458294,-0.39003837,-1.2757916,1.3703222,0.52412015,-0.63811713,0.7402489,-0.026547961,-0.27905846,0.48522082,0.54856277,0.89499015,0.8666606,0.2841983
NALM-6,4.88339,-0.98482245,-2.1071534,-1.4564978,-1.024754,1.6986525,1.3944244,-1.5701418,0.9614574,-0.42003846,1.9675759,-2.2425756,2.5220144,1.4935994,-2.6344297,-0.5239912
SLR23,-0.9899732,0.28388312,0.48337355,-0.19730656,0.25235102,-0.034025647,-0.7727574,0.16823727,0.09942205,-0.259592,-0.0138692,0.40933904,-0.4539455,-0.33148697,0.75078714,-0.4589714
SNU-81,5.9342165,1.7046934,0.91594666,3.2640815,-2.6719155,-4.068396,6.609702,3.146118,-5.225993,3.7323852,0.9099846,-1.3375823,1.72568,3.3947415,-4.2078733,-1.4167476
SNG-M,6.4136004,-0.881953,-2.3756692,2.1216166,-0.05024463,-0.40296984,4.6778955,-2.4331763,-1.8096212,1.7894456,0.45618725,-1.9519515,2.7228587,0.20007086,-4.327023,0.55303156
COLO 677,-0.91160834,0.25645128,0.53191084,-0.027363397,0.23057356,0.036792204,-0.79752505,0.19417933,0.086996146,-0.34329027,-0.0047361273,0.4807156,-0.6017769,-0.34188884,0.61882186,-0.221434
OCI-AML-5,-0.45535165,-1.5130924,0.2064383,-0.22410421,0.55971545,-1.236538,-0.77800655,2.0683484,0.21972962,-0.7818778,-0.44959968,-0.20210949,-0.49675366,0.5610656,0.7659037,1.2157726
LCLC-97TM1,-0.11645661,-0.40055424,0.11683279,0.5356432,0.77533543,-0.76905173,0.22536597,-0.549963,-0.14521798,0.58652806,-0.86085004,1.1883814,-0.43708548,-1.1218241,-0.38228622,0.5096055
SW1783,-2.261404,0.4380724,1.4155571,0.36995783,-0.7798919,-1.4588555,-0.07650256,3.3802714,-0.7435578,-0.28403428,-0.91458577,0.554193,-0.65931594,1.7581754,1.6641115,0.6624443
769-P,0.18780631,-0.56461084,-0.107192315,-0.42302558,0.19511847,-0.12906356,-0.6027674,-0.09170483,0.44749555,-0.39217344,0.047100175,0.09363002,-0.062160507,-0.10181657,0.1964761,0.15065712
NB4,-0.13430804,-0.37831885,0.11839944,0.57064736,0.40715554,-0.7020118,0.2793969,-0.43472913,-0.130312,0.68197393,-0.8643793,1.187492,-0.43974766,-1.0794399,-0.43469733,0.67937785
OCI-Ly19,0.22579946,-0.60249317,-0.108099096,-0.39483684,0.12566411,0.024157342,-0.7314122,-0.045809504,0.45847732,-0.37169662,-0.028546099,0.09507633,-0.06331468,-0.07239644,0.1635304,0.27511048
HuCC-T1,2.9821758,-1.8644631,-0.033875585,0.16255042,0.2598472,-2.0025327,0.9095566,0.16130197,-0.54890263,0.75006735,-0.057352588,0.75584966,-0.0828134,-0.62934166,-2.0277762,0.2155086
Mono-Mac-6,-0.8568196,0.23246013,0.5280896,-0.25028294,0.25275046,-0.016065938,-0.7627122,0.27215508,0.109458685,-0.26061726,0.00037996285,0.43809092,-0.5174352,-0.27756765,0.74935186,-0.3937082
Panc 03.27,1.0336273,-1.2056342,-0.4415565,0.21304299,0.6808864,-0.69066465,0.3253892,-0.6558752,0.28814018,0.37509593,-0.75252646,0.8080111,0.0061295917,-0.8494871,-0.74337226,1.118905
ME-1 [Human leukemia],0.018546946,-0.606908,-0.10798157,-0.52862227,0.20697938,0.07257323,-0.5320308,0.094621316,0.5140149,-0.4070659,0.0030701514,0.09384355,-0.10510507,-0.12137072,0.086247265,0.41589826
SW1990,1.0673363,-1.232057,-0.47443408,0.10686948,0.5608338,-0.8077668,0.30285224,-0.86744535,0.2090089,0.5134139,-0.7436466,0.86700374,-0.100595064,-0.8843629,-0.85206294,1.0533787
NCI-H2170,-0.7554038,0.20779037,0.4974182,-0.01479581,0.10955253,-0.024551796,-0.7854618,0.21321121,0.10878337,-0.20968524,-0.070880905,0.41839245,-0.4696536,-0.31594408,0.24754694,-0.1749438
SNU-1076,1.2995276,0.47472504,0.07907715,0.19031128,0.43130434,0.44230792,-0.35493523,-1.5251011,-0.77081025,0.3400578,1.4337534,-0.76580626,-0.20921054,-1.6129519,-1.1545908,-2.0825248
HK-2 [Human kidney],-0.9998559,0.19523196,0.49627307,-0.018944092,0.077665396,-0.022393983,-0.8392081,0.25746337,0.1374532,-0.30641356,0.034896214,0.43004394,-0.488361,-0.29401284,0.8604038,-0.22199139
CHP-212,0.1370114,-0.5589973,-0.10669889,-0.26255044,0.11374456,0.016614608,-0.3087128,-0.06936501,0.55702454,-0.30397534,0.001604069,0.09483999,-0.07398762,-0.077446416,-0.18856993,0.30267218
NUGC-2,-1.0890888,0.2612023,0.49466917,-0.13247156,0.29083142,-0.000121537596,-0.797936,0.29730234,0.09467849,-0.26898864,0.000977505,0.38281894,-0.5696236,-0.32889155,0.6985678,-0.32078895
COLO 678,1.0569012,-1.1964599,-0.408507,0.16712473,0.65339327,-0.76184565,0.26709127,-0.91612136,0.31432426,0.5004796,-0.73825264,0.8492312,-0.069193564,-0.86889005,-0.8347815,1.1046205
A-673,-1.5709803,1.0646571,-0.7162836,0.0073799314,0.004244171,1.6896355,-0.18519877,-0.41407153,0.40513027,-0.18278804,-0.21352848,-0.8745313,0.63783544,0.69833416,1.0910656,0.53168935
HuP-T3,0.98146707,-0.31026208,0.49134618,0.2986089,-0.20932528,-1.3005078,0.8230836,-0.38592595,-0.17515773,0.963353,-0.919425,2.1315863,-0.025389358,-0.56445193,-1.0920042,0.55712557
KO52,0.4831367,0.47958878,0.9917389,-0.6855939,-1.4133302,-0.5165896,-0.1913357,-0.20167236,0.50795615,0.20084071,-0.093817025,1.8985262,-0.45483524,0.08051487,-0.15643293,-0.46732983
JHH-6,-0.41783327,-1.5381123,0.17976628,-0.24881709,0.582746,-1.2395319,-0.6069068,1.9515787,0.22110985,-0.777093,-0.45779452,-0.21168584,-0.462255,0.58736205,0.7865149,1.178047
KMS-28BM,0.63455206,-1.8406274,-0.26125392,-0.031868815,0.50015247,-1.5255923,0.046105083,0.6550064,0.43751526,0.024510821,-1.0387163,0.90370566,-0.2583101,-0.19455226,-0.19648187,1.6574116
SK-ES-1,1.4409368,-0.7131229,-1.3845897,-0.11897004,0.36150268,0.8706984,0.58279616,-0.627619,0.506232,-0.14122567,0.101395324,-1.282883,1.1536386,0.570177,-0.6137333,0.8997293
SNU-1197,5.4230084,-2.9629817,-1.3643475,-0.1094788,0.25088096,-1.2605298,1.9080654,-0.621383,-0.18482667,0.46794212,0.21971996,-0.3724437,0.9641812,0.27093816,-2.913639,1.1132296
COLO 201,0.8421137,0.3241148,-1.9734545,-0.6032397,-0.8058656,2.5122123,0.8017705,-0.13596311,1.0899228,-0.53959125,0.31988478,-2.5045567,2.0359337,2.6832137,0.5414581,1.4595609
SLR24,-1.1245171,0.27920958,0.47087806,-0.1908994,0.09527176,-0.016495192,-0.76076305,0.24458526,0.05847703,-0.26701653,-0.07274618,0.46476042,-0.4585299,-0.321037,0.72354937,-0.27252075
SNU-1,-1.0373696,1.9214283,-1.3777691,1.1294748,-0.022666752,2.3249774,1.6719222,-2.0073826,-0.2113689,1.1772023,-0.5644022,-1.1827605,1.4159751,0.067871,-0.43292212,0.6497177
AMO1,1.0990056,-1.2350672,-0.43569264,0.18441689,0.7307613,-0.8357747,0.42350596,-0.66399467,0.275228,0.4407152,-0.73829293,0.81036913,0.09760197,-0.7998908,-0.75938857,1.1160299
Hs 766T,1.0606878,-1.2241598,-0.47913712,0.13380702,0.5937732,-0.70646006,0.31744114,-0.6265121,0.2654404,0.5278206,-0.73537606,0.8286439,0.014797745,-0.8104775,-1.1624819,1.1358479
SW1353,-1.0909951,0.22778475,0.47207448,-0.11505711,0.07985013,-0.04160776,-0.63429946,0.20052549,0.12136712,-0.28969935,-0.0010434818,0.36221403,-0.49902642,-0.33287463,0.49693465,-0.29073346
Caov-3,-0.9775638,0.27234823,0.4164927,-0.030842021,0.15151024,-0.07446177,-0.5248071,0.2441996,0.11769199,-0.21653625,-0.045364164,0.41477606,-0.4421093,-0.29033914,0.27148563,-0.40398574
NCI-H441,-0.1503329,-0.3797766,0.119274266,0.60893923,0.49422565,-0.6889257,0.14123993,-0.37198013,-0.121431455,0.6977171,-0.86639994,1.185534,-0.4508027,-1.0876113,-0.2922992,0.68806225
P31/FUJ,-1.5402476,0.55015045,0.11920201,0.9094682,0.41365457,-0.03439082,0.044598065,0.049105685,-0.39346823,0.5059584,-0.8052831,0.45016223,-0.28476745,-0.48779264,0.35866368,0.50470126
TE-5,2.8546064,0.35680425,-1.234464,0.54689986,0.8848034,1.3134098,0.9263795,-2.0824168,-0.8074081,0.5515057,1.7827266,-2.126293,0.9709171,-0.9672288,-1.6730996,-1.5007495
NCI-H1869,-1.0231632,0.24128869,0.5165469,-0.21563765,0.105945386,0.028189182,-0.55238056,0.17601348,0.091889314,-0.3446453,-0.025332838,0.41289538,-0.42719594,-0.3322099,0.57501465,-0.31282032
EFO-27,-1.4771805,3.0193253,2.7790906,3.5727067,-0.43336767,-2.3075976,2.1822329,3.1429048,-5.182213,2.7033567,0.11648396,-0.8840759,-0.9469915,0.5704171,-0.4043134,-2.6636782
BICR 6,-1.0060047,0.23169214,0.47805306,-0.021640502,0.25793383,0.01408951,-0.81214595,0.25310418,0.089387104,-0.25551352,-0.06478508,0.41518858,-0.5315935,-0.3189166,0.35288978,-0.17760992
HCC2935,-1.1723003,0.9826072,-0.9695877,1.2363013,0.9546883,1.1124943,1.0421847,-0.6026716,-0.5082262,1.0641441,-0.7842618,-0.88343656,0.80863416,0.105663195,-0.3498484,1.0002334
LN-308,-1.1267874,0.20040914,0.41836223,-0.04636056,0.11272696,-0.04913728,-0.7003592,0.23392464,0.06816372,-0.34537,-0.028632978,0.44483954,-0.4580473,-0.32083264,0.7074464,-0.24064854
CAL-29,0.28002352,1.2609165,0.54012066,0.49012825,0.6313806,0.44115493,-0.44718304,-1.3313069,-1.2848171,0.23845573,1.4156309,-0.5252057,-0.65479356,-1.7492929,-1.0777723,-2.9109106
IPC-298,-1.3214312,0.98400396,0.85521686,-0.7335034,-0.27753878,0.97290194,-1.9183112,1.8536621,-0.52097327,-1.8264437,2.2373533,-2.3695338,-0.3839717,1.3264197,1.6736919,-2.353119
NCI-H446,1.4913002,-1.9653453,0.7498204,0.06332797,0.27002224,-2.277268,-0.23420909,3.1304932,-0.9057449,-0.7837555,0.3174536,-0.7811822,-0.5968476,1.1907403,-0.22311151,0.1702298
SCC-25,-0.90612704,0.19751215,0.49099344,-0.10071631,-0.01523494,-0.0263112,-0.6188022,0.07599514,0.13805895,-0.23342802,0.019245021,0.4089212,-0.4540535,-0.3206438,0.36929697,-0.30837202
AM-38,-1.5845852,1.0860641,-0.6395888,-0.0054425895,-0.15032123,1.6890796,-0.17991145,-0.4303073,0.48598278,-0.18161261,-0.178847,-0.8637484,0.63778764,0.6987194,0.88762766,0.45283878
OAW28,-1.1228952,0.23158768,0.50595075,-0.1471739,0.09579569,-0.052763533,-0.7021856,0.17005968,0.10437887,-0.29374924,-0.02214848,0.40826464,-0.53725636,-0.31905207,-0.101291716,-0.1297644
A-549,2.6334832,-2.413547,-0.46535754,-0.34920335,0.5002788,-1.327782,0.08180091,-0.20234555,0.46199897,0.021797828,-0.2889211,0.76403165,0.10914731,-0.6056772,-1.3545479,1.0043051
RERF-GC-1B,1.7417815,0.8173908,0.9588516,-2.295605,-3.0929961,0.2272133,-0.36437958,1.437985,0.88632435,-1.5804257,1.7953519,0.18692331,0.7724077,2.8079484,0.37018883,-2.0832908
NCI-H526,-0.5748923,-0.10561664,0.8168773,-1.2284983,-1.0428795,-0.3498156,-1.3911889,1.614694,0.8093107,-1.1708508,0.28054476,0.46595716,-0.08335468,1.369953,1.1181473,0.0013223812
NCI-H810,-1.0235962,0.19782588,0.47402614,-0.15812473,0.27460077,-0.026191827,-0.6179609,0.16352312,0.07283769,-0.2381056,-0.04352823,0.43389797,-0.5139286,-0.31060094,0.3870584,-0.31915888
RD,-1.5436372,-0.78412026,0.81528455,0.13083053,0.46908283,-1.1986398,-0.7947473,2.0551238,-0.19852634,-0.56863695,-0.5575981,0.22533403,-0.92256,0.32829732,1.1900976,0.6675151
Raji,-0.9710931,0.20233876,0.4624864,-0.17046373,0.18933994,-0.06776062,-0.8240167,0.16205461,0.13027821,-0.3612327,0.0021271333,0.42853191,-0.5135742,-0.32768875,0.1860511,-0.21312588
CAS-1,-1.5433084,0.5891967,0.10589233,0.83682805,0.50255597,-0.0032804739,0.12124792,0.029184155,-0.4279959,0.47229058,-0.8105093,0.38124165,-0.3194403,-0.47641024,0.13782595,0.4158043
CAL-33,1.4776068,1.5634815,-0.32817322,0.07874238,-0.08279938,2.23383,0.07650996,-0.4819523,-1.3731601,-0.71066195,3.766763,-4.738447,1.0496724,1.4105144,-0.7084063,-3.861743
Hs 863.T,0.24663478,-0.5516857,-0.10901825,-0.3086949,0.1748087,-0.05624339,-0.46459693,0.025667688,0.4941131,-0.34172988,-0.014757949,0.09316979,0.005663052,-0.109649956,0.12695624,0.4393294
SU-DHL-10,-1.1475294,0.40135878,0.1295708,1.2243983,0.62829936,-0.5047406,0.4234325,-0.633775,-0.6989424,1.1706046,-1.1677481,1.0250984,-0.50097436,-1.1737502,-0.5333066,0.64606786
HCC1395,-0.28027627,1.8559059,-0.13218692,-0.5714499,-1.0986505,1.7082994,-0.102231935,-1.4794518,0.31460217,0.0013159141,1.0445395,-0.11057657,0.72253966,0.15488032,0.19816446,-1.3698108
J82,2.4566467,0.38877767,-1.0136828,0.70375544,0.42465743,1.3035266,0.83833224,-2.3813825,-0.9296108,0.8386239,1.5967952,-2.1213512,0.98361045,-0.9612195,-2.0568693,-1.5856953
Hs 870.T,-0.9861739,0.24774694,0.51204157,-0.13083288,0.39750966,-0.0812159,-0.80575067,0.24035504,0.106884316,-0.26926458,-0.03752173,0.42718,-0.5128831,-0.3256312,0.3239453,-0.23839162
MOR/CPR,3.7462773,-2.1070514,-3.146756,0.7236521,1.3697964,0.9182708,1.9283426,-0.8569597,-0.060133338,0.5819156,0.06623928,-3.2987475,2.258809,0.7460582,-1.8992767,2.2552872
COLO 699,-1.0952824,0.226868,0.44617033,-0.2522886,0.15725406,-0.021467201,-0.66470945,0.2015325,0.10456576,-0.36275035,0.05200868,0.43692297,-0.5100869,-0.3299744,0.63806957,-0.28858858
KHM-1B,1.0414155,-1.1902114,-0.4987213,0.32525066,0.6608008,-0.7180339,0.49392387,-0.6737227,0.27465722,0.41438782,-0.720254,0.7821174,0.0018669232,-0.8445925,-0.97366065,1.0947549
NCI-H889,-0.7502852,0.18674386,0.5248989,-0.108050406,0.21089695,-0.12386972,-0.71379775,0.19865255,0.15119514,-0.2771117,-0.07301737,0.37055346,-0.4780286,-0.32723567,0.4982685,-0.14837295
Hs 683,-1.138237,0.23567724,0.53503436,-0.0053841993,0.067941025,0.015009891,-0.6712682,0.15858716,0.14727567,-0.26983434,-0.005560169,0.42913762,-0.4771684,-0.28690523,0.34462976,-0.40068445
MOLT-16,0.14804062,1.2320689,0.39296907,0.45753792,0.55528206,0.45839545,-0.6758023,-1.3534442,-1.2115444,0.38613605,1.2687579,-0.44486338,-0.6690943,-1.5629451,-1.1083872,-3.1054413
A2780,-0.6510623,2.1958601,-0.04167448,1.9172518,0.7216358,1.011518,0.75613415,-0.62605107,-2.0083385,1.0711073,0.73620117,-1.8204372,0.15579866,-0.40635782,-0.805549,-1.799264
Hs 840.T,0.95838857,0.7619746,-0.8852742,-0.94358337,-0.51778567,1.8608006,-0.033834487,-1.7508056,0.81421244,-0.24672589,0.9861347,-0.629407,0.9376192,-0.07163267,-0.7478602,-0.73413974
HL-60,0.1899223,-0.51088,-0.107676454,-0.21384606,0.120484516,-0.13107854,-0.46817693,0.17933205,0.46304592,-0.3889044,0.01579545,0.09890262,-0.02023878,-0.14060844,0.26853198,0.28115505
TC-71,-0.92651105,0.21815331,0.48879576,-0.1763832,-0.051724024,-0.09849301,-0.5859382,0.16296625,0.091085404,-0.2256977,-0.039570805,0.4111567,-0.47533715,-0.3365776,0.5625033,-0.3570291
NCI-H1792,-0.165935,-0.37646493,0.1189789,0.55652565,0.6795712,-0.76311606,0.0811151,-0.3393644,-0.13531575,0.5871635,-0.8609644,1.1833495,-0.42393127,-1.0669062,-0.44004878,0.51455873
U-937,-1.5464053,0.6027486,0.13106182,0.79527533,0.6980622,-0.014354269,0.10827641,-0.06362767,-0.39089274,0.6539777,-0.8115815,0.3488897,-0.3319272,-0.44204214,-0.08441597,0.41618264
DMS 273,-1.5633246,0.571661,0.11111937,0.91129595,0.6036306,-0.0038618632,0.18127957,-0.040778447,-0.46420613,0.5042587,-0.80527747,0.40244383,-0.33295685,-0.5082523,0.40415967,0.43538204
KYSE-270,1.1471173,-0.9415378,1.3043422,-1.7150439,-1.5176699,-1.4438251,-1.429978,2.5866225,0.49222833,-1.6629468,1.0942581,0.3906594,-0.22830574,1.9668149,0.6671966,-0.9738512
Hs 274.T,1.1165438,-1.2271008,-0.42740193,0.16791111,0.62429357,-0.7023358,0.2949654,-0.72492015,0.27171835,0.4608864,-0.740776,0.83872324,-0.04767311,-0.8067697,-0.7464501,1.143706
A-375,-1.543313,1.7068583,-0.3812999,-0.68164843,-0.33376226,2.7569668,-1.1675667,1.1320349,0.13446912,-1.7529715,1.923751,-3.867774,0.6891859,2.2388048,2.2376451,-1.5694002
JHH-7,-0.49363375,1.8293047,0.12396811,-0.40418026,-1.1493185,1.7215189,-0.252707,-1.4752057,0.34792194,-0.11795897,1.0382636,-0.11022604,0.29988956,-0.119791105,0.7910389,-1.6637563
NCI-H650,5.936216,-0.43419433,-1.0737195,-1.5012599,-3.9069204,-1.053519,4.0080094,-0.43768978,0.8719027,0.9456463,0.5137816,1.1590416,3.142832,3.5259209,-2.5113688,0.6891395
IA-LM,-0.7383858,0.34531236,0.24631861,0.54849607,0.4511112,-0.035798308,-0.17377913,0.93909967,-0.801188,-0.058401376,0.40448597,-1.164154,-0.2539082,0.49434513,0.42469823,-0.48416436
SNU-475,-1.5270795,-0.7732709,0.7485744,0.08958847,0.4819092,-1.2000821,-0.8202337,2.0374987,-0.18718961,-0.53080744,-0.5549465,0.14790215,-0.9254007,0.33475167,1.1793958,0.6470524
MDA-MB-134-VI,0.3130788,-0.565044,-0.11083861,-0.43799287,0.12832403,0.013874017,-0.5147021,0.07738313,0.5063266,-0.33823907,-0.05048804,0.09748075,-0.18137452,-0.105240606,-0.12225109,0.29630938
23132/87,0.04096721,-0.58611345,-0.10852501,-0.37561366,0.22869746,0.03413983,-0.5088594,0.017789671,0.52101684,-0.37681878,-0.0333809,0.094517276,-0.154383,-0.117004186,0.35129738,0.39472643
MFE-319,-2.1035833,6.1824055,1.3689463,3.1926548,-3.2456613,0.6187727,5.0767107,3.4313445,-3.9533875,2.4409611,-0.6260924,-2.055892,2.3414588,5.4542036,0.23014352,-1.1373246
MKN45,-0.9233414,0.18790767,0.5013682,-0.20642292,0.19584635,-0.11269595,-0.63178945,0.2539022,0.08415475,-0.23560241,-0.035903547,0.45547962,-0.5816846,-0.31296173,0.49320334,-0.31404746
SK-MEL-24,-1.5586865,1.1130589,-0.6961655,0.012541072,-0.17713934,1.6994739,-0.07490845,-0.42895922,0.49135318,-0.1804334,-0.23941693,-0.8463161,0.63806194,0.69117445,0.7289766,0.42760587
SNU-466,-1.3842406,0.40975416,-0.10965868,0.67020494,0.43047434,0.10810332,0.1413648,-0.09878583,-0.20193397,0.3658889,-0.846735,0.17949261,-0.11022197,-0.35428968,0.2315762,0.8330493
CMK,-0.5335416,1.8688365,0.2830477,-0.5907251,-1.2556242,1.7590047,0.10387793,-1.4825016,0.33807224,-0.08365127,0.9849477,-0.056435026,0.47520396,0.017892078,0.44610658,-1.6235899
NCI-H854,-1.6966147,1.2861493,-0.43636075,0.04385075,-0.11835833,1.6023821,-0.10729056,-0.3904449,0.3191368,-0.12853011,-0.12353164,-0.6749548,0.46417636,0.55185896,1.1385349,0.18774143
TE-15,-0.97352475,0.25858602,0.46492997,-0.12895069,0.110595524,-0.00021484122,-0.7631123,0.16084671,0.13345467,-0.27257156,-0.05480826,0.4854726,-0.5641299,-0.33447552,0.3555984,-0.29930827
JVM-3,-1.4552103,1.0813729,-0.6485558,0.0103488965,-0.1832808,1.6728708,-0.20708951,-0.43951765,0.4113354,-0.18025404,-0.22642411,-0.8588739,0.63759756,0.6871186,1.2119471,0.57971364
BJ1-hTERT,-1.0418093,0.2336638,0.45908782,-0.116093025,-0.008891001,-0.016303966,-0.50569355,0.25629443,0.11544902,-0.30265313,-0.032248892,0.41919428,-0.43108943,-0.318959,0.48831147,-0.29661286
TUHR10TKB,0.12391928,-0.59470344,-0.10858079,-0.5488948,0.25759423,0.0064082183,-0.23706345,0.14785582,0.47423697,-0.35299712,-0.019432403,0.09492062,-0.09750703,-0.14320207,-0.14159444,0.25810662
VCaP,0.060491905,0.4658738,0.96058977,-0.7103266,-1.3863122,-0.4928451,-0.016852362,-0.19241959,0.4617283,0.01308585,-0.24629362,1.8951087,-0.21006292,0.053509388,0.0029238537,-0.6481882
KP-N-RT-BM-1,1.5149175,-0.6517613,0.07266247,-1.0091068,-0.85274005,-0.2686657,0.5546335,-0.35223854,0.9823647,-0.31256354,0.016247287,1.2998222,0.3821532,0.084993765,-0.37649882,0.15881872
HT-1080,0.9921793,0.7273243,-0.52886134,-0.8702381,-0.5555157,1.8379939,0.097470574,-1.7965117,0.8422493,-0.24888827,1.0389038,-0.6216048,0.9092352,0.075384334,0.23621574,-1.0503652
MOTN-1,-0.7437736,0.22679979,0.4822933,0.0038142055,0.09459869,-0.010527551,-0.7619099,0.14577141,0.10496902,-0.32431966,0.04242658,0.4332632,-0.43861693,-0.34398922,0.9418477,-0.329107
Caki-2,1.2942405,-0.6515277,0.12385395,-1.0524954,-0.8793338,-0.3097437,-0.022540405,-0.43766046,1.0308629,-0.29425207,0.062461384,1.3847567,0.24031667,0.08351954,-0.6073746,0.084168285
HEC-50B,3.0452225,-2.8190873,-1.6833649,-0.40748048,0.6519749,-0.6980336,0.8587176,-0.2262159,0.9438749,0.03480331,-0.76000094,-0.8093077,1.3277432,0.5628234,-1.2270439,2.7403212
LN-229,-0.9829964,0.24819784,0.45576853,-0.14689183,0.11781381,-0.026019886,-0.5859151,0.17711632,0.12357641,-0.20147184,-0.060893737,0.42037988,-0.5495838,-0.3038359,0.6855002,-0.26996866
DOV13,-1.0357075,0.24554802,0.5425135,-0.14281365,-0.13190848,-0.0719049,-0.71834874,0.21753857,0.108169876,-0.27617398,-0.033520393,0.36541307,-0.5088309,-0.3029194,0.39102685,-0.4089246
MM1.S,0.9805673,-1.2099344,-0.50137365,0.15532453,0.51797736,-0.7542746,0.41118467,-0.73450744,0.2676633,0.3295938,-0.74449587,0.8552779,-0.029450152,-0.9066586,-1.0547562,1.0238599
DBTRG-05MG,-1.2217323,0.47276214,-1.9111733,1.2516676,1.1001334,1.9520664,1.0124376,0.77566206,-0.54064506,0.013413179,-0.011822641,-3.8864946,1.2527903,1.6460382,0.6683614,1.4449584
SaOS-2,1.5022997,-0.6511928,0.11653176,-1.161644,-0.8635763,-0.46562862,-0.008150477,-0.49923208,0.99896157,-0.24391454,0.07503593,1.3908595,-0.13084713,0.11628189,-0.56286186,0.15820111
C32 [Human melanoma],-1.7718873,1.0382221,-0.6915309,0.014021678,-0.20012659,1.6604029,0.081228,-0.4295399,0.45511866,-0.1866602,-0.2032901,-0.8560463,0.63772076,0.6847053,1.1224368,0.4917526
Evsa-T,-0.6560372,0.16484644,1.2849478,0.98843855,0.19285421,-1.6979765,0.13192879,1.7748947,-1.4839406,0.19841316,-0.14143382,0.5479055,-1.0443137,-0.15768479,-0.09174591,-0.63451517
HCC78,-0.90856606,0.21390076,0.44866192,-0.04119049,-0.0114866495,-0.056178138,-0.76075363,0.21931104,0.17068487,-0.31529757,0.003850285,0.4527679,-0.53383756,-0.357338,0.84195244,-0.1278687
Kasumi-1,-1.0049841,0.19467919,0.54837227,-0.13751966,0.18898568,-0.06883227,-0.63262546,0.23803437,0.13321277,-0.3344544,0.041287735,0.417821,-0.4973659,-0.33024302,0.60299754,-0.25166923
LOU-NH91,0.35157132,1.1241506,0.8249542,0.47570089,0.46838,0.45342693,-0.53395694,-1.216654,-1.2422416,0.48116848,1.5363505,-0.36002195,-0.7108755,-1.7533575,-1.616228,-2.933214
CADO-ES1,0.5081548,0.7463478,-0.7756465,-0.72777015,-0.48620856,1.837253,-0.19047643,-1.7375795,0.75460005,-0.32706612,1.069072,-0.6127117,1.0704695,0.27626374,-0.28902733,-0.83106655
HRT-18,3.9846592,1.7782152,-0.22649157,3.2512193,-1.6141539,-1.5482873,6.1514554,1.2112062,-4.039222,3.2669675,-0.13826202,-1.5103403,2.19083,2.9715598,-3.3072844,-0.05527601
NCI-H2122,1.2503597,-1.1897525,-1.3443289,0.9563495,1.2850827,-0.16713582,0.94572014,-0.37855637,-0.54232115,0.47211567,-0.25446016,-1.5666096,0.657395,-0.022590034,-0.9716003,1.2388216
SW1573,0.9790411,-1.1995981,-0.4810585,0.20551135,0.5779156,-0.59863806,0.29200098,-0.8081585,0.23458119,0.43257388,-0.7556949,0.81975627,0.006981154,-0.8072847,-0.7520352,1.0306214
TO 175.T,0.012620285,-0.58232856,-0.107536264,-0.4481864,0.20317209,-0.040618435,-0.56408805,0.053382542,0.48456687,-0.371493,-0.008827815,0.09679433,-0.046230305,-0.062236674,0.09446938,0.27398345
HCC1599,0.9342643,0.421795,-1.6769378,1.0126716,0.7244326,1.7206279,1.2747643,-0.43882942,-0.79166716,0.29455414,0.74342465,-3.4549747,1.5419762,0.9621912,-0.71898,0.15849274
HCC1187,0.14373672,-0.56242186,-0.10938297,-0.380865,0.18448965,-0.035345506,-0.25244564,0.12354018,0.52266884,-0.3615999,-0.07833658,0.09871123,-0.027419366,-0.09672504,-0.05438824,0.36172327
SNU-C2A,9.4479,-2.666689,-0.59731466,0.36800614,-1.2792276,-3.4611778,4.243491,-1.0474706,-1.2575947,1.3316749,1.2377946,0.9334194,1.807969,0.14560099,-5.771489,-0.73048574
HuNS1,1.3853565,-1.6119106,-1.7512524,0.31341618,1.3988206,0.2514962,0.44610304,0.6093682,-0.32515687,-0.16157918,0.44846693,-3.1524475,0.942347,1.0146078,-0.3042212,1.1934073
MOLM-13,0.9506841,0.681182,-0.7624663,-0.80731064,-0.69451797,1.8184419,-0.26270628,-1.7799115,0.87759477,-0.3589008,1.0460042,-0.60030854,0.9472894,-0.010093521,-0.7154927,-0.9989256
253J,1.4743955,0.53558755,0.012584992,0.25344625,0.56467235,0.44918534,-0.3138156,-1.2802845,-0.8312401,0.49550557,1.4928836,-0.7835381,-0.27087358,-1.6037748,-1.5231856,-2.3278134
KYSE-140,0.70805526,-0.89260775,0.9021796,-0.63799006,-0.09128042,-1.038498,-0.9665543,1.174623,0.037128948,-0.89217335,0.7813807,0.19711386,-1.187199,0.05436544,0.02527123,-0.83314896
L-540,1.2213659,-0.6516829,0.109451145,-1.0339552,-1.0154873,-0.06217718,0.03575759,-0.558215,1.044634,-0.3038367,0.13385934,1.4208945,0.31560272,0.11458918,-0.4085575,0.102895945
JHH-4,-0.89375097,0.25402647,0.42642504,-0.24902004,0.14430411,-0.051299796,-0.7261737,0.28673184,0.104520135,-0.29665855,-0.037307635,0.47511536,-0.40245783,-0.33038393,0.73933065,-0.32648394
RD-ES,-0.94440013,0.21758252,0.44252902,-0.10355953,-0.015398353,-0.10493084,-0.8002081,0.17044778,0.11596232,-0.29426455,0.009135742,0.467717,-0.4802111,-0.33517656,0.64666337,-0.32650018
D283 Med,-1.0298432,0.25507683,0.45817935,-0.063001975,0.10103852,-0.09598636,-0.91080225,0.24304864,0.11481107,-0.24943504,0.010024972,0.39426318,-0.55344933,-0.30437773,0.77093315,-0.33632255
SF172,-1.0427283,0.25515074,0.42964178,-0.111440435,0.19475475,-0.01256983,-0.9455639,0.21112646,0.132764,-0.25748965,0.028024208,0.43328145,-0.54626554,-0.30220363,0.6888939,-0.29696497
GI-1,-0.99423826,0.29865617,0.4829643,-0.053351685,-0.08187982,-0.08074485,-0.75258523,0.201868,0.134812,-0.271951,0.04316815,0.42307657,-0.60493153,-0.34964716,0.5537131,-0.29650828
NCI-H1581,1.334483,-0.6906372,-1.3870721,-0.113740504,0.3112616,0.7782428,0.71727335,-0.72992027,0.4695033,-0.011701617,0.122853674,-1.2978632,1.1932597,0.46587962,-0.6601231,0.93032277
OVCAR-3,-1.2320386,0.072874814,0.8255235,1.3998536,1.1257589,-1.2983221,-0.17195404,0.5836374,-1.5733893,0.7825257,-0.4587672,0.37692398,-1.2421327,-1.4523593,0.018037662,-0.33612168
ALL-SIL,0.15516546,-0.5909928,-0.10917582,-0.46065795,0.13653769,0.032753203,-0.40467754,-0.11061652,0.47403947,-0.30567867,-0.029725295,0.09490046,-0.098507084,-0.07617235,0.104506284,0.34393433
NCI-H2126,2.3261127,-2.0595744,0.6294421,-2.1254115,-1.1712576,-0.9102932,-0.8047276,2.4551196,1.0484548,-1.7658365,1.2914487,-0.092979416,-0.13796201,1.8303916,0.19361031,-0.306137
A-172,0.18726471,-0.5756635,-0.10542935,-0.41497898,0.18390748,-0.040477224,-0.5638645,0.031151073,0.5086084,-0.41332197,0.051393047,0.09841494,-0.20071799,-0.11869601,0.42372867,0.24156846
C2BBe1,1.3664335,-0.72024405,-1.3876077,-0.11874184,0.3824538,0.9062429,0.7422329,-0.58837366,0.45378795,0.21084234,0.121996135,-1.2768507,1.1116266,0.59305084,-0.59489816,0.92916745
BGC-823,-0.95260495,0.16142896,0.48011053,-0.1440544,-0.0512133,-0.081848666,-0.6600964,0.21704824,0.15059337,-0.2834269,-0.025828097,0.43967327,-0.48044318,-0.3140299,0.4939066,-0.27672958
SCC-4,-1.507908,-0.76423776,0.87286407,0.26719695,0.4689822,-1.2782296,-0.9241914,2.0462344,-0.1999186,-0.62795806,-0.55662626,0.17273039,-0.9269249,0.35616466,1.173091,0.7848032
HARA [Human squamous cell lung carcinoma],-0.9041962,0.19056113,0.41550958,-0.04952804,0.07909517,-0.043713775,-0.5507623,0.24638674,0.15142153,-0.26176158,-0.05198869,0.4808394,-0.49936694,-0.29686984,0.13359565,-0.3031674
HCC1937,-0.90105826,0.20512706,0.47933987,-0.10775814,0.24172118,-0.017586788,-0.9003344,0.23304968,0.09858668,-0.25105518,-0.0053605754,0.47005054,-0.54663414,-0.3257437,0.64873993,-0.38109866
SCLC-21H,1.3749554,-0.6988746,-1.3932769,-0.11589169,0.29172117,0.7752999,0.8147236,-0.7564499,0.45286408,0.10297191,0.082097605,-1.2910079,1.0861661,0.44315672,-0.6072797,0.930479
ACCS,-0.5938058,-0.18205778,0.8023513,-1.1753747,-1.0409153,-0.36536273,-0.93246984,1.6499465,0.7779935,-1.1827608,0.30451593,0.47139955,-0.5623594,1.3092057,1.0218387,-0.1607077
MHH-ES-1,-1.7370049,-0.24409865,1.2708333,1.5922718,1.1346412,-2.0318058,-0.3178838,2.505951,-1.7724248,0.253508,-0.5877792,0.041439064,-1.4660293,-0.30377707,0.57611954,0.04843389
COR-L47,-1.2182907,0.9612615,-0.9682732,1.2370303,0.394863,1.1287726,1.0761406,-0.70463693,-0.4757941,0.98510575,-0.79400396,-0.97079414,0.7797131,0.16865128,0.41193432,1.0926167
IGR-39,-1.6662819,1.2690084,-0.39309862,0.04713286,-0.40045112,1.6100398,-0.15921238,-0.4041431,0.4239685,-0.1622757,-0.07366216,-0.6917246,0.4781032,0.5602046,0.6999647,0.14402422
NCI-H2347,1.9635916,-2.8557696,-1.2326236,0.37358558,1.2218493,-0.98160875,0.6332879,1.5062443,-0.19415183,-0.32246,-0.21187705,-2.1307092,0.639345,0.81469846,-0.560638,2.1272876
NCI-H661,1.2124233,1.0113921,0.48698604,-1.132512,-1.4615242,0.5927794,-0.29818654,-0.37866962,0.050705157,-0.7345023,1.633206,-0.1158557,0.4306067,0.65580267,-0.47984877,-2.322923
UACC-812,0.23891076,-0.5718628,-0.10638405,-0.31583464,0.22751623,-0.06225465,-0.48580658,0.057216037,0.42241684,-0.39835277,-0.020553842,0.09660407,-0.05415027,-0.08291566,0.005680412,0.43705043
NCI-H1155,-1.1295055,0.43548116,0.207303,1.2604431,0.67934024,-0.4598939,0.44982183,-0.5863628,-0.6435633,1.1635225,-1.1634704,1.0370146,-0.42194438,-1.2927644,-0.11758514,0.54405046
Rh41,1.2206905,-0.7160362,-1.3870636,-0.120613925,0.33682638,0.7420683,0.68988454,-1.0436556,0.4850745,-0.032030802,0.11614138,-1.3108125,1.1492213,0.52069867,-0.49458745,0.85337853
SNU-8,-0.14115481,-0.39600337,0.11839986,0.47217602,0.49199924,-0.76171637,0.3348059,-0.45284763,-0.16027923,0.5264472,-0.8639025,1.1798505,-0.42060688,-1.086403,-0.4276107,0.60657716
Rh30,-1.000692,0.24965489,0.4542796,-0.18437666,-0.04954254,-0.032411978,-0.67179406,0.19726911,0.09427041,-0.28561866,-0.02755478,0.4663313,-0.5339098,-0.29266644,0.5775459,-0.42151883
NCI-H929,0.8149295,0.729635,-0.8394304,-0.8179671,-0.36850506,1.961457,-0.0747262,-1.7880137,0.82114726,-0.26546466,0.995154,-0.60438895,0.813875,0.041362107,-1.4458994,-0.7464972
NCI-H2066,-0.92537963,0.2552645,0.45113826,-0.10419051,0.058887597,-0.03287893,-0.7341745,0.19594151,0.13103668,-0.27531776,0.005916994,0.38959885,-0.45080757,-0.3611897,0.27477133,-0.3489363
OELE,-0.7595094,0.14933664,0.5041541,-0.0018184558,0.091222845,-0.0365639,-0.48382723,0.35007054,0.105418116,-0.23858023,-0.062279496,0.4395031,-0.54941696,-0.3383313,0.74294305,-0.2501229
LoVo,6.268696,-4.6887937,-1.5542616,-0.6405581,0.29663482,-2.4106278,1.3991377,0.9044538,0.3170624,-0.022669941,0.22968036,-0.85844105,1.38172,1.0249598,-2.5482771,2.081159
SNU-407,4.6468563,0.8230676,-0.54613674,1.5144877,-0.38873094,-0.3741788,2.9318504,-1.760255,-1.9019076,2.867422,1.5992091,-1.1959168,1.8506374,0.14269318,-3.309595,-2.5694675
DND-41,-1.1222875,0.4468524,0.12151651,1.2874178,0.5593384,-0.5099101,0.47460076,-0.56981736,-0.6442081,1.1328207,-1.162062,1.034486,-0.44544035,-1.1836618,-0.0017440319,0.56712407
EPLC-272H,1.1532227,-2.5958252,0.4513963,-0.3816659,0.60701203,-2.1136467,-0.8161723,2.6509023,0.064851984,-1.2788439,0.1668989,-0.80113095,-0.4699916,1.0825624,0.5521789,0.95592505
OUMS-27,0.1802988,-0.5307343,-0.1047768,-0.40243694,0.18673219,-0.066226095,-0.38619485,-0.04789454,0.45566776,-0.33429435,-0.03757547,0.10038021,0.045388646,-0.08480784,0.17313704,0.35451883
RPMI-8402,-0.6008517,0.24092487,1.3168002,1.1046224,0.087956786,-1.6515349,0.1387282,1.6303589,-1.633619,0.49888548,-0.18394393,0.5074107,-1.036888,-0.12436882,-0.052120112,-0.63883626
NCI-H2452,0.14715903,-0.5910188,-0.107235014,-0.473589,0.09249692,-0.026708074,-0.27162457,-0.020401876,0.4929382,-0.34867114,-0.02739564,0.093221106,-0.21578252,-0.10587079,0.09890786,0.12544043
BT-474,-0.05507946,4.4576344,-0.5079254,0.23859122,-1.3446504,3.7796938,0.9092983,-3.3579817,-0.96474665,0.9128215,2.211582,-1.7343669,1.0420177,-0.56181395,0.84665823,-3.7567902
HCC1569,-1.2025309,2.3860755,-0.25851,0.9013972,-0.5245347,1.474346,1.1511059,-1.3106602,-0.62143,1.0226818,-0.21433643,-0.17131157,0.59896004,0.19055188,-0.35608494,-0.3687961
Panc 08.13,0.99191236,-1.211319,-0.49657178,0.21073152,0.54526806,-0.82159346,0.5008394,-0.76087844,0.2687996,0.4540377,-0.7481708,0.84910285,0.036761854,-0.8742605,-0.8237596,1.0552953
NCI-H596,0.51163554,1.2447523,0.33491033,0.6465789,0.64641213,0.4547876,-0.5275155,-1.3620895,-1.247318,0.30265513,1.5895685,-0.38127825,-0.74155307,-1.6594764,-1.1565492,-2.644876
SNU-213,-0.13786465,-0.38864046,0.10719803,0.5778382,0.3649763,-0.7069514,0.3248194,-0.56250155,-0.1559288,0.4840809,-0.8566424,1.182899,-0.45321214,-1.0883881,-0.41251984,0.77558106
VMRC-LCD,-1.0044804,0.19371083,0.55705154,-0.25300187,-0.012334213,-0.067848064,-0.73292834,0.122670345,0.11842023,-0.28167972,-0.0307993,0.44242257,-0.522968,-0.32958543,0.5874278,-0.24342893
Hs 934.T,0.2656262,-0.5921566,-0.10602953,-0.43736297,0.16290194,-0.089297004,-0.48657686,-0.033880055,0.4893967,-0.3951414,-0.056379937,0.09283814,-0.106074154,-0.113999225,0.308383,0.4340737
NCI-H322,-1.1005914,0.22609425,0.42069295,-0.16920593,0.09102091,-0.07458827,-0.69190645,0.11918231,0.10487143,-0.21845393,0.011018321,0.45493135,-0.46525487,-0.3253231,0.5829042,-0.39219698
REC-1,-0.989758,0.21063007,0.5253037,-0.15052533,0.14827931,-0.05349285,-0.8162351,0.24893472,0.089400955,-0.23504783,-0.09648946,0.44479674,-0.50288653,-0.33829013,0.50922936,-0.35193276
IM95,6.034977,-3.3057358,-1.0167336,0.28019968,0.5172232,-1.8244056,1.3541102,2.7832246,-1.7026765,-0.6061771,2.2759776,-4.255694,1.5505958,1.9460281,-2.3523219,-0.4425342
SNU-5,1.2651966,2.2641003,0.63486993,-0.92492753,-2.6468983,1.4025018,0.8531601,-1.2898718,0.323922,0.030385166,1.3532093,1.1773851,0.73250955,0.6021991,-0.36953357,-1.9658384
PF-382,-2.0339909,1.2246737,2.0310116,0.5777124,-2.4178045,-1.8310113,1.4957421,2.804007,-0.4787328,0.62638676,-1.7389811,3.0787477,-0.8782412,2.2651222,1.1591083,0.7244028
LN-235,-1.0330894,0.19260682,0.43528357,-0.095340244,0.16989909,0.017617974,-0.5254134,0.13812324,0.07640029,-0.2131959,0.03968411,0.4172984,-0.52621436,-0.3181656,0.92313886,-0.20734647
SCC-9,-0.3681193,-1.5317551,0.31272838,-0.41070428,0.58268535,-0.97499514,-0.7838883,1.9825904,0.21975297,-0.731777,-0.4622145,-0.19169389,-0.45212117,0.5566865,0.8443158,1.0802717
Hep 3B2.1-7,-0.9593327,0.18282284,0.484685,-0.11378507,0.13768703,-0.068859674,-0.55028784,0.15340729,0.0740139,-0.2169238,-0.11902715,0.43229893,-0.54410124,-0.3314794,1.0120032,-0.32929075
BT-20,1.0987009,3.0452752,0.5932765,0.08492338,-0.9483465,2.154949,0.34423125,-2.8115895,-1.0404414,0.8370004,2.1429226,-0.80378276,0.4750834,-1.3957466,-2.0141244,-4.3645554
EFM-192A,-0.44376248,0.12704112,0.81527525,1.5698901,1.0325247,-1.18957,-0.13231744,1.2228155,-1.925204,0.47037458,0.2873548,-0.49065822,-0.9771722,-0.9083796,-0.7753918,-1.1568412
COV644,0.17972296,-0.57226515,-0.107067674,-0.376209,0.20900348,0.038600806,-0.47802615,-0.103926346,0.49337742,-0.3928982,0.0068389736,0.09430163,-0.07908931,-0.095592745,-0.16816613,0.3223408
HEK TE,-1.027036,0.22321971,0.38958722,-0.122708306,0.32409757,-0.045744564,-0.729818,0.1958221,0.10294658,-0.26813307,-0.0078365,0.40589923,-0.454533,-0.308316,0.87614906,-0.2973251
NCI-H1395,-1.5029613,1.0594192,-0.6611576,0.01567352,-0.09934201,1.670358,-0.0291936,-0.40320593,0.47464073,-0.19355372,-0.18914212,-0.8948491,0.6376858,0.6946678,1.252177,0.6231768
PE/CA-PJ34 (clone C12),-0.808498,0.2114437,0.48450932,-0.11029733,-0.08604752,-0.016711138,-0.68452245,0.19486149,0.12534939,-0.26979265,0.030869681,0.44145176,-0.57241154,-0.33711055,0.8153069,-0.42423505
NALM-19,0.1781185,-0.5830923,-0.105611384,-0.45250705,0.17252183,-0.008126808,-0.58267367,0.045752946,0.4443126,-0.30465987,-0.07686332,0.09588143,-0.102483444,-0.115617156,-0.22514689,0.32001838
Ku812,-0.9874248,0.24249086,0.5174287,-0.11134952,-0.011453785,-0.04335458,-0.71874523,0.18461742,0.107606046,-0.2339813,0.011138771,0.4344214,-0.4695279,-0.35618448,0.44670957,-0.11100824
OS-RC-2,2.5468152,-2.137721,-0.52304703,0.47752848,0.22469242,-1.4283104,1.2639047,2.574756,-0.87627876,-0.19059224,0.15072596,-1.7438078,0.6326626,1.7433671,-0.6014446,1.185381
Hs 616.T,0.097787686,-0.60920703,-0.106784746,-0.288155,0.1486954,-0.07717763,-0.14462411,-0.09383725,0.47231492,-0.37284276,-0.011931187,0.09478354,-0.08761184,-0.07410728,0.015346095,0.21322444
T3M-4,-0.26056045,-0.396834,0.1142255,0.5754756,0.53440094,-0.79261255,0.14300598,-0.2634095,-0.14315636,0.7974019,-0.8607158,1.181842,-0.4620085,-1.0322205,-0.09828818,0.66945356
KMS-26,0.3000031,0.45568746,0.7531626,-0.72735125,-1.2151315,-0.43713084,-0.26427302,-0.17344148,0.5088749,-0.1768029,-0.09344235,1.8908204,-0.35532975,0.072979026,-0.08091174,-0.4870655
UT-7,-0.88642204,0.24356273,0.4494189,-0.20616189,0.10632893,-0.07431649,-0.93955344,0.27065283,0.12592049,-0.21641889,-0.09327541,0.36265543,-0.57496375,-0.35312015,0.8305318,-0.19065237
HEY A8,-1.2700815,0.64133847,-0.8811843,0.89535534,0.32910818,0.9587579,0.8657549,-0.87747675,-0.033992626,0.80829203,-1.130703,-0.16044597,0.47727326,-0.096126966,0.5092982,1.33382
EJM,-0.8937124,0.17639582,0.49421662,-0.06726274,-0.037407465,-0.026434168,-0.56418633,0.1601567,0.13957623,-0.26587585,-0.09185444,0.38738045,-0.5702915,-0.32398906,0.49023798,-0.22355556
Loucy,-1.0318798,0.21939829,0.4227485,-0.07723214,0.15166904,-0.046087705,-0.5203484,0.18729791,0.1243345,-0.27153894,0.027865138,0.41954753,-0.49856755,-0.29982352,0.4792322,-0.18019053
NCI-H358,1.0874217,-1.203268,-0.45736468,0.26045635,0.43345433,-0.7180677,0.14100663,-0.7051875,0.27819687,0.42832917,-0.75003564,0.7564463,0.000115998555,-0.7897129,-0.7750256,1.0272568
NCI-H508,-0.61934114,3.376582,0.44342247,-0.11612181,-0.45919478,3.0109236,-0.8216292,0.040362317,-1.4644718,-0.79957986,3.67138,-4.158676,0.482603,0.8111931,1.4391024,-4.589329
PK-59,1.0061789,-1.2038285,-0.46945673,0.17743997,0.4901198,-0.80361474,0.49218607,-0.7821327,0.30889404,0.3123569,-0.736272,0.8865289,-0.040109206,-0.8187051,-0.73985994,1.1223451
NCI-H1693,0.66039807,-0.9072446,0.82668597,-0.69638914,-0.09337186,-1.1295365,-1.0942893,1.2310058,0.041121148,-0.8885681,0.7252659,0.19455908,-0.56451,0.01927164,0.12963298,-0.84314424
TE-11,3.1736255,-2.8947055,-0.24622153,-0.56508183,0.6601398,-1.809584,-0.2572212,1.0628184,-0.10088867,-0.6466421,0.80230534,-0.6509192,-0.21431455,0.056805257,-1.1942201,0.17194192
SK-MEL-30,-1.6880758,2.5905106,-1.1670854,-0.053375542,-0.53572047,3.5979135,0.031661235,0.7250767,-0.29738894,-1.1185693,1.9150351,-4.698499,1.6672335,2.935289,1.5909414,-1.2625834
MEG-01,-0.9696162,0.1994758,0.46498805,-0.17354804,0.11917883,-0.061980695,-0.56119007,0.17488647,0.09482431,-0.30241296,-0.033402186,0.38879013,-0.50036615,-0.33371553,0.3657003,-0.36891192
CAMA-1,-1.5229895,0.541466,0.11873848,0.9009718,0.58692443,-0.01726431,0.04558678,0.09922175,-0.3737122,0.47712293,-0.8199677,0.37210372,-0.3369034,-0.5026446,0.47123274,0.40948784
PK-45H,1.0090343,-1.215489,-0.45269725,0.27577186,0.5408665,-0.75838137,0.33810255,-0.675982,0.31356665,0.3869966,-0.7546707,0.76936185,-0.016447354,-0.8278928,-0.88756263,1.0530471
NCI-H727,-0.16925335,-0.38485652,0.11529645,0.4614169,0.45256883,-0.72336394,0.2902458,-0.39666897,-0.14728367,0.7258389,-0.8638833,1.185826,-0.4406325,-1.102154,-0.13411,0.51604044
OVMANA,1.9262732,1.9853675,-0.9043399,-0.16001344,-0.5816848,2.2436101,0.27716234,-3.2922945,-0.58204466,0.4009668,2.234014,-1.3516873,1.0337296,-1.4787173,-1.9261409,-3.774374
G-292 clone A141B1,0.20410508,-0.5530323,-0.10828753,-0.39532647,0.169379,0.0045472905,-0.4822066,-0.01839599,0.5060721,-0.3655064,-0.019935004,0.09648957,-0.085272826,-0.08583402,0.22444385,0.26103073
Mel JuSo,2.050328,-2.4323242,-1.638867,-0.41316643,0.46817893,0.065053836,0.75847316,0.8556831,0.7033578,-0.74530625,-0.15438122,-1.8966358,1.1489435,1.4183687,-0.294407,2.2099843
SNU-C1,-0.85432047,0.22403963,0.46974882,-0.13677235,0.05254293,0.044311218,-0.6374809,0.21471792,0.11590711,-0.31164056,-0.0007771794,0.45633367,-0.50099385,-0.31670898,0.6134725,-0.39480162
NCI-H2444,-1.0971326,0.44896343,0.11958584,1.2389251,0.55006343,-0.48062143,0.55892277,-0.50237095,-0.6965695,1.2321968,-1.1622809,1.0536807,-0.5417276,-1.1294057,-0.13434812,0.571068
RCM-1 [Human rectum adenocarcinoma],5.5149713,-2.937726,-1.3968849,-0.075525165,0.23221263,-1.4201206,2.0395443,-0.5025028,-0.009087566,0.7140019,0.12252441,-0.3532528,1.2850887,0.019672245,-2.8594518,1.1750773
SNU-61,2.373806,-1.3139997,-1.7023157,0.3737698,0.61291033,0.34637904,1.3331017,-1.4695911,0.3721741,0.65293056,-0.5604529,-0.5880766,1.184765,-0.239925,-1.2306459,1.6502268
NCI-H2085,-0.90527767,0.2597655,0.46056336,-0.18837522,0.19611114,-0.057906233,-0.62819934,0.19639033,0.1450381,-0.31526265,-0.043615572,0.41922542,-0.5092995,-0.35686618,0.3805464,-0.40228713
HEC-151,4.225347,0.80675936,-0.3055642,0.5687848,-3.3356674,-0.6675724,4.6450787,0.6921804,-1.3490721,2.2604918,0.25115934,-0.18881497,2.1276312,3.6653626,-2.0573857,0.01792135
NCI-H1930,0.73597765,-0.89588565,0.87796634,-0.78902376,-0.09399365,-1.1099316,-1.2923299,1.2223941,-0.016310826,-0.90765226,0.82544,0.18105346,-0.671592,0.06272505,0.029125668,-0.85423696
JeKo-1,0.1888535,-0.5746225,-0.10727915,-0.3844693,0.111082815,0.051060904,-0.6900305,-0.20607257,0.48803684,-0.3737843,-3.396347e-05,0.09554304,-0.052692905,-0.09353903,-0.010908425,0.32844403
IGR-1,-1.5152909,1.0913131,-0.6967091,0.019240398,-0.21184534,1.6556557,0.036575258,-0.43712902,0.44724274,-0.18536901,-0.20059864,-0.8474709,0.6380717,0.67568654,0.79313636,0.5486065
NCI-H2172,3.480807,-2.8272278,-0.18593319,-0.59632933,0.575159,-1.9030474,-0.2753383,1.3612238,-0.038475182,-0.6142329,0.78621525,-0.6748645,0.024393864,0.13107458,-1.1896561,0.096555404
Ishikawa (Heraklio) 02 ER-,-2.7922335,2.5316858,1.1702163,2.1823974,-0.9297967,-1.1327022,2.1140924,1.4306984,-1.7905805,1.7890443,-1.9047967,1.7875344,-0.14057346,0.97101206,0.5016309,0.7292611
KMS-20,-0.13538791,-0.42881414,0.124964565,0.55588454,0.6945712,-0.772789,0.16939571,-0.49154893,-0.1297569,0.71906745,-0.8637475,1.186468,-0.4116254,-1.1045399,-0.4343562,0.5105222
SNU-620,0.13826951,-0.56986356,-0.105391584,-0.40995237,0.20449658,-0.05826623,-0.7054587,0.0859275,0.48650426,-0.32732916,-0.024627402,0.09499799,0.029064842,-0.11138029,0.13742565,0.20063263
OC 316,0.9421788,2.154161,1.3453777,0.7943555,-2.1295798,-0.51478887,2.0696375,2.5822806,-2.463623,0.5194426,1.3677108,-1.6180416,1.5780506,3.1842818,-0.48220682,-2.078267
OVTOKO,0.20346466,-0.5716697,-0.10759948,-0.5331017,0.09579971,-0.008383865,-0.3667978,0.0032449048,0.50460994,-0.37092963,-0.03810627,0.09621805,0.014341041,-0.09702033,0.5492369,0.30980426
SLR21,-0.94704646,0.2130774,0.42973736,-0.1591864,0.18459624,-0.06051299,-0.8397028,0.17213386,0.09231484,-0.2822815,-0.08473982,0.44229397,-0.5581509,-0.3070925,0.5620202,-0.14286885
TE-10,-1.1071128,0.21279202,0.42816365,-0.033611104,0.058155015,-0.03709519,-0.6367464,0.18491347,0.073433295,-0.24506287,-0.072499886,0.3655769,-0.52683717,-0.35769796,0.40224597,-0.55188996
RERF-LC-MS,-0.92102623,0.21604586,0.48073813,-0.06945144,0.06495782,-0.079720885,-0.64199334,0.17982323,0.1729159,-0.30039653,-0.117808476,0.4101341,-0.54130524,-0.34648526,0.72603273,-0.17964137
SK-OV-3,4.0480814,-2.4128718,0.34542155,0.74456966,1.1935028,-2.692868,0.5042561,2.516278,-1.8741846,-0.051075697,1.47367,-1.611616,-0.4384921,-0.22986193,-2.035891,-1.0854424
OCUM-1,-0.070522524,-0.57482386,-0.1082382,-0.40217826,0.13874462,0.028078768,-0.5052861,0.041493326,0.5291972,-0.36227795,-0.049152214,0.09403808,-0.14450777,-0.13263476,0.10923933,0.40140063
COR-L95,-0.9912891,0.25501895,0.46138468,-0.08624543,-0.100007914,-0.012470294,-0.48157552,0.22004804,0.13010524,-0.2253487,-0.06293519,0.42950392,-0.5653072,-0.29943958,0.4338299,-0.4747051
COV434,0.20506644,-0.54466134,-0.10896887,-0.5565877,0.28031054,-0.084056236,-0.53505045,-0.020987611,0.48642752,-0.3879467,-0.027009986,0.100043476,-0.13681073,-0.10472826,0.060636908,0.20631859
ONCO-DG-1,-1.2277639,0.10066235,0.8483941,1.3816309,1.4737818,-1.2976946,-0.171686,0.7182269,-1.637944,0.7665275,-0.46082684,0.24206987,-1.1265825,-1.3796785,-0.16826943,-0.48771232
FaDu,-1.0543032,0.23646942,0.41494608,-0.032664143,0.19149849,-0.031366788,-0.75939345,0.23189905,0.07816611,-0.29480526,-0.03165922,0.43031326,-0.5074693,-0.35950285,0.7510035,-0.4829582
JM-1,0.087357074,-0.6059508,-0.10594984,-0.39464292,0.120575555,-0.05952134,-0.34684432,0.11144292,0.48651198,-0.35068113,-0.051692568,0.09745122,-0.15244739,-0.1107526,-0.044140294,0.3773089
KMS-12-BM,0.1343346,-0.5574116,-0.109031945,-0.38769484,0.17270666,-0.06584125,-0.3267827,-0.046504166,0.5319644,-0.382074,0.0024404768,0.09741407,-0.007066384,-0.11122336,0.0009281486,0.27505225
NCI-N87,0.21949717,0.4693756,0.61234313,-0.6786546,-1.3622564,-0.45236495,-0.019414026,-0.16140668,0.47564903,-0.052948225,-0.35610968,1.89321,-0.34942478,0.044980813,0.10232861,-0.28653347
PK-1,-0.12578452,-0.38791868,0.10812867,0.47476995,0.33987635,-0.7602313,0.009265289,-0.29247037,-0.18233943,0.84025335,-0.8616373,1.1787637,-0.4293269,-1.062775,-0.415204,0.5855029
NCI-H1651,-1.7662425,1.2883681,-0.36557594,0.040704172,-0.2226678,1.6206491,-0.031295426,-0.40708515,0.38099667,-0.16448306,-0.08400035,-0.72631985,0.45002577,0.56337076,0.6908339,0.04553698
Hs 706.T,0.054950498,-0.56821764,-0.107870035,-0.4401206,0.15873207,-0.06391661,-0.4857372,-0.04936197,0.44432795,-0.3058584,0.0240038,0.09638675,0.06960545,-0.041581046,0.38109165,0.2611215
SNU-1272,-0.056580953,-0.567399,-0.10683173,-0.29021478,0.1982061,0.022036314,-0.26969773,-0.098993406,0.4622437,-0.41418195,-0.026097782,0.09715853,-0.12779745,-0.09779518,0.1686971,0.28359553
HEC-6,0.799019,1.5105243,1.8889896,1.1596965,-2.7453797,-2.822822,2.6936345,1.9473215,-1.9101238,2.0707748,-1.3607758,2.997527,-0.10575406,1.583139,-1.1368206,-0.30493298
KE-97,0.6948885,-1.215612,0.0422793,-1.4064379,-0.6149512,-0.0892144,-1.0978006,1.1573807,1.2456894,-1.3435229,0.45566463,-0.074019454,0.4731164,1.236797,0.6249355,0.59053606
COR-L88,-0.12112379,1.8065839,0.19490418,-0.5485175,-0.5188412,1.7776732,-0.023133475,-1.4804279,0.3038055,-0.17925817,0.83357286,-0.091887414,0.47870472,0.09216775,0.38951927,-1.6352371
NCI-H28,0.040324345,-0.60020715,-0.11093996,-0.25634676,0.18576394,-0.07594994,-0.5048944,0.06131115,0.47325504,-0.39078918,-0.083170556,0.09734629,-0.052477375,-0.10707451,0.17237702,0.13672738
LN-464,-1.0267793,0.20714483,0.44938964,-0.20670019,0.087113895,-0.098897226,-0.7741181,0.19348752,0.1104429,-0.27588782,0.01108877,0.3978192,-0.5323794,-0.3096408,0.6469172,-0.356384
A-1207,-0.945128,0.2310006,0.49232334,-0.078467935,0.20420474,-0.03700243,-0.5620937,0.17245218,0.08776665,-0.25705823,0.03881575,0.41944683,-0.56786424,-0.33479613,0.45227736,-0.3293791
SALE,-1.0309414,0.2026312,0.4721555,-0.20067912,0.120271385,-0.01443903,-0.6486479,0.19623463,0.08139539,-0.27540147,0.007585734,0.39926496,-0.5669915,-0.33138388,0.5691923,-0.38984287
YD-38,-0.94239616,0.22848614,0.48689625,-0.16235092,0.11409604,-0.043648243,-0.8713118,0.2351687,0.07812407,-0.35189226,-0.13897137,0.417711,-0.50865144,-0.33936757,0.45483643,-0.45790726
Hs 751.T,0.020398974,-0.58425224,-0.107968956,-0.44354928,0.11611639,-0.05550442,-0.6940869,0.07127726,0.46578768,-0.38587406,0.016818129,0.09869383,-0.06509267,-0.12030581,0.060782112,0.27115953
PrEC LH,-1.0974611,0.2195172,0.4880197,-0.2465991,0.20078823,-0.09962318,-0.59017104,0.18341102,0.13090555,-0.26525846,-0.013402216,0.4028896,-0.55580837,-0.35257596,0.842932,-0.2705375
MOG-G-CCM,-0.88325506,0.23388353,0.43229175,-0.08152415,0.1853243,-0.11210289,-0.65667,0.1431871,0.09051345,-0.28346378,-0.014124812,0.47542208,-0.5094676,-0.3268123,0.6078489,-0.28530946
PCM6,-1.581811,0.615697,0.110507905,0.8574642,0.55247307,0.0027678274,0.20307992,-0.064275965,-0.41298196,0.5432498,-0.8116385,0.3427423,-0.30044654,-0.45852077,0.52233493,0.46553698
Peer,0.26406127,-0.8365884,-0.9432614,0.94607145,1.2650058,0.2948367,0.25223032,1.0988934,-0.75292164,0.002792269,0.32212064,-2.8219028,0.43227255,0.6400788,0.17564571,0.68476135
CHP-126,-1.0565145,0.22150284,0.42919162,-0.040307716,0.04345426,-0.07069423,-0.8121839,0.20609269,0.15617585,-0.2618338,-0.093371436,0.41990075,-0.47924438,-0.34191254,0.33431423,-0.36926734
NCI-H2141,-0.77177835,0.2577023,0.45651588,-0.010008238,-0.116296194,-0.08662945,-0.64751464,0.23143631,0.100954354,-0.27740803,-0.099303156,0.38995075,-0.54906374,-0.2976006,0.7715155,-0.25719658
Rh18,-0.9773389,0.20711865,0.423632,-0.098440334,0.15778315,0.013079755,-0.6647231,0.17482255,0.107762046,-0.28912637,-0.040285192,0.4772293,-0.5242882,-0.335757,0.15694326,-0.3424888
TCC-PAN2,-0.12374952,-0.3441802,0.11394312,0.6148461,0.6334559,-0.75111246,0.17756397,-0.27729633,-0.19976805,0.78714645,-0.85889417,1.1826774,-0.43145943,-1.1008103,-0.19230542,0.6949767
DMS 114,-0.9231341,0.22824576,0.47942427,-0.054111026,0.2245383,-0.09737341,-0.6958492,0.11326357,0.08328148,-0.26637766,-0.07697138,0.40503684,-0.47141364,-0.29969853,0.55580634,-0.23318723
BL-41,-0.8722738,0.24256003,0.4783643,-0.05140391,0.13667096,-0.041144453,-0.6147848,0.18982671,0.11299255,-0.26452667,0.019326963,0.41660282,-0.49050853,-0.3299243,0.9933822,-0.28186646
T98G,-1.1780739,1.0029283,-0.9828129,1.238522,0.26217857,1.1277926,1.066397,-0.6271989,-0.41651067,0.69780934,-0.78655773,-0.981895,0.6699507,0.18391074,0.2585904,0.99962974
HCC1195,0.72736764,-0.9003183,0.8548014,-0.77314377,-0.0951318,-0.9926493,-1.1497728,1.3191092,0.05458024,-0.97065264,0.90746313,0.22978973,-0.7062295,0.041872926,0.14969379,-1.1425287
PE/CA-PJ15,-0.968723,0.16378441,0.49771416,-0.012035251,0.028443202,-0.08709617,-0.721152,0.22064716,0.11755609,-0.34879282,0.01052814,0.4348435,-0.5103429,-0.32458147,0.48688814,-0.3170793
SNU-601,0.39164427,-0.17021729,0.55344653,1.6083062,1.3115114,-1.5629835,0.67179954,-0.4664188,-1.7811618,1.5984375,-0.31398615,0.5720225,-0.846373,-1.8600771,-1.1322917,-0.57520306
COR-L105,-0.9227778,0.21370667,0.45572168,-0.0074462593,0.18688124,0.0032323413,-0.48947674,0.07606357,0.108723775,-0.29084364,-0.038041454,0.40872326,-0.44902238,-0.31170657,0.5341884,-0.30478108
Hs 939.T,-1.5330533,1.0857325,-0.710228,0.0127990935,-0.16444089,1.6846337,-0.043111756,-0.39678207,0.5397134,-0.18833923,-0.24951595,-0.906114,0.63796824,0.6949699,1.3452443,0.458355
SK-N-DZ,0.179277,-0.55987024,-0.10994568,-0.31760162,0.17942338,-0.054968834,-0.69661224,-0.014196478,0.47390127,-0.35352394,-0.040227786,0.09514726,-0.010746516,-0.10673159,0.0031588972,0.24615867
MCF-7,1.4913793,0.3457092,0.15373224,0.20668276,0.36265525,0.43094003,-0.25194165,-1.1713874,-0.8297041,0.15729551,1.6709661,-0.7545918,-0.18747613,-1.7065638,-1.6191487,-2.137226
Hs 839.T,0.14589843,0.48413962,0.80415356,-0.6836038,-1.4117813,-0.50465274,0.1948315,-0.13315308,0.47188044,-0.095756054,-0.17503452,1.8943113,-0.23591442,0.07154663,0.22867996,-0.7440419
LN-319,-1.0227515,0.18852697,0.45737407,-0.12936023,0.1448372,0.0032924563,-0.71099496,0.25448826,0.1290768,-0.30128592,-0.00030322373,0.4037096,-0.515605,-0.30561492,0.12857601,-0.38660562
NCI-H69,0.14792189,1.3605064,0.82246536,0.571746,0.39896274,0.45715743,-0.4642237,-1.2179562,-1.2103423,0.1840944,1.5164795,-0.38385418,-0.64096665,-1.6877625,-1.3525054,-2.9854617
AN3-CA,-0.26851588,1.990994,3.2718198,1.5957301,-3.0096316,-3.722304,2.507277,4.335109,-3.002859,1.3759793,-0.66683495,2.338884,-0.89355415,2.6553118,-0.20026322,-1.2764536
COLO 679,-1.4473449,1.0671387,-0.66237,0.022645785,-0.044445112,1.6762949,0.033423506,-0.46682024,0.4094953,-0.18661033,-0.23484857,-0.8239825,0.63780683,0.6820518,1.074148,0.5770449
CFPAC-1,-0.14593846,-0.38998973,0.11203698,0.5232617,0.46995404,-0.8266765,0.23905791,-0.48976135,-0.16671124,0.78585434,-0.8599896,1.180491,-0.45072603,-1.1670951,-0.19129944,0.7074035
HCC1171,0.5159858,0.8256096,-0.5597289,0.908521,-0.1168982,0.5027658,1.2537992,-1.4247551,-0.50158197,1.0354396,-0.26584655,0.1946072,0.5167612,-0.8156788,-1.3344951,-0.2533881
MKN7,-0.9695836,0.23800473,0.46564952,-0.009157084,-0.07735527,-0.022207754,-0.6170515,0.15299878,0.12582171,-0.27302966,-0.07946667,0.4581585,-0.5911158,-0.31316435,0.6387892,-0.21242088
OCI-Ly3,0.16769336,-0.57157534,-0.10675112,-0.37717304,0.121438205,-0.05020667,-0.11988622,0.12446819,0.5150993,-0.35522804,-0.05732601,0.095075436,-0.12201823,-0.11318751,0.07352665,0.24724287
SLR20,-0.8512767,0.23189248,0.47443163,-0.15811628,1.8440187e-05,-0.035805967,-0.74814487,0.22241512,0.101515934,-0.25659803,-0.0002603475,0.4123047,-0.4603883,-0.33096617,0.53798336,-0.3914897
Daudi,1.3479862,-0.71078706,-1.3930594,-0.11762452,0.30292037,0.91742367,0.66478664,-0.83398724,0.5486251,0.08628026,0.107413866,-1.2954704,1.091672,0.31527394,-0.35726124,0.8076627
SH-10-TC,-1.1188794,0.4246721,0.1806621,1.2662938,0.8260537,-0.46750998,0.5360187,-0.6140075,-0.6707291,1.1236206,-1.1687076,1.0626408,-0.48904306,-1.2025578,-0.059013665,0.5423964
EFO-21,1.4010018,-1.6108862,-1.433414,0.5961113,1.3039482,0.28044593,0.36351764,0.7280407,-0.31573343,-0.3935613,0.42534724,-3.125092,0.93822014,0.88248026,-0.3512111,1.1883456
HuTu 80,0.16581228,-0.545988,-0.106269285,-0.36500686,0.13205962,-0.023224752,-0.6381504,0.045752447,0.5190111,-0.3632721,0.03701519,0.09398911,-0.09075589,-0.107635066,-0.041292995,0.35420442
OE33,-0.98874485,0.2701828,0.4603723,-0.18254775,0.081869446,-0.12692896,-0.49755704,0.1520125,0.061373573,-0.21275346,-0.043001313,0.4205345,-0.55704105,-0.3500158,0.55096036,-0.21621272
NCI-H1650,0.5700857,-0.8995845,0.8611636,-0.5473232,-0.09520554,-1.0359122,-1.0568819,1.3036493,0.025153494,-0.922482,0.8614119,0.16923925,-0.5633876,0.02052222,0.0456717,-0.7853441
QGP-1,3.5129328,-2.125393,-2.3330216,0.0039160466,0.6850216,0.30168822,1.6680702,-1.7606461,0.72411776,0.6821811,-0.41714105,-1.0021902,1.6023936,-0.08778362,-1.6249021,2.1036258
NCI-H1339,-2.1194448,0.5873631,0.86008304,1.234284,0.15113434,-0.9156401,0.33366543,2.976608,-1.6294487,0.002860248,-0.492954,-1.094729,-0.58239967,1.3314608,1.1825811,0.26001677
NCI-H226,2.4800105,-1.5557264,-2.0034468,-0.40166956,0.3824648,0.9179792,0.87616974,-1.1213822,0.8986744,0.12048744,0.15308216,-1.6180363,1.5814096,0.6516688,-0.76346844,1.5240889
Capan-1,-0.10638818,-0.4057677,0.1075332,0.5214174,0.86854416,-0.7372221,0.261973,-0.5328654,-0.18353339,0.7129105,-0.86265934,1.1813413,-0.41482124,-1.1278429,-0.41497675,0.5940516
HCC827 GR5,-0.8167803,0.24846834,0.44873753,-0.17131212,0.15260053,-0.06222167,-0.6266675,0.21552566,0.122774124,-0.21535563,0.009751089,0.40206933,-0.43788767,-0.3075284,0.41720566,-0.45176262
JHH-1,3.365119,-2.010533,-1.8323423,-1.4514277,-0.42389947,0.77597487,0.7892043,0.35337836,1.5674018,-1.0265292,0.46410543,-1.8184249,1.7798704,2.1650124,-0.4007684,1.6446112
Hs 822.T,0.014826499,-0.5766206,-0.10514872,-0.31934917,0.13918686,-0.061577424,-0.37035456,0.017978948,0.44873083,-0.35362354,0.017734379,0.09650741,-0.09577866,-0.08172861,0.1660389,0.3584266
U266B1,-2.0576437,1.3923175,0.46847266,0.38492,-1.3579357,-0.23806912,1.2800092,1.0601336,0.22037172,0.33556288,-1.5944442,1.4491239,0.4872924,1.6952769,1.087918,1.3984779
Hs 729.T,-1.5101696,-0.7357799,0.7034376,0.39396524,0.49192664,-1.2704047,-1.0508832,1.9317828,-0.19878183,-0.6280815,-0.55409646,0.15975676,-0.92754436,0.3266975,1.1686479,0.67541695
IST-Mes1,0.16891836,-0.58676994,-0.108940184,-0.40358394,0.12188997,-0.049744733,-0.5582684,0.028126635,0.53358734,-0.37872437,-0.029827464,0.09390631,-0.056206662,-0.09118252,0.11597948,0.2970853
SNU-886,-0.77940434,0.20680375,0.48368815,-0.13205217,-0.051653735,-0.06251537,-0.48084587,0.19176097,0.10908784,-0.24524872,-0.113857456,0.42903534,-0.4650083,-0.3539434,0.60444736,-0.32314256
JJN-3,0.053830028,-0.5973331,-0.11046116,-0.46175382,0.19554476,-0.10013808,-0.42556465,0.0038166214,0.5051943,-0.42773783,-0.03254711,0.09495473,0.057333358,-0.10205422,0.102404475,0.18146458
Malme-3M,-1.5529783,1.0323641,-0.6734211,0.028099168,-0.20407988,1.6972909,-0.34367976,-0.4414163,0.5441168,-0.19669917,-0.22558108,-0.8829163,0.63813174,0.7050942,0.95431334,0.55598944
HCC827,-0.9021586,0.24294528,0.47252393,-0.27756262,0.16852172,-0.05460586,-0.7808854,0.20833609,0.09310759,-0.30187023,-0.014976782,0.39830363,-0.53906196,-0.29688358,0.69966686,-0.17630777
SHP-77,1.030985,-1.2023346,-0.45955217,0.1143963,0.6082149,-0.7211034,0.41874433,-0.64405286,0.2936568,0.43736815,-0.7457799,0.80125284,0.010439659,-0.8532386,-0.9350848,1.08747
RERF-LC-Sq1,0.6327985,-0.8447688,0.11251096,1.1168838,1.3701969,-1.0747914,-0.05216275,0.8888241,-1.435866,0.46861476,0.39714643,-1.1763643,-0.56700087,-0.9907428,-0.9478579,-0.5770321
SK-LU-1,2.271474,-1.3094667,-1.7196294,0.37436602,0.46905822,0.2927348,1.2599336,-1.6790907,0.33723733,0.71457076,-0.57005656,-0.46673727,1.1826406,-0.15932238,-1.3768688,1.5899131
NCI-H524,-1.0016791,0.23154043,0.504741,-0.1204938,-0.13399974,-0.03644209,-0.7461794,0.19979148,0.112702996,-0.26180306,-0.00059235096,0.46401304,-0.5285847,-0.34806496,0.3497916,-0.23128667
MDA-MB-361,0.6882125,3.0864546,0.3509994,-0.26061612,-0.4599079,2.1356158,0.34330446,-2.8423977,-1.1269852,0.61800176,2.7149324,-0.9625591,0.22056186,-0.82618237,-1.776292,-4.0794125
HCT 8,2.1733024,-0.49061766,-0.47105128,1.4599559,1.1356289,-0.5489198,1.0922323,-1.8975123,-1.2419463,1.8188651,0.04989816,0.08962974,-0.023678482,-2.3102832,-1.9855903,-0.6116468
NUGC-4,-0.4256694,-1.5099132,0.3016075,-0.41095197,0.54434115,-1.1495417,-0.80762297,2.0675042,0.22129798,-0.79323304,-0.45927122,-0.15721123,-0.5252898,0.60056394,0.82345057,1.1890862
COLO 800,-1.5331428,1.054467,-0.6658881,0.015102426,0.07509405,1.6585672,-0.24968836,-0.43313807,0.44300258,-0.18522964,-0.21070236,-0.86716664,0.6376291,0.6858448,0.9941231,0.55098486
Karpas-620,-0.118673705,-0.35128054,0.11866962,0.5695168,0.44576058,-0.80538845,0.17475739,-0.54034823,-0.18828917,0.71898526,-0.86466473,1.1841702,-0.44208094,-1.0816822,-0.60740936,0.6869352
CMK-86,0.16389227,-0.55766785,-0.10547339,-0.2277676,0.17287025,-0.13456775,-0.38348383,-0.07011686,0.5182252,-0.37128097,-0.08850262,0.093683794,-0.09250102,-0.07699679,0.32714948,0.20092249
NCI-H2171,-0.99516034,0.23405284,0.4459921,-0.06728942,0.119252324,-0.048540115,-0.58748764,0.18264864,0.1203585,-0.28810453,-0.11764245,0.45226458,-0.50923663,-0.31643283,0.5416585,-0.29311973
LN-340,-0.9427044,0.22298376,0.47871828,-0.18404518,0.077182226,-0.024149578,-0.9935171,0.15587603,0.04762067,-0.26002654,-0.026725514,0.39511254,-0.45892048,-0.32443845,0.6433214,-0.17718717
HCC4006,0.07317778,-0.51853484,-0.10921052,-0.46957004,0.22962882,0.011222616,-0.47719842,0.038640223,0.46544307,-0.37295452,-0.04951187,0.094866,-0.029754937,-0.07213291,0.09199655,0.23657279
KNS-81-FD,-0.8975118,0.2509906,0.49339515,-0.16334732,0.07500778,0.028133675,-0.63998055,0.19280715,0.14299498,-0.2537601,0.07610492,0.43041843,-0.3702359,-0.31071752,0.71393996,-0.28793758
NCI-H1876,2.038317,-1.6349014,0.52058893,-0.3052731,0.20446326,-1.848735,-0.1786375,1.4009092,-0.6385805,-0.3984908,0.72300273,-0.23912376,-0.20159426,0.05403957,-0.86084485,-0.43291864
Karpas-422,-1.0175111,0.20211895,0.47709262,-0.15496564,0.0098486245,-0.012448652,-0.72747844,0.21098128,0.15713795,-0.2459133,-0.075669825,0.4521648,-0.50364274,-0.2997466,0.3550419,-0.34870198
NCI-H211,-0.81338555,0.22134754,0.47632217,-0.09942905,0.06279865,0.058947906,-0.7672233,0.13377903,0.11841564,-0.28291678,-0.08323261,0.42575327,-0.46998245,-0.31179154,0.23321596,-0.09260379
UM-RC-2,-0.93900996,0.19392203,0.46245828,-0.14516106,0.16164824,-0.051793758,-0.5221552,0.12697822,0.10992408,-0.27020818,-0.0028700326,0.3987879,-0.51716584,-0.32045752,0.7082,-0.39948505
HCC1897,-0.9779398,0.21919383,0.45138964,-0.10788584,-0.0956585,-0.06110783,-0.73912704,0.12754327,0.119933404,-0.3122744,0.009944852,0.45562652,-0.53342617,-0.3455688,0.4998376,-0.52772963
COLO 668,-0.16733177,-0.4038059,0.11492741,0.58417904,0.5357106,-0.7887183,0.043935627,-0.49400914,-0.16102608,0.63500607,-0.86020136,1.1859388,-0.4272433,-1.0298053,-0.7172073,0.6386148
MJ,0.09658743,-0.5789725,-0.10699633,-0.46400815,0.1619851,-0.12896344,-0.6420468,0.10253373,0.47703716,-0.3229485,-0.056070063,0.09397427,-0.15633169,-0.07057987,0.073522225,0.32259145
NCI-H146,0.23642132,-0.57968163,-0.10907594,-0.4031685,0.14650936,-0.052078884,-0.5547315,-0.08228271,0.46637544,-0.39783162,-0.018568587,0.092607945,-0.06866422,-0.09544079,0.06658865,0.2500037
NCI-H1623,-0.9850118,0.26314774,0.44130623,-0.19044608,-0.122882195,-0.0042401887,-0.71230835,0.22534837,0.119669974,-0.2515197,-0.020869117,0.40340695,-0.5493739,-0.3701038,0.3702914,-0.35296524
SW900,-0.14330722,-0.44405377,0.11646765,0.48385853,0.7864553,-0.8543273,0.09658899,-0.4990238,-0.16397823,0.51957804,-0.85881084,1.1816043,-0.45325541,-1.0615108,-0.4741965,0.5669189
ECC10,1.2787952,-0.6992465,-1.3900052,-0.1141542,0.32623595,0.8625902,0.74977005,-0.70180476,0.42464727,0.02696812,0.14457235,-1.2979681,1.0766141,0.31809217,-0.4111811,0.9358359
SK-RC-20,-0.8952958,0.19151776,0.52086514,-0.3261463,-0.023680717,-0.032066196,-0.7298803,0.20661858,0.16753054,-0.28277254,-0.021180011,0.41074657,-0.4341208,-0.33414555,0.6437345,-0.3390543
CAL-27,1.1095204,0.32912457,-0.82457834,-0.69517934,-0.26685697,1.791101,-0.32376885,0.8010086,-0.108949505,-1.4435425,2.1602173,-3.9014642,1.1802622,2.1050453,0.9569099,-1.3686
MHH-CALL-2,-0.38347104,-1.5159459,0.07480405,-0.1650856,0.4596684,-1.2508885,-1.0717794,2.085085,0.22304237,-0.78340775,-0.4754336,-0.16665629,-0.5068917,0.620355,0.7751878,1.1166413
NUGC-3,-0.88125527,0.20093554,0.4328204,0.051936552,0.13084744,-0.045154903,-0.8430206,0.24891098,0.13101196,-0.26023737,-0.05691972,0.4169461,-0.53706914,-0.3278221,0.5557407,-0.2594797
DMS 79,1.259801,-0.70815,-1.3931415,-0.1275643,0.2769242,0.9712255,0.64213294,-0.8451003,0.49970922,0.010972333,0.11320636,-1.2987542,1.0559412,0.37583095,-0.5099393,0.8165194
L-363,1.4501189,1.7301008,0.8258203,-0.12062168,-1.0677282,0.0304229,0.4259446,-1.7389426,-0.91418016,0.91347975,1.0592151,1.379191,0.007848591,-0.8330269,-2.1730106,-3.0640774
Detroit 562,0.010110959,1.2508785,0.9018612,0.5640576,0.6004122,0.4426315,-0.60249954,-1.2091315,-1.2431128,0.46912038,1.6076411,-0.4827728,-0.6713402,-1.7398617,-1.5084553,-2.81868
Hs 746.T,2.7125144,-1.7329531,-2.845283,0.6597395,1.5760299,1.1496086,1.4872664,-0.1577527,-0.28805563,0.027996935,0.62506336,-4.511091,2.147403,1.6012875,-0.9590303,1.7144566
LN-382,-1.0238929,0.21605372,0.5301052,-0.23643827,-0.19082367,-0.06575464,-0.8350255,0.22758874,0.12358913,-0.3509385,-0.03956784,0.4302505,-0.5610728,-0.37828007,0.46901008,-0.10617809
639V,5.050021,0.28762367,-1.6671885,2.1916401,-0.27168155,-0.42354736,4.7997565,-2.222476,-2.5225692,3.3798585,0.011521921,-1.4486496,2.147602,0.64129496,-3.774558,-0.026929308
NCI-H82,-0.39026535,-1.5510467,-0.00068591535,-0.15587628,0.44246274,-1.2001235,-0.808374,1.7985187,0.21745476,-0.7681983,-0.4738134,-0.18372008,-0.5432852,0.5896193,0.79804194,1.0852675
COLO 320,1.3807714,-0.70064175,-1.3925015,-0.11130205,0.28460163,0.95092404,0.58169854,-0.823671,0.5004043,-0.027176976,0.12484666,-1.2881246,1.0331719,0.4184999,-0.41850317,0.92124313
U-118MG,-1.1360312,0.26020378,0.47546875,-0.16999616,0.0038121268,-0.105044045,-0.67871463,0.23179309,0.102753036,-0.32772002,-0.00018606149,0.43091083,-0.48244417,-0.34086412,0.8234104,-0.2843327
AZ-521,0.2522092,-0.5495403,-0.10773157,-0.35988843,0.23781335,0.022870436,-0.43190646,0.15512118,0.5113083,-0.32049477,-0.0249898,0.09621066,-0.041022822,-0.11635843,0.27804825,0.39791498
TE 617.T,1.7660881,-1.90149,0.1726172,-1.0466644,0.23041129,-0.92467284,-0.8028703,0.87387055,0.50984,-1.1453371,0.9388399,-0.25642097,-0.2687577,0.17119576,-0.33300692,-0.3635462
NCI-H1648,-0.95303375,0.22230616,0.40024439,-0.13059619,0.09990569,-0.01616826,-0.7607328,0.10644302,0.14663582,-0.23384526,-0.019466773,0.48502085,-0.42120278,-0.32687435,0.8090437,-0.24633959
SUP-B15,2.5783446,-1.5654179,-2.0112848,-0.39144436,0.42875922,0.8301623,1.0086707,-0.95510614,0.88704205,-0.12319625,0.15044472,-1.6740096,1.487499,0.68209815,-0.780167,1.5412658
OE19,0.2018685,0.463388,0.78828514,-0.7571889,-1.2392027,-0.48342928,-0.20970283,-0.15424657,0.50240946,-0.015067398,-0.31991494,1.8960832,-0.71495396,0.07748151,0.24264893,-0.5562726
NCI-H1435,2.5239477,-2.3041005,-0.45627666,-0.32410595,-0.09208945,-1.5153091,0.15572664,2.3687067,-0.07375209,-0.9231415,0.3725207,-1.5264647,0.65470463,1.8333743,-0.21448666,1.2433689
SW1463,5.388749,-2.9946043,-1.3794447,-0.117096156,0.234198,-1.4768454,1.92706,-0.42673206,-0.16776302,0.7967853,0.2094145,-0.4026135,1.2928184,0.1880695,-2.9643457,1.0781045
HCC33,-1.0819615,0.19430467,0.46341577,-0.0260633,-0.026730612,0.021420058,-0.90923274,0.2044333,0.1462012,-0.2488212,-0.007805841,0.44501185,-0.5723084,-0.33156493,0.8600253,-0.050957695
BC-3C,1.3553995,0.37781227,0.04051405,0.31903148,0.70267034,0.45551237,-0.30112627,-1.4876463,-0.81919736,0.52185965,1.5680192,-0.81199956,-0.20533578,-1.774843,-1.5473334,-2.1737452
T84,3.3357036,-0.3938035,-1.815633,1.6208223,1.3488351,0.3295813,2.295595,-2.6270838,-1.2410256,1.7063462,0.21983719,-1.2300091,1.1725533,-2.1218817,-3.6183834,0.033352915
Ri-1,-0.8262502,0.2732503,0.43744612,-0.14408253,0.026461896,-0.018451734,-0.8422849,0.17371227,0.08757012,-0.27683443,-0.026022691,0.41260797,-0.5296152,-0.3375799,0.68844724,-0.3901825
LS411N,-0.30457148,2.331395,-0.40192991,1.4420025,-2.4838715,0.24811909,3.4252088,2.857746,-1.4846988,1.0818511,-0.50770533,-2.2355666,2.302746,4.8514643,0.5259549,0.9374137
NCI-H747,2.3082693,-1.2923222,-1.7177527,0.3740984,0.60682774,0.2775746,1.2610967,-1.3533403,0.4390287,0.8004508,-0.5545647,-0.52198637,1.1291364,-0.35470644,-1.670147,1.6544435
CAL-12T,-1.4766957,1.0013844,0.45575854,-0.2324393,-0.522161,0.680561,-0.6011429,0.84575397,-0.006810097,-0.6624336,0.5380457,-0.55786353,0.023540884,0.8340864,0.7762927,-0.7904665
KLM-1,1.0596517,-1.2160698,-0.4761399,0.15998699,0.60092854,-0.6590576,0.39936432,-0.7199471,0.33989874,0.43713957,-0.7462715,0.7853917,0.02260591,-0.9080874,-0.9169107,1.0463401
ZR-75-1,-1.4439969,0.36190903,-0.10952078,0.83924216,0.69318163,0.08165608,0.061621718,-0.04664571,-0.20369658,0.4008346,-0.84400326,0.15056252,-0.14978324,-0.3402298,0.28631103,0.79331815
Caki-1,-0.39315924,-1.5106728,0.3248242,-0.3664266,0.55966556,-1.2391526,-0.43238384,2.0763965,0.21949533,-0.8032516,-0.4469036,-0.11511814,-0.45709017,0.60342115,0.88294494,1.1080799
NCI-H1793,4.264821,-2.845498,-2.2827513,0.2126155,1.0815729,0.098088324,1.298505,1.250751,-0.5282316,-0.20875886,1.2873051,-4.70071,1.8707154,2.070727,-1.4356074,1.3234882
A-498,2.704499,-2.4168575,-0.46978894,-0.40808094,0.5087933,-1.3583721,0.30464095,-0.2611744,0.45965543,-0.034469225,-0.2964536,0.62644017,0.04096876,-0.69035524,-1.3577731,0.961516
